<?xml version="1.0"?>
<MethodSetup Method="MLP::MLPTuned">
  <GeneralInfo>
    <Info name="TMVA Release" value="4.1.2 [262402]"/>
    <Info name="ROOT Release" value="5.32/00 [335872]"/>
    <Info name="Creator" value="ineuteli"/>
    <Info name="Date" value="Thu Nov 26 21:29:30 2015"/>
    <Info name="Host" value="Linux cmsdev02.cern.ch 2.6.32-431.11.2.el6.x86_64 #1 SMP Wed Mar 26 09:39:43 CET 2014 x86_64 x86_64 x86_64 GNU/Linux"/>
    <Info name="Dir" value="/shome/ineuteli/phase2/CMSSW_5_3_24/src/Delphes/plots"/>
    <Info name="Training events" value="33424"/>
    <Info name="TrainingTime" value="5.13504752e+02"/>
    <Info name="AnalysisType" value="Classification"/>
  </GeneralInfo>
  <Options>
    <Option name="NCycles" modified="No">500</Option>
    <Option name="HiddenLayers" modified="Yes">N+10</Option>
    <Option name="NeuronType" modified="Yes">tanh</Option>
    <Option name="RandomSeed" modified="No">1</Option>
    <Option name="EstimatorType" modified="No">MSE</Option>
    <Option name="NeuronInputType" modified="No">sum</Option>
    <Option name="V" modified="Yes">False</Option>
    <Option name="VerbosityLevel" modified="No">Default</Option>
    <Option name="VarTransform" modified="Yes">N</Option>
    <Option name="H" modified="Yes">False</Option>
    <Option name="CreateMVAPdfs" modified="No">False</Option>
    <Option name="IgnoreNegWeightsInTraining" modified="No">False</Option>
    <Option name="TrainingMethod" modified="No">BP</Option>
    <Option name="LearningRate" modified="No">2.000000e-02</Option>
    <Option name="DecayRate" modified="No">1.000000e-02</Option>
    <Option name="TestRate" modified="No">10</Option>
    <Option name="EpochMonitoring" modified="No">False</Option>
    <Option name="Sampling" modified="No">1.000000e+00</Option>
    <Option name="SamplingEpoch" modified="No">1.000000e+00</Option>
    <Option name="SamplingImportance" modified="No">1.000000e+00</Option>
    <Option name="SamplingTraining" modified="No">True</Option>
    <Option name="SamplingTesting" modified="No">False</Option>
    <Option name="ResetStep" modified="No">50</Option>
    <Option name="Tau" modified="No">3.000000e+00</Option>
    <Option name="BPMode" modified="No">sequential</Option>
    <Option name="BatchSize" modified="No">-1</Option>
    <Option name="ConvergenceImprove" modified="No">1.000000e-30</Option>
    <Option name="ConvergenceTests" modified="No">-1</Option>
    <Option name="UseRegulator" modified="Yes">True</Option>
    <Option name="UpdateLimit" modified="No">10000</Option>
    <Option name="CalculateErrors" modified="No">False</Option>
    <Option name="WeightRange" modified="No">1.000000e+00</Option>
  </Options>
  <Variables NVar="8">
    <Variable VarIndex="0" Expression="DeltaR_b1l" Label="DeltaR_b1l" Title="DeltaR_b1l" Unit="" Internal="DeltaR_b1l" Type="F" Min="5.14531255e-01" Max="5.80796385e+00"/>
    <Variable VarIndex="1" Expression="DeltaR_b2l" Label="DeltaR_b2l" Title="DeltaR_b2l" Unit="" Internal="DeltaR_b2l" Type="F" Min="3.31118584e-01" Max="4.68913269e+00"/>
    <Variable VarIndex="2" Expression="DeltaR_bb1" Label="DeltaR_bb1" Title="DeltaR_bb1" Unit="" Internal="DeltaR_bb1" Type="F" Min="2.93443263e-01" Max="5.25155687e+00"/>
    <Variable VarIndex="3" Expression="DeltaR_j1l" Label="DeltaR_j1l" Title="DeltaR_j1l" Unit="" Internal="DeltaR_j1l" Type="F" Min="2.60792673e-01" Max="5.09150839e+00"/>
    <Variable VarIndex="4" Expression="DeltaR_j2l" Label="DeltaR_j2l" Title="DeltaR_j2l" Unit="" Internal="DeltaR_j2l" Type="F" Min="3.54219049e-01" Max="6.81951332e+00"/>
    <Variable VarIndex="5" Expression="M_bb_closest" Label="M_bb_closest" Title="M_bb_closest" Unit="" Internal="M_bb_closest" Type="F" Min="8.52508640e+00" Max="3.20542749e+03"/>
    <Variable VarIndex="6" Expression="M_jjb_leading" Label="M_jjb_leading" Title="M_jjb_leading" Unit="" Internal="M_jjb_leading" Type="F" Min="3.50392456e+01" Max="3.57552979e+03"/>
    <Variable VarIndex="7" Expression="M_blnu" Label="M_blnu" Title="M_blnu" Unit="" Internal="M_blnu" Type="F" Min="8.34304733e+01" Max="2.96904517e+03"/>
  </Variables>
  <Spectators NSpec="0"/>
  <Classes NClass="2">
    <Class Name="Signal" Index="0"/>
    <Class Name="Background" Index="1"/>
  </Classes>
  <Transformations NTransformations="1">
    <Transform Name="Normalize">
      <Selection>
        <Input NInputs="8">
          <Input Type="Variable" Label="DeltaR_b1l" Expression="DeltaR_b1l"/>
          <Input Type="Variable" Label="DeltaR_b2l" Expression="DeltaR_b2l"/>
          <Input Type="Variable" Label="DeltaR_bb1" Expression="DeltaR_bb1"/>
          <Input Type="Variable" Label="DeltaR_j1l" Expression="DeltaR_j1l"/>
          <Input Type="Variable" Label="DeltaR_j2l" Expression="DeltaR_j2l"/>
          <Input Type="Variable" Label="M_bb_closest" Expression="M_bb_closest"/>
          <Input Type="Variable" Label="M_jjb_leading" Expression="M_jjb_leading"/>
          <Input Type="Variable" Label="M_blnu" Expression="M_blnu"/>
        </Input>
        <Output NOutputs="8">
          <Output Type="Variable" Label="DeltaR_b1l" Expression="DeltaR_b1l"/>
          <Output Type="Variable" Label="DeltaR_b2l" Expression="DeltaR_b2l"/>
          <Output Type="Variable" Label="DeltaR_bb1" Expression="DeltaR_bb1"/>
          <Output Type="Variable" Label="DeltaR_j1l" Expression="DeltaR_j1l"/>
          <Output Type="Variable" Label="DeltaR_j2l" Expression="DeltaR_j2l"/>
          <Output Type="Variable" Label="M_bb_closest" Expression="M_bb_closest"/>
          <Output Type="Variable" Label="M_jjb_leading" Expression="M_jjb_leading"/>
          <Output Type="Variable" Label="M_blnu" Expression="M_blnu"/>
        </Output>
      </Selection>
      <Class ClassIndex="0">
        <Ranges>
          <Range Index="0" Min="6.3454002141952515e-01" Max="5.7385263442993164e+00"/>
          <Range Index="1" Min="3.3501151204109192e-01" Max="4.6891326904296875e+00"/>
          <Range Index="2" Min="2.9344326257705688e-01" Max="5.2343888282775879e+00"/>
          <Range Index="3" Min="2.6079267263412476e-01" Max="4.5948905944824219e+00"/>
          <Range Index="4" Min="3.5421904921531677e-01" Max="5.9341149330139160e+00"/>
          <Range Index="5" Min="8.5250864028930664e+00" Max="2.5697993164062500e+03"/>
          <Range Index="6" Min="3.5039245605468750e+01" Max="3.0319150390625000e+03"/>
          <Range Index="7" Min="8.7269432067871094e+01" Max="2.9690451660156250e+03"/>
        </Ranges>
      </Class>
      <Class ClassIndex="1">
        <Ranges>
          <Range Index="0" Min="5.1453125476837158e-01" Max="5.8079638481140137e+00"/>
          <Range Index="1" Min="3.3111858367919922e-01" Max="4.5956711769104004e+00"/>
          <Range Index="2" Min="3.1863421201705933e-01" Max="5.2515568733215332e+00"/>
          <Range Index="3" Min="2.9905119538307190e-01" Max="5.0915083885192871e+00"/>
          <Range Index="4" Min="4.6050646901130676e-01" Max="6.8195133209228516e+00"/>
          <Range Index="5" Min="1.1225972175598145e+01" Max="3.2054274902343750e+03"/>
          <Range Index="6" Min="3.8923191070556641e+01" Max="3.5755297851562500e+03"/>
          <Range Index="7" Min="8.3430473327636719e+01" Max="2.4817348632812500e+03"/>
        </Ranges>
      </Class>
      <Class ClassIndex="2">
        <Ranges>
          <Range Index="0" Min="5.1453125476837158e-01" Max="5.8079638481140137e+00"/>
          <Range Index="1" Min="3.3111858367919922e-01" Max="4.6891326904296875e+00"/>
          <Range Index="2" Min="2.9344326257705688e-01" Max="5.2515568733215332e+00"/>
          <Range Index="3" Min="2.6079267263412476e-01" Max="5.0915083885192871e+00"/>
          <Range Index="4" Min="3.5421904921531677e-01" Max="6.8195133209228516e+00"/>
          <Range Index="5" Min="8.5250864028930664e+00" Max="3.2054274902343750e+03"/>
          <Range Index="6" Min="3.5039245605468750e+01" Max="3.5755297851562500e+03"/>
          <Range Index="7" Min="8.3430473327636719e+01" Max="2.9690451660156250e+03"/>
        </Ranges>
      </Class>
    </Transform>
  </Transformations>
  <MVAPdfs/>
  <Weights>
    <Layout NLayers="3">
      <Layer Index="0" NNeurons="9">
        <Neuron NSynapses="18">
          1.0774027051021076e+00 6.5713814842972718e-01 4.4693347370815634e-01 8.2362052841493805e-01 -7.7268125727368597e-01 3.3835492318283505e-01 -7.7456266857767764e-01 2.0252912995795461e-01 -1.0521571501682552e+00 1.0279527159865012e-01 -1.3328444852686022e-01 -4.0618486472991272e-01 -2.7187669014288209e+00 -5.3690268503163852e-01 -5.4487081820983452e-01 1.0954216637629273e+00 -2.5736913026509289e-01 7.3336935784134372e-01 
        </Neuron>
        <Neuron NSynapses="18">
          4.4795612501377013e-01 -9.1823183983037093e-01 -2.8055527540137265e-01 -2.8844310962899145e-01 4.7090409975099645e-01 -7.2286513469587421e-01 -1.4324023038900409e+00 -1.1250532125002530e-01 1.0898859849596343e+00 -5.9840420355662649e-01 -3.7493721960058829e-01 2.7290159204268610e-01 -1.1897709765345117e-02 1.5634583486028499e+00 -3.3621025294270407e-01 3.0383250536748457e-01 5.8096767860221588e-01 -9.1605647918178812e-01 
        </Neuron>
        <Neuron NSynapses="18">
          -4.0627201174726429e-01 3.6878717487690720e+00 -4.7178968919900349e-01 -2.6138252532441836e-01 5.4330387869548824e-01 3.7676367553010692e-01 3.4519881870350466e+00 -2.3028044822906565e-01 -1.7201188072962245e-01 -5.0329722763120632e-01 5.2415112877048387e-01 3.2584674013719078e-01 4.8709526004551085e-01 1.2808732088628352e+00 2.8694972113451356e-01 1.4324475967321801e+00 -1.4517952800825589e+00 3.4349431529369205e+00 
        </Neuron>
        <Neuron NSynapses="18">
          -3.3848839295878284e+00 -2.8770812407378072e-02 -4.6589008480374505e-01 -5.0199262506199316e-01 5.6742721232891724e-01 7.6004491063449453e-01 6.1420619184162495e-01 -1.9441531858375749e-01 -5.8441586226627373e-01 -3.2411333554945848e-01 -3.2672651198237146e-02 -5.6707067198277317e-01 3.1472621192357492e-01 -7.2538785392703919e-01 1.0967853768407312e-01 -7.7003637662357616e-01 -9.7789601179673014e-01 -1.9204647965191274e-01 
        </Neuron>
        <Neuron NSynapses="18">
          -3.2493202317958958e-01 -4.9832914925232552e-01 5.2725797344786463e-01 2.7122767344325993e-01 -6.0013360019845863e-01 -2.6810468196557031e+00 -9.5979657845214367e-02 -3.6544767762004798e-01 1.4150294281201179e+00 1.4377835219769272e-01 1.7358271258818994e+00 -5.4522940229449479e-01 2.4922918381184833e-01 6.3583380302868767e-02 -1.3125166436408978e-01 -1.0135996403195553e+00 -1.6316459867403124e+00 -3.9726739138258327e-01 
        </Neuron>
        <Neuron NSynapses="18">
          2.6531301228774329e-01 2.9991406717832616e+00 2.1305271407433044e+00 -2.0493808320156464e+00 -7.4228758685756524e-01 1.5725343158957352e+00 2.1946035516228318e-01 -1.5429958901142149e+00 -1.2138525794021646e+00 -2.3010286339628469e-01 -2.7373810780145864e+00 -1.6337902518538419e+00 3.4024697998527442e-01 1.8293712576597621e+00 -7.0699335845733235e-01 1.8142267685452256e+00 -3.5903948333847913e-01 -4.4544217189795905e+00 
        </Neuron>
        <Neuron NSynapses="18">
          7.8948418043157431e-01 2.2026963478789163e+00 -8.9309099137628345e-01 1.2717795948142849e-01 2.3932850590262977e-01 -6.2684458508237140e-01 5.4532009697960815e-01 3.3940027801288566e+00 -1.8419715198439424e-01 -8.2739980297806115e-01 4.7752266484314032e-01 -1.1050483865910425e+00 -2.1838382292274368e+00 6.0888933180994775e-01 2.5641634086069787e-01 1.2352512349715516e+00 1.1898620611844417e+00 2.1805545616149571e+00 
        </Neuron>
        <Neuron NSynapses="18">
          -7.8496185192329448e-01 1.0009621875396708e+00 -1.2472622143607568e+00 1.1403579290264980e+00 -7.2027011754290188e-02 -9.6496328048992797e-01 -1.8188628750518983e+00 -1.8059586611615102e+00 -6.9616899834586887e-01 4.2922156087507735e-01 -1.0773479122288199e-01 -1.6382318504136588e+00 8.0602793074702117e-01 1.5813628331761354e+00 2.1269565944214386e+00 1.4788346381453768e-01 -8.8342338198960846e-01 3.3406253080002055e-03 
        </Neuron>
        <Neuron NSynapses="18">
          -2.6921555343717389e+00 8.2105952720032871e+00 -1.5999607944454305e-01 -1.1172329287710734e+00 -2.2334387673173639e-01 -1.8364722969129958e+00 3.1204929902463646e-01 -4.7356289890835196e-01 1.9400659973801173e+00 -1.0345014934893588e+00 -1.8399409400109852e+00 3.3621235163439328e-01 5.2649747006810987e-01 -1.5565172593420248e-01 1.0499834576688833e+00 -1.4304250113830839e+00 1.0708160759881358e+00 4.8525476870641343e-03 
        </Neuron>
      </Layer>
      <Layer Index="1" NNeurons="19">
        <Neuron NSynapses="1">
          3.0144089908909216e-01 
        </Neuron>
        <Neuron NSynapses="1">
          1.0202609513999585e+00 
        </Neuron>
        <Neuron NSynapses="1">
          1.1952004896769175e-02 
        </Neuron>
        <Neuron NSynapses="1">
          2.2706784919081566e-01 
        </Neuron>
        <Neuron NSynapses="1">
          1.0499966739102934e-01 
        </Neuron>
        <Neuron NSynapses="1">
          2.5346225449389181e-01 
        </Neuron>
        <Neuron NSynapses="1">
          -2.0723811693493499e-01 
        </Neuron>
        <Neuron NSynapses="1">
          1.3999566991658191e-01 
        </Neuron>
        <Neuron NSynapses="1">
          1.1662136408132915e+00 
        </Neuron>
        <Neuron NSynapses="1">
          2.9360883799520218e-02 
        </Neuron>
        <Neuron NSynapses="1">
          2.5125349715839901e-01 
        </Neuron>
        <Neuron NSynapses="1">
          1.4241387036534341e+00 
        </Neuron>
        <Neuron NSynapses="1">
          2.5092243491377320e-01 
        </Neuron>
        <Neuron NSynapses="1">
          2.1724267685899312e-01 
        </Neuron>
        <Neuron NSynapses="1">
          -2.0454199451947311e-01 
        </Neuron>
        <Neuron NSynapses="1">
          3.9012965697631352e-01 
        </Neuron>
        <Neuron NSynapses="1">
          -1.0016127704064357e-02 
        </Neuron>
        <Neuron NSynapses="1">
          -9.9731579530980052e-01 
        </Neuron>
        <Neuron NSynapses="1">
          -1.3770163032346594e+00 
        </Neuron>
      </Layer>
      <Layer Index="2" NNeurons="1">
        <Neuron NSynapses="0"/>
      </Layer>
    </Layout>
    <InverseHessian NElements="32761" NRows="181" NCols="181">
      <Row Index="0">
        4.1758389401572393e-01 -1.9391382069803564e-02 4.7548270912700996e-01 -2.8010983783037702e-01 -6.4198001991733950e-02 -7.8354195932010290e-02 -1.4654689871663632e-02 1.1601829549558400e-02 -7.8930079333444447e-01 -8.2124926672071585e-01 1.0062836076623141e-01 -9.6753929655067417e-01 7.6791537395868831e-02 4.3875563725324795e-01 1.9125559813804294e-01 2.4949219432351777e-01 8.9673616116256927e-01 -3.0008206967530201e-02 -1.0800884657858917e-01 1.3849809144064985e-02 2.1481700033309536e-01 4.6185105118910656e-02 1.5576159214217969e-01 5.7722515898653182e-02 -9.4381472504677794e-03 -6.3685361980873406e-02 8.4560929654007755e-01 1.3421712247824464e+00 -7.8058076282298466e-02 1.1113823757953520e+00 3.9888168298418861e-02 -3.0128485553203976e+00 7.3843820986184069e-03 -3.7524314190838615e-01 -8.9279113925528164e-01 2.4330570950763783e-02 -5.7158543895962838e-02 -9.6896501234918116e-03 -1.2804397247978008e+00 1.1810338129296762e-01 6.2999266266525578e-02 7.0257879314717026e-02 1.8227611903778723e-03 6.6606197461335087e-03 -4.9303013422892961e-01 -1.1327792568175310e-01 -1.0710354918780871e-02 -8.3777006793731279e-01 -2.9138025356110944e-02 -2.9255420584828329e+00 -7.6857791397122871e-02 -2.5912872387049779e-01 8.2503129833296995e+00 -4.5336450018327460e-03 -2.6541055542896957e-01 9.9531685235809859e-04 -9.8536193751756596e-02 1.1105450045198176e-01 -5.0352554674435968e-01 1.0828470195867620e-02 -3.2628293898569090e-03 1.1583604443335226e-01 -1.5804984861931312e-01 -4.7558231332193890e-01 2.1520069892638310e-02 7.8323342816400832e-01 1.7608722793428774e-01 4.8118040711651222e-01 -6.1899507825914815e-02 4.4910145789453315e-01 1.7829331982430925e+00 1.1680831290819368e-02 2.2805027192328020e-02 -7.5758085746962037e-04 1.1948692836836481e+00 -5.4258126904393744e-03 -2.1558379240937819e-01 -1.1560801236198480e-01 -2.2775929271915765e-02 1.8890390046359257e-03 1.2671078069273822e+00 2.2809346938589481e-01 1.1889776893738949e-01 -8.3828234915053468e-01 -1.1489331567424044e-02 -4.6761267046047550e-01 5.2169126318361889e-02 -2.8106986480729601e-01 6.4067593996327812e+00 -1.3267997681882540e-02 -1.1846436656479553e-01 -7.6842182961030514e-02 8.9359900455252994e+00 -5.3736751543768710e-02 1.7727111651245631e-02 -5.8802142495778267e-02 1.2989600304487592e-01 2.3094222089171335e-02 -1.2262459949578639e+00 5.0086631582529684e+00 -1.4499639694041994e-01 3.1460024675455189e-01 5.5944601296824117e-02 -4.8981641341184732e+00 -1.4695999784392772e-02 1.9258982867073060e-01 1.4795583273237318e+00 3.8524114207101515e-02 1.1172849794711130e-01 6.2447301620963125e-03 -2.9246690066517220e+00 1.0413103813942781e-02 -5.2184224605181850e-02 -8.1152730998744330e-02 -1.9121120067518149e-03 -2.2740781355584821e-01 -1.8040379929695405e-01 -2.7437772796273524e-01 -1.6771884112802421e-02 8.7180357911150619e-01 1.4205095344423913e-01 -9.7797576498913852e-02 -1.0712138696738778e-01 -1.4206273023051452e-01 -3.8093259409678808e+00 2.3476152377148243e-02 -6.9030001548894437e-02 8.6975002959179277e-03 -3.9566284945582364e+00 1.4683473811354952e-01 -9.6813793438624651e-01 -1.5894999254027056e-01 -6.0712861449541841e-02 1.3760885598757261e-01 -5.1351378146576976e-01 -7.1325687452972386e-01 -2.9767495032194585e-02 8.6658877389000066e-01 -5.0969013461342486e-02 -6.1974503552152056e+00 -1.0559116287684969e-01 -3.7608475053704904e-02 2.3312115967076767e+00 7.0099107698174713e-03 -2.7323707930682750e-01 -6.8058905340655951e-02 3.1157850133686993e+00 1.8912287360258334e-01 -1.0823183206882008e+00 -2.8871636033261894e-01 5.1990360278341023e-02 8.1010606696823861e-03 -1.9750316377943355e+00 4.4947699059436630e+00 -1.5026865817354154e-01 1.3975694413265924e+00 1.6976358300082223e-01 -7.5917011520014359e+00 -1.7809115353439864e-01 9.1740114137662587e-02 -2.8420106538825216e+00 5.8519603365049258e-02 -2.2711847961046094e-02 1.6865357359764722e-02 -9.4541572820062258e-02 4.6915917924358667e-02 -6.0230240383191129e-02 -3.0552551283487994e-02 2.6853479784389664e-03 1.7673456199685092e-02 -6.1636425664660992e+00 3.4141188223945393e-02 -2.3114393751645267e-02 1.9339444753417316e+00 2.4635859547500978e-02 1.4353972550143641e+00 -4.6703506535840066e-02 4.6908369518290874e-02 -5.7745743553362573e-02 -1.5268076318594011e-02 5.6502531636831792e+00 
      </Row>
      <Row Index="1">
        -1.9391381951794361e-02 3.3414068027621180e-01 -1.9596322601545075e+00 -5.4891084982735511e-02 3.1605988581630595e-01 -2.9476393016203698e-02 -3.5481263683561443e-02 5.1936969861125226e-02 -3.1728805200196872e-02 2.4574807116826336e+00 -5.4690978978276752e-02 8.6066834282406390e-01 -1.4343919442609331e-02 -2.1612260341990019e-01 -3.0381920978137034e-01 -4.9350491947734554e-02 4.6857929543368382e-01 3.3446759202530674e-01 1.5207322959685798e-03 -1.9942733299124119e-01 3.0270410775597898e+00 7.1928603090381335e-02 -3.6021445372769706e-01 -9.3001345586544090e-03 2.4290910700135740e-02 -5.1217782036748719e-02 8.7297505757116367e-02 -6.1943494435449842e-01 3.7182984322395397e-02 -9.6229455431021904e-02 2.3034977831643696e-02 1.0748686970832533e+00 2.0428185885888325e-01 -1.0535795130608014e-01 1.7811624987385621e-01 -1.9441366554154343e-01 5.1844695417230177e-03 1.8874452825786241e-02 4.9410926254795777e+00 -8.5993461333915167e-02 -2.7302501147145031e-01 2.6220173443006960e-03 4.7414189025954026e-02 -3.4442016266891695e-02 5.0052382567389475e-02 -3.0275474113577943e+00 3.2645887467880053e-02 -1.1286674561601475e+00 -4.5588279748301087e-03 1.3261529644581991e+00 2.9973369308194148e-01 -2.2851955682370928e-01 -1.3503108444232859e+00 4.6034058971879413e-02 1.7683299710514036e-02 -6.6325430209272238e-03 -6.2672360453291631e-01 3.7624312842143799e-02 6.9124714830986284e-02 -1.2524983230468252e-02 -6.5850151190725266e-03 -2.2142011460857217e-02 1.2803704792375825e-01 -1.1199053692718397e+00 -4.1775254732997202e-03 -9.3452160003667961e-01 -3.4201828022401709e-03 -1.0120150477834671e+00 2.3024588572479623e-01 1.2994144335993868e-01 -3.8170205123652723e-01 -1.0175558468528099e-02 5.0873993981256777e-03 -1.4100031571519603e-02 8.9718901327609202e-01 -5.5609346810505361e-02 2.6635483765538126e-01 4.3513564328423883e-02 9.5434761097928610e-03 1.0206304083537940e-02 -1.6930825084775170e-02 6.5078700265116329e-01 2.6991426036850230e-02 2.1282930229415409e+00 -1.3772960344232473e-02 -3.8455365696354171e-01 -1.6393098309612639e-01 1.5815502236793333e-01 -1.4861427655614396e+00 -1.2279865902238001e-02 -4.9395835874298771e-02 1.4296576750607787e-01 2.1764542106076910e+00 9.1288882272263228e-02 7.2516837764512410e-01 1.3668191048845715e-02 -2.4249853880618408e-01 1.5238581871033496e-02 -3.6626691766259539e-01 6.3534082088523380e+00 -9.7882079655634724e-02 1.1921914144465302e+00 2.1002846799698408e-01 1.2386708913951312e+00 1.9372371470997141e-01 1.5435935137158197e-01 -6.0072923049549320e-01 -2.0706554573507749e-01 -1.2290758740748330e-02 5.4037374386038922e-02 4.2490151572936004e+00 8.4058920695269101e-03 -2.9596608215322762e-01 -8.0733406878666716e-04 3.5461442429800476e-02 5.7995335915723575e-02 8.8418978347674648e-02 -3.8686688869183232e+00 2.6529416381152162e-02 -5.8262640007024524e-01 -1.7930301947002396e-02 1.3119921032317539e-01 3.5823195627132426e-01 -7.3908865155383113e-02 1.1590230128071299e+00 8.7831444395986419e-02 1.0912797594213455e-02 3.5452853441337966e-02 -7.2348744856399838e-01 -1.8038207106106202e-01 4.5877490374288332e-01 -5.3957496394536848e-02 9.6233238295702878e-02 1.9329708823666789e-02 2.2837335286990579e-01 -6.7876809736367756e+00 4.5555102309300412e-03 -1.3382760199851695e-01 8.2661955439427573e-02 2.3172014759716921e+00 6.2162081485181164e-01 -4.5745239508646407e-01 1.1051310378677730e+00 2.1730289329591763e-02 -2.8409850305253490e-02 2.3609653462249502e-01 5.8717139504927411e+00 -1.5890516686905221e-02 7.1754400821487474e-01 -3.2144082748667785e-02 -8.9518340765710511e-02 4.7796637516991980e-02 -1.0246045799381422e+00 -3.4896342513809184e+00 -4.5969919653394552e-02 1.8685238884279076e-01 2.4583404396112496e-01 3.0548570897955987e+00 1.0888197077872093e+00 -2.5361965355122584e-02 1.8164864993969800e+00 -6.4429979450416119e-02 3.6891088190664934e-03 -4.2912366740935556e-02 -4.3879954658701641e-02 3.2901259689688891e-02 4.6260103770540462e-02 4.4869559691140468e-03 1.1482745488843741e-03 -6.0198084198758604e-03 -2.4469968574115679e+00 -9.9750956138633426e-02 -3.4701541291043275e-03 -9.2359924506808755e-01 5.6804589368262669e-04 -9.8244090079139157e-01 1.3010712756108331e-01 3.1970316861775608e-02 1.2047127163290448e-02 5.4855357456593541e-02 2.3995195807068224e+00 
      </Row>
      <Row Index="2">
        4.7548271908042888e-01 -1.9596322549996796e+00 1.0784206903486451e+04 1.5584006795402453e+02 -2.3322885267833215e+02 -2.6437190034671037e+01 -1.4501256064853751e+00 -4.0883242478496058e+01 -1.2698612961437657e+02 -4.2303753258271871e+02 -1.6861181402602650e+01 6.2829211894323612e+02 1.3409950150087948e+01 -3.9216270470896040e+02 9.2266778209437561e+01 -2.4270561684505083e+01 6.8026299675085011e+02 -1.2376003262255639e+00 -8.9575812777792319e-01 1.3124605102993883e+00 -4.8364983582332397e+03 -7.6777594398663780e+01 5.1070903850736556e+01 1.8128880123012287e+01 -3.5431532582444936e+00 2.2672756755741091e+01 8.5406209370230499e+01 6.3873997338532206e+02 9.8871771626080935e+00 -1.1920061707150103e+02 -1.5556095808069479e+00 1.6704014544684060e+02 1.8756821820542047e+01 -4.5106147388517329e+01 -2.8809597403794965e+02 6.6751955007690000e-01 7.6051871861867626e-01 2.5848978079727143e+00 -3.4472957801924631e+03 -5.1348454358110473e+01 2.1892959823363100e+02 7.4431023347210807e+00 1.9327112585343649e+00 -4.4134068440062828e+00 -3.8172420756499278e+01 2.9801304146820178e+02 4.8652332284284494e+00 -1.7056673633123410e+01 -2.1547717963404498e+00 -4.1375643665357507e+02 -3.1008482186236627e+01 -4.7575782704867720e+01 -3.2458643062361023e+02 1.5406830575211536e+00 -9.4799319407115368e-01 1.1320282027414392e+00 -3.8643193083060883e+03 -8.5428926549853358e+01 1.7162331419949979e+02 -3.0482848984148996e+00 1.7092240182842109e+00 7.9411102582222028e+00 -3.1930400329278427e+01 -1.1481763880244654e+02 -3.3104275019716383e+00 -2.7101971856990735e+02 -8.3959234915593228e-01 2.9662639058566924e+02 -4.7155059442435210e+00 6.9218038234061851e+01 1.8320125515501354e+02 2.0904856604138202e+00 1.1132071349090764e+00 -1.1380828918982950e+00 3.3941959951021222e+03 2.1094728417860857e+01 -1.6895533147156152e+02 2.3085294588843812e+00 1.1526808350933297e+00 -1.4401774372438894e+01 2.0901025644537646e+02 2.6756420972946898e+02 5.1860349013232714e+00 8.6322149972035697e+02 -3.5203265416007534e+00 1.2130834760076095e+02 1.1880611563722541e+01 4.8356596968960730e-01 -2.6322916730654367e+02 -1.7161442483255511e+00 -9.1914685604921260e+00 -2.2428469581282112e+01 -7.4939064588607807e+03 -1.3677245806959090e+02 -2.6100913787404152e+03 2.7950412704452344e+01 -3.7816976607952171e+00 9.5943913174521697e+01 -7.7133777326173401e+01 2.5911133079127339e+03 1.8711909021265001e+01 3.1275604402493911e+02 -2.9685481083373517e+00 -1.5484753230716308e+02 2.2349668429973812e+02 1.5287255100121001e+01 -1.0810880153275978e+03 1.5073841231394105e+01 7.9190408465506463e+00 -3.5133221995750339e+00 4.6248956108575576e+03 -1.2196833562665445e+02 1.2548265595031176e+03 -1.9123546270727282e+01 -2.0981605297509489e+00 5.8751284393343212e+01 -1.6487652146561800e+00 -2.7417690488779800e+02 -1.2967854057508696e+01 5.4248037420558120e+01 1.3556717017482157e+01 5.1210560690709826e+01 2.6016708728327721e+01 -7.2443464687963854e+01 1.0742010954305815e+03 -4.7840825549894035e+00 4.5362945067906484e+00 -3.7093258958381412e+00 8.1641840297724466e+03 -8.8121932478041813e+01 2.3574888818147233e+03 -3.0014143785253989e+01 -1.5148238795245810e+01 -1.1991629378066422e+02 -7.1296413639768502e+01 -1.3300448268799082e+03 4.3241963977911997e+00 1.0583996375330071e+02 1.8544533054467472e+01 -1.0806121114481693e+03 -2.3358977882410582e+02 7.4025467243773022e+01 6.4370820125880914e+02 4.5818092342539973e+00 2.1552330148419685e+00 -2.6024923255792828e+01 2.0253247141743450e+03 -4.0143199017231757e+02 9.1002776204794475e+02 -1.3126258548167073e+01 -1.7496257670174401e+01 2.9916672802053615e+01 3.5548110195211609e+02 1.2847471121758845e+03 1.2275898238301380e+01 3.5102915852596311e+02 2.3486794860519609e+01 -2.0323256789836523e+02 5.2955707019319192e+01 9.5162581009926100e+01 4.2474709646765859e+02 1.5419399343789397e+01 -1.4032651736881485e-01 5.2790975842401053e+00 1.2818842309531607e+02 -7.2084178524666655e+01 1.5554910475219376e+02 -1.4875920697517984e+00 6.3954367333560569e-01 -5.9728854689884496e+00 4.0153234630248767e+02 3.9842851806501770e+01 2.9505810977453950e-01 4.2385830026480210e+02 4.3845114271941341e+00 -1.7080015045509032e+01 -4.4495409933665286e+01 3.5843411897426478e+01 1.7242182847246568e+00 -5.7450830666876787e+00 -8.2851533679504269e+02 
      </Row>
      <Row Index="3">
        -2.8010983799114231e-01 -5.4891084825734918e-02 1.5584006802330825e+02 2.0394780996374177e+01 -4.0467560796022866e+01 -4.5990599393633430e-01 3.7128420527992551e-01 -6.5404221505793381e-01 -5.3041625417196236e+00 -5.6077725920073966e+00 -6.3528257232194951e-01 7.5459848442193476e+00 1.0895903763555705e+00 1.9150790837660523e+01 2.0370022399084968e+00 2.3837972369437921e+00 2.2381682428604108e+01 -1.0045222309642109e-01 3.4679837925352647e-02 -8.2533188638365118e-03 -8.6552433672485051e+01 -5.6699986557173236e+00 1.4960314029689162e+01 5.1099869645615170e-01 3.4199038490746368e-02 1.0187522040513775e+00 9.3070727586761759e-01 3.6801753886772545e+01 6.5970491493236982e-01 -4.3575258188982033e+00 -1.1331455107412701e-02 -1.9999154573249875e+01 2.9760520537305100e+00 -3.3963663536660302e+00 -1.4015508135021243e+01 -3.0839249486832254e-02 6.6687670708361152e-02 1.8360579708456920e-01 -1.1145036700406966e+02 -3.9529191277335829e+00 1.8708246950782886e+01 5.1420810263732908e-02 -1.8445912138532755e-01 3.6518281294102545e-01 6.6930542922703395e-01 3.1028687026063736e+01 6.1823990990299493e-01 -1.7633392112418285e+01 1.3058027570909470e-01 -2.4339686990167053e+01 -1.3799652029294878e+00 7.1833786193039373e-01 -1.1527437131904335e+01 2.8584667022458610e-01 3.2021285105211933e-01 -9.4646267034857560e-03 -1.4621476996405008e+02 -7.4741804421948057e+00 2.1609817416606063e+01 1.0605398461782756e-01 -4.8791057418951130e-02 3.2775965501086740e-01 2.0072536121525753e+00 2.4480583683422683e+00 -7.4538173557744947e-04 1.4012695385585655e+01 -1.9711273500251777e-01 2.7789466189721395e+01 1.4960301232369706e+00 -1.6417958950911418e+00 -8.3669688645803006e+00 4.9296038520599508e-02 -1.0800330116841261e-01 -3.7763522206682339e-03 1.3915007551227231e+02 3.7731081359979397e+00 -1.8627976724527734e+01 8.7782404937557623e-02 -6.6032271722496538e-02 -3.2093302898435094e-01 2.2514813929228921e+00 -1.1317573464997372e+01 4.2339299999853108e-01 1.6643908902047972e+01 -3.4209667178411862e-01 -1.3938137938729099e+01 -3.3870203690454126e-01 -4.8108017513239467e+00 -2.9868414477991365e+00 -2.4865171062007363e-02 -7.4401834772817210e-01 -5.7260592318344461e-01 3.9819169955359621e+02 -2.5361305950887498e+01 -1.4998519221778768e+01 1.2923759494701512e+00 -1.0002953444159157e-01 1.3686583091068449e+00 2.3848849340182792e+00 -1.2827164855333950e+02 -1.5824765898110067e+00 2.6103923192926906e+01 -3.7948496650752794e-01 -3.8713235981208896e+01 9.1673109044571586e+00 -3.1227490251700019e-01 -3.0479828497207670e+01 -5.8853598525356876e-03 3.4692704495247750e-02 1.0296467918991720e-02 -2.4649231126580929e+02 3.3408338801594746e+00 6.0586526267854035e+00 -6.3930733286709085e-01 -2.8165138303794413e-02 5.9499605030231706e-01 1.1955080660588178e+00 2.0758920434803898e+01 1.0545349170303264e-01 1.6484324300931064e+01 1.0123477585471066e+00 6.9859104415275830e+00 2.0085792906609341e+00 -6.5459795260409681e-01 1.0516072339614244e+01 6.1617580277685866e-02 -1.8623947413648656e-01 2.1894900506967432e-02 -2.6494823868355098e+02 1.0119431010630693e+01 7.4318264514050458e+00 -1.1004858000806601e+00 -6.4008826392900608e-01 -9.4514600421342343e-01 2.0557649798380089e+00 4.1371362961653688e+01 2.2929226777160649e-01 1.8923978694486458e+01 6.5537323529289748e-01 -3.4478650939599440e+01 -1.2606064823219450e+01 5.2635716888356399e-01 -5.4403452143810682e+00 3.8894979267971030e-02 -6.8772748268521233e-01 -4.0673057360512743e-01 -1.7079082310638339e+02 -1.5169734193238725e+01 9.0587066900625430e+00 -8.4470065503907232e-02 -8.1816411876512785e-01 1.2532681894937607e+00 2.1562042591159553e+01 -4.0557233008981328e+01 -7.1379918171651369e-01 2.4995680450196303e+01 2.4004343342706669e-01 -2.7050675450643809e+01 1.9021012041157217e+00 -7.6766593099330578e+00 -2.8706025865831691e+01 2.9377181915735617e-01 4.2688457191476820e-02 6.7077171844422162e-02 -7.5291523566101031e+00 -7.5885477291424568e+00 -8.9826417860414072e+00 -8.5673699751143140e-04 -2.7549966529945735e-02 4.3567300601697619e-02 2.7357737105409530e+01 1.8735808027067604e+00 -1.4715320232494628e-01 3.6491709337642888e+01 1.3981892858379652e-01 9.5815540750728019e+00 -2.6981201792054534e+00 -2.2676752880614703e-01 3.7268779094868698e-02 -6.2929074567984133e-02 -5.5773477142142958e+01 
      </Row>
      <Row Index="4">
        -6.4198000336385966e-02 3.1605988775064531e-01 -2.3322885262655990e+02 -4.0467560799232423e+01 2.2576314579759327e+02 4.1536967789895805e+00 1.3140480054780773e-01 2.5593746639144155e+00 3.0903995809222497e+01 1.2984627271274971e+02 3.6749514257122700e+00 -4.3198801434705274e+00 -3.0461905031058656e+00 -1.0488482873674504e+02 -1.2006528223280529e+01 -2.9805848732894447e+00 -1.1174081306654534e+02 1.3431864799967358e-01 -8.4560277544197371e-02 -2.3987050133864685e-01 3.9720057633807798e+01 1.7554555390894279e+01 -8.2505988263899525e+01 -2.4234827461225144e+00 1.8709497169847239e-02 -2.0566075391144869e+00 -2.5546605173245364e+01 -8.0526561526313163e+00 -9.5923341802271422e-01 2.8453666096633512e+01 5.6911934666434338e-01 1.1840461334319701e+02 -5.8736912855609651e+00 7.7662592985584862e+00 6.1100855252632485e+01 -2.6932274473320716e-01 -7.2259904218705429e-02 -4.8272287395279867e-01 2.5447344944888329e+02 1.1592814926274393e+01 -7.0429652628037047e+01 3.0337267603253171e-03 -1.1274321404607202e-01 -1.7186830877700419e+00 -2.2104624823528668e-01 -4.5696836804579803e+01 -3.0331247637193517e+00 8.7151145036879043e+01 -3.9510991421845776e-01 6.0417075443084428e+01 5.5603369899520079e+00 -3.2212310301014782e+00 7.5085340895856234e-01 -1.9201230299090877e-01 -2.5004065669042486e-01 5.6706051432187460e-02 2.4585050187549331e+02 1.7809502945673842e+01 -8.8438703342919013e+01 1.0098204508744613e+00 -2.1346823705802642e-01 -1.5617783242925638e+00 1.2344559810179419e+01 -5.2715817727657139e+01 -5.9465338314815963e-01 -1.4511103331049560e+02 -8.3089533262957471e-01 -7.4986731608052850e+01 -1.7083388456636690e+00 -6.5787019047653850e+00 1.6537160084613859e+01 -1.3509065548314325e-02 4.6578903320507070e-02 -8.5453065435254341e-02 -2.1474990476326002e+02 -1.2936283951976513e+01 8.0178194279669015e+01 1.0736643767578813e-01 -7.5559622138945404e-03 2.5938516043387150e-01 -4.8827892256689708e+01 1.0717149069392202e+02 -3.8002890444032582e+00 6.5900665637389579e+01 1.9621064474050400e+00 4.1107580888025353e+01 2.7359285516833447e+00 2.4307738233656096e+01 -3.5524771097835476e+01 -2.7390292682245743e-02 1.6001593638178835e+00 -1.4003242828256002e+00 -2.7859692713167278e+03 4.8725820411508295e+01 -1.6231106381029053e+02 -6.8337816407239482e-01 -4.8308952246240837e+00 -2.0705773981103759e+00 2.4345420080498283e+01 3.3313167337200917e+02 9.4265134262665526e+00 -7.3007797869844836e+01 5.6968776887109396e+00 1.2484415181125132e+02 -2.4761546496259076e+01 1.6750795329090487e+00 8.2061027440590948e+01 1.1308894837572545e+00 2.1197349199681148e-01 -6.4308715856359111e-02 1.4339465470847417e+03 -5.3902295627195489e+00 1.0557865195144302e+02 3.0651126287906418e+00 2.0866378022951437e-02 8.3554292437369782e-01 -4.4513674600517774e+00 1.8566325222308882e+02 1.2078266030626001e+00 -8.6977672525806980e+01 -2.1722404874516155e+00 4.6157003968255594e-01 -6.9758982755962435e+00 -2.8702913281308753e+00 9.5237225870808402e+00 -3.0188181199335884e-01 1.6283318041439752e+00 -2.0660406513213297e-01 2.3159912924137720e+03 -3.7084146431217903e+01 2.0965011717107220e+02 3.4593617265226762e+00 2.8385004339298483e+00 -5.3622062766068757e-01 8.7957188653806426e+00 -1.0690179429560004e+02 5.5880972253682639e+00 -9.7055156097418319e+01 -2.8771536061569982e+00 5.6578659908405996e+01 2.8411613512098942e+01 1.5812305178239541e+01 -2.5002115411686788e+01 5.7584574040220649e-01 3.0576708299691218e+00 -1.8580246134343099e+00 8.5651715831146964e+02 1.3887982152083410e+01 9.3768202681843491e+01 5.3053094621034909e+00 -2.0661987017736161e+00 -3.1658641302334503e+00 -1.8096273953594505e+01 3.6968736728822239e+02 1.2407215616923811e+01 -5.8405600523211916e+01 6.2498674948102106e-01 1.7924931466898829e+02 -8.1536594462539771e+00 3.1912858709490621e+01 9.4473395322249871e+01 1.2236784620596353e+00 -5.6744279991160392e-02 4.3848900730018703e-01 4.9605870320441824e+01 1.2617063447075001e+01 6.3314450471655377e+01 9.7484755792445643e-02 -8.1503385300179088e-02 -2.7259941565406426e-01 5.7631068863179742e+01 1.0099172422093245e+01 1.5268676661442218e+00 -1.1919664547066336e+02 -7.4966359445146402e-01 -7.4481009295460055e+01 6.8171603902833899e+00 2.9999266158516464e+00 3.7940940431389691e-01 -4.1798874371569600e-01 -5.6921262808131399e+00 
      </Row>
      <Row Index="5">
        -7.8354196594789607e-02 -2.9476392045372272e-02 -2.6437189973242827e+01 -4.5990599739308530e-01 4.1536968071898803e+00 2.0144557994960688e+00 1.8961876705557504e-03 -8.5557987341632891e-02 7.9284060518807218e+00 7.5929790368659820e+00 6.5570541480630051e-01 6.2758333960409800e+00 -2.8091038267700696e-01 -3.8898976964767868e+00 -8.2326709173549040e-01 -1.8408735108096153e-01 -1.3124285482124833e+01 -6.5601417715938790e-02 9.6023019500949602e-02 1.3921946535845109e-02 1.0861939812691009e+01 3.5837669290740543e-01 -9.9514325009716742e-01 -8.0917645259644866e-01 -8.8338455080120767e-04 1.0582389661302240e-02 -1.0546772905617571e+01 1.8597825209664651e+00 -4.0848355350755544e-01 -3.6425392982202514e+00 1.8524368423362142e-01 4.4849190864018880e+00 2.5851125246103202e-01 -1.3704405823307786e-01 6.4796039977423030e+00 2.5637125825660863e-02 3.1032035215165683e-02 5.0489374365491321e-02 1.3706297806218997e+01 6.5192534319946135e-02 -2.2092924998206369e+00 -4.8897217785285890e-01 -1.0833842850306707e-03 5.2152216036318137e-03 2.0165215882184233e+00 1.6622943561026855e+00 5.3041318747021414e-02 4.4686183916896427e+00 1.2234109424999919e-01 1.3370570597206850e+00 1.6023875582046987e-01 -1.2408507905271033e+00 5.7843955486789227e+00 4.9382279049865224e-02 -1.2180114599930758e-01 -7.5549879460695291e-03 6.9564835751957901e+00 2.3168519894865749e-02 -1.7252419683138802e+00 -1.2924699298956432e-01 1.6012154247953225e-02 -1.4871463777506466e-01 6.0271681401742461e+00 -1.9924125638231078e+00 8.0060983193849425e-02 -3.7064863507015389e+00 3.2633498762630136e-02 1.7085399441365157e+00 -1.1137508493633956e-01 -5.6172635454366215e-01 1.8668127051756063e+00 -1.2950535233389078e-03 2.5883011163960645e-02 1.9149370819887034e-03 -5.4713472071694795e+00 8.1178985629367317e-01 3.2224876843733652e+00 1.5315092394317009e-01 -6.5976490296139279e-02 -6.2313907220155763e-02 -1.6773232578634570e+01 2.2830431232835702e-01 1.9086569659061836e-01 1.1272638466762075e-01 2.0449469022200031e-01 -8.8435997124095156e-01 6.6057136451991971e-01 1.8423095504797313e+00 6.2698704220771120e+00 -7.4705808539150820e-04 -9.4062002001688905e-02 -8.7970915360971735e-02 -2.2564134130348595e+01 -1.3318657770335518e-01 7.9325197145286257e+00 8.2704487246485242e-02 7.1393234764234759e-02 -2.7694191721123790e-01 1.1301479252518007e+01 5.7345151164343182e+00 -5.9818858470649161e-01 -4.3401983876971038e+00 4.7785918923712972e-01 2.9733037263518840e+00 -9.4217480297144318e-01 -1.3868339058962040e+00 1.1689295650343135e+01 -6.2039070418033970e-02 3.3680490977206046e-02 2.4231971626423321e-02 3.9444062265329176e+00 7.9821447649015242e-01 -3.8141313079083594e-01 7.1660235914509318e-01 6.6602557852808289e-02 1.5703481155567189e-02 3.0012944821592757e-01 7.6821589518451985e+00 3.3733132949765332e-01 -2.0640655121365796e+00 -4.4483548543033602e-02 -2.1840311710949143e+00 1.1885692105457113e-01 -1.0134094833678855e+00 -2.1650653553077944e+01 1.7377112786368332e-02 -1.2644631814950444e-01 1.6908570160735589e-02 9.4695857524264504e-01 -1.7712013033012369e-02 -3.4775724444137293e+00 7.5136612755531795e-01 9.2399490875894164e-02 5.4988998737224182e-02 6.9316940469537851e+00 -3.4743282031480431e+00 3.2358738490275368e-01 -2.8577788389032253e+00 2.9366896317116642e-01 3.7905698532146985e+00 1.1925696368687375e+00 1.0791490493674836e+00 4.9263078243061553e+00 1.8038874520026955e-02 -2.2013193416811858e-01 -1.5243305036990229e-02 -5.2814782130448226e+00 7.5593297778066559e-01 2.0332999886963052e+00 1.2385730586859001e+00 1.7669370442983884e-01 -3.3563908322377950e-01 2.0659130517136699e+01 1.2910683334599572e+01 9.6878411284535892e-02 -3.0952170843016309e+00 8.0107951447248871e-01 5.3944361746970770e+00 4.6487059472029435e-01 4.8347209344452802e-01 -1.9650451385960110e+00 4.2670751411519672e-03 -1.8393177693513934e-02 -9.1450053908448646e-03 2.0958627552379794e-01 1.4875150773122708e-01 9.1183460803400473e-01 9.2837780767784664e-02 -3.2520776329586897e-03 -6.1549673867275379e-03 6.6422455719246287e+01 6.3297895156168005e-01 -1.0427828139450471e-01 -3.3335053115444904e+00 -5.4651246916991254e-02 -1.6926584053375036e+00 2.8267440358976759e-01 8.5312658586638868e-01 -5.8668555733522920e-02 3.7414830843327338e-03 -6.3515609691328464e+01 
      </Row>
      <Row Index="6">
        -1.4654690032042304e-02 -3.5481263579147611e-02 -1.4501255991013613e+00 3.7128420501456277e-01 1.3140480487859207e-01 1.8961883240372936e-03 6.5543393749758239e-01 -2.2261661345965834e-02 1.0789399504407089e+00 -2.9730956657213481e+00 5.5734677817020017e-02 7.9379385722813822e-01 -1.0516385863547839e-01 1.9394101687639704e+00 -1.9733808318131466e-01 2.9639168464473187e-01 -2.1404686142923310e+00 -6.4229496322586212e-03 -7.9163895384409474e-03 2.7944656801359713e-02 1.3427534869029536e+00 8.2767230663275113e-02 -5.5060123233342384e-01 -4.2457123042919376e-03 -3.1318989558822535e-02 1.5876119230964297e-02 -9.0156045102295868e-01 -5.2117126747046960e-01 4.3164358416184857e-02 -2.1162753875984470e+00 -9.4394062284377384e-03 -2.3829774266950743e+00 -2.6804988001756996e-01 -3.1776066425018823e-01 -8.2604588220320463e-01 -2.4175718371337133e-02 1.9373073685618372e-02 4.6475026071874842e-02 1.0295156532642116e+00 -2.7357866850410273e-01 -3.0702300081129466e-02 -4.1449050333334098e-03 -3.8335141373036175e-01 -3.4778921609131125e-03 -2.6693902013736936e-01 1.7596752203982926e+00 -1.6803819136328335e-02 -2.2486853329126499e-01 6.3009658257257323e-02 -8.5890184578504591e-01 -2.4758351712798704e-01 -2.8720642748468972e-02 -2.8386686354962922e+00 1.9001482674905998e-01 5.6662102970518838e-02 -6.4549181591969174e-03 3.0730478080195827e+00 4.9373445176245298e-02 -5.9840417165359927e-02 1.9334872531732938e-02 -1.4353097216823613e-01 -6.4317904293918204e-03 7.5914010790141950e-01 1.1202730762484328e+00 1.2497962664601708e-04 1.0207712955394879e+00 1.6467979735634710e-02 7.6591567512137715e-01 -2.3371723760077817e-02 1.4708026051363710e-01 -2.5379014125211716e+00 -3.5335832779638202e-03 -2.1930603973162544e-02 -2.8974179786347238e-03 -3.6622552069035210e+00 -2.0739852891130381e-01 -4.6941037720192619e-02 2.8052391134191175e-02 -1.2922038993297497e-02 2.1579754646686627e-02 -1.5021987549376541e+00 -7.9664068208781513e-01 -1.7888756800432129e-01 -8.0511791942035682e-01 -6.2791985338722101e-03 -3.8012922684161543e-01 -7.4507261731059926e-03 -5.2260554353037358e-01 -4.1132344795437472e+00 -1.9143878011198899e-02 -4.5484001926250697e-02 -3.5816640776999537e-01 -2.0191548649158580e+01 7.4942467845533819e-03 -9.5245111835129759e-01 -1.9533863396997930e-02 -6.9911317314133381e-01 -1.2852166863156808e-02 1.6693699410862901e+00 -3.4248093554539496e+00 1.7109916425017174e-01 -9.2342396592479892e-01 -1.6006863335966273e-01 -1.7688386658895183e-01 5.9976797644825153e-01 -3.5042543504970425e-01 -3.0945780053697800e+00 -2.2135421341133965e-01 1.0324503931924536e-02 3.3354919640908288e-02 4.8618955769990642e+00 -8.0010956311571263e-02 -1.5448699855334272e-01 9.9074743440180482e-02 9.0452332738192531e-02 2.8567624662173996e-02 1.4683765871336796e-02 -1.3470834853509772e-01 1.4312631417805304e-02 9.9034601532603483e-01 -4.3153846261965001e-02 2.7295709719486450e-01 -4.4142157217473238e-01 -3.7618078102231722e-03 3.5192351750633044e+00 9.2134356796964550e-02 -1.1214771462125378e-02 3.1144873710594739e-02 2.6405510208678189e+00 -1.3439229021622240e-01 1.1029488549228863e+00 1.0050503484005938e-01 4.3607609872962844e-01 6.3692691908950161e-02 1.0151080147277773e+00 4.4899068155989488e+00 -8.4594078767229325e-03 1.3063147151421326e+00 2.6315436510596035e-02 -1.8529010480074444e+00 2.1258296655059514e-01 -1.5744393057148542e-01 -3.7469633084382714e+00 6.6458919918466836e-02 -3.2599022449191738e-03 -2.5207212979047128e-01 -9.2358305552696951e+00 -2.6023973409255441e-01 -3.4676962171766856e-01 1.5870685854358557e-01 -3.3997398234427961e-01 8.0529603820952561e-02 3.7757693745390410e+00 2.9998836981572996e-01 1.2294186020977632e-01 -1.1410871308285573e+00 -9.6960270319953468e-02 -1.7180170642471020e+00 1.1785676284821489e-01 -5.6492204081866315e-01 -2.0365260603000976e+00 7.0318771800361626e-02 6.7334602322561528e-03 4.4587116592405107e-02 2.4769324285674155e-01 -7.9859499287618485e-02 -1.7585395541655145e-02 2.3250097353798509e-02 -4.2106073155448051e-02 -2.1102863823251883e-03 8.4980732189175487e+00 -5.5275482596094716e-02 4.0389926590723803e-02 -3.3046491920710547e-01 -1.3462905799124614e-02 9.1652612539171463e-01 1.1446614197637479e-01 -1.4479590048541682e-01 3.6224692168648015e-02 -3.4862550427292834e-03 -7.3578966212746000e+00 
      </Row>
      <Row Index="7">
        1.1601829604103393e-02 5.1936969757445911e-02 -4.0883242483373095e+01 -6.5404221465434764e-01 2.5593746619819351e+00 -8.5557987369278138e-02 -2.2261661296909097e-02 2.8860579137269609e+00 3.1518622095634607e-02 4.8458262008942210e-01 1.1084689475641044e-01 -2.2565004816442524e-02 -2.3621562067346247e-01 -3.2467201959079830e+00 -9.7557142506396932e-01 -3.6276019790784630e-01 -1.4237569087626980e+01 6.1494496363822426e-02 -1.8679729779660925e-03 -2.1033490830134838e-02 1.3746040283773642e+01 3.6703947641335372e-01 -4.0235014309301192e-01 -1.3563526832098272e-03 -9.9007771852371307e-03 -1.0521390953563006e+00 2.1468859978384991e-01 1.8355755415460457e+00 8.2324045832153914e-02 2.4527611593503762e+00 -1.6797676292246655e-01 3.5806540792853099e+00 2.2172444937419539e-01 5.3316760967359844e-01 5.6211467822663792e+00 -1.5913746553404412e-02 1.5122606177698762e-02 7.2108261451028898e-03 4.7219874876251797e+00 -1.3354139339660959e-01 -4.1240537892707207e-01 2.8168773289023674e-02 1.7391121401373333e-02 -5.4940559661765209e-01 -1.7224065561025581e-01 -1.6675904738001694e+00 -1.6630774674976878e-01 1.0228120117317552e-01 -9.5586717521282394e-02 2.9892651362101574e+00 7.7934280876865436e-02 -3.8994802004719276e-02 8.4238817157192081e-01 9.6059348859841506e-03 1.1598444085611856e-01 -8.1142323223875427e-03 5.0170987492016632e+00 -8.8619480115073868e-02 -9.0879634345290350e-01 2.3863363706418395e-03 7.1450928586697104e-03 -2.3282408675969141e-01 -8.6318199815427210e-04 -1.3969335971928953e+00 -8.3348291219175155e-02 -2.0441962170743366e+00 6.6203576041670736e-02 -3.3325040501150838e-01 2.6082257031188771e-02 -1.2496945362128971e+00 2.0754967828883828e+00 3.7645644858857810e-03 1.0009519707787462e-02 3.6343188491609847e-03 -8.9294078849038296e+00 -2.1125170788799008e-01 1.4627762040592249e+00 7.4267401857536969e-02 -5.6600531058035586e-03 1.2739685837717218e-01 4.1495003733924296e-01 1.3017425696688951e+00 -2.6581105080135226e-01 1.2292100653788083e+00 1.8564187163971117e-02 2.3370267264030105e+00 -7.2155161513376809e-02 1.2293157164437574e-01 -6.6515649265272003e+00 -9.2729686989635983e-03 5.6913534222328699e-02 -3.6107404078838229e-01 3.5597351753054653e+01 -6.1451522446259921e-01 7.4948411689057064e+00 -1.6317627726902093e-01 -1.5675399973471341e-01 -7.7975299991634706e-01 -5.2459067631759959e-01 4.7359786817297884e+00 4.5289707357266273e-01 -1.9680974375204676e+00 -1.4485628923819821e-01 7.8776772635806012e+00 8.4594695532683173e-02 6.0478506958601130e-02 -7.4535323223483196e-01 2.5850016236651587e-02 -8.3211769170265418e-02 1.0754771894699446e-02 2.9520284428865637e+00 4.9478799404829188e-01 -4.8466091491798817e+00 -4.3254759976623494e-02 1.0893286007448089e-01 1.7039715581863772e+00 1.1603619163458703e+00 4.5552561051563858e+00 -3.4308131064331782e-02 5.1482046640328072e-01 -5.4346827426222988e-02 -7.6094464635028203e-01 4.4977271814917574e-01 6.9843225258381381e-04 1.8286628008080370e+01 8.7864401850220902e-02 1.6804735834397910e-01 1.8563864570992718e-02 -5.3320940224695313e+01 9.2047639320439445e-01 -5.2083161967985978e+00 -7.5838493189561360e-03 1.2880478106654064e-01 -8.2443166741801965e-01 1.6596639389577224e+00 -4.7860151483148670e+00 5.4867229605707155e-02 -1.0787217260010102e+00 6.5313609912293014e-02 -6.2847827574449511e-01 9.4355555701039706e-02 -1.4984602192776819e+00 -1.2010273986881430e+01 2.9007905239082178e-02 2.2581047963585255e-01 -3.1032451700124408e-01 -9.9196172614169704e+00 6.5632141137278621e-01 -1.8477644351994300e+00 -1.7453719236756451e-01 6.5775722432761710e-02 -1.3857488464489151e-01 -1.3756252032149832e+00 2.8824309350622883e+00 2.7771241601015173e-01 -3.6153996144080658e-01 -2.0321860579729617e-01 3.5558458442280809e+00 2.3193000285242271e-01 -1.7604024272099146e+00 9.6482270337764167e+00 1.3811205963347345e-01 1.7851559351243676e-02 4.6743169728543726e-02 -5.5802492550897220e-01 -7.7818899236949485e-02 -1.8527575712542455e-01 4.4439437521610475e-03 3.0502362900780848e-04 -8.6827814611912413e-02 -8.5989920198882182e+00 1.6716318061609692e-01 1.0056623840047529e-01 -1.5116678072153431e+00 -9.7160684574506218e-02 -8.2828971551024499e-01 1.6497808125345564e-01 -7.7612783352614401e-02 2.2093482043277213e-02 -5.0042493724610615e-02 9.2867273483907145e+00 
      </Row>
      <Row Index="8">
        -7.8930080662865687e-01 -3.1728789025881346e-02 -1.2698612857563222e+02 -5.3041625952762477e+00 3.0903996310478298e+01 7.9284060670514451e+00 1.0789399411860359e+00 3.1518621542493262e-02 1.5815754814667392e+02 8.0822682543919644e-01 3.7028174747922553e+00 1.1836185177555308e+01 -8.5687689718906768e-01 -4.7496489471988752e+01 -3.4086399168076302e+00 -1.9922870387672447e+01 -9.8891605229815468e+01 7.6729585760896390e-02 4.5916587427657124e-01 6.1594271839567227e-02 1.2547470984234590e+02 2.2181998989225482e+00 -2.0098357016350739e+01 -3.4841536704262066e+00 -2.1511799543159058e-01 -6.1470348461597391e-01 -1.6198563834262555e+02 1.7490882601918379e+01 -2.2326624457345563e+00 -3.5751246202169689e+01 -1.3126803214135576e+00 7.7978601028576023e+01 1.3238699559273208e+00 -3.1451641419591354e+00 6.5713537712286012e+01 4.7401562597770563e-03 1.2987656604423699e-02 7.4172670243553351e-01 5.9039322734145344e+01 1.0924716305523532e+00 -8.4494825864488181e+00 -1.3119913117957116e+00 -1.4085434107477872e+00 -5.1835067599121976e-01 -1.2402936198030195e+01 5.4454043935941865e+00 -3.3944875508953920e-01 4.8276156914243046e+01 4.9982459614890687e-02 2.3388445212249405e+00 7.6658576564788805e-01 -5.4192540223771068e-01 7.0435364649359329e+00 2.0720584305346193e-01 4.3891577227125478e-01 -7.5607678675875672e-04 3.8661215700982098e+01 1.5912566624061979e+00 -6.2129237213375630e+00 -1.2432795245131116e+00 5.3535875507093475e-02 -1.3556082833977916e+00 5.9021264794931305e+01 -1.0490029773902034e+01 -6.4767862134464962e-02 8.4284974577804128e+00 9.4755707321149352e-01 -6.6542981337508476e+00 -1.5044238253643241e+00 1.0296755290515350e+01 -2.1798212621429819e+01 -1.1472496716586067e-03 1.3533825433808017e-02 -2.1875311010591680e-01 1.5002743186502698e-01 2.0582892184804717e+00 7.3940841415735825e-01 1.1945219430863725e+01 1.7355013796963986e-01 8.1046758706661448e-02 -1.7239376349021788e+02 8.0826063365868563e+00 -1.4341090721988619e+00 -6.7808852471255449e+01 -3.5442213701249159e-01 5.7740029826071712e+01 -4.6997559109876019e-01 2.2647052397509420e+00 5.9271716954282823e+01 -5.7192202314000518e-02 -8.6786390417909565e-01 -1.2851618809684984e+00 -4.7977512406440553e+01 -1.7621828635338357e+00 4.0677200561378903e+01 -7.1220790976739741e+00 1.0323700443773096e+00 -1.6732788478255471e+00 1.6083364749232715e+02 1.2075071619305335e+02 -4.5494308391298477e-01 -6.2886030560666548e+01 3.6672120430194397e+00 5.6299437590380812e+01 1.3088174495894589e+00 -1.3474975344426301e+01 1.4902383678703314e+01 5.3432575780781688e-01 -3.6800880450521239e-01 4.8789462610849310e-01 8.7268893737559296e+01 2.7056130822107516e+00 -5.2356522199096682e+00 1.1448984317255995e+01 5.8039929626172759e-01 1.3911615984092762e+00 2.7382994514772179e+00 -1.7123990722933549e+00 1.9856644846676497e+00 -1.9323835098904695e+01 -1.4243718888800085e+00 3.6210389998792571e+00 -2.1825489404017473e+00 -1.1078053409887222e+01 -1.0355343160309445e+02 1.6036103585990466e-01 -1.9763494926913344e-01 -5.6047911942509077e-02 -2.0134511125844054e+02 -1.6580739770277551e+00 2.0442290687579121e+01 2.0324382401052791e+01 2.2877531260391897e+00 -2.0177891418542551e+00 8.5934102194006513e+01 -5.9999095543079754e+01 2.0547969662374186e+00 -2.1038076876748320e+01 4.4786023226670082e+00 4.4819544578024733e+01 -7.6225679585755346e-01 3.4612724027404155e+01 -7.5292308109039411e+01 5.5200709791715075e-01 -1.0150645591116862e+00 -4.2873300380088608e-01 -3.9739674477882922e+01 1.7320446538362066e+00 3.8598102092390967e+01 2.5854461437886322e+01 3.0113108452040467e+00 -3.3893749950931955e+00 3.8506779936532132e+02 6.3199629323267111e+01 2.5793008474050989e+00 -7.2399216055761073e+01 6.7091846806929549e+00 5.3565995629119719e+01 -1.4023598687266290e+00 3.2979197570455383e+01 -1.1292139339379023e+02 1.2753884305865930e+00 7.2965971358984333e-02 -1.7491908718441571e-02 9.5429378135212306e-01 1.4862586681115415e+00 3.7069872806964441e+00 3.5381513381139320e+00 -9.0433126277653569e-02 -2.1678691565341524e-01 1.1332538738911028e+03 1.9704134684805767e+00 1.4668597083458940e-01 -7.5088066216444219e+01 -3.3021855677314071e-01 -2.3021091011439019e+00 8.9676335505925764e-01 7.6607431288124506e+00 -8.9271497916993070e-02 -1.6377911198430950e-01 -1.0478556736907262e+03 
      </Row>
      <Row Index="9">
        -8.2124925151006645e-01 2.4574807153328995e+00 -4.2303753268251774e+02 -5.6077726195060542e+00 1.2984627252382353e+02 7.5929789038755189e+00 -2.9730956825061412e+00 4.8458263223278220e-01 8.0822454660832932e-01 9.9938268975079029e+02 1.8248700704101060e+00 1.5737126297111536e+02 -1.2123360774910452e+00 -8.0852021614489786e+01 -1.3130208570093284e+01 -2.1412081588205183e+00 -1.4453790129540721e+02 4.1754390141492914e-01 -8.4174171454124425e-02 -2.1055836930115959e+00 1.1950501026880346e+02 6.5153476892865250e+00 4.6497011271162449e+01 -1.7420993747101623e+00 1.1640783844878211e-01 1.1337696633695034e+00 -6.8851932076928790e+00 -1.4614184690795818e+02 1.5672612584544692e+00 3.3249496496307358e+01 4.2387691266552752e+00 2.1054843799665360e+02 1.1463118689441885e+00 -1.3664832260585854e+01 4.2720607708422563e+01 -1.5035051341494894e+00 -1.1020524570609942e+00 1.0866257187427872e+00 3.2110547328737874e+02 5.1375443181730418e-01 -1.3797116103125305e+01 -2.0946649337615719e+00 1.8297631577261078e+00 -3.0209312509833275e+00 -6.1150745288819905e+00 -2.6018419605244179e+02 -1.1999759234428877e+00 2.0868096107218982e+01 2.4528036063463761e+00 9.3671723814221480e+01 3.0576451348552798e+01 -3.8893293423206487e+01 -1.6495910037121303e+02 8.9655516952360581e-01 2.1412517952284555e+00 -4.2104979861384823e-01 1.6380978382404106e+01 1.8775431999939554e+00 -6.8749836574671974e+01 -3.3728681471829871e+00 -3.6883064274854427e-01 -4.6917009575151045e+00 3.6615220119122931e+01 -2.1082934747509168e+02 4.1984597285506575e-01 -2.1712255682580820e+02 -8.4006063581388357e-01 -2.2579775886947422e+02 1.3489018496902569e+01 2.1050749261235637e+01 -3.4239862262696761e+01 -2.4439705293607894e-01 7.8806776558670233e-01 -9.7870481669274534e-02 4.9454180510266667e+01 -4.4679598510012450e+00 1.3191893075736394e+02 5.2448544022555410e+00 -1.6065881620837186e-01 -2.2408951075655352e+00 -4.6669535946877446e+01 2.8354722051462204e+02 -1.3167134325924161e+00 3.4212156336024748e+02 2.0759938827281417e+00 -4.6257053011272205e+01 -2.7484745622688189e+00 6.5832442592513075e+01 -1.0727094892933690e+02 1.9422461089247373e-01 -1.3003270618017315e-01 4.1073885018362448e+00 1.7064312012259347e+02 -3.1608254953636251e+01 2.0136270967574083e+02 -3.8269872701445520e+00 -9.9638074741822891e+00 -9.6830220553167390e+00 -7.1657913491961551e+00 7.6017266855333571e+02 5.7516878918986478e+00 1.1113300359214838e+02 9.8373140805690333e+00 2.6750723803492815e+02 -3.4176898820692699e+01 -3.2838025085096803e+01 1.9005922609801567e+02 -3.0059642060854621e+00 -4.9017470420343479e-01 -4.6580589942902484e-01 2.3099674533567043e+02 9.1188138443354507e+00 1.0594477935649230e+02 2.9551791501959048e+00 -6.6022367478819532e-01 8.9960164127403175e+00 1.1567444745113411e+01 2.9057529431953725e+02 3.8790240438903627e+00 -5.2732480513682987e+01 2.5554491318309878e+00 -5.3532903920749561e+01 4.7107030349434389e+01 -3.1809242608195049e+01 -2.4463291440612312e+02 -1.1507040667950486e+00 -1.5777833714394316e+00 -2.3761101848576505e-01 -6.5802368437284713e+00 1.7430155665680616e+00 -6.2479067350173949e+01 -2.8429270741651003e+00 5.2863073797800517e+00 -9.3607294868323727e+00 1.9778996279545678e+00 -6.7765717040372590e+02 3.7651929706964791e+00 -4.9476574305346162e+01 -1.6641104826424975e+00 2.3557229692957549e+02 6.3664095540228359e+01 7.6069718725683089e+00 2.3992664770374211e+02 1.8922328914377720e+00 -4.7433053955203430e-01 3.6786899411940226e+00 4.1971583271534962e+02 -1.8823174935747986e+01 2.4645334673850954e+02 -2.1831932482692480e+00 -5.2784730925012582e+00 -1.4738689583471359e+01 -3.2789844476685388e+01 4.5100582898007417e+02 1.1469737036480049e+01 1.0902577460836534e+02 7.5610366916066667e+00 3.7435054847753014e+02 6.8369119554121610e+01 4.2853771983380113e+01 2.2902170203434662e+02 -1.8790471423835360e+00 3.5188114527311604e-01 -1.2328370062252656e+00 1.1700572900615644e+00 -1.3157698000944529e+00 4.3949562911617953e+01 2.4289382779096869e-02 5.6696132584632908e-02 -1.0486642879020494e+00 -4.1344078100195532e+01 3.2720424159118757e+01 7.9875525803610703e-01 -2.8862833043137357e+01 -1.9086223793180501e-01 -1.6992111769763775e+02 1.4645991512859208e+01 1.9061116878254914e+01 1.1532372633172958e+00 8.2255316207560636e-01 -7.8533101021346880e+01 
      </Row>
      <Row Index="10">
        1.0062836050770435e-01 -5.4690978496175033e-02 -1.6861181371021765e+01 -6.3528257388813025e-01 3.6749514382793027e+00 6.5570541420257200e-01 5.5734677421526158e-02 1.1084689483093271e-01 3.7028174569472774e+00 1.8248701353488572e+00 1.2810570264582606e+00 3.0793728323224059e+00 -2.0306860899756884e-01 6.1349647540737351e-01 -1.5492296788774740e-01 2.6876531812740723e-01 -1.9580826865396375e+01 -1.0140858538456821e-01 -4.4052467927784000e-02 3.9908226075411335e-02 6.8915020820023978e+00 3.4822874511800350e-01 -8.6126341506299309e-01 -2.9289038547685486e-01 2.6773232295005910e-02 -1.8693832475295685e-02 -3.4842921232004618e+00 4.0877508895375447e-01 -4.3977513855014372e-01 -3.8679999700871490e+00 1.9451161934134421e-02 1.1510528196103955e+00 -1.3601391558388737e-01 2.6472934223420452e-05 7.5446578471527310e+00 6.8060320628975435e-02 -4.2319546125470370e-02 6.4298071845135139e-03 9.0428605877450448e+00 2.6786642075839689e-01 -2.3282912148219777e+00 -1.5601928533682055e-01 -1.1312288201769789e-01 -6.0687332010233491e-02 -2.6161926685670700e-01 7.1464649525124502e-01 -3.2474980032943657e-01 2.2475365961860012e+00 -5.2071366453459833e-02 2.5059174339338597e+00 -8.8299874001788181e-02 3.5409382537721124e-01 4.2942679709214531e+00 2.8335039032992601e-02 4.9391941347139492e-03 -3.1518761106821042e-03 8.8848497973116043e+00 -6.3108166120679862e-02 -2.0051163857453593e+00 -1.6034458097841986e-02 -2.5414937417845486e-02 -1.5795944296430425e-01 1.9672903022061912e+00 -4.4122718961743823e-01 -6.1524438283526627e-02 -2.0306159605705467e+00 -4.0676149068374912e-03 -2.6446366606165306e-01 -5.4565027237679253e-02 -6.3213144512310215e-01 7.6046211894011861e-01 9.1026854547814132e-03 2.2837106746743108e-03 -5.2851927807346360e-03 -7.2066717445287347e+00 3.2362382771084963e-01 7.7401356986161074e-01 1.3567181415204457e-01 -1.2976949433021190e-02 -3.2313584618487989e-02 -7.3399477139442588e+00 2.4835581359439574e+00 -3.2972167796542212e-01 2.6099341485961425e-01 -6.6507392032273321e-02 2.1644386578579233e+00 -6.4533849737148541e-02 5.9994056391241557e-03 8.2793023314944136e-01 -3.5522079470898353e-02 6.8171384274637037e-02 -2.6524481494359259e-01 -2.3579278624085198e+01 -8.0334793296023088e-01 4.9684507764063666e+00 -2.6119090753630275e-01 1.7731871467547122e-02 -2.7710026210017724e-01 5.4691996923179156e+00 -2.9516075218006081e+00 5.1121973967585410e-01 -1.4396751857629546e+00 3.9147143592322531e-01 4.8033569276240540e-01 -9.9306819887100939e-01 -4.8032265945442321e-01 8.9205489075470759e+00 1.5867256898957560e-01 -4.9913147877251061e-02 9.4733209423673789e-03 5.7293145699458137e+00 6.5674169460352860e-01 -1.5471890887549251e+00 2.9988520702827276e-01 1.6456137294439399e-03 -1.7811922479388898e-02 -3.8530902074524898e-01 5.7538744330224105e+00 1.5053135791410399e-01 -6.5337366044453971e-01 -1.9212594823036472e-01 1.2492887204118652e+00 6.5193635113537929e-02 1.9485687918825345e-01 -1.0896044015005991e+01 -1.2291164613669886e-03 -5.8068406216010851e-02 -8.3477784186722706e-03 1.0557712769052699e+01 4.9632576281390062e-01 -1.2098641033126170e+00 3.8195525725318719e-01 2.2641647897981809e-01 4.6345455069682615e-02 2.0819243217489038e+00 9.8724860140507076e-01 1.1012688610021232e-01 -4.4677091158066995e-01 2.8867541823308174e-01 3.9552529769819849e+00 1.0715042992928143e+00 6.7056166199525080e-01 -3.9798373961331945e-01 3.0843280926817339e-02 -4.6934702982712510e-02 -2.5186561631573268e-01 -2.5842694474883210e-01 3.2520574373761779e-01 9.3478897030853680e-01 3.7968611225157173e-01 1.6796581315878542e-01 -3.5691821389803713e-01 1.0382989836130090e+01 4.3002541124338194e+00 5.2484401607566034e-01 -2.0680364218315077e+00 4.0835699906950040e-01 6.3398601357977160e+00 -9.8542081205423390e-02 -1.1697193475291554e-01 2.6408674972588528e+00 1.8730433522966689e-01 3.4465130913198484e-03 5.2013771856719224e-02 2.8717744984765270e-01 -3.3002271536861305e-02 6.4288442272247248e-01 3.8169526354960640e-02 -1.2987168189936504e-02 -4.6030277966480071e-04 3.0802881346853855e+01 2.7274103928720339e-01 7.5616373048891752e-02 -2.7617552230419595e+00 -4.6860737978751600e-02 -1.4562320410547807e+00 2.0219333198338579e-01 -1.6709933431503654e-01 -1.1397172805942046e-02 -5.4730255021179938e-02 -2.9477825365142927e+01 
      </Row>
      <Row Index="11">
        -9.6753928246656951e-01 8.6066835030614497e-01 6.2829211893110300e+02 7.5459847369989852e+00 -4.3198802038492481e+00 6.2758332905414136e+00 7.9379384350067994e-01 -2.2564992784687474e-02 1.1836183417165396e+01 1.5737126316015053e+02 3.0793727804473292e+00 1.3773249406710966e+03 1.0267540800741699e+00 -1.3954430253588362e+02 -2.4881442940600852e+01 -2.5588664722628891e+01 6.9224653777200729e+00 -1.6893951172947733e-01 -9.3546977317882385e-01 -1.3369646490486957e+00 -3.2865351775358664e+02 -3.3194259097827468e+00 1.4349995530656498e+01 -2.7996250988821658e+00 3.3432313277217751e-01 -1.3409102627438036e+00 -1.8694155033392168e+01 -6.9786753548668685e+01 -2.8002627257928063e+00 -1.2293921320294423e+03 -1.5134721195093526e-01 6.5649244914887248e+00 -5.1815195780147567e+00 4.1902211746957619e+01 -7.8581559833960085e+01 -1.0721431807676707e+00 -4.4279075472102852e-01 5.4454892875859429e-01 3.2030669630427440e+01 2.0705400790449495e+00 -1.2857971197724698e+01 -6.3906196300820177e+00 -2.9412808806466959e+00 -1.2097888637182530e+00 3.8476803061458050e+01 -1.0081446561595438e+02 -1.3794970727186645e-01 -6.0717948049290942e+02 -1.5332848024075925e+00 -1.5078040164004076e+02 3.6690988367050032e+01 1.3976835044984609e+01 -1.3361001810187201e+01 -1.5468441395192061e+00 1.3263431753172188e+00 4.6863641679937174e-01 -3.9735034692767294e+02 -2.1824988019958766e+00 2.9996003597935790e+01 -2.8196491012182041e+00 3.3483297639554332e-01 1.2758381651728166e+00 1.3987449206432050e+01 -1.6540869756731840e+02 1.6072667035304351e+00 1.6497634028599668e+02 2.4638753312274106e+00 7.3170743054916358e+01 2.8476502903431302e+00 -8.2645968907267999e+00 -6.7594650872724785e+01 1.8435790990349030e-01 4.1887698040800825e-01 -7.7522673997986924e-01 1.0958548144058102e+02 -8.4753666588425496e+00 3.2555112489953018e+01 4.7224636937227036e+00 -9.3625189934361375e-01 1.5340770619265225e+00 -1.1961935453253032e+02 1.1585768349699228e+02 2.4274337441441460e+00 7.8046707429551350e+02 5.5310371226064436e-01 8.3247206496272540e+01 -1.7088637245774819e+01 5.6062080242286015e+01 1.3152535677455464e+02 -7.4831335011415889e-01 -7.2211656519481506e+00 1.6291603550180316e+01 -1.2760152405685139e+03 -1.3225933211893861e+00 -1.4134780726923469e+02 6.4571753417097106e+00 -2.4171172870344031e+00 6.3030284538308887e+00 7.3144334787363249e+01 1.3586012952081191e+02 -1.0359933613269177e+01 6.4218804263671109e+02 2.0903894812978301e+00 6.0892369650885286e+01 -4.9941622452229893e+01 -1.7707695866518204e+01 -2.4599237686585113e+02 -5.1730319424437923e+00 -6.3267348347782626e-01 -1.2806955614698177e+00 4.2897558698672492e+02 -2.3483203708888279e+01 1.5487926618762120e+02 1.1576868098115516e+00 -1.0373607753426448e+00 -9.1637270800552812e+00 -5.0751725434475503e-01 -2.8101425609703330e+02 6.4030355082040344e+00 6.3921075705537328e+02 3.0610046056476641e+00 2.4098238002412700e+01 3.7026574876592186e+01 4.8941574605353484e+00 2.1221203543093921e+02 -2.5454220991510268e+00 -5.0921379749013749e+00 1.3956288986214455e-01 6.1953444392071867e+02 -3.4005439224569372e+01 2.6925751975147972e+02 -3.2891272918251833e+00 -1.2658805492013361e+00 -9.8661652368462782e+00 -4.3628994743393221e+00 -5.4551226846176360e+02 -7.8908416582245495e+00 7.4584317998160054e+02 1.0526823281070548e+01 -1.9748434862939803e+02 7.2257788464009977e+01 8.3944589690375693e+01 7.5046658364005410e+01 -7.7773298889451747e-01 -1.1123680119567997e+01 1.4728902263133193e+01 -4.5434143858311484e+02 -5.4868239228558025e+01 2.6226975679085172e+02 6.3921716419294263e+00 -5.6139007322761811e+00 -8.7207454628830412e+00 1.3506627171681433e+02 -6.4275587012336541e+02 -9.8778076216819670e+00 5.3806842717269194e+02 1.5038988853749277e+01 -1.9464776523321962e+02 4.3948446342424958e+01 1.1082414159868343e+02 -2.9020997206886250e+01 -9.1551221979263246e+00 3.4262459522867761e-01 -3.1162707318404701e+00 1.8324686599558692e+01 -1.3750250907191515e+00 1.9930907043621367e+01 4.6130530343957749e-01 -2.0695915147575766e-01 2.9138530909006022e-01 4.3891887814291812e+02 -9.1949768956888764e+00 -1.7394887677139075e+00 6.3807871521192089e+02 1.9757553271160477e-01 9.4426253340110549e+01 1.8670687650995113e+01 1.5215055153162993e+00 2.5352394670135681e-01 2.2148711591310031e+00 -9.7615177382516447e+02 
      </Row>
      <Row Index="12">
        7.6791537583574002e-02 -1.4343919253406518e-02 1.3409950132717864e+01 1.0895903736468189e+00 -3.0461905004671341e+00 -2.8091038509282384e-01 -1.0516385898246483e-01 -2.3621562032335003e-01 -8.5687693834471323e-01 -1.2123360679121196e+00 -2.0306861009198585e-01 1.0267540576828651e+00 4.4759197152089314e+00 1.0398740123464449e+00 1.5049301254415615e+00 -4.8446885790144734e-01 1.1427323010459077e+01 2.4091279707061253e-02 -4.4564728467346146e-02 -4.2549659253161565e-03 -1.9818027169207205e+01 1.3541083424539668e-01 2.4278997845624191e+00 6.9744451537969182e-02 3.2457891168367919e-02 -3.1627105263953165e-01 1.3987309117943987e+00 -2.7266279801030402e+00 -1.7699095131021858e-02 9.8640383798344189e-01 -7.9659477212186003e-01 3.2544454213679774e+00 7.8644450422886014e-01 3.8705383325168441e-01 6.9884892713074684e+00 -1.4409351240396918e-02 -1.8648752026364963e-02 5.9396695354632673e-03 -1.3344043432091187e+01 5.6890646450437354e-01 1.8763223174180839e+00 9.2949671254010019e-02 1.0926384602018599e-02 -2.5719497018738435e-01 2.2919864416852764e-01 -4.4774042150419202e+00 -4.5815236210448744e-02 -2.4858219974215672e+00 -9.2909759677307657e-01 -2.3704044466839722e+00 1.0422731782700614e-01 7.7457403888654142e-01 -8.1319606831221094e+00 2.7086334678478432e-03 7.6070217273632956e-01 -1.3884833114734367e-02 -1.3978753744364321e+01 3.7555768392763056e-01 2.4988215035833603e+00 1.6428366291078983e-01 5.3997035050769027e-03 -3.6332499149612091e-02 -7.8022246775219006e-01 -3.1990874782612138e+00 -1.1365494983234367e-01 -1.5145899342177440e+00 -8.5792935780155344e-02 6.8882784298055855e-01 2.0965676030247057e-01 4.8026381996537015e-01 -2.5268391040357217e+00 -3.4203126242697730e-02 -5.5401435522786868e-02 2.6955361502620651e-03 2.2771186339044945e+01 -5.2015398825349712e-01 -4.5360072307943033e+00 -7.5523175162159756e-02 5.3697355754873978e-02 -5.8419246462931042e-02 1.7186630141238997e+00 5.6473668140093403e-01 -7.0085577743997207e-02 5.4328151094833954e+00 -3.7298438936740419e-01 -3.0145908705766722e+00 1.1266160807808512e-03 1.0330570831965282e+00 -3.4010324893727280e+00 2.1422510535348428e-02 1.0594588651520596e-01 3.1923041358977711e-01 7.2185411018029527e+01 -1.4753019080024725e+00 -5.7324306242356524e+00 9.9191810681848624e-02 2.9467410826962859e-01 -3.4259879199604951e-02 5.1675469366446114e-01 -1.3847686987327855e+01 8.7405002026700096e-02 2.1248834615241279e+00 -8.5588250235908847e-01 2.3175907402435278e+00 -2.0194058608530552e-01 -1.2052000626718349e+00 -1.8877828635557858e+01 -1.4474623608266937e-01 9.4766943324125108e-02 -3.0396573818565933e-02 -1.7877906194036818e+01 1.4552568047393990e+00 1.1287936222034185e+00 -1.5014045127158213e-01 -1.1436303147546457e-01 3.2815626753513510e-01 9.6425938593886873e-01 -1.2968938923381980e+01 -1.3076426671949742e-01 1.4523826608171397e+00 2.6859364499884668e+00 4.0863364811891127e+00 1.2800165362195706e+00 8.0603741677672480e-02 1.5569939678696908e+01 -3.8363687740859617e-02 -2.4193943303806434e-01 2.8147781121186204e-02 -6.9693167131302278e+00 1.1657083725638202e+00 -3.7317691591447594e-01 -2.6781210288853308e-01 -8.4242115891686120e-02 -3.4635232335893901e-01 -1.1736249715832878e+00 3.0151437269661874e-01 2.7398710591308609e-02 9.2831430865273834e-01 -1.1163172673314523e-01 -3.9438664695841914e+00 -1.4022820793096271e+00 8.5847768236203592e-01 3.7879999009800969e-01 4.1510301171032112e-02 4.1602220160519354e-01 2.9047518257328764e-01 3.4199039909152596e+01 1.1856308184153108e+00 -3.4493586849406350e+00 -2.5517219707162719e-01 1.5814917256418870e-01 -3.4612468477133435e-01 5.1082474384667709e+00 -3.0363320334967451e+01 -1.2865717513446021e-01 3.4439364400131502e+00 7.1665096837518427e-02 -1.5986183036211976e-01 9.9985846361067665e-01 1.2166971074500310e+00 2.2750453961380828e+00 -1.4954077277706143e-01 1.0425999825871825e-01 -5.3378072055879529e-02 -9.1856074991230308e-01 -3.3574506190697662e-01 -1.4402045042753266e+00 4.6768504196895155e-03 3.9997409651115375e-03 -6.5890241760325097e-02 6.3407814842462678e+00 -6.9121409169713799e-01 3.1897617345852017e-02 3.9944638754672788e+00 5.4582857669282836e-01 3.4204987233939510e-01 -4.9843599100643032e-01 -2.5928224110147696e-01 6.6170152826248302e-02 6.4322688724013158e-02 -1.0623087437010120e+01 
      </Row>
      <Row Index="13">
        4.3875565210578316e-01 -2.1612260468726269e-01 -3.9216270663775447e+02 1.9150790765877428e+01 -1.0488482903026552e+02 -3.8898978034543461e+00 1.9394101613180510e+00 -3.2467201763170266e+00 -4.7496491111445138e+01 -8.0852022605057016e+01 6.1349642307996533e-01 -1.3954430459152354e+02 1.0398739947886497e+00 2.5531093087755107e+03 6.3996689135504168e+00 2.0105266027462494e+02 4.5193101742916042e+00 -7.7131997979710742e-01 -5.0470631942145672e-01 4.3191378284305415e-01 2.8144405283163206e+02 -5.6184546894929088e+00 1.4816069463513564e+01 -3.5755180308862768e+00 6.3530540088554011e-01 3.2699580568203093e+00 1.9861477208644638e+02 5.0042754473640180e+01 -1.7324120006376653e+00 1.7792761008272834e+02 4.4337879086216003e-01 -2.5186924994187234e+03 6.4235160033547070e+00 -6.2109414662361814e+01 6.8367514018297214e+01 5.6016543936277530e-01 -1.4322107132757944e-01 -3.0502207646202737e+00 2.4792068881156590e+02 3.1602295552414628e-01 -1.5435124890462120e+01 -1.3158484271146706e+00 -3.9177959970230081e+00 5.1796030256306409e+00 2.1913118190761359e+01 7.3512584250928526e+01 -6.6520097783377086e-02 -4.3906132641142904e+01 1.0293165761103149e+00 -4.3355847988914496e+02 -1.5177585263048927e+00 1.1463257867731184e+02 1.1107657287707289e+02 -1.9274059035052336e+00 -1.6803519731291461e-02 -4.0784653585591157e-01 1.7513236374085085e+02 -3.0999085376509576e+00 2.3861530002706576e+01 2.1913741693406936e+00 -2.3199733306527087e-01 2.7480091273174883e+00 -9.5442611343320365e+01 6.6753838153172651e+01 1.7464415654260002e+00 1.2899268576642308e+02 -9.9579256209773259e-01 6.1615752344899761e+02 4.6914256912990631e+00 -1.2358430333922097e+02 5.2664937966047980e+01 4.6770743349363858e-01 5.6537832327652016e-01 2.4461356064970724e-01 2.1072792188915912e+00 2.0106237797851065e+00 -3.7952504188105891e+01 -7.5172419804334920e+00 -6.2947292230950203e-01 -1.1863663490894503e+00 1.3860213864301494e+02 -7.5239481338078747e+01 4.8399369470133680e-01 -9.2303392062084981e+01 -4.5395740142638585e-01 -8.0427334443227710e+02 -4.5510502236506341e+00 -2.8219902751344875e+02 -1.3999991474575299e+02 -4.7559893206719794e-01 4.3274527788819643e+00 -1.2505556649702283e+01 1.1786831206306426e+03 -1.1216830492306467e+01 2.4889694556839939e+02 1.1092140816391973e+01 7.6515598924713810e+00 2.9248698348935484e+01 2.1702729794274838e+00 -6.2381660977860292e+02 1.7068528200799690e+01 -7.3598055576039485e+00 -1.8070706140601455e+01 -1.1278276916725076e+03 -2.8117910825291301e+00 9.2782910235519097e+01 -1.0284220497074095e+01 7.6098044908699931e+00 1.1606409193193283e+00 -1.8550271594223056e+00 -9.5608007988481324e+02 9.2242444719347816e+00 -9.3593354660849386e+01 -8.2066887814816738e+00 1.9202574788898552e-01 -4.3519632586777021e+01 3.2057567595288496e+01 -2.2176266913765392e+02 -4.7033084688621640e+00 4.5224571513493281e+01 8.5561828506546238e+00 -2.9551005911657012e+02 -1.8701072916139507e+00 1.8827190698001323e+02 -7.2500301384210388e+00 -8.8307828305390967e-01 -5.9257634289399803e+00 5.6683415635149581e-01 -4.4981188048118383e+02 2.5745068819886669e+01 -2.8938798170099324e+02 -1.2657951067270222e+01 3.3970194786565830e+00 3.1654920307394374e+01 -1.5164048196883535e+01 2.2063596666859576e+02 -2.6642711011544056e+00 2.9736162670434879e+01 -8.8449256405682704e+00 -7.9873731736261834e+02 -2.3930806505170894e+00 -5.3569643392741273e+02 1.3692752497634567e+02 1.4380172048395183e+00 -2.7373509310076471e-01 -1.5347444217896587e+01 8.4977778196077651e+01 2.2463888453640379e+01 -1.3237824532777802e+02 -1.4778733455688004e+01 8.8752717341510028e+00 2.4252597657556095e+01 1.6654077010731848e+02 -4.8777040205709051e+02 1.0757365526123120e+01 1.2289207900352130e+02 -1.9276643683945363e+01 -1.0844693870281326e+03 2.4720624940029774e+00 -6.9411248022310326e+02 1.2190212804555705e+02 6.3806974549254711e+00 -1.5938894841281810e-02 3.0093490552427409e+00 -2.7903171582292057e+01 -2.3008710229366258e+00 -3.5712089321878516e+01 -1.6932244993212509e+00 -3.6832622758775857e-01 3.7468958944040480e+00 -2.6349855384586783e+02 -5.6466573198811529e+00 2.7476739495574207e-02 3.2471464503355128e+02 8.1440724139732223e-01 3.0218316072461732e+02 -3.2810844935166426e+00 -1.5211190500812239e+02 -8.5115710808585376e-01 -2.9636719545390346e+00 8.5169471613027412e+01 
      </Row>
      <Row Index="14">
        1.9125559701532779e-01 -3.0381921011446755e-01 9.2266778226863295e+01 2.0370022426588732e+00 -1.2006528208193810e+01 -8.2326708154356254e-01 -1.9733808187949364e-01 -9.7557142612285030e-01 -3.4086397432003510e+00 -1.3130208574545270e+01 -1.5492296294848273e-01 -2.4881442927186527e+01 1.5049301260532957e+00 6.3996688358402025e+00 1.5368099762898019e+01 4.3701240836526267e-02 2.6709876796101526e+01 -1.6073295357226930e-01 -3.5846299785510932e-02 2.4157328440904635e-01 -7.9386486648446066e+01 -2.9653202708892570e+00 1.0959867986912894e+01 5.8732082224174587e-01 -9.5777476346189050e-02 2.6968943766279085e-01 5.0589275649332137e+00 7.9894998876062013e+00 -3.5044254985817924e-02 1.8450783639372897e+01 -1.5117976590235380e-01 -1.3539094809119156e+01 -2.8937091616811195e-01 -1.1086547643512858e+00 -5.2121052163292916e+00 1.6564319529219718e-01 1.7891009455865858e-02 -1.1592657923794181e-01 -9.7303766938733162e+01 1.0020572451650325e+00 9.1840600233737835e+00 5.3342939981156201e-01 -4.7251567793505478e-02 2.5891743408157175e-01 -2.4001625825868800e+00 2.4855757290690658e+01 2.5998354797043122e-01 1.3175043356121364e+01 -6.6050421539873255e-02 -1.0536590614117955e+01 -6.6849637127950752e+00 1.6886488653355407e+00 -1.0910331097118984e+01 -1.8010734564830458e-01 5.2490453355015593e-02 7.5471465267702598e-02 -7.3791430279758714e+01 -9.3368533200491766e-01 8.2756520375694578e+00 3.1288421752976026e-01 1.0868371363388481e-01 1.3782716573965870e-01 -5.1460902215322957e+00 1.4557506342839579e+01 -1.1274741574887645e-01 1.0640980329225563e+01 -2.7267144097796764e-01 3.8228673262821999e+00 -2.6376733674133153e+00 2.8937040268814638e+00 5.2535084930209166e+00 4.2766388108380751e-02 -2.6244061343684288e-03 -3.3783946465724732e-02 7.9792941028647220e+01 9.0146013782705847e-01 -1.2017999136998132e+01 -2.7904363271703009e-01 1.3217349072566623e-01 -4.9163481810236126e-01 1.1104885535451427e+01 -5.4139009682381554e+00 -8.9598213448051856e-02 -2.9696496334111469e+01 -4.1629400481902445e-01 7.0806552357126407e-01 2.4524670577788150e+00 -2.9616175019963080e+00 6.2753849949300644e+00 -2.2063890051871274e-02 2.3872381762229833e-01 2.7943766239573598e-01 3.8715954039539531e+02 -9.6332844996335414e+00 -8.3850984685871754e+00 -2.3980498239605441e-01 1.6164285538646297e+00 -5.1194375947335802e-01 -4.9025706043096440e+00 2.7650537416578750e+01 7.1833637169430220e-01 -1.5693535818354732e+01 -8.9482242864912709e-01 -1.4309970277891921e+01 3.6183613680114619e+00 -2.0338983527333241e+00 -4.1677863338010326e+00 7.0648217426492277e-01 1.0480471400704111e-01 -1.0545192097757504e-01 -1.7064464989955226e+02 1.9354971672341892e+00 1.8831161285506131e+00 -8.5060516387619772e-02 -1.4728254293821952e-01 2.4452480639588758e+00 6.4038720542203009e-01 2.8638166917956227e+01 3.3870327073464004e-02 -3.7394007909636926e+00 2.2081868532418820e+00 8.2716235146725197e+00 -2.2178275549735491e+00 1.4897634464623577e-01 -3.0500489280148216e+01 -1.3690641960186845e-01 -7.2110316396478163e-02 -1.8295221534720651e-01 -1.8802523247652783e+02 7.9422379460756058e+00 -1.2223897016898324e+01 2.2954298635291417e-01 -9.3404934060514322e-01 -1.5718607468189107e+00 -7.8957668706880630e+00 6.4364363828644883e+01 7.3585620451499800e-01 -1.7489404153933723e+01 2.1128108770081950e+00 -1.0079700874186557e+00 -2.2200953432945198e+01 3.0988878997339029e+00 3.9635681562992175e+00 -2.5075698008890007e-01 2.9342718185140387e-01 -3.9147156513317682e-02 -3.0135437373613705e+00 -8.3106518495636350e-01 -1.0527593811106668e+01 1.4830855102706253e-01 6.2364218284090223e-01 -1.4842274928668192e-01 1.9054036482353904e+00 1.1513687208685242e+02 1.3225018374889754e+00 -7.5898885311528197e+00 2.3365571742681341e+00 -5.3872125830151401e+00 -1.4765769066021111e+01 1.2725622013243081e+00 -2.8554388441657068e+01 2.2330818920196074e-01 6.8727605611957551e-03 9.9489768969270378e-02 -5.5372455805789755e+00 -1.3946130303494804e+00 -4.9659324244081775e+00 -5.0745567343833176e-02 2.3215562807806678e-02 -1.6971059937371002e-01 -2.3156472903383776e+00 2.1015744510150198e+00 5.5682035827749082e-02 -5.0815306870410504e-01 4.7855867986263978e-01 7.1244456074596236e+00 -5.5111408168598102e+00 -4.5064294092433982e-01 -6.7036607072227999e-02 -6.8761754034793288e-02 7.9754904277733054e+00 
      </Row>
      <Row Index="15">
        2.4949219786142862e-01 -4.9350492168196085e-02 -2.4270561957438449e+01 2.3837972269548349e+00 -2.9805849436062375e+00 -1.8408737611871118e-01 2.9639168261314808e-01 -3.6276019425304251e-01 -1.9922870783109534e+01 -2.1412083457946416e+00 2.6876530567380641e-01 -2.5588665030222728e+01 -4.8446886115681309e-01 2.0105266033847420e+02 4.3701255092090885e-02 9.3435627129058048e+01 -4.8290255800966406e+00 -2.2743909766414633e-01 -2.2628207234966238e-02 1.7141150789397841e-01 -1.4349216028325145e+01 -1.0313109513568475e+00 6.9249689552222202e+00 6.8168243244775151e-01 4.0483480411506140e-01 6.6007702533782753e-01 2.4753642320631158e+01 1.9080073667977167e+01 9.4385779021651350e-02 5.4584074371394856e+01 2.6151889393961264e-01 -2.7411284162225024e+02 1.8011906814460765e+00 -3.0566133698664999e+01 -7.6126660163581441e+00 2.2726335316934909e-01 2.6021627809374281e-01 -7.9835963402262267e-01 -3.7158007369273442e+01 -6.0382926484473420e-01 4.9170738475359936e+00 4.8138024666051271e-01 -6.8016183492459747e-01 9.3001492357663385e-01 9.8301302349646225e-01 1.3391692395871527e+01 1.5914279881548166e-01 1.5477607965275638e+01 1.5593135710547603e+00 6.0957992300701456e+00 -3.3938520304939344e+00 1.3306380359049962e+01 1.6178660540898612e+01 -4.7626102754249078e-01 -3.3773348786167917e-01 -1.0285350681084326e-01 3.4660045904724811e+01 3.4722908878346215e-01 -7.0611214466110113e+00 -1.0153977385276074e+00 -1.7212182265487463e-01 2.5226047743505681e-01 -4.8501988115607162e+00 1.2730630808477780e+01 -2.6750312328745757e-01 -1.4902792703892846e+01 -3.4276296091802316e-01 5.9868468337942353e+01 -7.2145784379398126e-01 -2.8010406708348949e+01 2.7691455762078700e+01 6.8405922666867527e-02 1.1863551692956417e-01 3.4271737672724525e-02 -2.7701165395914460e+00 -1.3204790262246968e-01 1.4699066101906233e+00 1.1913441609237281e+00 6.0900352699398544e-02 -3.9942939225154328e-01 1.5251454911650107e+01 1.6081932246951865e+01 3.4999676939973079e-01 -1.3929311061881924e+00 -2.3142722927944320e-01 -1.6424923278372646e+02 2.1179948346308666e+00 -5.6686740192237316e+01 -1.2849365265415024e+01 7.6286029572067648e-02 1.0493338767752904e+00 -2.9231260417131542e+00 -4.8069876279031121e+00 -3.4791820904986364e+00 2.0821705692825322e+01 2.4750812860620854e+00 2.4733492894032127e+00 1.2591023884835728e+00 -4.5160722791145584e+00 -1.5504657846477537e+02 2.3889863316679971e+00 -5.8912846868340409e+00 5.3202878844816959e-01 -2.1297688550373454e+02 -3.5842987912519111e+00 4.1593798722719768e+01 -5.8126529143007355e+00 1.9350519811371836e+00 4.1302331636358025e-01 -2.0620538486079742e-01 -1.2166892954719313e+02 2.1657115141476195e+00 1.5467139577823685e+00 -2.2572840348995599e-01 -6.2407985118118556e-02 -3.3091042553016869e+00 -5.9566109063571293e-01 4.3455791955651684e+01 -3.4341170391972481e-01 -1.0737260543050525e+01 7.7884741174215621e-02 5.0596903011419862e+01 -3.2690026615363919e+00 3.6027308341629897e+01 -8.7845386699357562e+00 -2.5285248267943672e-01 2.0048771060770854e-02 1.2843788195400968e-01 6.2473386256047760e+01 5.1567184248231364e+00 -2.3389374587619191e+01 -2.7558824153565653e+00 7.1531408211390302e-01 2.5977078380572651e+00 8.5516175996690240e+00 6.5045331317733940e+01 -1.4576795247070240e-01 -1.8184381192796295e+01 -1.3197072657014433e+00 -1.5898204083956449e+02 -4.0371590000027817e+00 -6.3599789661537045e+01 3.3096826931840774e+01 3.6375764337435140e-01 1.3589757111040983e+00 -3.4543205172782301e+00 -5.3890139473169171e+01 2.9609714170241563e+00 -6.7457830796237905e-01 -4.6790461025544422e-01 2.6705087874138020e+00 1.2775631779954313e+00 1.3720980142910900e+01 -2.1940610258971418e+01 1.9973986935898551e+00 3.6021570891017454e+01 -3.3498225420554029e-01 -1.9593941179672629e+02 -8.8843378501180137e+00 -1.0206671028071575e+02 1.2254897421274507e+01 1.6663931665063310e+00 -3.1319097279556639e-02 7.0602610496063989e-01 -1.1747530789195437e+00 -1.4453111921716182e+00 -7.2528304551806844e-01 9.7111996666327582e-02 -8.4103036767323391e-02 3.1804157933485477e-01 -5.8444480118469436e+01 2.5424077969215442e+00 1.2776127503116894e-02 5.5184879216136260e+01 -1.2341872229266126e-01 3.9392416638569657e+01 -1.4384076777731594e+00 -2.8312773673508087e+01 -1.3616345833589549e-01 -6.7147738719578998e-01 1.4060918503586604e+01 
      </Row>
      <Row Index="16">
        8.9673616643267451e-01 4.6857928295298440e-01 6.8026299576871963e+02 2.2381682456311456e+01 -1.1174081335468669e+02 -1.3124285453863195e+01 -2.1404686022651731e+00 -1.4237569090079544e+01 -9.8891604537660896e+01 -1.4453790300202920e+02 -1.9580826859079707e+01 6.9224638997693546e+00 1.1427322984280181e+01 4.5193087695515715e+00 2.6709876923934182e+01 -4.8290259203640744e+00 1.5096359435169725e+03 1.1333100266112761e+00 -4.9392868055877237e-01 -3.2858648713272487e-01 -2.3621160606182741e+02 -9.4268712106171435e+00 2.6884572108176592e+01 9.3849836750907372e+00 -5.3596732467392405e-01 -1.9461044690810247e-01 1.0443284186768166e+02 8.4922189553874688e+01 1.8864788703408084e+00 1.2316231647864637e+02 5.1733946450559465e-01 -9.0334503201375071e+01 2.7591708515363251e+00 -1.1248288687114837e+01 -3.6550816667909629e+02 -4.6180221249295883e-01 -1.1777341542436992e+00 -1.1974441844196393e+00 -3.4175075318732030e+02 1.0183583568849114e+01 4.5828940864717673e+01 3.2821189313725561e+00 2.9383466576564405e+00 4.1513232683115238e+00 -4.3961811665674873e+00 4.8474471097813712e+01 1.1172988263911794e+01 -9.3481639692632598e+01 1.2799292500549797e+00 -1.8404051479762308e+02 -2.8257696648599762e-01 4.0777436749954461e+00 3.9393919162905263e+01 -2.5355137794032498e+00 -1.6004424715990853e+00 1.3817279518576783e-01 -4.0084348898280069e+02 1.0877054795814246e+01 5.6994253776819761e+01 2.3437855015041942e+00 1.6647964604048633e+00 7.5858180498195757e+00 -7.3194253623317749e+01 -1.1172702751074567e+01 2.5601502863006389e+00 5.7583723350692168e+01 2.5688318525176279e+00 4.5375852109135622e+00 -4.9878234376382835e-02 3.4988555090751902e+01 3.4260518345824252e+01 -2.1834415908855925e-01 8.6480116801142548e-01 -3.7708577525593023e-01 4.4768128908403912e+02 2.1404977065458013e+01 -7.4245288157739324e+01 -9.5787122404492369e+00 -6.5086265674547061e-01 3.1318222163432163e-01 2.1226206602146226e+02 -7.6755308432617795e+01 1.3885611945602690e+01 -2.4933722242601462e+01 -5.9915628742780658e-01 -3.1023581121295251e+01 1.3865051279351682e+01 -8.8233235556623555e+00 2.2647613505372635e+02 -1.4752350338769105e-01 -2.9277264540591315e+00 7.6189148171143426e+00 9.4844487425332568e+02 1.4569181354209903e+01 -1.2531996544211407e+02 1.1183207822470001e+01 1.5320344921448475e+01 1.8915220530434901e+01 -1.5191167359926033e+02 -2.4677525865865523e+01 -2.8754498948866953e+01 2.3056018827140292e+01 -6.8857453938578495e+00 -1.7637871150551007e+02 2.2797933947565554e+01 1.2782499037529391e+01 -1.0948272894832139e+03 -2.7463559918744673e-01 1.1719993298845939e+00 -2.6927972639170661e-01 -4.3352288585986082e+02 -1.1963672497824486e+01 5.1332052011372227e+01 -9.9296663213783418e+00 -2.7089334198882309e-01 -1.7373227991503654e+01 -2.8134371020199254e+00 -9.4873601136443938e+01 -2.3200759137890781e-01 4.0675185739186418e+01 9.8986743704462512e+00 -1.3174439270695245e+01 -9.2183645748954071e+00 -7.4562104109886356e+00 2.2727313834098811e+02 -5.2098446466055659e-02 -1.1829015015752189e+00 -5.8675130080168136e-01 -2.2932941023938992e+02 -3.7139834348765000e-01 -1.8386954519877282e+01 -1.2485923134887361e+01 -1.4187488142844527e+01 6.6588605069819753e+00 -4.8363085927757211e+01 4.3714843945224544e+01 1.7104645656262472e+00 -3.9466455576548924e+01 -7.7441354060495851e+00 -2.0843489661631594e+02 -4.0053721459354911e+01 -6.8714358321528834e+00 5.1767687527172075e+02 -1.1835197026466897e+00 -4.3411280474893319e+00 5.4267510188902719e+00 1.3608874709688544e+02 2.1821425423696187e+01 -7.3798563356098555e+01 -1.1608953881707896e+01 3.1552374095556486e+00 1.2959471201575017e+01 -2.3550850550958859e+02 -6.6285901462688969e+01 -1.7054688886702923e+01 8.6245558827467306e+01 -3.6964610592024236e+00 -3.0443465542529066e+02 -6.1315455594712445e+00 9.3259409020231416e+00 -4.5588357679233502e+02 -3.5067790777699375e+00 -4.6340018856537962e-02 -9.1239854848015223e-01 -1.2538673429850860e+01 -1.4787135690210551e-01 -2.0205480105571240e+01 -1.6720251694635881e+00 5.4559641180783913e-01 1.1661207757778129e+00 -7.5910099014004004e+02 -2.3115419742419543e+00 -4.3929945831695987e+00 1.3273505302863313e+02 2.7488403019933729e+00 8.0624939413604437e+01 -1.0701980945938848e+01 2.8543217339909708e+00 -3.2165877578003368e+00 7.3404681771074909e-01 7.0420934815277417e+02 
      </Row>
      <Row Index="17">
        -3.0008206880445698e-02 3.3446759202811421e-01 -1.2376003328850420e+00 -1.0045222336211136e-01 1.3431864669237914e-01 -6.5601418479589668e-02 -6.4229497112080480e-03 6.1494496453669889e-02 7.6729573261815176e-02 4.1754389808427195e-01 -1.0140858575816170e-01 -1.6893952104180698e-01 2.4091279542343358e-02 -7.7131997942956332e-01 -1.6073295326975739e-01 -2.2743909765722492e-01 1.1333100360168373e+00 4.0044171340361856e-01 8.4968941915848119e-03 -1.9770003528175462e-01 3.7319405530062824e+00 1.0299306464619752e-01 -5.2914687268438432e-01 3.9057391952550258e-03 9.1787280827066720e-03 -4.7870808414401847e-02 -1.6307901688280912e-01 -5.4103774803776283e-01 6.4149040491537745e-02 4.8380515903441168e-01 1.3516748109626154e-02 1.2455043920116768e+00 1.4765765916745185e-01 -4.5387598373395122e-02 -8.7130411367445371e-02 -2.2241285192940558e-01 2.0548827636421588e-02 1.9090517812846691e-02 2.5786072885608475e+00 -2.2492454010891649e-01 -3.6661751330143239e-02 2.5142179033298608e-02 7.1496368479974703e-02 -4.2622768231892982e-02 1.6119166617368724e-01 -2.3359313005426863e+00 6.2239829057743647e-02 -9.4603700628530873e-01 -5.6915046151526275e-02 1.4040490295821488e+00 7.4714194426257485e-03 -3.2975944745353702e-01 -2.4841670101891395e+00 6.8879195852367792e-02 2.2525166123507773e-02 -5.6516453503792493e-04 -1.5728192423087617e-01 1.1089771664012305e-01 1.2527921908318432e-01 -6.7994838381863001e-03 -1.5182244705333940e-02 -2.0668272679128970e-02 1.5409538969537068e-01 2.0748499606815130e-02 -1.2419473797597485e-02 -2.2493621648336237e-02 3.4347407272649622e-03 -9.0988137353675569e-01 1.7007123892008155e-01 2.3405425861734952e-01 -3.0018065534047134e-01 -2.7208748908388987e-02 2.8209724747083054e-03 -1.8513068421518994e-02 2.2503207804642078e-01 -8.5747394155775508e-02 1.4123894599291237e-01 4.7935917848118799e-02 1.8057411664841070e-02 1.8567074400773514e-02 -2.5682028440505988e-02 -1.0741148195036976e-01 3.1480965646099361e-02 1.4255898927764143e-01 -2.6132899233055971e-02 -1.9236270498861430e-01 -9.9734710267410806e-02 2.0487573915111890e-01 -1.9725901708609741e+00 -1.1819859433069596e-02 -5.7517338056052664e-02 6.0765402651426048e-01 1.3188154107228822e+00 6.3309587049893234e-01 4.5413486039423900e-01 -1.7388560538975948e-02 -3.0564570534392888e-01 9.0290298245591344e-02 -3.5458567508699934e-01 6.1600521578967635e+00 -9.0388467697538888e-02 7.6586940722867869e-01 2.8040382986995116e-01 1.0844375629433221e+00 5.9106711347303209e-01 -5.6760584525038515e-02 -3.9439979430949107e-01 -4.7635252907798176e-01 -5.7664138155992181e-03 6.1982240391329511e-02 3.8372328168044234e+00 -7.0408751155545124e-02 -4.5979504319092701e-01 1.7783554031875638e-02 5.9307019520642185e-02 4.9165089637190518e-02 1.2222031778863185e-01 -3.5890877448446386e+00 1.6584264388918860e-02 -7.7993173203196875e-01 -4.2273900521628809e-03 2.3985607894289807e-01 6.7691382909503772e-02 -2.3781070603832877e-01 9.9430947348672660e-01 1.3446127516490206e-01 6.7784411174735583e-03 9.0188205999130952e-02 -2.3280852577095503e+00 -2.7953711702854006e-01 3.6153902092685697e-01 -2.8429010257054757e-02 1.3048870497574555e-01 3.1979752882942275e-02 2.1591845157674178e-01 -4.0261305949443518e+00 -3.2138940861601691e-02 -6.8942113616080558e-01 1.1098631506219322e-01 2.8661940410044342e+00 2.5501153151835748e-01 -4.3301939205461126e-01 4.6212580486364840e-01 -2.8592556861601885e-02 -2.4369401605283697e-02 7.3516316630257761e-01 3.7870282670662032e+00 3.1542269988778526e-01 2.0797456361317407e-01 -1.2152668618459414e-02 -7.7247002475527501e-02 1.2485177510026046e-01 -9.9666947666496863e-01 -1.1879522180867261e+00 -7.5125763862772144e-02 -2.1095325522608788e-02 3.2961494206135583e-01 2.0854229391389687e+00 8.4037829072545400e-01 -5.1845747188074165e-02 1.3725181085023124e+00 -3.1534298782469095e-01 3.8268087838310202e-03 -1.2872923657644061e-01 -2.7983831716223762e-02 9.8099879834692871e-02 -6.8119080931895049e-03 9.2574888055742613e-03 1.1273447082748656e-03 -5.9288305114761908e-03 -1.7136909033685228e+00 -1.1011542984077630e-01 -2.8420450058762314e-03 -6.5232789533787194e-01 6.9450593012155681e-03 -4.8343761055638657e-01 6.2752692553980347e-02 1.2408634880568029e-01 1.3734535624028207e-02 1.6509814090028493e-01 1.9709368382448340e+00 
      </Row>
      <Row Index="18">
        -1.0800884663178678e-01 1.5207323439582559e-03 -8.9575812318022674e-01 3.4679838042534730e-02 -8.4560276159889147e-02 9.6023019543283183e-02 -7.9163895725802291e-03 -1.8679729854260765e-03 4.5916587390110664e-01 -8.4174163421753212e-02 -4.4052467865599798e-02 -9.3546976602874565e-01 -4.4564728385459773e-02 -5.0470631602968297e-01 -3.5846300396211256e-02 -2.2628206055742339e-02 -4.9392868330983219e-01 8.4968942189240781e-03 1.9166781937368860e-01 -4.2576778943841376e-03 3.8752570074185355e-01 -3.5529016487627102e-02 7.3955670183420585e-02 -2.8068503468205865e-02 -9.9490251274380465e-04 4.8114013273256623e-02 -5.9196107965757871e-01 -2.9769071757947252e-01 7.0263823908400094e-02 2.1801474593880865e-01 -2.8590217875918825e-02 1.7052847281080372e+00 1.5086403897060383e-02 4.2588435248381984e-01 -1.5260503862760615e+00 -1.5618487422773723e-02 4.0296688504022821e-02 -2.9321798871044151e-03 -5.3716308837651505e-01 -8.5608196210120557e-02 5.1896574600133749e-02 -5.2137159527920196e-02 3.4700824229868893e-02 2.4094254354992357e-02 4.9622263623705848e-01 7.5194808935113655e-01 5.3759666821913375e-02 1.1654785072605307e+00 7.1414296474421046e-03 2.4049669958591444e+00 -6.0298130372429579e-02 8.0864176502938090e-02 7.5863277220196323e-01 -4.1020110991319674e-03 -2.0325485499451443e-01 -6.5983767834042802e-04 9.5340379096152861e-01 -1.8250084677624648e-01 1.4341014595352833e-01 -8.8971582382128711e-02 -7.3591151112313603e-03 1.5784296965183926e-02 1.8291719055530936e-01 1.3089861814625492e+00 2.0693166687914918e-02 2.6085380649042023e-01 -8.6004487126086340e-02 9.6360145624883042e-02 1.1850642499888329e-01 -5.4048405354633744e-01 -7.2597709434803326e-01 -7.2041594132811384e-03 4.1354130011590088e-03 7.4482897766140008e-04 -1.5968519311429228e+00 -1.3088911895778980e-03 2.4868455104945889e-01 1.2278666765993118e-01 -3.1698845421978261e-03 -3.1778512027944406e-02 -1.0233731142894631e+00 -4.5151141314162163e-01 1.5015344520415919e-02 -1.7485344569526364e+00 6.9310895000586625e-03 -1.7713721218216349e-02 -7.6154866948437039e-02 2.8133745349510098e-01 2.1217840938632184e+00 4.6966738757976342e-03 1.8569790785801055e-01 6.7499370889797100e-02 1.1195371670485326e+00 3.9061453623628839e-01 5.5497144689623323e-01 2.8463460320194228e-02 -8.5675106526311551e-02 -8.8738408941205021e-02 6.8996189111686390e-01 -2.2168819081615654e+00 -4.8213525790985992e-02 -1.4060071924814679e+00 3.3297950400118653e-02 2.7819552585357767e+00 -6.1451660657546592e-03 2.0913868092462345e-01 2.6360045374051744e+00 -1.8983772772077724e-02 2.0378126387280246e-02 -4.9619369506739321e-03 -1.6306193793722903e+00 4.4509110388552410e-02 -1.8556717095609340e-01 6.0410501176557135e-02 2.6723278874998452e-02 1.6638349522808682e-01 2.3009330031097486e-01 1.6540981883656067e+00 2.8767178360083162e-02 -1.1511896086548035e+00 -6.8940570955687480e-02 5.2464823108326186e-01 -4.7506581423340008e-02 1.6469709140555566e-01 -2.7249392989267758e+00 -9.3191562264534206e-03 -1.6265118139735749e-01 -1.2591705727566812e-02 -7.4154978954085005e-01 -1.2865464969348125e-01 -4.2378455940205673e-01 1.4007760559878701e-01 -2.6187854964419971e-03 -1.0588226929979350e-02 3.1169501076828254e-01 4.8033654745137100e-01 -9.7311864508777657e-02 -1.6673869192816411e+00 1.6872520324895182e-03 5.5245011514753921e+00 -1.2056751775691249e-01 -2.3097440558807847e-01 1.4924506508858322e+00 -1.2460996942065067e-02 -5.4110062304134510e-02 4.7767677373355522e-02 -1.9155505965457715e+00 7.1523218139163014e-02 9.2476776891569523e-02 2.0577757883885817e-01 -5.5761552346101854e-02 5.3191604931001162e-02 6.8778182108879160e-01 -2.3465946573718854e-01 -5.6145674238250246e-02 -2.1715066010301034e+00 -6.1816220485366946e-02 4.9943827084150367e+00 -1.7008905357682519e-01 -1.2641684194350189e-01 1.5992430945944491e-01 -4.0661675256370176e-02 -2.6412184877704810e-02 -8.9161148410045899e-03 -2.7637713339987435e-02 4.9251090728597451e-02 1.1431025618038925e-03 2.4802956191337475e-02 1.4368311579091644e-03 -6.8463863734427033e-03 3.0248905699909439e+00 6.4097955256352354e-02 -1.3901186015381244e-02 -2.1154904956908109e+00 -1.4410697429539479e-02 -5.1598644830163398e-01 -2.0073256741922951e-02 -6.0383865687368990e-02 -1.0544203842320715e-02 1.0144279809665251e-02 -1.4085972187098628e+00 
      </Row>
      <Row Index="19">
