<?xml version="1.0"?>
<MethodSetup Method="MLP::MLPTuned">
  <GeneralInfo>
    <Info name="TMVA Release" value="4.1.2 [262402]"/>
    <Info name="ROOT Release" value="5.32/00 [335872]"/>
    <Info name="Creator" value="ineuteli"/>
    <Info name="Date" value="Thu Nov 19 13:30:12 2015"/>
    <Info name="Host" value="Linux cmsdev02.cern.ch 2.6.32-431.11.2.el6.x86_64 #1 SMP Wed Mar 26 09:39:43 CET 2014 x86_64 x86_64 x86_64 GNU/Linux"/>
    <Info name="Dir" value="/shome/ineuteli/phase2/CMSSW_5_3_24/src/Delphes/plots"/>
    <Info name="Training events" value="31170"/>
    <Info name="TrainingTime" value="3.57129607e+02"/>
    <Info name="AnalysisType" value="Classification"/>
  </GeneralInfo>
  <Options>
    <Option name="NCycles" modified="No">500</Option>
    <Option name="HiddenLayers" modified="Yes">N+10</Option>
    <Option name="NeuronType" modified="Yes">tanh</Option>
    <Option name="RandomSeed" modified="No">1</Option>
    <Option name="EstimatorType" modified="No">MSE</Option>
    <Option name="NeuronInputType" modified="No">sum</Option>
    <Option name="V" modified="Yes">False</Option>
    <Option name="VerbosityLevel" modified="No">Default</Option>
    <Option name="VarTransform" modified="Yes">N</Option>
    <Option name="H" modified="Yes">False</Option>
    <Option name="CreateMVAPdfs" modified="No">False</Option>
    <Option name="IgnoreNegWeightsInTraining" modified="No">False</Option>
    <Option name="TrainingMethod" modified="No">BP</Option>
    <Option name="LearningRate" modified="No">2.000000e-02</Option>
    <Option name="DecayRate" modified="No">1.000000e-02</Option>
    <Option name="TestRate" modified="No">10</Option>
    <Option name="EpochMonitoring" modified="No">False</Option>
    <Option name="Sampling" modified="No">1.000000e+00</Option>
    <Option name="SamplingEpoch" modified="No">1.000000e+00</Option>
    <Option name="SamplingImportance" modified="No">1.000000e+00</Option>
    <Option name="SamplingTraining" modified="No">True</Option>
    <Option name="SamplingTesting" modified="No">False</Option>
    <Option name="ResetStep" modified="No">50</Option>
    <Option name="Tau" modified="No">3.000000e+00</Option>
    <Option name="BPMode" modified="No">sequential</Option>
    <Option name="BatchSize" modified="No">-1</Option>
    <Option name="ConvergenceImprove" modified="No">1.000000e-30</Option>
    <Option name="ConvergenceTests" modified="No">-1</Option>
    <Option name="UseRegulator" modified="Yes">True</Option>
    <Option name="UpdateLimit" modified="No">10000</Option>
    <Option name="CalculateErrors" modified="No">False</Option>
    <Option name="WeightRange" modified="No">1.000000e+00</Option>
  </Options>
  <Variables NVar="4">
    <Variable VarIndex="0" Expression="DeltaR_b1l" Label="DeltaR_b1l" Title="DeltaR_b1l" Unit="" Internal="DeltaR_b1l" Type="F" Min="3.22578669e-01" Max="4.48389149e+00"/>
    <Variable VarIndex="1" Expression="DeltaR_bb1" Label="DeltaR_bb1" Title="DeltaR_bb1" Unit="" Internal="DeltaR_bb1" Type="F" Min="3.31655145e-01" Max="5.43578577e+00"/>
    <Variable VarIndex="2" Expression="DeltaR_j1l" Label="DeltaR_j1l" Title="DeltaR_j1l" Unit="" Internal="DeltaR_j1l" Type="F" Min="2.84361333e-01" Max="5.96390295e+00"/>
    <Variable VarIndex="3" Expression="M_bb_closest" Label="M_bb_closest" Title="M_bb_closest" Unit="" Internal="M_bb_closest" Type="F" Min="1.18016901e+01" Max="2.38172803e+03"/>
  </Variables>
  <Spectators NSpec="0"/>
  <Classes NClass="2">
    <Class Name="Signal" Index="0"/>
    <Class Name="Background" Index="1"/>
  </Classes>
  <Transformations NTransformations="1">
    <Transform Name="Normalize">
      <Selection>
        <Input NInputs="4">
          <Input Type="Variable" Label="DeltaR_b1l" Expression="DeltaR_b1l"/>
          <Input Type="Variable" Label="DeltaR_bb1" Expression="DeltaR_bb1"/>
          <Input Type="Variable" Label="DeltaR_j1l" Expression="DeltaR_j1l"/>
          <Input Type="Variable" Label="M_bb_closest" Expression="M_bb_closest"/>
        </Input>
        <Output NOutputs="4">
          <Output Type="Variable" Label="DeltaR_b1l" Expression="DeltaR_b1l"/>
          <Output Type="Variable" Label="DeltaR_bb1" Expression="DeltaR_bb1"/>
          <Output Type="Variable" Label="DeltaR_j1l" Expression="DeltaR_j1l"/>
          <Output Type="Variable" Label="M_bb_closest" Expression="M_bb_closest"/>
        </Output>
      </Selection>
      <Class ClassIndex="0">
        <Ranges>
          <Range Index="0" Min="3.5356962680816650e-01" Max="4.3949065208435059e+00"/>
          <Range Index="1" Min="3.3891403675079346e-01" Max="5.2343888282775879e+00"/>
          <Range Index="2" Min="2.8436133265495300e-01" Max="5.9639029502868652e+00"/>
          <Range Index="3" Min="1.3509715080261230e+01" Max="1.8837241210937500e+03"/>
        </Ranges>
      </Class>
      <Class ClassIndex="1">
        <Ranges>
          <Range Index="0" Min="3.2257866859436035e-01" Max="4.4838914871215820e+00"/>
          <Range Index="1" Min="3.3165514469146729e-01" Max="5.4357857704162598e+00"/>
          <Range Index="2" Min="3.1516379117965698e-01" Max="5.0274786949157715e+00"/>
          <Range Index="3" Min="1.1801690101623535e+01" Max="2.3817280273437500e+03"/>
        </Ranges>
      </Class>
      <Class ClassIndex="2">
        <Ranges>
          <Range Index="0" Min="3.2257866859436035e-01" Max="4.4838914871215820e+00"/>
          <Range Index="1" Min="3.3165514469146729e-01" Max="5.4357857704162598e+00"/>
          <Range Index="2" Min="2.8436133265495300e-01" Max="5.9639029502868652e+00"/>
          <Range Index="3" Min="1.1801690101623535e+01" Max="2.3817280273437500e+03"/>
        </Ranges>
      </Class>
    </Transform>
  </Transformations>
  <MVAPdfs/>
  <Weights>
    <Layout NLayers="3">
      <Layer Index="0" NNeurons="5">
        <Neuron NSynapses="14">
          3.2073693133517078e-01 1.8887008116968136e+00 2.2480930612358722e-02 1.2634898044777050e+00 -2.2277065872009297e-01 -5.2386083646222115e-01 -2.3494081451971749e-01 2.5003041386901931e-01 -2.0387318032353613e-01 -2.3727144869909983e-01 -1.1858282907271553e+00 5.9672841723358561e-01 -2.4909987549790182e+00 -1.2474780619216770e+00 
        </Neuron>
        <Neuron NSynapses="14">
          -8.4508825067695215e-01 -1.5067875994574847e-02 2.8350860081812215e-02 1.3096553288600030e+00 -1.0014028097668011e-01 1.9683614105361587e+00 -2.2201024162243915e-01 -3.5718262011356900e+00 2.1622389269001374e+00 -1.8870068681801151e-02 -3.9312140058419093e-01 -3.6565813496879658e+00 9.6335591905471474e-01 1.7651836545636262e-01 
        </Neuron>
        <Neuron NSynapses="14">
          -3.8047757025569040e+00 4.9002695882297276e-01 1.6477895569549958e-01 8.4435450439365078e-01 -4.2714428830626955e-01 -1.6647720810483360e-01 -3.7356268140550354e-02 2.3477392631923815e-02 -4.0895450114375498e-01 3.6074630448067885e-01 -1.3176739924424901e+00 1.4714545474247809e+00 1.0756164096986030e-01 6.2347059668984317e-01 
        </Neuron>
        <Neuron NSynapses="14">
          1.6071419287937758e+00 7.0884143943850331e-01 3.0190254876638806e-01 -1.5870471035747393e+00 -5.8227670869789938e-01 5.3431227651562327e+00 9.4437034999840885e-01 1.6616097921490192e+00 7.7268401115072525e+00 5.0959150042438273e-01 -2.2842186909052478e+00 1.5525208187004136e+00 -1.9215075706826759e+00 -1.2690633480651923e+00 
        </Neuron>
        <Neuron NSynapses="14">
          -1.8028281719309407e+00 -2.1771161978956552e+00 3.9611320684646661e-01 -4.1802372265110049e-02 -9.3496471434967354e-01 5.4438219525239102e+00 6.7231536776861933e-01 1.0512779973069395e+00 8.6892613339953613e+00 5.9715516808117985e-01 1.7265753869449398e+00 -9.1027854206112080e-01 -1.8890045075084374e+00 -1.2221883565016036e+00 
        </Neuron>
      </Layer>
      <Layer Index="1" NNeurons="15">
        <Neuron NSynapses="1">
          2.9257617154104698e-01 
        </Neuron>
        <Neuron NSynapses="1">
          -7.9364651744812398e-01 
        </Neuron>
        <Neuron NSynapses="1">
          1.6146815261776363e-02 
        </Neuron>
        <Neuron NSynapses="1">
          -2.0381179349899517e-01 
        </Neuron>
        <Neuron NSynapses="1">
          6.2469648852715816e-03 
        </Neuron>
        <Neuron NSynapses="1">
          -7.6931754297459232e-01 
        </Neuron>
        <Neuron NSynapses="1">
          7.0747317870660381e-02 
        </Neuron>
        <Neuron NSynapses="1">
          -3.1758417476780237e-01 
        </Neuron>
        <Neuron NSynapses="1">
          1.0670077738379884e+00 
        </Neuron>
        <Neuron NSynapses="1">
          3.2169231104121891e-02 
        </Neuron>
        <Neuron NSynapses="1">
          8.1262845257572525e-01 
        </Neuron>
        <Neuron NSynapses="1">
          4.7518115673335676e-01 
        </Neuron>
        <Neuron NSynapses="1">
          -3.6493046415757924e-01 
        </Neuron>
        <Neuron NSynapses="1">
          3.9180948534758314e-01 
        </Neuron>
        <Neuron NSynapses="1">
          -1.0850524691940604e+00 
        </Neuron>
      </Layer>
      <Layer Index="2" NNeurons="1">
        <Neuron NSynapses="0"/>
      </Layer>
    </Layout>
    <InverseHessian NElements="7225" NRows="85" NCols="85">
      <Row Index="0">
        1.9361033218606222e-01 -1.0751616784096463e+00 -5.5176069002335426e+00 -5.1477487369727140e-02 4.5887864725315680e+01 -3.8709836372999139e-03 -2.8883241459850790e+00 2.8451944623930506e-03 8.8237353734294584e-04 5.2049672054147162e+00 1.9260621234551820e+00 4.8352959629241118e-03 7.2806329462933694e-02 1.4700354396096199e-01 2.0742845683753040e-02 7.1064749286879059e-02 -9.8953673029824749e+00 6.9079911617153558e-02 -6.8209141957602668e+00 5.5921965575467941e-04 3.4553499606530238e+00 1.8250120605974501e-02 7.1799706265137028e-03 1.3836391586762829e+01 2.8056661996959633e+00 6.6571661836074426e-03 -6.5197068765523225e-02 -8.1252931557681582e-02 -4.8206274920665176e-02 -7.3261785325507423e-01 -1.2673319326870367e+01 8.8410730092221751e-02 -4.7990849016508641e+01 -1.6032277702811596e-03 6.8580530850488941e+00 -5.6713038478056338e-03 2.1535883969809491e-03 2.9618242598528049e+01 4.0700469473487253e+00 -1.0151671539677954e-02 -1.4516107130232058e-02 -3.8415124025341996e-01 1.8942485294340466e-01 -1.0915257546159056e+00 -1.4073956341641392e+01 -1.4071643114201293e-01 3.9247557907749339e+01 -1.1359185358296553e-02 -9.6055522890511291e+00 -1.9048001453635249e-03 1.3151209960633634e-02 -1.5379042900889678e+01 6.3437676599548709e+00 -5.6505988905897697e-02 7.7360266804762878e-02 2.5452186531402976e-01 1.8060090191733327e-01 -4.0059353118297025e+00 1.5543493004051324e+01 -5.1938170814812251e-02 -1.9529872445468296e+01 -1.4336602510460976e-02 -4.1734940337350848e+00 -1.4009675659513166e-03 2.2317364079271922e-02 9.8694553144729014e+00 6.1507589258634097e+00 -5.6935642196482839e-02 5.9306730698401366e-02 1.2517060323808180e-01 -9.7800463944296354e-03 -5.6478731385810770e+00 2.0088721330571855e+00 9.4112065011176874e-03 5.3144437553653978e-01 4.2354600657468055e-03 2.5328725383133897e+00 -4.5500080066631070e-03 -7.7907933756354852e-04 -2.7230404569739268e+00 1.2123010234199947e+01 2.6940019598717460e-03 -4.2212322799168249e-02 2.4793674943929392e-01 -1.8151752743494512e+01 
      </Row>
      <Row Index="1">
        -1.0751621249910386e+00 1.3843066749036263e+03 2.9492241017107135e+03 3.3603661862966145e+00 1.3105132654003464e+03 1.3848462342070020e+00 2.1546611204550530e+02 -8.6044504107954800e-01 -8.2575954499531579e-01 -4.1088539107191230e+02 2.4437661460920032e+02 -3.5044262319985089e+00 -1.3398090435441881e+01 -4.5838532448946069e+01 5.1482536208585632e+00 -3.4961806777556941e+00 3.8922981925065596e+03 1.0485358115664109e+01 -2.4407016249643857e+03 -3.8596265519729003e+00 -1.4499034725182287e+02 6.0769924210055848e-01 -6.1954301347532059e-01 -2.9786320821524833e+02 5.4339257211742233e+02 -1.1062877807682085e+01 2.4167558183342406e+00 6.0676515513760014e+00 2.2361656830011462e+01 2.6069279680859074e+02 7.9288594963281630e+03 -3.8529299912354960e+00 -1.8312789837125770e+03 8.9599783960433099e-01 -6.6040199136479669e+02 -7.9338401268432301e-01 4.1505446946593966e-01 -3.1221656881929975e+03 6.9508371679577976e+02 2.7090301121640872e+00 6.8874860642837887e-01 5.2372224056443002e+01 -1.1117647105392473e+01 1.1268187274277525e+02 3.7438519390734327e+03 1.5553390494251955e+00 -5.2814140771907714e+03 1.5364163502853163e+00 -1.8361416686669645e+02 -6.3312938434833219e+00 4.2674907504542396e+00 -2.5804210981235451e+02 1.2650169439774370e+03 2.9339345381726538e+01 -1.1531951973009988e+00 -8.5282508834828946e+01 6.1923752978577271e+00 2.8824992196100261e+03 -6.3362044004873787e+03 3.1412997776663394e+00 3.4889336824051661e+03 1.8500574012929947e+00 -2.9734933313529473e+02 -4.7216575241590064e+00 2.9021232883489270e+00 -2.0981164594077163e+03 9.1230244139290414e+02 2.1577963242148734e+01 -2.9692448506141105e+00 -5.1474535262615561e+01 3.7273810183389142e+00 6.1465096460041941e+03 -1.0250728246506485e+03 2.2778717860586326e+00 -8.2741295584335177e+01 -1.4090018223231082e+00 -3.3624497492966782e+01 -1.3949986910834333e-01 6.7116093922076736e-02 5.0168920205669275e+02 2.2237949733738456e+03 -3.0956748294736633e+00 3.7687711345400898e+00 -5.7809695326166903e+01 4.0975207250764315e+03 
      </Row>
      <Row Index="2">
        -5.5176097906951327e+00 2.9492243942944333e+03 6.0772638091877103e+05 -7.5153679216525973e+01 -3.2063693291194853e+04 -7.5204717363744589e+00 2.3544117298185870e+03 1.2686262531631340e+00 1.0316620926669480e+00 1.3670022463951146e+05 6.8247004021782368e+02 -2.1772627831731519e+01 -7.6929862273313372e+00 1.0935517948552246e+02 -3.1134020652289083e+00 -4.1998576415774158e+02 1.4668542894057865e+05 -2.1690093811352580e+00 1.0017465158411238e+04 2.6972726633427069e+01 4.7070952235395116e+03 9.6037382332265953e+00 4.4451956161893520e+00 1.5803558780608138e+04 5.5753361261811833e+03 7.0591520040595022e+00 -4.8499537273566901e+01 -5.2049806157140175e+01 1.1207371725055516e+01 -1.6167644652499996e+02 -9.2283143386814190e+04 -1.6559512332657005e+02 4.1085906998713486e+04 -3.0216662143977890e+00 -5.9844577681480623e+03 4.6309382284381950e-01 -8.4386903950549002e+00 -1.5885465292662574e+05 8.1144408244011038e+03 -9.4843179628215921e+00 -9.9443032218196024e+00 -5.8223188184683622e+01 9.2713065684108955e+01 -8.8816497541221906e+02 -1.8008943119856442e+04 6.9447491959465452e+01 -1.8661143762513741e+04 3.6949519224717733e+00 -1.3666550412594705e+04 3.2517546763496355e+01 -3.4013005737553193e+01 -1.6779581243134342e+05 1.1788197774708020e+04 -2.3494266439514624e+02 7.4253458712483621e+01 1.5948333146401271e+02 8.3181276883324642e+01 2.6180404430359986e+03 3.6689455099105689e+04 -3.4924342475276660e+01 6.9512450648162048e+04 2.3511326430623223e+00 -1.2391274231110292e+04 2.5578484166642397e+01 -2.5817664909637173e+01 -1.9236321838913020e+05 7.5808576421883481e+03 -2.1494576807403428e+02 4.1827634522810541e+01 1.6910835974827552e+02 5.4191698344322772e+00 1.0267127505049701e+04 -6.0482875864099136e+04 -2.8086035267810658e+01 2.7113104914881387e+03 1.4253264573854892e+01 1.4502872287430662e+03 -2.8265128283338896e+00 5.7316645842810487e+00 4.9590923736461024e+04 1.8812691328139168e+04 8.9624949717452296e+00 -1.1435957455204086e+01 1.2662376879413138e+02 -6.5647974321038564e+03 
      </Row>
      <Row Index="3">
        -5.1477491913715312e-02 3.3603683852284121e+00 -7.5153665216991925e+01 1.1728825780452103e+01 -5.9522730579640253e+01 6.4111964477154643e-02 -1.1926797447622398e+02 2.1582032509439708e-01 1.6071558741214617e-02 2.4693975649797969e+02 2.8918009726679884e+01 -2.7702127509286759e-02 2.5558567412825156e-01 -8.2644192150203943e-01 -3.4919729749558412e-03 -2.2549634987269345e+00 1.1681813010709539e+02 1.1134695051994282e+01 -8.4279081955934635e+02 -3.1863212003695171e-02 -1.4720581320079108e+02 -1.2646001604742083e+00 -2.9387723599848031e-01 7.2203272509045419e+01 2.0355587625806500e+01 2.8352949047427067e-01 -1.4784727136024917e-01 -2.8249384736512229e-01 -7.5124875335029262e-02 3.9377618370359269e+00 -2.7439819098957219e+02 5.3834530015257851e+00 -7.1652922822328617e+02 7.1319109447889467e-02 -1.3330067495288458e+02 9.9949210687087842e-02 4.3805174643295849e-02 -6.8768053886074767e+01 4.3711941744690080e+01 -7.7267514085784389e-03 2.5475988396012950e-02 -1.4127222531120909e-01 -3.6959904282202238e-01 2.2249831311781545e+00 2.0273244263133466e+02 -1.1620773642505545e+01 7.7229914555477455e+02 1.3523573522120587e+00 1.3938535048610362e+02 -4.0767336932045328e-01 9.7033853429899924e-03 3.7964078229291715e+01 5.7624610077892257e+01 3.8447001809079291e+00 3.9921083619957376e-01 9.7650524204457967e-01 -4.3336618479317068e-01 2.8954855338027148e+00 1.9197270618547651e+02 4.7011956440598524e-01 5.5099425136930677e+01 1.2679642783097802e+00 -4.2618813667137886e+01 -2.8458726406564772e-01 -2.7349475915281762e-01 1.0626021734402161e+02 5.2227816775282250e+01 3.7356316564974819e+00 3.5748792135442264e-01 5.5908287581303429e-01 1.3433225129332172e-02 9.0444612630346715e+00 -1.5609509469906815e+00 4.8274741998016806e+00 -8.0714871473508837e-02 6.5257960257831302e-02 -3.9556898511779082e+01 2.5487877774381784e-01 -1.0839665887075889e-01 4.5532562545803543e+01 9.6812847616024428e+01 1.8095496810028588e-03 -1.2218008900429522e-01 3.8379090522201238e-02 -9.1688083434401065e+01 
      </Row>
      <Row Index="4">
        4.5887864923221059e+01 1.3105138474757550e+03 -3.2063690500659279e+04 -5.9522723545800545e+01 7.1420256434178865e+05 -1.6071180462531620e-01 -2.3637886590815006e+03 4.2775341492178658e+00 1.1588780742930216e+00 1.6312630852404766e+05 -4.0520350581854582e+03 -1.2202768330081490e+01 -3.1467462066200667e+01 -1.6677023827269267e+02 -2.5309322167956068e+01 -9.0903794009949581e+02 2.4333589579933352e+04 -6.6902676102628436e+02 1.4878661237334285e+05 -4.5441932719223264e+00 8.4265450751385470e+02 -8.6446915173438157e+00 -6.8013757234048828e+00 4.8537534930218608e+04 -2.3862738928162216e+03 4.2082559374215037e+01 2.7067832540148949e+01 -2.9428093206850320e+02 9.6299928930448928e+00 1.7603260429444508e+03 -3.4300842868131447e+04 -1.7690053480173154e+02 -5.3737555375707409e+04 -1.4333527803419788e+00 7.2237796615275329e+03 -1.8930592751531389e+01 4.1265737022563354e+00 3.6490621105257997e+04 5.0051895754881789e+03 2.0528611489846369e+01 1.3693163881103462e+01 -2.6572873151535788e+02 1.1887353306844261e+02 1.2100960227036285e+03 -3.5186828061923043e+04 1.4362940096094173e+03 -1.1823191045288114e+05 7.1217646604118954e+01 -1.0969388120070580e+04 -2.0792716111228486e+00 7.4477736932625646e+01 1.3271539393067564e+04 3.6217336456768385e+03 1.7905106576352603e+02 -6.6827956046884310e+01 4.3145677540238012e+02 1.0636699647339628e+02 -1.2583853668461957e+03 6.3670814609133107e+04 9.7499600676641671e+02 1.5607773012757098e+05 5.7804621702822374e+01 -4.9252901865380045e+03 -6.1270356961806556e+00 6.5034489516079304e+01 1.1243902292039253e+05 1.0183959220808209e+04 1.9770928285457376e+02 -3.8281630075061670e+01 1.3787812609074228e+02 -1.4809540439811324e+00 1.0668656925369110e+03 -1.2568306201071488e+04 -2.2141320692569164e+02 1.2789301295730320e+04 1.1224884209150796e+01 3.1890257265107962e+03 3.3110119786431795e+00 -2.1078957853848010e+01 1.9343843802208772e+04 1.1876519222064584e+04 -3.8590245213171386e+00 1.6607658675907150e+01 1.7015583958692628e+02 -1.2524369363174423e+04 
      </Row>
      <Row Index="5">
        -3.8709840276922591e-03 1.3848461344026930e+00 -7.5204724559381138e+00 6.4111961665201278e-02 -1.6071236337897754e-01 1.1596971574502826e-01 -1.7336022265984288e+00 -2.5327934563743500e-02 -2.5666660528034659e-02 -4.1244630361273438e-01 -5.6768684327835217e-01 1.0963813921836874e-02 6.3451080558497408e-02 -1.9962308060878897e-01 1.4145543965669994e-03 -2.8315753460462764e-02 -9.8734303923546207e+00 5.6969370944134207e-02 2.1386886392573601e-01 -8.9488205537153268e-02 -3.0605356393143174e-01 3.8202092345479735e-02 -1.9148211852145927e-01 7.1341662592079746e-01 8.3088725799565832e-01 1.0345704634247006e-02 -1.3038723616343300e-02 6.7329052829127281e-02 1.0406511979999899e-02 2.1394870931151388e-01 -1.0610015223980731e+01 3.4289780565233886e-02 -1.4541585515219975e+01 -2.9077568511377053e-02 -9.3675895822753519e-01 2.6438100739987612e-02 5.2368806128025656e-02 -9.6515016441894486e-01 -2.6339868506718100e-01 -4.7385905107387660e-02 1.4804554387320602e-02 3.6160803624657081e-02 -9.5736193040806064e-03 1.1170371348006025e-02 -9.8354832980475777e+00 -5.2734191856231585e-02 1.0886529597038464e+01 -2.7719800566297595e-02 2.4919488055384220e+00 -9.0867767200621549e-02 -1.0623319854810511e+00 -4.7104168446697257e+00 -1.2667123787669698e-01 -1.0589434531341271e-01 9.2276508482069003e-02 -2.4600077296829251e-01 -3.3636508723208390e-03 3.1189544751912592e+00 1.2956825151510969e+01 9.4062460774701206e-03 1.3860990374208484e+00 5.6850034640953770e-02 1.0771536022490376e+00 -6.7729869527943173e-02 -1.1766546972684488e+00 -8.9240720150531629e+00 -2.3392118632514025e-01 -1.1060366199697963e-01 8.8062121365838436e-02 -1.9460053923462711e-01 2.9049360104077171e-03 6.6747804973070171e+00 1.1087480165082209e-01 2.6948151417666485e-02 -4.8467336294589658e-01 -2.1030250672601328e-01 -5.2161709711765192e-01 -5.0038853048933393e-03 2.5063924628891865e-01 4.5784415597839201e-01 2.5051011636084208e-01 1.8436486646767586e-02 -3.8311977951445184e-02 -1.0811948390760499e-01 5.9135748813618489e+00 
      </Row>
      <Row Index="6">
        -2.8883240621762525e+00 2.1546604932221817e+02 2.3544112816094444e+03 -1.1926797463995899e+02 -2.3637885280088722e+03 -1.7336022960496393e+00 7.4038834622277636e+03 -2.7881858281646625e+00 1.1399539865352086e+00 -1.1457294305003748e+04 -1.7345223468914628e+03 4.0758038121202844e-01 -5.9039391432967125e+00 3.7522752503194667e+01 -1.1165798843651742e+00 -2.1671189299714186e+02 1.1165187284633957e+04 -1.6715595653500034e+02 7.4521072336073248e+03 1.2269301092381237e+00 4.5897530187773536e+03 1.2515342350097043e+01 3.2891612755172766e+00 -4.4637981648017558e+03 -8.1602661009232838e+02 1.8099017839790703e+00 6.4805964520268571e+00 2.7327957988619879e+01 2.1393360359018128e+00 -2.1818479090869988e+02 2.4837815266809568e+04 -8.5067663039013667e+01 1.6859827887435309e+04 -2.3338231063083903e-01 2.5938546273095931e+03 -1.1263132321982523e+00 -7.7119470877909024e-01 -2.7684166636365089e+03 -2.1985599621153237e+03 2.2842263569362604e+00 7.2712383346173137e-01 1.4607264813314440e+01 5.4683530298921923e-01 6.8663996742760173e+02 -1.8350090583488287e+04 6.7722415419627850e+00 -1.8065122792968741e+04 -4.9677002424286627e+00 -6.9474871202903241e+03 -4.4625649705675769e+00 1.0333762382406707e+01 4.0272025741856769e+03 -2.2295777226019163e+03 -1.7252769800803033e+01 -9.5549846795300510e+00 -1.0020124727936506e+02 9.8995935781141498e-01 6.1940061658946343e+02 -3.5586524328828928e+03 -1.3666657952485150e+02 -1.5256621921539390e+03 -6.5339532813668626e+00 -2.5023429226154263e+02 -3.9980608718367421e+00 1.3359983614658152e+01 -3.7287455416841553e+03 -1.1713923827699389e+03 -1.4114704715508594e+01 -5.9738261371956796e+00 -6.5929378935889773e+01 2.0606882321725339e-01 6.1535302415519527e+02 -1.5661535286617959e+03 -8.1781521352068864e+01 -2.4967989060367245e+02 2.5095710180933182e+00 1.5598701977043199e+03 -2.2798739923767339e+00 -2.5064655931732744e+00 -9.3544844757362807e+02 -2.5052049071183510e+03 1.6097605658908520e-01 4.5932180174647499e+00 -1.4043221510551788e+01 3.2029793230045984e+03 
      </Row>
      <Row Index="7">
        2.8451945490957087e-03 -8.6044481057831490e-01 1.2686278028084299e+00 2.1582032770550086e-01 4.2775342231627205e+00 -2.5327934391521367e-02 -2.7881858789813188e+00 2.3541459306469065e-01 -1.4552982206327664e-02 7.9761216086025977e-01 1.1444519027572824e+00 -8.9924997085617520e-03 1.7064850652946603e-01 -1.5302324052066724e-01 1.7159142681665265e-02 -7.0349253272360768e-01 -2.9192176378935386e-01 3.2707831050873618e-02 -1.2650197412483237e+01 4.3349426730699275e-03 6.0309966059916320e-01 -3.2741476359549870e-01 4.6513319543951236e-02 5.1726334368554454e+00 -9.8814678580401694e-01 -5.4668138829858159e-02 -8.6376142749813437e-02 4.5541749440163731e-02 5.9521253223252905e-03 -1.4357187017442113e-01 -1.1338562361522794e+01 3.0640448536728881e-01 -1.7005831314160638e+01 1.2330709127555187e-02 3.3168567466820615e+00 3.4123397549061692e-02 -3.9223168091023997e-02 9.5418037570040788e+00 2.0821676275209029e+00 5.6171541449219417e-03 -4.7936160399618816e-03 -1.6256635345119475e-01 -2.3356408645767730e-02 8.2513374693713226e-02 1.9457118272039382e+00 -3.6701978981842587e-01 8.0036619033287870e+00 1.0636608367536007e-01 -3.9537143126905718e+00 1.4375006084511732e-01 4.6859387564823718e-01 -1.2179700739746576e+01 2.3978012565585463e+00 8.3915857383371373e-02 1.8722971781062661e-01 -6.8482075977002038e-03 -1.4497403362172256e-02 -3.2071179188843622e+00 4.2702380894589620e+00 -2.1420101107998246e-02 6.6795629111217103e+00 3.1801285626002443e-02 -1.8630344908728733e+00 2.2031374148967939e-01 4.8628111859757867e-01 -3.0309615316687868e+00 4.0608927314036247e+00 3.5035110690607482e-02 1.5073204130396542e-01 -9.5369086271315712e-02 6.1997261356736104e-03 -5.4556015058665137e+00 7.7027915151648674e-01 1.0440301391468049e-01 -1.2450157441336443e-01 1.1185563365532936e-01 8.8686466927064223e-01 5.1668660117934459e-02 -1.2076419394149349e-01 -9.9112081026344157e-01 5.4579915901913623e+00 -2.9081264874985385e-04 -8.0208639855208902e-02 4.6600287629641170e-02 -1.1165210686284462e+01 
      </Row>
      <Row Index="8">
        8.8237377671518402e-04 -8.2575962367755551e-01 1.0316616401601515e+00 1.6071559050233830e-02 1.1588784495076174e+00 -2.5666660649252160e-02 1.1399539703604529e+00 -1.4552982072708765e-02 5.6945043351424876e-02 2.2919928234738070e+00 -4.9555612145013583e-01 -2.2608471124538454e-02 -5.3130573814664614e-02 1.3845754596526549e-01 -1.6030918812212310e-03 -1.3601755790488726e-01 1.4734617336055726e+01 -9.6843159739875301e-03 -1.9554876924337652e+00 9.3398120579449032e-02 -1.4682262195547966e+00 -2.8505441979118328e-02 -1.7020299028999816e-02 -2.7543970595203322e+00 -8.3789218413876299e-01 -6.8162024819140715e-02 3.4602959141705622e-02 -2.0813327983030837e-02 -2.7594510329583873e-03 -6.0591503229862897e-03 3.8041681480943357e-01 -1.7737865073826353e-03 4.0220668169401348e+00 3.0946838351526636e-03 5.4795060186594080e-01 -1.6699065933182117e-02 9.5016010672319528e-03 -3.6144698897662941e-01 -1.3958832855671517e+00 7.4966660700756915e-02 -1.3606811950517640e-02 -1.8012903885924126e-02 -8.8488954367486345e-03 3.8871820221201325e-01 6.1814116563922132e+00 1.9409074361707149e-02 -2.2882218216072303e-01 2.1412606535583895e-01 3.6235553023646894e-01 3.7687084685239548e-02 3.5833088551690445e-01 -1.6189936240743941e-01 -2.2656204732856762e+00 5.3799329806722740e-01 -7.0048351940785902e-02 1.5367654647883808e-01 -8.2888553799624464e-03 1.8920740876789743e-02 -4.8775112131748264e+00 2.5748998278840009e-02 -1.5385019405477751e+00 1.7129470941709837e-01 4.1524026597013369e-01 2.1867299484290559e-03 3.4563391684512051e-01 3.0864277577704269e+00 -1.5983213327623877e+00 4.6297040237444620e-01 -6.6408597592677560e-02 1.1495652685000717e-01 -1.6271724472947690e-03 -1.7780610331729898e+00 -9.8651644295701235e-01 -2.8420989875965362e-03 5.5074370532497323e-03 8.0027687142439047e-02 1.1215703400685850e-01 2.4219160954683781e-03 -1.1547109335108005e-01 1.8451358491971326e-01 -3.7918268989421633e+00 -4.3116438357017763e-02 3.0141770086137741e-02 6.8003332042999104e-02 2.2199398825765453e+00 
      </Row>
      <Row Index="9">
        5.2049671348813717e+00 -4.1088539921574738e+02 1.3670022418176607e+05 2.4693975514033150e+02 1.6312630873690773e+05 -4.1244630671697280e-01 -1.1457294260537579e+04 7.9761210512680236e-01 2.2919928562428544e+00 1.4102493114863543e+05 -2.5668249538685195e+03 -1.3104701052870041e+01 -8.1625451074267517e+00 -2.9549065290852031e+01 -1.0425347638653736e+01 -1.6736491237183492e+02 2.3900268621333307e+04 3.0536557880551271e+02 2.2132982851727676e+04 -4.2860036911929225e+00 -4.1530904575402665e+03 -3.7249784165561096e+01 -3.3143676559949782e+00 2.7120734128244530e+04 -2.3858807058343000e+03 1.8767299211588039e+01 1.3820289436415743e+01 -1.8554410508577840e+02 2.1300472848910736e+00 1.4257788771133128e+03 -1.2316668800981107e+05 2.0474244568597459e+01 -6.0821172082604287e+04 -2.3412303292004326e+00 -4.0833005524267310e+02 -3.6566621567397970e+00 6.8179674404676494e+00 -3.4503975777587009e+04 1.6639300174733216e+03 -1.0295810379799327e+01 5.4708918457780165e-01 -8.7784233836036648e+01 6.7871284694294118e+01 1.6765154478428740e+03 1.2081478059551402e+04 -4.5367198193661386e+02 -4.9018996839816558e+04 2.8899238151696636e+01 5.8915727425748446e+02 2.4771306418869720e+01 -3.2405223433505867e+01 -4.2174777148304398e+04 -1.7024581993396973e+03 8.4710969456559241e+01 -1.9717207859632200e+02 7.7310971244189113e+02 6.1560285002434711e+01 1.1379994964735447e+03 -3.8074120134450441e+03 -1.8448177805531412e+02 -4.9773632572800416e+03 2.3890065001078394e+01 -3.7375589409176437e+03 1.4796686148040237e+01 -2.9551516852623301e+01 5.9759514575778280e+02 2.0960023835919883e+03 8.1290862074569759e+01 -1.7426574832719857e+02 6.4065749102900304e+02 -1.0159574826607256e+00 -1.1458325560945109e+03 -2.3905444980707776e+04 1.0917202919054222e+02 3.6238146909165980e+03 -9.2471710399211204e-01 -1.5603051498214566e+03 5.4127438043078877e+00 3.1403768621596448e+00 2.4125677069402107e+04 -1.5533292910355244e+03 6.3298559186271177e+00 -4.7313577206934383e+00 2.7624620324225538e+02 2.3919327432976897e+02 
      </Row>
      <Row Index="10">
        1.9260615198145388e+00 2.4437704398424830e+02 6.8247257793509903e+02 2.8918011178335291e+01 -4.0520359857404724e+03 -5.6768634538457263e-01 -1.7345223479023432e+03 1.1444515163129836e+00 -4.9555623925020736e-01 -2.5668248030067571e+03 6.6767151974141598e+03 -2.1023372337367618e+00 1.0577049824369813e+00 -6.2803229674166701e+01 3.7987304863873672e+00 5.6764650937991192e+01 -5.0975164680226717e+03 6.7709227374406467e+01 7.4384866087608032e+02 5.0597228489886010e+00 -1.4052475479367786e+03 -4.3677049988369578e+00 -1.2113108767310019e+00 8.1090256832984915e+02 2.9641428147398110e+03 -5.5727777796260147e+00 -5.7007463851900608e+00 1.8626469956135843e+00 1.1353773509450331e+01 1.9389860577974468e+02 -3.5750023210887339e+03 8.2144391756243973e+00 6.0868272579472159e+03 5.6956848838774798e-01 -1.2534384179086242e+03 1.9690125531535805e+00 -2.3617382778376088e+00 3.1927946396815605e+03 6.4532718645930290e+03 -5.7630180389303121e-02 -3.7023661084876767e+00 1.0181138802717843e+01 -3.7632569525595798e+00 -3.1796009855023442e+02 -1.5561486162593737e+03 -7.7026750883295307e+01 3.2499390407933151e+03 1.1982374667210628e+01 2.0829573076438096e+03 1.3813842879245673e+01 -2.6431070085180561e+00 6.4511893443451686e+02 9.7884520223503441e+03 4.9585687253053834e-01 1.3684360731444830e+01 -8.3060083128457705e+01 5.3768323035693264e+00 -2.0198297271759884e+02 -2.2356468017976531e+03 -3.4662481159154140e+01 5.4952172126996102e+03 1.2447997184702130e+01 -5.2772423742634373e+01 1.2272561433409791e+01 -4.9960526410452530e+00 2.2373782385805716e+03 7.2724272515833600e+03 -1.9459086493682634e+00 7.9751526444137539e+00 -8.9479710087275024e+01 2.3514880955854927e+00 4.4924142476049803e+02 4.0595031851907197e+03 2.8009856754362318e+01 9.8532923997072589e+02 2.2647934627542465e+00 -4.9143388988154038e+02 9.9863087222580127e-01 -9.3761532278975324e-01 -6.8909616947859104e+02 1.4929390252605786e+04 -1.0183906663490445e+00 -1.7803554788474583e+00 -4.9047548432962571e+01 -1.4515250684714589e+04 
      </Row>
      <Row Index="11">
        4.8352966441456147e-03 -3.5044260598549499e+00 -2.1772626113223197e+01 -2.7702122652300432e-02 -1.2202767460748046e+01 1.0963813902909791e-02 4.0758026048590223e-01 -8.9924993844334722e-03 -2.2608471328917273e-02 -1.3104700978561432e+01 -2.1023363554704702e+00 3.2221981752803686e-01 1.2800072494382968e-02 6.5525281365979821e-02 1.9248290871846728e-02 -2.1897268419254101e-02 -3.1001744107176894e+01 -2.1905489932616612e-01 -1.0803447758906874e+01 -4.7056943993244553e-02 2.7731307955485174e-02 1.0160390113229516e-01 -8.5164853377807256e-02 5.8493211463827492e+00 -1.7177383475444241e+00 -7.0099868736911564e-01 4.8072084623702646e-02 -1.7851648169071789e-02 -1.2590675619822733e-01 -1.4542265018076250e+00 -3.8689137434598095e+01 7.0649714229136254e-02 1.9972933830141148e+01 9.4041781461172425e-03 2.8488132585572759e+00 4.7044995594657427e-02 7.6738436511936778e-02 2.5310072628095295e+00 -1.6888792693771393e+00 4.0174822217763079e-01 -5.0928640708732070e-02 -4.4822148893152350e-02 -5.0672311939454755e-02 -2.4686766738373351e+00 -2.1919916289928317e+01 2.6782850333543284e-01 1.3927660148100067e+01 -1.9939391400213718e-01 8.2773421731393722e+00 -2.7261492762201078e-02 8.8424436768406034e-01 -7.7206497210020544e+00 -1.5966762308258575e+00 1.9995542082724471e+00 -3.5063412599582150e-02 -6.8565805089690235e-02 -1.2012921932233081e-01 -8.6000852236780805e+00 3.3969616325634668e+01 2.1140842946213045e-01 -9.2889220670601098e+00 -1.4475200196972079e-01 6.7387952962610296e+00 9.4058232365835936e-03 7.5752445655039335e-01 -1.2753014610941651e+01 1.5046717368648848e+00 1.5022641203090552e+00 -4.3708400899854838e-02 -1.1261451336967573e-01 -1.4232503751416836e-02 -1.4172218267819403e+01 4.6320243439345967e+00 -3.6498656560508956e-02 -5.3893383843965847e-01 -7.0510424767322930e-02 -6.8259818134379913e-01 -1.4140546705359594e-02 -1.4127862278744688e-01 -2.0708899847707802e+00 1.2779806287645155e+00 -2.1989024028604803e-01 7.7894206667775308e-03 -2.1824024601890812e-04 -1.6528064323792741e+01 
      </Row>
      <Row Index="12">
        7.2806333313735649e-02 -1.3398089805680229e+01 -7.6929792225727702e+00 2.5558569903233774e-01 -3.1467457068984970e+01 6.3451080186631259e-02 -5.9039397963354769e+00 1.7064850841775581e-01 -5.3130574801009800e-02 -8.1625448556059030e+00 1.0577095185290091e+00 1.2800073025289294e-02 2.2929466171934743e+00 7.3468212222491933e-02 8.0596489761474654e-02 6.0086964477570293e-01 -3.9106926115368864e+01 1.6850321766827953e-01 -4.7967249085282560e+01 1.5308757934273352e-02 -4.2254686529754535e+00 -1.0971497586623152e-01 -5.5274155217358248e-02 1.5840218392141287e+01 7.8738127098893784e-01 -2.0300609324953964e-01 -1.0815154447592266e+00 4.6444946400640202e-01 -1.8428958212440591e-01 -3.5685502081469167e+00 -8.1953366819505277e+01 2.7167891496902219e-01 -5.0444863794717222e+01 -7.9015205511940179e-04 3.1521836083636146e+00 1.0908910152759313e-02 3.3889267495830640e-03 2.2782449046379583e+01 4.9732567557657603e-01 1.2266500056341489e-01 4.0679211254128012e-01 -1.4140700587449291e+00 1.9664463627217743e-02 -3.3562487412973105e+00 6.9269934331604119e+00 -7.4070247807633038e-01 7.9432841061821875e+01 2.0131936361067021e-01 6.5491711717176857e+00 2.4429830399529151e-01 1.6291310612493870e-01 -2.2409192352886770e+01 -9.9638058775339822e-01 2.3903017578340002e-01 1.5272442754732625e+00 6.4067274398854035e-01 -6.2848200804989651e-02 -3.8958480221945067e+01 3.2761136579293840e+01 -2.8983935026748481e-01 -1.9286405023302429e+00 2.0451085994323398e-01 1.9930658245609347e+00 2.6112289282974177e-01 9.7777768050875388e-02 -7.7542446150188624e+00 -7.5943994165854356e-01 1.2022172788193464e-01 1.7053586219706682e+00 4.8165222635919092e-01 -6.6570869523523606e-03 -7.0749380236309406e+01 7.5830139645081314e+00 1.5380767383270499e-01 -9.1384115904750418e-01 1.6089307224394639e-02 -1.0602661374110198e+00 2.6435909169840149e-02 -3.3188612941917287e-02 -3.1214034219502813e+00 -2.0230090948023474e+00 -5.2956920223236885e-02 -8.4135233632774031e-01 1.3329570139390725e+00 -6.9843181326849631e+01 
      </Row>
      <Row Index="13">
        1.4700356284635063e-01 -4.5838536065154926e+01 1.0935516563951610e+02 -8.2644186438625411e-01 -1.6677021232706454e+02 -1.9962308778009685e-01 3.7522750519012533e+01 -1.5302323021716546e-01 1.3845754447768677e-01 -2.9549067064733684e+01 -6.2803216374653857e+01 6.5525294024155301e-02 7.3468269685512289e-02 1.1131088801566518e+01 -3.2737470148900738e-01 -2.0016379568512725e+00 -1.1054885938901961e+02 -1.2690114597420716e+00 2.7061197060851657e+02 3.9663178984465947e-01 3.0343046290185455e+01 2.9380706943502383e-01 1.0552429215715267e-01 -7.0911477956556027e+01 -2.2110611425510385e+00 1.7888393857404192e-01 3.4368545869521866e-01 -1.4580628558055591e+00 -1.4454783966296181e+00 -2.1213052390058238e+01 -1.7177925891598073e+02 -8.9361863087439497e-01 3.3742001918471459e+02 -2.1929510756447529e-02 2.6721624896043942e+01 -6.2006341238997814e-02 -4.3941716202764630e-02 6.7852827902434811e+01 -6.9372299761835166e+01 2.4013735144973222e-01 -4.3231794399723622e-01 -4.9965626341538325e+00 8.4882254487754960e-01 1.8523470177073648e+01 7.0244802981167339e+01 1.0089010502355507e+00 -9.4058532866901331e+01 1.7343416352245500e-01 -2.8326614031215424e+01 1.6113570172650624e-02 9.5239376392772201e-01 2.2641142874832315e+02 -1.0012044322485238e+02 -4.5292929752408795e-01 -3.6457872921167722e-01 1.3244153514965888e+01 -2.4043857692403536e-01 -5.8984592698649180e+01 -3.3022334508024414e+01 -2.9953589181956619e-01 -1.1817761302546063e+02 7.1112082817017752e-02 2.0432066279277237e+00 -1.3465329559222949e-01 1.0465980931416965e+00 2.3841885828480406e+02 -1.2574780179123198e+02 -2.5098470013469054e-01 -1.9860780337362532e-01 1.1926478969828500e+01 -2.3863680555115058e-01 -1.7844870146822339e+02 3.0316520783506874e+01 -6.9826221415143575e-01 3.9050009827294900e+00 3.0369140381049864e-01 5.8643283335665402e+00 -5.4370483648543078e-02 -2.8930851373191746e-01 -2.7018663061630466e+01 -1.9880876557096809e+02 3.8609449971582777e-04 2.1609646812667566e-01 8.0778778677320702e+00 2.2881952369930282e+01 
      </Row>
      <Row Index="14">
        2.0742844116554693e-02 5.1482537257433592e+00 -3.1134024700135567e+00 -3.4919799465242818e-03 -2.5309324133485365e+01 1.4145548210588998e-03 -1.1165796751349633e+00 1.7159141849926840e-02 -1.6030916507681070e-03 -1.0425347564638342e+01 3.7987291005265433e+00 1.9248290097571896e-02 8.0596486584850871e-02 -3.2737469294566146e-01 3.7827654005039546e-01 2.6433609651744572e-01 6.6992250879419668e+00 1.6873475259964110e-01 -1.6541286481179995e+01 1.0047016847637487e-02 -2.3934149794783552e+00 -5.6417401075403759e-02 -1.4792268686052677e-03 4.7675899487590350e+00 1.1162536776353196e+00 -2.6149773202483867e-01 -7.4451506138134060e-02 3.3267303090781686e-02 7.2678037811943796e-01 1.4546210723540298e+00 2.1466097178333751e+01 6.1135810782738942e-02 3.4379790088764253e+00 2.8647350788080853e-02 -1.0688670702875167e+00 1.4569481221786786e-02 -1.8628923653579255e-02 4.0409995175532369e+00 4.6291201375679520e+00 9.1260751898467149e-02 2.5217682172306050e-02 9.5884882320969880e-02 -9.6476011512956483e-01 3.7838531144151144e-01 5.9846040476851670e+01 -1.7213113866081273e-01 -3.9348185409361022e+01 2.6820963675705634e-02 3.1675821842966476e+00 9.0034633788328627e-02 2.6044881344914045e-01 -2.6644077386109871e+01 6.2613911146581813e+00 4.8290637619915755e-01 4.4242858103520938e-02 -2.7690816226988291e-01 -1.8156089123388860e-01 7.6708479754181598e+00 -5.7604291499441111e+01 -5.8047096489205779e-02 3.9917476488010131e+01 3.9538988785814390e-02 -7.5596053419818876e-01 8.8667781173087490e-02 2.2621071932662368e-01 -6.2410099671683064e+00 4.3673372420195768e+00 3.1362068918700969e-01 4.6453317330372668e-02 -2.2844432673532311e-01 1.0831064963419959e-01 1.8340147296632228e+01 -8.3166689662348614e-01 5.6831564766559088e-02 -6.2801283126650986e-01 1.3910552975039236e-02 5.0429903372847917e-02 9.2897897328971038e-03 -6.2752253723358603e-02 -6.9622500704889623e-01 9.2799958708869532e+00 -7.1778014925031455e-02 -5.1439131589985074e-02 -2.1488139004561457e-01 1.0084884957137840e+01 
      </Row>
      <Row Index="15">
        7.1064748609387607e-02 -3.4961842098123270e+00 -4.1998578155304676e+02 -2.2549635383413715e+00 -9.0903794174401719e+02 -2.8315756470576048e-02 -2.1671189223169409e+02 -7.0349253211531959e-01 -1.3601755591106013e-01 -1.6736491236260935e+02 5.6764645714662038e+01 -2.1897262835807396e-02 6.0086967587852547e-01 -2.0016378062737137e+00 2.6433608434044231e-01 5.1861536465426070e+01 -4.4028940916095985e+02 7.0960331758691841e-01 -5.9492584618768842e+02 1.4306888830818271e-01 -1.2782630250924943e+02 1.0613143226338715e+00 7.7195981798271363e-02 1.3128722364430382e+02 3.3413424083204774e+01 -2.3132234802722929e+00 -7.0060879574945167e-02 -1.3639887724694491e+00 2.6677909353808377e-01 2.4041170698019414e+00 -6.2189762586091490e+02 -1.7518635685652928e+00 -4.6636981777859830e+02 -1.2762695972451182e-01 -6.2052619610098517e+01 -1.3836961679392079e-02 -8.5864867587447352e-02 1.8116626952389123e+02 2.7089117317998898e+01 7.9975140202546413e-01 1.2665324336002759e-01 2.1686603949515750e+00 -8.8747335562508800e-01 -1.1432334200731367e+02 -8.0757778079171402e+01 7.9278035184271154e+00 1.4059287550747333e+03 -8.8020202948292625e-01 2.3068095449794657e+02 9.1671401218530790e-01 -3.7539096321937604e-01 -2.6843546242454295e+02 1.3475047917047050e+01 -2.0189412899598609e+00 1.9083499472840160e-01 -8.8556930533762568e-01 -4.3307223909712889e-01 -4.3793995871970758e+01 6.4546677702158763e+02 4.6871279564473465e+00 -1.5737469606426100e+02 -6.3937247278135034e-01 1.1209930906929870e+01 5.0780940061218693e-01 -4.3224611118824074e-01 -1.9521673479445235e+02 -6.0190284549463456e+01 -2.8646513154098514e+00 7.8515122494402201e-01 -4.7398785703241630e-01 2.1700624023064691e-02 4.0447438732181382e+01 1.3042067596882603e+02 3.8551353664068888e-01 -1.9916281483833245e+01 -2.5246083663920277e-01 -4.0748841992529208e+01 -2.2324917309212794e-01 2.2881498739225270e-01 -5.4790630621331857e+01 -6.1662005624928682e+01 -4.8553134931685110e-01 -1.0680268830357775e-02 -2.6430982199238215e+00 8.6093905889158691e+01 
      </Row>
      <Row Index="16">
        -9.8953681353159482e+00 3.8922981426754268e+03 1.4668542757252476e+05 1.1681812531831383e+02 2.4333588667809559e+04 -9.8734302663060589e+00 1.1165187426460609e+04 -2.9192220529512269e-01 1.4734617518687173e+01 2.3900268542680067e+04 -5.0975173541456461e+03 -3.1001744412096741e+01 -3.9106926969361716e+01 -1.1054884988718575e+02 6.6992246859153965e+00 -4.4028940343769773e+02 1.7049998692945112e+05 -9.4093332026243331e+01 -7.1855647031125074e+04 4.7052996570670643e+01 7.4085441368215197e+02 -9.4741914256742703e+01 -2.3758034897996993e+01 -7.5367977504699966e+03 -1.8266155405417085e+03 5.4198461490783082e+01 -1.1937713589340131e+00 4.9604320665750969e+01 8.5825941301532396e+01 6.2067077798233368e+02 1.2532535480383376e+05 4.8057796156368880e+01 -3.7784110237541230e+04 -5.4237531059949688e+00 -2.3232092007606175e+03 -2.8008572466313311e+01 3.5778234567384111e+00 -3.7090668280438964e+04 -2.0217526815962046e+03 1.8324188087575845e+01 -5.6344186225073791e+00 1.5700649166991707e+02 -1.3198286538919675e+01 1.4855990237677631e+03 -6.6672142197045381e+04 3.8153415677994428e+02 6.2759100961766671e+02 2.3084654917372836e+02 -2.7099074126835454e+04 -2.1545925206475800e+01 9.7577664867442209e+01 -1.3656516999380226e+04 -2.3839495441801846e+03 4.0804612749965082e+02 -8.0260576249600319e+01 -3.4742218790215765e+02 4.1798220559003909e+01 5.1124469259966500e+03 3.6698240042588666e+04 4.1160804825877358e+02 1.5393370624786170e+04 2.0376900602850972e+02 -1.8855548091265915e+04 -4.6884188509601728e+01 7.5673330177480736e+01 -2.7691474963905923e+04 2.5210364483892922e+03 4.2163595254446636e+02 -8.0389511037995902e+01 -2.1222561866215537e+02 1.3115301477741083e+01 1.2180517229864388e+04 -2.6159797041186175e+04 2.4731945253108030e+01 -8.4992004352586810e+02 4.6852490150971924e+01 5.7933534466225101e+03 2.1737624666369328e+01 -4.0917942883239448e+01 1.0413804298040586e+04 6.4397303676111187e+02 -7.1005563220276713e-01 1.1110567664401430e+01 -1.4811412532267877e+02 1.2420100624024868e+04 
      </Row>
      <Row Index="17">
        6.9079904463251296e-02 1.0485361885015664e+01 -2.1689877533086648e+00 1.1134695054977101e+01 -6.6902677224774186e+02 5.6969375716349191e-02 -1.6715595629916265e+02 3.2707826774043269e-02 -9.6843166611790821e-03 3.0536558020356739e+02 6.7709225520957261e+01 -2.1905490760070734e-01 1.6850317545283927e-01 -1.2690115617627402e+00 1.6873476448020597e-01 7.0960338112612542e-01 -9.4093324196398612e+01 1.5744897357004442e+01 -8.1742798501904372e+02 -1.4905387551855193e-01 -1.1089884431971758e+02 -7.1713105943748301e-01 -1.2155911250411947e-01 1.0923444695500768e+02 3.6478304020216456e+01 -3.5723800456821664e-02 2.4101130403209221e-02 -7.7625185097931737e-01 1.5866871502501045e-01 1.0221190058749926e+01 -2.5567487142489023e+02 5.4352037648946485e+00 -8.1639891881646702e+02 4.0814891173606191e-02 -1.0775775577011302e+02 1.8177178711041256e-02 5.0684302914103342e-02 3.3987715279836131e+01 8.0955515152352746e+01 -1.7771058926871755e-01 5.0074644941082935e-02 4.2145148906309403e-02 -5.6959943041611316e-01 6.9742934573735145e+00 3.8811686208898584e+02 -2.0537776512679162e+01 1.0582667411339639e+03 7.9944123227698927e-01 5.5616019383999600e+01 -3.2023377382057405e-02 -8.1478721024868728e-01 1.2525099096061005e+01 1.0379483211413026e+02 2.2062389830895888e+00 -5.4723408180117095e-01 2.7706109643161452e+00 -3.4850681448287851e-01 1.8381376129859387e+01 1.2378982767348697e+02 -6.1624306857484621e+00 1.1342452196770523e+02 7.5427310049104479e-01 -9.6313199891087407e+01 -5.5783921252015478e-02 -8.9831458774213957e-01 1.7120855377361224e+02 7.6708112117362361e+01 1.9732046072092921e+00 -4.2842160210072749e-01 2.3162601269130447e+00 3.6650143451310152e-02 2.9791420082407406e+01 3.0143967350722384e+01 5.6206897753953724e+00 5.4044395588074394e+00 -6.4301072657032138e-02 -3.2602419135619073e+01 1.0732240215594233e-01 1.0573044131415754e-01 2.2716048989921230e+01 1.5090805144515792e+02 1.2794162005415888e-02 -1.2579556480678653e-01 1.8916424063387183e-01 -1.2272064470309174e+02 
      </Row>
      <Row Index="18">
        -6.8209129268798279e+00 -2.4407021353812888e+03 1.0017462244456818e+04 -8.4279081824151217e+02 1.4878661416105591e+05 2.1386819104372989e-01 7.4521071485963566e+03 -1.2650196686787240e+01 -1.9554876658157809e+00 2.2132982572006713e+04 7.4384919349849224e+02 -1.0803446506397449e+01 -4.7967242963219178e+01 2.7061198175299194e+02 -1.6541288034070021e+01 -5.9492585569669677e+02 -7.1855648208955085e+04 -8.1742798227383867e+02 2.6419783989209280e+05 1.2850842833207823e+01 9.0329854672502297e+03 8.4736436373070170e+00 4.4558423701624349e+01 -1.2372281661651201e+04 -3.9669582597911358e+02 -1.6035093529256847e+02 4.2590713430153272e+01 3.9983601653463573e+01 -5.3855749942268979e+01 4.9109192156698555e+01 -3.6752877681450889e+04 -3.7722099674603169e+02 1.5411779749253803e+05 1.6488450568059740e+00 6.2233940861739411e+03 4.1900943876208878e+01 -1.6661106759353693e+01 1.0716166132004419e+03 -4.7130056261029094e+03 -3.2802788392560579e+01 -1.0507756500228538e+01 -1.7746330965150941e+02 5.2586547173665025e+01 3.6126465015879380e+03 -1.4840204594504212e+04 1.3251425611627251e+03 -1.5147658472168908e+05 -2.3615787749982090e+02 3.6258392323350272e+03 2.4875590235097906e+02 -3.4840055853013176e+01 3.3652779769961431e+04 -7.6319759138748050e+03 -6.4872782462614725e+02 -2.2137689398195792e+02 4.4564742053138309e+02 7.8384914685281561e+00 3.1956193092683370e+03 6.6103405061169251e+03 3.7960831946274726e+02 5.8685456138789727e+04 -1.9846584529529241e+02 1.0572470038899999e+04 2.2289426298895501e+02 2.0166668511574954e+00 3.5609795287222150e+04 -1.3677929177759905e+04 -7.2431523753039710e+02 -2.1556745058512155e+02 3.7509471237806594e+02 -9.2356984549118373e+00 -4.2047262307091287e+03 9.3860319018754908e+03 -4.3158702956186210e+02 6.6153361859155557e+03 -2.1174448374046626e+01 -9.2475851335730113e+01 -8.6706779351956076e+00 2.5070591767950106e+01 1.6032897426699351e+03 -2.1026315078573702e+04 -4.2646656175025726e+00 1.6549123467522190e+01 3.3285382220929023e+02 1.6351461091351819e+04 
      </Row>
      <Row Index="19">
        5.5921999229724406e-04 -3.8596262300814033e+00 2.6972728848664353e+01 -3.1863207290541595e-02 -4.5441926999814033e+00 -8.9488205365875650e-02 1.2269300022897034e+00 4.3349427826093745e-03 9.3398120366259718e-02 -4.2860035394001059e+00 5.0597235831519356e+00 -4.7056944371476561e-02 1.5308755546044495e-02 3.9663177393472299e-01 1.0047018068100044e-02 1.4306888535543294e-01 4.7052997140496615e+01 -1.4905386768875431e-01 1.2850841641717352e+01 4.9399681486658659e-01 -7.9869422797496474e+00 -3.0287382834754441e-02 -7.9486307098205186e-02 -8.1633382621705000e+00 5.7614128163550049e-02 1.0005875219676597e-01 4.3280071045220914e-02 -2.6040403322119605e-02 -8.7643149472459610e-03 -5.1742628377860456e-01 2.9957955862387124e+01 9.1473118022187272e-02 1.9583209255507370e+01 -3.5256400974946450e-02 -7.9408498917205250e-02 -1.1713393159835675e-02 -4.1050238868053042e-02 1.3712093014375526e+00 3.1845966815108113e+00 4.3777752419433838e-02 -4.2167763268119746e-02 -2.2367065754739354e-01 -2.7436854215909579e-02 -1.6777644302987844e+00 7.1844780757092721e+01 4.7510669082910856e-01 -3.1485548311165822e+01 7.6621078613282922e-01 8.9342457048317030e+00 5.4960879499538640e-01 1.8864610344762711e-01 -8.3382775801112388e+00 4.2024255263095256e+00 -1.9360519316541996e-01 -8.8099423728888210e-02 3.7887213956102395e-01 -2.2508763394858688e-02 -6.6298465926990469e+00 -6.8629442946025506e+01 3.9551539158116367e-01 1.2253122352503649e+01 6.9828056152938334e-01 -8.9932223193443961e-01 3.6712284101169468e-01 1.4070092217063060e-01 5.0734574627667364e+00 3.3603856972081605e+00 -9.9612320834606027e-02 -7.3105467226676143e-02 1.8942071748407613e-01 -2.8037694135782864e-04 -1.3537851634682404e+01 -2.2559882416418739e+00 -1.8459389575486804e-02 5.2640507599446096e-01 2.5041511331825117e-01 -1.7595474082450835e-01 1.0393402122310996e-02 -1.7174205693732794e-01 -2.7056083361914879e-01 5.3857551875010827e+00 6.4707114157623452e-03 2.2570374948325589e-02 2.6944692993455455e-01 -1.6170518844484089e+01 
      </Row>
      <Row Index="20">
        3.4553501466962189e+00 -1.4499037293491710e+02 4.7070949775724312e+03 -1.4720581252775446e+02 8.4265474368759430e+02 -3.0605361913012530e-01 4.5897530000257184e+03 6.0309975243035296e-01 -1.4682262429272441e+00 -4.1530905359377684e+03 -1.4052474011648446e+03 2.7731405467420700e-02 -4.2254681925096520e+00 3.0343045927619503e+01 -2.3934150428135581e+00 -1.2782630392228020e+02 7.4085431776615223e+02 -1.1089884314227105e+02 9.0329853379302240e+03 -7.9869421410379351e+00 8.0691303926631372e+03 2.2508037328341302e+01 5.3147026202903724e+00 4.7944975225294263e+02 -8.9907429572520778e+02 1.5625204544416192e+01 -2.9639572111481161e+00 -8.8190610564765537e-01 8.5968572678628021e+00 -1.2768826087517664e+02 2.0003150325396484e+04 -7.8627653415720161e+01 3.8242535011392201e+03 -2.7044506949839215e+00 6.0624314085011320e+03 -2.2871091673163222e+00 -1.4708235276443984e+00 8.4776420269717182e+03 -1.1925249849429820e+03 -4.9900431775579523e+00 -2.0558785858252415e+00 -3.1857147952120712e+01 3.2631078438157104e+01 2.6040654399472078e+02 -1.4384930219032234e+04 -1.4102022944328149e+02 -7.1465513157113219e+03 -3.3690303129346155e+01 -1.3233972969267139e+04 -1.1607694785864531e+01 -2.4858104330873736e+01 -1.9849682197365414e+03 -1.7539394941646606e+03 -1.1721704850332759e+02 3.4533897059148586e+00 3.3501372836493005e+01 3.8705099261234587e+01 1.8845323428759104e+02 -2.9292822301011056e+03 -2.5399817984333163e+02 -9.6261680071859701e+02 -3.5232528880959933e+01 -3.4994501908548755e+03 -7.4666538448716722e+00 -1.7852356783371036e+01 1.6598634937684262e+03 -8.0392625846387818e+02 -1.0008099832028870e+02 -1.9207493970619192e+00 2.4192821021969358e+01 2.4556517252691867e-02 -2.1198618968795063e+02 -1.1799136505125664e+03 -7.4943227442874971e+01 -3.8466960326441040e+00 -4.3892715001769727e+00 2.6821177056946362e+03 -5.0914423944075180e+00 8.1133452005497730e+00 -1.9921474204000606e+03 -2.2854587871948247e+03 6.1353652694377203e+00 -4.1489329577634493e-01 3.1532056611545158e+01 2.1466863597068132e+03 
      </Row>
      <Row Index="21">
        1.8250120121635405e-02 6.0769957564451715e-01 9.6037400502330001e+00 -1.2646001595073955e+00 -8.6446922321331758e+00 3.8202092736084658e-02 1.2515342356520234e+01 -3.2741476391046298e-01 -2.8505442067522591e-02 -3.7249784083823734e+01 -4.3677050102123758e+00 1.0160390042761236e-01 -1.0971497943662456e-01 2.9380705936166623e-01 -5.6417400009216578e-02 1.0613143264507698e+00 -9.4741913572557763e+01 -7.1713105816631006e-01 8.4736432624992393e+00 -3.0287383408127987e-02 2.2508037220788232e+01 3.9292397747365939e+00 1.1785496486018238e-01 -4.0851670615857731e+00 4.6493653381839977e+00 2.3337747984454182e-01 1.2846404081209972e-01 -4.4888161216060991e-02 -2.3459138925187828e-01 -1.8583308102281535e+00 1.9241227401478511e+01 -7.9275007723180990e-01 4.6842765254786869e+01 3.8383951400112720e-02 8.2099875452054700e+00 -1.4576135436061410e-01 8.0788185140014249e-02 3.4849887132074553e-01 1.4148828776469600e+00 3.6639538948944950e-01 2.7770575223522349e-02 9.0409905906354338e-02 1.8167907954315718e-01 -3.6680006250888142e+00 -4.4326057001391028e+00 6.5837828293332323e-01 -2.1004266224628982e+01 -1.1915676654293468e+00 -1.1828236821731423e+01 -2.2566457651211116e+00 -5.1362368753934395e-01 4.9232706080124320e+00 4.3999049572157674e+00 7.5080340808149335e-02 -2.7177312713875981e-02 -2.3686474303424498e-01 -1.7725875860206824e-03 -3.7131802672498342e+00 -1.9482467681774907e+01 -5.4915310066037526e-01 -1.0427983368077916e+01 -9.9124583399630961e-01 4.8214563495369287e+00 -1.7002420516031407e+00 -3.6741207375049789e-01 -1.6234750681667947e+01 3.5581766039340437e+00 4.0367993964304261e-01 4.1822373053237258e-02 -1.2273769355647063e-01 -4.4060059302122916e-02 7.1557186580001853e-01 -1.1303571238144647e+00 -5.1333287019057394e-01 -1.3235621348720912e+00 -2.0045407563982579e-01 2.3424246465149707e+00 -5.8208979544416917e-01 1.0307298293091069e-01 -3.6257651204176513e+00 1.0798317325864119e+01 -1.2246195759696857e-01 7.6655141181502295e-02 -7.5715559940250365e-02 -9.6555136911665773e+00 
      </Row>
      <Row Index="22">
        7.1799711759066298e-03 -6.1954302828642938e-01 4.4451955612804710e+00 -2.9387723374819430e-01 -6.8013749368455025e+00 -1.9148211864035403e-01 3.2891612163228010e+00 4.6513319808693332e-02 -1.7020299125642790e-02 -3.3143677559283020e+00 -1.2113103835508809e+00 -8.5164853173219868e-02 -5.5274154406152576e-02 1.0552428861933640e-01 -1.4792268413370557e-03 7.7195977503237145e-02 -2.3758035000177511e+01 -1.2155910844023390e-01 4.4558423189241481e+01 -7.9486306767118806e-02 5.3147026131272712e+00 1.1785496526561889e-01 8.7991828582728604e-01 9.6847079691975013e-01 -9.0632095655564626e-02 -2.4576448106525728e-01 -2.3770953303185308e-02 -2.9056478035774255e-02 -1.9189373044463783e-02 -1.1506180893854889e-01 2.4526441457170520e+00 -1.8833250922129310e-01 8.3766651879751564e+00 1.3946282672131496e-01 2.4455348149609519e+00 -4.1741361114487750e-02 -1.6374277409011612e-01 3.4285822493156379e+00 -1.2647270185950674e+00 7.4689598555469638e-03 1.0573110221884712e-02 -3.1885231427990879e-02 1.6396049268367748e-02 7.8154638531310106e-02 -2.8304454255352191e+01 -5.0483696578707549e-02 -3.1442586255623404e+00 -1.0975998414416752e+00 -8.6414666959387567e+00 -1.6498007987911462e-01 2.8356205512729384e+00 7.8286798197051715e+00 -2.2121088471562871e+00 6.7412115601291039e-02 -1.1696641084763915e-01 8.5005582401819685e-02 -1.1828530718488162e-03 -3.0365070556434230e+00 2.1390512182583429e+01 -2.7954224843509162e-01 -1.0774482011940190e+01 -1.1386345259710409e+00 -3.9467213255616018e-01 -1.1402942408479699e-01 3.3781799593797879e+00 6.8163431574645905e+00 -2.5995142190536171e+00 -6.4093586723822149e-02 -1.0624731842749485e-01 9.3046184993562459e-02 -3.8910413924123644e-03 -5.5680964173085501e+00 2.1931095710668504e+00 -1.0446482879748967e-01 4.6396882452162735e-01 3.8866766189219609e-01 1.2157912577894372e+00 -2.7964702389602039e-02 -5.6820685237004109e-01 -1.3467360871192944e+00 -4.4495099931295128e+00 -2.3552147445336472e-02 2.4969042874720068e-02 7.7155621717580836e-02 -1.8214976319812872e+00 
      </Row>
      <Row Index="23">
        1.3836391398319392e+01 -2.9786298822995741e+02 1.5803560045443533e+04 7.2203273463885125e+01 4.8537534678471187e+04 7.1341684896651714e-01 -4.4637981670357358e+03 5.1726332943144371e+00 -2.7543971368772873e+00 2.7120734179833951e+04 8.1090266466885805e+02 5.8493207236824674e+00 1.5840216174270608e+01 -7.0911485470969424e+01 4.7675906739059428e+00 1.3128722508135252e+02 -7.5367972725751679e+03 1.0923444859145457e+02 -1.2372282022540170e+04 -8.1633385791595412e+00 4.7944969442316733e+02 -4.0851669623152702e+00 9.6847056837837187e-01 2.0252968722599147e+04 -2.5563578241132200e+02 5.0432540450492525e+00 -9.1104716915966115e+00 -1.0647358619303238e+02 3.4894407427758765e+01 2.9678228493011557e+02 -3.3156342835319178e+04 7.4017398540105091e+01 -3.8152784462434793e+04 2.5586470918923494e+00 5.7467886438013065e+03 1.7613356540500931e+00 2.0071052682393145e+00 9.6184903389231458e+03 2.5265309980874881e+03 -4.3662276972656473e+00 1.1856202539624938e+00 -5.6348238489888722e+01 -1.5196533458000516e+00 -6.4746369930410719e+02 1.0891628588393178e+04 -2.3064460852780553e+02 1.3609539209478382e+04 -3.3183342962323650e+00 -3.5787614706017530e+03 2.9091992716984194e+00 3.1951671920191052e+00 -3.2363193715487323e+04 2.6510682407803833e+03 2.7256573157072040e+01 4.3088127273398186e+01 1.1956666995590669e+02 3.2263310798931563e+01 -1.5563746231188466e+03 -1.5581744313074214e+03 -9.5026025405918247e+01 2.2436154050839691e+03 -2.8610032790871180e+00 -8.5951174061394670e+02 6.3472938396436120e+00 3.9780531352713169e+00 -5.9541520258192731e+03 4.6955042203310877e+03 2.5466312231312600e+01 4.4633140436697325e+01 2.7260915383274082e+01 4.2510148822607334e+00 -1.7802942082439199e+03 -3.8087549782088299e+03 4.7857464194330497e+01 5.7240472825797042e+02 -2.5719926255703034e+00 1.1971296706441717e+03 5.2868492124190425e-01 6.0147491706362111e-01 2.7092890315526506e+03 6.3513679249197576e+03 6.0294910454130957e-01 -5.5999262086876609e+00 3.5209560226558096e+00 -8.2540622904444172e+03 
      </Row>
      <Row Index="24">
        2.8056657016713871e+00 5.4339285406394629e+02 5.5753377246974387e+03 2.0355588101723697e+01 -2.3862746362531434e+03 8.3088760824603014e-01 -8.1602659738162106e+02 -9.8814709210819274e-01 -8.3789224375732374e-01 -2.3858806034311751e+03 2.9641427173241973e+03 -1.7177389638382010e+00 7.8737815066415351e-01 -2.2110690553962531e+00 1.1162545638417214e+00 3.3413428336614743e+01 -1.8266149505224494e+03 3.6478304405995004e+01 -3.9669606111745497e+02 5.7613573158198150e-02 -8.9907438717017635e+02 4.6493652687131544e+00 -9.0632418175586815e-02 -2.5563589547185560e+02 3.1012218586653471e+03 -8.1799957357070525e+00 -5.1264059060235896e+00 6.6148822091417969e-01 -1.4689956690551798e+00 -1.0203059796686284e+02 2.1258453938317398e+03 -6.3631636043940079e+00 1.6214135224525244e+03 1.2329959149257301e+00 -1.7506586517634382e+03 1.4501888936830232e-01 -5.8627126486144032e-01 -1.0378995301315999e+03 4.4257106197020039e+03 1.4442990221007515e+00 -7.7444912570937063e-01 1.6476441569242635e+00 -4.8496967779625599e-01 -5.4039355672210797e+02 -1.1707894690601988e+03 -2.3923684655080478e+01 3.0912505550524565e+02 1.6193291424581417e+00 9.4259313607538547e+02 -4.2222566264163914e+00 -1.0803857266401486e+00 3.2009533047147720e+03 6.5512656661234796e+03 6.6887789886097497e+00 2.3640620257378789e+01 -3.1590744208863637e+01 -1.3484617904983729e+00 6.0838795874526028e+01 -4.8402718659307084e+01 -7.7438761818508430e+00 1.2213918909167705e+03 3.0933545273701131e+00 -8.0490708220022134e+02 -3.0989571033435865e+00 -2.1554425867672742e+00 1.2396822379380010e+03 4.5101813821736723e+03 2.6994228129024265e+00 1.9674304058666301e+01 -2.2809459494923495e+01 1.3773198492117444e-01 1.7690130543821183e+03 1.6344208129370054e+03 1.4641860237612864e+01 4.3622453860701353e+02 -5.4209342553626594e-01 -4.0573302323361713e+02 -7.2643983906965881e-01 4.9687559921122126e-01 2.7815135906954019e+01 1.0353423488290711e+04 -2.2363463263880599e+00 -1.3380653154562345e+00 -1.2083898347058494e+01 -8.5580812657786228e+03 
      </Row>
      <Row Index="25">
        6.6571692678110139e-03 -1.1062877704678840e+01 7.0591545830759870e+00 2.8352950780687536e-01 4.2082563191347248e+01 1.0345704063563943e-02 1.8099012935186920e+00 -5.4668137251013604e-02 -6.8162025431501405e-02 1.8767299124511467e+01 -5.5727746250340715e+00 -7.0099868631746176e-01 -2.0300608967082212e-01 1.7888390855034814e-01 -2.6149773091105288e-01 -2.3132235037342070e+00 5.4198461185898822e+01 -3.5723771623253242e-02 -1.6035093921353669e+02 1.0005875438730123e-01 1.5625204266584065e+01 2.3337748222614607e-01 -2.4576448139039875e-01 5.0432556041077889e+00 -8.1799936433817493e+00 5.4113300785850527e+00 3.4214654229330246e-02 -2.5895860787079172e-01 1.9989295342941631e-02 -1.2601615053104069e+00 8.6762862238349960e+00 2.9449329355277876e-01 6.6650033254478487e+00 -1.0575100229086207e-01 9.1270387237749162e+00 -2.3863000600798190e-01 -2.3971907278258719e-01 4.2344736213104177e+01 -5.9578853320635972e-01 -2.1255756931026424e+00 -1.6372930658622352e-02 -3.5012591899109308e-01 5.5986223620819264e-01 6.9152351076257290e-01 5.5386226775516043e+01 -1.3989273615160633e+00 3.6834262794086499e+01 1.3047026503406669e+00 -3.3892350659034392e+01 -4.6246648338346952e-01 -6.1190773343305089e+00 -1.3189743168998280e-01 -6.6732105101691559e+00 -1.0413950793754170e+01 4.7465930762199887e-01 1.2043328981228667e+00 4.1708112994648228e-01 -1.6139981612796184e+01 -2.5316875719346520e+01 -8.2506587550925392e-01 -8.9242015999486295e+00 1.1392000780196074e+00 -1.5666876429116556e+01 -5.7541204360530529e-01 -6.0013357402724719e+00 3.6594167585229613e+01 -2.2206732197810197e-01 -6.6152087986883732e+00 3.3365300861228470e-01 5.8559166769012694e-01 -2.9232885477812331e-02 -3.9839840533051081e+01 -7.0901033656699690e+00 7.8405348192097268e-02 3.0188238325803241e-01 -7.8564882191188096e-02 4.8971279878887515e+00 -9.7121706116815448e-03 1.1541931612327578e+00 -2.6576312021565847e+00 -1.1545180310112542e+01 1.2844608309981109e+00 8.2872930947672285e-02 2.6816319371818764e-01 -2.6495671398380289e+01 
      </Row>
      <Row Index="26">
        -6.5197069286966780e-02 2.4167550025631499e+00 -4.8499542903264960e+01 -1.4784728192341845e-01 2.7067831932892375e+01 -1.3038724163326521e-02 6.4805966752501263e+00 -8.6376142866242844e-02 3.4602959646109710e-02 1.3820289187738274e+01 -5.7007479689782485e+00 4.8072085684538024e-02 -1.0815154383969343e+00 3.4368549693165629e-01 -7.4451509157441365e-02 -7.0060875440049131e-02 -1.1937728598458293e+00 2.4101113149967546e-02 4.2590716239081630e+01 4.3280071238595182e-02 -2.9639568599332438e+00 1.2846403955592223e-01 -2.3770952361085097e-02 -9.1104723138964889e+00 -5.1264071313344175e+00 3.4214659789853386e-02 9.4323704629471650e-01 -1.4377307722534560e-01 -1.7614794630008490e-01 1.5692245692243887e+00 -2.6011198966280482e+01 -2.5089832136757095e-01 3.5581514843107591e+01 -1.5056209980138496e-02 -2.8561238645323819e+00 1.4344398191119684e-02 1.3683549537984341e-02 -1.5225894923827749e+01 -1.0869452742401336e+01 -3.8058037742507163e-02 -2.8686932930195480e-01 9.0809832340518581e-01 -3.7586670092350699e-02 3.2542794925279011e+00 -5.3228362059357636e+01 2.1991592080926925e-01 3.0612580473286339e+00 2.0075509765491995e-03 1.3694369398100873e+01 2.9007197444488909e-02 -2.7721896160961457e-01 1.3641287101721167e+01 -1.3631259172863793e+01 -2.7190322832045183e-01 -1.1518792490958738e+00 -4.6686300221170413e-01 -1.8324221105112698e-01 1.7883330865142799e+01 5.0037733058813579e+01 -2.2835778261836984e-02 -2.8842459770033628e+01 6.5529438487484434e-03 1.0079873111650764e+01 -1.1260421887733671e-02 -2.6497398344258205e-01 1.7699184610439289e-01 -7.0330892666315776e+00 -2.5121355660660699e-01 -1.0720009610676158e+00 -3.1181202528704977e-01 -4.2489526947990797e-02 2.4146743337501693e+01 -1.1348349178771739e+00 -8.1188005580676459e-02 4.9460801533854237e-01 -1.7788191371012903e-02 -1.8817530323767500e+00 -3.2140172576266175e-02 4.5389647801428984e-02 3.1582236199237861e+00 -1.8028572747416867e+01 1.5848532829870289e-02 5.1588007419879434e-01 -7.4758809560777451e-01 4.0811302581718628e+01 
      </Row>
      <Row Index="27">
        -8.1252933243320058e-02 6.0676507033385860e+00 -5.2049811616691287e+01 -2.8249386298415402e-01 -2.9428093430279705e+02 6.7329052452642202e-02 2.7327958336013808e+01 4.5541748792082615e-02 -2.0813327240977841e-02 -1.8554410501623076e+02 1.8626443368266337e+00 -1.7851647413067440e-02 4.6444946936352949e-01 -1.4580628076148872e+00 3.3267299810603390e-02 -1.3639887604140313e+00 4.9604319279488834e+01 -7.7625187773861626e-01 3.9983605682286971e+01 -2.6040403645523028e-02 -8.8190575049158682e-01 -4.4888163328380415e-02 -2.9056477053986784e-02 -1.0647358730997038e+02 6.6148628365772311e-01 -2.5895860255582193e-01 -1.4377307544238249e-01 1.8027509787479268e+00 -5.3078550374443756e-02 -1.7042577675329085e-01 1.7154237074500327e+02 -6.5020587966539922e-01 1.3294294851627546e+02 -6.2720687038740619e-04 -2.8760359737894532e+01 5.4279164942072494e-02 -4.5691214055665341e-03 -5.7188454874173885e+01 -1.0330774023503182e+01 1.1226916491541380e-01 2.9405792905887868e-01 6.5895940769897732e-01 1.0588167511478336e-01 -1.8167852554488277e+00 -1.2683782589367407e+02 2.0136504875435781e+00 4.0533695208416134e+00 -1.6508971133291306e-01 2.9494078706895607e+01 8.3476472842086535e-02 -5.3178772501554991e-02 8.3216122015453763e+01 -5.3606986220984254e+00 -1.3592014684181219e-01 -1.8129169471621576e-01 -4.3954382625005133e+00 6.1502486586444305e-02 1.3156553470163152e+01 7.3391507263870338e+01 1.0341684347065507e+00 -1.9545330495699861e+01 -1.1088414871159609e-01 1.4715066177263306e+01 1.0303612316412680e-01 -9.3622109185524632e-02 -7.9601176375437234e+01 -8.9665085396336508e+00 -2.5967983347963486e-01 -7.5616251006924096e-02 -3.3493913712874139e+00 8.3924714095395814e-04 3.0941230081264401e+01 1.2409193236942206e+01 -2.8271171550992386e-01 -6.9487499996903921e+00 -6.3321955771541191e-02 -5.0176226407833866e+00 8.3324417292047065e-03 2.5387517485152944e-02 -1.1812397645073574e+01 -9.3294174151477591e+00 -5.2775846561614770e-02 -2.5196925820918503e-01 -1.0529409196970114e+00 3.9436852978840015e+01 
      </Row>
      <Row Index="28">
        -4.8206281176874199e-02 2.2361657108898044e+01 1.1207369108081554e+01 -7.5124904146093741e-02 9.6299848175568172e+00 1.0406513604817036e-02 2.1393369003044427e+00 5.9521220183285095e-03 -2.7594500684546830e-03 2.1300473592428766e+00 1.1353767829074059e+01 -1.2590675908703020e-01 -1.8428959352726793e-01 -1.4454783570886356e+00 7.2678037758090852e-01 2.6677914275296644e-01 8.5825942639691164e+01 1.5866866583110095e-01 -5.3855743458666005e+01 -8.7643197255908856e-03 8.5968575632328221e+00 -2.3459139363083636e-01 -1.9189373107585526e-02 3.4894404423443817e+01 -1.4689993328647688e+00 1.9989292053878671e-02 -1.7614793445440036e-01 -5.3078537409259496e-02 3.7565952693332876e+00 6.5233741441288657e+00 1.5348484470219105e+01 2.5701795346772560e-01 1.1250222953180901e+02 1.9201326419576503e-02 2.1104573093299720e+01 -1.8079148021805415e-02 -9.6637991084547181e-03 4.8001006348007927e+01 1.3034011330135399e+01 5.3822609150251291e-02 -2.3411021811752822e-02 8.4615604865416794e-01 -2.0742187425016807e+00 4.4395503080419179e+00 5.5381178122815093e+01 -3.3299576198799075e-01 -1.8510529617427801e+02 3.4660655945947882e-01 -2.1831563008650662e+01 -2.5583285264768565e-02 1.5393562840289393e-02 -1.4274159125004292e+02 1.8629702142410679e+01 9.5171729007900563e-01 -3.8726454160179724e-02 -1.3931498688768995e+00 1.1331309941044150e+00 3.8233029943266132e+01 -6.0678965753292573e+01 -1.7717350731128167e-01 8.0550689251071873e+01 3.0493042627129452e-01 -6.0119736028909720e-01 -5.4877338254820218e-02 -2.3199322659285301e-02 -6.4866495660340476e+01 2.1382589268636366e+01 9.5250801956501618e-01 -1.3688736606271995e-01 -9.3663612767179938e-01 4.5403790702673241e-01 8.3073471426520896e+01 -8.3032967005452818e+00 6.1240968949812298e-02 1.2519764705490388e-01 3.4433693872665233e-02 9.8464328632316693e+00 4.8627635909038652e-02 -6.2883687703464031e-02 -3.0080888778993926e+00 3.4691625526692746e+01 -2.0761581717053862e-02 -9.5427245246663822e-03 -1.2518534048195775e+00 4.8764760108738152e+01 
      </Row>
      <Row Index="29">
        -7.3261793791789387e-01 2.6069278683421726e+02 -1.6167657484756967e+02 3.9377613148089949e+00 1.7603259346666812e+03 2.1394872031055456e-01 -2.1818477692188026e+02 -1.4357191235558275e-01 -6.0591303640649130e-03 1.4257788734625851e+03 1.9389851055294275e+02 -1.4542265194068023e+00 -3.5685502430887936e+00 -2.1213051282225216e+01 1.4546210164712647e+00 2.4041177464532666e+00 6.2067076765578543e+02 1.0221189179669182e+01 4.9109317621140249e+01 -5.1742633956780459e-01 -1.2768825164250720e+02 -1.8583308844135900e+00 -1.1506179408816819e-01 2.9678223819626260e+02 -1.0203066278807819e+02 -1.2601614553632317e+00 1.5692247142967517e+00 -1.7042564813561967e-01 6.5233739505707895e+00 1.5506935797625920e+02 7.9359396015213224e+02 1.6068770071888419e+00 -1.5609815963145020e+03 7.4605599280687329e-02 -9.1533742668660977e+01 -6.9699913687600201e-02 1.3512568110886036e-01 -1.9988169798732554e+02 1.1057538238796405e+02 -7.6400915935686042e-01 2.1910655102080168e-01 1.5679509244352266e+01 -3.9549028959476020e+00 1.3406821471010636e+02 1.4454316859118535e+03 -8.5322177744078544e+00 -8.2375863219370558e+02 1.0553998842402912e+00 -4.9875814521612938e-02 1.6346441960040310e+00 -1.5899816484659257e+00 -3.5075533324739979e+02 9.2238423722796142e+01 2.1056510901824095e+00 -4.5999767472516568e+00 -1.7870429283052324e+01 1.2766788377353140e+00 8.5620010620751907e+02 -1.6125006435994885e+03 -2.1718580254093234e+00 9.7973185898439431e+02 1.0435144386677941e+00 -1.0721560508760854e+02 1.2908521721496360e+00 -1.5268070159026419e+00 3.3028022521725143e+02 1.8019887675158679e+02 7.3399866832400562e-01 -4.4147265677043857e+00 -1.3226029615355875e+01 1.0363442325803476e+00 1.4148323718790868e+03 -2.5281869915411556e+02 3.3542672566806515e+00 3.6993140963444603e+01 -1.8948549672792064e-01 -2.0203312620297766e+01 2.6017927969522314e-01 4.0385362378176803e-01 1.9473227035636756e+02 1.3857833239375111e+02 -5.2415129121126558e-02 1.2388435239648685e+00 -1.7239009071914097e+01 1.3098731406191398e+03 
      </Row>
      <Row Index="30">
        -1.2673320505607990e+01 7.9288599221103359e+03 -9.2283142864897294e+04 -2.7439819051745872e+02 -3.4300844979950838e+04 -1.0610014483674604e+01 2.4837815299497917e+04 -1.1338563114368299e+01 3.8041674968462758e-01 -1.2316668837351511e+05 -3.5750028294324875e+03 -3.8689138563539018e+01 -8.1953372188072535e+01 -1.7177926772075722e+02 2.1466098263939784e+01 -6.2189761250722222e+02 1.2532535526243117e+05 -2.5567487290328427e+02 -3.6752877639940831e+04 2.9957954528382260e+01 2.0003150112391151e+04 1.9241226875150460e+01 2.4526434893324875e+00 -3.3156343378478501e+04 2.1258451643511653e+03 8.6762832030944992e+00 -2.6011196104941519e+01 1.7154237540519534e+02 1.5348489174299520e+01 7.9359406547527760e+02 5.3077757837273588e+05 -2.3048470226354826e+02 -5.4935428788390360e+04 5.2097963129290292e-01 -2.1949812877789118e+03 -2.0880856327930815e+00 -6.3056132909468943e+00 4.5586065265362187e+04 1.4590205770321190e+03 -8.4836545358444226e+00 -1.6764866552191496e+01 2.7269535632199774e+02 -1.6125422631730828e+01 1.9224189821225100e+03 1.2577233456761124e+05 3.6877780973133429e+02 7.0371582565074787e+03 4.2101213097782875e+00 -6.0844752184277830e+04 -2.5327024626170669e+00 -2.1495810823423781e+01 1.0556472810417888e+05 4.8585531279966235e+03 -2.8135442749833044e+02 1.2240756152567178e+02 -8.4894531733919632e+02 -3.9988696888459572e+00 1.3239869070105746e+04 8.0798040362680855e+04 6.0802727651853019e+01 8.6056942622544651e+04 5.2518873119038556e+00 -3.8309054177488571e+04 -7.3234965903233729e+00 -1.1576665684043864e+01 8.0700842583071601e+04 7.5010566529631615e+03 -2.5383856994060625e+02 6.6920340780979600e+01 -6.4492284398352922e+02 7.6902366004942451e+00 2.9504943589558192e+04 -1.6164706032413974e+03 -1.3220428690308557e+02 -1.5119559995970194e+03 1.9518469460707752e+01 1.1894267811223690e+04 -3.2481250824663022e+00 1.1043405351256524e+01 -2.5662987604237533e+04 1.3433428087641252e+04 9.0004254234521852e+00 2.1596470837855605e+01 -3.8667379583008915e+02 2.0659752586371349e+04 
      </Row>
      <Row Index="31">
        8.8410732124959424e-02 -3.8529308868222927e+00 -1.6559512685269704e+02 5.3834530009216799e+00 -1.7690053191952086e+02 3.4289779247935748e-02 -8.5067663112845821e+01 3.0640448663993247e-01 -1.7737863582649727e-03 2.0474244528754948e+01 8.2144398928248847e+00 7.0649716444250998e-02 2.7167892567563712e-01 -8.9361860930407599e-01 6.1135808184324958e-02 -1.7518635872910409e+00 4.8057794495877431e+01 5.4352037660708739e+00 -3.7722099657698243e+02 9.1473120261232888e-02 -7.8627653109409820e+01 -7.9275007657317786e-01 -1.8833250799032142e-01 7.4017399241643204e+01 -6.3631633441691520e+00 2.9449329992269035e-01 -2.5089832627290287e-01 -6.5020588715351768e-01 2.5701794248060228e-01 1.6068767903046819e+00 -2.3048470299377325e+02 5.9579667835313224e+00 -1.8398801639019604e+02 3.1728983764240493e-02 3.3181268297892785e-01 -5.2100650080010524e-02 4.6499218611433912e-02 7.2562251809795725e+01 -1.5069474177498705e+00 -1.0983511475566357e-01 -2.9702570526802419e-02 -3.9642614203821824e-01 -4.0828280210031043e-01 2.7317195510813921e+00 1.9437805532841281e+02 -4.1104946756454881e+00 4.0536705791287761e+02 1.0928384416496015e+00 6.0184970373658018e+01 8.4214615974414375e-02 6.5671455145962787e-01 -1.3532448073772025e+02 -1.4097163880631342e+01 2.5531546968297425e+00 6.2176535068893579e-01 1.2354473297311048e+00 -2.0649474051639505e-01 -1.0438971670058137e+01 1.1198040823457150e+02 3.5151644359677250e+00 6.0093092124208155e+01 1.0152229814996114e+00 -6.2409964553903574e-01 1.0016773845510052e-01 4.6580687996845060e-01 -4.3313544583597441e+01 -9.8641716916572477e+00 2.4865812746481204e+00 4.7567771517035995e-01 5.1156874454504919e-01 4.5400458141729105e-02 -2.4643982955354133e+01 1.7049779000341800e+01 2.5884810511478706e+00 -8.1829339092340803e+00 1.5465822080201327e-01 -6.7106486733954238e+00 1.7932035880636316e-01 -1.9323812834995424e-01 -1.3396275762232964e+01 -3.1470262343862967e+01 6.9681896489230677e-03 -1.6416768547648264e-01 -7.3316483548613753e-02 4.5325552582113771e+00 
      </Row>
      <Row Index="32">
        -4.7990848692730651e+01 -1.8312790863284899e+03 4.1085906660196117e+04 -7.1652922744713578e+02 -5.3737554859778029e+04 -1.4541585689543581e+01 1.6859827855415540e+04 -1.7005831121825395e+01 4.0220668183355883e+00 -6.0821172069501008e+04 6.0868274527043104e+03 1.9972934119912679e+01 -5.0444862418637058e+01 3.3742002079714666e+02 3.4379787501648025e+00 -4.6636982103157789e+02 -3.7784110432546440e+04 -8.1639891746910871e+02 1.5411779738334357e+05 1.9583209629384207e+01 3.8242535149440992e+03 4.6842765399738710e+01 8.3766652743492465e+00 -3.8152784342318970e+04 1.6214136299584061e+03 6.6650041068314749e+00 3.5581514075467908e+01 1.3294294744398235e+02 1.1250222826012032e+02 -1.5609816237568157e+03 -5.4935428650761547e+04 -1.8398801669576358e+02 4.5547564440784371e+05 -3.8457475082850578e+00 4.6228718976528289e+03 -6.9827922092445078e+00 -2.9949680901925149e+00 -3.8253623569193558e+04 -5.4694343378208578e+02 -2.0441200543206421e+01 1.9162554432612637e+01 2.8843036379496050e+02 -2.2261053897779959e+01 3.7563725982785945e+03 -2.8736576311473778e+04 5.4170911862505830e+02 -7.9256130110991653e+03 -2.2289684132244020e+01 1.9666842645843120e+04 7.5539377793162714e+00 2.7582156474780007e+01 4.5963550901290146e+04 2.9738495367430151e+03 -8.9723552855382223e+01 -3.1255972989540339e+01 2.4058378773984498e+02 5.9005135183338780e+01 4.4333416039173517e+02 7.5662229669517576e+04 -1.8253050820284099e+02 2.5075712771966335e+05 -2.2171968037131315e+01 2.6194157033884050e+04 -3.7237814788545620e-01 3.5419057952223092e+01 -2.2814858886448048e+04 -7.5307806736761704e+03 -8.3609342943667798e+01 -1.5296815813351330e+01 5.2536746900323556e+02 1.1201494846754031e+01 -7.1428313502307492e+03 2.9116426721864947e+04 -3.6524298220001873e+02 9.1378801187272511e+03 9.0803888672827515e+00 -3.7230480407679443e+03 -6.5652749976613762e+00 -4.9130993804738665e+00 -5.4172642778486415e+03 -4.2794194017851978e+03 3.0153777573748357e+00 2.9777094188460993e+01 7.5652446966470507e+01 -4.1353197712834772e+03 
      </Row>
      <Row Index="33">
        -1.6032280841749014e-03 8.9599795918408631e-01 -3.0216656083541924e+00 7.1319109103136213e-02 -1.4333532407655603e+00 -2.9077568335775128e-02 -2.3338228893406665e-01 1.2330708942844382e-02 3.0946838255707654e-03 -2.3412302934677482e+00 5.6956834665834322e-01 9.4041778443436641e-03 -7.9015352722677790e-04 -2.1929513274764424e-02 2.8647351132376819e-02 -1.2762695701835014e-01 -5.4237528433036246e+00 4.0814890416529082e-02 1.6488450761034170e+00 -3.5256401296579629e-02 -2.7044507259643629e+00 3.8383951299884700e-02 1.3946282658707268e-01 2.5586469908028331e+00 1.2329958492882724e+00 -1.0575100319284658e-01 -1.5056209265749465e-02 -6.2720583205000402e-04 1.9201327899777465e-02 7.4605628942777003e-02 5.2097961818569249e-01 3.1728983848236039e-02 -3.8457475228122373e+00 8.1011132883949788e-02 -2.6291929752086407e+00 -2.4085688387385229e-02 -3.2541944443288395e-03 -4.0934736834699228e+00 1.6088686109515038e+00 4.4246501088307043e-02 -1.8353307366982818e-02 -5.3546488299717060e-03 -3.3903977725417450e-02 2.5069553528313016e-01 -1.4845436857881873e+01 -3.1549587665809252e-02 -2.1391512239597716e+00 -1.5335568506227437e-01 1.9256169453285337e+00 -7.0942784954365526e-02 8.6412968520762679e-01 5.6768277945373660e+00 2.4538443728588391e+00 7.3826378659245806e-01 -2.1635641486753496e-03 -2.7617505803974471e-02 -8.8108835663864501e-03 9.3425377316968727e-01 9.8748308145557697e+00 3.5378833954889263e-02 2.1771412649863153e+00 -1.4547017202396678e-01 4.6966516421421689e-02 -6.1184501982797596e-02 9.3364508339602903e-01 2.9003346139247004e+00 2.4037233453650515e+00 6.3226933431122978e-01 -1.5864724185192247e-02 -1.5470697559171895e-02 7.1056307205149549e-03 2.5860746788675821e+00 1.6714628388764174e+00 3.0594930603315092e-02 1.0050934465031958e-01 7.9807649049331006e-02 -6.1932348161800821e-01 -3.3299860252404626e-03 -1.8124252522140855e-01 2.7723736467310084e-01 4.9844619258283220e+00 -6.2765709312722878e-02 -5.0448312540727902e-03 -1.6368805540412756e-02 -2.9125081922173748e+00 
      </Row>
      <Row Index="34">
        6.8580534123739199e+00 -6.6040204185657785e+02 -5.9844580688939950e+03 -1.3330067397314906e+02 7.2237801152911716e+03 -9.3675906970281630e-01 2.5938545983159420e+03 3.3168569157205638e+00 5.4795056838111122e-01 -4.0833013450138151e+02 -1.2534381739925593e+03 2.8488134465742405e+00 3.1521844664521268e+00 2.6721624493020400e+01 -1.0688671905531919e+00 -6.2052622290691943e+01 -2.3232093392457900e+03 -1.0775775393840286e+02 6.2233938795363247e+03 -7.9408246983163622e-02 6.0624314176302832e+03 8.2099877341815954e+00 2.4455348612593717e+00 5.7467887616277758e+03 -1.7506585022681393e+03 9.1270392003725647e+00 -2.8561244954296967e+00 -2.8760360469979901e+01 2.1104572553406456e+01 -9.1533759649697458e+01 -2.1949809816782163e+03 3.3181217178594125e-01 4.6228718757144670e+03 -2.6291929238403782e+00 9.7812564348630131e+03 -3.7107706618253360e+00 5.0362929285080327e-01 1.4216391048543566e+04 -1.8357231101240031e+03 -1.1345169723085782e+00 -5.3721404886971413e-01 -4.9808208322149255e+01 2.3598018110400254e+01 2.8966687546061644e+02 -1.4291346351369211e+03 -1.2500219121458396e+02 -3.2279356236572858e+03 -7.7121877396011769e+00 -1.0001186466370877e+04 2.3867611308605881e+00 5.5249220008290756e+00 -1.3360040988299661e+04 -2.8485309499460272e+03 -3.0394865700759418e+01 -6.3533522307948260e+00 9.4051122905267164e+01 4.1853947657682269e+01 -5.9728442027404594e+02 -2.6920925788151617e+03 -1.8795514882672126e+02 3.9311914889637228e+02 -9.8860023196899078e+00 8.8344947018435732e+01 2.2918241669744965e+00 8.8102105063518970e+00 -1.5546640367627760e+03 -1.1079523050293792e+03 -2.4201934556959600e+01 -6.6119936446694654e+00 5.7237264921808787e+01 1.3558145055330897e+00 -2.2628349918316053e+03 -3.9598723829555593e+02 -5.9600281953198831e+01 1.2940266903375232e+01 1.1952519537475972e+00 2.6666680639232436e+03 -1.4801148017592460e+00 -4.8047190520605909e-01 -2.5868005309994783e+03 -3.8760671751033033e+03 2.8468725302390681e+00 -2.1922808991316884e+00 4.7310514149207165e+01 1.6055287897218520e+03 
      </Row>
      <Row Index="35">
        -5.6713037612716732e-03 -7.9338405327079187e-01 4.6309381769680869e-01 9.9949210813750078e-02 -1.8930592695376916e+01 2.6438100684643917e-02 -1.1263132408382646e+00 3.4123397610998030e-02 -1.6699065927471279e-02 -3.6566621404403761e+00 1.9690125905981404e+00 4.7044995706904125e-02 1.0908910681767914e-02 -6.2006340407050331e-02 1.4569481114366400e-02 -1.3836962338032777e-02 -2.8008572531653833e+01 1.8177178890579349e-02 4.1900943842501249e+01 -1.1713393039156320e-02 -2.2871091631770128e+00 -1.4576135432827542e-01 -4.1741361077438748e-02 1.7613356931296171e+00 1.4501890444535093e-01 -2.3863000573901427e-01 1.4344397944080628e-02 5.4279164623035947e-02 -1.8079148520616151e-02 -6.9699923996438429e-02 -2.0880857669875077e+00 -5.2100649999134552e-02 -6.9827921910144291e+00 -2.4085688393133298e-02 -3.7107706466193422e+00 2.3697355093711914e-01 -3.1224036983628217e-02 -3.1367591788397293e+00 -1.1335067226355022e-01 2.4225681976912604e-03 -2.2752167101519172e-02 1.3560827582325928e-03 -5.3302315409198275e-02 -5.6876926947990669e-01 -1.8780276686019327e+01 1.1698573826007770e-01 6.5139199444663021e+00 -1.4523431492816927e-01 5.9484138805196647e+00 1.8256529654935016e-01 -2.7562935402146899e-01 -1.2467280393211990e+00 5.0442020019090705e-01 -2.8988684607690096e-01 -4.7241548625562707e-02 -1.8323137589213939e-01 -5.4318280124998147e-02 -3.4450246823998953e-01 2.0691775371667003e+01 9.7074496058670190e-02 -5.5154951283738454e+00 -1.1265251380654390e-01 4.9395912959972410e-01 2.9472340158896482e-01 -3.2387221076211226e-01 -4.9460281901075955e+00 -7.6583260162328770e-01 -4.4283662715508720e-01 -5.8295608320711352e-02 -1.8212629248422302e-01 2.0204424538263210e-03 -1.2192158224335790e+00 3.6746173336449677e+00 2.6934746624040908e-02 2.7536009600461231e-01 -6.9691058604469558e-02 -9.7649477192287337e-01 1.5636599510592653e-02 7.5246423902633225e-02 -8.0419606007375827e-02 -4.3284383894722578e-01 -1.7146285278126741e-02 -5.8490151923950365e-03 -3.8912495849937390e-02 -1.3773235379702446e+00 
      </Row>
      <Row Index="36">
        2.1535882895058478e-03 4.1505438996028943e-01 -8.4386910067948513e+00 4.3805173213360860e-02 4.1265736087448879e+00 5.2368806079617469e-02 -7.7119467627596805e-01 -3.9223168131480080e-02 9.5016011305972814e-03 6.8179674280987523e+00 -2.3617384932113055e+00 7.6738436590339631e-02 3.3889272685492244e-03 -4.3941711909985415e-02 -1.8628923957438204e-02 -8.5864866903705206e-02 3.5778233224437557e+00 5.0684300652669378e-02 -1.6661106398894397e+01 -4.1050238890734003e-02 -1.4708234836859360e+00 8.0788184970192134e-02 -1.6374277397846670e-01 2.0071051815671215e+00 -5.8627142470231774e-01 -2.3971907226550471e-01 1.3683549648750293e-02 -4.5691215168999211e-03 -9.6638002721463057e-03 1.3512566863710163e-01 -6.3056135804063285e+00 4.6499219185199614e-02 -2.9949680114188517e+00 -3.2541945286974627e-03 5.0362936892822541e-01 -3.1224036960993296e-02 1.2538767712513466e-01 -3.0994527444955233e+00 -1.6868004021562228e+00 9.0229160705175157e-02 7.2333016409948936e-03 5.4558778570257857e-02 3.4909486761317943e-02 7.2596696752504020e-01 1.3446123716961186e+01 -5.3740289764571923e-02 9.3378310033376479e+00 5.8940388102517553e-02 2.4444083258481819e+00 -1.0228850765494960e-01 -1.0925959867705726e-01 6.6054839819299382e-01 -2.4487806723936956e+00 1.1685696657084492e+00 -3.6315743200583603e-03 -1.4072609967796072e-02 1.6184882941025124e-02 1.7991864594767166e+00 -9.3762023917366495e+00 1.8689496784148163e-02 1.4948684795984013e+00 1.0726481517736008e-01 2.3640097732763170e+00 -1.1323207397893587e-01 -2.0334799062292983e-01 -1.0493221675111561e+00 -2.8892104736405599e-01 9.0628053456172597e-01 6.2169741174167084e-03 2.4392261148575123e-02 -4.7062148389658276e-03 2.4141563443640606e+00 -2.7933584255079649e+00 1.8505536309060315e-02 -4.7104376756504251e-01 -1.1186188209101171e-01 -5.0437695381856074e-01 -1.1720016317551995e-02 3.8895304931406589e-02 1.0828511625766151e+00 -1.7911075059692201e+00 -9.3937150487556548e-02 -2.0361751584817762e-03 -3.2433048783305107e-02 4.4750904324329444e+00 
      </Row>
      <Row Index="37">
        2.9618243713121046e+01 -3.1221653116469970e+03 -1.5885465006621159e+05 -6.8768043779506115e+01 3.6490622064977484e+04 -9.6515002526939497e-01 -2.7684169144106563e+03 9.5418042466590123e+00 -3.6144741863972740e-01 -3.4503975940285214e+04 3.1927962637692690e+03 2.5310071449202951e+00 2.2782447447258164e+01 6.7852802292414708e+01 4.0410010640443943e+00 1.8116626306367107e+02 -3.7090667881430571e+04 3.3987731272995006e+01 1.0716141601905838e+03 1.3712097774771337e+00 8.4776417502943914e+03 3.4850009883666644e-01 3.4285816434788359e+00 9.6184910048838192e+03 -1.0378983770422637e+03 4.2344733903359156e+01 -1.5225896492280754e+01 -5.7188455131130468e+01 4.8001012155333683e+01 -1.9988165396871045e+02 4.5586067087576477e+04 7.2562248070080386e+01 -3.8253624062795585e+04 -4.0934731097513577e+00 1.4216390586261363e+04 -3.1367592890455853e+00 -3.0994528649096083e+00 9.2746803612349977e+04 2.6862511786930263e+03 -8.1973030034241674e+00 -1.3592284192073748e+01 -2.9699365596443090e+02 2.2686530136971335e+01 -6.7678658779580746e+02 -1.7643204954119552e+04 -1.8653038331840878e+02 5.5860295096445363e+04 -6.6687360547118715e+00 -1.9736550697936789e+04 1.0478743409285102e+01 -2.0273063743732848e+01 2.7899050880666327e+04 2.4042572530806065e+03 -1.2220068603113921e+02 4.0609715990313475e+00 2.4517550828213155e+02 7.9210343046850824e+01 -4.2930820737361837e+03 1.3523853698435309e+04 -1.3549016275111163e+02 4.4054283384418595e+03 -9.6800435091954569e+00 -7.4635365135322409e+03 9.5650730232236469e+00 -1.6524111007721622e+01 7.2263206736395354e+04 4.3869497565217316e+03 -8.8169321715497290e+01 -9.2875963372802488e+00 4.4192971149695204e+01 2.2868636346820495e+00 -1.0573150458210843e+04 2.0882838639023248e+04 3.8736689494882626e+00 9.6277572844724637e+02 9.7722555906060360e-01 5.3563872466486573e+03 -7.0754525377026312e-02 3.7846691709371250e+00 -2.0217371525944025e+04 4.5862587792635923e+03 1.1305102403015638e+01 -1.3455474693985522e+01 1.6893048443363659e+02 -1.5948851323769182e+04 
      </Row>
      <Row Index="38">
        4.0700458435458131e+00 6.9508448866498657e+02 8.1144452833978266e+03 4.3711944250710076e+01 5.0051878945971375e+03 -2.6339778236433631e-01 -2.1985599603588926e+03 2.0821669186698273e+00 -1.3958834946970455e+00 1.6639302716011862e+03 6.4532718425393105e+03 -1.6888808629300911e+00 4.9731747417536099e-01 -6.9372323451148986e+01 4.6291226161192753e+00 2.7089126920327544e+01 -2.0217510982982394e+03 8.0955518331131316e+01 -4.7130065492798776e+03 3.1845953331303463e+00 -1.1925252452027503e+03 1.4148828786128433e+00 -1.2647279057528067e+00 2.5265308087408771e+03 4.4257107804864645e+03 -5.9579418938665185e-01 -1.0869449843012262e+01 -1.0330769193764354e+01 1.3034021515634777e+01 1.1057555423444137e+02 1.4590215112840497e+03 -1.5069486753018282e+00 -5.4694378693532963e+02 1.6088688601812464e+00 -1.8357235456387132e+03 -1.1335073584996280e-01 -1.6868000123999991e+00 2.6862482709113192e+03 1.0647713108927011e+04 -5.3791861463832902e-01 -3.0072953889048222e+00 9.2424620775381410e+00 -4.5214185785838428e+00 -1.3223656956227671e+03 -1.8871718540791426e+02 -1.1507245503263222e+02 9.2457575953266314e+02 7.6011031305711327e+00 5.7150081035092671e+02 4.7131879147334441e+00 4.2809636259333139e+00 2.8979008048340256e+03 1.5102737958244979e+04 -5.5456498406337591e+00 3.5332813927447361e+01 -7.3060318930994427e+01 7.1159444310262359e+00 -9.0200976118155324e+02 -1.9195775714320102e+03 -6.5762073781385510e+01 3.2605492585782140e+03 8.7325950244671731e+00 -1.9126645689814259e+03 4.5763752757406166e+00 1.6736484552135185e+00 5.9794604486418939e+03 1.4030408267952502e+04 -4.1996359803400836e+00 2.6175757540931407e+01 -7.9065426575996895e+01 2.5212643917384412e+00 1.7218031262876245e+03 2.9309187080243455e+03 3.5007708872228392e+01 1.2028092798488506e+03 1.5997280076146900e+00 -4.0478806624306162e+02 1.6124673762347630e-01 -8.4181701161401890e-01 1.2524845000378633e+02 2.6615412158104577e+04 -9.4583565971165573e-01 -2.8409555524456938e+00 -5.0103022417140892e+01 -2.4810345760813918e+04 
      </Row>
      <Row Index="39">
        -1.0151672421869762e-02 2.7090303237061164e+00 -9.4843173248632624e+00 -7.7267544255761322e-03 2.0528610511916352e+01 -4.7385904754028152e-02 2.2842264674285886e+00 5.6171536356139917e-03 7.4966660759474557e-02 -1.0295810279472251e+01 -5.7630790690382128e-02 4.0174822147969280e-01 1.2266499734234593e-01 2.4013735039524953e-01 9.1260752408228285e-02 7.9975140847571424e-01 1.8324188655308937e+01 -1.7771059414859369e-01 -3.2802787839341917e+01 4.3777751573051304e-02 -4.9900431680206436e+00 3.6639538905664892e-01 7.4689597159751098e-03 -4.3662280462814724e+00 1.4442986709832439e+00 -2.1255756947515119e+00 -3.8058035801748824e-02 1.1226916719915803e-01 5.3822611618254745e-02 -7.6400909764151947e-01 -8.4836545604031564e+00 -1.0983511420381786e-01 -2.0441200529780815e+01 4.4246500999979732e-02 -1.1345169830260693e+00 2.4225682059690890e-03 9.0229160910127032e-02 -8.1973041804590139e+00 -5.3791968399195866e-01 1.3948045594409662e+00 -1.3214937070648358e-02 -9.9086204726422489e-02 -2.4079698575445407e-01 -1.4985595036341839e+00 2.7584161126056728e-01 7.1889235979712951e-01 -1.3656077796107340e+01 -2.5779882543637660e-03 1.1895415439706817e+01 -1.1016838298320519e-01 3.8315221224948708e+00 -1.0317791928243100e+01 2.1726751487476577e+00 6.1838848823595862e+00 -1.2197219451999675e-01 -2.5020983879395897e-01 -1.3777433981507900e-01 -2.1167504776103307e-01 -5.7823688940200686e+00 5.0257878469474282e-01 1.4730352544944051e+01 -4.6243736132786706e-02 7.4472089714918122e+00 -3.7489523499599831e-02 3.6105617420870524e+00 -1.4535092550904560e+01 3.1164030587883644e+00 4.7795363398371773e+00 -7.2814786360988509e-02 -9.6012843963719147e-02 1.8557670922987879e-02 6.1141367649342113e+00 -1.3045523308848264e+00 -4.4904998296667706e-02 -1.2764245268955321e+00 1.7046922154443489e-01 -9.1205058790614313e-01 -5.6950282355996883e-02 -7.8644905006827970e-01 8.1843794857961250e-01 7.9052021729933717e+00 -6.9086116164922073e-01 -4.3350673140997720e-02 1.2757792294363091e-01 -2.1327828887817124e+00 
      </Row>
      <Row Index="40">
        -1.4516106937804807e-02 6.8874824658973921e-01 -9.9443053725054078e+00 2.5475985902687626e-02 1.3693164112401643e+01 1.4804554053397645e-02 7.2712386947722507e-01 -4.7936158694632525e-03 -1.3606811805184638e-02 5.4708906090320220e-01 -3.7023663908621529e+00 -5.0928640072925191e-02 4.0679211597789333e-01 -4.3231793065768187e-01 2.5217680947086762e-02 1.2665324186446014e-01 -5.6344193409655787e+00 5.0074640992157526e-02 -1.0507755766780827e+01 -4.2167762858388746e-02 -2.0558784615308801e+00 2.7770574993446928e-02 1.0573110607657199e-02 1.1856201893214480e+00 -7.7444939309134497e-01 -1.6372928099947615e-02 -2.8686933010161297e-01 2.9405792749236692e-01 -2.3411026780411959e-02 2.1910647709728437e-01 -1.6764867460564240e+01 -2.9702569191762507e-02 1.9162554690931906e+01 -1.8353307570464494e-02 -5.3721382466465317e-01 -2.2752167028546211e-02 7.2333015168639658e-03 -1.3592283166185570e+01 -3.0072959226927196e+00 -1.3214937727372700e-02 4.5581461466132156e-01 1.0796049296216720e-01 4.3904507367064693e-02 -1.2254049390887722e-01 -4.0914343990545838e+01 -5.1544823158497940e-02 3.3806117458645772e+00 -5.4012586962222053e-02 4.0587943108182856e-01 -3.1813016515591208e-02 -1.2865183858327164e-01 1.6968409422659818e+01 -5.1228977335485979e+00 -9.1707620243003607e-02 1.9029264416453470e-01 -1.3622103732821039e-01 3.4145488645857203e-02 2.8090288487703301e+00 4.1496140851356145e+01 -6.6132152326319985e-02 -1.6120991080038195e+01 -5.1125130027632526e-02 2.7567966015209783e-01 -3.1401779610217700e-02 -1.1756330494314549e-01 2.8054014120490409e+00 -5.5134597040014341e+00 -9.1424878635668061e-02 4.0644192350961994e-01 1.6535060301082080e-01 -2.2637193658141541e-03 5.2001388342657204e+00 1.4431112698390245e+00 1.3737219351126484e-03 2.9693889886374336e-02 -3.2850098890977626e-02 -9.0720723774390422e-01 -5.5053578023084304e-03 4.0631608827589968e-02 9.2540124961217440e-01 -9.5441555018213311e+00 1.3170971394046507e-03 -2.1791842180912402e-01 1.8306059645483863e-01 1.3449840624320760e+01 
      </Row>
      <Row Index="41">
        -3.8415125443498255e-01 5.2372222711376708e+01 -5.8223204694616392e+01 -1.4127230844258065e-01 -2.6572874966146253e+02 3.6160805558026254e-02 1.4607267043013962e+01 -1.6256636043434014e-01 -1.8012900650589359e-02 -8.7784233485451466e+01 1.0181123401271179e+01 -4.4822152230267420e-02 -1.4140700668002637e+00 -4.9965624632059757e+00 9.5884874399132514e-02 2.1686605038248672e+00 1.5700649097848083e+02 4.2145008213537949e-02 -1.7746328987574140e+02 -2.2367066649685086e-01 -3.1857146595678699e+01 9.0409893938613095e-02 -3.1885229303142637e-02 -5.6348245937559035e+01 1.6476337383501232e+00 -3.5012591314421115e-01 9.0809834739065209e-01 6.5895942922376349e-01 8.4615602111070842e-01 1.5679509302713996e+01 2.7269533876702098e+02 -3.9642610736164841e-01 2.8843036802468430e+02 -5.3546535793458361e-03 -4.9808205743051076e+01 1.3560842601805234e-03 5.4558780787324679e-02 -2.9699366498794893e+02 9.2424343445163686e+00 -9.9086213851592220e-02 1.0796050478842645e-01 7.2656063431237410e+00 -5.3648332741271920e-01 2.6523525615764925e+00 -3.8372973673022273e+01 9.3373445850605430e-01 -1.7753671776183185e+02 -9.0966996188841742e-02 5.4376367516524354e+01 -4.5105594066686194e-01 -5.4846742134635285e-01 4.0575289335951567e+01 2.0233208655088674e+01 8.9985019742774763e-01 -2.9067067536758173e-01 -7.9039178392416343e+00 5.8123033178535677e-02 8.7631514928407768e+01 -6.2730510040294838e+01 4.0701454290904970e-01 6.0281419450050713e+01 -7.8997025075906890e-02 2.3959909401970084e+01 -3.6463628126376657e-01 -5.4964247753121109e-01 -2.1052630431142808e+02 2.0502410823159153e+01 6.0145082061691069e-01 -1.2567475271774242e-01 -4.6892232217773335e+00 1.1368808337905989e-01 2.0207651049724132e+02 -3.1283474020669917e+01 2.4263569098192939e-03 -8.2183762719727156e+00 -1.5008914384174687e-01 -1.6755061882137852e+01 -3.1221180065259049e-02 1.6032211824752615e-01 2.5545870861427538e+01 3.9460380021556560e+01 -5.8222474206689745e-02 7.0452534536614830e-01 -6.5485998250453861e+00 1.6386963035884196e+02 
      </Row>
      <Row Index="42">
        1.8942485533125364e-01 -1.1117646316105265e+01 9.2713072097457840e+01 -3.6959902247650689e-01 1.1887353575366082e+02 -9.5736191159971895e-03 5.4683480613471147e-01 -2.3356407576500260e-02 -8.8488962979074159e-03 6.7871284681628651e+01 -3.7632535594748333e+00 -5.0672312239441908e-02 1.9664460212737822e-02 8.4882249195784709e-01 -9.6476011181520960e-01 -8.8747337291169970e-01 -1.3198285433991678e+01 -5.6959939689528483e-01 5.2586542177821286e+01 -2.7436853101148628e-02 3.2631077952670566e+01 1.8167908217694162e-01 1.6396048127367280e-02 -1.5196518675974264e+00 -4.8496726920711808e-01 5.5986223144239489e-01 -3.7586673542753246e-02 1.0588167370794821e-01 -2.0742187300761188e+00 -3.9549028002202249e+00 -1.6125418250690849e+01 -4.0828281049682147e-01 -2.2261054969114809e+01 -3.3903976535526681e-02 2.3598017227526661e+01 -5.3302315755125562e-02 3.4909486524195898e-02 2.2686530235782158e+01 -4.5214124577323673e+00 -2.4079698316856479e-01 4.3904505112104530e-02 -5.3648330942888134e-01 4.7303749282206748e+00 4.7406573983993461e-01 -1.2876211333548508e+02 9.0981695257393191e-02 1.0186077321443763e+02 -1.8068496270180867e-01 -4.3323260939116487e+01 -3.6918569303328042e-01 -5.3135897790452979e-01 3.4040198739899473e+01 -1.1770852404588368e+00 -1.2069181564926514e+00 1.2505342694073063e-01 1.0402307706404952e+00 2.4244127357481329e+00 -1.5511676918976491e+01 1.1448340125109370e+02 -4.9775175477071315e-01 -1.3672505382336797e+02 -1.7685997522952057e-01 -6.5958669358870852e+00 -3.2670617823638093e-01 -4.4456546522438106e-01 8.4872327141914923e+00 1.0260208414183580e+01 -8.4517703954275802e-01 1.0797018844263384e-01 1.1324302089702001e+00 -3.3578111257944698e-01 -3.9696965144865480e+01 -9.2234044590825626e+00 -2.9974471747430598e-01 3.6954502365846906e+00 -2.3808187880675291e-02 7.8603838033617990e+00 -2.6209973361935091e-02 1.5849301322891318e-01 1.3279177254215206e+00 1.0946433406108362e+01 1.6194108192617590e-01 -2.5151049371368250e-02 1.0087180868385133e+00 -5.0854460745782980e+01 
      </Row>
      <Row Index="43">
        -1.0915256509542814e+00 1.1268176823842805e+02 -8.8816564155714332e+02 2.2249825837461685e+00 1.2100961904943920e+03 1.1170261707547979e-02 6.8663997312297579e+02 8.2513445525364659e-02 3.8871823768158720e-01 1.6765154060772713e+03 -3.1796013978868723e+02 -2.4686764767466229e+00 -3.3562477009509166e+00 1.8523473753471990e+01 3.7838496229687735e-01 -1.1432334287947742e+02 1.4855988067315693e+03 6.9742926559647458e+00 3.6126466814736918e+03 -1.6777642870040381e+00 2.6040658114233651e+02 -3.6680006619499181e+00 7.8154758176310679e-02 -6.4746369876406618e+02 -5.4039360750187188e+02 6.9152426900473074e-01 3.2542791909094149e+00 -1.8167858096178406e+00 4.4395488945641546e+00 1.3406819250935223e+02 1.9224188172609465e+03 2.7317198169048424e+00 3.7563726558085104e+03 2.5069548972260236e-01 2.8966693840849530e+02 -5.6876925427150127e-01 7.2596692232315263e-01 -6.7678622487978964e+02 -1.3223657757411711e+03 -1.4985596765545779e+00 -1.2254052513321767e-01 2.6523489530417219e+00 4.7406648742520097e-01 1.1499824256216714e+03 1.8918694915295914e+03 -2.8104786430112810e+01 -6.0866923611961329e+03 5.1037685476832060e+00 -6.6460804469913069e+02 -3.1509448496231016e+00 -8.2158506968361311e-01 1.9426002913721452e+03 -1.8048650522436947e+03 2.1081314791807017e+01 -8.1208075727887650e+00 3.4828639662976947e+01 3.6417292417108715e+00 1.4569908523468621e+03 -3.2371651871095892e+03 -1.8935777128251654e+01 1.0601565020063804e+03 3.9571282156006191e+00 1.8718633798269610e+02 -2.5139514966123429e+00 -1.3275470951408330e-01 2.0933093613261117e+03 -1.8085533467428759e+03 1.8885258708857137e+01 -7.1223623054232803e+00 3.9017750016227716e+01 6.0029502474208130e-01 7.4577756820204240e+02 -3.3382305994872769e+02 -8.7827545969937404e-01 9.7742737527685676e+01 6.8340779253139772e-01 1.0442451194419846e+02 5.8648216236626149e-01 -2.6033519776647340e-01 1.0234873336150730e+02 -3.4787910047219871e+03 3.4461580194735308e-01 1.6160200298169780e+00 1.7606921330129353e+01 4.2838708014109952e+03 
      </Row>
      <Row Index="44">
