<?xml version="1.0"?>
<MethodSetup Method="MLP::MLPTuned">
  <GeneralInfo>
    <Info name="TMVA Release" value="4.1.2 [262402]"/>
    <Info name="ROOT Release" value="5.32/00 [335872]"/>
    <Info name="Creator" value="ineuteli"/>
    <Info name="Date" value="Thu Nov 12 18:55:07 2015"/>
    <Info name="Host" value="Linux cmsdev02.cern.ch 2.6.32-431.11.2.el6.x86_64 #1 SMP Wed Mar 26 09:39:43 CET 2014 x86_64 x86_64 x86_64 GNU/Linux"/>
    <Info name="Dir" value="/shome/ineuteli/phase2/CMSSW_5_3_24/src/Delphes/plots"/>
    <Info name="Training events" value="22899"/>
    <Info name="TrainingTime" value="2.42411320e+02"/>
    <Info name="AnalysisType" value="Classification"/>
  </GeneralInfo>
  <Options>
    <Option name="NCycles" modified="No">500</Option>
    <Option name="HiddenLayers" modified="Yes">N+10</Option>
    <Option name="NeuronType" modified="Yes">tanh</Option>
    <Option name="RandomSeed" modified="No">1</Option>
    <Option name="EstimatorType" modified="No">MSE</Option>
    <Option name="NeuronInputType" modified="No">sum</Option>
    <Option name="V" modified="Yes">False</Option>
    <Option name="VerbosityLevel" modified="No">Default</Option>
    <Option name="VarTransform" modified="Yes">N</Option>
    <Option name="H" modified="Yes">False</Option>
    <Option name="CreateMVAPdfs" modified="No">False</Option>
    <Option name="IgnoreNegWeightsInTraining" modified="No">False</Option>
    <Option name="TrainingMethod" modified="No">BP</Option>
    <Option name="LearningRate" modified="No">2.000000e-02</Option>
    <Option name="DecayRate" modified="No">1.000000e-02</Option>
    <Option name="TestRate" modified="No">10</Option>
    <Option name="EpochMonitoring" modified="No">False</Option>
    <Option name="Sampling" modified="No">1.000000e+00</Option>
    <Option name="SamplingEpoch" modified="No">1.000000e+00</Option>
    <Option name="SamplingImportance" modified="No">1.000000e+00</Option>
    <Option name="SamplingTraining" modified="No">True</Option>
    <Option name="SamplingTesting" modified="No">False</Option>
    <Option name="ResetStep" modified="No">50</Option>
    <Option name="Tau" modified="No">3.000000e+00</Option>
    <Option name="BPMode" modified="No">sequential</Option>
    <Option name="BatchSize" modified="No">-1</Option>
    <Option name="ConvergenceImprove" modified="No">1.000000e-30</Option>
    <Option name="ConvergenceTests" modified="No">-1</Option>
    <Option name="UseRegulator" modified="Yes">True</Option>
    <Option name="UpdateLimit" modified="No">10000</Option>
    <Option name="CalculateErrors" modified="No">False</Option>
    <Option name="WeightRange" modified="No">1.000000e+00</Option>
  </Options>
  <Variables NVar="4">
    <Variable VarIndex="0" Expression="DeltaR_bb1" Label="DeltaR_bb1" Title="DeltaR_bb1" Unit="" Internal="DeltaR_bb1" Type="F" Min="2.67539859e-01" Max="5.43578577e+00"/>
    <Variable VarIndex="1" Expression="M_bb_closest" Label="M_bb_closest" Title="M_bb_closest" Unit="" Internal="M_bb_closest" Type="F" Min="1.14437885e+01" Max="3.20542749e+03"/>
    <Variable VarIndex="2" Expression="DeltaR_b1l" Label="DeltaR_b1l" Title="DeltaR_b1l" Unit="" Internal="DeltaR_b1l" Type="F" Min="3.53569627e-01" Max="4.68913269e+00"/>
    <Variable VarIndex="3" Expression="DeltaR_j1l" Label="DeltaR_j1l" Title="DeltaR_j1l" Unit="" Internal="DeltaR_j1l" Type="F" Min="3.09844941e-01" Max="5.21059179e+00"/>
  </Variables>
  <Spectators NSpec="0"/>
  <Classes NClass="2">
    <Class Name="Signal" Index="0"/>
    <Class Name="Background" Index="1"/>
  </Classes>
  <Transformations NTransformations="1">
    <Transform Name="Normalize">
      <Selection>
        <Input NInputs="4">
          <Input Type="Variable" Label="DeltaR_bb1" Expression="DeltaR_bb1"/>
          <Input Type="Variable" Label="M_bb_closest" Expression="M_bb_closest"/>
          <Input Type="Variable" Label="DeltaR_b1l" Expression="DeltaR_b1l"/>
          <Input Type="Variable" Label="DeltaR_j1l" Expression="DeltaR_j1l"/>
        </Input>
        <Output NOutputs="4">
          <Output Type="Variable" Label="DeltaR_bb1" Expression="DeltaR_bb1"/>
          <Output Type="Variable" Label="M_bb_closest" Expression="M_bb_closest"/>
          <Output Type="Variable" Label="DeltaR_b1l" Expression="DeltaR_b1l"/>
          <Output Type="Variable" Label="DeltaR_j1l" Expression="DeltaR_j1l"/>
        </Output>
      </Selection>
      <Class ClassIndex="0">
        <Ranges>
          <Range Index="0" Min="3.2983815670013428e-01" Max="4.8955993652343750e+00"/>
          <Range Index="1" Min="1.3509715080261230e+01" Max="1.8837241210937500e+03"/>
          <Range Index="2" Min="3.5356962680816650e-01" Max="4.6891326904296875e+00"/>
          <Range Index="3" Min="3.0984494090080261e-01" Max="5.1665468215942383e+00"/>
        </Ranges>
      </Class>
      <Class ClassIndex="1">
        <Ranges>
          <Range Index="0" Min="2.6753985881805420e-01" Max="5.4357857704162598e+00"/>
          <Range Index="1" Min="1.1443788528442383e+01" Max="3.2054274902343750e+03"/>
          <Range Index="2" Min="3.7560096383094788e-01" Max="4.3864507675170898e+00"/>
          <Range Index="3" Min="3.3140322566032410e-01" Max="5.2105917930603027e+00"/>
        </Ranges>
      </Class>
      <Class ClassIndex="2">
        <Ranges>
          <Range Index="0" Min="2.6753985881805420e-01" Max="5.4357857704162598e+00"/>
          <Range Index="1" Min="1.1443788528442383e+01" Max="3.2054274902343750e+03"/>
          <Range Index="2" Min="3.5356962680816650e-01" Max="4.6891326904296875e+00"/>
          <Range Index="3" Min="3.0984494090080261e-01" Max="5.2105917930603027e+00"/>
        </Ranges>
      </Class>
    </Transform>
  </Transformations>
  <MVAPdfs/>
  <Weights>
    <Layout NLayers="3">
      <Layer Index="0" NNeurons="5">
        <Neuron NSynapses="14">
          -1.9865740258112502e-01 1.1629118264306872e+00 1.6036687300869950e+00 3.1025641295540640e-01 -3.9174763023722110e+00 -2.0145474250734456e+00 -4.0284351638882718e+00 5.9230314270527817e-01 -6.7717424566456130e-01 -1.6768216538329068e-02 -1.4757291618962973e-01 -7.3017084412985461e-02 -3.1416976486081172e+00 1.5144653498896768e-01 
        </Neuron>
        <Neuron NSynapses="14">
          -1.1143607156318656e+00 8.9205231107617333e-01 6.0299042821596804e-01 1.1079481923331596e+00 1.8554536044388459e+00 1.3221581650127039e+00 -4.8637203987821840e+00 -7.5229362715076620e-01 1.3105682409734742e+00 -3.6969994194216434e-02 -1.4844084209543973e+00 -4.7557598925069672e-01 1.4900061744242918e+00 -8.3947998900535670e-01 
        </Neuron>
        <Neuron NSynapses="14">
          -3.3793368566626975e-01 2.5245990292481552e-01 7.3630170689228880e-01 4.3747605545296941e-01 9.4475124130199428e-01 1.2803578098256915e-01 7.4260640071569561e-01 -6.4274634417767718e-01 -1.3384730424751456e-01 1.4182136748293023e-01 -1.1359289332581659e+00 5.8877993598542164e-02 1.8469570804274549e+00 1.6605474895533165e-04 
        </Neuron>
        <Neuron NSynapses="14">
          2.5110273368268043e-01 1.0702415783711692e+00 2.1026684252639716e-01 -6.4017584769388858e-01 6.9490841409225734e-01 -1.9131412302641213e-01 4.7249702855317538e-01 3.7034264470848934e+00 3.1822666828705037e-01 2.1671010061403090e-01 -1.1746960143934277e+00 3.7230314989250501e-01 -1.9440484599582306e-01 -1.5088894161302782e-01 
        </Neuron>
        <Neuron NSynapses="14">
          -1.1040238113938043e+00 -2.7948538505686069e+00 1.6777645029756942e+00 9.4058863188281239e-01 -8.6857965377734392e-01 5.4887983683737995e-01 -7.4632929095586062e+00 2.2657985338206235e+00 1.0798288954986957e+00 1.3477435817562944e-01 1.5232443736547217e+00 -2.2498253960870337e-01 4.7771034894348624e-01 -8.0490288239344099e-01 
        </Neuron>
      </Layer>
      <Layer Index="1" NNeurons="15">
        <Neuron NSynapses="1">
          1.9362030131547755e-03 
        </Neuron>
        <Neuron NSynapses="1">
          -9.6236179879525063e-01 
        </Neuron>
        <Neuron NSynapses="1">
          -4.9271022123965619e-01 
        </Neuron>
        <Neuron NSynapses="1">
          5.6114048411341141e-03 
        </Neuron>
        <Neuron NSynapses="1">
          1.3035265556802513e+00 
        </Neuron>
        <Neuron NSynapses="1">
          -5.3921881965238927e-01 
        </Neuron>
        <Neuron NSynapses="1">
          -1.4121387662777773e+00 
        </Neuron>
        <Neuron NSynapses="1">
          -3.3966345152613980e-01 
        </Neuron>
        <Neuron NSynapses="1">
          3.8634375353999169e-02 
        </Neuron>
        <Neuron NSynapses="1">
          6.5720057664191617e-02 
        </Neuron>
        <Neuron NSynapses="1">
          4.3119901927135235e-01 
        </Neuron>
        <Neuron NSynapses="1">
          -4.8718821950785385e-03 
        </Neuron>
        <Neuron NSynapses="1">
          3.8084956375946993e-01 
        </Neuron>
        <Neuron NSynapses="1">
          -1.5508395735501531e-02 
        </Neuron>
        <Neuron NSynapses="1">
          -7.5078868409588018e-01 
        </Neuron>
      </Layer>
      <Layer Index="2" NNeurons="1">
        <Neuron NSynapses="0"/>
      </Layer>
    </Layout>
    <InverseHessian NElements="7225" NRows="85" NCols="85">
      <Row Index="0">
        8.7163881146858027e+05 -7.3398750251022202e+03 -3.3638013500803186e+02 -9.7343577675683176e+04 1.7137969857942416e+01 -3.9993125169728643e+00 1.8976998108514977e+01 -2.9938762490728529e+01 1.4275504477758019e+04 9.9321352067344305e+03 -6.7170861189908658e+02 3.0282559389505841e+04 -3.5195598011498163e+01 3.5196846469407443e+04 -7.2146930782120486e+04 -1.9201594718086257e+04 1.3656398844740133e+02 4.0633163194517925e+04 -4.3469219625127192e+02 -2.5247546403252056e+02 4.2628246858024011e+02 6.8631444931586657e+01 -1.5059782646116626e+04 -2.3387461216377575e+04 -8.4951210749731399e+02 -2.0257703771379598e+04 -2.0721751885875165e+01 -1.1991763827752236e+04 2.5126632204800262e+04 -9.7811341743818266e+03 -1.7373272114707964e+02 2.3972938968733099e+04 -1.6465952992034801e+01 -1.1247514526764597e+02 5.5723370139118771e+00 5.1365587065971567e+00 -1.2244768306393637e+03 -1.7226210119639518e+03 2.4949191678974980e+03 -1.3933695884358895e+02 5.1273236769062592e+01 -2.6587252604222042e+04 -5.9611185389030303e+04 2.9759028134065011e+02 -3.6569177728244433e+01 -5.8168453638859450e+04 -2.8631173461373237e+01 -7.5156002959419709e+01 1.6451438204319353e+00 5.5234781472827905e+01 -2.1941716858530590e+03 -9.3110639245340608e+03 5.3271691759682581e+03 -8.3625841285513143e+03 -2.7596334846046915e+00 3.0904595691729661e+04 6.3389987824701297e+04 -6.3718538632655982e+03 -1.5794254957520297e+02 5.3301661955112213e+03 -4.1101024939451975e+02 -3.0101919810416200e+02 4.2386138805529595e+02 1.1721644922704286e+02 -1.1052572023628809e+04 -2.3765389103169015e+04 8.0036349752809756e+03 8.2882207144882304e+03 -2.6792425462756746e+01 1.4496256507840772e+04 -2.8641757869187762e+02 6.9155448123827136e+03 -3.6941056915798856e+02 -1.2198819801512836e+03 1.7188540309040155e+02 1.9051700009223737e+01 -1.6885201527715242e+02 -2.4045979284736774e+00 8.4549998953512909e+02 2.0170512047051725e+03 1.2830225043318371e+04 -3.0720733069592461e+02 -1.8774302227539010e+01 -2.0729866952962202e+03 -5.4978310898207601e+03 
      </Row>
      <Row Index="1">
        -7.3398746872470965e+03 1.4422555369114372e+04 2.7680602700941101e+01 -4.7401487124143514e+03 1.3136077018461762e+01 -6.1639698128255219e+01 7.1243736793693984e+00 -8.3667671221283557e-01 2.7513791615958627e+02 -6.0890353457425181e+02 -1.5351571035403758e+03 -9.5876780182904004e+03 3.2096833490757164e+00 -9.2614072812557897e+03 4.9895522737252622e+03 -7.2197098775181239e+03 1.9738500639396481e+01 8.7809462057702658e+03 6.1147600917812319e+01 -3.1080785303334540e+01 -5.9950778381632091e+01 4.3406317355022196e+01 -1.0989640021701198e+03 -4.4638440424319415e+03 1.3264126240495193e+03 -2.2426772938365102e+03 1.9141080703515740e+01 -5.1006220958343590e+01 -2.5794347307290832e+03 -2.5096669884862240e+03 1.0530804906098453e+01 -1.6919658653232511e+03 3.1373611793193472e+00 -4.2999334441259336e+00 -2.5089228847528040e+00 -3.6906914534115836e+00 -3.9819794612556058e+02 2.9166107666205680e+03 6.1381721093183323e+03 1.4297268268108222e+04 2.6079988516713137e+00 -6.4384152991350038e+02 -6.8022426962071750e+03 2.2320960414152123e+03 1.4824654847678642e+00 1.2685836033909958e+04 1.0062374375196832e+00 -3.9911474588527028e+01 -6.6090015784607310e+00 3.8403217202284765e+01 -2.0761544139911562e+03 -4.8665456720348275e+03 1.2869309486783582e+03 -1.4097001575071963e+04 4.4316959869805039e+00 -1.8234253437439376e+04 -3.2595346487533316e+03 -1.3402924514675087e+04 3.4921547608026628e+01 1.1954150986112876e+04 6.6708244674647489e+01 -7.3427446612889526e+01 -5.6428139130660654e+01 6.0922976188775095e+01 -2.3072162620931163e+03 -7.0145713508511526e+03 1.4204757427891989e+03 -6.4178333698275410e+03 2.3342673638561973e+01 -1.3858368917073789e+04 3.9805281335699027e+02 1.3787581963917986e+04 2.7134368968790991e+01 2.5711181059020601e+02 -1.6290603238148581e+01 3.7761015313328258e+01 1.8736323810251211e+01 6.4904325944634964e+00 4.9609206507450459e+01 -7.6826798060441342e+02 5.6462052503080622e+03 2.9028564658558702e+02 5.0098860472672824e-01 -4.7119514854398909e+02 8.2214325438024116e+03 
      </Row>
      <Row Index="2">
        -3.3638013364771888e+02 2.7680606151348911e+01 5.2127045973967379e+00 -1.1814997372238039e+02 -4.3776185738879292e-01 -1.4569447235656920e+00 -2.7929822993157383e-01 4.9285915149616250e-02 -4.4749994178464640e+01 -5.2738080433895959e+01 3.0572644213389140e+00 -1.6538852678650122e+02 -3.2485572000550522e-01 -8.6358209211566873e+01 2.4650638573555591e+02 5.6021843278298462e+00 -3.0300268970233130e-01 8.0704508665246010e+01 -2.1047176819106581e+00 3.3402832763985884e+00 1.6059102913864982e+00 -3.3414390455696497e-01 4.5163157458928936e+01 -8.4652984931795913e+01 -6.9189958284594269e+01 3.5943035271581991e+01 6.4606734145982925e-01 3.8036290226194538e+01 1.7033982543075231e+02 3.2076035657914836e-01 2.0888150406339889e+00 -4.1599598170361212e+01 -4.6712396654256472e-02 3.3561194171905362e-01 1.4511433079979125e-01 7.4777264454418665e-02 -2.8134767496159935e+01 5.7579418085894403e+01 -4.4744796667109576e+01 2.5991368996173668e+02 -3.2516434681726031e-01 -1.5031123560496366e+02 -5.1964666180001785e+01 3.3579505303736227e+01 8.5282704378307084e-01 1.6420263869246878e+02 -5.8080442507454699e-02 -3.5250598990632565e-01 1.0667549622324744e-01 -9.0134725127675730e-03 -3.2748623190692632e+00 7.9488631052420828e+01 -4.1729522138510639e+01 -1.4841795241399663e+02 -2.2594793730018253e-02 -1.3983491871744110e+02 -2.8993517932761955e+02 -5.1308950933465354e+01 3.0221579914132231e+00 1.7426559361549778e+02 -2.3134189080076260e+00 2.1933171310982456e+00 1.4291740942132596e+00 -2.3128482378427132e-01 -7.7431878333259334e+00 -1.8185334064312713e+00 -1.1267650206344764e+02 -1.5327925637660181e+02 3.6085799145334591e-01 -2.6037336280972045e+02 1.2169419044662725e+01 -3.3493603126259357e+00 3.6816839693480747e+00 4.9991053390704456e+00 6.9840152021630275e-01 8.2136429061552940e-01 -6.0057338890231271e-01 -2.6448622579634637e-02 -5.8611008321479341e+00 -2.7964888034268792e+01 -9.6957599782826946e+01 -9.0414701452359942e+00 8.5712734450882455e-02 -1.4377109975030624e+01 8.9835960605229104e+01 
      </Row>
      <Row Index="3">
        -9.7343577783404384e+04 -4.7401485750521533e+03 -1.1814997210818035e+02 1.1441859533694574e+05 1.1293040540268915e+01 -6.4977206458737953e+01 7.6562499412391674e+00 1.0990275953305764e+01 -1.0348157403169907e+04 -1.0553563534919276e+03 -1.4785281776706688e+02 6.0246990009279369e+04 -3.3616973227449613e+01 2.1146678545908799e+04 1.6430303990449516e+04 1.5108406605684672e+03 6.2091291610709845e+01 -1.3414106260300494e+04 -1.2426061429792914e+02 -3.5863284891153391e+01 9.8061205968018228e+01 -3.5112894422808267e+01 2.7558591648200963e+03 -4.7721676350595335e+04 -4.0781451064834982e+02 -1.5105697493349799e+03 -2.6360856873870148e+01 -2.4238132780350326e+04 2.4447470468042564e+04 -9.7661279377054552e+02 3.2435475038330026e+01 8.2672374407091964e+04 -1.5119510790232606e+01 -5.0714418374509442e+01 -4.6884063631246136e+00 2.3611061664564943e+00 -7.1650151757310377e+03 -8.5314733915306497e+03 -1.6367453797044927e+03 -6.3155401047976629e+04 4.8095459290711162e+01 -1.4066198882421359e+04 -3.4758494526234681e+04 -3.1891661500230184e+03 -5.7401234080734810e+01 -9.5752742698381815e+04 -5.7674724762712515e-02 3.5820538812242461e+01 9.0060588246167477e+00 -1.4214257032722031e+01 1.1629496132650307e+04 2.6136912623710472e+04 -2.5630257294412918e+03 2.7275230961496265e+04 5.9637026982925789e-01 3.7953562831525218e+04 -1.5550887758501820e+04 6.2053643689274759e+03 -1.5692919450537488e+01 2.0822958595343516e+03 -1.1197063031748033e+02 -3.6944030305780871e+00 1.0430501268068912e+02 -3.8752233915770468e+01 4.3979085691431128e+03 -2.9973034289016356e+04 8.6453651603559683e+02 4.6689392220053314e+03 -2.8955601200877453e+01 1.2961865263493744e+04 -2.0301140904773290e+03 -2.5274880142191732e+03 -4.9638506902425469e+01 -3.0238711216943971e+03 5.0575230106886536e+01 9.7532461993289132e+01 -4.4540029754231398e+01 -1.0578159464651375e+00 -1.6891458947195179e+03 5.3336480268327323e+03 -1.6594756583884453e+03 -8.6766839317236518e+03 -2.1217548593739409e+01 -2.3752105286103447e+03 -9.4758401050174223e+02 
      </Row>
      <Row Index="4">
        1.7137970087026105e+01 1.3136076764196332e+01 -4.3776186055614275e-01 1.1293040551384548e+01 1.9333105117629155e+00 1.5163782145254201e-01 1.0021596329216556e+00 2.7854374197036957e-02 -3.6014219004684964e+00 -1.4674527203976172e+01 6.9969054948883240e+00 -6.0981779436388827e+01 1.3439775190136280e-01 -4.6320498180994477e+01 -1.4066951412548732e+01 -1.8622117391195658e+01 -1.8811451323908240e-01 3.4935707114913370e+01 6.0900284208993782e-01 -1.0840205747491098e+00 -3.1980599518599200e+00 -6.4102215039038124e-02 -4.3602062120979781e+00 -3.7118966710504750e+00 -6.3795995027188468e-01 -3.8257916495611767e+01 -8.8029970039989158e-01 -3.6203231936445555e+01 -3.5304601274768146e+01 1.0243838352426788e+00 -3.0334836694724121e-01 9.2596896609073873e+00 -2.5707288749932672e-01 -1.1817707700269500e-01 -2.5719149148332310e-01 -3.3865041807251695e-03 -8.8582067017053734e-01 1.0964279568013609e+01 9.5717484073598911e+00 4.0658388183059714e+01 -4.5380719406490381e-03 2.1039059126901137e+01 -9.4440935040649805e+00 1.6297303543532391e+00 5.4903967468793988e-02 -4.0039184536943516e+01 -1.7720659315383591e-01 -1.4742735768502008e-01 -2.3067814785415158e-01 3.8196980934515588e-02 2.9838203418893721e+00 -9.7922858728182689e+00 6.0505104253875217e+00 -7.8613539619835251e+00 -2.6208091449362214e-01 -2.7932941080163197e+01 5.5899632980394109e+01 -1.3392768489193202e+01 -2.6419747067288196e-01 3.1200613382882643e+00 1.8532663895030623e+00 -1.2706474438854749e+00 -2.4664964251347805e+00 -2.0755768722331119e-02 5.9727270669885035e+00 1.0603653653385653e+01 8.8370241298312973e+00 4.5333116783663172e+01 -8.6626929872375846e-01 4.5916318247769553e+01 -1.2052886045997568e+00 1.4153646571791814e+01 -5.0216531944218501e-01 -8.3991224690756239e-01 -5.3621459682516992e-01 -1.9632224340097348e-01 8.2733315526646201e-01 8.8893625410077209e-03 -1.0217241258014691e+00 -2.1796924332590244e+00 1.5073021850650671e+01 1.8400969885596530e+00 -2.9001959854764725e-02 -1.0322078804139483e+00 -4.6568185087056829e-01 
      </Row>
      <Row Index="5">
        -3.9993142740304677e+00 -6.1639699796243804e+01 -1.4569447130896067e+00 -6.4977205560973829e+01 1.5163781901396425e-01 6.5371885792633719e+00 -8.2408805330803844e-02 1.1343085783877882e-01 1.9680949292180241e+01 6.7986765109259025e+01 4.4670780032029143e+00 2.8873760183159249e+01 3.4509605827092937e-01 1.2288972375650380e+02 -1.0200111814578824e+02 9.2096351340114964e+01 -2.1946345751381182e+00 -3.8438653109627026e+01 2.4321927368972811e+00 -6.5612679860562420e+00 -8.7663124554118910e-01 1.0357473454327586e+00 -9.6033598939989261e+01 7.9973429549246504e+01 8.0546396748770789e+01 4.8607286276598757e+01 2.7044446031144487e-01 -1.0018181869742523e+02 -1.0369780727267698e+02 2.3688994613918773e+01 -1.6781356675494097e+00 -1.5938910250986578e+02 -7.8002488476284756e-02 -1.4633295425689263e+00 -8.9686761078596078e-02 -1.0509425862027466e-01 3.4474525304049436e+01 -2.4485485623366802e+01 4.1742959617209884e+01 -1.3192300958768652e+02 -2.4518113175236067e-01 9.9453495254936342e+01 -8.2902974016017779e+01 1.8124970167129494e+01 5.4375768499609144e-02 1.6177519955598325e+02 -3.7886543048124340e-02 6.7149946203919875e-01 -4.8480130649320281e-02 8.0229669571075746e-01 -3.9744861946386948e+01 -1.3802949729328213e+02 4.8636026108547149e+01 -2.3938207978273368e+01 -2.4184149609049777e-01 3.3745877851503309e+01 7.6651371207136279e+01 7.6870832228059214e+01 -3.4659862450632013e+00 -1.2589081839242087e+02 2.3900186779503247e+00 -4.8105212003756987e+00 -9.8927628103249621e-01 1.4810894429744144e+00 -7.8827287151901146e+01 -6.9313985145649838e+01 2.3604534578585621e+01 -3.2123634738570161e+01 4.9030040552103825e-02 -2.4635238681821505e+01 -2.7396193464626456e-01 -3.6014877571958237e+01 -2.2520326607780037e+00 3.9399371161768428e+00 -4.7587299336040983e-01 -4.6518842598081900e+00 5.2722461143630250e-01 1.4433442538217262e-01 8.5362161404476069e+00 6.9474780326237839e+00 9.9145358962515857e+00 2.4520963161704000e+01 4.7549940645557828e-02 3.7195907118866143e+00 -4.1498808467989754e+01 
      </Row>
      <Row Index="6">
        1.8976998232983618e+01 7.1243732169696159e+00 -2.7929823296774692e-01 7.6562500401094304e+00 1.0021596327217772e+00 -8.2408802557715391e-02 9.1232692901547041e-01 1.9226490298702714e-02 2.0510967559549567e+00 -1.1699716890743161e+01 -1.0104299240065302e+00 -6.0881665068210822e+01 2.2777986434372294e-01 -4.9100627257605950e+01 -4.4617755647780655e-01 -6.3073286267006878e+00 -6.6681656010991845e-03 2.2344209932527042e+00 -1.0821861824172432e+00 -7.0443746600183865e-01 5.7578677074327206e-02 -5.8924689954684001e-03 -1.2409900507828297e+01 1.1943991077725762e+01 1.0583771381340185e+01 -2.8160711411907450e+01 -6.9059575731256873e-01 -5.5650624160702407e+01 -4.7448604267654375e+01 -1.1903316702294195e+00 -2.9868256879319155e-01 -7.4681164327443534e+00 -9.8305977087816548e-02 7.0371414232809293e-02 -9.6790153111868449e-02 -3.3026812195143140e-02 2.7513992858037106e+00 -2.7078630087339679e+00 1.2300460329690452e+01 2.0504337440306706e+01 -1.5619469305682188e-01 1.9945881150120890e+01 -1.1429519339408873e+01 9.0638075293936360e-01 -1.0484681524588003e-01 -5.1595207418845419e+00 -9.7577787661268678e-02 2.7116442001685698e-02 -9.3764797826537266e-02 6.8301172601996279e-02 4.8011783526640670e+00 -2.4233853338788109e+01 8.2303483386734122e+00 -5.4942159326757370e+01 -3.5110855207218149e-02 2.5702002595462083e+01 2.3248683612372943e+01 -6.1626360392163662e+00 -2.0051957107265550e-01 -5.3749024737123801e+00 -3.6546680821020994e-01 -6.4236304532476463e-01 6.5803696954635882e-01 3.7439495371429335e-02 -1.0939788717588810e+00 -1.1446579137391950e+00 1.4082941760195730e+01 2.1834644852720061e+01 -5.9798181611607093e-01 2.5561528496646012e+01 1.0407241901202809e-01 1.1248584648225538e+01 -3.9311768660009555e-01 2.3438115814728255e-01 1.9898628252150696e-01 -1.3884326423448123e-01 -2.1666222033122218e-01 1.7392032243014645e-02 1.0538671413626366e-01 3.8835194977619572e+00 1.6086660763628036e+01 2.4528891283138772e+00 5.5709033827300414e-02 5.0240485671390311e-01 -3.9078408204010371e+00 
      </Row>
      <Row Index="7">
        -2.9938762508881695e+01 -8.3667659895945690e-01 4.9285915823366014e-02 1.0990275912409189e+01 2.7854374248524300e-02 1.1343085709836562e-01 1.9226490318465767e-02 3.1969615036207699e-01 -1.7528467249332804e+00 -1.0567248587787741e+01 -1.7402114244405311e+00 -3.0101961360261765e+01 -3.3748971245955828e-02 -2.4859941879371753e+01 -6.7661412041338963e+01 8.1561812931591167e+00 -2.0312481722480824e-01 2.7158432082048130e+01 -4.0719598842046961e-01 5.3699266510640414e-02 3.6932743570132304e-01 -5.1666810038125477e-01 -1.2644445542922398e+00 9.9992199950026155e+00 1.9279295957585221e+00 -3.6499683375946601e-01 1.9441241654836544e-02 -5.0709588688251316e+01 -5.2155100071715424e+01 2.3517519455204750e+00 -3.9853371524247908e-02 1.6886936144602696e+01 -1.3514934171831200e-02 -2.2210473772087153e-02 9.7859450528083869e-03 1.2224575868257249e-02 -6.3945732007777212e-01 -1.5343909460406726e+00 -1.4481387076776193e+00 2.1844464245817282e+01 -1.0634392669974346e-02 -1.3113585798134739e+01 -6.1086257188103239e+01 1.3574632704758152e+00 -8.2436111895104781e-03 2.6027155679112795e+01 -1.3655656187001326e-02 3.8030789310764437e-02 1.6705358926013002e-02 2.4728234258268333e-01 4.5574780584627703e+00 2.7976734632239051e+00 -2.6508739656731617e-01 5.9491850993565167e+00 9.0394767019243757e-03 3.0474618969202211e+01 9.1160648449163034e+01 4.0030563425640899e+00 -1.8139952234304535e-01 -1.0283167873371220e+00 -3.6889494034331033e-01 3.9749446253802390e-02 3.7537783047097706e-01 -1.6434036778876124e-01 1.8933443194421136e+00 4.8268955614508116e+00 -4.6330066401869630e+00 -1.1782243258677383e-01 1.0289190301167397e-02 6.0403564971498653e+00 9.0274602104920354e-01 -3.5863735475885017e+00 -3.5688655450887445e-02 2.7355294010733422e-01 1.5353717262081334e-01 -1.2172000448169933e-01 -1.4235135006121297e-01 5.0742891708385938e-02 -1.8515834598064185e-01 1.8881487803696970e+00 -6.0176335850366938e+00 -6.9233981533072542e-01 2.1515337973211628e-03 8.3051689864150147e-01 3.0991218711368718e+00 
      </Row>
      <Row Index="8">
        1.4275504367645115e+04 2.7513786978647113e+02 -4.4749993674445733e+01 -1.0348157478830024e+04 -3.6014220026463284e+00 1.9680949158951755e+01 2.0510966867415332e+00 -1.7528466782205214e+00 6.3936712645832275e+04 1.1354121064563542e+04 -1.2691087224148214e+02 4.3970506304977980e+03 2.0094380966226797e+01 -1.0963088025438774e+05 3.5321415425254736e+02 4.3922297244254116e+02 -1.5646394490372575e+02 -8.7438611566507552e+03 -4.3332978827790484e+01 -6.4074891350342014e+01 4.0510435929310013e+01 4.0450152810356172e+00 -7.7430545214423342e+04 1.3898794451981914e+04 -2.6641888151992880e+03 -4.8601340872828287e+03 8.0230093505498790e-01 5.8313119277804217e+03 -1.9604562798699339e+04 -1.3631560812338369e+03 -5.0452626547040488e+01 -2.6762295434478174e+03 1.1345327709813942e+01 2.2706264614972145e+01 5.7536524031929730e+00 -4.2616967422328038e+00 1.5583268536430252e+04 1.2383239024296313e+03 -1.4593433021869253e+03 -2.0430685583128758e+04 -2.0588334219202807e+01 -3.1044210159711431e+04 5.6784254517689515e+03 1.1833964881402294e+03 -6.6754723744892130e+00 -1.0870446605615331e+04 -7.3140618026334137e+00 -5.3823985908406115e+01 -3.5160344580290008e+00 1.4140353461847759e+01 -2.1948758583624087e+04 -4.3446144317578219e+03 -1.2496215346064419e+03 -7.7879848859715858e+03 2.6592762285487082e+00 2.4833129905556380e+04 -6.7379917078201925e+02 -1.9379746193261017e+03 -1.9242695312386599e+02 -1.8325123152013075e+04 -4.4638104114320541e+01 -8.6163418042291994e+01 3.8786331032283300e+01 8.6698640568875120e+00 -5.3896980901720803e+04 1.8526332360416054e+04 -7.8788159081576150e+03 8.7354967904666446e+03 1.0552391561055625e+01 -3.3629434658020567e+04 -6.9840861925142531e+02 -4.1667074926688133e+02 -9.9300597888743880e+01 -2.0844779228246989e+02 1.4706512341067798e+01 -1.6150447113391493e+01 -1.7578492002561038e+01 4.3152916857956995e+00 9.8179511581991992e+03 -4.9786428187983256e+02 -6.0320518716271927e+03 1.2288140537607133e+03 1.1734835374953775e+01 1.2760321943291412e+04 5.5439115170366576e+03 
      </Row>
      <Row Index="9">
        9.9321351256192138e+03 -6.0890343377739191e+02 -5.2738079346441452e+01 -1.0553564058913321e+03 -1.4674527214939976e+01 6.7986764359977272e+01 -1.1699716932236456e+01 -1.0567248556873892e+01 1.1354121068849045e+04 2.3929246723219556e+04 1.1459454479059204e+03 6.2454244261075568e+04 4.1147633821219671e+01 3.0734461210156682e+04 3.9456220994132309e+02 1.1209350867718188e+03 -2.8248426531760543e+01 -2.1988799823770455e+02 2.4415027639881214e+02 -1.8199831760197239e+02 -1.4638599032948062e+02 9.7891306894697266e+01 -2.2825752643476088e+04 -1.3198964856900602e+04 1.1800053384886055e+03 -2.5811452380607319e+04 -5.5781375739238683e+00 -1.3710151681236981e+04 -1.8378108628405709e+04 -1.3640698373773816e+03 -2.0830699937595469e+01 -8.9641327971320297e+03 6.6473010289070356e+00 -1.9015274413237069e+01 -6.7760990759597917e+00 -5.8828659071877176e-01 4.0952240500421658e+03 2.8202413213711361e+03 2.4027311286400295e+03 4.2150181417348767e+03 -2.7963468155263399e+01 5.7033337685842926e+03 -4.2779960578799710e+03 -2.4450993962187306e+02 1.7140874943112578e+01 4.3171170493868131e+03 5.2475555605278927e+00 3.5767425463519089e+00 -8.4716199665195688e+00 2.5188645361356649e+01 -4.7608630267703275e+03 -1.1379890147202706e+04 8.7336579716717824e+02 2.7030688500442648e+03 8.1552663166777819e+00 6.5761645545816873e+03 5.7730270922431519e+03 -1.0298320809278266e+03 -5.7950342386159491e+01 -4.6292465116404073e+03 2.2322302162745106e+02 -1.5850782334533289e+02 -1.5438919681707230e+02 9.9319379958961193e+01 -1.7817921396554284e+04 -1.1066474100100622e+04 -9.4334770426356972e+03 7.5608505338737468e+03 8.1610458507221537e+00 -6.9037319565523740e+03 -1.5051204988168479e+02 -2.6042476998160287e+03 -7.6273324160301470e+01 2.1826020280788828e+02 -7.4711838724240266e+01 -7.1852134827107875e+01 6.9606276605219634e+01 3.8183426873143329e+00 1.7518426964668579e+03 -1.1996248371387264e+03 -6.3881571544729259e+03 2.5310616708361476e+03 1.1913555292731253e+01 1.1508437317631754e+02 3.7703092942667663e+03 
      </Row>
      <Row Index="10">
        -6.7170865277539565e+02 -1.5351571284807287e+03 3.0572647387792564e+00 -1.4785279524002812e+02 6.9969054440295917e+00 4.4670779428537655e+00 -1.0104299876457583e+00 -1.7402114078186059e+00 -1.2691086630327038e+02 1.1459454668721110e+03 2.2850730024778750e+03 -2.3031179232630548e+03 -1.2129663870637723e+01 3.7501047791711540e+03 -4.2202075724310453e+02 1.2233305094921898e+03 3.7660100531744789e+01 1.6953725047705495e+02 -4.2417408068065072e+01 1.4510271714794960e+01 6.5140321166156980e+01 9.4438007382780569e+00 -1.1167754009509765e+03 -1.8407122944286934e+03 1.9093215699798506e+02 1.6404306743964585e+03 2.7242646356572067e+00 -2.6279417870891621e+03 9.1103905533690249e+02 1.7359087752201399e+03 2.4916918271370491e+01 9.7421581215251808e+02 -9.5344248137565035e+00 8.6941430520908600e+00 -1.5276006916792539e+00 -6.9757340683652247e-01 -2.3294233121890275e+02 -3.0294972471675067e+02 2.9298735966386926e+02 1.6023258795576180e+03 4.7924315430609568e+00 2.7359298599035083e+03 -4.2882129387244663e+02 3.6618525969714392e+02 1.0286658821199527e+01 -3.5182093698522874e+02 -8.8382821507459948e+00 -6.1733100853313756e+00 -1.1389561451074712e+00 9.6794230258819791e+00 -9.2451813249283845e+01 -1.8086426389898870e+03 6.4013941820338368e+02 -4.4361486373310800e+02 -6.3272248889889635e+00 1.5930196505407384e+03 2.7712400032330834e+02 2.8786053328722510e+03 5.5355453436358189e+01 -3.9236392731912292e+02 -4.1358674758802152e+01 1.5761136130503324e+01 5.9682462091042581e+01 1.4205279886578214e+01 -1.0072090015985763e+03 -3.9839285134882816e+03 5.2246625720550696e+02 -2.6211514730497024e+03 -3.8729626730801332e+00 2.7755603816639527e+03 1.9668835899592609e+00 -9.3754206800743225e+02 2.6232161765332101e+01 -1.2923280741938562e+01 2.8694688861948993e+01 1.6008835696901187e+01 -2.1656464201139833e+01 1.3107556555699893e+00 -3.1503267990702511e+01 5.2526645298521726e+02 2.1885225413671816e+02 -1.5857037548042641e+00 -3.2396620560652893e+00 -2.3961909501778078e+02 -1.0450721224403064e+03 
      </Row>
      <Row Index="11">
        3.0282559033980186e+04 -9.5876780440956354e+03 -1.6538852335146885e+02 6.0246990112909865e+04 -6.0981779790191766e+01 2.8873759238263389e+01 -6.0881665547372492e+01 -3.0101961212880269e+01 4.3970508505432808e+03 6.2454244468341465e+04 -2.3031179429590702e+03 5.9392435237711831e+05 6.3462337608820221e+01 5.2193397210597308e+04 2.6993160292885150e+03 -4.0508155061017424e+03 3.6826727702741249e+02 -6.9319950066978869e+04 4.2505518636000210e+02 -3.4503140458055685e+02 -3.3134960954440305e+02 -8.0080295097616727e+01 -2.9671654145821572e+04 -9.5231778121037743e+04 2.2672862379374019e+03 -7.1648810345603240e+04 -3.2862608382314136e+01 -9.5009520495082379e+03 -4.0491827613916772e+04 -6.4997778236757640e+03 -1.7879864303654408e+01 -2.3249279478969984e+04 3.1987805881136183e+01 -1.4858875263178140e+02 4.0995798941476096e+00 4.6662364210438426e+01 -5.5932587485156428e+03 2.0017560754146334e+03 -2.0333577155402691e+03 1.3064749043873374e+05 3.1356174186134012e+01 -4.4671664243464773e+04 -4.3808750990770641e+03 -4.3207859971655998e+03 -5.6652693645998497e+01 1.3414100878318292e+04 3.7671215340356582e+01 8.3810385796987362e+01 -8.4981534967704420e+00 -6.8564350197971635e+01 7.2489109216193265e+02 2.0915728952377467e+03 2.5332146636210382e+00 -8.6446115468844291e+04 2.4799559553216895e+01 1.3657322492789906e+04 1.1770063601116555e+04 2.5226886702505653e+03 1.5461963905944651e+02 -4.0134775436237003e+04 3.8278835547100101e+02 -2.6552908733937124e+02 -3.6026289619626158e+02 -1.1108881559997178e+02 -2.9967531565260484e+04 -6.7874497019625720e+04 1.1543185454476275e+03 5.5519544558389447e+04 3.8078925128279160e+00 -3.1743033926585493e+04 7.6272419321756718e+02 -4.6045346200176364e+03 -1.6902643500379986e+02 1.2284272694722258e+03 -1.8285207573002904e+02 -4.4004712972402785e+01 1.6399148779462274e+02 -2.5204692545842818e+01 7.8075463469486840e+02 2.2832684522384443e+03 2.0683500822044152e+01 -3.4757425741182051e+03 -8.6925344138829317e+00 -5.2228840577667816e+03 -5.1711652378676181e+03 
      </Row>
      <Row Index="12">
        -3.5195597904964650e+01 3.2096830727878114e+00 -3.2485572217507053e-01 -3.3616973238279165e+01 1.3439775181056413e-01 3.4509606006092969e-01 2.2777986442546941e-01 -3.3748971250135540e-02 2.0094380948613150e+01 4.1147633808585596e+01 -1.2129663830093705e+01 6.3462337778905280e+01 2.8841295418728139e+00 3.8118946696552577e+01 1.6947952052164474e+00 -1.5940224543001515e+00 -1.0373962611178944e-01 -2.2044585155369120e+01 2.5339483223197798e+00 -1.5690877716025655e+00 -2.3754362841626606e+00 -3.5822031627723316e-01 -2.5335541742944571e+01 7.1023710323010661e+01 1.7510984093331523e+01 8.0367687965448127e+00 -1.2358611902382646e+00 -4.3804134949305372e+01 6.0766276259883867e+00 -1.0968403947429239e+01 -7.4458491506129454e-01 -1.4374755960571605e+02 7.9784635949332564e-02 1.5735196912834364e+00 -9.5040903461605097e-02 1.0007934869205511e-01 2.9616536277243267e+01 -2.3774274467025919e+01 1.8914695692453630e+01 -9.8177447076683450e+01 -2.1777773280339332e+00 7.9093582848488239e+01 -1.5629610218949175e+00 1.7986497478632373e+00 -1.8813802337312058e-01 -3.7620272869862221e+00 2.6358697036031831e-01 2.4597122277689626e-01 -5.6256657550852018e-02 6.0615455515988237e-02 1.4640809506351182e+01 -8.9919808528623818e+01 1.0617736219880499e+01 -3.3817598430630753e+01 9.3022622009488146e-02 1.2455529350340521e+02 -3.0237376884793214e+01 -1.3857683313925239e+01 -2.7259661556905368e-01 -5.9045394712734208e+01 2.6093599521454847e+00 -1.0246228795642955e+00 -2.1365172369291039e+00 -2.5716575961339366e-01 -2.0461244623626951e+00 2.9406029754101422e+01 -6.5755558225365442e+00 3.7421404110519845e+00 -4.5666741801617455e-01 -5.1416558495696627e+00 9.6847223153668160e-01 7.9107655994794959e+00 -5.3612004968776517e-01 2.3464659355529012e+00 -1.1203722054514929e+00 -1.1056094067399269e+00 9.0076015279376198e-01 -1.4079093829774569e-02 2.2751813971187178e+00 5.7253974880489338e+00 3.5169362522347405e+00 1.7633119951238371e+01 7.9958786684835514e-01 1.6528747236129643e-01 2.8403275605107283e+00 
      </Row>
      <Row Index="13">
        3.5196846546092114e+04 -9.2614066423401237e+03 -8.6358207057076811e+01 2.1146678416146890e+04 -4.6320497725040596e+01 1.2288972081927903e+02 -4.9100627014818436e+01 -2.4859941943559534e+01 -1.0963088039128600e+05 3.0734461094026410e+04 3.7501047095730901e+03 5.2193396759939969e+04 3.8118946829456704e+01 4.9638056680396618e+05 1.6020761964779267e+04 7.8885561831338928e+03 2.0535897048582240e+02 -1.1873757085759793e+04 4.7918129744664031e+02 -2.5388032131883227e+02 -2.0667208689923180e+02 1.4572089970088803e+02 1.1740030012322898e+05 -4.7765568628399225e+04 -2.4572534060737444e+03 -1.5815505292756083e+04 6.9477767895496072e+00 -1.5519400961488939e+05 -5.8078820457502574e+04 2.2552716912236065e+01 6.4846768764917172e+01 3.1867037050068939e+04 -4.9986618952421473e+00 -1.8269245823782562e+01 -1.5683038854604092e+01 -2.8000984379744409e+00 -2.5319871925368956e+04 1.9881204201267624e+03 -1.6828820202940706e+03 -3.5052048516239294e+04 -2.3238069013379572e+01 1.4023073293337575e+05 3.6577494770561570e+04 -4.9251251863371581e+03 1.0290763577779457e+02 -7.6707980827647261e+04 1.2848754247288525e+01 7.2855610313777390e+00 -6.5950387138406086e+00 -3.4619121378046522e+01 3.6555727035449658e+04 6.1777722180906567e+03 -3.3950242986110970e+03 1.2374780050921312e+04 7.3059849204666047e+00 -1.2342951760952757e+05 1.7901366138749290e+02 1.2209174610959693e+04 2.1913950017149932e+02 -3.3494876291684392e+04 4.2300509099939381e+02 -1.9273741516841164e+02 -2.4157788933556441e+02 9.9519173590931388e+01 7.5575865897236610e+04 -2.6849679064104130e+04 -1.9162140898228528e+04 1.8821388916473887e+04 1.8194672440576134e+01 -1.5454266608862141e+04 -4.1888404447386201e+03 -1.0446978880957442e+04 1.3381665090837817e+01 -2.2819661356365596e+03 -1.2601858243285841e+02 -6.4056712944257015e+01 1.2760131664307573e+02 -6.1716975944350452e+00 -1.8875664354976616e+04 -8.8214972854519146e+01 -1.7903863715486132e+04 -2.2529015348448343e+03 6.3164747293908476e+00 -2.1170958903300358e+04 6.7916298539056024e+03 
      </Row>
      <Row Index="14">
        -7.2146930669325637e+04 4.9895517893806100e+03 2.4650638266624605e+02 1.6430304124646256e+04 -1.4066951607285606e+01 -1.0200111536877436e+02 -4.4617757580957118e-01 -6.7661412056389963e+01 3.5321420081397810e+02 3.9456224757548807e+02 -4.2202069063112140e+02 2.6993165503431228e+03 1.6947950918294348e+00 1.6020761749510082e+04 7.8137039923274412e+05 -6.0727264825855382e+03 -8.4744337853976106e+01 -9.1411625059501355e+04 -3.4536198789718708e+02 1.4907783266050346e+01 3.3014887945746239e+02 1.5336247345659802e+02 7.7034248915947101e+03 3.4346439040890793e+04 4.4064356271517827e+03 -2.7961122314885652e+03 -3.0930926667376070e+01 4.4641001078727350e+04 -6.9381955980846542e+04 -1.9901378414425999e+03 6.4823128497009819e+01 2.2490384130565144e+04 -8.5212276489673258e+00 -6.8501868443945568e+00 1.0634264059626730e-01 3.2311181141310399e+01 8.5268603707252987e+02 -4.3158093870483790e+03 4.7653508336003533e+03 -3.5433137196640491e+04 -5.3518727304544882e+00 3.4643787963263327e+04 -1.1369178432927199e+05 4.0016224576043896e+03 2.8167628463640664e+01 -6.7653774529137270e+04 -1.0274169628918415e+01 -8.0167226539783201e+00 7.1245489461405782e+00 -1.1230143526447523e+02 1.5369830528288712e+03 -2.4716304523682447e+04 6.3010267436243594e+03 -2.7315704936167080e+04 6.6232387445561685e+00 -2.5909456911437766e+04 2.0079715829713648e+05 -6.4452919948216368e+03 1.5471942240925728e+01 -4.1480496318804391e+04 -3.4421982327815311e+02 -2.9285299863120940e+01 3.1876072664965636e+02 6.1235474649176197e+01 3.9845243563066560e+03 1.7578087602695974e+04 1.6894152389587958e+04 7.7589451012965637e+03 -2.6142560579345421e+01 1.6774727961816192e+04 -1.7347474927200819e+03 1.1139528429380238e+04 1.5159546689028193e+02 -1.5672127411567724e+03 1.2159183217460415e+02 3.4627539648784023e+01 -1.3104519417060550e+02 -3.4447063485805302e+01 -3.1049700614283302e+02 3.2585642825336545e+03 1.8103171073916437e+04 2.1585064833680090e+03 4.2791286786862202e+00 1.9910822830359702e+03 -6.7970381567095174e+03 
      </Row>
      <Row Index="15">
        -1.9201594661877578e+04 -7.2197098195310682e+03 5.6021839328848131e+00 1.5108406090043100e+03 -1.8622117305891791e+01 9.2096351341415527e+01 -6.3073285199614304e+00 8.1561812707259378e+00 4.3922296531078621e+02 1.1209350527013487e+03 1.2233305063657463e+03 -4.0508155804671251e+03 -1.5940223764842116e+00 7.8885560759806685e+03 -6.0727263702880355e+03 1.4207124094702071e+04 -4.9610055036813122e+01 -6.0752651778592062e+03 -6.0214868815318376e+01 1.6339094600620939e+01 1.1369877083791778e+02 5.4148190863091372e+00 -1.1702352083642236e+03 8.8005965651016322e+02 4.0322153998189810e+03 1.4111241620042674e+03 -5.1186804602262725e+00 2.4646092601824853e+02 1.1526264490920885e+04 4.5615856364599895e+03 1.5929164450238389e+01 -3.5729583211493627e+03 -4.4840260822947382e+00 -1.2042840379603184e+00 7.9393164915381931e-01 -6.4860152894873773e+00 6.9150630192559606e+02 -2.3412949939947707e+03 -2.8674843217277471e+03 -9.0219545040060657e+03 -1.1326172721564944e+00 -4.0279182993259046e+03 -5.2470328646506223e+03 1.3689368078350089e+03 3.0643199667047769e+00 9.0444183016812531e+03 6.8358196061891974e-02 1.5352587013176246e+01 4.8488372739148531e+00 2.9811583778850487e+01 -1.7451225572920916e+02 2.8729495757795198e+03 1.6900069704977795e+02 1.9034117212118399e+03 -3.2921628832366188e+00 1.1763564068663069e+04 8.2788002714865797e+02 1.7990827147227745e+04 -4.1569470066641628e+01 -4.6544271828469773e+03 -7.1373149899732766e+01 5.9758923260890583e+01 1.0512050178838957e+02 2.6052898590342245e+01 -6.7441842107313914e+02 1.2698608088260719e+03 5.2042514562408905e+03 1.9137152233085517e+03 -9.4173834315883909e+00 2.7169512414424698e+03 1.8321840413050813e+02 1.3706513426745948e+03 1.2952951372142092e+01 1.4287942091042572e+02 2.6261193903109117e+01 -6.0319083929005338e+01 -3.3467758198505109e+01 6.3196154458194087e+00 1.7659023350779626e+02 5.0338163812322819e+02 -1.2946100389038704e+03 -3.3645445179684441e+02 -1.2891536460947783e+00 2.5589878830329621e+02 2.6409756903515872e+03 
      </Row>
      <Row Index="16">
        1.3656398861852998e+02 1.9738496894598939e+01 -3.0300270321656408e-01 6.2091293681752767e+01 -1.8811451587505862e-01 -2.1946345552602571e+00 -6.6681673961419413e-03 -2.0312481708037922e-01 -1.5646394365198626e+02 -2.8248425235278560e+01 3.7660101042245515e+01 3.6826728281808676e+02 -1.0373962789628755e-01 2.0535897007375382e+02 -8.4744339895884181e+01 -4.9610055676355842e+01 2.4513906329702277e+01 3.0956629656702563e+02 6.5363015877724786e+00 2.9293676950976364e+00 -5.5358716740069509e+00 -1.2739495597725496e+00 2.1267075178329151e+02 -2.9532773649381238e+02 2.4565675619633289e+01 6.5016607950912515e+01 -3.1046278043482047e+00 3.8450367435595348e+02 -8.3064651268212799e+00 6.1274846057494869e+00 5.6936467283634480e+00 3.1572003411350175e+02 5.3924870323553842e-01 2.8779231253915469e+00 9.1644582876256209e-02 1.6688461490905560e-01 -7.5286409594032520e+01 4.1562716681428931e+01 5.5484475925753941e+01 2.5375888909750859e+02 1.4038938018995850e+00 1.2125631345431330e+01 -2.1397848348143356e+01 2.8643918540845334e+01 1.3010704292639588e+00 -2.3070873466979080e+02 3.9354622763333180e-01 -2.1878287448669106e-01 -1.0775571018081287e-01 -8.8259607669292794e-01 3.6116542035120140e+00 8.6592539146598085e+01 2.6745282153089647e+01 1.4648729506462621e+02 5.5787364977914242e-02 -3.9302126834474103e+02 3.0699945121834907e+02 -3.4196964843235804e+01 2.5753244741320955e+01 3.8327452200209893e+02 6.2704432318236547e+00 5.0554523775746780e+00 -5.3314041546356030e+00 -1.7085583853869479e+00 2.6541235579139595e+01 -2.7080224868224894e+02 1.9416075190743868e+02 -1.2609338206883604e+02 -2.2465131769133535e+00 -5.8159641750273488e+02 -4.2374230310444432e+00 7.7329776969891526e+01 6.5731718952922309e+00 -8.2477327442429811e+00 -2.7765079656584497e+00 4.8547309365752422e+00 2.5031107763789837e+00 -2.0851321604988016e-01 -2.1096598710343159e+01 4.5047725808456107e+00 1.7707527769542295e+02 -3.7903061911455559e+01 -4.8981814108943966e-01 -4.0674003752177171e+01 -1.0929927991932760e+02 
      </Row>
      <Row Index="17">
        4.0633163421097335e+04 8.7809464020458981e+03 8.0704507316376748e+01 -1.3414106344048751e+04 3.4935707420482530e+01 -3.8438653200245099e+01 2.2344213253165357e+00 2.7158431979842135e+01 -8.7438612211531527e+03 -2.1988811321456160e+02 1.6953724482888356e+02 -6.9319950149796190e+04 -2.2044585007659407e+01 -1.1873757468885458e+04 -9.1411624709543947e+04 -6.0752651855761651e+03 3.0956629951976601e+02 3.3725582310502313e+05 5.4845846580026171e+02 5.6211341155270098e+00 -4.9154523649478296e+02 -1.0154863059915648e+01 2.1876920330033416e+04 1.2794256647606398e+04 -4.6498057791035853e+03 4.0529215832667309e+04 -5.2739951055545561e+01 2.6268136925451749e+04 9.8314490375828173e+03 -2.1949799193965737e+02 1.1527139046517593e+02 6.0633126492277581e+04 -4.2606901852305494e+00 2.0037991678554455e+01 -2.0743222315316416e+01 5.5566598202382629e+00 2.0210331084957547e+03 1.2062179324518793e+04 1.7351258277706802e+02 -4.8412755576074909e+04 1.6413430745385995e+01 -2.8072072458936862e+04 -8.0716448381741066e+02 2.7043483979534358e+03 2.3297590162735048e+01 -3.9143922371800785e+04 1.6006932112610826e+01 -3.6506647407800614e+01 -1.6170990814540716e+01 8.9215626434894148e+01 -6.2891182928695471e+03 -4.8391163031272063e+03 -1.4795106827435084e+03 -7.6418046029150792e+03 -4.7123325576266151e+00 -4.4876287432584002e+04 2.8817982608417893e+04 -1.2743842860522631e+04 3.9648962003583279e+02 2.8489923819571926e+05 5.4875379961845408e+02 -9.0368140226403284e+00 -4.7889364307752402e+02 5.8942875421119233e+01 1.6402359269836692e+04 1.4214110512975883e+04 -2.9909635206819512e+03 -2.2317317408831699e+04 -5.3171995628319699e+01 -3.9372640958535085e+03 1.3812330904479022e+03 1.9894194644704853e+03 1.4162985492850041e+02 -1.4275594671347180e+03 -1.7066881299718273e+02 6.8701568334821786e+01 1.9250044978280266e+02 1.9237765487054389e+01 -1.0928195585941608e+03 -7.2909278199630662e+03 -9.7753175550026697e+01 8.3611794883521225e+02 -1.0584684008333721e+01 -2.2432740291290420e+03 2.0168134052565756e+03 
      </Row>
      <Row Index="18">
        -4.3469219589984868e+02 6.1147595579386689e+01 -2.1047176998558834e+00 -1.2426061141766804e+02 6.0900283825997936e-01 2.4321927674230466e+00 -1.0821861847649754e+00 -4.0719598779537591e-01 -4.3332976724500291e+01 2.4415027861083962e+02 -4.2417407253233250e+01 4.2505519532279169e+02 2.5339483200467043e+00 4.7918129674185366e+02 -3.4536199105252803e+02 -6.0214869829098461e+01 6.5363015922722880e+00 5.4845846124687762e+02 6.9777190723714213e+01 -1.2339241191859017e+01 -8.4984078718233334e+01 1.4936611348475108e+00 2.7913074270912011e+02 3.7504985732538421e+02 1.1593538759475392e+02 1.5372240354327599e+02 -4.1020678120985181e+00 6.3263156164776979e+02 -8.4312507895895408e+00 -5.3425901619819342e+01 -2.5937209869285733e+00 -3.9008165379463151e+02 3.1274840244284809e+00 2.5534674592078960e-01 -1.8853531644277837e+00 -7.8103767968961124e-02 4.8676064197666939e+01 -5.3077926690533992e+01 9.9613028443040093e+01 -2.6619541814691394e+02 -1.7854936009362063e+00 -2.2540364254592089e+02 -3.2761517594153651e+02 1.5940730775546399e+01 -1.9253816798642945e-01 -4.2037494343352016e+01 3.3331793282101678e+00 8.0697375150192174e-01 -2.0912356989159377e+00 -5.4757472741201185e-01 1.9519552760969244e+01 -2.3237531322447376e+02 8.7358541150402743e+01 4.3625414229894034e+02 3.6742417869572819e-01 1.7181950059388288e+02 5.9563662439264124e+02 -8.2368518646207718e+01 3.9763445803213884e+00 1.5041987345824469e+02 6.8591107955215136e+01 -1.0737714929824442e+01 -8.2892960073379726e+01 8.3231651042161148e-01 2.1834038269892255e+02 1.4126529817104682e+02 2.8192545884374704e+02 7.7426990109576138e+01 -3.0729159888570874e+00 -4.0678315973318826e+02 -3.0788861180127469e-01 1.3232119238191291e+02 -2.9691893668379206e+00 4.8751271824158557e+00 -3.1102363837869532e+01 -3.2346868701245661e+00 3.0440516580007909e+01 -9.1257631289408891e-02 -6.2553421617128606e+00 -6.1738290054330037e+01 2.7462096829224117e+02 9.5575359526049240e+01 7.5091542000084333e-01 -2.5309724610741956e+01 -1.5348377802594325e+02 
      </Row>
      <Row Index="19">
        -2.5247546384463726e+02 -3.1080779855547007e+01 3.3402832950293422e+00 -3.5863286611290391e+01 -1.0840205709190727e+00 -6.5612680123611540e+00 -7.0443746378962901e-01 5.3699266034527682e-02 -6.4074892539828824e+01 -1.8199831886367048e+02 1.4510271062405081e+01 -3.4503141032946763e+02 -1.5690877694537306e+00 -2.5388032124652375e+02 1.4907785432541713e+01 1.6339095559800626e+01 2.9293676958251496e+00 5.6211374211528611e+00 -1.2339241185336180e+01 2.3017365335155354e+01 6.4699861301103860e+00 -2.3724486539400682e+00 5.8482189665168335e+01 -2.5626214306588190e+02 -1.7581849017612842e+02 -4.5267949053206365e+01 3.4444129771275742e+00 3.7955335224547264e+02 3.3343417262954262e+02 2.9094694083563809e+01 5.6373876751848080e+00 3.0868139975948856e+02 -6.7515733341429237e-03 2.5914092490492369e+00 6.2109928771161549e-01 1.0539201494919065e-01 1.2612305934975033e+01 1.2177375005666002e+02 -1.5354239838488866e+02 1.1499258263732655e+00 1.3842809529402302e+00 2.0710770362467701e+02 5.7398905646935170e+01 -3.1012821311385778e+01 3.2597640961842572e-01 -1.0238915860052734e+02 8.3477087101404931e-02 4.2732838183418920e-01 6.7405827818030328e-01 -5.8199403198930111e-01 -1.0146651007103868e+02 3.6469289919882613e+02 -1.4228534411340661e+02 -1.5245967207500544e+02 1.7936371576141141e-01 -9.6274229424622308e+02 -2.3478681681677574e+02 4.1457621510307547e+01 6.8747671759999527e+00 1.6499720400161868e+02 -1.2464563214756875e+01 2.1880205817772854e+01 6.1054476197645755e+00 -2.4910794682917756e+00 -2.5881661539356443e+01 1.6804527885500357e+02 -1.3758317809206346e+02 1.5783826786776331e+01 3.1961889710929579e+00 7.8585859316989712e+01 -9.1674903764909459e+00 -8.9384314326049662e+01 6.8478307349652230e+00 -1.0682567252508463e+01 3.1396352521713209e+00 5.8588583743712803e+00 -3.0972511456596052e+00 -1.1832565711054244e-01 2.5937446186472073e+00 -1.4569922700437246e+01 -1.7497705673296085e+02 -8.9718172697193936e+01 -4.9807764828414181e-01 2.7986524379981972e+01 7.7098371777999191e+01 
      </Row>
      <Row Index="20">
        4.2628246912675718e+02 -5.9950774479773827e+01 1.6059102922228587e+00 9.8061202959686128e+01 -3.1980599478151959e+00 -8.7663126646937428e-01 5.7578680286767714e-02 3.6932743453655803e-01 4.0510433482507672e+01 -1.4638599302264515e+02 6.5140320539270760e+01 -3.3134961772386134e+02 -2.3754362816193577e+00 -2.0667208778743935e+02 3.3014888410538941e+02 1.1369877140689641e+02 -5.5358716645935946e+00 -4.9154523290810715e+02 -8.4984078691042257e+01 6.4699861200968707e+00 1.3469906686547162e+02 -3.6591234210850776e-01 -2.5031757691412577e+02 -3.8290831274094660e+02 -7.0307545741443363e+01 -1.6293982770270003e+02 3.2203079478076013e+00 -5.5395767234432856e+02 5.5507403763126639e+01 7.0237257421962568e+01 1.7883756382972880e+00 3.1196466266263934e+02 -4.5105239375123363e+00 -7.3612138159378615e-01 2.4919231995991140e+00 5.7799314544407121e-02 -6.8416291300008211e+01 2.7936004909468231e+01 -8.4457148384215543e+01 2.9571184405218901e+02 1.5390822245780100e+00 8.0304821621600794e+01 3.1930930451150078e+02 -1.8942538008559495e-03 5.1741111302601794e-01 1.0242045126952733e+02 -4.7786410218180793e+00 -1.3838557464634595e+00 2.8633053235824661e+00 7.5471193294158179e-01 3.8274243922724387e+00 1.7740090258743834e+02 -6.7184341926331399e+01 -3.7818189031770862e+02 -2.7801045660487489e-01 9.8444598479258900e+01 -5.7927312115939878e+02 1.3558476828972644e+02 -3.4094034774617361e+00 -1.2235328997758259e+02 -8.5888229910110951e+01 4.8343287005983484e+00 1.2974594117162576e+02 2.8428767086074264e-01 -1.9573106915796504e+02 -2.2118176372246904e+02 -2.2328754316526465e+02 -7.8903475172757908e+01 2.2210897763183106e+00 3.6987993540036439e+02 4.5251223566249905e+00 -1.0161080345120564e+02 2.2109378184127615e+00 -1.6716913454774236e+00 4.4570118597148245e+01 2.3026631548043417e+00 -4.3848635031314075e+01 1.2062565988361484e-01 2.3038262299765933e+00 5.4389581782680125e+01 -2.3831702227658016e+02 -7.4641386070942517e+01 -6.1839111817029913e-01 6.7301640530978037e+00 1.4751566508028387e+02 
      </Row>
      <Row Index="21">
        6.8631445023669798e+01 4.3406317485882028e+01 -3.3414390557465923e-01 -3.5112894626806813e+01 -6.4102214931955892e-02 1.0357473457723945e+00 -5.8924687336497361e-03 -5.1666810039414912e-01 4.0450153895303815e+00 9.7891306827970681e+01 9.4438007266726345e+00 -8.0080295510518027e+01 -3.5822031603929716e-01 1.4572089935676354e+02 1.5336247379707009e+02 5.4148191047461296e+00 -1.2739495602473840e+00 -1.0154863028066586e+01 1.4936611335726730e+00 -2.3724486557727764e+00 -3.6591233860793471e-01 7.1403269663150457e+00 -5.0464216050736290e+01 -9.8140405524912680e+01 2.9396002726971492e+01 -2.2695560222885410e+02 1.1809833354975914e+00 1.0792897640905468e+02 9.3035748486244401e+01 3.2597242361234748e+00 -1.0138933496751591e-02 -3.1484566462817867e+01 -7.0668239871746821e-02 -7.9082987385930970e-01 -1.2756935990175577e-01 -5.0747807401435807e-02 1.3766295851319716e+01 1.5974022250159862e+01 4.3027393008482250e+01 -1.4630288070974052e+02 3.0761551463336900e-01 6.4763552073067302e+01 7.5406271932093247e+01 1.6451171672096280e+01 7.7642668630722389e-02 1.0627161609561925e+02 -1.5164470501965532e-01 -3.0673741657805245e-02 -1.6467275309458163e-01 3.3246669867695910e-01 -4.2900713666365093e+01 -1.0950996202891241e+02 2.1380561962658248e+01 -2.4673288893688056e+02 7.2138402352901920e-02 -1.9699343985313675e+01 -1.8897570691402828e+02 -4.7810111868168327e+01 -1.4314337932677119e+00 4.3359721401751045e+01 1.2395947227337247e+00 -2.0274485788157985e+00 -4.9860975957261133e-01 6.4767341327431991e+00 -4.9717678460450209e+01 -1.0765220568649720e+02 -2.8148401160477079e+01 2.3060734214595880e+02 1.0227320191544234e+00 -2.3352674729580571e+01 9.7859412447979821e-01 8.6903743412260859e+00 -3.9392521002901626e-01 1.1019570730176973e+00 -1.3097150287344630e-01 -6.9907609411474236e-01 1.1406464945512372e-01 1.0420252237833250e-01 3.4064319266685015e+00 -1.2959291914549269e+01 -5.0419790822033539e+00 1.7368101661477510e+01 -1.2636469951263246e-01 -1.4584874196931274e+01 1.3925264119382890e+01 
      </Row>
      <Row Index="22">
        -1.5059782389676166e+04 -1.0989640793725848e+03 4.5163155203379006e+01 2.7558593153343677e+03 -4.3602060543880725e+00 -9.6033597679106606e+01 -1.2409900341081464e+01 -1.2644446557533229e+00 -7.7430545217013350e+04 -2.2825752644148935e+04 -1.1167753665335476e+03 -2.9671653617543958e+04 -2.5335541758147883e+01 1.1740029976496423e+05 7.7034250371189573e+03 -1.1702352659674361e+03 2.1267075522991664e+02 2.1876920092876862e+04 2.7913074875504316e+02 5.8482186185824247e+01 -2.5031758410765002e+02 -5.0464216019911959e+01 1.1503102987432128e+05 5.7451574342184031e+03 3.5016373694790850e+03 1.3655365543678177e+04 9.6764739371547837e-01 5.0536699790486622e+04 2.7427687479703887e+04 1.3280066677117720e+03 1.6694112459660470e+01 5.8281511925190318e+02 3.9788928354981392e+00 1.1999890718572187e+01 -7.8095478248287691e+00 1.3057860639950377e+01 -1.9393542267431825e+04 -4.3714520044349401e+03 -9.5258467940799892e+02 2.1944736570554654e+04 2.0860110815730877e+01 2.2573537459732757e+04 2.1224771130676554e+03 -1.7808383231256157e+03 -3.7472545040489025e-01 -8.1534496252345407e+03 1.8242404862751929e+01 3.2967540757419997e+01 -2.3128504545225042e+00 -7.3939840878716325e+01 2.9020514887834426e+04 9.4765960375930154e+03 1.2369353469526395e+03 1.8374606713510431e+04 -1.5755843032093253e+00 -2.2271674129989668e+04 -5.0777644224643400e+03 5.7155215523969464e+03 2.3168721508667525e+02 2.2275192298866175e+04 2.6877836009545911e+02 4.9593866322382951e+01 -2.4909583749296559e+02 -8.5508034109392639e+01 8.4063076522569288e+04 -1.9842610960624370e+03 2.2920444273112342e+04 -1.0025877055930907e+04 -8.2357272645385819e+00 6.8963737145523555e+04 3.2620477439820388e+02 4.7378376912325521e+03 1.0231694012888764e+02 -7.6013308083566699e+01 -1.0660199185683857e+02 7.5527013818640697e+01 1.0746260352622362e+02 -1.5540373136074777e+01 -1.2385725471505641e+04 -7.9164288805265096e+02 1.6643785107453681e+04 -4.3132239643254871e+02 -9.4083048782209708e+00 -1.4698902899789477e+04 -1.2159775420291195e+04 
      </Row>
      <Row Index="23">
        -2.3387461060122860e+04 -4.4638447119928896e+03 -8.4652988997229869e+01 -4.7721676183266201e+04 -3.7118968976401447e+00 7.9973432601417699e+01 1.1943991055067574e+01 9.9992199428197637e+00 1.3898794208540043e+04 -1.3198964918718546e+04 -1.8407122076638043e+03 -9.5231777492508118e+04 7.1023710040475635e+01 -4.7765568650391499e+04 3.4346439082296383e+04 8.8005947774136439e+02 -2.9532773149763949e+02 1.2794256337098641e+04 3.7504986426333170e+02 -2.5626214588111122e+02 -3.8290832180706229e+02 -9.8140406244483955e+01 5.7451577514363744e+03 1.8355400706522877e+05 5.7051237789938059e+03 -1.1392066388095067e+04 -6.7033314150298963e+01 -8.2702753765295405e+04 -1.0272690319370036e+04 -1.3248076925477944e+03 -2.1321283502808944e+02 -7.3907510062955887e+04 2.5274603981424775e+01 2.4767842027588028e+01 -8.5254453956113139e+00 7.0127236994812847e+00 8.9551522540387341e+03 -9.4453273959556482e+03 3.3933918790901080e+03 -6.6486236636885333e+03 -4.8734175417739607e+01 3.5303015466008372e+04 6.4649266511150854e+03 1.3909808521559462e+03 -5.6685712371080427e+01 -7.4497781276159731e+03 2.5961767753877439e+01 3.9207997193503715e+01 -9.1923164405947659e+00 -2.7201088292647825e+01 -2.3432263394949200e+02 -4.8225944432095537e+04 8.6395351605759934e+03 5.9747571580931217e+04 3.8911448780927458e+00 6.2381210588930022e+04 -4.1012764880364331e+04 4.7968314886893058e+03 -4.2160199713014691e+02 -3.0038233444470035e+04 3.7021060693204879e+02 -2.1378893187296873e+02 -3.6020535434706807e+02 -9.3742468628213487e+01 1.3741289029897209e+04 1.2279494863309915e+05 8.7989397047269158e+03 -1.8789927531847377e+04 -4.3576823185061585e+01 -4.1605489849942816e+04 -3.8765040464873891e+02 3.9684835856346967e+03 -2.0268218059905570e+02 1.1985179019243571e+03 -1.6758079916166187e+02 -1.3905149137333177e+02 1.4267438643307821e+02 -6.2774341796330191e+00 2.0525816074279273e+03 -1.0577000769841397e+03 1.1471613262630035e+04 1.7950009425102471e+04 2.4277418276313178e+01 1.1533900062543906e+04 -6.7796185127059980e+03 
      </Row>
      <Row Index="24">
        -8.4951214136447470e+02 1.3264107775688171e+03 -6.9189964931327381e+01 -4.0781379701033796e+02 -6.3796117299170874e-01 8.0546405680077442e+01 1.0583770605242595e+01 1.9279297065804712e+00 -2.6641884066281627e+03 1.1800057786629191e+03 1.9093238240480423e+02 2.2672883839616247e+03 1.7510983387059241e+01 -2.4572535379325418e+03 4.4064348473883092e+03 4.0322150777801871e+03 2.4565675930325842e+01 -4.6498069826647343e+03 1.1593538798594591e+02 -1.7581849054114249e+02 -7.0307552744907881e+01 2.9396002180478774e+01 3.5016361862956546e+03 5.7051224660981679e+03 2.8458280043184408e+04 1.9013784710127631e+04 -1.4809432030746990e+01 -2.4833301039708904e+03 -4.2766024222234928e+03 -3.2391715448908508e+02 -2.2661158510743789e+01 -6.2339717597828676e+03 2.3772455974133209e+00 -1.9224299985733971e+01 -3.8248293562210165e+00 -1.5945001246291213e+00 -3.0175921451317674e+02 -1.0398138185117477e+04 1.4899773915059865e+04 -1.1673961510969275e+02 -5.6659390829154290e+00 -5.9198714449800027e+03 -3.6800502869506436e+03 1.8577852504216135e+03 8.1525700746278744e+00 1.3510737179724110e+04 6.3383178161805249e+00 -5.6770365648359267e-01 -3.8968513221884677e+00 2.9676858837268902e+01 2.4674549618489150e+03 -1.5560054535979476e+04 1.3778252555049956e+04 2.5099591544098130e+03 -1.6379106072708964e+00 1.9598969555113108e+04 -1.0614860816135959e+04 1.4867058649556007e+04 -1.3832172586150168e+01 -2.0040183824608121e+03 1.1317748095884180e+02 -1.3736696820903032e+02 -6.2770110567731386e+01 4.6020210295603199e+01 4.0846797168452545e+03 -2.5977512241885510e+04 8.7122183592641726e+04 -2.4422059463792204e+04 -1.0582852383980935e+01 7.5439123566470098e+03 3.9651664083241485e+02 2.9483250185067489e+04 -6.0569616688757378e+01 3.7148721668760493e+02 -3.9876245858843617e+01 -5.9135629217881998e+01 2.8870756218142947e+01 4.6279899346209277e+00 -3.9528235581382614e+02 3.9146560056678718e+03 6.8588667391974770e+04 1.2347708355309676e+03 1.0171632671358544e+00 -1.0832617353153139e+03 -3.8018089539053741e+04 
      </Row>
      <Row Index="25">
        -2.0257704045795563e+04 -2.2426784354895353e+03 3.5943033435127290e+01 -1.5105693012837000e+03 -3.8257917459424789e+01 4.8607290900292355e+01 -2.8160712154446067e+01 -3.6499664944130927e-01 -4.8601337645617114e+03 -2.5811452036608505e+04 1.6404307918474078e+03 -7.1648809177135234e+04 8.0367682430223795e+00 -1.5815505040945860e+04 -2.7961130244306405e+03 1.4111240117661655e+03 6.5016604363311046e+01 4.0529215194130673e+04 1.5372239756578966e+02 -4.5267945605101460e+01 -1.6293982567139722e+02 -2.2695560256739924e+02 1.3655364621527202e+04 -1.1392067361164882e+04 1.9013783380242763e+04 7.1445177650464594e+05 -8.1689623421599549e+01 -1.2417138672318493e+04 2.4743986986064294e+04 9.4062855178490281e+01 -3.9196954183715462e+00 2.4671285505574218e+04 -2.1178708554383547e+00 -1.1056694129921766e+01 2.1945441101634060e+00 2.3519978403521236e+01 1.2563261155702421e+03 -4.3553347585820666e+04 1.3341104414302856e+04 -1.0575163070657276e+05 3.1594769014045596e+00 3.0237172658157273e+04 -7.7729065280910290e+03 8.1992701666988432e+02 1.3245531954307808e+01 3.1207356749830578e+03 1.6098094920454400e+01 1.3128802008018283e+00 -1.4170704535717960e+00 -2.3911148261896642e-01 3.4144515898917252e+03 -3.9673382130610626e+03 1.4281553957585245e+04 -1.6817672836115537e+05 -7.0679273940622807e+00 1.5763354665129156e+04 -8.3567809973040130e+02 8.7996342945175238e+03 5.9787789639149537e+01 3.7942013196210886e+04 1.3007401506879523e+02 -2.2728522248356391e+01 -1.7376800138180465e+02 -2.0182722209850260e+02 1.3720037392577877e+04 -7.2085078282353585e+04 4.0071679938632995e+04 2.9886393938998482e+05 -7.8153707754998322e+01 1.4682988532681229e+04 8.5510440665690112e+01 1.3444756517115547e+04 9.1517048333576660e+00 -6.4492126061914269e+02 -7.4803208644737850e+01 -2.9807369921451937e+01 7.0293166243384732e+01 -7.4513332910364625e+00 -6.5223686307040043e+02 2.6860502487323945e+04 3.6352275819039896e+04 -1.6437545860449543e+04 -5.6230201873773922e+00 2.1272317692285742e+03 -2.1304471919235028e+04 
      </Row>
      <Row Index="26">
        -2.0721751503094801e+01 1.9141082020010799e+01 6.4606734234345231e-01 -2.6360857519510809e+01 -8.8029969928819796e-01 2.7044445592179045e-01 -6.9059575626335179e-01 1.9441241452113900e-02 8.0230081160148958e-01 -5.5781379723708167e+00 2.7242645001606434e+00 -3.2862609884627929e+01 -1.2358611893845222e+00 6.9477760675323381e+00 -3.0930925574218051e+01 -5.1186802799638826e+00 -3.1046278014175046e+00 -5.2739950492838446e+01 -4.1020678078200401e+00 3.4444129716047476e+00 3.2203079501431562e+00 1.1809833357944863e+00 9.6764814893248285e-01 -6.7033312473609712e+01 -1.4809430120024444e+01 -8.1689623125004161e+01 7.5408019981791972e+00 3.8900769928458786e+01 -2.9173728109135219e+01 -5.2038386350377550e+00 -2.8244865646357198e-01 8.3455318326652712e+00 1.1970764646219823e-01 1.4314889593370969e-01 3.3924926157466473e-01 -1.0288236403090423e-01 -2.2201454368442676e+01 -1.7749272739006322e+01 -1.8156586910627084e+00 -1.1522261870549140e+02 1.8625132597159677e-01 -1.5678779878547499e+02 -2.2724899154726703e+01 1.9160634510826640e+00 2.1498645785442250e-01 7.0258034471448497e+01 -2.0399364601679110e-01 -2.2501257424442281e-01 1.5904325165356181e-01 3.6147985884337541e-01 -1.8192646150743304e+01 2.0601952899553609e+01 -5.8163018115701561e+00 -9.3928567661280056e+01 5.7393132238516387e-02 -9.5318649850356252e+01 -2.9808401397945492e+01 -2.4693140372039664e+01 -2.4251815090823818e+00 -3.4617334333410156e+01 -4.6453580174548010e+00 2.6473719084195158e+00 2.6242870293382503e+00 1.2831991980607105e+00 -9.1602771352525210e+00 -4.2139076017988948e+01 -5.4711819939908310e+01 8.0307630344440980e+01 6.5908660980227225e+00 7.4421507745118035e+01 3.9137548375055076e-01 -3.9531011848684932e+00 1.3484465280353597e-01 5.0246572166504855e-01 1.5448626522485718e+00 -3.3996485296062851e-01 -1.4271692508747527e+00 8.6505933491716647e-02 -2.5223415010668049e-01 -6.9487585649708308e+00 -3.6862139085036922e+01 -4.8083625313432146e+00 4.1328223090505545e-02 -2.8372302509888447e+00 3.5048929894070540e+01 
      </Row>
      <Row Index="27">
        -1.1991763499771805e+04 -5.1005414579063654e+01 3.8036290077242960e+01 -2.4238132978602545e+04 -3.6203231129220740e+01 -1.0018182055973193e+02 -5.5650623514036084e+01 -5.0709588833276939e+01 5.8313120231180637e+03 -1.3710151810817131e+04 -2.6279418472936377e+03 -9.5009524965808014e+03 -4.3804134335651725e+01 -1.5519401033388235e+05 4.4641001710085606e+04 2.4646102938218974e+02 3.8450367647926578e+02 2.6268137026974742e+04 6.3263156883742886e+02 3.7955334677849896e+02 -5.5395767819116872e+02 1.0792897684361111e+02 5.0536699907272159e+04 -8.2702753254101990e+04 -2.4833287169899559e+03 -1.2417137976658427e+04 3.8900769893342968e+01 5.6554632258457842e+05 -5.5083468866318435e+02 2.1520377454021946e+02 4.4187083210457786e+01 1.9028098830444171e+04 5.8430105171985019e+01 3.8224673323497626e+01 3.5332541986481374e+00 2.7748079445871554e+01 5.9281754299894164e+03 9.1389447821849044e+03 -5.3917203768375330e+03 5.5020078858403118e+04 3.6274514874978195e+01 -4.8220959307599973e+04 1.4788263087542568e+04 -9.7460132750985213e+02 1.8960173853575725e+01 -5.1100148316939514e+04 3.9968136839724451e+01 -1.1522568980515757e+01 -6.1239252240458484e+00 -1.2088423205961315e+02 -7.7815790440518640e+03 2.9713506989253947e+04 -5.5581343991579488e+03 -1.6021737356851045e+04 3.7631736327366525e+00 -3.4917700070711435e+03 -3.0331608791361752e+04 2.2008647366071455e+03 3.7585591406720027e+02 1.5638361788394715e+04 5.9391332323229381e+02 3.2515341592616005e+02 -5.7345709810961898e+02 1.3476519010778841e+01 3.9246160612073902e+04 -5.1138611542215498e+04 1.0541448818845209e+04 -1.1461374726509282e+04 3.1408101827898008e+01 3.3991370186964725e+05 -1.9759084182151164e+03 2.3868320662356391e+03 1.0061626909593619e+02 -1.5179916310071712e+03 -2.6335266987176868e+02 7.1146284852574126e+01 2.5524503719263370e+02 -3.1253397259010853e+01 1.3646272541374587e+03 -6.6168830674782221e+03 4.0342944635856998e+03 -5.9286185406411869e+03 -9.5611740806258467e+00 -8.1774294973358583e+03 -3.6674012268556958e+03 
      </Row>
      <Row Index="28">
        2.5126632223338296e+04 -2.5794346365295351e+03 1.7033982578957864e+02 2.4447470505968900e+04 -3.5304601185012871e+01 -1.0369780778050836e+02 -4.7448604267744486e+01 -5.2155100104238954e+01 -1.9604562825180234e+04 -1.8378108627743146e+04 9.1103904652036726e+02 -4.0491827558520774e+04 6.0766276372378343e+00 -5.8078820447962105e+04 -6.9381955988736940e+04 1.1526264505550731e+04 -8.3064647044724396e+00 9.8314490766932504e+03 -8.4312494355586995e+00 3.3343417255627315e+02 5.5507402150974414e+01 9.3035748618436060e+01 2.7427687535282297e+04 -1.0272690514330212e+04 -4.2766024121236405e+03 2.4743986945066521e+04 -2.9173727985567439e+01 -5.5083435931533313e+02 8.1329246726674214e+05 4.3743031596820801e+03 2.0941217480629348e+02 -9.0262913637884456e+04 4.6827365845166184e+00 3.2158448103684805e+01 -2.7754495500630583e-01 2.4051162155934435e+01 -2.8283401228608864e+03 -1.8955331764207895e+03 -7.1746629000287503e+03 -8.7317444776073826e+03 1.0321539594307978e+01 -1.8710793987111028e+04 -6.9089455235305417e+04 -3.2484109940999188e+03 4.1490707288894555e+00 -5.8416748848433657e+04 1.5695248867067676e+01 1.0261236213336537e+02 1.4762106819011990e+01 -1.4589424410237689e+02 1.1892649615626859e+04 3.2732876033724780e+04 -1.2233125747530255e+04 -4.7209410790820024e+04 5.2805175919984322e+00 8.8890840504766617e+04 1.0743749107876595e+05 1.2376304262989084e+04 1.1846431125556092e+02 -2.5250177531804846e+04 -3.1170338518206961e+01 3.8182867327971439e+02 2.4093919964932837e+01 -2.6179280617242512e+01 1.8840174481542752e+04 1.4145889004015698e+04 1.1177107173616765e+04 -3.8606121862568194e+04 -1.4874218046617443e+01 -4.6506543423692412e+04 2.1238422442988995e+03 -3.5710117672275060e+03 2.4223211916365719e+02 -6.1343444881983032e+02 -1.1094681000688070e+01 7.2707195426532053e+01 5.7074280841663239e+00 -3.5000563872260955e+01 -2.1596690991630412e+03 -2.5103329281283804e+03 -7.1186166260619189e+02 -3.5922669295844676e+03 -4.1008184004874124e+00 -4.6170179631846440e+03 -4.5444196090445548e+03 
      </Row>
      <Row Index="29">
        -9.7811342013578251e+03 -2.5096669524992467e+03 3.2076077262333769e-01 -9.7661279414290766e+02 1.0243838377748524e+00 2.3688994300258244e+01 -1.1903316950617837e+00 2.3517519518015888e+00 -1.3631560921480982e+03 -1.3640698368514099e+03 1.7359087687754509e+03 -6.4997778630707389e+03 -1.0968403957649187e+01 2.2552770374786945e+01 -1.9901378678788878e+03 4.5615856476687550e+03 6.1274842911229808e+00 -2.1949795333605704e+02 -5.3425902062630414e+01 2.9094694551458371e+01 7.0237257869161539e+01 3.2597242612352986e+00 1.3280066829507705e+03 -1.3248077309988421e+03 -3.2391730830208689e+02 9.4062734691458218e+01 -5.2038384859152078e+00 2.1520387902204266e+02 4.3743031684150092e+03 3.9268852383850935e+03 1.6028772217572794e+01 -1.2485012222610496e+03 -7.7369587785371179e+00 1.1127665256041372e+01 -1.1208218262758294e+00 -3.3890640881231775e+00 -1.4499769415633321e+02 7.8345789627663066e+02 -2.1809145663502713e+03 1.2158334228555473e+03 2.3964733460387606e+00 -7.9013531625582732e+02 -4.2907009859260579e+03 9.7737803168951723e+02 -2.4320014731663804e+00 5.4742956438012761e+03 -5.2065898021781152e+00 4.4749065938101840e+00 9.4248393899058813e-01 1.7478274838923728e+01 -2.8344680251746388e+02 1.8263424464099739e+03 -3.8455778012494557e+02 -3.5096428884543275e+03 -6.3824382599264595e+00 -4.4230033077102571e+03 3.7476888934065937e+02 6.3649321936331062e+03 1.3136069324852643e+01 7.5055686069344608e+02 -5.4051509752054194e+01 4.3498416585805728e+01 6.5624297917222776e+01 1.4811139010681970e+01 6.1294074863444052e+02 1.8535710339696982e+02 7.8666755230294802e+02 -1.0800334691405146e+03 -1.2235360159700569e+01 -2.4435257333759537e+03 1.4437596750407639e+02 -1.7493306218002635e+03 2.2969964332029576e+01 9.1820643346523184e+01 2.6051183811367309e+01 -5.9110709569480662e+00 -2.3998407787347201e+01 3.1999053658271208e+00 -1.3699438604654944e+02 -3.1582128520767048e+02 -1.7085028531076271e+03 -3.1602404671644496e+02 -2.5441040277110263e+00 -1.6320859893775238e+02 -7.2053628831364378e+01 
      </Row>
      <Row Index="30">
        -1.7373272072246806e+02 1.0530805447873718e+01 2.0888150387438138e+00 3.2435474842290205e+01 -3.0334836640063934e-01 -1.6781356676407873e+00 -2.9868256812835042e-01 -3.9853371702271545e-02 -5.0452626350128895e+01 -2.0830700029639281e+01 2.4916918244980479e+01 -1.7879864546287358e+01 -7.4458491457787446e-01 6.4846767873020113e+01 6.4823129106482639e+01 1.5929164506660527e+01 5.6936467307831524e+00 1.1527139038920210e+02 -2.5937209850730323e+00 5.6373876697671097e+00 1.7883756405804432e+00 -1.0138932904348461e-02 1.6694112387924207e+01 -2.1321283454781289e+02 -2.2661156743803758e+01 -3.9196943484188296e+00 -2.8244865692078891e-01 4.4187082988985772e+01 2.0941217456341130e+02 1.6028772134428436e+01 3.9169933712589682e+00 1.8956827235510130e+02 -1.1234743117863299e-01 9.1062334647058440e-01 1.4966871685604133e-01 5.3286397132836782e-02 -2.3981304219358069e+01 6.0368856426239617e+01 -1.0925187738683235e+01 1.9429377946954418e+02 7.5511691750847376e-01 3.5123852227328427e+01 -7.6487350070059357e+00 2.4965374467978108e+01 7.8386393199503601e-01 -3.1313786807632695e+00 -2.4456110753377502e-02 -2.7749490504916763e-01 1.6289579295123124e-01 4.0687544849697777e-02 -2.2033065084225672e+01 1.0800322455263171e+02 -1.4497352184300325e+01 1.6654629395721258e+01 -4.0918092518253957e-02 -2.4486854714142319e+02 -4.3117225610501563e+01 6.0383525345758216e-01 8.1264809410259780e+00 2.1144853765556945e+02 -2.7317352145048850e+00 5.7476565932844439e+00 1.5759123025241388e+00 2.8107567820724100e-02 -3.6623772293074666e+01 -1.0789958659663120e+02 1.1729192092791891e+01 -5.2380044245783481e+01 -3.0649016180492694e-01 -1.5320635337673949e+02 1.8664432358189629e+00 1.6264831098960748e+01 4.3582241194453815e+00 -3.1221598483962603e+00 8.6672874555768309e-01 2.7581663324860095e+00 -7.2567373425679726e-01 -9.8045365908205895e-03 -4.6853996857740192e+00 -4.5649410921462419e+00 1.2249378817883554e+00 -3.1896216873986042e+01 -3.5484899756992905e-01 -1.1535154266140974e+01 1.2619232692010009e+01 
      </Row>
      <Row Index="31">
        2.3972938900830850e+04 -1.6919656276963651e+03 -4.1599596654469480e+01 8.2672374360519039e+04 9.2596897484136775e+00 -1.5938910357846453e+02 -7.4681164378618661e+00 1.6886936167654994e+01 -2.6762294402066291e+03 -8.9641327660236366e+03 9.7421578133560251e+02 -2.3249279676993145e+04 -1.4374755950345445e+02 3.1867037053230953e+04 2.2490384086840932e+04 -3.5729582550951454e+03 3.1572003215298008e+02 6.0633126585820413e+04 -3.9008165613400263e+02 3.0868140078146678e+02 3.1196466553892958e+02 -3.1484566222137005e+01 5.8281496988330764e+02 -7.3907510100608604e+04 -6.2339722752880443e+03 2.4671285155683749e+04 8.3455324465049330e+00 1.9028098987181431e+04 -9.0262913714968308e+04 -1.2485012352405320e+03 1.8956827251790696e+02 1.5511551502734641e+05 -2.7909520518153158e+01 -3.2114062534874435e+01 5.8200488614887718e+00 9.6789850596769611e-01 -6.7163704972643964e+03 -1.7596588534325417e+03 -4.0351883814292960e+03 -1.0095474098833732e+05 1.1869568972878665e+02 -1.5059797548823073e+04 -2.8698166979332644e+04 -1.9101071349303675e+03 1.1635352166872053e+01 -1.1431754499998414e+05 -2.2125506088521917e+01 -5.9718834901551261e+01 1.1259960751962229e+01 3.4944728754754806e+00 7.1421890599315066e+02 4.4335124746876834e+04 -5.0967536842011905e+03 5.0023186728250956e+04 -1.1773232339268134e+00 -3.8311678960688063e+04 -7.0256994199723704e+03 2.8161646178455703e+02 3.5005775692444143e+02 7.4125657492558705e+04 -3.7764927072957437e+02 2.6495731763066374e+02 2.9824873470595804e+02 -1.6290183208968017e+01 -1.1315209008994304e+03 -4.0613522488510760e+04 4.5454394098398916e+02 -5.5587900200522981e+03 -1.7783579247544310e+01 2.1512580056770355e+04 -3.1917930109049557e+03 -9.6584128706208799e+02 1.2955618737987163e+02 -4.6007335512821637e+03 1.6005324764314338e+02 2.6600650758701198e+02 -1.2970071683215130e+02 3.6514484499333264e+00 -8.6851159829318613e+02 4.5700660876967504e+03 -1.3955456527360843e+03 -1.4986572007316405e+04 -5.2614152080524065e+01 -6.1606042335040740e+02 2.7701037233986898e+02 
      </Row>
      <Row Index="32">
        -1.6465952908248092e+01 3.1373611210674426e+00 -4.6712397528470312e-02 -1.5119510764318534e+01 -2.5707288749057727e-01 -7.8002487700958190e-02 -9.8305977017696403e-02 -1.3514934177706550e-02 1.1345327749752089e+01 6.6473010521860116e+00 -9.5344247952991736e+00 3.1987806044344161e+01 7.9784635979634366e-02 -4.9986620165845643e+00 -8.5212276080277292e+00 -4.4840261091068214e+00 5.3924870432258998e-01 -4.2606902921766912e+00 3.1274840257646153e+00 -6.7515747131843273e-03 -4.5105239391284453e+00 -7.0668239826076840e-02 3.9788927410126576e+00 2.5274603973091782e+01 2.3772459719490229e+00 -2.1178704937373087e+00 1.1970764614508267e-01 5.8430104835746747e+01 4.6827365205580591e+00 -7.7369587814710030e+00 -1.1234743120015533e-01 -2.7909520519640875e+01 4.2207493259406803e-01 6.7593704035050411e-02 6.1545456275377219e-02 6.1611700167967243e-03 7.1815807704873489e+00 -7.4515449133178482e+00 2.1363618295522429e+00 -4.8716652647954206e+01 -1.8840534889291050e-02 -3.4816966229429429e+00 -4.4363474752109902e+00 -4.2118712827829086e-01 -6.3665097292786799e-02 -8.8296395630779614e+00 2.5274327729484125e-01 1.5929662596042124e-01 -5.5625419541252198e-02 -8.9062674059572688e-02 -4.2174253115530309e+00 -9.8226744445883654e+00 5.0589949215543584e-01 -7.3418826952793497e+00 1.1552548841748855e-01 -2.0781013965169510e+00 -1.4128380506121552e+00 -1.0063423716980218e+01 3.3722343412268369e-01 -8.6170634644770274e+00 2.9639375534916672e+00 1.5050000614528125e-01 -4.3696821693218437e+00 -1.1879594251594591e-01 -3.4422081798199335e+00 2.1527660106435906e+01 3.1104671144689746e+00 1.1232034116484826e+01 2.0514620450111187e-01 -5.4741324266232013e+01 -6.1278395225617599e-01 5.3602751437256249e+00 -8.7961034377984471e-02 1.2704494104338415e-01 -1.7007088246692537e+00 -1.0409351062263311e-01 1.5285703905447461e+00 -1.9477869812607351e-02 1.7595060609474342e+00 -7.9832606335530087e-01 4.7484904664430276e+00 2.9834936602354127e+00 4.1426554225460349e-02 2.5371676945099821e+00 -9.3672963485207039e-01 
      </Row>
      <Row Index="33">
        -1.1247514512349062e+02 -4.2999332134231736e+00 3.3561194160076913e-01 -5.0714418375903904e+01 -1.1817707674658517e-01 -1.4633295433454796e+00 7.0371414426747020e-02 -2.2210473850710954e-02 2.2706264471425662e+01 -1.9015274490629718e+01 8.6941430390822916e+00 -1.4858875267582198e+02 1.5735196913490583e+00 -1.8269245862148171e+01 -6.8501866631198212e+00 -1.2042840263492280e+00 2.8779231277807753e+00 2.0037991770487515e+01 2.5534674931431278e-01 2.5914092473453900e+00 -7.3612138454315812e-01 -7.9082987371169888e-01 1.1999891003409061e+01 2.4767841981356604e+01 -1.9224299367229904e+01 -1.1056693839029609e+01 1.4314889581674684e-01 3.8224673595000894e+01 3.2158448095035332e+01 1.1127665226135434e+01 9.1062334692971270e-01 -3.2114062493769552e+01 6.7593704139504718e-02 2.9836751575151128e+00 3.3431056676409554e-02 6.3114729436906103e-02 8.5230611135535792e+00 -4.7862581808455369e+00 -1.1900429234261878e+01 4.1861226290864195e-01 -1.3628943326641849e+00 2.1810570019503814e+01 -1.6257770227581329e+01 3.3268265531863790e+00 6.6854111865665700e-02 -7.6969426833024229e+01 1.2854822092365439e-01 -1.0792994005426040e-01 2.3912519980309396e-02 -1.6010962137286078e-01 1.7471612800013681e+01 -8.5772339288161206e+00 -1.0697276403054275e+01 -7.3986786899314865e+01 8.4570044756601348e-02 6.0282842042355981e+01 -9.6076595603692354e+00 9.2065153762333125e+00 3.9026148867042343e+00 2.1835949309807035e+00 2.0824816854968758e-01 2.8882768581462366e+00 -6.3314001128683961e-01 -7.8934478928383334e-01 1.8315630707927667e+01 5.4639036155889777e+01 -8.6143433679643522e-01 1.7630162358372150e+01 6.7097115790689965e-01 5.6905798106798429e+00 4.8450208769523506e-01 -2.6891156310647681e+00 1.6869729614880502e+00 -2.5624494691919786e-01 -3.1211850423121601e-01 1.2254113540605218e+00 1.9764211897196673e-01 -4.6621480147068572e-02 -2.4176028099199487e-01 4.2601429781614542e+00 -5.1555410658267204e+00 -1.7524939486929181e-02 5.9371239206095561e-01 1.5125307414462199e+00 -8.2372528938144929e-01 
      </Row>
      <Row Index="34">
        5.5723370002146115e+00 -2.5089227184344054e+00 1.4511433139556418e-01 -4.6884064444639080e+00 -2.5719149136543962e-01 -8.9686762043931889e-02 -9.6790153045464511e-02 9.7859450338440013e-03 5.7536523352552500e+00 -6.7760991417158776e+00 -1.5276007168340584e+00 4.0995796252306933e+00 -9.5040903395125831e-02 -1.5683038818276039e+01 1.0634273000964001e-01 7.9393168102524214e-01 9.1644582738571706e-02 -2.0743222174398959e+01 -1.8853531644097226e+00 6.2109928796040315e-01 2.4919232003655107e+00 -1.2756935993165577e-01 -7.8095476379255899e+00 -8.5254452059530834e+00 -3.8248293644665523e+00 2.1945439206405712e+00 3.3924926172124292e-01 3.5332544407795758e+00 -2.7754491484791899e-01 -1.1208218398262488e+00 1.4966871693536277e-01 5.8200488002071262e+00 6.1545456318318703e-02 3.3431056781540958e-02 1.7961936249367305e-01 4.9327194562422960e-03 -2.8393611045260858e-01 -6.7507298408403293e-01 -3.1450919430089925e+00 -7.5702363638987453e+00 1.0245856460625546e-01 2.2623946459042319e+00 4.4449686137796087e+00 -1.4188848650067030e+00 2.4836508157363824e-02 2.7498613943889723e+00 -4.4868200698983750e-02 -4.6277774499524360e-05 1.0070872732082786e-01 -2.6787732306833775e-02 -3.0653464648751108e+00 9.6131612554244192e+00 -3.4687700961185328e+00 -1.2420880129875949e+01 2.0439671469139498e-02 -1.3006966130261407e+01 -1.4999586235117031e+01 2.1041274104720742e-01 1.7468159105107672e-01 -9.1215317740371464e+00 -1.9789875721918531e+00 6.2016053329812837e-01 2.3791464509230327e+00 -1.2650815380811520e-01 -9.7596071734902488e+00 -1.8842012160038211e+00 -9.1301948946866105e+00 -8.1742743181728965e+00 3.1423279340154409e-01 -4.2412407183792933e+00 -1.3916207790916957e-01 -4.2709349747537821e+00 2.0579155922812531e-01 -1.1632862473765382e-01 8.3166827658891851e-01 1.4762687800032112e-01 -8.5775120430552731e-01 -5.5406286109871417e-03 7.7995077905845100e-01 1.9285490720916698e+00 -8.5685532319815394e+00 -3.3477296054175207e+00 -3.0261436193252202e-02 1.7133388540304786e+00 4.2333351418357985e+00 
      </Row>
      <Row Index="35">
        5.1365585291075924e+00 -3.6906916398511385e+00 7.4777265632749279e-02 2.3611063392654614e+00 -3.3865044280299017e-03 -1.0509425861370136e-01 -3.3026812531482638e-02 1.2224575932904713e-02 -4.2616967303307840e+00 -5.8828648581960064e-01 -6.9757339607895119e-01 4.6662364470389328e+01 1.0007934846007771e-01 -2.8000981039121378e+00 3.2311180790754435e+01 -6.4860152926994488e+00 1.6688461311185357e-01 5.5566597893184149e+00 -7.8103770256982230e-02 1.0539201777265284e-01 5.7799315104222870e-02 -5.0747807365543185e-02 1.3057860477058121e+01 7.0127231201041234e+00 -1.5945011012051964e+00 2.3519977956204169e+01 -1.0288236351519509e-01 2.7748079793872456e+01 2.4051162201712174e+01 -3.3890640536719729e+00 5.3286397300631450e-02 9.6789872136493216e-01 6.1611699661126562e-03 6.3114729481499404e-02 4.9327195303732196e-03 2.0347387139037210e-01 -1.7918832484252101e+00 -7.9281508556098776e+00 -1.9002622668795084e+00 -8.6712110449819662e+00 -5.1396565370808389e-02 -4.3095552431995117e+00 2.1169167479669674e+01 -4.4657389841358963e+00 1.3372588342193126e-03 -9.1807431393758634e+00 3.5460455716555365e-03 2.3048767335751359e-02 -3.4239961228321736e-04 -2.7220512609541697e-01 5.7419233336812887e+00 -4.7000574270588373e+00 -8.6096790716601390e-01 7.8478383330406425e+00 2.5574098754049146e-02 1.2634798233928716e+01 -4.2324952060129341e+01 -2.1976359933046901e+00 1.9148685646225963e-01 1.6625037182893820e+01 -7.7595766157683710e-02 8.5190453384920650e-02 3.2544993479962703e-02 -1.7201654668182220e-01 8.5526493596521362e+00 7.2951115252528673e+00 5.3538785327782534e+00 -2.7030733508531089e+01 -5.4865236031723441e-02 -1.0493526132765183e+00 2.4358687322155248e-01 -4.6504184536436952e+00 8.5983017900747472e-02 -4.5209529335013876e-02 1.3828965002476212e-02 6.6053404094418899e-02 -5.6045502727870358e-03 -4.9543028932121480e-02 -1.0036969350651912e+00 2.7222694362327928e+00 5.0942064186359364e+00 -3.5241252990776006e-01 2.5795751717846524e-02 -1.2482698236521657e+00 -1.0710974701686787e+01 
      </Row>
      <Row Index="36">
        -1.2244768634833363e+03 -3.9819795401394367e+02 -2.8134767320603032e+01 -7.1650151971604209e+03 -8.8582069216886339e-01 3.4474525196622380e+01 2.7513992665511764e+00 -6.3945730711657234e-01 1.5583268520167991e+04 4.0952240415721380e+03 -2.3294233390921727e+02 -5.5932588230561596e+03 2.9616536276718307e+01 -2.5319871874345721e+04 8.5268602703375473e+02 6.9150630418548826e+02 -7.5286409883497285e+01 2.0210331403910322e+03 4.8676063773152009e+01 1.2612306288567197e+01 -6.8416290817403251e+01 1.3766295802070456e+01 -1.9393542237693226e+04 8.9551523262053433e+03 -3.0175932524504606e+02 1.2563260165078420e+03 -2.2201454331064596e+01 5.9281754328577681e+03 -2.8283401075322026e+03 -1.4499769142933656e+02 -2.3981304260716570e+01 -6.7163705250902676e+03 7.1815807655953492e+00 8.5230611671081427e+00 -2.8393609622344229e-01 -1.7918832508403284e+00 6.8332164089820162e+03 7.1189699392175589e+02 1.0694178722612560e+02 -1.2171886854727929e+04 -1.9798823611150510e+01 5.8164971333833801e+03 1.4805825417608189e+03 2.9302150705165695e+02 -1.6234222960800707e+01 -4.3313964869909396e+03 6.0525714419053358e+00 2.0813653270828418e+01 -4.0974060873452345e-01 9.6205522487858062e+00 -7.2156100005756070e+03 -5.1617866740142090e+03 -1.4975360459950753e+02 -4.1324754964682288e+03 2.7847717415388615e+00 -2.2484718791447158e+03 -2.6326313111179170e+03 -2.9854924748232770e+02 -1.0072537941670349e+02 -5.5875586837121846e+03 4.8751892713422379e+01 3.2176353497352906e+01 -6.3738098870581766e+01 1.8182514854672320e+01 -1.3271820073088942e+04 8.1361775401173327e+03 -3.0594371778294444e+03 2.2745114638621012e+03 -1.1692462554475242e+01 -3.4092229506846174e+03 -4.6242096497519651e+02 -8.3255498916859995e+02 -4.8795329853304224e+01 -9.0746742376068823e+01 -2.9481113038445713e+01 -5.3830064303830412e+01 2.2576068141804424e+01 1.5666320053132949e+00 2.6744462518075388e+03 -2.2681829698900219e+02 -2.3034255284539245e+03 1.0759152374710161e+03 8.8833933040049846e+00 3.7014759212855406e+03 1.4499985160598851e+03 
      </Row>
      <Row Index="37">
        -1.7226209471207540e+03 2.9166112921610475e+03 5.7579419419703697e+01 -8.5314736072970554e+03 1.0964279962420733e+01 -2.4485487967996050e+01 -2.7078627224399274e+00 -1.5343910045849043e+00 1.2383237756276926e+03 2.8202411747600277e+03 -3.0294978493452072e+02 2.0017554733769734e+03 -2.3774274233514006e+01 1.9881203590142832e+03 -4.3158090851466950e+03 -2.3412949117040262e+03 4.1562717336966742e+01 1.2062179646697585e+04 -5.3077925605232849e+01 1.2177374936879278e+02 2.7936005817411569e+01 1.5974022389657401e+01 -4.3714516202838277e+03 -9.4453269504483033e+03 -1.0398137874309439e+04 -4.3553347788421037e+04 -1.7749272395678950e+01 9.1389451653248761e+03 -1.8955331820659949e+03 7.8345784641709179e+02 6.0368856882683758e+01 -1.7596590192122385e+03 -7.4515447855625894e+00 -4.7862580191046700e+00 -6.7507302181911655e-01 -7.9281510971341049e+00 7.1189695888330778e+02 1.9796005147456290e+04 -5.1881448400840163e+03 6.8093477975368427e+04 1.4477161417860771e+01 -8.5917738392339743e+02 -2.0405707785880222e+03 3.4750183663610369e+02 1.6017916931323271e+01 -2.0351855676916894e+03 -3.9132491776345715e+00 -1.5285757810683627e+01 1.7677034620135146e+00 9.4794128620877416e+00 -4.7951760561254978e+03 1.2916684382331805e+04 -6.1247498863274232e+03 1.9404404459654335e+04 -5.7979278708007769e+00 -3.7968464999805605e+04 8.4091911054010870e+03 -7.6492000288367262e+03 9.3479275898851625e+01 4.0642241413005613e+03 -4.5910463589686984e+01 9.9275678785919581e+01 2.5224891292403669e+01 1.6677059109702441e+01 -5.8891064196783709e+03 1.6716085182196730e+04 -2.2409656172421761e+04 2.7202331535228877e+04 -2.4678860246911427e+01 -1.1109577428135502e+04 -2.7855210039551457e+02 -7.1792611403481760e+03 7.6930096512930504e+01 -1.2924509941301153e+01 2.3236926447534859e+01 3.1274857062644365e+01 -1.2706741832905635e+01 3.4461278574799508e+00 3.7358861498534316e+02 -8.1219811306727788e+03 -1.8751526019275614e+04 1.3214692355742566e+03 -8.1042590525334752e+00 -2.3473216079476697e+02 1.1053931264569206e+04 
      </Row>
      <Row Index="38">
        2.4949192052456156e+03 6.1381713064908981e+03 -4.4744800099609080e+01 -1.6367451014863327e+03 9.5717479075083247e+00 4.1742963785610300e+01 1.2300460071541288e+01 -1.4481386715051485e+00 -1.4593431119851609e+03 2.4027313027676046e+03 2.9298746122419834e+02 -2.0333567999505367e+03 1.8914695430936263e+01 -1.6828821798180898e+03 4.7653505758034416e+03 -2.8674844703003764e+03 5.5484476532296398e+01 1.7351203036428245e+02 9.9613029080393972e+01 -1.5354239939539548e+02 -8.4457151511000120e+01 4.3027392741876845e+01 -9.5258518976089545e+02 3.3933914507133595e+03 1.4899774197573075e+04 1.3341105171557394e+04 -1.8156597254546938e+00 -5.3917211586799249e+03 -7.1746629201738442e+03 -2.1809145048866048e+03 -1.0925188623441500e+01 -4.0351882099178620e+03 2.1363616620118933e+00 -1.1900429546661348e+01 -3.1450919551716652e+00 -1.9002618154190714e+00 1.0694183912780136e+02 -5.1881450546052411e+03 1.3896503604875877e+04 3.3514061546416710e+03 -5.2923638653883245e+00 1.1236501068435629e+04 -3.7773535112669324e+03 1.4203538595121354e+03 1.3128279744729298e+01 1.0283346568176989e+04 3.7057265701333026e+00 -1.1492488778363970e+01 -5.4847634898793558e+00 3.6301805378170094e+01 9.7606668978454422e+02 -1.6616515463655451e+04 9.3934639849383384e+03 -2.9978554975379548e+03 -1.1182532022976375e+00 1.1964642055404720e+04 -6.9966079848770614e+03 -2.4259839478515842e+03 3.5225837701521954e+01 1.7754801422063333e+03 1.0350952442356520e+02 -1.3590358199115011e+02 -7.5507178823221139e+01 6.1135178354060372e+01 -2.7558306320906320e+02 -2.1118384668280647e+04 3.2569285232257098e+04 -1.9049304771371484e+04 4.1263736715900450e+00 1.1367561529999424e+04 3.0706002356151293e+02 1.5424970553210185e+04 -3.4948935376809004e+01 2.8861360057858735e+02 -3.3941014370433699e+01 -3.1843024034387916e+01 2.8718353722990628e+01 5.1911468749794949e+00 -1.9004252089336660e+02 3.3933984110192396e+03 3.0256745790284811e+04 1.2882747463667615e+03 1.9467640203355341e+00 -9.8514507625927217e+02 -1.3969163037969271e+04 
      </Row>
      <Row Index="39">
        -1.3933661592668068e+02 1.4297268047928810e+04 2.5991368609001813e+02 -6.3155400965429610e+04 4.0658388292186373e+01 -1.3192300741219196e+02 2.0504337707109386e+01 2.1844464101752237e+01 -2.0430685601255296e+04 4.2150180936244578e+03 1.6023259328845888e+03 1.3064749091449127e+05 -9.8177447062609644e+01 -3.5052049053690716e+04 -3.5433136872700707e+04 -9.0219546016175300e+03 2.5375889382816439e+02 -4.8412755876038915e+04 -2.6619541142217440e+02 1.1499212647831882e+00 2.9571183702724920e+02 -1.4630288080204502e+02 2.1944736666486628e+04 -6.6486236389262849e+03 -1.1673783201683545e+02 -1.0575162948646420e+05 -1.1522262000809974e+02 5.5020078606161514e+04 -8.7317445199972062e+03 1.2158334082835354e+03 1.9429377921330160e+02 -1.0095474094926985e+05 -4.8716652588991337e+01 4.1861204189887147e-01 -7.5702365615361487e+00 -8.6712107224302599e+00 -1.2171886874949414e+04 6.8093477427333186e+04 3.3514068903662264e+03 6.6408286153213040e+05 3.2830747914653330e+01 -6.6008217329135368e+04 -8.3615126064307406e+03 3.8984459707364440e+03 9.7183639485265303e+01 6.5311493037926382e+04 -2.8227014100571978e+01 -1.2416741498937358e+02 4.0286833999792293e+00 4.0540198412536711e+01 6.5901128938828770e+03 6.0206653102375858e+03 6.8469729787576944e+02 -5.2802436717954581e+04 -1.4544915006534211e+01 -2.1961183105122509e+04 -6.0430363664143460e+03 -1.5230135278852715e+04 4.8198011908171122e+02 -8.1719504313975165e+04 -2.4144154822520846e+02 -1.0247392038537492e+02 2.9792304242533532e+02 -1.0733573892841423e+02 1.2933166073826029e+04 2.3780034978925847e+04 1.6444229684229940e+04 1.7792850005322407e+05 -1.4286103109303622e+02 2.7204958946288552e+04 2.8355396852962476e+03 8.8915733693544844e+03 3.1243976893591480e+02 4.2287579104899942e+03 1.5567698135059712e+02 2.0438493106914962e+02 -1.1585980214489938e+02 1.2085451275270543e+01 -3.4458994967258241e+03 -2.4807135713237119e+04 1.4602355391870296e+04 1.4050657103377733e+04 -2.5172652532468547e+01 -1.0370413154028938e+04 -5.4210612607578923e+03 
      </Row>
      <Row Index="40">
        5.1273236790565683e+01 2.6079987101475126e+00 -3.2516434761195734e-01 4.8095459379836029e+01 -4.5380720063530333e-03 -2.4518113092487548e-01 -1.5619469310455492e-01 -1.0634392685279437e-02 -2.0588334151323604e+01 -2.7963468113875447e+01 4.7924315621821734e+00 3.1356174437983029e+01 -2.1777773280791779e+00 -2.3238069113956577e+01 -5.3518727944239384e+00 -1.1326172960439180e+00 1.4038938020355749e+00 1.6413430593368041e+01 -1.7854936005045343e+00 1.3842809526573436e+00 1.5390822236213255e+00 3.0761551461095415e-01 2.0860110675019499e+01 -4.8734175618356758e+01 -5.6659389684357961e+00 3.1594771108473148e+00 1.8625132576710063e-01 3.6274514839589237e+01 1.0321539591802377e+01 2.3964733553816586e+00 7.5511691735427178e-01 1.1869568981507291e+02 -1.8840534913421692e-02 -1.3628943327815939e+00 1.0245856459366465e-01 -5.1396565287149087e-02 -1.9798823596661492e+01 1.4477161355328894e+01 -5.2923638385946106e+00 3.2830747704668461e+01 2.3789565247152140e+00 -1.6280440809095797e+01 1.8069800027861664e+01 -2.2755456167128614e+00 1.2792134756571816e-01 -1.8685818004907901e+01 -1.3233620453751094e-01 -1.4553521129498037e-01 4.6813327182828601e-02 -3.1377846665522097e-02 -1.6608594857195030e+01 6.6467569302009409e+01 -5.3834568312577176e+00 4.8587722877983161e+01 -8.0483299383091733e-02 -1.1414844584653986e+02 3.2266217441612767e+01 3.9498468158107993e+00 1.1772765443077666e+00 4.6122600595776099e+01 -1.7414946958981157e+00 1.4084583460169282e+00 1.3896396116949841e+00 2.2806425013380283e-01 -2.6885571391685659e+00 -2.0482604450556948e+01 1.6953940770042209e+01 1.1406658230742712e+00 -1.5315440739248931e-01 -2.2370918435046107e+01 -2.2277926341943584e+00 3.3714842698916043e+00 5.1544247579158831e-01 -2.7052045646367078e+00 7.0159014309929846e-01 1.2455596003081755e+00 -5.8067014251731630e-01 7.4905975335868291e-03 -1.3608752939770286e+00 2.7845968005208022e-01 1.0123214990078738e+01 -1.5440427754121155e+01 -8.3827269566384366e-01 1.7882028454135721e+00 -6.0446125256326759e+00 
      </Row>
      <Row Index="41">
        -2.6587252627265349e+04 -6.4384065780043602e+02 -1.5031123216633102e+02 -1.4066199243426323e+04 2.1039059696840923e+01 9.9453490660373063e+01 1.9945881503605698e+01 -1.3113585825180053e+01 -3.1044210467243625e+04 5.7033335092666130e+03 2.7359297466874123e+03 -4.4671665391829622e+04 7.9093583123187273e+01 1.4023073314114142e+05 3.4643788325573420e+04 -4.0279181469306350e+03 1.2125631084153810e+01 -2.8072071780904524e+04 -2.2540364301811496e+02 2.0710770428953765e+02 8.0304825317056384e+01 6.4763552140130059e+01 2.2573538209047518e+04 3.5303016192975105e+04 -5.9198715330129489e+03 3.0237171916438620e+04 -1.5678779784770435e+02 -4.8220958585824024e+04 -1.8710793899785604e+04 -7.9013538471795619e+02 3.5123853048149613e+01 -1.5059797822745517e+04 -3.4816964585015739e+00 2.1810570397061383e+01 2.2623946488165529e+00 -4.3095556907937862e+00 5.8164970542002702e+03 -8.5917720320300396e+02 1.1236501151952893e+04 -6.6008216367424946e+04 -1.6280440729926340e+01 1.9902183606490697e+05 2.8917604867282913e+04 -1.9830542458686978e+03 -1.7935440172637755e+01 -4.1913958096879534e+04 9.1764998678445409e+00 1.3196891614466949e+02 1.1497767906516401e+01 2.6437125471014440e+01 2.6759749662135628e+03 -3.9935749094421612e+04 2.3833005045149475e+03 -3.0805344198966319e+04 -2.9256465562575613e+00 -6.0751390690955508e+04 -5.5004078572282277e+04 -1.2799373961402234e+04 -4.7905922740185702e+01 -5.0176871627791828e+04 -1.9507558589350455e+02 3.3548947737789825e+02 9.7045602500521795e+01 7.6370442747073866e+01 1.3539231637602539e+04 6.8872498947793138e+03 -6.1380925899088383e+04 -2.4495422280818697e+04 -1.1566966963675077e+02 7.0921787065609926e+04 -3.6953492966748890e+03 -1.7916080297358028e+04 -5.0458437167142165e+01 -1.1509850908434673e+03 3.6090604925297953e+01 -1.3475370608469083e+02 -5.4089666700147291e+01 -2.4311232429181473e+00 -4.2074244859132195e+03 9.4519109351352090e+03 -3.8821719892859212e+04 2.6630376046935594e+03 5.8974007417842671e+00 -1.1446048690160678e+03 2.1621942917444565e+04 
      </Row>
      <Row Index="42">
        -5.9611185385473931e+04 -6.8022430902868509e+03 -5.1964667865014434e+01 -3.4758494400591124e+04 -9.4440937109779952e+00 -8.2902972133367257e+01 -1.1429519475883410e+01 -6.1086257183706039e+01 5.6784254798315396e+03 -4.2779959943462800e+03 -4.2882124615088105e+02 -4.3808746774327246e+03 -1.5629611275217030e+00 3.6577494737450616e+04 -1.1369178444602649e+05 -5.2470329408776015e+03 -2.1397847726783461e+01 -8.0716470252428553e+02 -3.2761517406288840e+02 5.7398905121743155e+01 3.1930930094721589e+02 7.5406271756657262e+01 2.1224769863275287e+03 6.4649264632720297e+03 -3.6800501165023306e+03 -7.7729062066682964e+03 -2.2724899720861174e+01 1.4788262890324702e+04 -6.9089455222485878e+04 -4.2907009565266781e+03 -7.6487354523051181e+00 -2.8698166907150764e+04 -4.4363474956398932e+00 -1.6257770301148412e+01 4.4449685636245704e+00 2.1169167722226121e+01 1.4805825524366228e+03 -2.0405708904873409e+03 -3.7773535010330379e+03 -8.3615129009628490e+03 1.8069799995755602e+01 2.8917604802641668e+04 8.9756238287718617e+05 -1.2605893394853920e+03 3.0380651069081068e+00 7.2993301033895696e+03 -9.5390359558241471e+00 3.5728113782088258e+00 8.8685458323315629e+00 -9.4476835441106857e+01 3.7805121781646931e+03 7.3460924361968337e+03 -4.0164430163269863e+03 -4.2340996539202803e+04 5.7639090248994762e+00 2.4829028108782208e+04 1.2035539168585840e+05 4.1465693352444941e+03 -8.7902992000508789e+01 3.3919809717316020e+04 -3.2405975874930454e+02 3.9368189544184133e+01 3.0109462581695038e+02 6.2437426735091321e+00 2.9606218335500489e+03 1.9565100464226933e+04 1.7942568989923690e+04 -3.2159945743760363e+03 -1.2764466266499767e+01 1.9473695588726965e+04 8.4009694548981861e+02 4.7187423815907787e+03 -6.5656307196423768e+01 2.5310912889946903e+03 1.1307194123229255e+02 5.3829323880226283e+01 -1.1640157381506521e+02 -3.1020188802215216e+01 1.9147030892032399e+02 4.1552520451298915e+02 1.2658964544315173e+04 -1.1153948286185032e+03 -3.7685477757322587e+00 3.2429843677620447e+03 -8.7320909144676953e+03 
      </Row>
      <Row Index="43">
        2.9759047694428727e+02 2.2320960274860263e+03 3.3579503239144927e+01 -3.1891662279022858e+03 1.6297304949687259e+00 1.8124971189817188e+01 9.0638101872622290e-01 1.3574632052004745e+00 1.1833965105623852e+03 -2.4450999910934024e+02 3.6618527570180595e+02 -4.3207859747538296e+03 1.7986499036160239e+00 -4.9251255537497364e+03 4.0016227376836559e+03 1.3689367710202932e+03 2.8643920773249246e+01 2.7043482797329989e+03 1.5940733959921999e+01 -3.1012824500195165e+01 -1.8966419675052748e-03 1.6451171579544294e+01 -1.7808382728125725e+03 1.3909812458818742e+03 1.8577863345799269e+03 8.1992768928150417e+02 1.9160626593671850e+00 -9.7460180816864022e+02 -3.2484110449047676e+03 9.7737801183527336e+02 2.4965374138035259e+01 -1.9101072743483819e+03 -4.2118709507695939e-01 3.3268264233474838e+00 -1.4188849637084786e+00 -4.4657388653140515e+00 2.9302151062796474e+02 3.4750152629935297e+02 1.4203543280381709e+03 3.8984460956619587e+03 -2.2755455331971461e+00 -1.9830547570073450e+03 -1.2605891085754222e+03 2.8932723059398122e+03 5.9352755018262542e+00 4.0546511369268410e+03 1.0226485021121334e-01 -7.6477948373867548e+00 -1.7402894023914257e+00 3.2337029713445958e+01 -1.0038520898408358e+03 -2.8135283045074134e+03 1.7608759961621836e+03 -5.9944838347473378e+03 -1.6389749908685189e+00 -7.3563434587361462e+02 -3.2266976898495159e+03 1.8320112937942358e+03 5.2144044995155127e+01 2.6911241600888643e+03 1.5152398396878512e+01 -2.4521017352808798e+01 -1.4060084423858736e+00 3.7002661233560730e+01 -1.8285802981852030e+03 -1.8166972362790852e+03 3.9565950023706537e+03 -3.4758418489766991e+03 9.5518526803880377e-01 -6.8302700105347840e+03 1.9557251204794920e+02 8.0436978716504091e+03 3.6343938023284636e+01 1.3378751340105737e+02 -2.2073236214323724e+00 -9.3379544667141161e+00 1.1536677321450810e+00 5.0994914601828896e+00 2.2962833030618913e+02 -1.7120659401192825e+02 3.4471028771778110e+03 4.3982941588588659e+02 4.0443531284131495e-01 1.0961288853263977e+02 4.6613002364647618e+03 
      </Row>
      <Row Index="44">
