<?xml version="1.0"?>
<MethodSetup Method="MLP::MLPTuned">
  <GeneralInfo>
    <Info name="TMVA Release" value="4.1.2 [262402]"/>
    <Info name="ROOT Release" value="5.32/00 [335872]"/>
    <Info name="Creator" value="ineuteli"/>
    <Info name="Date" value="Thu Nov 12 18:46:19 2015"/>
    <Info name="Host" value="Linux cmsdev02.cern.ch 2.6.32-431.11.2.el6.x86_64 #1 SMP Wed Mar 26 09:39:43 CET 2014 x86_64 x86_64 x86_64 GNU/Linux"/>
    <Info name="Dir" value="/shome/ineuteli/phase2/CMSSW_5_3_24/src/Delphes/plots"/>
    <Info name="Training events" value="22899"/>
    <Info name="TrainingTime" value="3.03256508e+02"/>
    <Info name="AnalysisType" value="Classification"/>
  </GeneralInfo>
  <Options>
    <Option name="NCycles" modified="No">500</Option>
    <Option name="HiddenLayers" modified="Yes">N+10</Option>
    <Option name="NeuronType" modified="Yes">tanh</Option>
    <Option name="RandomSeed" modified="No">1</Option>
    <Option name="EstimatorType" modified="No">MSE</Option>
    <Option name="NeuronInputType" modified="No">sum</Option>
    <Option name="V" modified="Yes">False</Option>
    <Option name="VerbosityLevel" modified="No">Default</Option>
    <Option name="VarTransform" modified="Yes">N</Option>
    <Option name="H" modified="Yes">False</Option>
    <Option name="CreateMVAPdfs" modified="No">False</Option>
    <Option name="IgnoreNegWeightsInTraining" modified="No">False</Option>
    <Option name="TrainingMethod" modified="No">BP</Option>
    <Option name="LearningRate" modified="No">2.000000e-02</Option>
    <Option name="DecayRate" modified="No">1.000000e-02</Option>
    <Option name="TestRate" modified="No">10</Option>
    <Option name="EpochMonitoring" modified="No">False</Option>
    <Option name="Sampling" modified="No">1.000000e+00</Option>
    <Option name="SamplingEpoch" modified="No">1.000000e+00</Option>
    <Option name="SamplingImportance" modified="No">1.000000e+00</Option>
    <Option name="SamplingTraining" modified="No">True</Option>
    <Option name="SamplingTesting" modified="No">False</Option>
    <Option name="ResetStep" modified="No">50</Option>
    <Option name="Tau" modified="No">3.000000e+00</Option>
    <Option name="BPMode" modified="No">sequential</Option>
    <Option name="BatchSize" modified="No">-1</Option>
    <Option name="ConvergenceImprove" modified="No">1.000000e-30</Option>
    <Option name="ConvergenceTests" modified="No">-1</Option>
    <Option name="UseRegulator" modified="Yes">True</Option>
    <Option name="UpdateLimit" modified="No">10000</Option>
    <Option name="CalculateErrors" modified="No">False</Option>
    <Option name="WeightRange" modified="No">1.000000e+00</Option>
  </Options>
  <Variables NVar="6">
    <Variable VarIndex="0" Expression="DeltaR_j1l" Label="DeltaR_j1l" Title="DeltaR_j1l" Unit="" Internal="DeltaR_j1l" Type="F" Min="3.09844941e-01" Max="5.21059179e+00"/>
    <Variable VarIndex="1" Expression="DeltaR_j2l" Label="DeltaR_j2l" Title="DeltaR_j2l" Unit="" Internal="DeltaR_j2l" Type="F" Min="4.10064459e-01" Max="5.79336691e+00"/>
    <Variable VarIndex="2" Expression="DeltaR_b1l" Label="DeltaR_b1l" Title="DeltaR_b1l" Unit="" Internal="DeltaR_b1l" Type="F" Min="3.53569627e-01" Max="4.68913269e+00"/>
    <Variable VarIndex="3" Expression="DeltaR_b2l" Label="DeltaR_b2l" Title="DeltaR_b2l" Unit="" Internal="DeltaR_b2l" Type="F" Min="4.23246354e-01" Max="1.02169098e+03"/>
    <Variable VarIndex="4" Expression="DeltaR_bb1" Label="DeltaR_bb1" Title="DeltaR_bb1" Unit="" Internal="DeltaR_bb1" Type="F" Min="2.67539859e-01" Max="5.43578577e+00"/>
    <Variable VarIndex="5" Expression="M_bb_closest" Label="M_bb_closest" Title="M_bb_closest" Unit="" Internal="M_bb_closest" Type="F" Min="1.14437885e+01" Max="3.20542749e+03"/>
  </Variables>
  <Spectators NSpec="0"/>
  <Classes NClass="2">
    <Class Name="Signal" Index="0"/>
    <Class Name="Background" Index="1"/>
  </Classes>
  <Transformations NTransformations="1">
    <Transform Name="Normalize">
      <Selection>
        <Input NInputs="6">
          <Input Type="Variable" Label="DeltaR_j1l" Expression="DeltaR_j1l"/>
          <Input Type="Variable" Label="DeltaR_j2l" Expression="DeltaR_j2l"/>
          <Input Type="Variable" Label="DeltaR_b1l" Expression="DeltaR_b1l"/>
          <Input Type="Variable" Label="DeltaR_b2l" Expression="DeltaR_b2l"/>
          <Input Type="Variable" Label="DeltaR_bb1" Expression="DeltaR_bb1"/>
          <Input Type="Variable" Label="M_bb_closest" Expression="M_bb_closest"/>
        </Input>
        <Output NOutputs="6">
          <Output Type="Variable" Label="DeltaR_j1l" Expression="DeltaR_j1l"/>
          <Output Type="Variable" Label="DeltaR_j2l" Expression="DeltaR_j2l"/>
          <Output Type="Variable" Label="DeltaR_b1l" Expression="DeltaR_b1l"/>
          <Output Type="Variable" Label="DeltaR_b2l" Expression="DeltaR_b2l"/>
          <Output Type="Variable" Label="DeltaR_bb1" Expression="DeltaR_bb1"/>
          <Output Type="Variable" Label="M_bb_closest" Expression="M_bb_closest"/>
        </Output>
      </Selection>
      <Class ClassIndex="0">
        <Ranges>
          <Range Index="0" Min="3.0984494090080261e-01" Max="5.1665468215942383e+00"/>
          <Range Index="1" Min="4.1006445884704590e-01" Max="5.7657613754272461e+00"/>
          <Range Index="2" Min="3.5356962680816650e-01" Max="4.6891326904296875e+00"/>
          <Range Index="3" Min="6.4417284727096558e-01" Max="1.0216909790039062e+03"/>
          <Range Index="4" Min="3.2983815670013428e-01" Max="4.8955993652343750e+00"/>
          <Range Index="5" Min="1.3509715080261230e+01" Max="1.8837241210937500e+03"/>
        </Ranges>
      </Class>
      <Class ClassIndex="1">
        <Ranges>
          <Range Index="0" Min="3.3140322566032410e-01" Max="5.2105917930603027e+00"/>
          <Range Index="1" Min="5.1555430889129639e-01" Max="5.7933669090270996e+00"/>
          <Range Index="2" Min="3.7560096383094788e-01" Max="4.3864507675170898e+00"/>
          <Range Index="3" Min="4.2324635386466980e-01" Max="6.1416717529296875e+02"/>
          <Range Index="4" Min="2.6753985881805420e-01" Max="5.4357857704162598e+00"/>
          <Range Index="5" Min="1.1443788528442383e+01" Max="3.2054274902343750e+03"/>
        </Ranges>
      </Class>
      <Class ClassIndex="2">
        <Ranges>
          <Range Index="0" Min="3.0984494090080261e-01" Max="5.2105917930603027e+00"/>
          <Range Index="1" Min="4.1006445884704590e-01" Max="5.7933669090270996e+00"/>
          <Range Index="2" Min="3.5356962680816650e-01" Max="4.6891326904296875e+00"/>
          <Range Index="3" Min="4.2324635386466980e-01" Max="1.0216909790039062e+03"/>
          <Range Index="4" Min="2.6753985881805420e-01" Max="5.4357857704162598e+00"/>
          <Range Index="5" Min="1.1443788528442383e+01" Max="3.2054274902343750e+03"/>
        </Ranges>
      </Class>
    </Transform>
  </Transformations>
  <MVAPdfs/>
  <Weights>
    <Layout NLayers="3">
      <Layer Index="0" NNeurons="7">
        <Neuron NSynapses="16">
          -1.7109759239124880e-01 1.9811488266905277e+00 8.1208314452120389e-01 -8.7363318803042167e-01 1.0117434142228743e-01 -2.8236186725410750e-01 -1.5504567236255767e-01 1.4414196358404716e+00 -9.3759755705745584e-01 -1.0548569207399152e+00 -1.3567190265328621e+00 -3.7603514854721052e+00 -1.6093476647476908e-02 1.2971063607439084e-01 -2.1152308088988439e-01 -1.0148359815779666e-01 
        </Neuron>
        <Neuron NSynapses="16">
          -2.6945667959284897e-01 1.7473411472424649e+00 1.3961977924500682e-01 1.5194678252283471e+00 -3.2610355395144486e-01 3.5321643073069142e-01 2.0454433516336257e-01 2.5596986133573546e-01 -1.1119442378236428e+00 -2.2975195439493892e-01 1.1935140373310140e+00 -1.6766386001646769e-01 -1.9787211349095883e+00 -2.8683968857856082e-02 1.9038434145958777e-01 1.5444752318903532e-01 
        </Neuron>
        <Neuron NSynapses="16">
          -3.5767481774076448e-01 -1.8748766450823648e-01 2.4484318872197935e-01 -2.5860367753043556e-01 -1.0373822375959036e+00 1.1394482499142999e+00 -6.3072784048389577e-02 5.2212851982307495e-01 4.7562240136810141e-01 9.0136233374348018e-01 7.8576177746475007e-01 1.0485884622858561e+00 -2.9311223605710746e-01 -1.7390913575684428e+00 1.6793710178003199e-01 -4.7801069542636167e-02 
        </Neuron>
        <Neuron NSynapses="16">
          1.7370535912383418e+00 1.4011186398119553e+00 1.5359589883860818e+00 7.7625795660459163e-01 -2.5436320292484140e+00 4.2311907504392963e+00 -1.2485298065528501e+00 -4.4400291537751002e-01 -1.7028348209928166e+00 -1.7149515670937114e+00 7.0799826523089249e-01 1.0286195105467764e+00 -8.8277608723174250e-01 1.3452677125044019e+00 -7.1792634504360342e-01 1.3755531439950008e-01 
        </Neuron>
        <Neuron NSynapses="16">
          1.6074236825993018e+00 -3.5705239303320691e-01 1.2773153314789140e-01 -1.1325923803027443e-01 3.1463690973717959e+00 -4.0172465443445384e+00 -3.0779514278783610e-01 7.5705016643278666e-02 6.4492790629862284e-01 1.1597367473385105e+00 6.1444194622976767e-01 -8.3301892020808410e-01 -1.4073675985002805e+00 -1.7419453759833503e+00 4.7155655736575219e-01 -1.4745798157399634e-01 
        </Neuron>
        <Neuron NSynapses="16">
          2.0864646252086594e+00 5.8641518082624433e-01 9.9115160913778033e-01 -6.7675621441373868e-01 -1.4889152198096651e+00 -6.0546570622826792e+00 1.6836496268406829e+00 2.6258608082818402e-01 -1.4940615890800306e+00 -1.6687340391185375e+00 -8.5480054313608422e-01 5.4003941479372797e-01 1.5516691076621059e+00 -1.3554252255195509e+00 -1.0509983854967233e+00 9.1764809025235061e-01 
        </Neuron>
        <Neuron NSynapses="16">
          -1.0796158077654370e+00 -1.4579972724818235e+00 -1.4198832672523662e+00 6.4710639465246700e-01 -1.8338201805844072e+00 -4.5083882381826035e+00 1.0187979246860734e-01 1.4967335643147888e+00 -7.2767640776545628e-01 1.5945614350594031e+00 -2.1785738681726435e-01 -1.5229047775579847e+00 -2.5371464405432653e-01 -9.2597423476743501e-01 -1.5135756526838444e+00 9.1062638743826230e-01 
        </Neuron>
      </Layer>
      <Layer Index="1" NNeurons="17">
        <Neuron NSynapses="1">
          -2.7918893058503302e-01 
        </Neuron>
        <Neuron NSynapses="1">
          1.7726745364096116e-02 
        </Neuron>
        <Neuron NSynapses="1">
          -1.7378654716803941e+00 
        </Neuron>
        <Neuron NSynapses="1">
          -2.9227290890865792e-01 
        </Neuron>
        <Neuron NSynapses="1">
          -1.3515751797462303e+00 
        </Neuron>
        <Neuron NSynapses="1">
          -1.1476379236222565e+00 
        </Neuron>
        <Neuron NSynapses="1">
          8.8207685630914967e-02 
        </Neuron>
        <Neuron NSynapses="1">
          -1.7831161297692349e-01 
        </Neuron>
        <Neuron NSynapses="1">
          -1.7189952613927509e-01 
        </Neuron>
        <Neuron NSynapses="1">
          4.7779897398920618e-01 
        </Neuron>
        <Neuron NSynapses="1">
          5.4716985188090872e-02 
        </Neuron>
        <Neuron NSynapses="1">
          2.7300453157408616e-01 
        </Neuron>
        <Neuron NSynapses="1">
          -1.2810403597292994e-01 
        </Neuron>
        <Neuron NSynapses="1">
          1.7657306484962401e-01 
        </Neuron>
        <Neuron NSynapses="1">
          2.8787903887383581e-01 
        </Neuron>
        <Neuron NSynapses="1">
          -5.0161850572048070e-02 
        </Neuron>
        <Neuron NSynapses="1">
          -1.4846569470565893e+00 
        </Neuron>
      </Layer>
      <Layer Index="2" NNeurons="1">
        <Neuron NSynapses="0"/>
      </Layer>
    </Layout>
    <InverseHessian NElements="16641" NRows="129" NCols="129">
      <Row Index="0">
        2.0579675758436882e+04 7.2638782454529621e+02 -5.2233272228983765e+02 7.4952339780254249e+01 -5.1018865124799575e+00 -2.1251604476099040e-01 -1.5777146130244839e+03 -1.4658510717266324e+02 -2.0391923898713941e+02 -1.3814329908330669e+03 -2.9764697941876642e+02 8.4681189838587638e+00 -3.0626424747193116e+01 -1.4481669717831458e+01 -8.2121391413170750e+02 6.1281392896272064e+02 -1.2447290160006418e+04 -4.7588678365084224e+03 8.0833600988503358e+03 -6.2204560679077147e+01 2.4244822030539184e+00 -1.3718969895096733e-01 9.1276635204936758e+02 -3.8953079683321995e+01 1.8307533912799047e+02 2.2744313143144100e+03 1.9637580393283059e+02 3.7265821688320688e+00 -5.3117058423245069e+01 9.1466022803085316e+00 1.0220227847538750e+03 -3.6217980419514861e+03 3.6101862769446439e+02 5.0177220566912565e+03 -2.5265090900868781e+03 4.6555698820446310e+01 9.7572054070873981e-01 -1.2540515136873860e+00 7.3713069279408546e+02 -6.9713540045742633e+01 -3.1239370268406844e+02 -9.3781398959564649e+02 2.2216902763985132e+02 -1.6857548673628597e+00 -2.1873932614761731e+01 -2.1285663980547600e+01 1.4191587469177080e+02 -1.0692814959463881e+03 -1.8188941346352169e+03 -1.7084426946060994e+03 -5.1007125964838860e+03 3.2755933965408985e+02 2.8129721534472418e-01 2.5622143111348279e+01 -4.9978203916030475e+02 2.3203218751350775e+01 -2.7305207649403337e+02 -3.1640382158437951e+03 3.4332786222892139e+01 -4.2279358714861246e+00 -8.2032456063259247e+01 1.4688303469334340e+02 -2.8186720463452332e+02 2.3627752584482168e+03 2.0051242954962288e+03 2.7225747451768675e+03 -5.2361105499688520e+03 1.1861616147354095e+01 -6.2796420368418921e+00 -5.5683569418754253e-01 1.6439861449271064e+03 5.0624312494389034e+00 -2.3687714349378874e+02 4.2852926458715206e+02 2.4739011475901350e+01 -3.4794074779771109e+00 -4.8044853436460890e+01 -1.4761266379041167e+01 4.5741404308870597e+02 -2.4843824423224069e+03 7.9826080484502074e+02 -1.1117960343978984e+03 -1.6254153348193024e+04 1.2168993247726931e+02 -3.4204780334038063e+01 -2.8236387983159034e+01 -2.1954202681986421e+03 8.4415512622471560e+00 3.2040143391949448e+02 -5.2090262963833084e+02 -8.5702016568240742e+02 1.0479025481861893e+01 6.2816195349989812e+01 -9.2883655668751146e+01 9.6809686959483395e+02 9.9070696974348994e+02 2.0583578441326299e+03 2.0770269177526643e+03 -1.2117307447705358e+04 4.8904074851469636e+02 -3.8400789750516935e+01 -3.4964236480002455e+00 -1.5454294265480326e+03 -1.2483069863203356e+02 1.7910741454086860e+01 -1.4538423544705147e+03 -7.9210665738489320e+02 9.1287274863673087e+00 -7.3371087720324084e+01 4.2985836339439913e+01 5.4447401282340047e+02 3.1499308530937633e+03 -2.0150413698141792e+03 3.8282805021109205e+01 3.5111714698219762e+03 -3.5023750241165011e+01 7.3996400411822538e+00 7.8590612101898838e+00 2.3037749186280971e+02 -4.8285260821578007e+01 -1.6687156091763131e+02 1.6685030703764144e+03 -4.1847499071230168e+01 1.5926406146481979e+00 1.1947478737397082e+01 -6.5451368880958380e+00 -1.2178401940505219e+03 -1.8552161568134713e+03 1.6816817026001357e+02 
      </Row>
      <Row Index="1">
        7.2638801347885965e+02 3.3482173810038343e+05 1.2746698093124352e+04 5.5437519527799282e+00 -7.5498105408420002e-01 6.3804233502055563e-01 -1.2914248095775729e+03 -1.5750239904312281e+01 -4.4268483790361570e+03 -4.6553023844345153e+04 -2.9593149224054235e+02 -2.7732505674805140e+01 -1.2000597851471780e+02 -9.7015171146011205e+00 -1.4417992004206462e+03 2.8806917603218062e+02 -9.2740859028511968e+03 1.4985678430382817e+05 -9.2437625940104535e+03 4.1531765526151219e+01 -2.4429743384121219e-01 1.0532344055317371e+00 -1.2082831017978961e+03 -4.6032898577276148e+02 -5.1662395645401821e+03 1.5963165145507768e+04 3.5401686500441423e+02 1.0946019669779426e+01 -6.4936454932712934e+01 1.4335871563371295e+01 6.4078463485395901e+02 -7.0561059462874418e+03 -1.3941779391350246e+02 1.9391847792743545e+04 3.1905420156310047e+03 2.5235899325101954e+01 -5.0855939548518247e-01 1.7895310772910022e+00 -1.1657411141889725e+01 -5.4144903626360673e+01 -5.3649220424238965e+03 -9.6582901952310167e+03 1.0181741353914788e+02 1.2735703028521421e+01 5.2529239155046106e+01 4.0366035124158365e+01 2.9298520559033409e+02 -5.7874975747931967e+03 4.5579112507424525e+03 1.2432804147423067e+05 1.1873822652098999e+04 -6.8100063267089365e+02 2.9387751966267700e+01 -1.3234592333363342e+01 8.0091568911252498e+03 -1.8803612041849631e+03 5.5460084458171523e+03 -1.7629848261627827e+04 5.1741920980024588e+01 -3.3895750577678029e+01 -1.4722384872828193e+03 -2.4975966927233389e+02 -3.2310596634491817e+03 1.0801332184928078e+04 5.1341653135684319e+03 -7.7950266182746218e+03 3.9762758368148725e+03 -5.5894461056947641e+01 8.0234424630470187e+00 -5.3928089439028692e+00 7.5689100850081263e+02 -1.2419464239984615e+02 -6.9561775306963555e+03 1.2701411818397981e+04 1.0946396248846372e+02 6.4510711852950644e+00 9.3353198775464918e+01 4.3762622265649014e+01 1.2140606313754618e+03 -1.1667996139064719e+04 -2.1334282416731804e+02 -1.2092060149634064e+04 1.2772756909202548e+04 2.7032911504597575e+02 -1.2223618608530948e+01 -2.6579928015837186e+01 -2.7744109360754228e+03 4.0859255081948425e+02 1.8250112783454402e+04 5.0051639618036643e+04 -8.3941413607169943e+02 2.2448585434891477e-01 -2.3372328652942670e+02 1.0698773598057917e+02 -1.2326934585142271e+03 2.6985422951031040e+04 -6.0245943128288036e+03 -1.2727058707806052e+05 8.4539441666250550e+03 -4.2303820637969568e+02 2.0560311416549553e+01 -4.0591762561610608e+01 3.1070625721237157e+03 -1.7667591214204638e+03 2.7080616282998617e+04 4.0525775663703142e+04 -7.1206693023469347e+02 -3.8725054312588071e+01 -1.7287114734257341e+03 -1.3428907887658386e+02 -4.4951185249302980e+03 1.7020209049518686e+04 -1.1096521642993775e+03 -6.4986859389853662e+03 -1.4557521887817362e+04 8.4332622292032369e+00 8.0450513871839355e+00 5.5832437707980214e+00 8.4973918710524345e+02 -1.4790328175950373e+01 -4.2991895186927195e+03 -3.0776876210862159e+04 -4.1511579977645241e+01 -5.1304613873642371e+00 -3.3524511936583608e+00 9.8053723059638873e+00 -2.1036478487010222e+03 -1.7002486294176288e+03 1.2559894754852781e+04 
      </Row>
      <Row Index="2">
        -5.2233264987209031e+02 1.2746698596704635e+04 7.4476566067547988e+04 -8.8276328327955426e+01 9.0191676581146296e-02 -3.4900686599684361e-01 1.1357401513876405e+03 4.1972390748260358e+02 -8.8937423865330493e+02 -1.5221952172631511e+04 6.0277400084272685e+01 -1.7529080333155555e+01 -7.0736552604969560e+01 -1.0926921128002272e+01 -1.5063506679286820e+02 5.9164456283736336e+03 1.7111174080626261e+03 -1.4964128168010038e+04 -1.7798743014067528e+04 -3.0727055166135838e+01 3.3314317008077271e-02 -5.8847818350802550e-02 1.1631367554454553e+03 9.7995090741946797e+01 -2.1721384640602055e+03 -9.9649643775870427e+03 -1.0298749755264255e+02 -3.8880537830946853e+00 -1.0761060754685541e+01 1.8283537577641539e+01 3.3343569837383461e+02 6.6400297189649791e+03 1.6510931310816504e+03 9.5983751230412217e+03 3.0489028459382938e+04 -6.1716156691519572e+01 -2.2846678049360398e+00 -1.9219212108300301e+00 1.5059904503579467e+03 1.9057312775393709e+02 1.9544312050384735e+03 1.0479878607396962e+04 8.4720428344491339e+01 -5.6678363472272846e+00 -1.9327622820742658e+01 2.5756956516754713e+01 -1.0617560061962365e+02 4.5087419923165980e+03 7.2306214481255756e+02 -2.2710509509856965e+03 7.4297739275756452e+04 2.4032710689379442e+02 2.5123353103093446e+01 1.2179411473269690e+02 1.8156987065760928e+04 -1.7425799479706293e+03 9.4448016336667606e+03 3.1530085789142489e+04 4.7029087305855728e+02 -7.1822362354689631e+00 -7.7144628968977054e+02 -8.9169226279530221e+02 2.0539114330963166e+03 9.3182666059981857e+03 -3.6647415577736683e+03 1.9068362943895950e+03 2.0598552160577412e+04 -8.3139428227095877e+01 -6.3864667976085236e+00 2.8461936071589555e-01 2.9607441734626632e+03 -3.5917206993885458e+01 1.8477018936723753e+03 6.7823361946081641e+03 2.9464461057960328e+01 -3.9950362767680647e+00 3.0857568055429880e+01 2.4552606012708974e+01 -2.5306957461586234e+02 2.4941024655657066e+03 -3.3193574910239008e+03 1.0379203033364680e+04 5.4762085087283333e+04 2.9789566168294732e+02 -2.1175702429423264e+01 -3.1566716051978869e+01 -5.9647920874268311e+03 -1.5235173219200933e+03 2.2619807887777188e+02 -5.0934334400054358e+03 -5.0176939683559795e+02 3.7573549711839043e+01 -3.1760782731723714e+02 1.1696621245965015e+02 1.1653062627623799e+03 1.9222305105563246e+04 5.2213823603532537e+03 5.1004799356765943e+03 2.1031671665394144e+04 3.9467508566840797e+02 2.2761755598566857e-02 9.0184177656343195e+01 1.2812752648028676e+04 -2.7627367048599817e+03 1.1670507369206820e+04 2.3709314772658734e+04 9.5641544329234421e+01 1.2592459703261191e+01 -1.0932534495837986e+03 -7.5841387822255604e+02 2.8948846441177739e+03 1.4910885036728403e+04 3.8361898025172877e+02 2.1735394457686888e+02 -1.1163995126274209e+04 -2.9027585420241735e+01 7.5208333217470624e+00 6.5786725244078754e+00 1.3921801736296245e+03 2.0263293238886266e+02 6.7022952442838607e+02 -1.9909280761555532e+04 -4.2558991311436749e+00 -1.6106071095372210e+00 5.7459282054509764e-01 1.0682306907262697e+01 2.4015025557702202e+02 -1.4162954731758223e+03 7.7741222097817154e+03 
      </Row>
      <Row Index="3">
        7.4952339832552951e+01 5.5437533417076565e+00 -8.8276328438710053e+01 1.9467691795224550e+01 -4.5567628411501956e-02 -1.1815892511951347e-02 -3.0032158494067716e+00 8.3385218609678020e+00 -4.3506357786902797e+01 -1.0136131011076637e+02 5.0692750440475649e+00 -7.0654527813209977e-01 1.4798662217920446e+00 -4.8193644934303104e-01 9.4300161274460592e+00 1.3112909972572649e+02 -1.0362997673370339e+02 1.5270080134830096e+02 4.6049240122024793e+02 -1.8273486160361685e+01 3.2017098601250744e-02 -2.6319129012260566e-03 -3.1657646195593031e+01 -4.4565280718424063e+00 -1.7866409392379655e+01 7.2949388739727510e+01 -9.4481191654702990e-01 3.9339833376526995e-02 -2.7570652953392103e+00 1.9446901545057077e-01 -4.9560464411236982e+00 -2.4503326310622131e+02 4.9800919185827283e+01 8.8368905232301529e+01 -1.4292554561270774e+02 3.7022714650182360e+00 1.1650282243413515e-02 2.6307962037608087e-02 1.7214918062559281e+00 8.1731440631451913e-01 -3.6705402786216537e+00 -8.0294739361534084e-02 -1.7789153681106534e+01 1.9283296096833283e-01 -1.9036558895806760e-01 2.9063728735309102e-01 5.1645337705456607e+00 7.1549489455727553e+00 -4.7304904960129576e+01 8.2831450351406829e+01 1.4063480661859850e+02 1.0054323781863748e+00 -6.3298951509736551e-02 9.0311795789089178e-01 6.3324011426466029e+01 -6.8238456485856425e+00 -4.5452596125494537e+01 -9.3286383581777272e+00 2.5750292710226066e+01 -2.2265609738004151e+00 1.6045856023701425e+01 5.7392644536148865e+00 -3.0043045685976026e+01 9.9694768516066134e+01 -5.1060496970172949e+01 1.4563974914567737e+02 -7.3658882067563738e+01 9.6100526589715796e-02 -1.7244480453762834e-01 -1.8518100952188754e-01 -1.3476617550675204e+01 3.1670527592869691e-01 6.3911996692591133e+00 7.1155919680179849e+01 -5.5331486148442917e+00 -1.5256794372680835e-01 -3.0891378243967753e+00 -1.1974577297971538e+00 1.4203933474690627e+01 -6.8664844654424428e+01 -6.5913452089921076e+00 4.2608673778952038e+01 1.7062682850216549e+02 2.0509972942918097e+01 -3.8454241406317147e-01 -1.2380451153879697e+00 -2.0197302061539091e+01 7.4054547294265545e+00 -3.1129902063320685e+01 -2.7051899260127357e+01 -2.5112225858015538e+01 -6.7666715560718127e-02 6.2680443890590594e+00 1.9649529319104511e+00 -4.9413425025901212e+00 1.5069315016253434e+01 5.2637826815483237e+01 -8.4105662558275071e+01 1.4007104851565896e+02 2.6136788040079370e+01 -5.9327771844848298e-01 -4.2107339020675760e-01 2.3417521074471388e+01 4.5759027088700925e+00 -5.6740388692412694e+01 4.2078491808463127e+01 -4.5863290419381073e+00 -2.7487802921880715e+00 2.0778487998312066e+01 7.0196704946350721e+00 -2.2650474656892687e+01 5.7259584110065077e+01 1.5530491825479531e+01 -1.5211320132992570e+00 -4.5135184402141654e+01 -6.6408412862342461e+00 2.4349655357184916e-01 3.1498934551277952e-01 1.2119521487820772e+00 7.8850209540322358e-01 8.4479923583344618e-01 -3.5837471939768456e+01 1.5633595506278026e+00 -6.7540442667305287e-02 4.4987186867655538e-01 -1.0071259257509084e-01 -1.9968859351386492e+01 -1.6162712077402503e+01 6.3024897515172924e+00 
      </Row>
      <Row Index="4">
        -5.1018865094002877e+00 -7.5498097605173786e-01 9.0191716978086589e-02 -4.5567628421110756e-02 7.6056998206637055e-02 -4.4656738898929536e-02 6.3183739912147585e-01 -6.6270250244640644e-02 -5.4708251961817458e-02 4.3234989492438887e+00 -6.6883616499983645e-02 5.4174126381480794e-03 6.2968855015111784e-03 -1.7359586625552183e-02 4.3148717115581725e-01 -2.8961633092180827e+00 2.7040579044000355e+00 3.1536894785983414e+00 -4.4866195892061072e+00 3.3796802292624419e-02 -3.4060597746970928e-02 2.7840236614771391e-02 -3.5046702242126665e-01 2.6492496154158392e-02 -1.4702545081010565e-01 -1.6178801231629549e+00 1.2160094355998462e-01 -1.5097884461823859e-02 5.8642305838525609e-02 1.1662648403165495e-02 -6.7891930208312057e-01 3.5393227127740539e+00 1.4815332627662237e-01 -5.4764633984112265e-01 2.1021901684944964e+00 -4.0138075832431341e-02 -1.6450098182482619e-03 -1.1097787927335817e-02 -1.0687037575904998e+00 9.8192740272087686e-02 2.7483272110928170e-01 2.7062488416475992e+00 -2.1401949813378124e-01 -2.2325116751516848e-02 2.6092755805779140e-02 3.1713756275576870e-03 1.9809903596505865e-01 9.4929358601563729e-01 1.9217941683852846e-01 9.3403759853217139e-01 -4.1973861983745309e-01 -8.0166839867463424e-02 -5.8373566638860938e-02 -1.6250700714960292e-01 1.2338363648594866e+00 -1.5929030909800301e-02 -3.7451828355590155e-01 -3.3050246710482867e+00 -5.1752161009531283e-01 -3.9134274140041336e-02 7.7793914517753721e-02 -1.7786585412675437e-01 3.4351099496437387e-01 2.8030951708647529e+00 -1.4456658268581446e-01 -9.1422812402791642e-01 2.8003641317944279e+00 -3.9232124199948832e-04 3.4952909862797171e-02 7.2708324090314344e-02 4.0822441785823210e-01 -7.8972044613262155e-02 3.8367533327298198e-02 -1.5755779490184896e+00 -1.6119017354602513e-02 5.0137313299599903e-02 1.9253910385354539e-02 -3.2730512721376726e-03 -5.6400953562914879e-01 3.8884159111783929e+00 -3.6404653780346052e-01 4.1722374175653099e-01 2.4628018695331981e+00 -1.7576857830277001e-02 2.9065870965769269e-01 6.0249393592338085e-01 1.1493995194340005e+00 8.8495367712362133e-02 2.8413377358684366e-01 4.7493639541026198e+00 6.4646269901691011e-01 -9.0000215840512182e-02 4.8317431053650446e-02 7.5841926674552640e-02 -7.5671280253601397e-02 4.9906490133726455e-01 -1.3924726060510144e+00 -1.2535178643742597e+00 8.4204821163405796e-01 -1.2976617278804414e-01 2.8343409440650191e-01 4.5298837989918728e-01 2.4001206555251708e-01 4.8134116041505415e-02 -1.0601254330371512e-01 7.4521677552938570e-01 2.8583021154053867e-03 -1.0599970176033625e-01 1.5236689735819409e-01 -1.1221315720764316e-01 1.7565231771175158e-01 -3.3374381549807293e+00 4.3477849385633044e-01 -3.7489718503432426e-02 -4.0960787735574578e-01 1.7850678319956834e-02 -1.3258222074154780e-01 -1.3510427608668982e-01 -2.7335343728995193e-01 1.5085066551199528e-02 9.4423952780903819e-02 -4.1834521822900911e-01 5.7376571094454598e-03 2.9339902311015945e-03 -1.0644342775399170e-02 3.3369711026476180e-03 9.2756985441736028e-01 1.5662726788206169e+00 6.1185829223453406e-02 
      </Row>
      <Row Index="5">
        -2.1251608008357792e-01 6.3804220928273025e-01 -3.4900687223185400e-01 -1.1815892480526474e-02 -4.4656738887407260e-02 9.3692635536718250e-02 3.6248724543944372e-02 1.0018754423915657e-01 2.2820629868551093e-01 8.1047621156900240e-01 -2.0320204632037855e-01 -3.7788126772345929e-02 2.3386537243480228e-02 1.7538019934183836e-02 -9.5266762898161317e-01 6.0570922416227435e-01 1.1406662175959354e+00 -9.0533982226779486e-01 3.7476822886086065e+00 4.4248394725165070e-02 2.8297243662829707e-02 -3.7141481508264525e-02 -2.1562235673021785e-01 -1.2833898584072304e-02 1.2503054304316752e-02 4.3644525156835243e+00 1.1536086538742965e-01 7.5004808369955843e-03 -8.4901900985623023e-03 -1.4895427193892110e-02 7.4505189053864762e-01 -2.2627338502278063e+00 1.3111482654687308e+00 7.7174907240895863e-01 -4.3792915082179784e-01 1.0589619428018608e-02 -1.0725882670223693e-02 -5.8411370556631891e-03 3.5415041115751021e-02 -5.6991549638821470e-02 -2.0373229346773059e-01 3.7653919147118664e-01 3.5236593495597718e-01 2.1088961480928321e-02 -1.2789898223389485e-02 -1.7765821429003945e-02 9.7684675053012371e-02 -2.0797087992970771e+00 -1.8688243549536434e+00 -5.2788696633421850e-01 2.9543461383608385e+00 1.3271261712763383e-01 -1.5037377327666510e-01 -1.7254870269130471e-01 1.2294475723512226e+00 -4.7123584163679594e-01 4.5240880412725343e-01 4.5615249527900392e+00 -1.0021236724651272e-01 5.2503597361128529e-02 -8.4155106499783000e-02 6.8225772709603671e-02 -2.6538942187291770e-01 1.0857259794365111e+00 -6.8094093562252738e+00 1.2907537124521102e+00 1.0807797183346604e+00 7.4806505857944600e-03 5.3061535106127516e-02 8.6657803462666425e-02 -2.8993987238260255e-01 -2.5980058780532486e-02 -2.1913262517880716e-01 -4.2822381171926107e+00 -3.0092861289628620e-01 -3.6330993489985954e-02 4.9107701364415751e-03 -5.1092556485780286e-04 8.4429840460806793e-01 -4.6066079555767576e+00 -2.2472932190871830e+00 1.3220243679980541e+00 -2.6183525091576652e+00 -3.3486781797116338e-02 4.0020863728146150e-01 1.1277554294974128e+00 -9.9496158083695452e-01 1.5196604069161002e-01 1.9832703348992053e-01 -9.8405052973159144e+00 8.0762179599788708e-01 1.2796255128385903e-01 1.8366345963308564e-02 -9.8884149470981231e-02 -1.5358009519268605e+00 3.5085102822243366e+00 3.1208234445069660e+00 1.1483566538685750e+00 -2.4789031031044040e-01 1.2696231802484059e-01 2.7184988373627866e-01 1.0131326413994250e+00 1.0494702626894421e+00 -3.0264921964986496e-01 5.3162668545229774e-01 -5.6524926999436644e+00 5.5052144670327574e-01 1.3946147293473099e-01 -6.1236070538229992e-02 -2.7359604007622218e-02 -1.9280860361274121e+00 5.0509413815835345e+00 -5.0849362874635085e-01 1.5966305504387310e-02 2.0946566777823943e+00 1.4202631673939557e-02 -2.2738722359959751e-01 -2.2440944662257506e-01 4.4486527925565328e-01 5.2907857305096277e-03 -6.9748524859964051e-02 3.8560747709546810e+00 -3.9878572140976572e-02 -5.3906438178051045e-03 3.2495875594396343e-04 -2.8437838951096885e-03 -9.6064023332068593e-01 -1.1964406208091043e+00 -1.9901235029579960e+00 
      </Row>
      <Row Index="6">
        -1.5777146051354539e+03 -1.2914251042931865e+03 1.1357399314913257e+03 -3.0032162166234144e+00 6.3183740002086131e-01 3.6248751718824239e-02 5.1114851990544375e+03 5.3892837214392657e+01 5.1323062627522837e+01 1.8577176486581961e+03 6.7517819525173650e+01 -9.3843128634577937e+00 -9.3698434284053311e-01 -1.1992229786611478e+01 2.1282275949676557e+02 1.4506094080347299e+04 1.0482332375831902e+00 5.1903828383994977e+01 -1.7962640023985062e+02 -1.4545645347282058e+01 2.4296927304521887e-01 2.0966909735344508e-01 -4.8803927707517978e+03 1.7265735179083180e+01 -9.6789187570346485e+01 -3.3943426424033241e+03 -1.8692691385598437e+01 -1.5974056425761236e+00 1.1903344918477249e+01 1.0408074263503750e+01 -2.8436179067532527e+02 -1.4350373800503976e+04 -6.6956617893956650e+02 1.8152688377816094e+02 8.3486351852025336e+02 4.8707770804228456e+00 -2.2486077815256067e-01 -6.2090097347807571e-02 -1.4742722713630324e+03 1.7657916074771897e+01 1.2154135492192395e+02 2.2529958022331548e+03 -8.7917676109709845e+01 2.0033780690390093e+00 5.0668025364222924e-01 -5.2069463719206777e+00 1.8894002769883508e+02 -3.8268190080535501e+03 7.7950639868008011e+02 1.7035230112116228e+03 7.1262927905210145e+03 -4.4121058394878060e+02 -1.2853030468905510e+01 3.5407180399650876e+01 6.4755821128839998e+03 4.3066883408227346e+02 -3.0927422208188511e+02 1.1802384045311894e+04 1.8825057998266229e+03 -5.3614863717683079e+00 3.4578139813373224e+02 -5.5967445419106781e+01 -2.6719843920501098e+03 -8.8914359594011476e+03 3.7547981247361167e+02 5.1269411654074787e+01 1.4524630817671191e+03 1.8995386426508425e+01 3.7048902544715059e+00 4.4217240253939427e-01 -3.8048495301789430e+03 5.7723392762127652e+00 6.1189631407009678e+01 3.5116316073436354e+02 -9.3801795078377395e+01 -1.2249373065704623e+00 6.9097162478325522e+00 -1.5284139614079475e+01 9.6003546815118341e+02 -9.6889888282565335e+03 8.9427594317929425e+02 -3.9480781726928130e+03 1.4796385267392156e+03 3.5930165100713438e+01 2.2981319512699102e+01 2.4282189762031994e+01 7.4926194541025143e+02 -7.4803054133194991e+01 -4.1650615168787431e+02 -9.2762095298380591e+03 7.7644198523343857e+02 -7.9125618332381507e+00 -5.5213759886886578e+01 4.9567004221891438e+01 -4.3649518650012296e+03 -4.7895061808872942e+03 -9.4266437903675933e+02 -1.5447174637760036e+03 4.3338285181280944e+03 -4.1016801302136491e+02 1.1925881292456083e+01 5.9458029466758759e+01 6.3386191906800423e+03 4.1426443160980938e+02 -5.7272781257543829e+02 3.0105387314608670e+03 2.5359046215825119e+03 -1.9414269510460699e+01 2.9856597186610708e+02 -2.3112480223758325e+01 -5.9996058631976593e+03 -1.5440436270411217e+04 8.9022364580685007e+00 1.9012206669270206e+01 -1.8429221521505731e+03 -1.2450927860583782e+01 -4.8674194168886453e+00 -5.4501217255344212e+00 5.8949906160968942e+02 1.6058113958321119e+01 2.3518007423755222e+01 -2.7096331657903456e+03 1.5536844452758896e+01 -1.4259657143400604e+00 -1.2531287669273610e+00 -1.4274827230063711e+00 -8.7499429922139848e+02 -1.0994345616520066e+03 8.1018692891160867e+02 
      </Row>
      <Row Index="7">
        -1.4658510694789257e+02 -1.5750222888687858e+01 4.1972391159772508e+02 8.3385218694166809e+00 -6.6270250406235548e-02 1.0018754250722260e-01 5.3892840462442201e+01 7.6716526786771865e+01 -1.2791885764985576e+01 5.4683375314955299e+01 2.0865113688823818e+00 -2.5180194965048912e+00 6.2106449110074147e-01 9.6503994544616423e-01 5.0099193895513281e+00 3.7546406674477811e+02 -3.6215878773771692e+01 5.7501041927231336e+02 1.8986529612031143e+02 -1.7420526064152158e+00 1.5221898761950570e-02 -1.8148669853826942e-02 -1.7179788541675887e+01 4.7276559406572977e-01 -1.2656746699023122e+01 -1.0222854747215752e+02 1.0593825192160111e-01 -2.3176956380887695e-01 1.0183901396692778e+00 -2.6206161393772265e-01 -1.1273304581226380e+01 6.8778189173153770e+00 2.0570111588257419e+01 -5.0090272290493095e+02 1.1048979495152101e+02 1.2313551169117245e+00 -1.2941254037411909e-01 2.8542929747593433e-02 2.4263251751077973e+01 2.7163242776312998e+01 -1.8820406248929501e+01 -2.4437755583352143e+01 -2.4440954744799148e+00 7.1081206567531730e-01 7.2854039229272938e-01 4.6051454429879080e-01 -2.9756835816465395e+00 1.3127491481701298e+02 -2.0747624444760106e+01 4.1068155944188993e+02 1.5711998841032873e+03 -1.7578153743299496e+00 7.5930953532794787e-01 3.7433588486141378e-01 4.0240111922767625e+02 -9.7331993038266418e+01 1.8049967598566613e+02 5.5773819682108979e+02 2.1299078458351062e-01 -2.0364463457287529e-01 -1.5914052650713657e+00 -8.1747379961094655e+00 -5.2176992304372725e+00 1.6988252377641587e+02 4.0591739933529425e+01 -1.4140776500880312e+02 3.9851143418193118e+02 -1.5091830419027981e+00 -1.9429712373665586e-01 3.9642122470871580e-02 3.1864469900499962e+01 5.6844659960080746e+00 -9.1475152875425767e+00 2.9332751605906381e+01 3.7248938500381410e+00 -7.4997009463783282e-01 4.3270597374126651e-01 -2.7332807779671775e-01 2.8528556175119184e+00 4.3787547133886292e+01 -6.8456280832254947e+01 -9.8587754361057137e+01 2.0078565682274539e+03 8.9545183339843604e+00 5.3668286343937499e-01 9.2326006493226842e-01 -1.2612578937618184e+02 -1.0884707050603387e+01 4.7332500999302681e+01 2.2725419930057683e+01 -1.6095847547552243e+01 1.1246608975741759e+00 -9.4316016342669795e-01 7.3663658145051403e-01 -6.7203177279895154e+00 1.3258438360592592e+02 4.3150879818822311e+01 -4.0515252580331799e+02 1.0358947888825821e+03 1.1377601721188391e+01 1.1346798009278189e+00 1.3252729266466483e+00 3.1376174693634573e+02 -4.1223489485408678e+01 2.0627023674924283e+02 3.2419781772922897e+02 -1.4893885527005724e+01 -1.0387566393455492e+00 -1.4330821088648733e+00 -6.9401069910923816e+00 -1.2486481407003737e+01 4.3160253956388624e+02 1.3458844532677747e+02 -9.6073834823098387e+00 -3.5480404139049858e+02 -8.7631104118220393e-01 -2.7490260469465677e-01 -1.7441943867622686e-01 2.4930810365312656e+01 1.8453052175655273e+01 1.3245499256396869e+00 -3.1036455714814281e+02 4.9558811174854861e-01 -3.1895871674426457e-01 -1.4456972644314320e-01 -4.1607321348932427e-03 5.4021448035388808e-01 -2.9238119724187413e+01 6.5302741002407615e+01 
      </Row>
      <Row Index="8">
        -2.0391924350477785e+02 -4.4268484062211282e+03 -8.8937423455818669e+02 -4.3506357781064139e+01 -5.4708249787803948e-02 2.2820629822023461e-01 5.1323049523857350e+01 -1.2791885418299989e+01 6.7109557995013574e+02 5.2688919120515784e+03 -2.1518224857373347e+01 -1.8958761055824320e+00 6.2464297362975225e+00 3.0466323545315737e+00 5.6684080512859850e+01 -5.5061623973721612e+02 5.3968427351186983e+02 -2.9589961043331755e+03 -1.5738538340252503e+03 4.9216600765968344e+01 1.2432020830260626e-01 -3.0853134008827759e-01 2.3987137579144544e+02 -1.9238849061268027e+01 2.5775425813128226e+02 -1.3622082393589662e+03 -4.7642584690929404e+00 1.7494149446719538e+00 8.0116544380644985e+00 7.2688362316322053e-01 -8.3288373002541746e+01 1.2332779337415334e+03 -1.9629012427522369e+02 -1.8319957818345001e+03 1.4250062560486663e+02 -6.0227939929801275e+00 -1.6826589573497586e-01 7.7385147603521665e-02 -4.5665484815132046e+01 1.3253104060459640e+01 7.1759463826412642e+01 2.8655975484150059e+02 3.2463271237345126e+01 -1.2960768305263208e+00 2.2695254370073856e+00 -2.2645698554210645e+00 -7.8638592957996920e+00 1.0896036769596026e+02 1.1526084423034300e+02 -3.0643693257928280e+03 -1.3728946960430012e+03 -1.0946478819191295e+01 -5.1833713819139393e-01 -4.8503883322260366e+00 -2.3529527454003679e+02 4.4270854207614690e+01 1.8830682652766666e+02 1.0144551043397405e+03 -1.0285026638114547e+02 8.6296685341443862e+00 -3.0962055589528745e+01 -5.1491982259879165e-01 1.0115500100847140e+02 -5.9682653823806493e+02 2.2819308337362600e+02 -1.2210991923895033e+03 8.3182285166952695e+01 2.4655099446156159e-01 3.6106269503753197e-01 6.6328918576041351e-01 -3.0577066359820826e+01 1.6089730164308875e+01 3.5569422353170268e+01 -6.1488266566491382e+02 2.4555604835116032e+01 -1.3313780385977327e+00 1.1762893111944830e+01 -2.6102609114859918e+00 -6.4286279366210124e+01 6.3420130129099857e+02 1.0434725639803611e+01 8.9318375732119705e+02 -2.0400004253503989e+03 -6.5594055964169911e+01 2.1087911039200447e+00 1.7591003779392234e+00 1.1090148183216252e+02 -4.8833052249214191e+01 -1.3940311488867331e+02 -1.6478123510000914e+03 5.0984568463205946e+01 1.9434945645941362e+00 -2.5638969824332900e+01 -6.2859486075893649e+00 -1.3031636865485119e-01 -9.4079583427641546e+02 -2.6966751111912674e+02 3.2231951977567078e+03 -1.4919541272363319e+03 -7.4657271307412074e+01 1.7347218525299866e+00 -2.5680590349496866e+00 -1.8817794961267100e+02 -7.8440600132298535e+00 -3.3385437370015785e+02 -1.3804034576432514e+03 -5.5565311568794066e+01 8.6765779939092162e+00 -4.3527374933352021e+01 -5.1968773805169093e+00 8.1343016320984589e+01 -1.8846620360108900e+03 -1.1453487385735434e+02 1.1152617315211747e+02 8.2371572793833309e+02 2.1531439427211016e+01 -4.5460423906830683e-01 -7.0147798684903717e-01 -2.8748274987242439e+01 -2.7600480755989860e+00 7.9173535632191403e+01 1.0962160023478682e+03 -3.1057477641417237e+00 2.6752380643277784e-02 -2.1581077887759150e+00 -4.5507801049593227e-01 1.4861414601366951e+02 1.4872836412388233e+02 -3.9261335343778478e+02 
      </Row>
      <Row Index="9">
        -1.3814332601176229e+03 -4.6553024340523407e+04 -1.5221951766766377e+04 -1.0136130932195796e+02 4.3234990654983418e+00 8.1047611285131382e-01 1.8577171969340627e+03 5.4683394796972806e+01 5.2688918934519470e+03 1.8100838851300511e+05 -7.0460355610640761e+02 3.0264175457299594e+01 1.3280028463211352e+02 2.3964396901639063e+01 7.7631833119559292e+02 1.1215657672358793e+02 2.6521728920787573e+03 1.0212627033050308e+03 -1.2107085000001054e+04 4.1402462205734412e+02 -2.7772587751533138e+00 -3.1058207058313463e+00 -8.9602026252631026e+02 -1.8380858832446967e+02 3.7449991205293172e+03 -1.0190734772024117e+05 3.0484535595314196e+02 1.4562509672979026e+01 -8.0654664603631275e+01 -4.7541007234397718e+01 -1.0908542306253962e+03 1.2963275688034898e+03 -1.5782464793665758e+03 -5.3118174930245023e+03 1.1099653340326154e+03 -2.3455459791575623e+02 -4.1143484650528990e+00 2.6428125524770429e-01 -3.6310164884987603e+02 2.5676086059072702e+02 3.4102711372580020e+03 -6.7059039101335176e+04 5.4094035358793531e+02 -2.6512044574862514e+01 3.4576897109220496e+01 -9.3494829030704224e+01 7.9490027734790885e+01 1.4159659574103107e+03 -3.8362586264860611e+03 -1.8020588957895750e+04 -1.1289359085523356e+04 -4.8933852811607551e+02 -8.7079250222450455e+01 -1.2484563966376072e-01 5.4387306322061443e+02 2.9127739254584742e+02 -1.0296975016474103e+03 8.8547430013472578e+04 -5.4197307185746342e+02 3.0833415690013339e+00 -6.8442735398726518e+02 -1.5535835859243878e+02 -7.5070865282362354e+02 -7.0545508584166964e+03 2.5448798307031393e+02 -3.2490269140005112e+03 9.5590339511929812e+02 -2.7860553557467182e+02 2.4738250051162680e+01 5.2411842739746106e+00 -1.0187128864914052e+03 4.6131354121590171e+01 3.7248987582830623e+03 -8.2573202919994044e+04 5.1592598125206916e+02 4.7499092303067663e+01 1.4526341598700668e+01 -7.9642062933125558e+01 1.8614969528978224e+02 4.6907830328178079e+03 2.5493191995895031e+03 -3.8042208966786693e+03 -7.2497270031238113e+03 7.6325107774759147e+00 8.2062233052226105e+01 1.0945085965625299e+02 1.7802350205239927e+03 1.1627026442887512e+01 -4.2085134890708159e+03 4.9725851631629514e+04 4.2749556058732594e+01 -2.4594285987507590e+01 -1.5977684795018138e+02 -3.5521799880917058e+02 -2.7540849319207309e+03 -9.7721462208177509e+03 -2.3766286613217417e+03 1.9285554004833102e+04 -4.9596191096494349e+03 -4.5905694932845608e+02 8.5680014422918305e+00 1.1000647029210054e+02 1.8526546037391017e+03 3.8457185791065854e+02 -5.5918628239907030e+03 -5.8536250502999581e+04 -8.7235210160028737e+02 1.0896201730531864e+01 -7.4613066397804278e+02 -5.1516968091564831e+02 -3.8795290690253205e+03 -1.8125646171420114e+04 1.3545064475404843e+03 6.9035612016952155e+02 2.1912749171218871e+04 1.9298473591910920e+02 -1.2308548870029423e+01 -2.4859297754532577e+01 -5.9341560877568554e+01 3.5295883894377248e+01 -3.0046810683877715e+02 4.4227557177543298e+04 -5.2999334120653273e+01 1.3416896507993949e+01 2.8692126167706178e-01 -2.9637114134976137e+01 7.0220615014233510e+02 1.2324611669140577e+03 -2.0001241528921866e+04 
      </Row>
      <Row Index="10">
        -2.9764697956292281e+02 -2.9593148827548794e+02 6.0277401250223548e+01 5.0692750270010842e+00 -6.6883615954073744e-02 -2.0320204788709578e-01 6.7517817755623852e+01 2.0865113364450298e+00 -2.1518224864968868e+01 -7.0460356269045178e+02 4.9850579564461526e+02 3.9844034418978507e+00 4.0026132766982014e-01 1.9118850870321336e+00 2.0568099742705522e+02 -3.0983224957546767e+01 1.7751941171014914e+02 -2.0681795962460083e+02 3.4441460858623560e+02 -1.2870427080842253e+01 1.6177540910007338e-01 -1.2165437933433311e-01 -6.3986780305776868e+01 9.0735997355110989e+00 7.0724857542257098e+00 1.5008383047824973e+03 -4.1680377058363911e+02 5.1895074151468656e-01 5.1262015402541579e+00 -9.5917530795650319e-01 -2.1109800720558900e+02 1.5870102721313728e+02 7.7215263384066532e+01 3.1676544380399093e+01 1.8893517081248055e+02 -2.6014677988361623e-01 6.4169526098652341e-01 -5.3137302966747524e-01 -1.9602274555626231e+01 2.5908329117198807e+00 7.7701731551182074e-01 4.7795615065668449e+02 -2.5443302563248602e+02 -1.0066381217464482e+00 3.3568103544759205e+00 -2.2805802234920614e+00 -1.0939513507117010e+02 -1.1854672068604944e+02 -1.8426549237898456e+02 -2.8300441829532701e+02 3.1215308583544982e+02 1.3238513345195775e+01 -9.5337080323925498e+00 8.0739249000843465e+00 2.1392254871850577e+02 1.3542555482644062e+02 3.9117763757244788e+01 1.7195413234176578e+02 -4.0060426180404215e+02 -9.7424153015180384e+00 1.4631604132105142e+02 -1.2947557440192734e+01 -1.0998668540352496e+02 4.0535284729888184e+02 -3.5112353526065090e+02 1.8945934190999833e+02 1.0475574865296250e+02 -3.9053835466798277e+00 -1.8871157587613046e+00 -2.6573106399739277e-01 -2.8658298018745654e+02 -2.0595942550550070e+00 -9.0845345638137012e+00 -3.6883241457548991e+02 -8.2613601609630024e+01 9.7678880534385393e-01 -6.8879918120526940e-01 4.4671432465991368e-02 -1.8378336772893135e+01 6.9338415079072888e+00 -7.0617523417833567e+01 3.2381405241070843e+02 6.3860795860757401e+02 2.0732229809425544e+01 -2.1500613121894663e+00 -4.5950477171815205e+00 4.6202645801891560e+02 4.6277287357328198e+00 -8.8592629387932575e+00 2.3841216029277348e+01 5.2504736138499545e+01 1.6241504408088594e+00 -2.2130108285211998e+00 -1.3253948360833565e+00 -2.1288742179558614e+02 6.9475141698321102e+02 1.1270471863885643e+02 2.5901553069927468e+02 4.5041206968196468e+02 2.8587930013710139e+01 -1.2921148089464932e+01 3.1459772926868994e+00 3.4294655512484638e+02 1.4531965399683219e+02 1.6451035743871500e+01 -5.9450704118046588e+01 -2.3136804255097641e+02 -4.7149590346696799e+00 1.4600405466276050e+02 -1.3745945738758849e+01 -2.5927673956138545e+02 3.0935127054922305e+00 5.0320674826850208e+01 6.3501535393753894e+00 -7.5525139357574574e+01 -4.3485947014089179e+00 9.1264561415431755e-01 1.4322937599793522e+00 -4.7124996058170836e+01 2.2103108043728152e+00 9.4376091564471416e+00 1.2824945231768575e+01 4.8705329847804677e+01 5.2227393457777338e-01 -4.3582044412845988e-01 -1.2361583148299726e-01 5.7462750101670871e+01 2.5995900636581496e+02 -8.2589578067565881e+01 
      </Row>
      <Row Index="11">
        8.4681190844265330e+00 -2.7732505386307935e+01 -1.7529079996228838e+01 -7.0654527818070856e-01 5.4174126119646976e-03 -3.7788126793571658e-02 -9.3843129646924872e+00 -2.5180194964537899e+00 -1.8958761190378253e+00 3.0264174887501198e+01 3.9844034298330699e+00 5.5784967678891100e+00 4.2721627784146415e-01 -7.0076174302171959e-02 -5.4185467422282585e-01 -6.2142758236065120e+01 4.9906143221305683e+00 -8.2680608033880944e+01 2.1385049868715882e+01 5.6180276625185166e-01 -7.0689956215718830e-02 3.1172134124319399e-02 7.1321186169719653e+00 5.5695700287185013e-01 -1.3032221545200058e+00 1.6819834583120974e+02 -4.9766775124282416e+00 -1.8381881730569788e-02 3.5840961285905454e-01 -2.0157229435529800e-01 -9.1194051296613088e-01 3.4446194334721582e+01 2.2612018015423843e+00 -1.6543095905699531e+01 -2.9188299586417408e+01 1.1364424870986660e-01 -2.0166740397497662e-02 -4.7380320834773462e-03 5.3370878862713989e+00 2.0994294107683196e+00 -1.1948462585792481e+00 -5.2075456064437731e+01 -1.0958334914372820e+00 -1.7049290232973666e+00 -2.7057341158622744e-01 1.8121956205847259e-01 -1.5880483225725386e+00 2.0729512865912259e+01 -9.2019384875644885e+00 -2.8775587888591417e+01 -3.5485984949381645e+01 1.7889407013808749e+00 -1.0375610028303421e+00 4.8058718278649004e-01 -4.8809601381347726e+01 5.8221082420000760e+00 -9.1013813941551209e+00 1.2613340212757129e+02 -9.9275668637384111e+00 -2.0996830668085611e+00 1.7174524273170901e+00 -5.1441991878586224e-01 1.3638867778208169e+01 -8.0207090226659563e+00 1.3592233910131597e+01 3.9012709072959296e+01 2.6070746597922323e+00 -2.9259289075353345e-01 4.3415347887602662e-01 -3.2695408410655435e-02 9.4385719366193452e+00 -2.1062071941338005e+00 3.4291953245766893e-01 -1.0528608202093467e+02 -2.1178131380732941e+00 1.0344018931181067e+00 1.1641237886680686e-01 2.8310561007934748e-02 -4.0504316664505655e+00 5.6862259366940116e+01 2.2028245772970415e+01 -6.8474808134666691e+00 -1.0805478517102665e+02 2.8764587462801600e-01 3.4518332134490703e-01 2.5000185274127745e-01 4.4237555474964481e+00 3.2352197212320708e+00 -1.3373703485360249e+01 9.2393232842549196e+01 5.2555770581469821e+00 -8.9822092663542796e-01 2.1273315286406858e-02 -1.4410324690655246e-01 7.2844442204932474e+00 -8.4293479795081126e+01 -1.0561009370673641e+01 3.6591496731843563e+01 -3.8733205494561460e+01 1.7310041553842175e+00 -4.6865813173099097e-01 7.0851652433477796e-01 -3.8121610274965555e+01 7.4504101977687567e+00 -2.5536472021570674e+01 -8.6194642643448613e+00 -2.3206257164071387e+00 9.2026533104940333e-01 1.9092824522462601e+00 -6.1251492881794345e-01 1.3489813514290871e+01 -6.2197959601379353e+01 -2.3148356783766109e+00 1.4954736030447002e+00 1.1005987024004003e+01 1.2417420043195504e-01 1.5437811593026918e-01 -9.4376068987822609e-02 -3.4288168772206760e+00 1.8584994559689424e-01 2.2756692879346589e+00 7.1201051453379982e+00 3.6395201060056237e-01 6.7303518287568398e-01 -7.3288846708673028e-02 2.5242358000818949e-02 5.2763207538343311e+00 6.0221358565278322e+00 2.4968016455701982e+00 
      </Row>
      <Row Index="12">
        -3.0626424536314147e+01 -1.2000597764491158e+02 -7.0736552356083806e+01 1.4798662221152161e+00 6.2968854117691790e-03 2.3386537217037720e-02 -9.3698408969620173e-01 6.2106448384252344e-01 6.2464297227549421e+00 1.3280028363509231e+02 4.0026131476543780e-01 4.2721627733760992e-01 3.8255397224267376e+00 -3.3198077705825280e-02 1.3620684190567420e+01 -4.7042873142398662e+01 3.1237584011985746e+01 3.4367697230121713e+01 3.8235963818232442e+01 -8.4565976955278266e-01 -2.0378404611534506e-02 1.2316898922891187e-03 6.4356911918194344e+00 -1.6829870476185388e-01 -2.1597077889707381e+00 2.4663461587682832e+01 -4.0135217529853087e+00 -1.0280527714626614e-01 -3.8383063256015898e-01 2.7568719785496054e-01 -1.4260948383520549e+01 5.5450155104654968e+01 6.5166108352772412e+00 -2.4538108290977334e+01 -4.8540972974373325e+01 9.9141725034364081e-02 -1.7199980204580356e-02 2.0389962960757841e-03 -1.7086862671016734e-01 7.9923164010161796e-01 2.9288784069435798e+00 1.2777421920076631e+02 -2.4623383610994702e+00 -2.6295059655925712e-01 -1.6137892206921062e-01 -1.9457618086938150e-01 -2.5965808859768007e+00 3.1372485953071017e+01 -1.0337329984996723e+01 -3.9442382414897793e+01 -8.9544555349874599e+00 -3.8684984477495021e-02 -3.8338475080537282e-01 -7.0462941201697604e-02 -3.3271418956067450e+01 3.8143138738338918e+00 -1.5420724651933652e+01 -2.4422521130316305e+01 -4.9214927560172477e+00 -3.0627906295902702e-01 4.4270592092842538e+00 8.1284784529370135e-01 1.4166692188664243e+01 -4.3521451392246966e+01 -1.6378519702771655e+01 6.9668752385405242e+01 2.1195020967084929e+01 -3.3192472508149773e-01 6.6904139124982109e-02 2.2186851735673030e-02 -5.8200646151669506e+00 4.6583551016651670e-01 6.2351108352761466e+00 5.1468354021108823e+01 -2.2737130677250876e+00 -4.8177523947302348e-02 -1.6025384628099937e-02 -4.5592008379532534e-01 -9.0322702043871583e+00 6.2932579762010249e+01 3.7568698049781877e+00 -6.5709513284216428e+00 -8.6993008503723814e+01 1.1036380356853079e+00 2.9679191811763111e-01 3.7761909866192173e-01 2.6211779920415097e+01 1.2959272972704067e-01 -2.0758098355953209e+01 -8.0367297488486429e+01 -7.4049923929659212e-01 -2.0660350134827243e-01 9.6323618427282964e-01 3.7821749393478865e-01 7.3642956454460222e+00 -9.1985371450379567e+00 -4.8912537342802054e+00 4.0946065561829528e+01 -3.5319900774041059e+01 1.1891395547103407e+00 -5.3757593388759128e-02 3.2924781767267253e-01 -1.3443311838091617e+01 5.1688870925716941e+00 -3.9606208932303659e+01 4.0254803639771701e+01 -6.9897421845488745e+00 -4.2383363532014162e-01 7.0478895121743408e+00 1.0305122493256373e+00 2.0154425363566986e+01 -3.5740601237543956e+01 -3.6136411022018118e+00 1.7920592905284529e+00 -4.3142082478571488e+00 -2.0026781643174663e-01 -5.1577048162528255e-02 -8.8726033275401656e-02 -4.9708036038932164e+00 1.6651699850128429e-01 5.0855986434518465e+00 -2.5988840270516572e+01 3.9002925933412980e-01 9.3173416693822564e-02 -1.6278138253395597e-01 -6.4299705502470952e-02 1.6614713811460579e+01 2.3733341129359530e+01 1.4438298829972085e+01 
      </Row>
      <Row Index="13">
        -1.4481669865700880e+01 -9.7015160513385581e+00 -1.0926920257467003e+01 -4.8193644749732628e-01 -1.7359586577049634e-02 1.7538019770628393e-02 -1.1992229852233958e+01 9.6503996393308777e-01 3.0466323022163553e+00 2.3964395254552016e+01 1.9118850881822762e+00 -7.0076174443063965e-02 -3.3198076588497633e-02 1.4708891539415856e+00 -1.5045283103006772e+00 -3.0933692609006656e+01 1.1304525389801711e+01 1.0307558390523466e+01 6.0874017063553815e+01 1.3340771443700032e+00 1.1724498902204061e-02 -1.2668522039510386e-02 1.1785618086459875e+01 -2.4894158685395743e-01 -9.6359906036773291e-01 3.3499333842622946e+01 -2.3968446865899695e+00 6.3809144830152265e-03 6.6032224560057529e-02 -9.1198007805599923e-01 -1.3302598488893480e-02 2.9044928953728764e+01 1.0422471839440771e+01 -5.5633517031069459e+00 -1.4806343357106453e+01 1.1407420863846757e-01 -5.7041089954878998e-04 -1.1325738585461584e-02 2.4832517347593326e+00 2.8390431157317242e-01 -7.2315373508440928e-01 3.1651277968694941e+01 2.2733002800980335e+00 1.9114866127527108e-02 4.8905878636415656e-02 1.1423187778723104e-01 5.8403281779256289e-01 1.0877415670685387e+01 -6.0531873314292284e-01 -2.7182909440183039e+01 1.9455877248713627e+01 3.4326929790637255e+00 1.6230492030907220e-02 3.1668691263446597e-02 1.0482089726604129e+00 -3.0434772075279795e+00 5.1589484584832759e+00 -2.0893728541061591e+01 -5.0224722350141136e+00 7.3360467858204825e-02 2.3771092799876716e+00 9.6987674933815793e-01 3.4707700713342824e+00 -2.6139114013826514e-02 3.7056466665023891e-01 -2.3633030147466343e+00 -2.0783838468250565e+01 1.2050973859368819e-03 -4.1130047236934864e-02 -2.5467268358200998e-03 7.4199080804396456e+00 5.1200418418806404e-04 -7.3498991724949914e-01 3.7440164028784594e+01 2.9219299010139363e+00 4.8488819812142481e-02 -1.6331617883059779e-01 -3.6842228352705217e-02 -4.9566109226360344e-01 1.6812475072873912e+01 -1.7549095138003938e+00 5.7521508646271286e+01 2.7793454165251973e+01 -5.4713868572682400e-01 -1.4947668458746910e-01 -8.4222383750284624e-02 -7.7696618749059141e+00 -2.6650298162387809e-01 9.3106225314532820e-01 -8.9774435022321924e+01 1.6384557378376039e+00 -1.5861313083537112e-01 6.6168101607673258e-01 1.1477456439996958e+00 8.6630337901177690e+00 3.4117361754627836e+01 1.0155568474834304e+01 2.3050402289997919e+01 7.4532848598135892e-01 3.4351929927251206e+00 -1.5861481126413479e-01 -5.2018170004582420e-02 -2.8397515037709287e-01 -2.7060977280005223e+00 1.6992336864801523e+00 -2.2448500275811227e+01 -7.6498307096429219e-01 -9.6595324607003014e-02 2.9556725282829275e+00 2.6364183257430991e+00 9.7353384723858767e+00 5.1783621767053802e+01 3.6045630060406366e+00 4.0332198923276052e-01 7.2401847783204305e+00 4.3764887031265054e-01 2.4104359150828668e-02 3.0679528347743276e-02 3.1540248389843839e-01 2.2077280807355831e-01 1.0173493434521890e+00 1.9363784810100235e+01 9.7883535486264189e-02 -4.9513844534690658e-03 7.1244449830153989e-03 7.3659379659828578e-02 7.8565326519079937e-01 9.2016406713739229e-02 -8.7631541658225878e+00 
      </Row>
      <Row Index="14">
        -8.2121390992841532e+02 -1.4417991994453769e+03 -1.5063507437103050e+02 9.4300160851902497e+00 4.3148716998817827e-01 -9.5266762908066849e-01 2.1282276125796761e+02 5.0099190027786840e+00 5.6684081010736712e+01 7.7631833158519271e+02 2.0568099726389678e+02 -5.4185466336900712e-01 1.3620684193434524e+01 -1.5045283255286517e+00 4.3389117049259460e+02 -5.9354712685513732e+01 7.1759774715488311e+02 -3.5393033401042925e+02 -3.3225319238096171e+02 -1.1483653928197617e+01 -2.1008078670263330e-01 3.1938711902622552e-01 -2.0996461430489560e+01 4.8082329370766203e-01 4.0495578364330285e+01 -9.9444718961679609e+02 -1.8871713104369192e+02 7.3481698077943869e-01 -4.9256274817713575e+00 1.7506799962273893e+00 -3.5054119381009042e+02 1.2051952542758750e+03 -6.2467613517354309e+01 -3.5559535683328733e+02 -1.3490003810054171e+02 -1.9406437062605519e+00 9.0078412048603695e-01 -6.1060868075748609e-01 -1.1366761073936392e+02 5.9465749695346943e+00 4.9090570341860740e+01 7.5502741975578692e+02 -1.4455564840939846e+02 -6.5844167821944666e-01 2.1167324376087766e+00 -5.2829004863777023e+00 -1.6108334222656117e+02 -5.9997249344150987e+01 -1.0668964117950509e+02 -2.1946938545665216e+02 1.5115396819272291e+01 -1.5202362123246495e+01 -4.4408319242844509e+00 3.1988200538914491e+00 5.9375829906363919e+01 1.7794495397689496e+02 -2.1545345074055535e+02 1.0578822168749980e+02 -2.0950413548049684e+02 -4.7487535500100861e+00 1.0308719109940546e+02 -1.3750412376810409e+01 5.5426817050648168e+01 3.4754112647757273e+02 -4.6608626059267408e+02 3.4315788211717154e+02 -1.4397257277103381e+02 -2.8559802661676894e+00 -3.1118770805707880e+00 -1.1446292557461213e-01 -4.4969798940829952e+02 8.7226790051473131e+00 8.3484202480705648e+01 -7.2677342796979906e+02 4.2163008813281394e+01 -1.3021890888027201e+00 5.8642938811656959e+00 -7.0390640607147663e+00 -1.5838199778446409e+02 8.9514844668696651e+02 -2.9167963489382214e+02 -8.3530293556083700e+02 7.2931639008955494e+02 3.1978088635884134e+00 -3.1094708120155112e+00 -1.3162197638190007e+01 9.3187988029955125e+02 -1.8945401406793763e+01 -2.2068336745614926e+02 1.3804531745750810e+03 -1.4227569738549087e+02 1.4201068275393895e+00 -4.0547403362364456e+01 6.8256470818740693e+00 -1.2398622014982803e+02 4.2236581202800824e+02 4.3554120139511951e+00 1.8640454353662790e+02 6.4357501316368825e+02 -1.3278979326620700e+01 -9.6550393025917014e+00 -9.9827956558840931e+00 3.5692734264957079e+02 1.7085693693440152e+02 -4.0747617747947845e+02 7.1613232650862619e+02 -2.7145969944170605e+02 -4.3764514488158932e+00 7.5511304577556501e+01 -1.0650413181133338e+01 3.6306563719796202e+01 -7.9877732688389460e+02 6.0925576732798072e+00 2.2618192072864076e+01 -3.5797163082478477e+02 -3.4686373485092439e+00 1.8946685412477777e+00 2.8757571348869910e+00 -1.3952390148616723e+02 1.4494014291802022e+00 1.5161756689572616e+01 -5.9047949989799883e+02 2.8305375797042746e+01 1.0240109692365959e-01 -3.7098825366529198e-01 -1.1621713676182481e+00 3.5016545414353124e+02 6.5994851028523021e+02 1.5208160483067303e+02 
      </Row>
      <Row Index="15">
        6.1281401009971432e+02 2.8806809131440241e+02 5.9164447457204806e+03 1.3112909807482023e+02 -2.8961633210710986e+00 6.0570935272697501e-01 1.4506094099459304e+04 3.7546405101912353e+02 -5.5061618724547054e+02 1.1215829144330928e+02 -3.0983219885526367e+01 -6.2142757862099430e+01 -4.7042874170733214e+01 -3.0933692474748476e+01 -5.9354720771008715e+01 6.2994367837406826e+04 -6.9918888727203012e+03 4.1310029657634495e+03 3.6730294591977495e+03 -2.1263875207649184e+02 3.0612273612223362e+00 1.0342516787187546e+00 -1.5893140116328854e+04 5.6755863889936791e+01 -4.5218540349384773e+02 -1.4725567671202589e+04 2.8773830788750757e+01 -5.8810529881550684e+00 -4.0938133053394267e+01 1.3535666403729278e+01 5.4937552801847676e+02 -6.5223743840114766e+04 -1.9689136326011617e+03 6.8028583274869561e+01 -1.6454235572532639e+02 8.3018793469591301e+01 2.0304436069491203e+00 2.1451357783485978e+00 -3.9818854895270715e+03 7.4988529006029339e+01 2.3427447140161561e+01 1.3772982428966880e+04 -4.8292223038893226e+01 1.7773587186862642e+01 -2.1527408522105389e+01 4.6501903558125164e+01 1.1451803387026971e+03 -1.3825715683697650e+04 3.6008201501805838e+03 6.7300237359729772e+03 2.8915328873513135e+04 -1.7980765988872936e+03 -8.2168574476743302e+01 1.9199623500272349e+02 1.2066202256775288e+04 9.9211129674385211e+02 -7.1923412962094153e+02 3.4961787453215598e+04 7.4693262812760840e+03 -4.0186922109180159e+01 9.8614779787478278e+02 6.3711204085044187e+01 -1.0959468473736992e+04 3.9718201279495461e+03 3.9906943054250441e+03 1.1707455089744180e+03 2.7287112993617775e+03 9.8530485367254528e+01 2.4034150038088100e+00 -1.0514317758998867e+01 -1.2546658933249457e+04 5.8741557948500869e+01 -8.0637617150501072e+01 4.9482481937793882e+03 -3.4565741720806635e+01 -2.9161134791318545e+01 -3.1237017168052983e+01 -7.2970249752559901e+00 4.5454287567056144e+03 -3.7173969582030608e+04 3.0630931504254986e+03 -7.1695947225433629e+03 1.5110666068486797e+04 4.5433648311496290e+02 -5.5434240265967905e+00 1.7970034249950146e+01 1.9323397103405987e+03 -2.0500878811309752e+02 -1.8882810522868022e+02 -3.1800818712874345e+04 5.7718036522509544e+02 1.0196104772707162e+02 -3.8606459154166721e+01 1.6282761853086288e+02 -1.3533614914167070e+04 -4.2318699025246620e+04 -1.7489782656383070e+03 -6.4282437986247241e+03 2.1280094638514947e+04 -1.3397816287434323e+03 -8.4998902014143027e+01 2.0079212317646699e+02 1.2613578881903870e+04 1.1408279953376591e+03 -2.4861330622832338e+02 1.7487029243407262e+04 7.8353583782715559e+03 6.5038407733354120e-01 9.0462755132690813e+02 1.9730237770303702e+02 -2.0364761167886139e+04 -2.7146877411399717e+04 1.0252899931144543e+03 -7.1501491301705371e+01 -1.0454708792823387e+04 -1.1581882972811019e+02 -5.0142011896161520e-03 2.9321186901710514e+00 9.0734973282960709e+02 9.1951221902397137e+01 -7.3420520435289973e+01 -1.4294233681836962e+04 1.9668888119460625e+01 -9.8827355151983483e+00 1.4196170137452327e+01 7.7532123346738446e+00 -5.8082901797854211e+03 -6.7021215326033562e+03 5.1371368059799834e+03 
      </Row>
      <Row Index="16">
        -1.2447290168827309e+04 -9.2740857240637197e+03 1.7111175098188135e+03 -1.0362997642759291e+02 2.7040579021644073e+00 1.1406661961451618e+00 1.0482580998883577e+00 -3.6215876941136045e+01 5.3968426646694184e+02 2.6521726488604763e+03 1.7751941148594838e+02 4.9906142286642545e+00 3.1237584083846226e+01 1.1304525289629712e+01 7.1759774896555564e+02 -6.9918887610227248e+03 1.3550652884848299e+04 -7.7849247096332883e+03 -7.0064473617101057e+03 9.3559643772156605e+01 -8.7950666079819939e-01 -8.1501597524734148e-01 1.2223527281753782e+03 1.6801700194941645e+01 1.2678790134060634e+02 -1.7880507869192224e+03 -1.3992694647387540e+02 -1.1913466158642150e+00 3.8037618720346018e+01 -5.9188394364216155e+00 -8.4246373417514201e+02 1.0513557700280504e+04 1.2496157224213684e+03 -2.3972660978528766e+03 1.5548559819649797e+03 -4.2705597852867150e+01 2.7917597310986366e+00 -1.1704058170041607e+00 -4.1243544144381070e+02 -1.3842947036526484e+01 3.9975627272394291e+02 -8.1127273880073426e+02 -1.6362441982018021e+02 -4.8638876510636919e-01 1.2451528646478458e+01 6.4702253393860367e+00 -2.3606338595387012e+02 1.3786179436870548e+03 -2.8652429531911193e+03 1.5807739735695577e+02 9.4660671242078479e+01 -5.7410894736346393e+01 -6.5702232114771453e-01 -2.5347537894447377e+01 -3.4213608635201749e+03 4.0602692583627743e+02 -2.6433137048703372e+01 5.4146738455892973e+03 -9.4049171065310532e+01 1.8965524397107401e+01 3.6802159592366365e+01 -7.5315209893666619e+01 1.3491120682010410e+03 -3.8036773773668556e+03 -1.0805152882278871e+04 8.2577878475395846e+02 2.1817466143253914e+03 2.7982260703598341e+00 -5.0545340194841533e+00 9.1035186604106233e+00 -7.3334625118474003e+02 1.3122348327270956e+01 5.4041973500171036e+02 -1.7228931153280766e+03 -3.1650904917880496e+00 4.9946536204978997e+00 4.9191906346408047e+01 8.1423638760802177e+00 -8.0723282591077805e+02 3.7984202197371642e+03 -1.8923054693386312e+03 -1.1898550200233956e+04 -8.0062998492171573e+02 -3.3429239038711950e+02 2.5883918357958198e+01 2.6062562314782614e+01 4.0193949158012956e+03 -2.7612233311685065e+02 -1.5559582383903110e+03 5.3638953111028059e+02 6.1139726583029062e+02 -4.7029362706613639e+01 -9.9961182200542893e+01 -1.1446406167441712e+01 4.9609059534109110e+02 1.0600039278088721e+04 3.9004997794282999e+03 -1.7049387945009221e+02 3.8649887065072380e+02 -4.0988444560096917e+02 2.2478700345402725e+01 6.9889312069867060e+00 1.1552510229596503e+03 1.3104325674920759e+02 -1.4432081966847541e+03 8.1141021995004849e+01 4.8838722731655787e+02 -1.8280593096474099e+01 -1.0044581180577083e+01 -7.6003333205705474e+01 1.6266745858615986e+03 1.2916330391778689e+04 -1.4380695207857229e+01 2.2313204195804650e+02 -1.7810214683245778e+02 5.3967956257957233e+01 -1.2860125412541894e+01 -8.5531727111575027e+00 -4.0616446204879594e+02 -8.0507697347062894e+00 1.8694136385266336e+02 -1.6467661251215600e+02 2.7357218852154087e+01 8.3270909151078043e-02 -1.0001321282798891e+01 2.3242440474512329e+00 1.5242283622646473e+03 2.4328256687789017e+03 1.4944743494659937e+02 
      </Row>
      <Row Index="17">
        -4.7588678279735905e+03 1.4985678470177279e+05 -1.4964128048754497e+04 1.5270080122319155e+02 3.1536894821492449e+00 -9.0533986219116969e-01 5.1903863473077458e+01 5.7501041886318887e+02 -2.9589961119825402e+03 1.0212622099682771e+03 -2.0681796003619235e+02 -8.2680607893343890e+01 3.4367697573624696e+01 1.0307557993637332e+01 -3.5393032431294341e+02 4.1310032030434031e+03 -7.7849247395966668e+03 1.8083111289763075e+05 -4.1932700748457719e+03 -5.4128469730468822e+01 -1.6510899616859547e+00 1.7143895238961822e+00 -1.9360747982585444e+03 -1.2149049199207637e+02 3.8565831305622072e+02 5.0874698829495901e+03 3.3613964543140145e+02 7.5330956016332902e+00 -1.1640907201342065e+02 -3.1841151264964722e+00 3.2378715135209040e+02 -1.4057199786034894e+03 -1.6450350525466274e+03 -9.7035322643673153e+03 1.5716281413302095e+03 3.7263600216037844e+01 -1.2243152195541143e+00 2.1955210532224489e+00 -3.0120834240299837e+02 4.5862905313100333e+02 -2.2742604586988855e+03 -1.0288959772746921e+03 4.1125931277283655e+01 4.6530912824410393e+00 3.4156560739555232e+01 1.2358919984174253e+01 2.9966340480025968e+02 1.2513664930014340e+02 2.7450294478771102e+03 6.9759078075693862e+04 1.0808612523488664e+04 -5.8312154672097245e+02 -5.8026349622479350e+00 -3.8188259013125951e+01 4.8236443802725062e+03 -2.6980218563350468e+03 5.3730859928849586e+03 -1.9729501622651485e+04 -1.0230920379727709e+03 -6.0046142806562273e+01 -5.9298784738647055e+02 -7.2096759773274357e+01 -1.3345742683046976e+03 8.3188076478943894e+03 8.6251453337182920e+03 -2.8842911763463257e+04 9.5074584455642434e+03 -1.1269636086722066e+01 1.7614272625114435e+01 3.2096109643434900e-02 2.4731016218674398e+02 1.5207627965089094e+02 -3.0552751416007709e+03 5.6127355733631839e+03 -1.9481286431131809e+02 7.7084852153066095e+00 -7.7093402000552828e+01 -1.1955534152053602e+00 3.7338674455723731e+02 -2.4641450317313825e+03 -1.9585462732066776e+02 5.0107311344445618e+04 4.7652672251388576e+04 1.1264776522864634e+02 4.4502505959843631e+01 4.4828609408167949e+01 -7.5505858559568333e+02 1.6499218460317340e+02 1.0247435307234748e+04 2.6003195851194734e+04 1.2098660942207246e+03 -1.1011108979777639e+01 8.9844758845785027e+00 -4.1633266173810647e+01 -1.1249228751875833e+03 8.2033460354541166e+03 -5.1672122414078449e+03 -7.5955307267842989e+04 2.2075166388240512e+04 -3.7986171663597639e+02 4.7842650822698936e+01 7.6435263634797366e+00 2.5634347354783195e+03 -1.8540639170176071e+03 1.3557040714437317e+04 5.2199013662663492e+03 -5.2754290892654581e+01 -1.2725344578598683e+02 -5.9941866686649394e+02 -9.1872624754453000e+01 -2.4046355968647044e+03 1.2903293806122441e+04 4.5450617653334457e+03 -3.8148456713927117e+03 -6.9980632975042499e+03 -3.4175205804711425e+01 -6.3316018332784259e+00 -1.1291005768104480e+01 2.2394550625222860e+02 2.2686645741877373e+02 -1.5712574597950338e+03 -4.7247706450859387e+03 -2.6152036469905489e+01 -4.3727446366996237e+00 1.9509868447557267e+01 -1.0049009530335926e+00 -3.2628976353574393e+02 -9.0821583262634249e+00 -1.4004939897353449e+02 
      </Row>
      <Row Index="18">
        8.0833600618988985e+03 -9.2437626704630675e+03 -1.7798742986985497e+04 4.6049240113560552e+02 -4.4866195663445430e+00 3.7476822665043983e+00 -1.7962648299452917e+02 1.8986529778180477e+02 -1.5738538345075794e+03 -1.2107084971684100e+04 3.4441461065032445e+02 2.1385050073884297e+01 3.8235964045880678e+01 6.0874017320590866e+01 -3.3225319071293995e+02 3.6730291399730959e+03 -7.0064473304450512e+03 -4.1932700039260089e+03 8.1328739995678785e+04 -1.4305672815115054e+02 2.0823826466985338e+00 -1.1844993466353559e+00 -1.4024573034191744e+03 4.7272615243202956e+01 8.7354328229255873e+02 4.3207098536107223e+04 -2.6972747589845176e+02 1.4901466959961418e+00 -1.4067562996852394e+02 -8.9391365291321506e+01 4.8579107545329452e+02 -1.0438568851199419e+04 4.3879053579159554e+03 1.5607126287991421e+04 -2.2076166240636314e+04 1.7605387129769647e+02 8.0223544277032488e-01 -1.2925928354931859e+00 5.3077211014161685e+02 -4.5650989101989374e+01 -3.2719004100083580e+03 -1.1502414801108649e+04 -1.8968990480957177e+02 -5.8767228048054676e+00 -2.4158970510093681e+01 -3.6091640340228587e+01 3.3404499301542842e+01 2.6257683766128321e+02 -3.6300431034528601e+03 -7.9629277635935141e+03 2.6512038059462284e+03 1.7843605834557686e+03 -5.9640635565000665e+01 1.1601447353546374e+02 2.7275200160042900e+03 1.0566721969644917e+02 -2.4013680590505473e+03 -5.6150508553891395e+03 1.0822345039947227e+03 -1.2184223185328881e+02 2.2842638869070256e+03 6.3364126602884835e+02 -1.1395733642656019e+03 5.4085037159307249e+03 -3.7504299254015204e+03 1.7067103934857994e+04 -2.0299932059274055e+04 1.1834099723202684e+02 -5.5735848727841244e+00 -1.0229885312425999e+00 2.6965692265928607e+02 -5.1260516756743876e+01 -2.7899115349608205e+03 -5.9803620283661676e+03 -2.7050734284257572e+01 6.9506216091867827e+00 -2.1081997490369818e+02 -3.8536470327116355e+01 4.5134075617280439e+02 -6.1556109980369183e+02 -3.9669995558745723e+02 1.2348343923261824e+04 1.0931958400406744e+04 4.8871313766215530e+02 -4.2414650521224111e+00 3.4125215902089145e-01 -3.8692697349308037e+02 3.1119495075881491e+02 -1.0999936270874759e+03 -1.0380348741356342e+04 -5.1509430934610384e+02 -2.4081374867401315e+01 4.1204441559395599e+02 -5.2093779260934056e+01 -1.3551173053691855e+01 -1.3258323879336456e+04 7.2200167435121894e+03 7.2608197928187437e+03 1.4528213130677606e+04 2.5883157126479741e+03 -6.8885497876675458e+01 1.1633105796400682e+02 3.5570234347465530e+03 5.0647836019365138e+02 -5.5880479047534818e+03 -1.0808063023268205e+04 7.0781960650971018e+02 -1.2690041416660948e+02 2.5576242467959655e+03 5.5816543982071744e+02 -1.1081301781741211e+03 1.9915595382508618e+03 1.7092901949654288e+03 2.9374260407812312e+02 2.7601070006625469e+02 -8.0932216424639364e+01 -3.8122586414209136e-01 1.6901895630414112e+00 -2.7767324464410922e+02 1.8686469578803504e+01 -6.9461129747178620e+02 7.7142876998902511e+03 4.3968533392245980e+01 3.8265789369448120e+00 3.2761339259955150e+01 -1.1446159507380889e+01 -9.7764408590837320e+02 -1.1553820492921805e+03 -4.2894044299461812e+03 
      </Row>
      <Row Index="19">
        -6.2204561057129055e+01 4.1531765238691150e+01 -3.0727053129502213e+01 -1.8273486158402271e+01 3.3796802521529508e-02 4.4248394446661621e-02 -1.4545646586473127e+01 -1.7420525573163543e+00 4.9216600682333592e+01 4.1402462023936437e+02 -1.2870427099241111e+01 5.6180276742000723e-01 -8.4565976554106526e-01 1.3340771483221308e+00 -1.1483653951837081e+01 -2.1263875681452541e+02 9.3559644606459187e+01 -5.4128468997776508e+01 -1.4305672885829301e+02 3.0964753482293165e+01 -1.3840765365998209e-02 -3.2190780134546952e-02 3.3755778536719717e+01 -1.6777717973602135e+00 -3.4069461022901123e+01 -2.4135609703060982e+02 2.9665715492786875e+00 1.5744748594599561e-01 2.7141992804741051e+00 -8.5904997998924415e-01 3.9379409841149156e+00 2.7473426743239463e+02 -3.5550687572269659e+01 -9.9711974111074937e+01 2.7481797459680149e+02 -4.6488991747204009e+00 -6.0750652018413120e-02 -7.4827242999927265e-03 -2.3176747470997285e+00 1.5933192403926970e+00 1.9179027960515999e+01 7.8331443625240041e+01 2.4494863196135316e+01 -4.4813706851469703e-01 -1.5559858283730180e-01 1.8250734169533775e-01 -4.8887839380776654e+00 -8.8757145834220275e-01 5.2984953868737577e+01 -9.1478969891742224e+01 4.2116006626062969e+01 1.5577721643588514e+01 -6.1322068308190403e-01 -2.1985829794639128e-01 -5.6384041296242387e+01 -6.6664610367915325e+00 3.8720260188204371e+01 -3.0517129583561524e+02 -3.7076491993664717e+01 7.5070471162652708e-01 1.9938859056562608e+00 -5.8769379115583282e+00 4.9884901946552368e+01 -6.6937308825568721e+01 5.7268205901575129e+01 -1.1300434427920845e+02 2.1999626963107266e+02 -1.3803327294037877e+00 1.5417259963522900e-01 2.7595655501436323e-01 3.1687782310316287e+01 2.7773007197753014e-01 1.6146552418660928e+01 5.2596226742259553e+01 1.1008044537542455e+01 1.2520663399421039e-01 4.9855542245141748e-01 1.6316743840624217e+00 -1.9552757191323053e+01 1.2075241903408030e+02 -1.0087091113724455e+01 6.5496044172255012e+01 -9.4089791336164126e+00 -2.2647480853364790e+01 5.7642396392528328e-01 1.8953508391878031e+00 -4.6436703918170679e+00 -3.9715004742126805e+00 -4.6598337479335932e+00 -6.6717131118163820e+01 2.8104493820905315e+01 -1.6471634540698021e-01 3.7667271483134773e-01 -1.9905751021811864e+00 1.9596755101039804e+01 -1.7105572540779070e+02 -2.5091664049038094e+01 9.4731579385037776e+01 -2.0984811083483879e+02 -5.7727523215340488e+00 9.7264938177946403e-02 1.8019392709945365e+00 -2.3078907855930211e+01 -1.1674417545767344e+01 3.4105887248034648e+01 -1.3427494225739059e+02 -6.1420188902866979e+00 9.8890193462973275e-01 2.4260946595101509e+00 -6.4793571008893069e+00 4.9233962619466837e+01 -6.8420037477610322e+01 -3.1360651083292916e+00 1.2884205496658172e+00 9.0833735808617746e+01 1.0386793437562618e+01 -3.5577269886547713e-01 -4.3383655503627505e-01 -1.8666914112271797e+00 9.0291098669304126e-02 1.3946056048746044e+01 1.1684851992032695e+02 -2.2886811413132091e+00 9.8545207502270069e-02 -2.5886908753139726e-01 2.1125321085623744e-01 2.4380269717595151e+01 1.2601036064651453e+01 -4.1840646559302812e+01 
      </Row>
      <Row Index="20">
        2.4244822057620716e+00 -2.4429762562970758e-01 3.3314198717830534e-02 3.2017098387164669e-02 -3.4060597746972773e-02 2.8297243687286880e-02 2.4296927240225513e-01 1.5221897113789740e-02 1.2432021529355364e-01 -2.7772585107984042e+00 1.6177540987443600e-01 -7.0689956194779857e-02 -2.0378404752209436e-02 1.1724498978603715e-02 -2.1008078876605318e-01 3.0612273253792943e+00 -8.7950666491394713e-01 -1.6510899912318422e+00 2.0823826910614258e+00 -1.3840764697624462e-02 5.5304489674658064e-02 -4.8145823078692508e-02 2.8076056058333348e-01 -3.7900823550835294e-02 6.6905600782607877e-02 -5.0909419150985258e-01 -1.4468346751941985e-01 1.0208766594867370e-02 -1.3006351149403517e-02 -8.1320007532235811e-03 4.4313453949322934e-01 -1.4962118629823586e+00 7.7778225338946960e-02 -1.3600543213866327e+00 -7.5791546014065836e-01 4.8063996763685703e-02 1.1966673487853352e-02 -7.9994025129246603e-03 2.9643960607264691e-01 -6.0237678463690339e-02 -7.6243433052685772e-02 1.3780188532496087e+00 1.3146816774862041e-01 1.7933162390621316e-02 -4.8358230396332580e-03 -9.1309963866403263e-03 -2.7761207470619498e-01 -2.6288227917417584e+00 -9.9120320692849617e-01 -8.0592289947382056e-01 9.9087914112919884e-01 1.4911946341792820e-01 3.1247606755570468e-02 2.4943228867652087e-02 8.1735364194771054e-01 9.7462013400017866e-02 1.3457461476002233e-01 -6.0128752610365410e-01 3.5072167247919994e-01 2.4065624391959070e-02 5.8318307351442444e-02 6.8852774027935895e-02 -6.1537431905132267e-01 1.5675641251346883e+00 -3.2876882285911480e+00 5.1671866737534344e-01 -9.7999735190542614e-01 2.4488321449227385e-03 -4.7371159163484278e-02 1.5594843556011326e-02 -1.0246125768662016e+00 4.0394275808270687e-02 1.6022425168772722e-01 2.8706923759868541e+00 -8.3045521221843492e-03 -1.5896306575628877e-02 -1.2925176432059093e-02 -5.8751033798233321e-03 5.2022816405350025e-01 -4.3336185901387196e+00 -2.5567832015338912e+00 2.6573899338635876e-01 -3.0825368770393702e-01 -4.7363904965338835e-02 -5.0478245008562725e-03 -1.6864755234163897e-01 5.3983564279918117e-01 -6.2160873876426603e-02 -3.7926488438197808e-01 -4.9559208171802069e+00 -1.3445213533728129e-01 4.3012215671649257e-02 -5.0623213860746058e-02 -1.0153721772790214e-01 -8.8858120116353123e-01 3.0092712596696587e+00 1.2251684762572712e+00 5.4490042689150187e-01 3.7294388184557624e-02 1.4456351865898173e-01 -1.1687342824535887e-02 -1.2498061960880416e-01 1.4306498271854602e+00 2.3284945972727622e-02 -3.7014890863566574e-01 6.9842646303744971e-01 3.1574134392662462e-01 1.7279792192416581e-02 -7.1338853388895340e-03 -2.6737409001488771e-02 -1.1912368371024467e+00 3.2140375178951448e+00 -7.7681648482401244e-01 4.8819601881234152e-02 3.5619453126255383e-02 -1.3272501178094321e-02 1.6915167415517858e-02 2.8488469988488238e-02 1.4256398987764074e-01 -1.5565261199721358e-02 4.4988467383490771e-02 -6.8632478268251451e-01 6.5957928509614155e-03 -9.3843012554788163e-03 6.7067989508911782e-03 -4.3306464145492565e-03 -6.6442090785076424e-01 -6.6449183047829863e-01 -7.0197502276097418e-02 
      </Row>
      <Row Index="21">
        -1.3718968954063016e-01 1.0532344629348387e+00 -5.8847805100679107e-02 -2.6319128892247357e-03 2.7840236611139449e-02 -3.7141481512209196e-02 2.0966910862264895e-01 -1.8148670216096022e-02 -3.0853134084309630e-01 -3.1058207670708597e+00 -1.2165437979660307e-01 3.1172134119076399e-02 1.2316899050684874e-03 -1.2668522108952560e-02 3.1938711958682919e-01 1.0342517336859971e+00 -8.1501598289196409e-01 1.7143895128151598e+00 -1.1844993572769322e+00 -3.2190780298523160e-02 -4.8145823070457450e-02 5.8487027764803134e-02 -8.7204535713537801e-01 2.2786545498468785e-02 3.6935888803284911e-02 -4.8281760802518647e-01 8.9845992935400007e-02 -9.3969335340802866e-03 -5.3012904077590406e-02 1.3566935128426435e-02 -2.8283754804368288e-01 -2.1032981037423211e+00 -1.4038067857291026e-01 8.5466977362615637e-01 -2.8615700757269269e-02 -8.2700929936759017e-03 -7.6958621838683072e-03 1.1416776834789586e-02 -4.0412971995674046e-01 2.1074289865357920e-02 -1.2758429312009145e-01 -1.5476801808643277e+00 -1.2537287227549238e-01 -5.0656980397201234e-03 -1.5916555974937019e-02 8.8585907122920582e-05 1.6304235224731589e-01 8.0742818237824210e-01 7.2732612023959220e-01 1.3464959980359748e+00 -9.3883395607019393e-01 -2.2724571725596357e-01 -4.9459989507892486e-03 2.1033243004770372e-02 -2.3935792905696029e-02 3.9680699629894386e-02 -2.8334552212209169e-01 3.4884650284384477e-01 7.6877585953562977e-02 -2.5339781547000076e-02 -2.0020517847691051e-03 -3.9848531733645498e-02 -1.3436857228712562e-01 -1.0289253451877207e+00 2.4324253387150350e+00 1.7676772946333585e-01 -6.0525805398818733e-01 -5.7621473331987173e-03 2.3073253918344219e-02 -3.8214086662159572e-02 5.1629286729817880e-01 -1.7995738008003914e-02 -6.9162724897804839e-02 2.1721830561362410e-01 1.5626000149465025e-01 5.6119877788824990e-03 -3.6741291517860750e-03 7.0547167037057490e-03 -3.1120902922558824e-01 1.6163937781459343e+00 1.0431982692635948e+00 -4.8712884147982294e-01 7.1340100959117869e-01 6.8150007904613674e-02 -8.9487950961803633e-02 -5.1021580225222206e-02 -6.0435517574613384e-01 2.3141448690749258e-02 3.0560791817491650e-01 3.1121435811510807e+00 -3.7585040005408499e-01 -3.0952626029882427e-02 7.8453573669042626e-02 6.8074940474736528e-02 5.0823368920080436e-01 -3.4841486819488749e+00 -1.3053022271367871e+00 -1.0560907831711006e+00 1.0873720643965901e+00 -1.9653158876108751e-01 -7.1749162960590515e-02 -5.9479643536560337e-02 -9.9612244653645543e-01 6.2234509348980560e-02 2.2937184455335347e-01 1.7354088873355238e+00 -2.9614748340237007e-01 -3.4888138605223926e-02 5.8609738654254062e-02 2.0335259537017869e-02 4.5317945498756107e-01 -3.9596058967045220e+00 2.7460960591217076e-01 -7.0055162503439475e-02 -9.3975067863152095e-01 -1.0751471288583031e-02 2.2548972095487459e-02 1.8833096888508587e-02 -8.9452151203435193e-02 4.0776153010865911e-03 -1.1794789782981707e-01 -1.3334201508560812e+00 -1.2878060598733865e-04 3.7627620977193485e-03 3.9857269790660958e-03 2.5234904518500797e-03 2.4182979101379798e-01 1.8405653874464001e-01 6.9177671912700045e-01 
      </Row>
      <Row Index="22">
        9.1276634144124182e+02 -1.2082827411350299e+03 1.1631370108449864e+03 -3.1657645751599951e+01 -3.5046702385295520e-01 -2.1562238976832759e-01 -4.8803927655578991e+03 -1.7179784690335019e+01 2.3987136020544131e+02 -8.9602079809681709e+02 -6.3986782125781410e+01 7.1321184874733587e+00 6.4356914722010607e+00 1.1785617988720128e+01 -2.0996458899728509e+01 -1.5893140070587437e+04 1.2223527541672811e+03 -1.9360747515265830e+03 -1.4024573985858194e+03 3.3755777019187846e+01 2.8076056188729126e-01 -8.7204534366742337e-01 6.2276115282301107e+03 -1.0112941836032078e+01 1.9829250123159727e+02 2.0963751036031172e+03 9.9691407143265049e+00 2.8110187447933486e+00 -4.8005790470474494e+00 -1.1285216753001851e+01 1.4973314990281688e+02 2.0084468698770801e+04 4.3452399397001136e+02 -1.4100588002885333e+03 1.6317668516829372e+02 -1.3512339887419039e+01 5.5713407088296663e-01 -5.1107985268418421e-01 1.4963485649956547e+03 1.1594855018951630e+01 -6.7460760165622560e+01 -1.3409383548568630e+03 9.8535412675766509e+01 -3.4263662362709510e+00 3.0401602463434756e+00 -1.8256410249555479e+00 -3.0172430064271418e+02 4.1219609744858526e+03 -1.1095758421381397e+03 -1.1175370846561273e+03 -5.5881645401020505e+03 6.7261275341015858e+02 2.2745551070915177e+01 -4.8661009001702070e+01 -5.3069668984254404e+03 -2.7544186161911864e+02 6.3499911869205437e+02 -1.2881514113593261e+04 -2.2315547450755917e+03 2.7445198623496736e+01 -3.5527347804618364e+02 -1.9394623239945439e+00 2.9623506625444170e+03 1.0006691931061107e+04 -7.8203828272773535e+02 -2.2781970755010843e+02 -1.0749100503149093e+03 -9.9494608592572362e+00 -4.6822736659657984e+00 1.7641117587744128e+00 3.7195090319954584e+03 1.5335188519317930e+01 7.8080122160263343e+01 -3.0586340011051510e+02 1.2825691956017107e+02 7.8930056406215954e-01 2.2067405919301091e+01 1.0239299301480390e+01 -1.2106858972006396e+03 1.0346857587794180e+04 -6.6903426569744079e+02 -2.8471122656169564e+02 7.7259100897465760e+02 -9.7233507525048395e+01 -1.5412583029494362e+01 -3.0628967540336241e+01 7.5392671575989516e+02 -9.2599473195543467e+01 -9.9550798184119117e+01 9.3219989867343029e+03 -7.9756562518613055e+02 -3.8625825447007749e+00 -7.1635371059217221e+01 -5.8587017543362357e+01 4.6364935765751952e+03 1.2722903380874446e+04 1.2522480037630796e+03 9.3599684265692485e+02 -4.2164233148560816e+03 5.7150183180995054e+02 4.4104843351314500e+00 -7.7162650230688200e+01 -4.2472548776829453e+03 -3.6548207937150943e+02 2.7009261659310096e+02 -3.0680976962233326e+03 -2.8888150675194479e+03 2.8823531416117930e+01 -4.0745391948167526e+02 -4.6442534427138597e+01 6.5250720008370008e+03 1.9742999245894673e+04 2.3365329572246708e+01 5.0299103529592855e+01 1.9051240198294909e+03 2.2273293943134057e+01 4.2820432882798176e+00 4.9368607237037034e+00 -6.7706830969313523e+02 -8.7973039524674324e-01 3.5138968076261122e+01 2.6846460718029039e+03 -1.4978862636137062e+01 1.3930463762040521e+00 -1.2032518916975317e+00 3.0469913206935040e-02 1.3139903461125791e+03 1.9319125805988697e+03 -9.0863210626783416e+02 
      </Row>
      <Row Index="23">
        -3.8953080081848626e+01 -4.6032898306441075e+02 9.7995092615062021e+01 -4.4565280682129300e+00 2.6492496298154075e-02 -1.2833899173838148e-02 1.7265735003297976e+01 4.7276563107831304e-01 -1.9238849180389479e+01 -1.8380859287253071e+02 9.0735997459197169e+00 5.5695700370518786e-01 -1.6829870098544170e-01 -2.4894158740010042e-01 4.8082335843251656e-01 5.6755863804355897e+01 1.6801700352138141e+01 -1.2149049114685477e+02 4.7272614666728700e+01 -1.6777718053967881e+00 -3.7900823727866850e-02 2.2786545701752203e-02 -1.0112941618108344e+01 1.1764607775798819e+01 1.8853696225975000e+01 1.0682965886547754e+02 -2.3904169348586120e+00 -8.9696444104517492e-02 -2.3540497090392165e-01 -7.8432720977272163e-02 1.9227627384534018e+00 1.0066154363273167e+01 -1.7315539266128326e+00 6.3069362479698611e+01 1.7442059356107862e+01 -1.5609082233330913e+00 3.1902540777593913e-02 -4.0631882060581062e-02 5.7384225018371549e+00 8.4816868780438381e-01 3.5688043337645929e+00 3.4740275349357802e+01 3.3401070787835252e-01 -7.2029301283592417e-02 -1.3984180185417472e-01 -2.7867941885689240e-01 -3.1627903149958305e+00 3.5716122981995653e+01 -6.2470244392030736e+00 -1.5100554306086042e+02 1.2505524387363187e+02 2.1141606793077665e+00 -7.8829150471212139e-03 3.2535092852283509e-02 1.2572965450086595e+01 2.3906693546809801e+00 7.5653354257594643e+00 -2.4616900948228704e+00 -5.7836979154074157e+00 3.4272075022983461e-02 3.1766847576083106e+00 -2.4441507250692034e+00 1.2293473093134679e+01 3.2425746632917622e+01 -2.7629685224637797e+00 6.5975988233607495e+01 2.4730475222895848e+01 2.4795822897776598e-01 1.0246323127603940e-01 1.7192311779742814e-02 2.2303750094541788e+00 -5.3358078463358793e-01 4.1337050760227338e+00 -2.5643973974951255e+01 -2.7515124187156577e+00 1.0669901449849561e-01 -2.7623602438229478e-01 2.2631217346315546e-01 -5.0056897968509713e+00 2.6531689766252384e+01 1.1146070898033202e+01 -7.8438507932501125e+00 2.4582237833503245e+02 -4.9033758651359705e-01 3.4343344372986184e-01 2.9501659416646719e-01 2.1178278874293767e+01 -4.1411021169085815e+00 -1.6726678772781881e+01 -6.8380687158265687e+01 1.1268821101271655e+01 -1.0352010088829776e-01 -3.8885004181200689e-01 -5.0538476455471004e-01 -8.4588366727372866e-01 4.4475169110753569e+01 1.8418018435209220e+01 1.4436774254448028e+02 1.6687224518214077e+02 -3.0185757392586536e+00 3.8793752135809667e-01 3.3822224974400283e-01 3.2647640061485809e+01 3.6462422686953015e+00 -5.5362947110737935e+00 -4.8927955863472562e+01 9.0333427802675672e+00 3.2238283848163674e-01 2.3512303895621733e+00 -3.0501740047876682e+00 1.0021970841353236e+01 1.0139702487268301e+02 2.4100148457429142e+01 6.1387589565479308e+00 -2.4885911223937697e+01 -4.9910946585843963e-01 -7.0220446120591196e-02 -9.6324483049726767e-02 -1.7191341415505121e+00 1.6068842708195283e+00 6.0723429744576851e-01 2.8079863110283501e+01 4.0898595856745867e-01 5.9317148119805728e-02 9.2650517527204046e-02 -1.2858224883209035e-02 6.6221137320335366e+00 9.5056865978805831e+00 -2.5238887807957873e+01 
      </Row>
      <Row Index="24">
        1.8307531575257713e+02 -5.1662396306524170e+03 -2.1721384428510764e+03 -1.7866409353585958e+01 -1.4702544144983307e-01 1.2503046721121791e-02 -9.6789225969404555e+01 -1.2656745259916061e+01 2.5775425728849950e+02 3.7449991447691186e+03 7.0724863787109058e+00 -1.3032221005590241e+00 -2.1597077069838533e+00 -9.6359890896163081e-01 4.0495578092933556e+01 -4.5218555579121841e+02 1.2678792207874358e+02 3.8565834934404120e+02 8.7354328350163996e+02 -3.4069460788258262e+01 6.6905577897159674e-02 3.6935893651616425e-02 1.9829254619564873e+02 1.8853696631029738e+01 1.3623981870123534e+03 -1.9490943713791203e+03 -1.3489699683635209e+01 1.2622758985280309e+00 -1.9551761676977549e+01 1.5976115160590920e-01 2.5004037797482329e+01 9.1985888796824975e+02 -7.7620999579783529e+01 -3.5387586168199778e+02 -3.5187169577484078e+03 1.5044261439081350e+01 3.9276824005628441e-01 -2.3072858844594382e-01 3.8015882079413743e+01 7.5212933120929861e+00 -2.0283751112519917e+02 -6.6959630921800917e+03 -3.1922301092524830e+01 7.5141707824241166e-01 8.2864516323024873e-01 -1.0544273765689583e+01 -3.3424346241680922e+00 3.4824657380555720e+02 -1.9881119255682123e+02 -1.6823871120937006e+03 -3.9057271532606214e+03 -5.0627472388025780e+01 3.6660251066167131e+00 -6.7669309990230726e+00 -6.3281785799923989e+02 5.8541184669362195e+01 1.6683714006553521e+02 7.5390892723652523e+03 1.1134647673153751e+02 1.4039474392285669e+01 -1.3145150754034162e+02 6.8532265941139087e+01 -3.0730848423494308e+01 -9.7454863636724349e+02 -6.4691831275122240e+00 4.8125646696891636e+01 -3.4842105061432376e+03 2.3301220252856314e+01 -1.9227373176443407e-01 4.1826649043774311e-02 3.3821745828750537e+01 1.7602657056271148e+01 -1.8365807717180715e+02 -8.5038809068438677e+03 -2.4401022107454342e+01 2.5745143209132948e-01 -3.4527140485038865e+00 -1.0311026810182527e+01 -4.2460684685172481e+01 7.2057393343885838e+02 -4.9834214582746426e+01 -3.4627148848512616e+02 -1.4402061245267614e+03 -5.6120891969891744e+01 -1.7608747495505628e-01 -1.2748749330552216e+00 1.7406170475029103e+02 -1.5770821005851435e+01 1.5830393625247024e+02 4.4457786044299046e+03 3.8690720991615226e+00 7.1871860091532724e-01 -2.7114577774616265e+01 -1.9738656902850646e+01 7.0823039148041261e+01 -1.1531674961251674e+03 2.3226130008907376e+01 1.5039493596305256e+03 1.3504522413056359e+03 -1.1557799768809581e+02 3.3326198748384801e+00 -7.9017099976186529e+00 -3.1673059171452201e+02 5.5061748299681270e+01 -9.1851637500162497e+01 -5.7258395913521836e+03 1.0803637909237339e+02 1.3650542428793315e+01 -1.6071318034884797e+02 4.1925867709811079e+01 3.3565765289525189e+01 -7.8808095541752118e+02 3.5173116803711139e+01 5.3328030425051175e+01 1.5534748266634672e+03 -7.7420989864374246e+00 -2.6097690126880646e-01 6.0123060985387278e-03 -5.7329538763631717e+01 -1.4440514316976556e+00 -3.6013604610424306e+02 3.9101221327353228e+03 2.1946980267357348e+00 6.7806824426355217e-02 3.0503845461518742e+00 -3.0855437692314385e+00 1.0686298734035586e+02 1.0588513628948931e+02 -1.8659133062545943e+03 
      </Row>
      <Row Index="25">
        2.2744315557517657e+03 1.5963165869196411e+04 -9.9649645387128166e+03 7.2949388428927122e+01 -1.6178802203794103e+00 4.3644525639938365e+00 -3.3943422851277855e+03 -1.0222856165551750e+02 -1.3622082340000197e+03 -1.0190734808750202e+05 1.5008382967712048e+03 1.6819834536341557e+02 2.4663460910197930e+01 3.3499332386370028e+01 -9.9444718853171935e+02 -1.4725566243025576e+04 -1.7880509817451239e+03 5.0874695191942155e+03 4.3207098499742802e+04 -2.4135609949762596e+02 -5.0909397896612063e-01 -4.8281764805869898e-01 2.0963746845842688e+03 1.0682965469495755e+02 -1.9490943837445229e+03 2.3768397202864289e+05 -1.3152893370381698e+03 1.0576103080430251e+01 2.4259127088371315e+01 -3.5524305778522617e+01 5.4479014336164596e+02 7.4972193878123853e+03 3.8133339509125799e+03 -1.2529950881004333e+04 -1.4184874051809573e+04 1.8524118840083622e+02 -8.6939879814744927e+00 3.3019348784179048e+00 1.5191312055992905e+03 -8.8149230996820762e+00 -6.6213812648862659e+03 2.3625710283982844e+04 -8.5562520265571061e+02 -4.6308870526976534e+01 -1.5619060537428595e+01 5.0197396305070257e+01 1.4697536748235626e+02 7.1389058991116472e+03 -2.2519095286416396e+03 -9.8240316937214593e+03 -6.8102058235312652e+03 6.7470804289724038e+02 -1.5011331376868142e+02 7.9525938004155890e+01 -5.7515806129695566e+03 4.4572029120141372e+02 1.0055945499335940e+02 -2.5287030632941671e+04 -3.0099202510110822e+03 -1.4300517042804000e+02 7.0516863480898178e+02 1.5157186371782313e+02 2.1966617849679396e+03 -2.0916026943003189e+03 1.9123344857688062e+02 -8.2507675339914858e+03 -5.7713940251907334e+03 8.1372493919682128e+01 2.0917546472030011e+01 4.0319453070891047e+00 3.5132035993520099e+03 -1.1875714232174363e+02 -6.9531159527287646e+03 6.1753208745241434e+04 -8.7694908806424291e+02 4.7185892299799889e+01 -6.2171450060180433e+00 5.0625134641361626e+01 -3.2373416231723888e+02 1.3724036666810158e+04 7.7227286457945593e+02 5.8106825455874416e+04 -1.3067991115153767e+04 9.3174814309641619e+01 5.6366529651398643e+01 1.4963757780179645e+02 -2.3676265824580332e+03 2.7237664388580174e+02 3.1145674827683060e+03 -4.2003160934176907e+04 2.0613596888317306e+03 -3.3573958726192515e+01 1.2459741374745640e+02 1.4932360939561980e+02 2.3473014973898462e+03 -2.1257803455043206e+04 1.2739098946602790e+03 1.1426094025728293e+04 -4.6713006523629474e+03 7.7590828932725685e+02 -7.9200620328024655e+01 2.2673993887912880e+02 -4.5434456668428866e+03 6.3302203596306140e+02 -7.7407693850855831e+03 5.3865872376447718e+04 -7.2760246103998099e+02 -4.8687791262249206e+01 8.4992484607180108e+02 3.2179601353076669e+02 3.0630314133141455e+03 -5.0480027240514173e+03 3.3492681804002223e+02 3.2461234440556188e+02 -1.6379219768733941e+04 -7.3466293524968677e+01 -2.0364621445514331e+01 -3.0945102132106879e+01 -4.2410262115189107e+02 4.0394174521831410e+00 2.7453757963060862e+03 -3.6198797664450896e+04 1.4856603088939445e+02 2.4624667206265258e+01 -4.2557528197530630e+00 1.6975830217020100e+01 5.7574266055493536e+02 -2.1331729613273637e+02 1.8523354047243196e+04 
      </Row>
      <Row Index="26">
        1.9637580360634283e+02 3.5401686087795224e+02 -1.0298749799327284e+02 -9.4481190086425126e-01 1.2160094330070374e-01 1.1536086654947653e-01 -1.8692690628132734e+01 1.0593830975663243e-01 -4.7642584921552498e+00 3.0484536164724994e+02 -4.1680377056832771e+02 -4.9766775217382060e+00 -4.0135217624182493e+00 -2.3968446828407268e+00 -1.8871713118392981e+02 2.8773832304825447e+01 -1.3992694626981393e+02 3.3613964598932944e+02 -2.6972747417343089e+02 2.9665715374479253e+00 -1.4468346731116810e-01 8.9845992645216199e-02 9.9691400520016593e+00 -2.3904169187411468e+00 -1.3489699194733475e+01 -1.3152893432777382e+03 3.9598150195935682e+02 -1.2686460667035249e-01 -2.6286291201564467e+00 1.3623892738837529e+00 1.6532815963760382e+02 -2.4759350519290393e+02 -5.1417890732249361e+01 6.5474242141877767e+01 -1.5169766718471625e+01 -8.6443910116790956e-01 -4.6807667260080166e-01 4.4409248622451114e-01 6.8142734843753971e-01 -4.3323639029805090e+00 -2.5849470738083689e+00 -2.0402111616886009e+02 2.1475904999484123e+02 2.1453506770613444e+00 -1.5835955980102767e-01 1.7239857146001560e+00 9.9653556316969102e+01 1.2439183053518937e+02 1.5348958818448307e+02 2.9811646271990332e+02 -2.8013029937201225e+02 -1.9023354777643071e+01 9.4580900005629776e+00 -7.6621152142765094e+00 -2.1510249122993787e+02 -1.2393042638501393e+02 -2.9721415408009992e+01 -6.9965613769481877e+02 3.7991679130534396e+02 8.4417421656444489e+00 -1.1101053706070847e+02 9.7313344415007421e+00 1.0499289011269514e+02 -3.6133203695053754e+02 2.4771076148400789e+02 -2.3018099842414085e+02 3.2746261237849922e+01 2.3022770655859013e+00 1.4162950299159986e+00 3.7809029245980819e-01 2.2431761277312222e+02 2.1483521873389013e+00 -1.0948700602985397e+00 1.0398876384711416e+03 6.7896623410208605e+01 -5.3349555440105689e-01 -2.6351275457392425e+00 -1.6409322167431650e-01 1.1806942336652092e+01 -6.2952933729870608e+00 4.6974307213648956e+01 -2.3697987060969433e+02 -4.6985596914092571e+02 -1.3649880230320619e+01 1.9353188569434865e+00 3.6630403424576161e+00 -3.4507625892316975e+02 -3.7735525395636373e+00 3.0241226744571499e+01 -7.9785082394988876e+02 -1.5606864001744533e+01 -3.4395716916461296e+00 1.2206533300250618e+01 1.5243597544388390e+00 1.6397769646651824e+02 -5.5891063513223742e+02 -7.1003129695392914e+01 -2.8611566996156762e+02 -4.0034049828284714e+02 -3.1371633776922881e+01 1.2339919366743318e+01 -3.6299553825067621e+00 -2.8131212957012059e+02 -1.2901614051434413e+02 2.5803070742697159e+01 -2.9187803453771949e+01 2.6830511552478026e+02 2.1086815459918538e+00 -1.0314567934011058e+02 1.0559340160766489e+01 2.0913928331984130e+02 7.2703887280680732e+01 -3.2681730778317394e+01 -1.0412447071375937e+01 9.5618702118622579e+01 1.4065681886552595e+00 -9.0410587741075987e-01 -1.2213071921794347e+00 3.7058231043030219e+01 -1.7507961669681087e+00 -8.0265656997236086e+00 6.6734849965692618e+01 -4.2522491732300679e+01 -8.0583897489067979e-01 5.0401050231140432e-01 7.0077114963467343e-02 -3.8730009471075533e+01 -2.0405955866710707e+02 3.2484731371205093e+01 
      </Row>
      <Row Index="27">
        3.7265821401370971e+00 1.0946019675480784e+01 -3.8880536462503201e+00 3.9339833583452527e-02 -1.5097884450818826e-02 7.5004808285610292e-03 -1.5974057138986404e+00 -2.3176955996782955e-01 1.7494149380369493e+00 1.4562509572089226e+01 5.1895074053044998e-01 -1.8381881750169388e-02 -1.0280527699985087e-01 6.3809147279453651e-03 7.3481697899534004e-01 -5.8810532637125368e+00 -1.1913465667748824e+00 7.5330956708348822e+00 1.4901466587925825e+00 1.5744748570187822e-01 1.0208766559947513e-02 -9.3969335257928499e-03 2.8110188325256802e+00 -8.9696443461120934e-02 1.2622758880442575e+00 1.0576103182670295e+01 -1.2686460603247704e-01 2.4671245676780362e-01 -5.5921027213516350e-01 1.2094806851754680e-02 3.0069606691409859e-02 1.0915034289194054e+01 -2.1922851372232799e-01 -3.7114391440554755e+00 -8.3140095443838247e-01 6.2180937705035855e-03 -1.5823482879895323e-04 2.6353207140790112e-03 2.3781316564021826e-01 6.7983415261870239e-03 -5.8167592057939199e-02 -1.5988004962744405e+01 -5.3475977440393618e-01 -8.4694659931283667e-03 -4.8179064282079409e-02 -9.2880646655504537e-04 -1.3609371423835925e-01 1.6476956734569721e+00 3.5428558332872928e-01 -3.3555664389785420e+00 -6.7362388530798327e+00 3.2575763048557116e-01 -2.6304819544138422e-02 3.8963891058149680e-04 -1.4313979280312428e-01 2.2832838300246372e-01 6.7011221700541257e-01 8.8920347542943148e+00 -1.8265057951078107e+00 1.2135575205012517e-02 -7.0790824749389114e-01 -7.9235516919984317e-02 1.7310770551892500e+00 3.1196060641901964e+00 3.3277398167707872e+00 -7.7448139015814377e+00 3.6329460220625265e-01 3.3265581139635729e-02 7.2617947402298759e-03 1.6759033348303460e-04 2.1762101762609682e+00 1.2012035856991302e-01 3.3284085573309918e-01 4.2495905489179222e+00 5.7069494367634332e-01 -1.4291946405963429e-02 -2.4695859265827241e-01 -3.2209758304466610e-02 -3.9989418755139122e-01 8.7125424309222232e+00 8.2793439330635366e-01 1.5282140138092988e+01 -1.3789302546797165e+01 -9.3741738121202650e-02 -4.1741923704170618e-03 -3.0986766004197475e-02 -1.3249226185052541e+00 -2.0004906926164379e-01 1.8407464064502987e-01 -2.5064657263214585e-01 -1.2500968287437744e+00 1.0403057811237706e-01 -3.2196137792229462e-02 7.1971271242253720e-02 1.9534424801762074e+00 -5.3132969214707497e+00 -2.0018912811353928e+00 3.7588764868515909e+00 -1.3577679297002147e+01 3.8552097483576281e-01 -3.1797699066832455e-02 -2.6184730680091167e-02 -1.4036868605460988e+00 -7.9071049996791876e-02 -1.0850888265776231e+00 -8.9011667324123138e+00 -2.5752879786100165e+00 1.7496351888695619e-01 -9.2395587111449640e-01 -8.2506825037491904e-03 3.4935372111384737e+00 -3.7095065396975428e+00 -1.0202174527896892e+00 -2.1428299940349921e-03 6.2769544256872738e+00 5.7659191818614342e-02 5.9236982779508063e-03 3.6298948949822496e-03 -2.3048969087547633e-01 -5.0327623657129339e-02 1.4926074075379009e-01 7.1218860153554582e+00 4.1527218793364476e-02 1.0345909313725921e-02 7.9336952561139429e-02 9.0040316672132525e-05 9.7022276288957543e-01 7.0905371945938001e-01 -2.1701319208750562e+00 
      </Row>
      <Row Index="28">
