<?xml version="1.0"?>
<MethodSetup Method="MLP::MLPTuned">
  <GeneralInfo>
    <Info name="TMVA Release" value="4.1.2 [262402]"/>
    <Info name="ROOT Release" value="5.32/00 [335872]"/>
    <Info name="Creator" value="ineuteli"/>
    <Info name="Date" value="Thu Nov 19 13:20:33 2015"/>
    <Info name="Host" value="Linux cmsdev02.cern.ch 2.6.32-431.11.2.el6.x86_64 #1 SMP Wed Mar 26 09:39:43 CET 2014 x86_64 x86_64 x86_64 GNU/Linux"/>
    <Info name="Dir" value="/shome/ineuteli/phase2/CMSSW_5_3_24/src/Delphes/plots"/>
    <Info name="Training events" value="31170"/>
    <Info name="TrainingTime" value="4.07411138e+02"/>
    <Info name="AnalysisType" value="Classification"/>
  </GeneralInfo>
  <Options>
    <Option name="NCycles" modified="No">500</Option>
    <Option name="HiddenLayers" modified="Yes">N+10</Option>
    <Option name="NeuronType" modified="Yes">tanh</Option>
    <Option name="RandomSeed" modified="No">1</Option>
    <Option name="EstimatorType" modified="No">MSE</Option>
    <Option name="NeuronInputType" modified="No">sum</Option>
    <Option name="V" modified="Yes">False</Option>
    <Option name="VerbosityLevel" modified="No">Default</Option>
    <Option name="VarTransform" modified="Yes">N</Option>
    <Option name="H" modified="Yes">False</Option>
    <Option name="CreateMVAPdfs" modified="No">False</Option>
    <Option name="IgnoreNegWeightsInTraining" modified="No">False</Option>
    <Option name="TrainingMethod" modified="No">BP</Option>
    <Option name="LearningRate" modified="No">2.000000e-02</Option>
    <Option name="DecayRate" modified="No">1.000000e-02</Option>
    <Option name="TestRate" modified="No">10</Option>
    <Option name="EpochMonitoring" modified="No">False</Option>
    <Option name="Sampling" modified="No">1.000000e+00</Option>
    <Option name="SamplingEpoch" modified="No">1.000000e+00</Option>
    <Option name="SamplingImportance" modified="No">1.000000e+00</Option>
    <Option name="SamplingTraining" modified="No">True</Option>
    <Option name="SamplingTesting" modified="No">False</Option>
    <Option name="ResetStep" modified="No">50</Option>
    <Option name="Tau" modified="No">3.000000e+00</Option>
    <Option name="BPMode" modified="No">sequential</Option>
    <Option name="BatchSize" modified="No">-1</Option>
    <Option name="ConvergenceImprove" modified="No">1.000000e-30</Option>
    <Option name="ConvergenceTests" modified="No">-1</Option>
    <Option name="UseRegulator" modified="Yes">True</Option>
    <Option name="UpdateLimit" modified="No">10000</Option>
    <Option name="CalculateErrors" modified="No">False</Option>
    <Option name="WeightRange" modified="No">1.000000e+00</Option>
  </Options>
  <Variables NVar="5">
    <Variable VarIndex="0" Expression="bjet1Pt" Label="bjet1Pt" Title="bjet1Pt" Unit="" Internal="bjet1Pt" Type="F" Min="2.25726528e+01" Max="9.48211182e+02"/>
    <Variable VarIndex="1" Expression="bjet2Pt" Label="bjet2Pt" Title="bjet2Pt" Unit="" Internal="bjet2Pt" Type="F" Min="9.35392189e+00" Max="5.03708984e+02"/>
    <Variable VarIndex="2" Expression="DeltaR_j2l" Label="DeltaR_j2l" Title="DeltaR_j2l" Unit="" Internal="DeltaR_j2l" Type="F" Min="4.29002255e-01" Max="4.57230957e+02"/>
    <Variable VarIndex="3" Expression="DeltaR_b2l" Label="DeltaR_b2l" Title="DeltaR_b2l" Unit="" Internal="DeltaR_b2l" Type="F" Min="5.60641825e-01" Max="1.51138464e+03"/>
    <Variable VarIndex="4" Expression="M_bb_closest" Label="M_bb_closest" Title="M_bb_closest" Unit="" Internal="M_bb_closest" Type="F" Min="1.18016901e+01" Max="2.38172803e+03"/>
  </Variables>
  <Spectators NSpec="0"/>
  <Classes NClass="2">
    <Class Name="Signal" Index="0"/>
    <Class Name="Background" Index="1"/>
  </Classes>
  <Transformations NTransformations="1">
    <Transform Name="Normalize">
      <Selection>
        <Input NInputs="5">
          <Input Type="Variable" Label="bjet1Pt" Expression="bjet1Pt"/>
          <Input Type="Variable" Label="bjet2Pt" Expression="bjet2Pt"/>
          <Input Type="Variable" Label="DeltaR_j2l" Expression="DeltaR_j2l"/>
          <Input Type="Variable" Label="DeltaR_b2l" Expression="DeltaR_b2l"/>
          <Input Type="Variable" Label="M_bb_closest" Expression="M_bb_closest"/>
        </Input>
        <Output NOutputs="5">
          <Output Type="Variable" Label="bjet1Pt" Expression="bjet1Pt"/>
          <Output Type="Variable" Label="bjet2Pt" Expression="bjet2Pt"/>
          <Output Type="Variable" Label="DeltaR_j2l" Expression="DeltaR_j2l"/>
          <Output Type="Variable" Label="DeltaR_b2l" Expression="DeltaR_b2l"/>
          <Output Type="Variable" Label="M_bb_closest" Expression="M_bb_closest"/>
        </Output>
      </Selection>
      <Class ClassIndex="0">
        <Ranges>
          <Range Index="0" Min="2.2572652816772461e+01" Max="8.2526812744140625e+02"/>
          <Range Index="1" Min="9.3539218902587891e+00" Max="3.8395028686523438e+02"/>
          <Range Index="2" Min="4.2900225520133972e-01" Max="4.5723095703125000e+02"/>
          <Range Index="3" Min="6.3454002141952515e-01" Max="1.5113846435546875e+03"/>
          <Range Index="4" Min="1.3509715080261230e+01" Max="1.8837241210937500e+03"/>
        </Ranges>
      </Class>
      <Class ClassIndex="1">
        <Ranges>
          <Range Index="0" Min="2.8716081619262695e+01" Max="9.4821118164062500e+02"/>
          <Range Index="1" Min="2.0091020584106445e+01" Max="5.0370898437500000e+02"/>
          <Range Index="2" Min="4.5582532882690430e-01" Max="4.1944396972656250e+02"/>
          <Range Index="3" Min="5.6064182519912720e-01" Max="7.9937988281250000e+02"/>
          <Range Index="4" Min="1.1801690101623535e+01" Max="2.3817280273437500e+03"/>
        </Ranges>
      </Class>
      <Class ClassIndex="2">
        <Ranges>
          <Range Index="0" Min="2.2572652816772461e+01" Max="9.4821118164062500e+02"/>
          <Range Index="1" Min="9.3539218902587891e+00" Max="5.0370898437500000e+02"/>
          <Range Index="2" Min="4.2900225520133972e-01" Max="4.5723095703125000e+02"/>
          <Range Index="3" Min="5.6064182519912720e-01" Max="1.5113846435546875e+03"/>
          <Range Index="4" Min="1.1801690101623535e+01" Max="2.3817280273437500e+03"/>
        </Ranges>
      </Class>
    </Transform>
  </Transformations>
  <MVAPdfs/>
  <Weights>
    <Layout NLayers="3">
      <Layer Index="0" NNeurons="6">
        <Neuron NSynapses="15">
          2.6921302636152056e-01 1.9892899212444370e+00 -3.1946902319354920e-01 2.8356966452608479e+00 -9.4957548838183836e-01 -1.6608421063334426e+00 -5.9586251642143195e-01 3.8302390427229116e+00 -1.1508735626204289e+00 -1.7201554248107639e-01 4.1337656242551912e-01 6.8070334418506129e-02 -2.9998713363643010e+00 -1.6924643714839400e+00 -6.6043231187295182e-01 
        </Neuron>
        <Neuron NSynapses="15">
          1.0132868083452247e+00 -4.2321124604558985e-01 6.4058919192205771e-02 -6.7424440219682816e-03 -7.7578801868349256e-01 -1.2735562315002497e-01 -7.3381167739646047e-01 2.4679253831697809e+00 -4.4326889812048714e-01 -6.0093156133742709e-01 -3.1290732351938566e-01 1.3446623682673333e+00 -1.2319250764723828e+00 -3.0469582260893167e+00 -5.5540404489532569e-01 
        </Neuron>
        <Neuron NSynapses="15">
          1.2060435760318109e+00 1.6446027602946109e+00 -7.8098828752375216e-01 -8.5809584175566622e-01 -2.2020070548378916e+00 -3.4722206326513494e-01 -1.4635845902266813e+00 -2.0719260799090087e+00 -1.6530203309835985e+00 1.3625598594655475e+00 4.6946682299147939e+00 3.0342431135688641e+00 2.6800795105348691e+00 2.9220983286672921e+00 -1.4410975559737429e+00 
        </Neuron>
        <Neuron NSynapses="15">
          -1.2398299851067198e+00 7.5544361270382132e-01 -7.2016126155752744e-02 3.4592019226460552e-01 -5.2835717468571133e+00 2.6011229481278431e+00 1.4504531459382648e+00 -4.6886120807219385e+00 6.4567268571160208e-01 -1.5972871395938286e+00 -6.8118768823394196e-02 -4.0501903963961389e-01 -2.5816587343718833e+00 4.9628720110552249e-01 2.9468072359501590e-01 
        </Neuron>
        <Neuron NSynapses="15">
          -2.3897319115663156e+00 3.6015516042522649e-01 -7.5539636595870607e-01 1.1341481343702191e-01 1.8885839050870914e+01 6.9534408334271242e-02 1.5017939662776816e+00 4.3302683067262508e+00 2.0010912193613608e+00 -4.4635305137865150e-01 -5.7440411103097571e+00 -2.9724642956873710e+00 3.7536796224599516e+00 1.2636039319304793e+00 7.6527382341001626e-01 
        </Neuron>
        <Neuron NSynapses="15">
          -8.8498849566140025e-01 -1.9076998647366716e+00 -1.7586762566426231e+00 1.5837391309629874e+00 7.9780324408329957e+00 9.8925691148957096e-01 4.4439177483605857e-01 3.0420737154039768e+00 -3.0312754610713083e-01 -1.1524309951628302e+00 -1.0891241398626297e+00 5.5239479390192481e-01 -1.7393196968070510e-01 -1.1817305685109252e+00 -1.4221034224899245e+00 
        </Neuron>
      </Layer>
      <Layer Index="1" NNeurons="16">
        <Neuron NSynapses="1">
          2.9327731460941914e-01 
        </Neuron>
        <Neuron NSynapses="1">
          2.3611343133802673e-01 
        </Neuron>
        <Neuron NSynapses="1">
          2.9125204772478597e-01 
        </Neuron>
        <Neuron NSynapses="1">
          9.8572163105015556e-02 
        </Neuron>
        <Neuron NSynapses="1">
          -9.0367479847322851e-01 
        </Neuron>
        <Neuron NSynapses="1">
          1.8077199864378567e-02 
        </Neuron>
        <Neuron NSynapses="1">
          9.9052348785609354e-02 
        </Neuron>
        <Neuron NSynapses="1">
          6.0109766863563541e-01 
        </Neuron>
        <Neuron NSynapses="1">
          1.3074839504412072e-01 
        </Neuron>
        <Neuron NSynapses="1">
          2.2641061687117539e-01 
        </Neuron>
        <Neuron NSynapses="1">
          -1.5640791001426577e+00 
        </Neuron>
        <Neuron NSynapses="1">
          -5.7753005237913324e-01 
        </Neuron>
        <Neuron NSynapses="1">
          -3.8011303650595185e-01 
        </Neuron>
        <Neuron NSynapses="1">
          2.4024169396630293e+00 
        </Neuron>
        <Neuron NSynapses="1">
          3.5007548547149397e-01 
        </Neuron>
        <Neuron NSynapses="1">
          1.2391823310335401e+00 
        </Neuron>
      </Layer>
      <Layer Index="2" NNeurons="1">
        <Neuron NSynapses="0"/>
      </Layer>
    </Layout>
    <InverseHessian NElements="11236" NRows="106" NCols="106">
      <Row Index="0">
        1.6699783562755033e+03 4.0624667437603525e+03 5.2036287619202335e+02 -2.4507873515839798e+01 -1.9210817653707357e+00 2.3054610531325620e+03 2.9807482562492305e+03 -5.7755103434296429e-01 -6.7291071604862438e+01 -1.6411811482977861e+00 4.8403680363639907e+00 -3.1094504653865027e+02 -7.8851869250367457e+01 -6.2833308404464454e+01 1.8204474332479040e+02 4.9303064225053319e+01 2.6496253635994553e+03 1.4872362242343318e+03 -3.4802973805018532e+01 4.1718123915489951e+00 2.2868778934918242e+02 -2.3777516603535746e+03 3.6046131564885999e+00 -3.4866783251244885e+02 4.5553067039309747e+02 7.6570046766631155e+00 1.9603295649311849e+02 2.6040447696496127e+01 1.9857137164349098e+01 7.6397049479556154e+02 1.0614752366865364e+03 5.5355823832495832e+02 4.7193116457403005e+02 2.1593835332381792e+02 -2.3110343665879056e+00 3.0858118124146722e+03 2.7230327586596417e+01 1.0568963385045395e+01 2.4110003208555063e+03 1.2458684826087745e+03 5.9797642660914228e+01 8.2911400218750589e+02 1.7818594552229541e+02 -6.1226959187432684e+01 -8.9122861261567743e+02 -1.3579368650359850e+03 -1.7035437367125783e+03 -1.4506128751317772e+03 2.7174579317256740e+02 -6.0454689473635188e+00 3.3285933119902393e+03 -5.0428899682347055e+03 -4.4289940541143920e+01 -1.3981076472599234e+03 8.1440736138433215e+02 -6.7103867765581128e+01 5.1882747173766836e+02 -1.4044725993386189e+02 2.5660512856165244e+01 2.3690666978666843e+02 6.0371422275108853e+02 1.3290049712597956e+03 -2.3732583528634896e+03 9.1677862597124474e+01 -2.9161766864855096e+01 -5.0919606505546490e+03 6.9214445988075086e+03 1.7510813435239907e+01 5.2638248846485192e+02 -4.4999805792342693e+02 -6.0511101619889402e+01 -5.7507491806865278e+02 2.4408043311756888e+01 -1.5795287560318627e-01 -1.9575448636890230e+03 1.3192506482126755e+03 -6.1299314007354576e+02 -1.1984797160370799e+03 4.9690200740500916e+02 -3.1806191194870863e+01 4.6738837409414273e+03 -2.9241746313026274e+03 -1.2826308307190999e+01 1.0987629423625776e+03 1.8105898531461555e+03 -4.1500464983274554e+01 6.4501110710396392e+02 3.0000470102084080e+01 -6.7230740687278868e+01 -1.1566835462411141e+03 7.9441508604758212e+02 -5.1895534095289645e+02 -4.6209967361662211e+02 -1.6729846648746172e+01 -3.9620577815734821e+00 -6.7150302460447495e+00 1.7572998066235812e+03 -8.0325008111911855e-01 4.5556707140147942e+01 2.4623283686273558e+02 1.9511527447810195e+01 4.6359800025360113e+02 3.3954650168843528e+01 -2.3847717812304662e+01 3.0034996624477105e+02 -5.7698922641956074e+02 
      </Row>
      <Row Index="1">
        4.0624661696374324e+03 6.4594257119750977e+05 2.5829492990251788e+02 1.3783863901350583e+03 -6.5516445550016904e+00 9.5265934236374014e+04 2.2233141835556566e+04 -6.1584966888084139e+01 1.1831247000099313e+03 -9.1848328937881092e+02 -2.5456501128917090e+01 -5.8466248963077646e+02 -2.2193942206267690e+02 -3.4454693213839661e+01 3.0494788455672092e+03 -2.7114330234878234e+03 -7.7120697667482396e+04 -5.1517217887169977e+01 -5.5011499142804632e+02 8.9136787818241245e+00 -9.8144350419044222e+03 -1.1320047717957861e+04 4.4801949795143919e+01 -2.6227088671017950e+03 1.0733373599246559e+03 1.5461615745300850e+01 7.8715295867582427e+02 1.2831292826620307e+02 4.7800779740242655e+02 -1.4843000032552584e+03 1.0079176962417792e+04 3.3406153265161347e+05 -1.9127785907982030e+04 6.0566246353156439e+03 1.1201100683492271e+01 -4.4236424546316099e+04 -1.0987658553287911e+04 7.7912116770912269e+02 5.0771852424779136e+03 1.3530283027665139e+03 2.4794694931289132e+02 -1.1815858602003218e+03 3.6481512870821493e+03 -4.2785595061776701e+02 -1.8922427234547640e+03 2.0775571548329272e+03 1.5511675406303717e+05 3.3842819171866836e+02 2.0746473870263553e+03 -3.8572460528698826e+00 -1.7380745097959370e+03 -4.0338909106225707e+04 -6.9079456635755321e+01 -4.8230623936532247e+03 5.3274268560413839e+02 -2.2309480641271776e+02 5.1448302371652335e+02 2.8383754171792168e+02 -9.8048768764703183e+01 1.0060804883229325e+03 9.5547144048930422e+03 -7.3385540657334874e+04 -9.5197287260739745e+02 -2.2982141829155807e+01 -1.8943884981946439e+01 2.1463207642768775e+04 3.4630518489706468e+04 -7.5914730795766019e+01 1.4049889681430332e+03 4.3372761427171554e+02 1.6036576882486543e+02 -1.6601966502163123e+03 3.9382820115561742e+01 -2.6019675879151669e+02 1.8065182348740741e+03 1.8187459350689162e+04 -6.3954875675572628e+04 -2.0073800703623270e+04 7.9768072420074986e+03 -7.7122179289179940e+00 4.4034423909345875e+04 -3.0193361647239468e+04 6.2787773433332620e+02 -9.8647101235396985e+02 1.7745159888226999e+03 1.6652151176018651e+02 -1.9251735965641456e+03 3.9184369081982904e+03 -1.7402778717817074e+02 4.7773082955204991e+03 6.9582512808328738e+03 -6.8777431339507530e+04 -2.1231332770444478e+03 -5.5221517531323900e+02 -1.3372342149254666e+00 1.7790243458293885e+03 5.5306034135859290e+03 2.1244924973009088e+01 8.3866309692306970e+02 7.3378334079671856e+02 -1.2873477487042555e+02 1.4717527701507654e+03 5.2701947867293256e+01 -5.9867461570379987e-01 -4.7464415098846746e+02 -6.9160597629952739e+04 
      </Row>
      <Row Index="2">
        5.2036290779336412e+02 2.5829549890756607e+02 3.6905908533850684e+03 -1.1334782413867316e+02 4.6377730385124138e-01 6.5927415982002822e+03 4.4769235553914277e+03 4.5033156970703692e+00 1.5253642899315225e+03 -6.6526933209802792e+02 -1.0710993030632244e+01 -9.4803797849051918e+01 -3.2400430330058562e+01 1.1235351885589733e+01 -1.0896083845596704e+03 2.0698984305194639e+02 4.3211842509892222e+03 1.3983981884972882e+03 -5.2032344190337284e+01 -3.4793035664463630e+00 2.4186744880291953e+03 1.0392269047250892e+02 4.2968069125973329e+00 7.9017945810954257e+02 1.2164494506837677e+02 9.1493056610004437e+00 1.5797769683584789e+02 1.7795377530967780e+01 1.1360660964287005e+02 6.2428412267129636e+02 -5.4462810040799184e+02 -2.8830127188265324e+03 1.5195956791335584e+03 -1.9788545182933829e+03 2.4679526814567094e+01 8.8310627386492451e+03 2.8524624326497360e+03 1.2266437173922138e+02 4.9894677086988095e+03 2.3373170158881003e+03 -1.1959235791362325e+02 2.8824373486567083e+02 -3.2990889926199384e+02 -5.9317040218130920e+01 -1.7493802296778852e+03 -2.2024277393391794e+03 -1.4589710398420480e+03 -1.8660983062721416e+03 5.8658685982725660e+02 -2.1927371049263112e+01 -4.7070241947891573e+03 -4.0676382393693580e+03 -4.1911714648037389e+01 -4.3634299391081868e+03 1.0751398587166980e+03 -1.3001216555390539e+02 2.1548140859420161e+02 2.5609877406561901e+02 2.0104559477414203e+00 5.8458425111142901e+01 3.5491761863462045e+02 1.8653534251372021e+03 -3.3716437869059928e+03 5.2809885323798505e+02 1.4306320873098883e+01 -1.3723246751816299e+04 -6.2436307033677690e+02 -6.8036803608131891e+00 -1.9079542252456063e+03 1.3441500848899673e+03 1.0909344125613202e+02 -6.8664536676184025e+02 1.1700284248039894e+01 -3.4570702300272579e+01 -1.0329453789534782e+03 -1.5618196891129867e+03 2.2637297839557541e+03 -1.0045958844031061e+03 -1.1748738507523831e+03 1.2401978103063122e+01 1.6636450045560050e+03 -2.1934897309194571e+03 8.0023746748377761e+01 -7.1545928645552067e+01 3.8433825749950447e+03 -1.5973064772993152e+02 -2.3138887902732620e+02 -9.5034931762063337e+01 1.4906845910885188e+01 -2.0946913356966584e+03 8.4830998238739198e+01 2.0821223652610502e+03 5.3141272072609968e+02 -9.6953898787387924e+00 2.0816800226690195e+00 1.6527145636859402e+02 1.4865673372559811e+03 -1.1233548272451139e+00 2.5711098322133847e+02 3.7602946105267932e+02 -8.3006629802553405e+01 3.3577224164836014e+02 -1.5100911614844787e+01 1.8762857594642404e+02 -4.4137379272962170e+02 2.5670557241629754e+03 
      </Row>
      <Row Index="3">
        -2.4507877552511857e+01 1.3783861439675093e+03 -1.1334781672200651e+02 1.9953249273667361e+03 -6.2948914272758083e-01 1.3417705332930925e+03 -5.1798955596206179e+03 3.7265464026570442e+01 -1.3934885169167751e+03 4.0385604836608458e+01 8.9691107518814874e+00 1.4203135581451720e-01 -4.4673542415340684e+01 -4.7016120677947036e+01 4.1438452199832511e+02 2.0042755247999980e+02 -3.2772045471043648e+03 7.3031348646427602e+02 -1.6542346247472696e+02 -1.7133170641056902e-02 -1.4595800604379699e+03 2.8901584829712651e+03 -1.0518018871214450e+01 6.5039761830983332e+02 4.0212751812701714e+02 -1.0589979879339735e+01 -4.2504165590879545e+01 -3.7494127222483527e+01 -7.2557548013549180e+01 2.5290755961931768e+02 3.7009846790404293e+02 -1.6186481797769666e+03 1.5378275918236960e+02 1.3899061575302480e+02 1.9959204570760239e+01 -7.2195819307586389e+03 3.7162499078154679e+03 1.9038033777787234e+01 -3.1740852273553382e+03 -2.4225712991699506e+03 3.3962634170515827e+01 6.4925394146533435e+00 5.1838189592119647e+02 2.9136526394569032e+01 -3.6800529040120927e+02 -4.2989687145146712e+02 -9.6081923947538348e+02 -6.1478965933463883e+02 1.3149017585895288e+03 -6.7998661169594232e+00 6.4745412213787531e+03 1.0752256599691816e+03 2.5980950853237115e+00 -1.1871422245235135e+03 8.5288684566498705e+02 2.2604448319495461e+01 3.3673480528491052e+02 -9.6186143460132570e+01 7.3732699606580510e+01 9.2626262964425780e+02 -9.6915084577560924e+02 4.7618761321066722e+02 -7.9863678432434210e+02 -2.1866246439358868e+01 9.5764874616075755e+00 2.7587006096456116e+03 -2.6202425331046989e+03 1.7608164358110503e+01 2.0629386784250250e+03 -3.7702137462703485e+02 -6.0459030949871817e-01 2.0935541383262617e+02 6.4678001233171514e+01 4.1873393718871483e+01 -1.0267564144825235e+03 -4.7836519005731060e+02 -1.3669827072395481e+02 -1.9147934324479189e+02 2.5160041429387047e+03 2.0913514186249202e+01 2.6376479732129192e+03 1.4862561447548926e+03 5.7432374372463563e+01 -2.9583752167777943e+03 -1.7837996931073453e+03 5.0008106427251235e+01 4.8039466044600294e+02 4.1078990740340794e+02 4.2815300183721689e+01 -1.2882435171152926e+02 -5.6786167511544863e+02 -1.9696077337827887e+01 -4.9428594749946910e+02 -2.3880265581680098e+02 1.3161851517890721e+00 -2.6868198219182841e+02 5.5473244332643526e+02 -9.0598095070104865e+00 -7.5818456834108974e+02 2.6489843916333024e+02 6.4366581977069703e+00 -1.3198023107590990e+02 2.5246747655181366e+01 -1.9322705266087794e+02 -2.0936619286194974e+02 -3.0501534161032760e+02 
      </Row>
      <Row Index="4">
        -1.9210817310060797e+00 -6.5516428743139841e+00 4.6377731136481837e-01 -6.2948911827704657e-01 1.2132332234896757e-01 -2.1790785846664868e+01 3.1486902191800468e+00 1.6337411657801351e-01 1.3044712631210866e+00 3.0125385315791658e-01 -2.3157349778772252e-01 2.7494981978565161e-02 7.9560649348854304e-02 1.7756862146723487e-01 -1.8670281750475188e+00 6.3937873260499031e-02 -9.7878180796542971e+00 8.7873891016265937e-01 -2.4501316453861374e-01 8.2578492040493081e-03 -4.3444727822637201e+00 8.0844793859039825e+00 2.2011503666541385e-01 1.1660656843426260e+00 7.9484460681109725e-01 4.9381472733964246e-02 -9.7687453103454655e-02 1.1696891619445284e-02 4.1715845543730978e-01 -2.8521095710995232e+00 -3.0596429789319601e+00 5.7476000763126649e+00 4.2853437249246822e+00 1.3619881553381092e+00 2.9810738875055803e-01 3.3735610390778503e+00 2.1736053581268997e+01 -2.2714614404100358e-02 3.0845305390488322e+00 2.7245474383311659e-02 -6.5012584229516601e-01 -2.1417348643494836e+00 -9.8204596545220424e-01 -2.6340086735543888e-01 -9.7691899690093500e+00 -3.9561165851240765e-01 -1.2411329345094016e+01 -3.4775111731734070e+00 2.5245270410303722e-03 -1.0332829837123001e-02 -1.7478629127716918e+01 -4.4442479299100821e+00 -1.6803427503655918e-02 -7.5861481430058051e+00 -4.8124411126137856e-02 -1.7154175856518594e-01 -9.6303417393156543e-01 2.9291583932585546e-01 1.6736677801978905e-01 2.6393681882623401e+00 2.6384798426829459e-01 -9.3304996508102231e+00 3.1989552091217650e+00 -4.0907843041341119e-01 -4.8196888087613143e-01 1.1123809564300672e+01 -1.7463056737881114e+01 3.7826051677590233e-02 -4.9465562195218533e+00 -1.6262671768401535e+00 3.5386857945083544e-01 5.1788553281448091e-01 -1.6667900504276190e-01 2.6718963307425993e-02 2.2577893015097636e+00 -4.2302157882771674e+00 8.0034698605379528e-01 8.8693418606851859e-01 9.8240304725450756e-02 -3.5089628361919756e-02 -1.4723528199304360e+01 1.3111512940847897e+01 2.8444495287209359e-01 -7.0294997550785441e+00 -6.7897221112347506e-01 -6.4068578188777758e-01 -2.5359433611277300e+00 -7.6999683179961098e-01 5.4435785262261749e-01 -7.3765642288922386e+00 -6.1418748380265276e-01 4.5131127130366488e-01 1.5582020768965956e+00 1.1531978967666140e-01 -3.7735520999656907e-02 -8.6670970753038534e-02 8.3184653202054182e-01 -1.0621344485214648e-01 -6.2648337707424562e-02 1.1828781573208337e-01 -3.7384339778270542e-01 -2.9816744501072306e-01 -7.7224035319287260e-02 2.8795333049101873e-01 -2.2446414502846683e+00 6.8729351212050394e-01 
      </Row>
      <Row Index="5">
        2.3054606560600782e+03 9.5265928008079529e+04 6.5927414795226423e+03 1.3417706341952814e+03 -2.1790787037427439e+01 3.1454541125562368e+05 -1.4091053316492034e+04 -8.3953177332409581e+01 -9.9324318372366524e+03 9.8015261649665763e+02 1.5742581613597739e+02 -6.8629906030591576e+02 -1.4017617731386008e+03 -1.8314099052242707e+02 6.2083232938406618e+03 4.5936794850711806e+02 5.3801445242663438e+04 8.3022641699499854e+03 3.4331730906773475e+02 -1.2926759359061180e+00 -2.4499303349379097e+04 -1.2755778840828484e+03 -1.0441463945368929e+02 3.2590449028054136e+03 4.1815311098094317e+03 2.1423993227448246e+01 -1.4063828521112706e+02 -5.5984705965527803e+02 -8.2250718981980310e+02 -1.9614570423431890e+03 1.0506840589754622e+04 -3.1350738210201263e+04 -8.0355733901336389e+03 -5.3124799148050661e+03 4.6800478064998643e+00 -2.2233803651159302e+04 1.2514972006259293e+04 3.8033254138797429e+02 -4.3988157799902830e+04 -3.0437626723632678e+04 -1.9309881373571835e+02 -1.0571470321467434e+03 4.6219025768680112e+03 3.7582692511578892e+02 1.2556086859599087e+04 6.1532418332644365e+03 -6.9721307073235530e+03 -1.9587945229831621e+03 7.1706262537284529e+03 -4.6359033199819333e+00 -5.1898046063600770e+04 -3.9342923835638729e+04 -8.1228894799678613e+01 -5.4561203350672695e+03 -2.3359414636998094e+03 -1.1029743550061285e+02 1.0117273502093486e+03 1.3202200285754564e+03 1.0973887296597621e+02 1.9182932619981950e+03 -2.6164724263659100e+03 7.1335125658633464e+04 -9.2205453833636439e+03 2.5649903384852937e+03 -3.5169935028533359e+01 -4.5388569116276165e+04 4.2481126292792520e+04 -8.4613615541337794e+01 1.3887051488676303e+04 -8.4632154606835993e+03 -6.1900064636915192e+02 2.2161502278518128e+02 1.4599210946729140e+03 3.3521352112244324e+02 4.4582216347184676e+03 1.5820487032217106e+04 -4.4040384959570220e+04 -7.3672433329987907e+03 5.5228958447127625e+03 -4.7343989268185851e+01 7.7473972652319921e+04 1.0993396423620739e+04 7.8181793203152438e+01 -3.9862505937258531e+04 -3.5044253397289547e+04 -6.8179020984262536e+02 -3.3214096866569344e+02 5.6946127574002039e+03 2.3810616223825008e+01 1.8870896164507369e+04 5.1922551019031260e+01 -4.5293993704627283e+04 -4.8235343904391239e+03 -1.6158290457470075e+03 -8.4954137792956317e+00 3.4409892862637298e+03 2.3107736843726684e+02 4.5866084794641246e+01 -4.3454487815680905e+03 1.5655004766537952e+03 3.9541587931528653e+02 1.8063497635915928e+02 6.0157365070687570e+02 -1.8670285329889216e+03 5.4441525086261499e+03 -4.6395490308255241e+04 
      </Row>
      <Row Index="6">
        2.9807481887308641e+03 2.2233144674301147e+04 4.4769233833757762e+03 -5.1798955360783057e+03 3.1486899575442910e+00 -1.4091050805743085e+04 6.3133558180616397e+04 -6.0365361462269846e+01 1.1636530194908646e+04 -1.6874259464842783e+03 -5.3803844297384934e+01 -8.0709427850574764e+02 -1.7227590481235353e+01 3.3821603129622588e+01 -6.5686235979794938e+03 -3.1520885722465146e+03 2.0027918822261538e+04 -1.1550663799713911e+03 -3.8174108316205667e+02 6.6669538621538322e+00 2.3611018369337253e+04 -1.6375828809337430e+04 -2.3261101014241909e+01 -4.9811608709437596e+03 4.3471817099723023e+02 2.7691816489727927e-01 2.0245707918750938e+03 2.7294223832932030e+01 4.4442535587224427e+02 -4.1969569957400631e+02 -8.2597026119584484e+02 -5.8001250702142715e+03 -4.0632924653285249e+02 -2.0778379978887651e+03 4.9892593247256201e+01 1.0920968565563078e+04 6.0059268683004793e+03 -1.1074546386046252e+03 2.0942234289255761e+04 7.9112822233153011e+03 -1.6019955100155369e+02 5.2980478718634731e+03 -1.3041993377284159e+03 -4.2926364484793152e+02 -6.2176903692668866e+03 -2.5218246540352484e+03 9.5258148470297710e+03 2.4605494612777538e+03 -4.7834029077367577e+03 -1.5362715777901457e+01 4.0811420956445858e+04 -2.4673656973584242e+04 -2.5218916922194435e+02 1.0867603429376803e+04 -2.9047116313827769e+02 -1.8951648188938410e+02 1.5663420872064495e+02 8.0695737523694913e+02 -1.3340803829099042e+02 -6.6833287780798009e+03 1.2925172346396972e+04 -2.3106511400185613e+04 -2.6959673441782488e+03 8.3712752415930152e+02 -5.3601420462070308e+00 -4.3058883162620768e+04 6.8257515100889423e+03 2.6000668360940622e+01 -1.6785589440499323e+04 2.4431623318249499e+03 1.6780540419346306e+02 -5.1182278919962500e+03 -1.1909328731712976e+02 -2.0913603927908440e+02 8.2437385570013748e+02 5.3092252837985707e+03 -9.2812996357530355e+03 2.7329173334058296e+03 -9.6288549327965884e+03 3.7562978348130358e+01 1.6224655250263480e+04 3.8333775132150367e+02 -1.3862487969914512e+03 2.2615051561452856e+04 7.7924486571758298e+03 -2.3685833755082032e+02 1.3699903051554629e+03 -6.2084496603014327e+02 -2.1292435341064657e+02 -1.1947704691200634e+04 6.8614469137008136e+03 -9.4169851376981369e+03 -9.5104136725896797e+02 7.5335909056936009e+02 4.0376698976933767e-01 7.2702334672195127e+02 4.2779333958606176e+03 1.6729659807805511e+01 6.3580274867254193e+03 2.3533044812152593e+02 -1.3321651736244462e+02 3.2649769769009395e+03 -1.3357668405208923e+01 3.3572052656331454e+02 -4.8883912379272897e+02 -1.0304331214473512e+04 
      </Row>
      <Row Index="7">
        -5.7755085783149518e-01 -6.1584961608750746e+01 4.5033157380176441e+00 3.7265464080426227e+01 1.6337411626372611e-01 -8.3953174522347922e+01 -6.0365360091639978e+01 8.1696604582493091e+00 -2.8768029794790845e+01 -5.8402029833815865e+00 -5.2088862044836137e-01 -2.5113974568408772e+00 1.6461903806115084e+00 -1.7396296151907986e+00 -2.7249095863147819e+00 3.0841931427367530e+00 -1.8991306323414949e+02 2.2906193380404986e+01 8.5288561051509557e+00 6.0206929895630923e-03 -1.6839282965321226e+02 8.9774491447555448e+01 1.5461419974256407e+00 2.8618188351213547e+00 4.3899786056435772e+00 -6.4812534070410377e-01 3.6232762461372653e-01 -1.4513286630984370e+00 -3.2515371998859242e+00 -7.6800959036764915e+00 -4.8088657225608546e+00 -4.9252933043229859e+01 3.1683135799246553e+01 -1.8128192300157067e+00 1.4573323781443268e+00 9.5745975420637009e+01 1.2099733453253219e+02 2.9884871307386662e+00 -3.7535216049106673e+01 -1.6206271475915681e+01 -1.1279728589523352e+00 3.0470554735093218e+00 5.6839321699299230e+00 1.7419602367184819e+00 -5.2294607347551363e+01 -1.9399323386100040e+01 -8.0870827240636061e+01 -4.0857235366482598e+01 2.7166615658687043e+01 -2.3362654955630902e+00 -3.9386879900089312e+01 2.8136570881923351e+01 -2.4844885379738844e+00 2.8067202318143401e+01 2.3042956617908775e+01 -2.3042441847687339e-01 -1.1532557547211888e+00 -5.1774694436994906e-01 4.2403652155031804e+00 2.9355592567163537e+01 -3.1071396916964055e+01 -1.4901574500060400e+02 -3.1761718324966690e+00 1.0516146331970253e+00 3.5893931861447292e-01 3.0221001799359456e+01 -1.3952279445131262e+02 8.9664031637677466e-01 7.9423656084397464e+01 -4.9692621325387023e+00 -2.5408822020155686e-01 1.7435631114718388e+00 -1.9388967919121507e+00 3.7228649126581255e+00 2.3880324224968792e+01 -3.6581724997905553e+01 8.7142890511022415e+00 6.5753619164987924e+00 5.5169233959716294e+01 -4.2075149149768798e-01 -7.4780014704909362e+01 1.0831770403686413e+02 9.3103402568239328e+00 3.7543960389571751e+01 -6.8635328766232391e+00 -2.8150372517253115e+00 1.9478282307939931e-01 4.3181887446572169e+00 3.7349209820554630e+00 -6.4992591330545437e+00 -2.1305268125459460e+01 7.4101855268193138e+00 6.9729169636492951e+00 -3.1606849252697606e+00 4.6869774018963417e-02 -4.3287798348365900e+00 -6.0948157603998876e+00 -1.7036250106955013e+00 -1.3783731686814628e+01 5.3725549108879349e+00 -1.0739909062470629e+00 -7.1153856148910199e-01 -9.6090039521257664e-02 -3.1263408907763033e+00 2.5484786331222766e+00 4.9248249250253240e+00 
      </Row>
      <Row Index="8">
        -6.7291075127687776e+01 1.1831250841394067e+03 1.5253642879817062e+03 -1.3934885158436518e+03 1.3044713023598664e+00 -9.9324316499149227e+03 1.1636530208026892e+04 -2.8768029881942041e+01 8.9826007365644618e+03 -4.9283090565828320e+02 -2.2724578424287547e+01 2.3178940837324911e+00 3.1569524585077119e+01 1.0943801632324477e+02 -1.4670803233303538e+03 -2.3659834619292124e+02 3.0465253666228391e+03 -2.0026557811306213e+03 -5.8350434638729212e+00 -9.6640280330093091e+00 3.0987743717733615e+03 -3.8084385974272541e+03 3.6216695907029496e+01 -1.6682944795076419e+03 -4.6170524422345909e+02 -1.0744818045166232e+01 6.8393314142367478e+02 8.7447001673093666e+01 1.9875160840768504e+02 -6.7055413694866797e+02 -2.1142686873357820e+03 4.2462899356186390e+03 -1.0328616911328905e+02 -1.8652093330480945e+03 8.0099349836030697e+01 6.2555374821097321e+03 -2.3978448491296022e+03 -2.6352035985303758e+02 6.0998851592423525e+03 4.4365446856997032e+03 -1.2860210046639503e+02 1.7153383922928926e+03 -7.0740478348864133e+02 -1.5708812639275851e+02 -1.2935762318886182e+03 5.1012564378739654e+01 -5.3638906227852476e+03 1.8317261203646722e+03 -1.3149663097154244e+03 -6.0783538733767202e+00 -2.7657015993647747e+02 2.9282594453844677e+03 -1.1035506290548186e+02 6.6107660606467452e+03 -3.7865661669330365e+02 1.3296943004560035e+01 -9.7147235436186989e+01 2.3291358227573539e+02 -5.3166295923490587e+01 -2.8662968128876596e+03 1.5274051973968875e+02 -3.3955245642302543e+02 9.9516454415297676e+02 -8.6307330606127573e+02 5.7119861603539320e+01 4.9162946238185878e+03 -1.1654733989304372e+04 7.2906584073523533e+01 -9.1119817123164376e+03 1.4967885706465040e+03 3.3069005815872919e+02 -1.4800665202891673e+03 -1.5731246191002525e+01 -9.7426052014962906e+01 1.4112782334966171e+03 -1.0422333192196393e+03 -3.8776588731165975e+02 1.9014810879212348e+03 -4.8111452053281037e+03 1.1574985285408523e+02 6.8440331528850256e+03 -2.0610694883646606e+03 -3.0289181552988180e+02 7.8453784640198819e+03 4.2628536497648165e+03 1.2848856812645738e+02 4.4000049663859920e+02 -4.4597240297618396e+02 3.8263947257823752e+00 -3.5328375917709254e+03 -3.6451045996760325e+02 -3.7336278479719010e+02 6.7246405324123225e+02 2.3503360555465778e+02 9.2639769585027665e+00 2.8758689393109876e+02 -2.6148755559295823e+03 -1.3008204567153326e+01 3.4456867232777122e+03 -2.7790131590497197e+02 -1.6823271952600979e+02 9.7777035719782134e+02 -6.7297465274104923e+01 2.5882582805453268e+02 -1.0139094820816880e+03 -3.6667715558491790e+02 
      </Row>
      <Row Index="9">
        -1.6411621209743545e+00 -9.1848314028978348e+02 -6.6526931759279648e+02 4.0385598771145531e+01 3.0125389451719436e-01 9.8015255421984932e+02 -1.6874258433216073e+03 -5.8402028501368086e+00 -4.9283089445788403e+02 7.8860199020232335e+02 9.1221151677629901e+00 5.7853513830464931e-01 -4.8471004574124414e+01 -2.7261955590151633e+01 6.4504419388608980e+01 8.9005965879083760e+01 5.9476611112356186e+03 5.2976791398289367e+02 1.5269679429944310e+02 2.4594263024951601e+00 -3.5504932764272858e+03 8.8741632029525772e+02 -9.9267127743407411e+00 3.9681557905196814e+02 4.6989909922070717e+02 7.8030841950039873e+00 -5.0286048284893688e+01 -1.7429572759783486e+01 -4.8698654684433087e+01 -2.2111089623566033e+02 2.1434122090685648e+01 2.7987933607697487e+03 4.0109040378184346e+01 5.1848653662669278e+02 -1.1360042649701516e+01 -5.4597840888494034e+02 5.1856326185716011e+02 -1.4492462413184541e+01 -1.5999798966845383e+03 -5.1323692204812278e+02 4.2342545140022935e+01 2.2985732605120880e+01 1.0557231777071564e+02 3.0957715055572290e+00 1.7863071126180671e+02 3.8607549880335353e+02 5.7573241884014749e+02 -5.9512099293005792e+02 2.0613667591527697e+01 5.4273478050165274e+00 9.7079490968588198e+02 -2.2500896256125253e+02 -7.7407561242598977e+00 2.8347672201913042e+02 -1.4511133027814196e+02 -3.9116297505834261e+00 1.5375313145125415e+02 -1.3763979123062302e+02 5.3448977817317925e+01 5.6578922030631531e+02 -4.5777376362855057e+02 5.1152341397737882e+03 1.4296194955216282e+02 1.9145473109047501e+01 -1.8207903085898430e+01 1.4821347325801207e+03 -1.7849995613317151e+02 -8.0764834102708711e+00 6.1630159220566486e+02 -1.3321029167341007e+03 -8.1846441564849158e+01 1.9474795255672336e+02 1.5242055521763380e+01 4.9955170008818470e+01 8.8368179985189983e+01 1.2553639469001394e+02 1.6574774929936975e+03 -2.0883723428377780e+02 6.8979023301776579e+02 -1.9410518463399086e+01 -6.8584697626214438e+02 5.3344493352497784e+02 -4.3388116099747322e+01 -6.0249767690291264e+02 -8.4797152457232107e+02 -1.5644967857232601e+01 3.4564490061952165e+02 -6.6667281152658035e+01 2.7884026459448272e+01 4.2070050825809312e+02 -1.7841264419311210e+02 1.8757491869030443e+03 -2.4222494388388142e+02 -1.4200653681510023e+01 -2.5523822157182394e+00 -2.4178220861277953e+01 5.0803749010216038e+01 3.0674978482715978e+00 -2.6665838798813712e+02 8.9083246496326410e+01 4.3423629964086913e+01 -7.4921922486547942e+01 1.9421689415743344e+01 -7.5708014811368699e+01 1.3935664986081247e+02 1.7532721807128146e+03 
      </Row>
      <Row Index="10">
        4.8403681698885634e+00 -2.5456509429961443e+01 -1.0710992620387133e+01 8.9691106082663019e+00 -2.3157349752372949e-01 1.5742580825764213e+02 -5.3803844416162477e+01 -5.2088862034476391e-01 -2.2724578162902240e+01 9.1221154088119540e+00 2.0715185866891139e+00 -1.4502270991776174e+00 -2.4319845151246740e+00 -8.1721581212438399e-01 8.5079586304394681e+00 4.8170374371137648e+00 1.8429432982206345e+02 1.3120958773243217e+01 3.7204798397964334e+00 1.5389089644779208e-01 1.5840323702658381e+00 -4.8203360398454542e+00 -1.3191537183210098e+00 -4.3517658991008918e+00 6.8353858952384368e+00 -3.4945675048582828e-02 -1.8057414429649508e+00 -1.4267750429909023e+00 -4.0394048783266694e+00 8.2579779844423822e+00 1.6253104776904351e+01 6.2393368597840890e+01 -6.5241541309482631e+00 5.0391656305077461e+00 -1.1597316821830335e+00 1.3905956251588774e+01 -3.1740656881045044e+01 1.3675608784941939e+00 -7.1438228264162774e+01 -1.7271959037177325e+01 5.9563459842221302e+00 7.8629902434925363e+00 1.3504125705177959e+01 9.7594431676930538e-01 3.0073951321119402e+01 7.2240186637517834e+00 9.9404995302810164e+00 -1.2924381708988671e+01 3.8934459866119591e+00 -1.1674078299254396e-02 -1.7906669955515845e+01 4.1042406297012498e+01 2.2681576890530686e-01 3.1348180552940043e+01 -1.8026593146395569e+00 6.7808957260203528e-02 3.8947207759617077e+00 -3.3391159936306147e+00 9.3526085864424791e-01 6.7005313190317874e+00 -1.9736703727440666e+01 9.0867184053284475e+01 -2.6627508544098127e+01 3.5376783515182497e+00 -3.8513248981773129e-01 -1.0988835349651117e+02 3.2148626130489579e+00 -2.5573105623352788e-01 5.5475048494495852e+01 -2.1334912000358308e+01 -6.6561448293713541e+00 3.7705625892415080e+00 2.5251775684647937e+00 1.8515505960832039e+00 -1.0240479694664334e+01 1.3999900365672787e+01 1.8071406683098758e+01 -8.2392249965763220e+00 2.1381555710587115e+01 -1.5364439104827761e+00 -3.7436295629569088e+01 1.0891246959053515e+01 -1.8332999252682658e-01 -6.0462492332691298e+00 -2.4153824795050163e+01 1.9875579663547853e+00 1.3487274153872738e+01 9.5910428030180501e+00 -1.1473316363220929e+00 2.3548008967742277e+01 -7.5321522385832171e+00 2.4769494099612061e+01 -1.7315361196601014e+01 -1.4597301164230942e+00 -9.9082759776867313e-02 -3.0759722125971445e-01 -6.9332972424591341e+00 4.1666551877309249e-01 -5.3718697291216699e+00 1.2204465669324343e+00 3.6994494806268001e+00 -1.8190528506002439e+00 1.2293857952967411e+00 -5.5444666871116413e+00 1.2444760340396186e+01 1.6901161084987582e+01 
      </Row>
      <Row Index="11">
        -3.1094504572196848e+02 -5.8466266411542892e+02 -9.4803789647793323e+01 1.4202997825174890e-01 2.7494993821182669e-02 -6.8629919341232551e+02 -8.0709429884180133e+02 -2.5113973910124514e+00 2.3178924279709463e+00 5.7854133440153532e-01 -1.4502270697689048e+00 9.7340310195271485e+01 1.7870269884867444e+01 1.0987575439473147e+01 3.6927957610644512e+01 -1.0512314641116588e+02 -3.8430850875750184e+02 -3.5516433507640545e+02 -8.1882021721429918e+00 -1.0364109493776965e+00 -7.5166107846431942e+01 3.5424960388499653e+02 1.0967596282669820e+00 1.0585471518984733e+02 -1.2027924242383401e+02 -2.9454700714996118e+00 -6.3185337153765403e+01 3.9905692921798490e+00 6.4795158660568584e+00 -9.0396568661930559e+01 -1.3503027113103337e+02 -4.4199021213874221e+02 -2.0858759176861764e+02 -1.1890709341452434e+01 -1.8346967681590418e-01 -9.8740134104723063e+02 6.2642006447100357e+01 -8.5602106756302589e+00 -4.1777129028290869e+02 -2.0651007179563055e+02 -1.3547826295776723e+01 -2.6223745408553549e+02 -3.3884916796177677e+01 1.1278449267972132e+01 3.2513600813139692e+02 3.3493232350936597e+02 8.9551833691981631e+02 3.6972911763910059e+02 -3.6546137014371993e+01 3.1240315209419025e+00 -7.7448630895539247e+02 1.2115400342238472e+03 1.2632966898599115e+01 3.0434616778630976e+02 -1.9532207879396753e+02 1.9483522920311689e+01 -1.5015625083365117e+02 2.5051923297761515e+01 -1.1390276224375347e+01 -9.3094464850858628e+01 8.3414064743544969e+01 8.6223045736154958e+01 4.6872637065474669e+02 -3.9247043222301308e+00 8.3612980686492619e+00 9.6818198137764261e+02 -3.9019083327845976e+02 -4.5374733460833045e+00 -7.0527745744022582e+01 1.2627271917070411e+02 1.4997166761905277e+01 1.4595672686760722e+02 -1.5102498631478694e+01 -7.8650362590602256e+00 3.1900361882686570e+02 -1.2148870019215468e+02 3.2219868674827740e+02 1.6635771670643311e+02 -6.1783129669583332e+01 9.3976528989205406e+00 -1.2905752271688602e+03 1.1052764596249008e+03 -1.3581002445590542e+00 -1.3559390052784047e+02 -3.2032656475010862e+02 1.3736680130496463e+01 -2.2407438329622448e+02 -7.5596567528128569e+00 8.0451087637524310e+00 4.0868889520249428e+02 -2.6866175845274306e+01 3.1942932469775457e+02 7.6378563950494083e+01 2.4220064399945245e+00 1.0971115396447004e+00 -1.9235555899067374e+00 -3.0490912554290975e+02 7.6467319993760685e-01 -4.5398019625307825e+01 -6.6643463910363266e+01 -2.2837671135464368e+00 -1.4266743456613474e+02 -9.5089100139134644e+00 1.8017509506797087e+01 1.3003226897844456e+01 3.4129573897095321e+02 
      </Row>
      <Row Index="12">
        -7.8851869401322716e+01 -2.2193943642824888e+02 -3.2400429671728112e+01 -4.4673542167706543e+01 7.9560655902977701e-02 -1.4017617839374598e+03 -1.7227595857728652e+01 1.6461904253292889e+00 3.1569522964674814e+01 -4.8471003251694142e+01 -2.4319845136924059e+00 1.7870269891935610e+01 6.4874590778274040e+01 2.0336230487276978e+00 -7.0051412700899533e+01 -6.0839180257734917e+01 -6.5108273094892502e+02 -1.1843743109136079e+02 -9.3091762457209235e+00 -8.9712512391763966e-01 1.1205757723838954e+02 1.9550013459446953e+02 2.4535485394043981e+00 3.3273771899188922e+01 -5.0804404707154369e+01 -2.3323800745121783e+00 -2.1948660925842631e+01 1.5540107151183502e+01 1.0581768948526422e+01 -1.4521137781431827e+02 2.5543467223977608e+01 8.6309222428128123e+01 -4.2233863854699450e+01 3.2703979026709689e+01 3.1138652831280988e+00 -6.1261854242536302e+01 -2.0044583318572973e+02 6.9997309212626213e+00 5.4706781457408715e+02 -5.7677406919317946e+01 -9.6242919067609400e-02 -1.3899993848766542e+02 -1.4288557350722212e+02 6.0306547948950611e+00 -1.6119290034261135e+02 8.0512347590939228e+01 3.2629277507740642e+02 1.8014322333669492e+02 -1.0837795098546508e+02 -1.4845104122961397e+00 -3.5568207926954341e+02 4.8022836766416458e+02 4.9580477798437039e+00 1.5118068701114311e+02 -8.4286543652378512e+01 3.6143735489231008e+00 -7.4356401431364333e+01 5.2120882946605583e+01 -8.1875760421262243e+00 -6.7535616642671158e+01 1.0318256966422179e+02 -8.2922655959190593e+02 1.2903259280658631e+02 -6.2058889295123507e+01 8.4885857291257487e+00 1.0718598534170578e+03 -6.9336935357900567e+00 -8.6964195423396429e-01 -1.1113203524360702e+02 2.0503186606982067e+02 2.1275099399094508e+01 5.0625014492519433e+01 -5.4630408851495915e+01 -3.9541016841269232e+00 3.4024995296040987e+02 4.7237141835436368e+01 1.0565391537197866e+02 8.5822788315068621e+01 -1.5529485955601834e+02 8.3223998397195089e+00 -4.4453957275209564e+02 4.5255955051690347e+02 1.4536599738544012e+01 5.1772144475044229e+02 -5.9187434373549650e+01 1.6666408255655998e+01 -1.6163042556910159e+02 -7.7463606793161162e+01 4.4313780636244893e+00 -1.6396008962151743e+01 2.2209862956615432e+01 1.0279793102907631e+02 9.9449120977660442e+01 1.4445899257551396e+01 1.0740070154791432e+00 6.5789790186354935e+00 -1.0190607619708194e+02 -5.9811628901409319e-01 6.3852489027287902e+00 -9.7937347511592066e-01 -9.4692574383287766e+00 -4.7546095139838030e+01 -2.2803435732566136e+01 2.5322905733965335e+01 -2.3827462295852186e+01 1.2291587022397644e+02 
      </Row>
      <Row Index="13">
        -6.2833307762490307e+01 -3.4454663444543257e+01 1.1235351377086461e+01 -4.7016120643118533e+01 1.7756862452290856e-01 -1.8314097506020883e+02 3.3821607400686446e+01 -1.7396296106953277e+00 1.0943801658298797e+02 -2.7261956451531386e+01 -8.1721583293832734e-01 1.0987575178853623e+01 2.0336230101010511e+00 2.2737807994298215e+01 -2.9955664187036636e+01 -2.8650271348622883e+01 -1.5182992891664617e+02 -1.1750592484985233e+02 2.1707099554027000e+01 -1.0484248845010069e-01 3.7666296352015863e+01 -1.0114011965871049e+02 1.0670029462523019e+00 4.7003122029819345e+01 -1.0386181699624331e+02 -2.6809352252362064e+00 -2.8490842888762731e+00 -1.7100926830927923e+00 1.5101137941211741e+01 -3.6705919195216389e+01 -1.3536097409278079e+02 -8.2171459495788440e+01 -7.6819664184004708e+01 -9.0557117982610322e+01 2.0665144966316480e+00 1.7794691498185074e+02 -5.1821930519757620e+02 -2.7908999730993767e+00 1.9900180307009117e+02 2.8115326319663779e+02 -1.3896754401712585e+00 -6.7680507797935562e+01 -3.5152002455133982e+01 -4.7735733191515575e+00 9.8643805084576599e+01 7.8124104986856139e+01 -7.4897174254343554e+01 1.5035076104251903e+02 -8.1522481501049668e+01 -3.2521366086731562e-01 -1.8865034007167168e+02 1.0401464065606291e+01 4.5276584509245277e+00 1.1507660369218863e+02 -9.0936580115271482e+01 3.1950038756472878e+00 -2.3675401649237561e+01 1.7838761597607810e+01 -1.1508835606405329e+01 -8.2806248502460633e+01 2.1272244254540915e+01 -4.1730520675021410e-01 1.5642756254115153e+02 -1.9564656566845560e+01 2.3024097890301141e+00 1.1876960899665940e+02 -1.3950290501593210e+01 -3.3076419137999094e+00 -1.3856668066469146e+02 1.1767105857477290e+02 9.7503894313252530e+00 2.8352307669769445e+01 -2.5220879163522891e-01 -1.4205561537628714e+01 1.4237151041856490e+02 -1.0044088781728877e+02 -1.9834409647301072e+00 8.5930367704679185e+01 -1.9832241768820450e+02 3.7716003796371620e+00 -1.0106559156117397e+02 -4.3416931358720672e+02 -2.0323126966148521e+00 2.5950833918562546e+02 2.2198450998994213e+02 6.8093794657498439e+00 -6.0165117498000541e+01 -1.8358593853406866e+01 5.5897611057875807e+00 1.0761996283720040e+02 3.1002751383795415e+00 -1.7688964212874673e+01 6.3266167219815948e+01 8.0455065231314400e+00 3.7311656755189659e-01 1.0759987931997145e+01 -9.8273861053122573e+01 5.0397549239242234e-01 2.8094508101341027e+01 -4.2948170518964787e+01 -3.8874891256983624e+00 -1.4125809948471669e+01 -3.1058620016019405e+00 3.1011847729723883e+01 -4.5629905515490625e+00 7.5222954182691639e+00 
      </Row>
      <Row Index="14">
        1.8204470980349925e+02 3.0494774301946163e+03 -1.0896083703329050e+03 4.1438453630906400e+02 -1.8670281873615280e+00 6.2083225480308392e+03 -6.5686239421344189e+03 -2.7249094600136563e+00 -1.4670803442960482e+03 6.4504454720512172e+01 8.5079593446484179e+00 3.6927968829609675e+01 -7.0051411087989621e+01 -2.9955665062123501e+01 3.0150701548946527e+03 5.5903752798018172e+02 -1.7532977587878704e+03 1.9277323965966434e+02 1.6856641658266801e+02 -1.1358537447285357e+00 -6.9420511804383086e+03 -3.5108986917930406e+03 2.5975004653110773e+01 -7.7664672877066664e+02 -1.2338518232277372e+02 3.1218277621087889e+01 -3.3603863303536127e+02 -1.4565213000841093e+00 -5.6303232278965275e+01 7.6467427111559584e+02 2.2980710751909814e+03 -3.5899308401048183e+03 -4.8439636592853276e+02 8.3261881611021408e+02 -3.7011253717738429e-01 4.9524470406328946e+03 -3.6693140344128415e+03 1.6075703954677945e+02 -4.8009015178423624e+03 1.1284529408251340e+03 -3.5254757881670365e+01 -9.4755780550677650e+02 7.7718723398937755e+02 4.3272462015685534e+01 2.6004707903154235e+03 9.4702943653000432e+02 -1.1243741279486567e+03 3.5626007637696802e+02 5.1138099141058694e+02 7.3863833717658860e+00 -1.0168700615717462e+04 6.2325932417569047e+03 -5.9251200086224749e+00 1.6710033759673488e+03 -2.7137190358235648e+02 6.3948358116756175e+01 -5.4728985639396217e+02 -3.0321854698246881e+02 -3.8790825591186000e+01 -4.6057618542473614e+02 -9.3544312462403377e+02 3.7956913444181282e+01 5.0510694489122500e+02 -3.0878823706887897e+02 -1.6380769076785128e+01 9.6117828649332714e+03 8.7139587409142387e+03 1.9792617605670102e+01 2.4335528008735755e+03 -1.6255501663888558e+03 -5.1064840645872522e+01 6.3893533327420585e+02 9.6049898205201558e+01 -2.3574704716065227e+01 -1.0665842044651558e+03 2.5649328316434580e+03 -1.7688580524530262e+03 -3.5745312397533792e+02 1.4327783671735128e+03 -9.5660973205287974e+00 3.9297081867477732e+03 3.7115326586343908e+03 1.9228036296679653e+02 -2.3119302019375405e+03 -1.6024915501539357e+02 2.0061176902425927e+01 -9.9115600744785945e+02 5.1856516532968931e+02 -1.1991933486250338e+02 3.5770354739641357e+03 -2.0509287378806212e+02 -2.0391094821607180e+03 -6.7065092761420146e+01 -7.9311616863609245e+01 -2.3326702321592734e+00 9.8765495165558150e+01 -1.6812937389211174e+03 -2.5763044679589875e+00 -3.8438413955435499e+02 -3.8618644301084760e+02 2.0867955457996306e+01 -4.4579113946903573e+02 4.7601846380404140e+01 8.2562267086752126e+00 1.6969390300930177e+03 -1.7115022708425138e+03 
      </Row>
      <Row Index="15">
        4.9303066661649289e+01 -2.7114330038577318e+03 2.0698984676813612e+02 2.0042755500235614e+02 6.3937851437844528e-02 4.5936792924002805e+02 -3.1520885433111653e+03 3.0841929350413069e+00 -2.3659834218339500e+02 8.9005961832570961e+01 4.8170373566328761e+00 -1.0512314668381175e+02 -6.0839179960230297e+01 -2.8650271674712979e+01 5.5903751476781383e+02 1.7962641161040201e+03 6.0256557080894709e+02 1.5339453285576369e+03 1.0295582048762390e+02 -2.7790016196486533e-01 -2.0474756029604589e+03 -1.0353037507232834e+03 -5.2596492434227002e+00 -4.5242095930844124e+02 4.1955945089457907e+02 2.7935532867576804e+01 -2.1408036952807370e+02 -2.2877545790902030e+01 -5.4454527046003690e+01 1.0193033866407766e+03 5.3204517356725239e+02 3.1295835151448846e+03 1.2612910663108291e+03 6.0915072092628151e+00 -9.5007442813897054e+00 7.4570771663349724e+03 -7.5682683619168085e+02 1.3141799427293199e+02 -1.1264813187204109e+03 9.4047263866497144e+02 -8.7379750769217299e+00 1.2552400072294068e+02 3.7565330066490031e+02 -6.5158810154849185e+00 -1.3207114150108725e+02 -1.2815909995481575e+03 -1.3883114244872704e+03 -1.9411013899528282e+03 4.0615724013868737e+02 -1.2322464130212884e+01 -6.4711993659096879e+02 3.1963679913550791e+03 -6.3959747543815865e+01 -2.7034682176737469e+03 7.0863931592351651e+02 -1.1871676707461842e+02 5.0488962107887426e+02 -1.3620451167628170e+02 4.0882938733435381e+01 3.7918626256833517e+02 -3.2839454635298339e+03 1.1952358549796293e+02 -1.9163112033371772e+03 4.1886742229592109e+01 -2.6985782283400965e+01 1.7092818275464290e+03 -7.6491496417887492e+03 -4.2577593579719526e+00 3.3323311070735349e+02 -9.1862093766859107e+02 -3.9497783120489402e+01 3.3101015981586494e+02 6.3291651077934816e+01 1.9165201984070571e+01 -2.4014081061744382e+03 -1.2270806792561091e+03 2.8034345491696149e+02 -9.3087474066837149e+02 6.8815711939005928e+02 -4.5532586302544445e+01 5.7533962191440205e+03 -5.7294853022990910e+03 6.0719946897622933e+01 -3.3526007041024109e+03 1.1460540658845539e+03 -1.3169121404151164e+02 6.7957510197422403e+02 2.3865207295274874e+02 -3.8630320213960438e+01 -1.5563769096374936e+03 -1.6340979320848301e+03 1.8773007292026392e+02 -1.0716189227714449e+02 -2.8218403605464282e+01 -3.5974488458514173e+00 -6.0220301809146349e+01 -4.7708352368671177e+02 2.0081152302170437e+00 1.5278178427376315e+02 1.9520160924354343e+02 -1.0110273334710624e+00 -4.3391237566171192e+01 4.2230266744293914e+01 -5.6652999148542946e+01 -4.5108588884089249e+02 3.7944705479345157e+02 
      </Row>
      <Row Index="16">
        2.6496255343183607e+03 -7.7120694780349731e+04 4.3211843119958730e+03 -3.2772046006289861e+03 -9.7878179281328244e+00 5.3801445665607804e+04 2.0027919921397475e+04 -1.8991306304873683e+02 3.0465254811899972e+03 5.9476610394473682e+03 1.8429432735786213e+02 -3.8430855974073125e+02 -6.5108273817218276e+02 -1.5182992344935178e+02 -1.7532979162418242e+03 6.0256558600772530e+02 4.6898999448585510e+05 9.6375741342926140e+03 1.4584678280929988e+03 3.1295257738539021e+01 -2.6909058133281200e+04 -8.2584562908914177e+03 -1.5718286909786366e+02 3.8034815744977122e+03 4.2220156951730132e+03 8.6656769956244887e+01 1.1857730237124258e+01 -1.2322538852599206e+02 -2.5567109201323910e+02 2.0721546979892378e+03 1.6054601345987512e+03 -2.7265431461811066e+04 5.6737149334466812e+03 -2.6323051025467275e+03 -1.5185080384690519e+02 3.2684495774684779e+04 1.7821570869389463e+04 1.0151254655707316e+02 -2.3035539289705348e+03 1.3653154089078434e+03 4.4442421872164778e+02 2.4616441169805812e+03 -6.9993581759036260e+01 -2.5411158472763134e+02 -4.0698348096017844e+02 -2.1202856465921059e+03 -7.3947609734237194e+03 -9.5162872400423876e+03 4.2163069919440363e+02 -1.2025294529939686e+01 -1.9157186364381814e+04 -2.6704428152490462e+04 -2.8245082441850354e+02 -3.9057422526000018e+03 9.1186639080277450e+02 -7.1487476042589151e+02 2.9220327315918594e+03 -4.4415848543528296e+02 2.9708710796532631e+02 3.8008392289287258e+02 9.6927046356788287e+02 -2.8885039186285657e+05 -9.6382427817595981e+03 1.7001520502494038e+03 -1.9467661436561821e+02 -3.8508822332923184e+04 6.3710311946960865e+03 -1.4634778155756447e+02 -3.7560066687281255e+03 -9.5300722915411825e+03 -9.2811355417090567e+02 -9.6608781058991417e+02 3.5354901169264014e+02 2.3659976242716897e+02 -5.5593623602856915e+03 2.3773352272620959e+03 1.3654007479727268e+04 -1.7221949669723963e+03 -2.1951531826154933e+03 -3.1395620652957859e+02 2.2847813151452228e+03 -3.5251165346480648e+03 -6.0435025675081238e+02 -4.5392016093377060e+03 1.4039027508199611e+03 -8.0288989607853171e+02 4.2092194231977519e+03 -8.2681660029271825e+02 -7.8222337434843780e+01 -5.0841806797774334e+03 1.7749819430185662e+03 1.3033160275088685e+04 -2.1705609106312568e+03 1.9824977311459284e+02 -3.0535134127426318e+01 1.1712264455352561e+03 5.8480908822492629e+03 8.4372957080704055e+01 1.0930229272495126e+03 1.6613583387815088e+03 4.3682992632545825e+02 8.6416244598828769e+02 1.8677695169604885e+02 -5.9217958685248823e+02 5.3248411818721434e+02 1.2712072068134856e+04 
      </Row>
      <Row Index="17">
        1.4872362518012799e+03 -5.1516600012779236e+01 1.3983981940114229e+03 7.3031348768228361e+02 8.7873886075260177e-01 8.3022644154455338e+03 -1.1550661862553306e+03 2.2906193194033097e+01 -2.0026557777183684e+03 5.2976789449706939e+02 1.3120958435039734e+01 -3.5516434260310842e+02 -1.1843743288815206e+02 -1.1750592493498058e+02 1.9277321069484816e+02 1.5339453279747065e+03 9.6375740721821785e+03 5.8490245689233161e+03 2.9747683222648101e+02 7.2595683040282779e+00 -5.2733867995042465e+03 1.0945018281643229e+03 -2.3830125270635108e+01 -3.1299219046507911e+01 1.7759910814544069e+03 3.1305254059522181e+01 -4.1953895813822106e+02 -5.4021965939105179e+01 -4.3276044832490243e+01 1.4834191664193054e+03 1.8034883235583254e+03 4.1076710295379162e+03 3.2136387452507884e+03 7.1052008667799555e+02 -2.5803943453093655e+01 1.0753956224592364e+04 1.0315014228044643e+04 2.6724123821701448e+02 2.5759034712186968e+02 -1.0358783742659687e+03 1.0094924207539476e+02 -6.3012369884228269e+02 5.6506424770291437e+02 -5.1882686671095904e+01 -3.0499719733118995e+03 -2.9537721605710790e+03 -1.1138162457346916e+03 -5.0499323501267800e+03 1.4650754801836381e+03 -2.8626442555592661e+01 -7.0030499740819300e+02 -3.2666808071680371e+03 -6.1789028933843497e+01 -7.4300705550515713e+03 2.1850823081002004e+03 -2.8661842918952675e+02 1.1080007002747004e+03 -1.2672223792307344e+02 1.2605545606407387e+02 1.5244452766611062e+03 -2.1236949647448018e+03 3.9015623038560152e+03 -6.8817217833416798e+03 4.4799285393804286e+02 -6.8966092774148947e+01 -8.9028031834781177e+03 -5.4677236736011619e+03 -2.7423640476456452e+01 2.7863630595069726e+03 -2.6113989614277898e+03 -1.9204967004432280e+02 5.8315180879083857e+02 1.0383295733411491e+02 8.8276156167094328e+01 -4.9362290840278956e+03 -5.0555450253431235e+02 2.0893359833061695e+03 -2.3969756403894694e+03 3.2457438607208669e+03 -1.0764115851553922e+02 3.3918998693254944e+03 -1.5803052056447243e+03 1.7913817851187926e+02 -5.1937352321695607e+03 3.3064932944909560e+02 -3.0226341605599083e+02 4.7348868091622398e+02 4.0500411573139638e+02 5.7488552292786927e+00 -5.0047846910682429e+03 -7.0891562282636312e+02 2.3014079840671443e+03 -9.9290550777679300e+02 -1.3033752271599778e+02 -9.5113808643557149e+00 -1.3597351359210779e+02 2.8009761519964350e+03 4.6125851668633686e+00 -6.1215158206335673e+02 9.7287374076655396e+02 6.6798332606018107e+01 -2.5650942905158746e+02 7.9527375369448805e+01 -1.3561028677159453e+02 -4.3958614247741946e+02 2.3201419765958149e+03 
      </Row>
      <Row Index="18">
        -3.4802965059199572e+01 -5.5011485059559345e+02 -5.2032340101220271e+01 -1.6542346357029379e+02 -2.4501314079087419e-01 3.4331732126463930e+02 -3.8174102913869780e+02 8.5288561712736595e+00 -5.8350365599666532e+00 1.5269679067479760e+02 3.7204796890229028e+00 -8.1882051229040727e+00 -9.3091768151314476e+00 2.1707099712019989e+01 1.6856640712256930e+02 1.0295582446008761e+02 1.4584678314924240e+03 2.9747684194883846e+02 5.3464914250963682e+02 3.4148293894384096e-01 -5.4652921037006236e+03 -1.8955979316250819e+02 -5.7281775690311179e+00 1.3386772600419627e+02 6.2280671146918650e+01 -1.9000588471767501e+00 -4.2565652158699685e+01 -1.1313557864136840e+01 -8.7640695235450039e+00 -1.3289378036428897e+02 -1.3185828103072583e+02 -2.2733032505214214e+02 1.9817232155613181e+02 -2.0650121262748397e+02 3.4581337402807608e+00 3.9482223985972591e+03 -6.9215740377942143e+02 3.4240985793484654e+01 -4.6648706048681288e+02 6.4724358834798090e+02 2.6704674111842177e+00 -1.1486481705049671e+02 -7.7465386146683869e+01 1.8043082242671997e+00 2.3992393458056605e+02 1.9538047639204396e+02 5.1623278421908617e+02 -7.7373520776002863e+01 -5.5775414441092742e+01 -2.0982876892566704e+00 -1.9980518971306683e+03 -7.0314958941374164e+02 -7.4191355214221995e+00 5.0649249213696430e+02 4.3181645420742882e+01 -2.1376381722808384e+00 1.9535482871862307e+01 -6.0365849876115369e+01 5.7651366513324742e+00 -6.1619357675879385e+01 -4.0669474511903934e+02 -7.4514405777305365e+02 2.1711143571424614e+02 -3.2542341577722374e+02 -1.3850486111333353e+00 3.9160901962154103e+03 1.8645858390403711e+02 -3.1052259480356852e+01 -5.7342625472197795e+01 -4.9922544452639886e+02 -2.1873582887594011e+01 1.1982568061809823e+02 1.8448319935528254e+01 4.0225053147353780e+00 3.2663120593458910e+02 -1.2554204580181440e+02 5.6279011124838144e+02 3.5461353396427666e+02 -2.1879709561465268e+02 2.3456050659929240e-01 5.7812895535869438e+02 -8.5195736719965964e+02 1.1136017869763251e+00 1.2108029354177836e+02 5.1838252097812767e+02 -1.7294329087706110e+01 -3.0320063267349724e+01 -1.3952196668310984e+02 1.1857711512653591e+01 3.6171567537044859e+02 -1.8842045024890146e+02 5.3801101384899994e+02 1.8915379180200023e+02 3.4055183829578993e+01 -1.6850190618575311e-01 6.8317596834291635e+01 -3.3004366962978776e+02 5.2894769072925385e+00 1.2083518862920300e+01 -3.5117644909165392e+01 1.4915419449659982e+01 -4.9368587775340899e+01 5.1247114582501467e+00 4.7916884491082143e+01 1.4647132000799110e+02 6.4281984100040177e+02 
      </Row>
      <Row Index="19">
        4.1718124985652025e+00 8.9136836429534014e+00 -3.4793036273002893e+00 -1.7133180607746379e-02 8.2578491821172044e-03 -1.2926733021290744e+00 6.6669550496140335e+00 6.0206925776280507e-03 -9.6640279130850963e+00 2.4594261506799056e+00 1.5389089437767717e-01 -1.0364109916827846e+00 -8.9712513352165624e-01 -1.0484248899505513e-01 -1.1358537259478481e+00 -2.7790012423174515e-01 3.1295257056655828e+01 7.2595682811575877e+00 3.4148289010070954e-01 3.2069490973364856e-01 7.2659016867865001e+00 1.1182069435074560e-01 -2.5676570852746883e-01 1.3724375935548006e+00 2.7598703781719274e+00 -2.7662405217946159e-02 -5.0206840357292053e-02 -3.5583416923848310e-01 -1.0591059972460137e-01 -3.7581427254722499e-01 -2.6369913685899409e+00 2.5344911720894743e+01 3.3690091188366131e+00 9.1914764055719758e+00 -7.4530630491458305e-01 -2.4822168828873403e-01 2.5000322358952040e+01 5.9193922160616974e-01 -7.0765706626310765e+00 1.0494660901666897e-02 1.6539869440019475e+00 1.5180188355519260e+00 3.2526424083158894e+00 -7.5228534907569777e-01 -5.2126279006668268e+00 -3.0922093902956682e+00 -1.0003861340805088e+01 -1.0872979388340896e+01 2.3221327646127992e+00 1.9537292275502671e-01 3.1789039576197489e+00 -3.6933988917751584e+01 -8.0762286785898474e-02 -9.9833089782346267e+00 2.3862016049498989e+00 -5.8792210432025049e-01 2.0864046250277966e+00 -1.4576655755011023e+00 4.0237788516062700e-01 6.9189061271768288e+00 1.6816126730892755e+00 2.8304792961062049e+01 -1.0791957609963543e-01 1.5797348371899700e+00 -1.5354577806066187e+00 -3.1771794713731065e+01 1.2582688151516567e+01 -2.2985068298238914e-01 1.0292238353546795e+01 -9.4014748569243167e+00 -2.4296198758627208e+00 2.0396056529184676e+00 5.2530063854012043e-01 1.4627770459134953e-01 -5.0982777161687105e+00 -2.1617930733366686e+00 1.2686627657185454e+00 -1.8303957887941884e+00 1.2974753118064216e+01 -1.6277117705773454e+00 -2.5775625418102209e+01 -5.5266937675304693e+00 9.9868736071044628e-02 -8.5575566323908774e+00 -1.5847330886738256e+00 -6.0497305333640172e-01 4.5614733575881177e+00 1.3817334487198976e+00 -1.3377134670361973e-01 -5.5624650875096933e+00 3.3217096842990630e+00 2.8826603256678558e+00 -3.3391007837374840e+00 2.6344275759765400e-02 -1.8481628238173536e-01 -4.7769537475454849e-01 9.9626512097186470e+00 8.5470747020334081e-02 -2.9913295107314744e+00 8.0225878726492494e-01 9.2620695173670531e-01 6.6051885261106347e-01 4.2642788907649265e-01 -1.2256035600554247e+00 -2.5947601312033047e-01 1.2063256459637737e+00 
      </Row>
      <Row Index="20">
        2.2868775494711659e+02 -9.8144343448281288e+03 2.4186744173952898e+03 -1.4595800892402169e+03 -4.3444729139787341e+00 -2.4499302641682491e+04 2.3611018437608993e+04 -1.6839283068834902e+02 3.0987743745720463e+03 -3.5504932963491628e+03 1.5840321486395155e+00 -7.5166095469379528e+01 1.1205758571018131e+02 3.7666297697553105e+01 -6.9420511019001951e+03 -2.0474756827813983e+03 -2.6909058463305235e+04 -5.2733869654775253e+03 -5.4652921165898724e+03 7.2659011802936675e+00 9.7925584053681974e+04 -3.5247432077468920e+03 -7.0765376554453496e+01 -2.8875994255234727e+03 -1.9509265292471487e+03 -6.1438326603762484e+01 7.0664385403884671e+02 8.2200773690318783e+01 -3.9573921739641946e+01 2.1047247551499422e+03 -3.6917847204916284e+03 1.9126302394866943e+04 -1.8314289545335703e+02 -1.8032338724333774e+03 -1.2380418925367171e+02 -3.8457462913215335e+04 -4.5804863789502924e+03 8.9459082512579130e+01 2.1484368005813008e+04 -2.6110435598033782e+03 2.2442644208914916e+02 2.7336892501640659e+03 -6.1435869061756921e+02 7.8235951117554478e+01 -1.0062655644323536e+03 -2.8700302186909439e+03 -6.8694866766501218e+03 3.5618622240447016e+03 -2.4770128976353471e+03 4.0396940935797602e+01 5.0961283295017143e+04 -6.7252279475725686e+02 1.0925650323075577e+02 -3.3795442356806561e+03 -3.3512027056737497e+02 -7.6079239409046778e+01 5.8591984081140140e+02 1.1991644189598353e+03 -3.3888144135206954e+02 -2.2756834748009651e+03 8.1010093553221632e+03 1.7167159082569182e+04 -3.0857368012498700e+03 4.8398542827746505e+03 2.0056482400535060e+01 -9.5860743302544550e+04 -1.1444334336894830e+04 1.2314723284182770e+02 -5.6748028407732982e+03 9.9425178500054135e+03 2.8728419630885810e+02 -1.8449658639518250e+03 -8.9040292646961319e+01 -1.5731483227514306e+02 -4.4184476180326592e+03 -2.7617870645097923e+03 -1.5564357107467949e+03 4.6747433024113980e+02 -4.9653770524072934e+03 -6.2949825786080282e+01 -1.6045404684496101e+04 -1.0847556957339235e+04 1.1644576568236937e+02 1.3478051760009268e+04 2.3425320102620253e+02 3.5198728127506593e+02 2.1225497918937467e+03 6.5782698971177092e+02 -3.3536394798386652e+02 -1.1134657314113232e+04 3.8800229647461410e+03 -1.1634262716671901e+03 -2.0645075410687509e+03 1.4589110752077136e+02 4.2276890308771726e+00 -1.0852062715446968e+03 5.9734626917969617e+03 2.1932907855116014e+01 2.1162004741674373e+03 2.5464471548373467e+02 -1.4221334389364810e+02 1.0829479794781878e+03 -6.0392199302374479e+01 -2.5511326296596891e+02 -3.5584983858193718e+03 -2.0700877641919005e+03 
      </Row>
      <Row Index="21">
        -2.3777515543203735e+03 -1.1320046398401260e+04 1.0392278247083202e+02 2.8901584355529344e+03 8.0844795000775775e+00 -1.2755776458750181e+03 -1.6375828086933154e+04 8.9774492045384250e+01 -3.8084385539565901e+03 8.8741630549344643e+02 -4.8203372824196595e+00 3.5424957046158443e+02 1.9550012687244396e+02 -1.0114011539844438e+02 -3.5108988827674784e+03 -1.0353037615611845e+03 -8.2584559409618378e+03 1.0945018801057524e+03 -1.8955978279858076e+02 1.1182135965282214e-01 -3.5247429966254558e+03 2.8162237694511648e+04 1.1262710694713860e+01 3.8289994257144058e+03 1.3357701284941979e+03 -4.7587726500629998e+01 1.6622852213430579e+02 -9.9856652107502669e+01 -1.1853704043147081e+02 -3.4266872904287675e+03 -5.3280907402978855e+03 4.7268670368194580e+02 1.3893754633442900e+03 5.7932382149191744e+02 9.6257847021878575e+00 -2.9857358273167192e+04 2.3898304107185642e+04 1.1383112863020311e+02 -5.8797206315469703e+03 -1.3546600872568644e+04 2.1106167428868639e+02 -4.9422090043861226e+02 -9.1885306630875755e+02 1.0659430569864432e+02 -5.5230278283219141e+03 -1.5719275396029707e+03 9.5174851118847728e+03 -2.2414904928861329e+03 2.3766365520172485e+03 -4.8534041596424068e+01 -1.1954253385737142e+04 -6.7444523984950283e+03 2.4546118433207295e+02 -1.2482102777134023e+04 1.3039357574053870e+03 -5.4963472232362996e+01 4.6560732962018432e+02 5.2481163007413249e+02 2.9453827759647635e+02 4.9665812059731270e+03 -3.1233896645268478e+03 -1.8915038188397884e+03 2.2680424301268667e+03 -3.5878453474383161e+02 1.7888403330257145e+01 7.7265307316685830e+03 -3.5082876346600395e+04 -3.1766366352152787e+01 6.5465990148397523e+03 4.5978635741450444e+02 -3.7704252708752819e+01 6.4665725498051802e+02 -2.3052529199595348e+01 2.8546286756593463e+02 3.2664413845649360e+03 -9.5088847837590092e+03 8.4414872117042542e+03 4.7119126489391954e+02 4.2184731038331447e+03 -1.7418578677388780e+01 -3.4375924784921233e+04 1.7629496914301817e+03 4.0114458758646811e+02 -1.4271026810035070e+04 -1.0692807718824839e+04 7.0115156581661267e+01 6.5404533145772439e+02 -3.7915124048842665e+02 5.2213301345830075e+02 -3.1284388561315704e+03 -2.9705848267667707e+03 9.3566649161165788e+03 3.3696331198402731e+02 -3.6255566737351546e+02 1.8377817520190547e+00 -5.5050412436721308e+02 2.9658129805894509e+03 -3.4545223897989672e+01 -3.1156169179779681e+03 1.2408207601475387e+03 1.8797029487076315e+01 -4.6342093486484316e+02 -1.0636618979218474e+02 -5.1638036734070090e+02 -4.3954914722933063e+03 8.5714662322730692e+03 
      </Row>
      <Row Index="22">
        3.6046132332000163e+00 4.4801950998138636e+01 4.2968067361816180e+00 -1.0518018731009196e+01 2.2011503645976616e-01 -1.0441463911339078e+02 -2.3261101732430717e+01 1.5461419985745799e+00 3.6216695632357791e+01 -9.9267128258332988e+00 -1.3191537181267139e+00 1.0967596056096929e+00 2.4535485376712889e+00 1.0670029325879220e+00 2.5975004842284090e+01 -5.2596491061891824e+00 -1.5718287010490894e+02 -2.3830125198271681e+01 -5.7281776037279419e+00 -2.5676570860222503e-01 -7.0765376579551997e+01 1.1262710561481139e+01 9.1224245973610376e+00 -6.6085981728660537e+00 -1.0254798998807152e+01 5.1962716656223273e-01 7.5526623849890235e+00 1.2651406368852174e+00 9.3700528467578570e-01 5.6462937829365512e+00 -9.7088467266483103e-01 1.0929700010805391e+01 -1.9742100687933934e+01 -1.9867529265497922e+01 1.0365592031392139e+00 9.9692898319913290e+00 -4.3776801167119856e+00 -6.4779466963137136e+00 3.9544306676845071e+00 7.6751911478433300e+01 9.9891608953030397e-02 2.0544048006817626e+01 -1.8672034813286231e-01 -1.3856747552433202e+00 7.0661489723525222e+00 -1.4447570903891599e+01 -7.4376444100566005e+01 4.0155990736596898e+00 -1.0963297983067314e+01 -8.5335758259834948e-01 -4.3362012039563331e+02 -3.6127541436366535e+01 -4.1829279223051485e-01 -7.0325430520419758e+01 -3.2083301660519226e+00 -6.6267604154863480e-01 -1.7973354218245159e+01 4.5383058696678811e+00 -1.9764167204742815e+00 -1.7910960762389859e+01 5.5567264767925932e+00 -1.1476127126563370e+02 2.1257793085259742e+01 -3.9213467550902834e+01 1.0472664535122993e+00 1.5540968171638579e+02 4.4976966146424058e+00 5.5502528238251694e+00 -6.7322982259342723e-01 7.2115751954222365e+00 1.9552991952861698e+00 -1.6601848182409803e+01 -1.7359464890371812e+00 -2.3704489591428524e+00 -1.1705152488447824e+01 -4.9774532012789585e-02 -4.5141233899994404e-01 -5.8245770994554693e+00 -8.2479377114342981e+01 1.0691467707458564e+00 -1.1492106615852481e+02 -8.3525699118674481e+01 6.7897407640198670e+00 -8.3804881845821072e+01 6.7984169115391921e+01 3.5623070839911375e-01 -9.9388949925565484e+00 5.5659775693283251e+00 -3.0473274105821009e+00 2.8209189899829852e+01 -1.8292136208863865e+00 2.8002985079589351e+00 -2.0760910413072176e+00 1.2437887744118847e-01 9.5979295842294365e-02 2.8047147587169965e+00 -1.0682063124196301e+01 -2.6330185630211771e+00 3.6731298669584325e+00 -9.4412534648822444e+00 -2.1478927475689398e+00 9.0401507662027711e+00 -1.3078049895692236e+00 1.4922734294520343e+00 6.8878492034025145e+00 -2.2338581137832563e+00 
      </Row>
      <Row Index="23">
        -3.4866778969057737e+02 -2.6227082130312920e+03 7.9017946821656881e+02 6.5039760522717825e+02 1.1660657494492170e+00 3.2590450420317975e+03 -4.9811606116717776e+03 2.8618191433515676e+00 -1.6682944638477800e+03 3.9681556903626387e+02 -4.3517664488440362e+00 1.0585470112407391e+02 3.3273769085240204e+01 4.7003123337942561e+01 -7.7664677694995373e+02 -4.5242095786502841e+02 3.8034816277027130e+03 -3.1299202152264186e+01 1.3386772971522950e+02 1.3724378659952663e+00 -2.8875993927588265e+03 3.8289993762128743e+03 -6.6085980896705223e+00 3.0686264935814206e+03 4.9104377501056689e+01 -2.7083665316210098e+01 -2.1332894296897393e+01 1.1350357835458453e+00 9.6359981786599747e+00 -7.5220677065899588e+02 -9.1357084314572046e+02 -2.4073293851912022e+03 -1.2284853464305331e+02 -7.1055228028032468e+02 9.1528434631486952e+00 -4.1894123001767166e+03 3.5693960829918905e+02 4.4064872603580199e+01 3.8578560738500346e+02 -1.0462646088962188e+03 9.2293798920925791e+00 -3.3199191188779611e+02 -4.0913268574534146e+02 3.1722283215536066e+01 -5.6775087737088040e+02 -4.0256046545898172e+01 -1.0090751958265901e+02 -5.2131328350395950e+02 6.3028992072220001e+02 1.9162270444279883e+00 -1.9584475260694580e+02 -4.7885989845992453e+03 4.6657175020600931e+01 -2.9841051721533013e+03 2.0257473680034866e+02 3.6988056911394409e+01 1.7059715754510208e+02 4.0762988423192830e+01 3.6700920646628553e+01 1.6080719307615864e+03 1.2896554259564670e+02 3.1122712234258652e+03 8.8277085066750260e+01 9.9056344763350950e+01 1.5834973465918665e+01 2.8785292896167994e+02 5.0908786239427145e+03 -4.8616964986614562e+01 4.7268864055162658e+02 6.6045459092822716e+02 3.4969851569810544e+01 2.4847741584998005e+02 -8.0898591561191637e+01 6.7431182824997702e+00 1.6358011550441738e+03 -1.2649045813497371e+03 3.0927754696533084e+03 -3.9989188680963730e+02 4.4710977172752382e+02 2.6646498126107247e+01 -3.2085144932395106e+03 -6.6857242052398669e+02 4.0331827572715213e+01 -1.5266285058202639e+03 -7.4825990458036131e+01 4.6902207737355681e+01 7.1679837556891357e+01 -4.2623456122870425e+02 1.2379216682297368e+02 1.4773152013552226e+03 1.2946004065213074e+01 3.2000436554778989e+03 3.7459427035362387e+02 -8.9644437768497028e+01 2.4259340540335188e+00 -1.7378355261871548e+01 1.1978917339052450e+03 4.2033746130903182e+00 -1.3804027921091729e+03 2.0692479396884755e+02 -3.3609993755704757e+00 -1.5003781098863578e+02 -3.9679264375809908e+01 4.4157928505740415e+01 -1.9233474985029738e+02 3.2261101261676918e+03 
      </Row>
      <Row Index="24">
        4.5553067236573247e+02 1.0733374064989039e+03 1.2164495153327732e+02 4.0212751346241521e+02 7.9484457032079425e-01 4.1815311371407461e+03 4.3471821784967597e+02 4.3899784500689751e+00 -4.6170523728414094e+02 4.6989909602929612e+02 6.8353859273165085e+00 -1.2027924236662790e+02 -5.0804404825118212e+01 -1.0386181675335283e+02 -1.2338518682664248e+02 4.1955944634982916e+02 4.2220157040101039e+03 1.7759910736520865e+03 6.2280669730256236e+01 2.7598703552781907e+00 -1.9509264830108559e+03 1.3357701073068708e+03 -1.0254799032786018e+01 4.9104374407537875e+01 1.5472893237463859e+03 1.5926754296027520e+01 5.4543048138391917e+01 -1.4639311201680028e+01 -8.6069125526089721e+01 3.8052928912578295e+01 1.7881771894096456e+01 1.6775928182564676e+03 7.4757603492217800e+02 4.1768786935819776e+02 -9.4124708149795122e+00 -4.2905541416897886e+03 5.6551289852348973e+03 7.1622029192292018e+01 -1.5417038483101762e+03 -2.5310192499846739e+03 4.0456657352419739e+01 5.6509815976007440e+02 1.2085871797024180e+02 -1.3126056099731805e+01 -7.9820479615714282e+02 -7.2224925931666280e+02 -1.0119142870517244e+03 -1.8403350744857851e+03 8.9523283116655921e+02 -1.3833757273099835e+01 1.8539327548142255e+03 -1.5218510049296031e+03 -5.7652837774977314e+01 -1.2596166616605547e+03 9.1896465466693962e+02 -7.1493848919540824e+01 4.9898707108367796e+02 -1.1631308299466892e+02 1.2278113586938909e+02 8.2400358196959053e+02 -5.6450680610511688e+02 8.1723728680193017e+02 -1.5413181076283913e+03 4.6728392392739693e-01 -2.8156279265332515e+01 -4.5401079262337339e+02 -4.2126232887782462e+03 -9.4257709290520229e+00 6.7348169844577865e+02 -2.0390239868400859e+03 -8.0729554975532906e+01 -2.0402107815027415e+02 2.7845026266317550e+01 9.6158354797570439e+01 -1.2936337055132713e+03 -3.1247989106036187e+02 5.0725515529551558e+01 -8.7149851149688971e+02 1.6056940512728615e+03 -4.4801575893329414e+01 -1.3896600864932655e+03 1.3056758107120436e+03 -2.0042206178914057e-01 -2.1540602888698018e+03 -2.1746065886967995e+03 -7.7353075494487371e+01 7.8767053213347731e+02 -1.8548009574740831e+01 3.4412898035951294e+01 -1.5274345477404124e+03 -3.0052372065837858e+02 1.8511151570944097e+02 -6.6552944567569023e+02 -7.7712380477365627e+01 -3.8519967646382880e+00 -7.7863092565795753e+01 1.1095929343094901e+03 4.2557190320158894e-01 -1.1783817728686081e+02 5.7903493930960781e+02 2.8548232375022760e+01 1.5006600136861687e+02 3.1240450861411666e+01 -2.3389151691719312e+02 -3.4979084632293109e+02 1.5331750485473583e+00 
      </Row>
      <Row Index="25">
        7.6570048404093676e+00 1.5461605510674417e+01 9.1493061029261575e+00 -1.0589979916977363e+01 4.9381472788510905e-02 2.1423983462575393e+01 2.7691739581430852e-01 -6.4812534062083671e-01 -1.0744818007636399e+01 7.8030844641678261e+00 -3.4945674470437282e-02 -2.9454700901256801e+00 -2.3323800607608596e+00 -2.6809352161535469e+00 3.1218276891061059e+01 2.7935532992778739e+01 8.6656772219110280e+01 3.1305254529240329e+01 -1.9000587445773713e+00 -2.7662403577585870e-02 -6.1438325950571425e+01 -4.7587724959469774e+01 5.1962716633230954e-01 -2.7083664665107239e+01 1.5926754290432235e+01 2.6226197826731501e+00 -1.9054691825048167e+00 5.1834835019544911e-01 -1.3640837749061774e-01 2.4925780272455956e+01 1.7062911444345051e+01 1.6194799751043320e+01 2.7898787713520491e+01 1.6337535960039371e+01 -1.1897676171754955e-01 1.9607988153414948e+02 7.9433930682455012e+00 4.4521897781003981e+00 -2.6809178291101798e+01 4.0923641926811577e+01 -2.3673166496393421e+00 3.0509192694590803e-01 8.5207187264273347e+00 -5.1221220126933265e-01 2.2071073640442435e+01 -2.2661798747207850e+01 8.2334467855980620e+00 -3.5506682379064685e+01 4.6479661013446014e+00 -4.0959506798405110e-01 -2.0650132904620224e+02 5.2744049992047707e+01 -1.1979451511562642e+00 -5.5156714101568284e+01 7.2404816598530459e+00 -2.7675202023089360e+00 -2.1347353310738342e+00 -2.5755770239982785e+00 2.3413229044301326e-01 -5.8979644449904463e+00 -2.1404761241324572e+01 1.7766636620275676e+01 -2.0120263252192679e+01 7.7107321482641344e+00 -1.2654127744449484e+00 -4.0674278061788101e+01 -3.1794744449899024e+01 9.0705652234634915e-01 2.9038500009838408e+01 -5.3425222869277164e+01 -1.9085458946166951e+00 -1.5821628100623215e+00 1.9786798069501117e+00 1.2496386079511708e+00 -5.7263612795218314e+01 5.9739367029354753e+00 2.8446377496584319e+01 -2.1823828428997139e+01 1.6824862897139624e+01 -1.6022901270099936e+00 -4.3885450221217752e+00 -4.0464193507980873e+01 3.9255811307584318e+00 -7.2843354887525720e+01 2.5566886769080153e+01 -4.5516652673116642e+00 -5.3044428774852435e+00 6.5994549290116113e+00 -2.2756839792026944e+00 5.8234339346405335e+00 -1.0690404761609290e+01 2.4632332514913550e+01 1.7788724843757890e+00 6.2450434532292931e-01 -1.6373274512299751e-01 1.6333792004784087e+00 3.5209227479708716e-01 -1.0745391917152958e-02 2.2858013906420496e+00 1.3041401659332763e+00 -8.2938758153004599e-01 2.3196727824498637e+00 1.1391881602462668e+00 1.2521584955240450e-01 1.1326070916425245e+01 3.7202761716657008e+01 
      </Row>
      <Row Index="26">
        1.9603295638276384e+02 7.8715315321832895e+02 1.5797768943359716e+02 -4.2504168722312997e+01 -9.7687465499546988e-02 -1.4063815243638223e+02 2.0245708253325743e+03 3.6232752305841132e-01 6.8393314686005158e+02 -5.0286054730555094e+01 -1.8057414902434488e+00 -6.3185337262351041e+01 -2.1948660681632173e+01 -2.8490842559785703e+00 -3.3603862018488422e+02 -2.1408037233161212e+02 1.1857681907713413e+01 -4.1953897145748726e+02 -4.2565654139193647e+01 -5.0206883041411743e-02 7.0664385879227802e+02 1.6622847335136501e+02 7.5526624144571315e+00 -2.1332908201386299e+01 5.4543045026549585e+01 -1.9054691909872759e+00 3.0359659507185029e+02 8.0097786231536929e+00 1.6857808301012881e+01 -9.6721361105172221e+01 -6.8039008414583304e+02 -1.3359398645088077e+03 -3.3203067978411451e+02 -1.3861903937463310e+02 1.0258633853786495e+01 -2.6420023390194397e+03 2.0616021967138929e+02 -7.8619840151917884e+01 2.1145276312949559e+02 -1.9841100445621109e+01 8.8730949831284036e+00 8.7239866024966136e+02 -5.4013378544284677e+01 -3.2209353145485991e+01 -4.5350394170213406e+01 -3.0305860769954171e+02 4.1400084963394329e+02 1.2663791041199603e+02 -7.1902972385351077e+01 -3.6374986346800293e+00 1.3300192174805309e+03 -2.1878486541017314e+03 -1.0784069101425086e+01 3.0628335546482162e+02 4.3776294280529726e+01 6.7997186446932645e+00 1.0081748890132390e+02 2.1360747302132690e+01 1.2477251794312153e+01 -1.3785137915351515e+02 3.5017397820329620e+02 -6.3055156970210373e+02 3.6514944997734165e+02 -4.5208291856807094e+01 2.5636992072996310e+00 -8.0553914564561569e+02 -4.9983317012258999e+02 7.4639689556698343e+00 -7.3951535792502170e+02 1.5513254863464357e+02 1.8597943499676077e+01 -6.0752443100579080e+02 1.0581181417251013e+01 -8.3769128812260263e+00 9.9972421965958318e+01 -4.2498407638929268e+02 -3.5765189980715513e+02 -6.7446799139790414e+00 -3.2249519735758736e+02 8.6291986283180986e+00 -1.3488848315126702e+03 -1.3174770629544882e+03 -7.5646228483815946e+01 1.2232639291453336e+02 7.0103479926741670e+01 2.8119749479895848e+01 4.7798982337825333e+02 -3.6851772732661352e+01 8.7023275693123736e-01 -1.0531798958025048e+02 9.4449501670147654e+01 -3.3085652268839033e+02 -1.0306072929923465e+02 7.0821017237907427e+00 4.3253281071747551e-01 2.2846539052741150e+01 2.4759846077222880e+02 -2.8217698400647748e+00 2.3891479350195345e+02 1.9510997044338524e+01 -1.2053482413272718e+01 4.0072157429381963e+02 3.1814054798846314e-01 -3.4488320722476693e+01 -1.8262194411546778e+02 -4.5174493725725472e+02 
      </Row>
      <Row Index="27">
        2.6040447254515509e+01 1.2831293421657756e+02 1.7795376894769145e+01 -3.7494126955355689e+01 1.1696893787867424e-02 -5.5984705308981802e+02 2.7294221929418320e+01 -1.4513286490635835e+00 8.7447001255834891e+01 -1.7429572768393836e+01 -1.4267750439917908e+00 3.9905693855330426e+00 1.5540107203398097e+01 -1.7100927129023582e+00 -1.4565204043224007e+00 -2.2877546009040245e+01 -1.2322539134183899e+02 -5.4021966036312051e+01 -1.1313557942656539e+01 -3.5583417079661173e-01 8.2200770515437526e+01 -9.9856651837205973e+01 1.2651406349370795e+00 1.1350354972542895e+00 -1.4639311188268250e+01 5.1834834763156579e-01 8.0097783630932113e+00 2.0452940597505489e+01 8.4992856065858913e+00 -3.0673943791706339e+01 -9.5665802131791793e+00 5.9046708401758224e+01 -1.0096036174193912e+01 3.2764909261149711e+01 1.5468388062896135e+00 7.7588540589111531e+01 -1.8706232635687820e+02 -3.0124929813202712e+00 3.4887705651654113e+02 5.7626624990646505e+01 -4.5640819382362596e-01 -1.2862128294964084e+01 -6.4122861009461033e+01 -2.3845924728476153e+00 -7.0817150653702058e+01 3.7129025065705484e+01 -1.1875588100563618e+02 7.5368126534241725e+01 -4.2405784712309952e+01 1.2482826335634600e-01 -2.4239431608972714e+02 -3.9828679947441650e+00 2.1449075535445283e-01 4.5762962756945704e+01 -3.6112996345010224e+01 1.1835763682920941e+00 -1.3416198088170223e+01 1.4313190800675065e+01 -5.6373788048689057e+00 -4.9534442389516897e+01 7.0636954054906028e+01 -3.3439969185367227e+02 1.2286122729190982e+01 1.5927509772909421e+00 2.3638931599459618e+00 3.3940134838772121e+02 4.4323270367105158e+02 1.0252446112522664e+00 -1.3594347694836588e+02 5.7174774400268404e+01 9.0611858644574674e+00 -2.9226563395753850e+01 -2.5527181021613110e+01 -6.4262490468829470e-01 7.4423407872497691e+01 6.8384667710188509e+01 -2.7867637535498943e+01 2.2340470694144759e+01 -4.5104114342110783e+01 3.4331788131081820e+00 -1.1166311352455921e+02 1.0128522518776131e+02 -1.9597009480343353e+00 2.3852208837369341e+02 5.1046646747150064e+01 7.6129982813534518e+00 -4.6989829786253416e+01 -4.4127715315106919e+01 -1.5848756677323821e+00 -2.8138763734668352e+01 3.9003581063661493e+01 -3.1623404377372388e+01 3.1197426195236723e+01 6.6091932875560033e+00 3.0143853797988651e-01 7.4968154339930777e+00 -1.3289424200857376e+01 1.8042467788222094e-01 2.2692795512601577e+01 -7.8070088240440185e+00 -4.1937507235467120e+00 8.9561020924572770e+00 -8.5642090047676103e+00 1.2799504476020676e+01 1.0967324523519450e+01 -2.1358108127589503e+01 
      </Row>
      <Row Index="28">
        1.9857135975118947e+01 4.7800785587728024e+02 1.1360660665499979e+02 -7.2557546559053733e+01 4.1715845050157441e-01 -8.2250713136359514e+02 4.4442535173676083e+02 -3.2515372066435475e+00 1.9875160582582572e+02 -4.8698656621156459e+01 -4.0394048677441177e+00 6.4795161732987765e+00 1.0581768924472820e+01 1.5101137774559353e+01 -5.6303225991771413e+01 -5.4454527010386983e+01 -2.5567111366614699e+02 -4.3276047375458546e+01 -8.7640708236532170e+00 -1.0591061978124117e-01 -3.9573922327654657e+01 -1.1853705011352230e+02 9.3700529247962550e-01 9.6359938625417492e+00 -8.6069125467457440e+01 -1.3640835762640791e-01 1.6857807840800774e+01 8.4992855785272354e+00 6.5425231067757053e+01 -7.6765091674447525e+00 -8.5755382166860386e+01 -1.0611123265847564e+03 -6.4133616380104314e+01 1.4901342640561489e+02 3.3954112807037071e+00 1.5234472590660209e+02 5.3224823430261370e+02 -3.4297113547379652e+01 5.2088338799372764e+02 2.6388762794309332e+02 -5.6594714510737347e+00 -6.4051030605096713e+01 -4.2003789530361274e+01 -3.7107106107753893e+01 -2.9708180231540700e+02 -6.7822524851598530e+01 1.8277679544873536e+02 7.1531835068995505e+01 -6.8389967559693730e+01 -1.0085578289197961e+00 -4.5123805989977302e+02 -3.4678454837495872e+02 6.3667938493342184e+00 -2.0169850827774349e+02 -2.9669114781702998e+01 -5.6507787076391782e+00 -3.7793693257149329e+01 2.8291628488275634e+01 -1.5701574346720742e+01 -1.0603723989413308e+02 1.6717777894326139e+02 -2.1749518280848861e+00 1.6187838419685065e+01 1.7225444967663570e+01 1.0384190473902217e+00 -1.6266201242208695e+01 2.4331366739539931e+02 -9.1863603568955519e+00 -2.4057772972578908e+02 1.4393158294132172e+02 1.3885601177501620e+01 -3.4483860564283262e+01 -8.3917099201476884e+00 -2.7760826876883314e+01 -2.1293147786800404e-01 -5.1000090880791603e+01 -1.8732712562638335e+02 -5.2656150843549810e+01 3.3604311452935001e+01 3.4601860991474069e+00 -7.2601857516219150e+02 1.7390218773642374e+02 -3.7860710350194665e+01 1.4813859042798703e+02 2.8789511223871557e+02 -2.5479065202291835e+00 -1.2177246195823759e+02 -8.3334212564365586e+00 8.3405493107326034e+00 -2.2671452503342601e+02 9.1057713017546305e+01 -2.1391469525710107e+02 4.7110095613580711e+01 1.4024507733175057e+01 1.9204797454194988e-01 1.7899819230349976e+01 4.5226878161403704e+01 1.8479240660536931e+00 5.4542753448254871e+01 -2.8887104024065252e+01 -8.6964361673762198e+00 1.9077546067594472e+01 -6.8842129569150785e+00 4.6025297396196862e+01 -3.5517975932121800e+01 -1.9844568896843907e+02 
      </Row>
      <Row Index="29">
        7.6397050569205658e+02 -1.4843001096248627e+03 6.2428412042067441e+02 2.5290755197209802e+02 -2.8521096109252539e+00 -1.9614572672053803e+03 -4.1969565999446058e+02 -7.6800962714992238e+00 -6.7055413278948436e+02 -2.2111089505069438e+02 8.2579778149137155e+00 -9.0396570434823730e+01 -1.4521137662018123e+02 -3.6705918312623147e+01 7.6467424548844974e+02 1.0193033762515997e+03 2.0721546983867884e+03 1.4834191449670361e+03 -1.3289378030873331e+02 -3.7581425083442355e-01 2.1047248392446113e+03 -3.4266872851328703e+03 5.6462937481560402e+00 -7.5220675481405158e+02 3.8052920329033874e+01 2.4925779923073037e+01 -9.6721355489336247e+01 -3.0673942791496984e+01 -7.6765092513162472e+00 2.7360961169368343e+03 4.4805692043097457e+02 -1.0206966177821159e+03 4.6227131966720646e+02 -2.3519011431836927e+02 -2.7968037726574249e+01 2.7150340574828847e+03 -2.7208555622420738e+02 1.1559573656353352e+02 -2.1391913273019179e+02 2.3586447094625523e+03 1.8775391553614227e+01 4.7426048338160109e+02 6.8066913189819320e+02 -3.0135395434238628e+01 1.7168560181538742e+03 -2.1369781318792643e+03 3.5227702907770872e+03 -2.1715726681847891e+03 5.1754469358191272e+02 3.4314909058942220e+00 7.1583064900237050e+03 1.2309914473154990e+03 -5.8691922503174538e+01 -3.8499242150817518e+03 1.0496804271134097e+03 -1.4433559980887247e+02 5.5101972671818362e+02 -1.7392844525675773e+02 2.3482478572911774e+00 -1.5278001317822103e+02 -8.1221994974234849e+02 1.8355104764401913e+03 -3.3506664196570218e+03 5.1889066158555590e+02 -1.6133727524658006e+01 -9.8464238690561542e+03 -1.1402319586628455e+03 1.1243550907436484e+01 9.5790489119678443e+02 -6.5479492156472588e+01 -4.2916142247800281e+01 -1.7537681493643737e+02 1.2578418557558194e+02 -7.5496494980719689e+01 -5.3300309773825784e+03 -1.0443076378691530e+03 1.5315355897787958e+03 -2.6178286668655073e+03 7.7641994853645815e+02 -4.0819015666513124e+01 1.9582435506853385e+03 -6.9845038588071111e+03 6.7176760158295963e+01 -3.3843333376479868e+03 3.1127328188792790e+03 -1.3122880819934898e+02 7.2787313509249225e+02 4.9103964707407158e+02 -1.4675889852106260e+02 -9.2833642911378251e+02 -2.3233501424544426e+02 1.5561121786235553e+03 -8.2668333428572373e+02 -4.1363024907204135e+01 -2.5832677992370350e+00 -2.0418924463363737e+02 1.2661309691485048e+03 3.6050433169610869e+00 3.2564413827316457e+01 1.5538678287727907e+02 6.4414499533104390e+00 5.4508073558650224e+01 7.3346138215192809e+01 -1.5151800119109511e+01 -4.2464294524795264e+01 1.7519792580414846e+03 
      </Row>
      <Row Index="30">
        1.0614751497864304e+03 1.0079176224350929e+04 -5.4462815281128724e+02 3.7009854904126246e+02 -3.0596429644247110e+00 1.0506840970397412e+04 -8.2597085468841487e+02 -4.8088649099190661e+00 -2.1142687835428956e+03 2.1434144417707287e+01 1.6253105919481641e+01 -1.3503024836238001e+02 2.5543468665100807e+01 -1.3536098085072808e+02 2.2980711645344682e+03 5.3204520207838812e+02 1.6054599977135658e+03 1.8034883855908611e+03 -1.3185829408875796e+02 -2.6369917275229682e+00 -3.6917849030146344e+03 -5.3280904707852469e+03 -9.7088558717496198e-01 -9.1357085804354188e+02 1.7881820917385557e+01 1.7062912305842929e+01 -6.8039011524226771e+02 -9.5665834833230292e+00 -8.5755389734118125e+01 4.4805693469848194e+02 1.5928591823917599e+04 -3.9455860118865967e+03 2.7022009549303771e+03 7.7588962645516983e+02 3.9829442462216996e+01 1.6237527854217182e+04 -7.2691954301647766e+03 -3.0089361760042129e+02 1.1433464030841687e+03 -1.7741782792684996e+03 -1.7790999184734176e+02 -2.2591968543680850e+03 1.8494659745689132e+03 1.5034857380615551e+02 -8.3196170663029443e+03 8.5840615685855403e+02 2.0787863807007670e+03 1.3736053502041599e+02 -1.5630344891787445e+02 2.5589957666522018e+01 -3.3575251995247709e+02 3.2286185114744530e+03 1.3507021269405222e+01 1.4226832491465075e+03 -2.9139071703755235e+01 4.0686630418250964e+01 -5.6521460662873960e+02 -1.6072711771017862e+02 -6.5059902913513810e+01 -5.3214651817068716e+02 2.0729660403150035e+02 -2.8032861299216747e+03 -3.1519032491143857e+03 1.9934780346392185e+02 -7.0495752185680871e+00 1.0309231864712701e+03 1.8357445736971124e+04 6.8830597351597532e+01 1.4228033468317026e+03 -9.8203324029044506e+02 -8.9424603873696924e+01 1.1347945334431977e+03 -4.0369465799432845e+01 1.8316452812345901e+01 -5.5255374717443328e+02 1.6496974957500897e+04 -5.0441143881380558e+03 2.5893316224592927e+03 9.5258970081706718e+02 5.4791378735411598e+01 1.9812755628799961e+04 4.6950219639981633e+03 -2.2373875587471161e+02 2.7755044184968001e+03 -2.3848746781651980e+03 -1.8328191732612356e+02 -1.9925428620146231e+03 1.6767005281721204e+03 -1.0086917597045991e+02 -6.9555601909960906e+03 1.0561507369381179e+03 -5.0752876243562323e+03 -5.7692262766836120e+02 -7.9930058003674276e+01 -1.5186065888858593e+00 1.8595015615414195e+02 -6.1662809668147929e+02 -1.9549236909217598e+00 -3.7178007755371436e+02 -1.2609602682498553e+02 7.0049167225336987e+01 -6.8346066399732479e+02 3.9651675161510411e+01 -1.7640167175175921e+02 2.2714390565854255e+03 -5.4380338582305722e+03 
      </Row>
      <Row Index="31">
        5.5355836631473051e+02 3.3406153353905678e+05 -2.8830126088299821e+03 -1.6186482291186803e+03 5.7476002079829414e+00 -3.1350738577074862e+04 -5.8001242049787834e+03 -4.9252932770305051e+01 4.2462899941264468e+03 2.7987933732482597e+03 6.2393367705215041e+01 -4.4199024737826585e+02 8.6309215039218486e+01 -8.2171456947273285e+01 -3.5899311038113997e+03 3.1295834879711542e+03 -2.7265430804491043e+04 4.1076711386415700e+03 -2.2733031384587133e+02 2.5344912670129816e+01 1.9126302710502816e+04 4.7268682168162172e+02 1.0929699866923329e+01 -2.4073293050253278e+03 1.6775928626539735e+03 1.6194797752892555e+01 -1.3359398099799455e+03 5.9046707526269529e+01 -1.0611123169046050e+03 -1.0206965989508233e+03 -3.9455863086513818e+03 5.4048008618617058e+05 1.8190496905858265e+04 -7.0366704514462663e+03 -1.9877891440540154e+02 2.9908391980503307e+04 4.2491495945318435e+04 -3.1458486367323542e+02 -1.1192480727114420e+04 -2.0206026127857171e+04 -4.2827465093422120e+02 1.7081457711081623e+03 -6.4055722360433429e+03 6.0965404754195515e+02 -5.4883460119781403e+03 1.4812472202508325e+03 -1.0838597162905335e+05 -1.5343238647356324e+04 -1.1824785818591063e+03 -5.6880986405584494e+01 -6.0619402155287084e+04 1.8362782769241094e+04 5.9084714242893909e+01 -7.4937674038291625e+03 7.4465097844259617e+02 -5.5094280343374032e+02 3.2414873828499244e+03 -5.5987157453202371e+02 5.1179590817421740e+02 1.4164810836690092e+04 -8.3391606590433348e+03 4.4540248134732246e+04 -3.1500695717364588e+03 -2.5037051784566984e+02 -1.8898093152094728e+02 -1.1547150488471530e+04 -4.0287465048293503e+04 1.9521412948755150e+02 4.1655018801722326e+02 -2.1119906112876915e+03 -3.9187893940467063e+02 2.7503215310589912e+03 -2.4804146268927246e+02 6.1160981247008613e+02 3.5098811802797900e+02 -5.3938992861341412e+03 1.2958922073692083e+04 1.2043139841620327e+03 -9.9897164028077914e+03 -3.9357231141919078e+02 -3.4906355719426996e+04 4.1591361407893746e+04 -1.2449252846667795e+02 -1.8300708307969231e+04 -1.8182442033416555e+04 -1.2162611813837123e+03 6.3760791533535976e+03 -6.9732204280395099e+03 6.2409793483622684e+02 -3.2620484906721699e+03 -3.6465209057944899e+03 1.1985546315474896e+04 1.1966209679956428e+03 2.6201818408705185e+02 -2.4528157088846456e+01 -6.7891646180042153e+02 -2.6840938890608231e+02 -3.3173210254491551e+01 2.0646397138323664e+03 1.0083974694787030e+03 1.5725636072797897e+02 -9.9692981609463550e+02 -5.6573944554785157e+01 -1.5440432197577065e+03 -4.6116968124024970e+03 1.1601543917413712e+04 
      </Row>
      <Row Index="32">
        4.7193123606528042e+02 -1.9127785534858704e+04 1.5195957632754303e+03 1.5378275588715297e+02 4.2853439542450360e+00 -8.0355737779306010e+03 -4.0632885169154906e+02 3.1683136991439824e+01 -1.0328614046090075e+02 4.0109052233526512e+01 -6.5241550642394941e+00 -2.0858761443909407e+02 -4.2233867259311410e+01 -7.6819663673561251e+01 -4.8439656232234989e+02 1.2612910805719273e+03 5.6737152806520462e+03 3.2136388756379297e+03 1.9817232462659419e+02 3.3690096763946258e+00 -1.8314272339003111e+02 1.3893757205725765e+03 -1.9742100895124167e+01 -1.2284846804188524e+02 7.4757607884402285e+02 2.7898786329320046e+01 -3.3203065061254529e+02 -1.0096037124987561e+01 -6.4133608042158812e+01 4.6227133425252339e+02 2.7022007685685749e+03 1.8190497121572495e+04 9.4649345482307017e+03 -3.0254463815275409e+02 2.8955823868275260e+01 3.1798234862509769e+04 2.1067820117762098e+04 3.2085290991228197e+02 2.2487409974447446e+03 -6.0311549246033483e+03 2.8746928968883722e+01 -2.5752163583748381e+02 1.8225228110745445e+02 1.9266011494205308e+00 -8.4876132191409961e+03 -1.7578452552034826e+03 -1.5470940152868629e+04 -3.3561128046065392e+03 3.5569110254199768e+02 -3.4561271110940041e+01 -4.4624889921449758e+03 1.2979415547137316e+03 -4.7249471883802599e+01 -4.2786011643005113e+03 1.0298977475534693e+03 -1.7436832524784859e+02 6.2165663423281978e+02 -7.0141425011074716e+00 9.3272477832393150e+01 1.1602036995296260e+03 -2.2535292597028447e+03 -9.9100900897383690e+02 -3.1638280308395701e+03 5.0767238649922967e+02 -5.6648373150801987e+01 -1.1009554092824377e+04 -8.5667464724048732e+03 -7.3814020716449704e+00 3.3827958265393681e+02 -1.3215435727649246e+03 -6.2516874713967809e+01 5.5247292670431182e+02 7.6750004836129079e+01 1.1359959021614061e+02 -2.2572836846369819e+03 8.9738089690918082e+02 8.5844034514427185e+03 5.9079719716649724e+03 7.3575915155005123e+02 -4.9240577934092151e+01 1.2396854570002426e+04 1.5774068819203365e+04 2.7428938661921461e+02 -1.7960120738333285e+03 -5.5260067064401746e+03 -1.7512420014630678e+02 4.8877411617413918e+02 1.9918544947745897e+02 1.5890463151692589e+02 -9.7120469165427821e+03 -1.0275920570444928e+03 9.0836200648588056e+03 3.3701533900405957e+02 2.0651966399013872e+01 -6.7013835995171576e+00 -2.1830904837022172e+02 1.0032768215911965e+03 -9.1254089066387678e-01 4.7901727360705991e+01 3.6103121286994428e+02 -4.0661817826457991e+00 -1.8390774408444895e+02 2.6479041145031260e+01 -4.7462878500309057e+02 -5.7697061545445922e+02 8.8771131034353475e+03 
      </Row>
      <Row Index="33">
        2.1593827544674991e+02 6.0566236364841461e+03 -1.9788545419685374e+03 1.3899064131408352e+02 1.3619880378046219e+00 -5.3124798864566174e+03 -2.0778384618292039e+03 -1.8128193320990249e+00 -1.8652093724554379e+03 5.1848654943472275e+02 5.0391666988684847e+00 -1.1890685647178543e+01 3.2703982316684233e+01 -9.0557120684710512e+01 8.3261892405729714e+02 6.0915137304793738e+00 -2.6323052178621292e+03 7.1052006014791630e+02 -2.0650121699624822e+02 9.1914759072894867e+00 -1.8032340033219289e+03 5.7932386237258788e+02 -1.9867529581813869e+01 -7.1055229748549016e+02 4.1768786950970298e+02 1.6337537340957624e+01 -1.3861906588886905e+02 3.2764907952349859e+01 1.4901341737012808e+02 -2.3519008871451067e+02 7.7588957431687174e+02 -7.0366702432632446e+03 -3.0254454500430279e+02 1.0269240348176641e+04 -5.4114390284835579e+01 -4.3277118030830707e+02 -5.2558386393133042e+03 9.4739176561600755e+02 9.9784927320755323e+03 -3.4589273661298680e+03 6.0229566212231225e+02 -6.2695009835369785e+02 2.9742274241534901e+03 -8.1478203498441502e+01 -1.7738026878088785e+03 1.9612145862340279e+02 4.3420716996490955e+02 -5.0629391977297985e+02 -1.4762028984181234e+02 4.0920454251698963e+00 -8.0319628722617554e+03 1.6511349582987873e+03 6.9953724460658535e+01 -9.1093606282744713e+02 -2.2271815829776324e+02 1.5429357956727069e+01 -2.3681084091822595e+02 -1.6070079052471760e+02 2.4656798846508906e+01 7.2641787417331602e+02 5.2320720473628398e+01 2.5632058793902397e+03 4.7909359647917427e+01 1.3202902424642639e+02 -6.8871376767026334e+01 6.6867913475836813e+03 2.2401773490008795e+03 -5.4441884791443989e+01 1.6800351878753797e+03 -1.6359863595383226e+03 -2.1149888213402664e+02 3.6940116990571596e+02 -5.8791324428907551e+01 1.3939502554803767e+01 -7.3617493611929467e+02 8.1569686958870432e+02 -6.2464404061511159e+03 -8.7887724933707204e+02 1.0117224833783637e+04 -1.0107432916018331e+02 -9.3779544026163858e+03 -3.6223791958217489e+03 9.4474132261201589e+02 9.4724279224681213e+03 -3.9933245698865098e+03 4.6462860070117051e+02 -5.2941330965478119e+02 2.8194289925990620e+03 9.7933930574618287e+01 -8.5478217662632233e+02 1.9523401818751810e+02 -6.4344160388324808e+03 -8.3989410000841235e+02 1.1619513182189621e+01 -9.3697137291180752e+00 -5.4157535906886551e+01 1.2010059653948883e+02 1.2640441059535988e+01 -4.1739959408972209e+02 -4.1437730544714213e+01 1.0486835211370453e+02 -2.0878249367768149e+02 2.1428524044380993e+01 -1.8681698695804101e+02 2.6677123540712910e+02 -6.9982925755374354e+03 
      </Row>
      <Row Index="34">
        -2.3110347571881702e+00 1.1201118084602058e+01 2.4679525983017211e+01 1.9959205087984408e+01 2.9810738999505126e-01 4.6800672629260021e+00 4.9892592857514565e+01 1.4573323867143273e+00 8.0099349136287131e+01 -1.1360042849058843e+01 -1.1597316805979121e+00 -1.8346960337270168e-01 3.1138652475631332e+00 2.0665144465753094e+00 -3.7011142576128453e-01 -9.5007444679665500e+00 -1.5185080641112290e+02 -2.5803943373233590e+01 3.4581335231891304e+00 -7.4530630676041820e-01 -1.2380419157148702e+02 9.6257839736944177e+00 1.0365591953298949e+00 9.1528426706506885e+00 -9.4124703788084467e+00 -1.1897676654135925e-01 1.0258633707631489e+01 1.5468387801571026e+00 3.3954113126834145e+00 -2.7968038310848570e+01 3.9829443507288872e+01 -1.9877891336265020e+02 2.8955822450489492e+01 -5.4114388702999037e+01 5.3407841237920685e+01 1.0770737760583333e+02 -1.4759381158364331e+01 -8.2549469751569440e+00 2.1088845662393018e+02 -1.1431866893292066e+01 -2.3234518942795596e+01 9.0059024518426991e+00 -3.8208533241688734e+01 -7.3606614432405260e-01 -1.3018086040386027e+02 6.5848782257052676e+00 -3.6492867843480781e+01 6.3630652409403282e+01 -4.2093430392146054e+00 -1.6396075643507753e+00 7.7974597132897856e+01 3.6617915372077420e+01 -4.8934147172241094e-01 1.1638281390215482e+02 -6.0208109845067312e+00 3.7111723109043089e+00 -3.5728598433853751e+00 6.0042995993892543e+00 -7.6220717117642800e-01 -4.3591175781092581e+01 -5.5566673479981503e+00 -1.7344553415477276e+02 3.0671952167602527e+01 -1.5631192527174653e+01 3.7129504031293292e+00 2.5018339982187149e+02 -3.7538397112858535e+00 -6.9175587492639190e-02 -7.4466514039636394e+01 2.0937891485109503e+01 1.5123393238574025e+01 -1.3623569680612079e+01 -2.8348254454528559e+00 -1.1335194993092834e+00 6.0817719508142197e+01 5.4016627943190642e+01 -1.0736907169659389e+01 1.0786789383364903e+02 -5.8203001532842372e+01 5.4253004230054856e+01 3.5402614925870535e+02 7.0894589712869561e+01 -6.7993651274530311e+00 2.8434889313724580e+02 -2.2026981467132146e+01 -9.1549777051587373e+00 -5.4766406675605381e+00 -3.1288085804582288e+01 2.7696766108637196e+00 -1.0240849455818993e+02 -7.8227659473273370e+00 -1.3663428961318099e+01 1.6890803466103872e+01 -1.7750842189866756e+00 7.2255499448998339e-01 3.9579824816806983e+00 -4.3421963064705828e+01 -5.9455887420329034e-01 2.2616304268840956e+01 -3.6898222879200162e+00 -7.1177320418373702e+00 1.1135915882489893e+01 -2.0384156446423116e+00 4.3897759114728299e+00 4.0289594635436794e+00 -1.8385170537811742e+01 
      </Row>
      <Row Index="35">
