<?xml version="1.0"?>
<MethodSetup Method="MLP::MLPTuned">
  <GeneralInfo>
    <Info name="TMVA Release" value="4.1.2 [262402]"/>
    <Info name="ROOT Release" value="5.32/00 [335872]"/>
    <Info name="Creator" value="ineuteli"/>
    <Info name="Date" value="Wed Nov 18 19:09:20 2015"/>
    <Info name="Host" value="Linux cmsdev02.cern.ch 2.6.32-431.11.2.el6.x86_64 #1 SMP Wed Mar 26 09:39:43 CET 2014 x86_64 x86_64 x86_64 GNU/Linux"/>
    <Info name="Dir" value="/shome/ineuteli/phase2/CMSSW_5_3_24/src/Delphes/plots"/>
    <Info name="Training events" value="31170"/>
    <Info name="TrainingTime" value="3.76803474e+02"/>
    <Info name="AnalysisType" value="Classification"/>
  </GeneralInfo>
  <Options>
    <Option name="NCycles" modified="No">500</Option>
    <Option name="HiddenLayers" modified="Yes">N+10</Option>
    <Option name="NeuronType" modified="Yes">tanh</Option>
    <Option name="RandomSeed" modified="No">1</Option>
    <Option name="EstimatorType" modified="No">MSE</Option>
    <Option name="NeuronInputType" modified="No">sum</Option>
    <Option name="V" modified="Yes">False</Option>
    <Option name="VerbosityLevel" modified="No">Default</Option>
    <Option name="VarTransform" modified="Yes">N</Option>
    <Option name="H" modified="Yes">False</Option>
    <Option name="CreateMVAPdfs" modified="No">False</Option>
    <Option name="IgnoreNegWeightsInTraining" modified="No">False</Option>
    <Option name="TrainingMethod" modified="No">BP</Option>
    <Option name="LearningRate" modified="No">2.000000e-02</Option>
    <Option name="DecayRate" modified="No">1.000000e-02</Option>
    <Option name="TestRate" modified="No">10</Option>
    <Option name="EpochMonitoring" modified="No">False</Option>
    <Option name="Sampling" modified="No">1.000000e+00</Option>
    <Option name="SamplingEpoch" modified="No">1.000000e+00</Option>
    <Option name="SamplingImportance" modified="No">1.000000e+00</Option>
    <Option name="SamplingTraining" modified="No">True</Option>
    <Option name="SamplingTesting" modified="No">False</Option>
    <Option name="ResetStep" modified="No">50</Option>
    <Option name="Tau" modified="No">3.000000e+00</Option>
    <Option name="BPMode" modified="No">sequential</Option>
    <Option name="BatchSize" modified="No">-1</Option>
    <Option name="ConvergenceImprove" modified="No">1.000000e-30</Option>
    <Option name="ConvergenceTests" modified="No">-1</Option>
    <Option name="UseRegulator" modified="Yes">True</Option>
    <Option name="UpdateLimit" modified="No">10000</Option>
    <Option name="CalculateErrors" modified="No">False</Option>
    <Option name="WeightRange" modified="No">1.000000e+00</Option>
  </Options>
  <Variables NVar="5">
    <Variable VarIndex="0" Expression="DeltaR_bb1" Label="DeltaR_bb1" Title="DeltaR_bb1" Unit="" Internal="DeltaR_bb1" Type="F" Min="3.31655145e-01" Max="5.43578577e+00"/>
    <Variable VarIndex="1" Expression="M_bb_closest" Label="M_bb_closest" Title="M_bb_closest" Unit="" Internal="M_bb_closest" Type="F" Min="1.18016901e+01" Max="2.38172803e+03"/>
    <Variable VarIndex="2" Expression="DeltaR_b1l" Label="DeltaR_b1l" Title="DeltaR_b1l" Unit="" Internal="DeltaR_b1l" Type="F" Min="3.22578669e-01" Max="4.48389149e+00"/>
    <Variable VarIndex="3" Expression="DeltaR_j1l" Label="DeltaR_j1l" Title="DeltaR_j1l" Unit="" Internal="DeltaR_j1l" Type="F" Min="2.84361333e-01" Max="5.96390295e+00"/>
    <Variable VarIndex="4" Expression="bjet2Pt" Label="bjet2Pt" Title="bjet2Pt" Unit="" Internal="bjet2Pt" Type="F" Min="9.35392189e+00" Max="5.03708984e+02"/>
  </Variables>
  <Spectators NSpec="0"/>
  <Classes NClass="2">
    <Class Name="Signal" Index="0"/>
    <Class Name="Background" Index="1"/>
  </Classes>
  <Transformations NTransformations="1">
    <Transform Name="Normalize">
      <Selection>
        <Input NInputs="5">
          <Input Type="Variable" Label="DeltaR_bb1" Expression="DeltaR_bb1"/>
          <Input Type="Variable" Label="M_bb_closest" Expression="M_bb_closest"/>
          <Input Type="Variable" Label="DeltaR_b1l" Expression="DeltaR_b1l"/>
          <Input Type="Variable" Label="DeltaR_j1l" Expression="DeltaR_j1l"/>
          <Input Type="Variable" Label="bjet2Pt" Expression="bjet2Pt"/>
        </Input>
        <Output NOutputs="5">
          <Output Type="Variable" Label="DeltaR_bb1" Expression="DeltaR_bb1"/>
          <Output Type="Variable" Label="M_bb_closest" Expression="M_bb_closest"/>
          <Output Type="Variable" Label="DeltaR_b1l" Expression="DeltaR_b1l"/>
          <Output Type="Variable" Label="DeltaR_j1l" Expression="DeltaR_j1l"/>
          <Output Type="Variable" Label="bjet2Pt" Expression="bjet2Pt"/>
        </Output>
      </Selection>
      <Class ClassIndex="0">
        <Ranges>
          <Range Index="0" Min="3.3891403675079346e-01" Max="5.2343888282775879e+00"/>
          <Range Index="1" Min="1.3509715080261230e+01" Max="1.8837241210937500e+03"/>
          <Range Index="2" Min="3.5356962680816650e-01" Max="4.3949065208435059e+00"/>
          <Range Index="3" Min="2.8436133265495300e-01" Max="5.9639029502868652e+00"/>
          <Range Index="4" Min="9.3539218902587891e+00" Max="3.8395028686523438e+02"/>
        </Ranges>
      </Class>
      <Class ClassIndex="1">
        <Ranges>
          <Range Index="0" Min="3.3165514469146729e-01" Max="5.4357857704162598e+00"/>
          <Range Index="1" Min="1.1801690101623535e+01" Max="2.3817280273437500e+03"/>
          <Range Index="2" Min="3.2257866859436035e-01" Max="4.4838914871215820e+00"/>
          <Range Index="3" Min="3.1516379117965698e-01" Max="5.0274786949157715e+00"/>
          <Range Index="4" Min="2.0091020584106445e+01" Max="5.0370898437500000e+02"/>
        </Ranges>
      </Class>
      <Class ClassIndex="2">
        <Ranges>
          <Range Index="0" Min="3.3165514469146729e-01" Max="5.4357857704162598e+00"/>
          <Range Index="1" Min="1.1801690101623535e+01" Max="2.3817280273437500e+03"/>
          <Range Index="2" Min="3.2257866859436035e-01" Max="4.4838914871215820e+00"/>
          <Range Index="3" Min="2.8436133265495300e-01" Max="5.9639029502868652e+00"/>
          <Range Index="4" Min="9.3539218902587891e+00" Max="5.0370898437500000e+02"/>
        </Ranges>
      </Class>
    </Transform>
  </Transformations>
  <MVAPdfs/>
  <Weights>
    <Layout NLayers="3">
      <Layer Index="0" NNeurons="6">
        <Neuron NSynapses="15">
          -3.4430543098309413e-01 1.5957942855281622e+00 1.1787175345099838e+00 3.1356601476297694e+00 -1.9517807291643694e+00 -1.1103321488842344e+00 5.6641959850776402e-01 2.5452753758830599e-01 -2.3024778170631670e+00 -2.6257479699050823e-01 -3.8056851078542921e+00 -1.2634565150405172e-01 -7.0511071433696548e-01 8.3645230176049723e-01 -2.3635636623093273e-01 
        </Neuron>
        <Neuron NSynapses="15">
          7.6734462998691455e-01 -2.0386960403647576e+00 9.7371860751262096e-01 3.0395049487817465e+00 1.7012033240189364e+00 1.6019367479463320e-01 -2.5057661188687419e+00 1.0102172163613516e+00 -5.1494045853250610e+00 -1.1884520421240357e+00 1.7535378152009922e+00 1.8238642148982156e+00 -2.5910176381347561e-01 -2.2431467991960408e+00 -7.1391268825393628e-01 
        </Neuron>
        <Neuron NSynapses="15">
          -6.0144403335074004e-01 8.7078771372371622e-01 5.3662620243005921e-01 -5.2466867118373051e-01 5.3509154476838172e-01 -2.2249744280986919e-01 3.2998432381942312e-02 1.8121342227591125e-01 -8.1809631541376354e-02 -3.2844719285653518e-01 2.9339173524664142e-02 -2.2493190391966414e-02 2.6895658143058383e+00 -9.5821283260642731e-01 -1.2059738691992264e-02 
        </Neuron>
        <Neuron NSynapses="15">
          2.9609429207623023e-01 4.9909836259779455e-01 1.8448376406684838e-01 6.0950069002389369e-02 -8.1690830374295018e-02 4.5248968623786595e-01 3.0967841978643920e+00 -5.3591587325377776e-01 1.2843055063161749e-02 -9.0155299767600033e-02 7.8003572109430028e-02 -8.4124356514010692e-02 -8.4651365712896456e-02 9.1956314322894517e-01 4.0863577250437731e-02 
        </Neuron>
        <Neuron NSynapses="15">
          -1.7013732696293069e+00 -3.1417054777125653e-01 -1.0883808717659942e+00 3.4625676082585795e+00 1.6677646295597435e+00 -7.1333826529000874e-02 2.0456216370247864e+00 -1.0309569276166637e+00 -1.5494114959164780e+00 -4.7747471554020587e-01 2.5453422752562543e-01 -6.3160221325999732e-01 1.0548742102939894e+00 6.5895279593920086e-01 2.5346954034483804e-01 
        </Neuron>
        <Neuron NSynapses="15">
          -7.9798422474357533e-01 -1.0184640326246128e+00 -2.0642232623572512e+00 6.5982226023558468e+00 1.8956963911030131e+00 -4.4122438113768259e-01 2.3106249649737607e+00 -1.0225226167819586e-01 -7.8143781113289803e+00 -1.5792361093716432e+00 1.1218947515823727e+00 9.5658963722455170e-01 9.0744912347937357e-01 -1.3506938562913697e+00 -4.6896742381620321e-01 
        </Neuron>
      </Layer>
      <Layer Index="1" NNeurons="16">
        <Neuron NSynapses="1">
          2.8551927079546036e-01 
        </Neuron>
        <Neuron NSynapses="1">
          -3.0217273289772584e-01 
        </Neuron>
        <Neuron NSynapses="1">
          1.2451130173749179e+00 
        </Neuron>
        <Neuron NSynapses="1">
          -5.4501708542188909e-01 
        </Neuron>
        <Neuron NSynapses="1">
          4.3178361150658506e-01 
        </Neuron>
        <Neuron NSynapses="1">
          2.3337579014322257e-01 
        </Neuron>
        <Neuron NSynapses="1">
          -3.7451554790966551e-01 
        </Neuron>
        <Neuron NSynapses="1">
          -1.0032854407949330e-02 
        </Neuron>
        <Neuron NSynapses="1">
          -9.1762469480844233e-01 
        </Neuron>
        <Neuron NSynapses="1">
          1.5328558465037365e-01 
        </Neuron>
        <Neuron NSynapses="1">
          -5.0135435628151492e-01 
        </Neuron>
        <Neuron NSynapses="1">
          -1.5707113907888084e-01 
        </Neuron>
        <Neuron NSynapses="1">
          2.5175841489011902e-01 
        </Neuron>
        <Neuron NSynapses="1">
          1.8959641636724645e-01 
        </Neuron>
        <Neuron NSynapses="1">
          1.6816505433574802e-01 
        </Neuron>
        <Neuron NSynapses="1">
          1.6828542558608035e+00 
        </Neuron>
      </Layer>
      <Layer Index="2" NNeurons="1">
        <Neuron NSynapses="0"/>
      </Layer>
    </Layout>
    <InverseHessian NElements="11236" NRows="106" NCols="106">
      <Row Index="0">
        2.5997117765250472e+01 -5.4018568302645220e-01 1.2324873011637574e+00 -1.8517790347516896e-01 5.4937187075688003e+00 5.1575229596813648e+00 2.0605267951535089e-01 -8.6726588626221570e+01 -1.0582927152728508e-01 -2.7287870432252930e+01 1.7323874294156367e+00 2.2214724042614513e+01 2.5532464545336875e-01 2.1197820947725394e+00 -5.5996496093771118e+00 -4.4830683955565270e+01 1.5264885534108619e-01 1.3494879869378089e+00 1.4424512079387131e-01 -8.9261269685563143e+00 1.2743134871281725e+01 -1.9486503206097083e-01 1.4903603224946451e+02 5.5131634860339229e-04 1.4297615378514406e+01 -4.2368513000221253e-01 -4.2738071109556678e+01 2.3864203328407907e-01 -8.9449402293793767e+00 6.9862376882976378e+01 5.8773247823445898e+00 4.7799078930750466e-01 2.1987302615044042e+00 1.3250599043128147e-01 -4.3418399303197858e-01 -5.1154281886865265e+00 3.1255796526226237e-01 -3.9335055910764538e+01 1.9903869649393763e-01 -1.0786386226019278e+01 4.2263823379385063e-01 1.8649678052199512e+01 -8.7860602689041412e-01 -2.4377093597414179e+00 2.0183297949924583e+01 -3.7027078167751251e+00 3.5707944736359964e-01 6.3498472247925625e-02 -9.6614706168816678e-02 7.0182502477248304e-02 -2.2649177708399022e+00 2.8815001368944620e-01 1.1839738614069356e+02 -1.2572685676680306e-01 -8.1313027659716148e+00 2.2398870240037180e-01 1.0488407044521271e+00 1.4097686274137813e-01 2.4470203161061144e+00 -2.4240316513492900e+01 3.0245745154178564e+01 9.2356911856540469e-01 3.2269875380715236e+00 -4.9852537781021319e-02 8.4729975915231714e-01 -1.8064260198965808e+01 -3.3662023587531720e-01 -1.5868545375180787e+01 -1.5391008782185941e-01 -3.9708831467280469e+01 3.9841163525277618e-01 5.2508351118652570e+01 -1.0096950094931972e-01 1.0164317650475429e+01 3.4085679452352391e+00 -6.5744452860078280e+00 9.0435328067334098e-01 3.0463714241346174e+00 -9.3561783966167322e-03 -4.3030799085138742e+00 6.2162649336530027e+00 6.0066444726481774e-02 2.0582365381478147e+02 -1.7991588827844041e-01 -2.7083012715834926e+01 6.2122124918131139e-01 1.5099906894466709e+01 1.6517875285911177e-01 1.8215665175570023e-01 3.7539471437750571e+01 9.8948512766370094e+00 9.2748790248297630e-02 -4.0529138192460517e+00 -3.6683994430495415e-02 2.2801180396060503e+00 4.0880428781700857e+00 3.0034612374535037e-02 -2.1642766899612287e+00 1.6285928834321259e-01 -1.5356396670238352e+01 -8.0740389448266603e-01 -2.4243980256828269e+01 1.7264712934032700e-01 -1.4794107613073373e+00 -1.3691525793613454e+01 -2.4193076225848644e+00 
      </Row>
      <Row Index="1">
        -5.4018568376815090e-01 7.0192835148955748e+00 1.6569972859134359e+00 8.8093722881996579e-03 -3.3956167797581693e-01 1.3432576769600737e+00 -9.9623131572722623e-02 1.2817729346874149e+01 2.5540434379061738e-01 1.3589866037231306e+00 1.9581038143950452e-01 1.0069664062613040e+01 -1.6246284468392619e-01 5.8822998891367317e-01 -4.2834107613316725e+01 -1.8195614669749562e+00 -1.2864692980608472e+01 1.5740261718126239e-01 4.9870636358453563e-01 1.0318749191366585e+00 -3.7115599132864663e+00 -5.0859187611646850e-01 7.0971516152222748e+01 8.1932919094196177e-01 -1.1276282534941034e+01 6.7882251473388888e-02 -4.3222501638477240e+01 -2.5311479566090711e-01 8.5060645782985334e-02 7.8805748122187353e+01 -9.0645101443373483e-02 3.5392395355690272e+00 1.8658607094207718e+00 8.3324009473434213e-02 -3.8082710778861506e-01 -2.9098244017514607e-01 -1.4069779618409431e-01 4.4654281844023039e+01 -7.8944477553802659e-03 1.9589590145530993e+00 -1.8825948518960900e-01 -4.1120851855276959e+00 -2.8702063457089966e-01 2.3426510741026318e-01 -1.8241607805673567e+01 -5.8597677224485767e-01 2.0624011322453488e+00 1.2766875302263652e+00 -2.2661564926656608e-02 1.9254094043828057e-01 1.4114993180627571e+00 5.8247381790409558e-02 2.2699690912741307e+01 3.1704703101590431e-02 -4.6784427373784574e+00 3.6699402164091344e-02 -6.6079715841350248e+00 -3.2472599169334232e-02 5.0803007031607630e-02 -6.0492326447103828e+00 5.1572211987954941e-01 1.0432451951348238e+00 -2.5249449580280241e+00 -3.0212117238296987e-01 -6.0796550465159649e-01 -1.7245284325863741e+00 1.0538781514425493e+00 -9.0924754313437688e+01 7.7317486833252472e-02 4.7298340869662248e+00 -1.2339298547378202e-01 1.5300128709037352e+01 3.0650214319662245e-01 -1.7099574611952406e+00 -1.5118988198571120e+01 -1.6319737069684381e+00 -5.9285896391062689e+00 -6.3094373776871926e-01 2.6916860576216173e-01 3.1685914133649545e-01 -3.3323333281978824e+00 4.2713498831993851e-01 -5.2270521296068040e+00 1.1092589536661639e+00 -6.8506700800807092e+00 -1.1897976610830482e-01 -2.9198864609909549e+01 -1.5896618493663284e-01 -1.0108809047140559e+00 2.1343332127331916e+01 3.6831402729876561e-01 2.7149853325643694e+00 -6.1680590579168513e+00 -8.8950588307281905e-02 1.2472729485764623e-01 -3.3106451413740734e-01 -4.3616019197120388e-03 1.6834868218394587e+00 -1.7345597947926186e-01 -1.6065769536866981e+00 -7.5488099729875316e-02 -1.5858313186564070e+01 4.3462814199755728e-02 -2.7930859529715635e-02 -1.4217108706132674e+01 -5.0251234097858717e+00 
      </Row>
      <Row Index="2">
        1.2324872907408659e+00 1.6569972879553951e+00 3.1072398795057552e+01 6.8144525515929844e-01 1.1159538265025037e+00 -8.6443486336718287e+00 -2.7742041638566728e-01 9.6077837981351450e+01 3.1576247822388881e-01 1.3148478751558702e+01 -6.6655969001481652e-01 -1.7585577457049897e+01 -5.3922539001811853e-01 -3.6598353254543847e-01 7.7850133367350367e+01 -3.4243195546620129e+00 -2.2100073301249163e+00 2.2060765267898510e+01 -3.1246315549858494e-01 -1.6153465938421414e+00 6.5794523939458029e+00 3.4863551200536356e+00 -1.4364266621126228e+02 4.7987511284752526e-01 -1.1467612339045722e+01 2.5195166702015834e+00 1.4278103625608543e+02 2.4166313847543934e+00 -2.4913362170278130e+00 -7.0430970847558640e+01 3.0618387615328220e+00 1.5316220495110917e+00 1.4974228119608895e+01 -2.0432848183423757e-01 -7.4370699347265057e-01 -5.0284803212284537e+00 3.3041257096578358e-01 -4.5713258845978217e+01 -8.8266072500800874e-02 8.5049436937422029e-01 4.8034204843317219e-01 2.9360543046927323e+00 -8.0440274599445361e-03 2.9840573993054365e-01 2.1634472927403888e+01 -1.5910988570140570e+00 1.7143199459140372e+00 5.5561283529948007e+00 -1.3486142581542779e-02 -2.0333597626979052e-01 -5.4356878870999683e+00 6.4978910300263615e-01 -7.8341142746189732e+01 -7.0578108113932142e-03 1.1676298277299417e+00 5.9630632281262905e-02 2.0338840982127087e+00 4.5518955748814482e-01 3.6771886304002255e-01 1.2900225381428093e+01 2.4402535747383216e+00 -1.5326667867948729e-01 -2.5747206630000662e+01 9.4648912572544985e-01 -9.0719154237281174e-01 -4.4508554105020810e+00 -2.7681449428348524e+00 9.5137166986432135e+01 2.4443614271577277e-01 1.9229632134224719e+01 -4.1323686405937765e-01 -6.5676216910734794e+01 -1.0022315694721782e+00 2.7871700644312165e+00 4.8142029097865233e+00 2.1782091426298472e-01 9.9782753378009137e-01 2.1573641922323823e+00 5.7641911733201079e-01 -1.8294478880975493e+00 -5.1662789582406248e+00 1.1955314113205127e+00 7.1487121354284454e+01 6.0991867712367576e-01 4.1625738617746251e+00 1.8667674444130409e+00 4.8470307268144325e+01 1.3657296319852823e+00 2.3135845001974051e-01 -9.7261233724349282e+01 2.4077998520997799e+00 9.9693882962122160e-01 -9.1402077840314604e+01 2.3938339954257426e-01 7.1310257617749229e-01 -1.6633941445487115e+00 1.8046285041086968e-01 -6.1459906233388251e-01 -4.0054919704808739e-01 1.0924433388887564e+00 2.0055060496299226e-01 3.6185984653191369e+01 2.2344476284654113e-03 9.3642006763613547e-02 3.9584737743349258e+01 -7.7792449477558264e+01 
      </Row>
      <Row Index="3">
        -1.8517790349818442e-01 8.8093724253615405e-03 6.8144525372295561e-01 8.0428643598336147e-01 -5.3535189061495236e-02 -8.3287135743052376e-01 -5.5570450928341120e-03 -2.3807043911750982e+00 -6.9382529563897746e-02 3.2515862586859900e-03 -9.5677749127742504e-02 -6.4462801557490845e+00 6.2987131292662861e-03 1.3695910892821880e-01 2.6165916730269849e+00 1.0391698521859936e+00 -1.6263411394993443e-01 4.8937667675176044e-01 -4.1974376132049851e-01 8.5113688272764401e-02 1.1730323049323275e+00 -2.5731360899167388e-02 -2.6915368514429993e+01 -1.1473844632039656e+00 5.6133463483824997e+00 2.9280089528212394e-01 1.6873511184216746e+01 -2.9757076333094501e-01 -2.0461354003798427e-01 -1.0492526026269649e+01 -1.5452418334394985e-01 1.3832118836698095e-02 2.9530105412847307e-01 -1.8598697616451579e-01 -7.0231230017710922e-02 -4.5180114357114187e-01 -7.9951425945818111e-02 -6.6214656849106737e+00 -1.0642310834364288e-01 9.3856747617053871e-01 4.2108134835366046e-02 1.1414133612131978e+00 -2.3284784414093415e-02 -1.7141090809683016e-01 1.7110464928800071e+00 6.9277743007112036e-02 -6.3972372906407046e-02 1.3490425328471278e-01 -9.6482985883010186e-03 2.3564089265246335e-02 7.6542900059522001e-01 -3.9545584217673957e-02 5.3928322742446149e+00 1.4993196337008532e-02 7.7092441904102216e-01 -9.0478511826148078e-03 2.3780783832095823e-01 2.8472668052797426e-02 1.0252116092318941e-01 1.1538956633891859e+00 -8.5782859601982964e-01 1.1574910310834605e-01 -9.6998813274743312e-01 1.0710045197232878e+00 -1.0490314076786240e-01 -5.8179313624981943e-01 -6.5405777925164083e-02 2.7187498824772781e+01 1.8450739204212060e-01 -1.0575733001038072e+00 1.0527965689298117e-01 -7.9583345641051535e+00 -2.3675544566276817e-02 -2.8309111136394421e-01 9.9063220539464414e-01 2.5358467537346235e-01 -2.0253026664884821e-04 -4.8838568198953164e-01 6.2675711296097769e-01 7.7913123792772224e-03 8.1932240881393503e-02 -1.3361935657536619e-01 -1.1875938195632916e+00 -1.1092631437133380e+00 3.2045247490423989e+00 2.8983356570055341e-01 6.6227587598937179e+00 -2.6779385992226734e-01 -3.6364227872353444e-01 -1.3094763129652145e+01 -3.9048040239014387e-01 -1.5771674676110039e-02 -1.6714229002519372e+00 2.3050987138142207e-01 5.2302228104058879e-02 -7.7464155850268757e-01 -5.0840381313617712e-03 -6.2213865624763476e-01 1.6897801017957773e-01 9.1845391741793847e-01 3.1748729517528204e-02 4.1242364253777870e+00 1.7442993916690075e-03 -7.6846178718190980e-02 4.3697312505738974e+00 -4.5430271772853281e-01 
      </Row>
      <Row Index="4">
        5.4937187070806024e+00 -3.3956167800862036e-01 1.1159538254177335e+00 -5.3535188994636940e-02 5.4494222818905742e+00 -1.8745313226219762e+00 -6.8755825369658380e-02 -3.5815665035342015e+00 -3.0121056947277017e-02 1.3634286152725000e+01 4.4105167733522366e-01 -1.2361467298742122e+01 2.7871725936150649e-01 1.1271971325486392e+00 -8.8143189328959455e+00 -1.2058578757252675e+01 4.1245146233684760e-01 8.5101669346103692e-01 -3.2692192112056367e-01 -7.6039054758179869e+00 3.8458150829356206e+00 4.9448141143002688e-01 -6.3421210457459786e+01 -2.8011754412284628e-01 -4.1848440565985818e+01 -7.4569953951964474e-02 4.6162709155414898e+00 -1.6008546038788163e-01 -1.8896709764852604e+00 -1.8278301112148817e+01 5.6627392335287829e-01 1.5920541390782933e-01 1.8970128213715407e+00 1.4591823389334541e-02 -8.0672221758059059e-01 -3.3998088704141818e+00 -5.7633914262928979e-02 2.8049910832460508e+01 1.7575800409019848e-02 8.9532425613364204e+00 3.7389697627647323e-01 -6.9014637735213933e+00 3.3164476489374650e-02 -1.6580852599880289e+00 -4.7796038066626512e+00 -3.4880069999813870e+00 1.9101403611426360e-01 -2.8218374724108553e-01 7.1827479697697608e-03 4.2007356857638689e-01 1.1935259778408434e-01 1.7160045407257507e-01 -9.0195893532213116e+00 1.2595810660370022e-02 -5.0044225896034513e+00 -3.8969044669075623e-02 -1.1107614145114850e+01 -1.6346057560161498e-03 7.5480320131823286e-01 7.8322448150356561e-01 3.5999028627941225e+00 1.1527528485347411e+00 3.4366988293713683e+00 1.9412441099960243e-01 -1.6312775686133016e+00 -1.0872560082506499e+01 -5.2854659044500485e-01 4.0376850090592328e+01 -1.3405803955715667e-01 2.7876109253166049e+01 7.2129663927231558e-01 -2.3708473607847253e+01 2.1303878337780097e-01 -6.6587422169695376e-02 -4.8522281701768826e+00 -6.1754187738145605e+00 1.2931756172444908e+00 4.5381833482615850e+00 -1.6156370675678050e-01 -5.0516945209278701e+00 -5.3187803897807999e+00 9.4324871734659990e-02 3.1325250504644202e+01 -3.7819261878156141e-01 -7.5993975501139257e+00 8.0284695219302793e-01 -2.0931067687905806e+01 1.9770657444110784e-01 -1.6136187102078199e+00 -1.5526462557366525e+01 3.2653804455563051e+00 -1.2198052442095370e-01 -5.1961387780072057e+00 6.8955302820124589e-03 2.2140331567662903e+00 -9.8392644479012703e-01 -2.3395491032442524e-03 1.1470843412044336e-01 7.4240329624270768e-02 -5.9783767469769344e-01 -3.1120103668807114e-01 5.3810713790230214e+00 1.8624572074141921e-02 -6.3215568718320181e-01 3.4250291555131023e+00 -5.8767098262916493e+00 
      </Row>
      <Row Index="5">
        5.1575229594420913e+00 1.3432576765792248e+00 -8.6443485808920855e+00 -8.3287135603255180e-01 -1.8745313193779412e+00 1.6580560875969340e+02 1.9779690393904297e+00 -6.7772234153598959e+02 8.5928349607096088e-01 -5.3448523277575788e+01 1.3104251475260269e+00 7.1969381155759351e+01 -1.0631968573191413e+00 -1.1202638273550498e+00 8.7691907304488723e+01 2.1795369443520823e+01 -5.0062593416045065e+00 6.0402829443169708e+00 -4.2876570231004578e+00 4.9749228505939258e-01 -1.5102971352164155e+02 -2.1950197435281922e+00 2.5241472687302490e+02 -3.3242603163277851e+00 1.3041160898018936e+02 -1.1955407579805861e+00 -1.4564032627559635e+02 6.5546549821603861e-01 1.6989369238458117e+01 -7.6355723540150748e+01 3.6303953475787454e+00 4.6861040585950287e-01 -4.8483098624565777e+00 7.7807422028341433e-01 1.0558228471493372e-01 2.1377020970451575e+01 1.0681763580821639e+00 -1.7794495490469799e+02 4.6157294353395883e-01 -3.0443133398028952e+01 -1.2472192355337488e+00 4.8933523182613946e+01 2.2340048704094906e-01 2.4760531344152921e+00 1.1177833267485832e+02 3.5907577236281165e+00 1.6956378105920533e-01 6.8329043729575663e+00 -5.7989263868251784e-01 9.1187384703559049e-01 -4.0252005960467535e+01 -9.7887401053482404e-01 6.2414380710720570e+02 -5.1605615417549067e-01 9.3801653183643605e+00 1.8184652589587058e+00 -4.0341708890485876e+01 4.4970364549511488e-01 -1.3876337759813606e+00 -2.0638191755801870e+02 -8.7326785326650693e+00 3.3920475288779306e-01 -1.4854020625969834e+01 -2.6653869680687978e+00 3.4747766578054633e+00 8.7376860324296516e+01 5.5736474766564577e+00 3.1005559016476514e+02 -3.3068711741215541e-02 -8.4155745071203526e+01 -1.4404805083587289e+00 1.0511682801561389e+02 -7.1486227191520990e-01 -1.4564429698532961e+00 3.7241470644877815e+01 1.5405910958649276e+01 -3.8434523227446360e+00 -4.2751929999548173e+00 -6.3227397355853814e+00 2.2739858948553149e+00 2.3639673628224038e+01 3.1758199510288398e+00 -2.5227133981682186e+01 -2.5481909915516709e+00 3.2519100756360011e+01 -8.2863993310004158e-01 1.6089521358510883e+01 4.5002235730095874e-02 1.1510468775134774e+01 9.2616758106024719e+01 -3.8384804509385901e+00 1.0169778031714893e+00 7.5180950083874230e+00 -7.7550905274850601e-01 -1.2300472557753208e+00 7.6044352808515086e+01 -1.7019999800171673e-01 -1.3982637570686936e+01 9.5435720101880506e-01 -1.6243562354310299e+00 -8.0078835116260483e-01 -5.8372109169374987e+01 -1.3933736012623976e-01 1.6280924421365441e+00 -1.5324843120620980e+02 -5.2711038242087538e+00 
      </Row>
      <Row Index="6">
        2.0605267982989300e-01 -9.9623131610198784e-02 -2.7742041649832849e-01 -5.5570450017856654e-03 -6.8755825463267375e-02 1.9779690376825865e+00 5.7294269157152955e-01 -3.8781884469835637e+00 -1.6434305285920048e-02 -1.2573525342294860e+00 2.1625990631391583e-03 -1.3528596765731754e+01 -2.4503364138694920e-02 -4.5369286434620981e-01 1.6109394200145591e+01 3.5032025014003210e-02 1.5122086436888216e-01 2.5078704838546106e-01 5.7768347759767913e-02 3.9317015171760311e-02 2.0885932080389704e+00 -1.2127608495470099e+00 1.5206189374474317e+01 -8.0321510716082067e-03 4.3227920400563091e-01 -7.5471053022967277e-02 3.7214112728007279e+01 1.8859876245843443e-01 1.5759818259895750e+00 -5.5785295628494758e+01 3.0920654670668729e-01 -1.0171182519700904e-01 -1.3289665354525404e-01 2.2254515915963551e-03 1.5445234678133812e-02 3.0768612820945085e-01 8.4393119713717393e-02 -2.6837273885800079e+00 9.7264012700364333e-03 -3.2337221452139614e-01 -1.2026654723196306e-02 -4.6292999691452541e-01 -6.8068800769173571e-02 -2.4592557988759531e-01 4.3253843691958611e+00 -1.2039778677234299e-01 -1.5420381213769596e-04 1.5615735660198773e-01 -6.0881929778996086e-03 1.3168719511332458e-02 1.1712991644486417e-01 2.5991110180884358e-01 1.2959354944531022e+01 -6.4510919559851235e-03 3.2578160153667690e-01 1.8783946809205317e-02 -2.9450791464369077e+00 -3.2931728228650134e-02 -2.6848364045783274e-01 -2.0044089279536492e+00 4.8754627556862717e-02 1.0584646679362288e-01 -3.6082494292768830e-01 -1.6542978382363877e-02 2.3577785481018371e-02 9.2730515807236680e-02 4.0710485840804012e-01 -8.6173397815734951e+00 -1.5968205182849766e-02 1.1070794032435425e+00 1.6542422240036242e-02 -1.2004989966209351e+01 -1.3147686603368400e-01 -7.0095536162139416e-01 1.9125298640074497e+01 2.3870353123449550e-01 1.0224460357652386e-01 -3.0109738923855928e-01 3.1226516536970644e-02 3.3245851771035950e-02 3.3168337616685810e+00 -3.0129886617885238e-01 1.6973391641186922e+01 -4.3792038333391403e-02 5.8200271799651793e-01 -3.3402190431297649e-02 1.4935440644059263e+01 4.3544307010473751e-02 5.6851293749612142e-01 -2.8457400662337118e+01 7.4018620841836719e-02 -9.1077329637323165e-02 3.7823100560131701e-01 7.1273062513219250e-03 -2.5084306271251966e-02 1.0530616086765157e+00 4.7801141591032485e-02 -1.9460652072657292e-01 1.4983577952608311e-02 3.3760325643685341e-01 -4.6888599696039979e-03 1.1675637425304856e+01 1.2479258562371113e-02 3.9425951580705720e-02 9.0486032765662259e+00 7.5602241448171392e-01 
      </Row>
      <Row Index="7">
        -8.6726588593629060e+01 1.2817729335071560e+01 9.6077837304081186e+01 -2.3807043987897032e+00 -3.5815665383322663e+00 -6.7772234167036208e+02 -3.8781884493252039e+00 3.5151397962743926e+04 1.4737591804653604e+01 7.7894414573145195e+02 -2.9929628440875796e+01 -8.2143239024724210e+02 1.8146900016336346e+01 -3.1162395618974301e+01 2.6116231413230812e+03 -2.5938135347917239e+02 -5.8405381699172722e+01 1.1767227957397724e+02 7.2604321384702089e+01 4.1474484539606919e+01 7.8311141069809150e+02 -1.6928105920387111e+00 -4.5072162436865430e+04 1.5731653308191682e+02 -3.2084286572080132e+03 2.0595738442592477e+00 2.7108078063782987e+03 -4.1828646550361100e+01 -4.4590293179343234e+01 -1.8694597742049832e+03 -5.2093057620786517e+01 -5.3496277832089643e+00 2.8049648462630103e+01 -9.0372564849364867e-01 1.5186771776737189e+01 -1.4455486477393702e+01 1.6998932587844138e+01 3.6084750579244301e+03 -2.2855242958191866e+00 3.9761318384453108e+02 5.1573510244749343e+00 -5.1697950314462707e+02 -5.5518677403170642e+00 1.2875788967959096e+02 -2.9193447096522505e+02 -9.1856419108192995e+01 5.4693417022174295e+01 4.8182799442511566e+01 -4.7427643085243876e+00 -2.4231074406818511e+01 -8.5122726061601654e+01 8.6091538614814269e+01 9.1168222965612995e+02 2.8865218840439653e+00 1.0825820864444046e+02 -2.3757864318246025e+00 -1.0596005827554493e+03 -1.7605744773835546e+01 3.9082644340206265e+01 1.1425886289744005e+02 1.1164371303085724e+02 7.0730677064874712e+01 1.4009110795299026e+01 -1.0270887542459286e+01 -3.8485015155242344e+01 -5.0252779537212427e+02 -1.7803520604320539e+01 1.0345203829192274e+04 2.0275806466040532e+01 2.0764494093418007e+03 3.5386190369815814e+01 -2.6959575156596170e+03 2.4256389825228467e+01 2.2733013090747812e+02 -9.3826642092667487e+02 -2.2705442991696438e+02 3.6459424380887931e+01 6.1269192883073586e+01 5.1830641603452875e+01 -5.6084472477508056e+00 -3.6936313898457530e+02 5.5755953111403329e+01 -1.3194368670760716e+04 1.6890830554635707e+02 -7.9306591550847838e+02 2.3346612352866885e+01 -1.2315288236568808e+03 -2.9960186140094180e+01 2.4092952731330683e+02 -2.7829996589245588e+03 8.7641788056249453e+01 -1.4023688344528855e+00 -1.6917122191455536e+02 1.6992375373374531e+00 -2.9815436487121119e+00 -2.8279944126276405e+02 1.9370941311949498e+01 9.0905067368073048e+01 -3.4049176074364730e+01 4.6929359744192880e+01 1.2932576674490807e+01 1.0294725032406534e+03 2.0944686307744416e+00 3.3743804700406088e+01 1.6209721484758261e+03 -3.4954442630160134e+00 
      </Row>
      <Row Index="8">
        -1.0582927138909860e-01 2.5540434375245918e-01 3.1576247795026902e-01 -6.9382529541862414e-02 -3.0121056895329214e-02 8.5928349508226898e-01 -1.6434305227959693e-02 1.4737591815238140e+01 1.0636995151793966e+00 8.2848189048224707e-01 -2.1208413768139239e-01 -5.3188528680741829e+00 -8.0755795556437956e-02 -2.6178792661754707e-01 2.9302923077649812e+00 1.0448190276240628e+00 -1.8343083093584911e-01 5.5712238691723137e-01 1.3142667719368972e+00 -1.5196249016364849e-03 -7.2530622302589487e-01 1.0693855364391136e-01 -9.5672425720815770e+00 1.8135068003983528e+00 2.9746317897110437e+00 -2.0230782445410593e-02 1.0262272315658446e+01 6.8816523262896112e-02 1.0498434467406337e+00 -1.4177067459976559e+01 1.6283123471003486e-01 4.5485268573293526e-02 1.5196091553106683e-01 2.3715219841220264e-01 -2.6056270634798664e-02 -6.8684774988240119e-02 -8.9565075640739913e-03 -8.6238790949902544e+00 -1.7113415693676526e-02 -8.0486139571212245e-01 -4.7226293788093551e-02 -6.9765494456752930e-01 3.4223588447093778e-02 1.3978863277217304e-01 1.8105358208306057e+00 2.2258249024462767e-01 -8.2706844985622585e-02 2.8190692963927833e-01 -4.0566505239159840e-02 4.3891133461404566e-03 -2.6061322609585713e-01 -8.8112341418185719e-02 1.4837300453906845e+01 -1.0017269312326174e-02 8.7611861622726894e-01 -4.8212760590340513e-03 -1.9092593226880117e-01 2.8912113523397988e-02 6.6774231108551546e-02 -1.6734980983254553e+00 -1.0017890844050616e+00 1.9187686241807334e-01 -1.0812068042775793e+00 -5.5229168725467070e-01 1.6918084382700749e-01 1.8408396228326196e-01 -2.3039896627416484e-02 3.7402588872426158e+01 7.7826731605622068e-01 5.3145551103613708e-01 6.0253091722280161e-02 -4.3512314148399618e+00 -1.2194207278343368e-01 -2.0206979763287003e-02 2.5106276927504654e+00 4.1866382319443673e-01 3.5456307893024633e-02 -8.3900789217919902e-01 7.7589845718985750e-01 7.1690242813638019e-02 -6.8531771998969326e-01 8.7254063576832422e-03 1.6096397083410910e+01 3.1907573238657823e+00 1.1860526046246829e+00 -1.3821315016202984e-02 3.6969539585450844e+00 -4.1922635493975818e-02 8.4335934717793637e-01 -1.5512557459357097e+01 -3.6843844833017414e-01 -9.7451621743570478e-03 -8.5246517362274932e-01 -2.1357030915660644e-01 -5.5528009565272124e-02 3.7589638158041067e-01 -1.4932991213444614e-02 -8.0201427071568654e-01 -5.3154317357110004e-01 7.3347382664847860e-01 5.0037005995282560e-02 3.2513612930872071e+00 -7.6710589865957718e-03 5.5768332769804349e-02 1.7396319567577301e+00 3.6307120689454259e-01 
      </Row>
      <Row Index="9">
        -2.7287870434199125e+01 1.3589865993953993e+00 1.3148478641362544e+01 3.2515848061507313e-03 1.3634286147667366e+01 -5.3448523282041862e+01 -1.2573525327862227e+00 7.7894414591551924e+02 8.2848188969793979e-01 3.2322337423073526e+02 1.6473317343597558e+00 -1.2759666030757070e+02 1.0946037840425067e+00 1.9544794972676716e+00 -1.4161001400398763e+02 -1.2365136919824238e+00 3.1090491680655870e+00 3.7833585233368852e+00 -8.1923058768416990e-01 -1.4745235529288671e+01 2.9673719365186400e+01 4.0127782780365244e+00 -2.3829737392237175e+03 7.6432358512051541e+00 -6.6872750466576849e+02 -7.6484327818794928e-01 7.7650219022214429e+01 2.0767790378055047e+00 1.4678968940689856e+01 5.4099879707620453e+01 -1.2449145300200147e+01 1.8414564360509491e+00 1.0953922623989001e+01 -3.6683418675920620e-02 -2.5476013184916688e+00 -1.5220086414221594e+01 2.1160935295423111e-01 3.6121344956695424e+02 -9.3227511265209273e-01 1.3045039651955207e+02 6.8897946316114467e-01 -1.7456348539555552e+02 -3.5016298082954922e-01 -1.7661135430280783e+00 -1.1577580751518278e+02 -2.3862968298076460e+01 4.0723406610326851e+00 -2.2618668880476838e+00 8.4900377202080279e-01 3.7808763454991250e+00 -2.9855347645796715e-01 3.3926940038623701e+00 -3.5493793831251196e+01 2.5911227413278154e-01 -1.3800515577499276e+01 -7.5248051475202571e-01 -1.6457093003999029e+02 -1.4198894323277145e-01 4.5608633614002514e-01 -6.5217788428218171e-01 -4.4276645772823336e+01 1.0784295510983128e+01 2.1419818654276714e+01 2.1461820500900686e+00 -3.1937119753027883e+00 -7.2430930391409845e+01 -3.9122705141322838e+00 1.1789107790900180e+03 4.4093192905958328e-01 5.1531376485807482e+02 1.8709009688482743e+00 -5.1462634015637195e+02 2.3818379508061516e+00 -2.0187806621190866e+01 -3.2686106834995269e+02 -5.1332458763091999e+01 1.3429221365590355e+01 2.9044415515196167e+01 1.3098009081833402e+00 -6.9123967362826502e+00 -6.8406065906761356e+01 2.0476489818732388e+00 -2.9765421233641428e+02 7.5322528041739716e+00 -4.8386046983993083e+01 1.2153155240020599e+00 -5.0485389704303697e+02 4.0086402657640869e+00 -1.6535716302282930e+00 -3.3472177648483029e+02 3.6489257856849520e+00 -5.0896084272682707e-01 -4.0850946236465234e+01 1.8449628146802152e-01 5.7693218898588379e+00 -2.5789899807389943e+01 5.0587922283305364e-01 -7.8280747137243480e+00 -2.3297628312008074e+00 5.2855937194592798e+01 -8.1896276050940675e-01 1.0062082762071373e+02 2.5027506515945380e-01 4.2005931976089883e-01 5.8016594656852490e+01 -3.3918540922257712e+01 
      </Row>
      <Row Index="10">
        1.7323874297020054e+00 1.9581038132317685e-01 -6.6655968879424421e-01 -9.5677749084872588e-02 4.4105167723869992e-01 1.3104251481005604e+00 2.1625991176501863e-03 -2.9929628456580829e+01 -2.1208413768724263e-01 1.6473317306507971e+00 3.4605665095139932e+00 -1.5034135861363213e+01 3.3904651856658141e-02 -5.1358815856057327e-01 -1.9555189020541988e+01 -8.0739948263799999e-01 -5.3518116447952763e-02 -8.4927132767597124e-01 -8.1389294434640980e-01 -1.2376059188678430e+00 1.5763884881904935e+00 -9.0502575889127801e-02 5.3501480843333589e+01 8.1365412940608561e-01 3.8688035139306733e+00 -1.9593066347848433e+00 7.0836623132357586e+00 -8.0899721258621549e-02 1.8714629297064798e+00 -1.8972948898352634e+01 2.9524570413167711e-01 -3.9397138254360187e-01 -6.2731998466409777e-01 8.9695835063852480e-02 -8.3804358671691892e-02 -3.3869508150124367e-01 5.5316999975651357e-02 -8.6558320891367533e+00 8.3651155817078049e-02 -7.8461706480809945e-01 -8.2406555314440081e-03 1.0533912217470514e+00 8.4154190144980504e-02 -2.9176035521392596e-01 3.5254780060482442e+00 -4.5468181001196990e-02 -2.7445593361916792e-01 -1.2897661966781365e-01 -9.7747211261591943e-03 1.4248284799029690e-01 -2.1127580957713488e-01 1.3497604607742228e-01 2.5804646692546431e+01 -7.4889941540494998e-02 9.7162267075453113e-01 -8.6166599350588707e-02 -2.3623620746100982e+00 -8.5798317148433362e-02 1.4721957657130272e-01 -2.8872833618070128e+00 6.5356665550897675e-01 4.3560580242167835e-01 1.3392042124724757e+00 -9.5360503503600882e-02 -5.3247090799712293e-01 -1.9610636446268150e+00 1.2349503005333984e-01 -2.5749298595352030e+01 2.0202260736780517e-01 -4.2015846117151536e+00 1.4715173330170195e-01 -1.7616346465500941e+00 1.5279289877677871e-01 -8.0199564087074315e-01 1.0187130163161209e+01 4.9025496188388801e-01 -5.2268294682131927e-02 9.9141608431508410e-01 -7.6743685792308047e-01 -8.2014687497081773e-01 2.3873523230587002e+00 1.3492917192225370e-01 3.3053956740586926e+01 7.4123389646895577e-01 1.0001430099912310e+00 -1.1117650155541128e+00 3.5307080286026920e+00 2.9617832781415165e-02 8.4617306494781686e-01 -7.4343865460837701e+00 -1.1521956905598474e-01 -3.0569915034550188e-01 1.5730033311340561e+00 -7.8206460317217091e-02 4.4074059926238479e-01 7.6792201596949128e-01 1.9939460113320522e-02 -2.9282095044141609e-01 -1.7288565222058544e-01 4.5250040884315812e-01 -9.9891879722870403e-01 1.9618516422357168e+00 -2.3732536783280744e-02 -9.2798702221800443e-03 -1.1611864920608452e+00 8.5672215709950883e-01 
      </Row>
      <Row Index="11">
        2.2214723993010399e+01 1.0069664051438002e+01 -1.7585577304835169e+01 -6.4462801810502697e+00 -1.2361467268952076e+01 7.1969381863083385e+01 -1.3528596753011916e+01 -8.2143239334226587e+02 -5.3188528525748744e+00 -1.2759666037967129e+02 -1.5034135840259978e+01 4.6080096729296174e+03 -9.3034777627394760e-01 2.9551338128324979e+01 -2.7434020619756925e+03 -8.7483309384683508e+01 2.7949094499479571e+01 -8.0643186692391382e+01 2.0978565337479377e+01 1.3731851232375028e+01 -5.9074593016534948e+02 4.9593963175264683e+01 4.4817612610732499e+02 2.1907570025578664e+01 -2.6639566317742884e+02 3.8636248971678953e+01 -1.1473324949422127e+04 -1.6509739950558611e+01 -9.6712676959961712e+01 1.5102602094360376e+04 8.9796351121879887e+00 2.6092075645088670e+01 -5.6591583356863339e+01 -1.0248748166177393e+00 -4.0237396488192019e+00 1.7528053300939966e+01 2.7374508867323617e+00 5.2212457559113545e-01 1.7391266466449906e-01 -6.4848467189437358e+01 -1.9947531852479443e+00 3.8351031109506386e+02 -1.1311000503511053e+01 1.8734832602944053e+01 -5.5595624560761541e+02 1.7943164894124477e+00 9.4738583020769784e+00 -3.6789385494349069e+01 2.4616227165735927e+00 1.7415379457087403e+00 2.2399480616556186e+01 5.8855411150398664e+00 3.4707181670480225e+02 -2.2233989154237621e-01 -1.4445078784661564e+02 1.1267423365719640e+00 4.1640957084370774e+02 -2.9948559060142577e+00 3.6355447728002144e+00 -6.8201920668096932e+02 1.3169173331794818e+02 -5.1743721724515837e+01 1.2753093604846690e+02 -9.5160056642878281e+00 1.9887985235789181e+00 1.1250220516152086e+02 -1.2687720711377004e-01 -6.2643458408484457e+02 -3.7412082671153559e+00 -3.2050415066812519e+02 -1.5453615422259046e+01 4.2214369906567927e+03 1.9085290801928476e+00 6.8485043438648148e+01 -4.9746583949960987e+03 1.7944215626880684e+01 -2.6350610183350298e-01 4.6987209678249670e+01 9.1826099094202256e+00 6.8576334201942650e+00 -3.4719003516315115e+02 4.2997480429239936e+01 -8.8876090710553399e+01 1.3109482098844083e+01 -4.9907470175713996e+02 1.8621848683315172e+01 -4.6543110656220615e+03 -1.9791558617472433e+01 -9.1172773559370839e+00 7.8465718928322967e+03 3.7980273533110136e+01 1.9115908005475184e+01 1.9295329545105764e+02 2.3516419642926967e-01 -1.9094968983132514e+00 2.6732461187453254e+00 1.4718975482361742e+00 2.5064958863565721e+01 4.4400345995852147e-01 -1.5575400667560245e+02 3.0588486854415842e+00 -3.4651324455382178e+03 2.3501210804723818e+00 1.5642176184709631e+00 -2.8386827749966624e+03 9.1850018091929854e+01 
      </Row>
      <Row Index="12">
        2.5532464551165995e-01 -1.6246284469603872e-01 -5.3922539023961136e-01 6.2987131009206720e-03 2.7871725933283598e-01 -1.0631968566441896e+00 -2.4503364159110662e-02 1.8146900009763513e+01 -8.0755795557136176e-02 1.0946037831056192e+00 3.3904651880400927e-02 -9.3034776806433084e-01 6.3080636386050415e-01 2.3286343363373513e-01 -4.8828209679991996e+00 -8.2896712060545474e-01 4.7040759498694262e-01 -4.8987590931863459e-02 -2.7134976032348079e-01 -2.9184492814228846e-01 8.4497358750165863e-01 8.8558862637458102e-02 -9.1279837255168115e+00 -3.1836866538837927e-01 -3.5201807319480216e+00 -5.9344787116697169e-02 -4.4600063404818409e+00 -1.4468319106709093e+00 -5.9273848759699210e-01 6.2762893513017861e+00 -8.3902505113375137e-01 8.7150741981568053e-02 -1.9042579658134429e-01 -4.1740087852748298e-02 5.2611735468103271e-02 -1.3145602966522299e-02 -2.1946289759348179e-02 8.3866146410785198e+00 5.0426531048648471e-03 1.1408362845376108e+00 2.3963684233635082e-02 6.7063295247617316e-01 -1.8597900017239938e-01 -3.0314406070926808e-01 -4.0181865475646206e-01 -1.1886540869856450e-01 -1.0920110666205406e-01 -4.6879667011907600e-03 -1.2017917022330007e-02 -2.1698851518254514e-03 1.3180767077324629e-01 7.7619892066984150e-02 -1.2761618256468282e+01 -1.0304661320315253e-03 2.2558508497523500e-02 -2.1798388497398923e-02 1.3139877242821402e-01 -2.2727769631771755e-02 3.0296166048614803e-01 2.3397049561848164e+00 -3.9772103009161464e-01 8.8540527866802388e-02 2.8159041164131188e-01 1.1558262193541437e-01 -8.4662973220854948e-02 -1.2141953672012105e+00 -1.5581291824223342e-01 5.9462672479203906e+00 -6.3711006155083350e-02 3.4313444795985033e+00 1.0220027184145505e-01 -5.2909973190493220e-01 5.6206898555070395e-01 3.8723115617806647e-01 -3.3433958109117863e+00 -1.0971347812220880e+00 3.6933898079704758e-01 2.5298840361277036e-01 -1.6869514723670842e-01 -1.3956996669133795e-01 -9.8362908037807661e-01 -5.9890095033299281e-03 1.2192826123348947e+01 -4.1546713148043479e-01 1.3858541326764851e-01 4.0228758976810552e-02 -3.4609843124278541e+00 -6.5574944125533385e-01 -2.3459310194680236e-01 5.2717124393772385e+00 -1.0955897558815653e-01 -7.6891420264716320e-02 1.0653599014396449e+00 1.7532088282366062e-02 1.2694162988764002e-01 -5.9450143819755397e-01 2.0648633003901667e-02 2.5071683190896943e-01 5.6457277886469807e-02 3.5611679351426950e-01 -9.9831057198516496e-03 -9.5678421550518467e-01 3.0575584718158987e-02 -1.5312969763303458e-01 -9.9320532190370514e-01 6.8157606117562031e-01 
      </Row>
      <Row Index="13">
        2.1197820949632020e+00 5.8822998896999568e-01 -3.6598352894167352e-01 1.3695910884174795e-01 1.1271971327166697e+00 -1.1202638259354183e+00 -4.5369286425668359e-01 -3.1162395642340037e+01 -2.6178792657792932e-01 1.9544794951197180e+00 -5.1358815844311068e-01 2.9551338106569890e+01 2.3286343357810274e-01 9.4834921458558341e+00 -1.4983013986770867e+01 -1.0920508863764114e+01 -8.2445746771570949e-01 -4.4242710126656121e-01 -1.0652622682603363e-02 -1.6401958997832480e+00 -2.0686388068099544e+00 1.3176620112510653e+00 2.7588681545762597e+01 -1.7043626077824170e-02 -1.1601432710886860e+01 2.6169976417317597e-01 -6.7109771194374716e+01 -9.6699667758793684e-01 -2.1860572922938005e+01 5.1988828027247081e+01 -1.4851506963835384e+00 5.7252137188050312e-01 6.5008422861163995e-01 -1.2519199025542371e-01 -7.0179046447164239e-01 -1.9231665245180800e+00 -4.2311333271234741e-01 1.0820531077422531e+02 -8.0872171135284665e-02 3.8456513329143194e+00 -2.1381243423802654e-02 2.3377712681935370e-01 -1.9352703838395835e-01 -3.4969632787839080e+00 -1.5593004099399273e+01 4.8573285589588483e-01 6.7139780429468132e-01 -3.8336242345628091e-01 -2.4985478184413150e-02 7.4979415906371516e-01 -5.0801092011824589e-01 -7.9433723943870271e-02 -1.3305640978919229e+02 1.4572219136502321e-02 -7.9190370934122525e+00 7.6153407200978601e-02 2.1933923488624614e+00 3.0034366474090357e-01 1.6401975335739398e+00 1.4085477200135088e+01 8.0264108062707500e+00 -1.1029776546829105e-01 2.2166068707405149e+00 3.6559021882939902e-01 -7.8113895513134501e-01 -5.1059523291337330e+00 -9.3409091418101686e-01 -3.2825756504780252e+01 -2.9264604402799954e-01 -7.6961545527183572e+00 2.9899250660595589e-01 2.5027160702429818e+01 9.3792745855760717e-01 7.8874168723966465e+00 -7.9875880215167756e+00 -3.6277326148577402e+00 -1.1208086046758625e-01 2.3332347244969069e+00 1.8451476294443001e-01 -1.0706212410243527e+00 -7.1408343345982237e+00 1.2859639672556719e-01 -1.4260037960484198e+00 -5.2730282512892690e-01 -1.3957035793903149e+01 4.1350301567635450e-01 -3.0366545402942307e+01 1.2341270802317927e-01 -1.2203768734409879e+01 3.1190728533484641e+01 1.8068854229049105e+00 4.9547536733808856e-01 1.1383326298491310e-01 1.1155818363316874e-01 7.1580697915137892e-01 -1.9705868004699136e+00 -1.0584631965766877e-01 3.9408271089995979e+00 2.0853882201847523e-01 -4.7987642117749294e+00 1.2965912946989971e-01 -1.5791639011426543e+01 3.1573937403592905e-02 -2.0396613381487878e+00 -5.3853241284443927e+00 -2.8681212381521881e-01 
      </Row>
      <Row Index="14">
        -5.5996495741034575e+00 -4.2834107599738353e+01 7.7850133391790223e+01 2.6165917006762811e+00 -8.8143189443178471e+00 8.7691906595684827e+01 1.6109394193945523e+01 2.6116231451454632e+03 2.9302922970342893e+00 -1.4161001375380715e+02 -1.9555189042591792e+01 -2.7434020640418676e+03 -4.8828209623081875e+00 -1.4983014013662514e+01 4.6699449465588095e+03 1.1997371099563625e+02 8.9696368654405319e+01 1.3446306259313789e+02 -2.8358433508940255e+00 1.1443010927818424e+01 5.2760198910311738e+02 -4.0808719215643833e+01 -4.6867553267986959e+03 7.1414274741004142e+00 8.3734304634318153e+02 2.1142130774762578e+00 9.6263001692622911e+03 3.1689504377231543e+01 -2.1507422541222603e+01 -1.3364363426142227e+04 2.4841175813713051e+01 -4.0022802035177207e+01 5.6881693188479403e+01 -2.3597121427769707e-02 8.9333735115038735e+00 1.3861918716878687e+01 3.4345660300337189e+00 -5.1685525957400364e+02 -3.7156188735229989e-01 -5.3843718439377433e+01 -4.0678545549447531e-01 -2.6969571022900119e+01 1.4935759312601627e+01 -2.8949163421769439e+00 9.5248483053611551e+02 2.1768333809526936e+01 -8.4921814794749579e+00 4.2791025123068266e+01 -3.0965230468847960e+00 -7.3302455800309456e+00 -1.2563081698022249e+02 -3.5880825632818407e+00 1.7246784333881487e+02 -2.3843484608278835e+00 1.5234996688347888e+02 3.3040711429811216e+00 -3.9322429776421359e+02 2.6542893279625974e+00 -1.1645915201300987e+00 3.2812806325511502e+02 -6.1946537766562642e+01 4.1816737867365168e+00 -1.5949702169620852e+02 4.3431576933882338e-01 -4.9303662793732599e+00 -7.1333402517201705e+00 -6.6994008311343789e+00 8.3794302006209091e+02 3.9119718190520549e+00 -9.7504067429184673e+01 8.1020470034919629e+00 -3.1106414356655587e+03 -1.4164747585058638e+01 3.4298721700001295e+01 4.6488536775220164e+03 7.1041310223099202e+01 5.2752252231381114e+01 -4.7899804463648124e+01 -3.6605898354783122e+00 6.8318396074320464e-01 4.8120142540222474e+02 -3.4956792189277678e+01 -2.4732790731977120e+03 8.3222187798127720e+00 5.7461820351359393e+02 5.1808107293576420e+00 4.2806087610142649e+03 2.0784636961338560e+01 1.4838850499854039e+00 -6.7529811561433735e+03 -2.0312466840312965e+01 -2.6524867778111599e+01 -2.9606242903455330e+02 2.9346748051593319e-01 -5.6508800497476450e+00 1.0428386482128383e+02 -8.3929344463324418e-01 -9.8261403254363131e+00 -3.0849513477184525e+00 1.1269400912316996e+02 5.5025306220127437e+00 2.9794631749638743e+03 -3.3354987077325386e+00 2.1023480821635232e+00 2.6369423374700536e+03 -1.3217087121697494e+02 
      </Row>
      <Row Index="15">
        -4.4830683954379651e+01 -1.8195614670133780e+00 -3.4243195512480753e+00 1.0391698532403879e+00 -1.2058578756970252e+01 2.1795369427062685e+01 3.5032025651443567e-02 -2.5938135325898958e+02 1.0448190284104868e+00 -1.2365136799347418e+00 -8.0739948361451042e-01 -8.7483309647024100e+01 -8.2896712073117129e-01 -1.0920508863944390e+01 1.1997371122492532e+02 1.8844834210455929e+02 2.7568147471352127e+00 1.8973923321864496e+00 -3.5601923809258915e+00 1.2319904989601866e+01 -2.6057590517887746e+01 -1.3100751012741818e+00 -3.0886861994662593e+02 -2.6759050674550364e+00 2.9360014656225911e+02 -1.5242933885315713e-01 2.6079370537190334e+02 1.3038004923007023e+00 3.4053813372273908e+01 -4.4491842985992349e+02 -1.5871330560654727e+01 -3.7146674844019087e+00 -7.6383718128429337e+00 4.6762485767953832e-02 2.1735069545373826e+00 1.5268869833320807e+01 -5.7280905095732626e-01 -2.3429728108156428e+02 -2.7464150237216423e-01 -3.8660383696507601e+01 -1.0961099872202986e+00 -4.3732380905746711e+00 1.2486557667991114e+00 6.4525893223806587e+00 5.1750491949430391e+01 2.3455614697123274e+01 -3.5785773450922709e+00 1.7542309787425872e+00 -4.3378977649338513e-02 -1.7111614069231897e+00 2.9844631085006901e-02 -1.6397951970017817e+00 3.4362608768689864e+02 -1.2374819400085091e-01 7.1111753323517235e+01 -8.6835951690157787e-02 2.0164717127815834e+01 -4.3555267504674328e-01 -7.4256999722852566e+00 -3.3316627353892493e+01 -1.0988843524826332e+02 -1.0758545774660166e+00 -1.1969841015535163e+01 2.0762487289697479e-01 5.4889148228981774e+00 5.4838485950139948e+01 2.3947771323567801e+00 6.0966911688966366e+02 2.2728401800847329e+00 -1.2985615446620974e+02 -8.8919328963608291e-01 -7.4659987649133043e+01 -1.2757091252200909e+00 -2.3567899883695464e+01 1.1464358613582894e+02 6.9399700758155575e+01 -1.8153446444321362e+00 -3.9778565014505158e+00 -2.5387070986699971e+00 8.3899375523633868e+00 2.4552162062904639e+01 -7.7878604111741645e-01 -1.1411554206259189e+02 -1.6134125008442268e-01 1.4559847469771296e+02 -1.6613957070045986e+00 1.7602913124110319e+02 -1.1569064330772338e-01 8.8840110992693653e+00 -1.8983937332780960e+02 -4.1760852358013793e+01 -2.2597266581981716e+00 2.8686374243037926e+00 -1.5343892805102391e-01 -5.8941458799402096e+00 1.0564837752221848e+01 -1.5638784255837410e-01 -2.0496949923603044e+01 -5.4389987275677576e-01 4.7472970424337433e+01 6.4227708287565566e-01 8.5778604757415451e+01 -2.5463742584613824e-01 4.5497425181043996e+00 3.6657837628296107e+01 1.2182065820128885e+00 
      </Row>
      <Row Index="16">
        1.5264885686628804e-01 -1.2864692980783436e+01 -2.2100073291939566e+00 -1.6263411393615002e-01 4.1245146223003104e-01 -5.0062593368093360e+00 1.5122086431613896e-01 -5.8405381758882939e+01 -1.8343083092916856e-01 3.1090491560735440e+00 -5.3518116467017762e-02 2.7949094517590755e+01 4.7040759494118589e-01 -8.2445746723859681e-01 8.9696368659232590e+01 2.7568147476837970e+00 3.4663349793568081e+01 -1.4093928837713474e+00 -5.8815585392920644e-01 -7.0639734263491860e-01 6.2738571043601770e+00 2.4086305925744291e+00 -1.5792175552489613e+02 -5.6156927409259449e-01 1.5159316596614056e+01 3.9309795640938061e-01 1.6508493793808885e+01 -6.3680613421916021e-01 -2.7885216623161160e+00 -4.3844174820327126e+01 7.7570997190382240e-01 -6.5739509848358910e+00 -4.3939422932016328e+00 -3.6766484191312010e-02 1.0534443272208680e+00 -9.2612574648721946e-01 4.2680004647151681e-01 -1.1823727700709766e+02 5.1858710987318091e-04 -1.8595852488651456e+00 9.0997508830360008e-02 1.9729048884130449e+01 1.1472396712070116e+00 -5.5185677790632515e-01 4.0393037979391437e+01 6.8706583305627278e-01 -4.3819786212989813e+00 -3.2980228167180883e+00 8.6585094612782743e-02 3.1583562385114922e-02 -1.9616553987461280e+00 -5.9385388523489546e-01 -1.4531242385670703e+02 -1.1160787873292324e-01 8.0347700682997889e+00 -2.2472558064031389e-01 2.3758477380394794e+01 -1.0618807568765355e-01 -3.2420498335828080e-02 1.8619247218014245e+01 -1.0122688582300099e+00 -6.5545560691974840e+00 6.9254811895865158e+00 1.0617871528969700e-01 4.3972788921369776e-01 2.3118696957854521e+00 -3.2737349010003691e+00 1.5484460545104002e+02 1.7696826630996013e-01 -1.3797442080947344e+00 3.3818713565638653e-01 -2.1627233452644905e+01 -3.2901083718923946e-02 4.5647078452878027e+00 -1.4352357662784385e+01 2.1040825015512565e+00 1.6494605878721039e+01 1.6166094745475149e-01 -5.0751378283006288e-01 3.4303151462098669e-01 4.6728754530007395e+00 -9.6749204217499774e-01 -5.3252375456388613e+01 -7.0753100036429650e-01 1.5437886710510949e+01 5.7155530310867331e-01 2.3725462579696476e+01 -1.8057873383296030e-01 8.9618881234092185e-01 -1.2023608922366869e+00 -2.1373389969305023e-01 -5.3405376120452397e+00 1.4191834792357833e+01 3.7704428849153121e-02 -1.8504007922793297e-01 -1.2348567015888001e+00 -4.9547961298016502e-02 -1.4202650309184612e+00 1.2526269243251250e-02 3.6795300814990384e+00 -2.0167570012326053e-02 1.3583675415470612e+01 -2.1161750703444898e-01 5.7799352309463259e-02 2.0238987238014719e+01 1.4680903453924333e+01 
      </Row>
      <Row Index="17">
        1.3494879774080766e+00 1.5740261915732914e-01 2.2060765275882432e+01 4.8937667875441093e-01 8.5101669474909158e-01 6.0402828835451698e+00 2.5078704881576758e-01 1.1767228029777681e+02 5.5712238721538654e-01 3.7833586325066886e+00 -8.4927132917857762e-01 -8.0643187012200016e+01 -4.8987590770082079e-02 -4.4242710547971137e-01 1.3446306270673568e+02 1.8973923289733747e+00 -1.4093928854871205e+00 3.3463014565248194e+01 -2.6682468980969526e-01 -2.0722682974061639e+00 3.2129416498654844e+00 8.7594123362783383e-01 -3.1310449020261905e+02 -3.6537130823658770e-01 3.3115183486936203e+01 7.2935939817623230e-01 2.6139739967529204e+02 1.5297478494707883e+00 5.8473904895344226e+00 -3.0200615111757463e+02 1.3306650747532012e-01 3.4247731169213580e-01 1.3377298577363945e+01 -1.3314079134178769e-01 -3.5700660281594310e-01 -8.2725285721743846e-01 1.3408712712673143e-01 -4.7331808009666872e+01 -6.0988089500085607e-02 -3.6954102605095240e+00 2.6841336664005910e-01 -3.6673661006827483e+00 1.5874182531203024e-01 1.1386539109497806e+00 3.4626083807492321e+01 9.4922607455584562e-01 9.8519542321016551e-01 6.8295336710043557e+00 -1.1358164922915318e-01 -3.8259747276666090e-01 -1.2599886340318097e+01 3.0165322661204852e-01 -3.9047047406149211e+01 1.7099147280473792e-02 8.9841481388866526e+00 2.6614716194512766e-01 -1.1014272060327929e+01 3.0189335164606412e-01 -9.3272349194929349e-01 -1.1316100095210693e+01 -1.2059403670141953e+00 5.9342312177020240e-01 -3.1665173567418478e+01 6.0485447172318674e-01 -2.4167897925240869e-01 3.0890376513789013e+00 -2.2346475700743857e+00 2.7075901753375814e+02 1.0122652877932015e+00 -9.7893257879491387e+00 2.9040519478404980e-01 -9.1013804822786511e+01 -6.0028598940569600e-01 -3.1892043020433503e-01 8.2917742253338659e+01 2.3389976559941839e+00 7.0843302471390013e-01 1.0927722095385903e+01 2.5880894923905728e-01 -1.7892430150993559e+00 2.9476023066218082e+00 -7.6097216350633867e-01 3.5941106619269277e+01 7.1695914862632781e-01 1.7081033673211902e+01 8.0874120236543501e-01 1.1062947661912040e+02 1.1006732982226066e+00 4.7284900425980094e+00 -1.9268342275482826e+02 -1.2844879882173643e+00 1.1725695942005387e-01 -9.0608158704838104e+01 1.1259520128381949e-01 4.4316518254592363e-01 7.7372902750394328e+00 8.5975100986972142e-02 -4.0486402782642301e+00 -4.8765820836190760e-01 3.4513840082230445e+00 2.2921861200570895e-01 7.4544898935410714e+01 -6.9583279165583017e-03 4.4836833491621814e-01 6.3871805593894244e+01 -7.8385060375271976e+01 
      </Row>
      <Row Index="18">
        1.4424512097660422e-01 4.9870636332080959e-01 -3.1246315588055751e-01 -4.1974376145609327e-01 -3.2692192098472095e-01 -4.2876570203566367e+00 5.7768347931828806e-02 7.2604321366537050e+01 1.3142667719371035e+00 -8.1923058984074459e-01 -8.1389294417006752e-01 2.0978565310554426e+01 -2.7134976034415725e-01 -1.0652622737108541e-02 -2.8358433235024805e+00 -3.5601923809974920e+00 -5.8815585384290792e-01 -2.6682468932400738e-01 6.3024170093741434e+00 7.8096306485327238e-01 4.2277774337093810e+00 9.3094036950931103e-02 -1.0921301674564873e+01 4.4697411223300048e+00 -1.0483710794372751e+01 1.8992751298907623e-02 -4.3929534975222182e+01 3.4594492171773172e-01 -5.3820764625561068e-02 3.7826472062028955e+01 3.1150074037224790e-01 3.6949162491494469e-01 -1.2549271548235197e-01 2.8123370586869345e-01 2.4133143929142564e-02 9.2367834687179262e-01 2.6613734095251147e-02 1.6270144743270855e+01 1.6230851528333368e-02 -4.2517688745911009e-01 -7.0499663633749571e-02 -1.3361066063298948e+00 -2.7737996955548527e-01 -3.5850522770485171e-02 -1.0624390237232014e+01 2.8515100328683801e-01 8.7295024835185350e-02 1.5129984706614863e-01 5.0064085343117196e-02 -6.0841103425108650e-02 -1.4878135746664620e+00 -3.1719002007200486e-02 -2.8413143415245234e+01 4.4204659934167084e-02 -3.7738557087944202e+00 -2.2206343566794740e-02 1.9054960019308833e+00 4.3699724865376960e-02 4.5888371216575907e-02 1.1981839138649155e+00 2.2932964804276441e+00 -2.8029390437482005e-01 1.6737924423368028e-01 -9.5602615695922599e-01 -1.6530308712989134e-01 -7.4737620561113713e+00 -9.3496582556891333e-03 1.8334668328567332e+01 6.6268375198176088e-01 -2.7336182380255059e+00 -3.4157833156006304e-02 2.2293407151145331e+01 -5.2930204927530711e-01 1.2340903955099519e-01 -8.9726090208317206e+00 -1.1598560074428887e+00 -4.7618712528546608e-01 -5.3469158880208645e-01 4.9040576816194941e+00 3.5670005596787652e-01 -5.6676706739848717e+00 1.0104684170073289e-01 5.9196860262903229e+01 5.9203906271757383e+00 -1.3574783172620066e+01 -1.2538260766077813e-01 -2.0049338329778859e+01 -2.5222089377512735e-01 -4.5852851736503122e-02 1.2454683338277878e+01 4.0604771459139477e-01 2.5126921350729192e-01 1.4846761171615590e+00 -1.7165033572402993e-01 -1.5695504376653008e-01 -7.1019515826144242e-01 -3.7048034659442086e-03 2.0837375966715044e-01 -9.4559595228518989e-01 -3.1858753662641925e+00 2.2206583281659228e-01 -1.1284876962766955e+01 4.3413306810253016e-02 -6.9477385847420706e-02 -6.8230925942232465e+00 1.8886672297211362e+00 
      </Row>
      <Row Index="19">
        -8.9261269675514434e+00 1.0318749191806322e+00 -1.6153465915326706e+00 8.5113688215198380e-02 -7.6039054757171982e+00 4.9749228802370504e-01 3.9317015119275142e-02 4.1474484484033326e+01 -1.5196248979307825e-03 -1.4745235537396168e+01 -1.2376059189570441e+00 1.3731851239239122e+01 -2.9184492816461827e-01 -1.6401958995975896e+00 1.1443010933547427e+01 1.2319904988993857e+01 -7.0639734310969438e-01 -2.0722682948926803e+00 7.8096306491093037e-01 1.5163090502818047e+01 -7.2377281298794518e+00 -7.2552583610532118e-01 5.9923021118066515e+01 3.0580606039563207e-01 5.2591784959228953e+01 7.6184008140254322e-01 3.2387753142677393e+00 -3.9211797380680102e-01 1.8883074577658021e+00 -2.4583154233946424e+01 4.2872198529869071e-01 4.9848101388486121e-01 -2.0419070861689477e+00 -8.7748135117518000e-02 1.0062561738938856e+00 3.4839042093988439e+00 1.0745198059746564e-01 -6.0336320671977063e+01 -7.9573263219298696e-02 -1.0974338683989549e+01 -4.8143123450763786e-01 8.1143755145392102e+00 2.3110581406172510e-02 1.9993585822689679e+00 1.4019993993480711e+00 3.9025599530402575e+00 9.7328071805012101e-02 5.5782361240461853e-01 2.3706456324319218e-02 -6.5103209109629168e-01 1.1019783428687748e+00 -1.4099950405104500e-01 2.9103468704783172e+01 -1.3129465248430949e-03 2.7337229418902553e+00 1.2517860660487834e-01 1.4331139441554123e+01 -2.6925288929341040e-02 -8.4307118501692735e-01 6.5213488655404710e+00 -1.5544402998373572e+00 -2.1954214750231205e+00 -4.4939783482644735e+00 -2.3268481027094878e-01 -3.3450884683142595e-01 1.4456767551077482e+01 1.1303868733062195e+00 -1.0274154382234812e+02 -7.1306665145325202e-02 -3.6397669299505189e+01 -1.1157706135637919e+00 3.8203394722917743e+01 -1.8742193693306991e-01 -4.0041712889503156e-01 3.4097236446053401e+01 6.7801900959584742e+00 -1.8326821863826630e+00 -6.6509915856660973e+00 5.1213396121365973e-01 8.8853095147000545e+00 3.8743819593812154e+00 2.1064053674983371e-01 -8.8511375584495255e+01 1.6844927769896578e-01 9.4679902208117248e+00 -6.1330301192850234e-01 3.2370104860667503e+01 -6.8921572049614821e-01 1.7290080027367549e+00 -1.1126811519277350e+01 -2.9143306675432941e+00 6.4222923839561075e-01 7.2878365207478186e+00 4.5544044778250359e-02 -2.8715622193292480e+00 -6.2321928686946260e-01 -9.9892302995880679e-04 2.2054672786545737e-01 3.2075808627505054e-03 -9.7596583238944845e-01 6.3563531970659581e-01 -1.3850562770061656e+00 -3.1914677644784173e-02 8.4932721242498666e-01 -4.2406144539638868e-01 8.8535023718953099e+00 
      </Row>
      <Row Index="20">
        1.2743134885744981e+01 -3.7115599135327701e+00 6.5794523415073627e+00 1.1730323070244282e+00 3.8458150760055574e+00 -1.5102971360133412e+02 2.0885932059846155e+00 7.8311141060868465e+02 -7.2530622655860277e-01 2.9673719305676386e+01 1.5763884863705613e+00 -5.9074592988953452e+02 8.4497358905353082e-01 -2.0686388096368824e+00 5.2760198853498707e+02 -2.6057590569266569e+01 6.2738571098462064e+00 3.2129415731685924e+00 4.2277774304497910e+00 -7.2377281254458907e+00 3.5179209017042518e+02 -1.2934581685471478e+01 1.5346677397266403e+03 5.8630783495520404e+00 -3.7288349349834618e+01 -2.7531990552070855e+00 1.6255026465609983e+03 1.1433194892918834e+00 -1.0095536449205298e+00 -2.2080116904417278e+03 2.2203843528373031e+00 -5.2599251067539683e+00 1.0049966759799815e+01 -6.3535412930576474e-01 6.2789421455305217e-01 -2.5341114812670465e+01 -2.7621233541075085e-01 2.8556680849586553e+02 -2.9889631072740031e-01 1.1043304488205036e+01 1.0302023086097860e+00 -6.3288739065020813e+01 1.9871049382198862e+00 -5.3575870244099892e+00 2.0669237101676966e+01 -3.6052316778967293e+00 -1.6172339658240780e+00 1.7277813006873828e+00 -1.5762550801314781e-01 -3.9200095482189629e-01 2.5761232033546101e+01 1.1829645224315111e+00 -9.0629748307966838e+02 -2.0996190893356526e-01 1.9068907875358768e+01 -1.1385693639311540e+00 -3.5452281969325448e+01 5.9477852782358442e-01 2.3121261214445101e+00 2.5882175484339029e+02 6.0021765924980954e+00 4.5401212647644726e+00 3.7010573328784622e+00 2.7442634520935512e+00 -1.7032987342190795e+00 -1.5689663475033944e+02 -4.2006670860820758e+00 -1.4591947738096185e+03 1.0656612865312658e+00 6.1179641448248120e+01 3.0965919491038125e+00 -5.3058554819124697e+02 3.0943182704476691e-01 -1.5179475661699819e+00 8.5339671348534023e+02 -1.0884620194509186e+01 4.9983867965625715e+00 -4.9395098448510257e+00 6.0346862693119654e+00 -4.4986256120075954e+00 1.1467219248913966e+02 -1.3204997209588939e+01 7.7097575403416226e+02 4.9770025767409862e+00 1.2255979378875793e+01 -5.6031025441439475e-01 6.2332204956654266e+02 2.5053353112843646e+00 -4.4817040498661402e+00 -1.3532832191153220e+03 1.6825567176224308e+00 -4.3793919761437810e+00 -1.5371071014322229e+01 8.8092805958096609e-01 2.1419303334870188e+00 -6.0518313720235724e+01 3.0978692370478395e-01 2.7759284408805115e+01 -1.9606772539027175e+00 1.1721646917282158e+01 -4.0834653491445772e-01 5.4144918450265868e+02 -4.1453033215920732e-01 -2.2511646122370639e+00 5.9609669812828531e+02 4.0462651193639743e+01 
      </Row>
      <Row Index="21">
        -1.9486503414102643e-01 -5.0859187601981992e-01 3.4863551266903983e+00 -2.5731360892983446e-02 4.9448141208992169e-01 -2.1950197430996061e+00 -1.2127608492624935e+00 -1.6928105254719972e+00 1.0693855395461416e-01 4.0127782923099318e+00 -9.0502575826810983e-02 4.9593963098722988e+01 8.8558862511007419e-02 1.3176620107444634e+00 -4.0808719139877347e+01 -1.3100750966236205e+00 2.4086305919616477e+00 8.7594124168769838e-01 9.3094037081501879e-02 -7.2552583681674254e-01 -1.2934581675381800e+01 6.6873078115951632e+00 -2.0333098625995518e+00 4.9312251335220059e-01 -5.0843993954378703e+00 3.9979939548376564e-01 -1.3005541121198127e+02 -4.0454603369930808e-01 -6.4771696720216054e+00 1.4571679545529437e+02 -9.5021828533970421e-01 7.5921553304874934e-02 1.4111941844661828e+00 3.5214808139194531e-04 -9.4301423641871551e-02 1.1461484862081218e-01 -1.7967781065738819e-02 1.1710773078064342e+01 -1.8225008599110026e-02 1.4078244210272852e+00 6.4715407071709252e-02 1.8980401071965705e+00 3.1901673237567513e-03 -2.1363953261817409e-01 -1.3503094610367079e+01 1.0412659321381212e-01 -1.4486616614801129e-01 -1.6461366640081820e-01 6.8816725138177437e-03 -1.3522029018893375e-01 -2.8065392237931448e+00 -1.2805480526145059e+00 -1.5177194305056966e+02 -1.9267510423992440e-02 -2.5320340150327705e+00 -5.7432860244187367e-02 1.2964667162351661e+01 1.1632469731296956e-01 7.8527206891336854e-01 1.1252346484754398e+01 5.3908337813711737e-01 -1.0347811399516056e+00 -9.0324445841658441e-01 5.6855023985189268e-02 7.0553810280083271e-02 1.3615792826825646e-01 -2.9848265907440621e+00 -2.7794056099200539e+01 -1.0618321146177803e-01 -2.0221062533858714e+00 -1.6680047609283116e-01 4.5927159050718330e+01 3.1557024637253978e-01 2.0700824706895058e+00 -4.1925572391973375e+01 -1.0901416541383784e+00 1.2654741888386336e+00 1.3664262023935567e-01 1.4312217021066775e-01 -4.9935057155613305e-01 -1.4441366797372938e+01 2.1013472592222850e+00 -4.2445598493594886e+01 4.8711235284439725e-01 -3.9175297257221615e+00 1.7929686638681983e-01 -4.4705094368968268e+01 -5.9161258600829825e-02 -3.6070167144548324e+00 9.7919946628504704e+01 1.4825794134855297e-01 -4.7674370046371983e-02 -8.0130347177775256e+00 -2.2024374105012862e-02 1.5141692199562504e-01 -7.2671896707248251e-01 -1.8401807868033612e-01 3.1465014139851952e+00 -8.7709096886879834e-02 -1.9045464600521314e+00 2.8147665558319934e-02 -3.7190654387967960e+01 7.9578816799036455e-03 -3.5636683806813130e-01 -3.2690547301929932e+01 -9.6386824566044265e+00 
      </Row>
      <Row Index="22">
        1.4903603220594985e+02 7.0971516044670025e+01 -1.4364266407157265e+02 -2.6915368481937094e+01 -6.3421210424521860e+01 2.5241472729371310e+02 1.5206189432304541e+01 -4.5072162444229827e+04 -9.5672425547865032e+00 -2.3829737404223174e+03 5.3501480819601966e+01 4.4817610192955908e+02 -9.1279837462116120e+00 2.7588681333907061e+01 -4.6867553022286475e+03 -3.0886861875225350e+02 -1.5792175553638435e+02 -3.1310448774605265e+02 -1.0921301830550071e+01 5.9923021024783338e+01 1.5346677414437063e+03 -2.0333098090809472e+00 2.1371635743356435e+05 -5.9444251394643082e+01 5.2410606279782496e+03 -1.9409894210727799e+01 -5.4698940059503275e+03 -1.3151081646063676e+02 -1.1722019489014838e+02 -2.2093259314172992e+03 4.5796639563086899e+01 1.5605978477424514e+01 3.2518966592873767e+01 8.5520692136114462e+00 -2.1658969086658260e+01 -7.7649680508909611e+01 -2.4065024340997070e+01 1.2794528339510467e+04 1.0498874516203159e+01 -5.0928992697876430e+02 -7.6830266203411410e+00 6.8421797464498161e+02 4.7158429044660082e+01 -1.7228035219687169e+02 -2.1757566113851326e+03 2.3149296700609804e+02 -1.5771947359425346e+02 1.8180390641557551e+02 -3.9087745391409134e-01 2.4211552822069997e+01 3.5998978120409549e+02 -1.1603175418532531e+02 -5.9241696903055948e+04 -2.3105523007191877e+00 -8.2496177654129019e+02 -5.2630188028206248e-01 3.8446153806063317e+03 2.0926921983502467e+01 -7.0499201137342595e+01 7.5956404272840355e+03 4.4271109622166804e+01 -1.0496652164104734e+02 -1.4919025694323008e+02 -5.3399230287215403e+01 -3.0979891673909790e+01 -4.4127204772121962e+02 6.6709878384010864e+01 -1.3888604516376357e+05 -1.0330963471129721e+01 -3.3796475411980009e+03 -4.8913301549222531e+01 9.9066752220445014e+03 5.8203550203769883e+00 -3.0626681737128666e+02 1.3630648992655151e+04 -4.4701029749266695e+01 -2.6142089104884451e+02 -6.1649241018117323e+02 -5.6498034489417932e+01 1.7609463526973727e+01 1.4691569647004872e+03 -4.6734165234684482e+01 3.0572998808810473e+04 -6.2340738650870435e+01 5.5618024758423655e+02 -5.3599838738302481e+01 4.5123305009793348e+03 -8.3474464482410028e+01 -5.3466793256593144e+02 7.2048672536620161e+03 -1.3988169145294142e+02 9.8156719850127558e+00 6.4066370997189620e+02 -1.0468383616580667e+01 -6.6008581475673456e-01 3.9373726121283426e-01 -2.1345650964224841e+01 2.5435358208249640e+03 1.3782561901049384e+01 -3.3458277469978884e+02 -1.8894561073489236e+01 -1.0896436545491806e+03 -1.1795380745985636e+01 -6.4709501034183731e+01 5.8657141323457802e+02 1.0420461724971265e+03 
      </Row>
      <Row Index="23">
        5.5131686762866124e-04 8.1932919004129545e-01 4.7987511629302571e-01 -1.1473844631350651e+00 -2.8011754366633035e-01 -3.3242603155294281e+00 -8.0321503097523783e-03 1.5731653309703557e+02 1.8135068004643737e+00 7.6432358484893399e+00 8.1365412974102136e-01 2.1907569820066637e+01 -3.1836866549287324e-01 -1.7043626851166671e-02 7.1414276556273490e+00 -2.6759050664488448e+00 -5.6156927393002143e-01 -3.6537130224994829e-01 4.4697411217036951e+00 3.0580606017644107e-01 5.8630783788876748e+00 4.9312251153389197e-01 -5.9444251263421364e+01 1.6896536355238734e+01 -3.3034006700147209e+01 3.2668745494094636e-01 -4.7064878173743999e+01 1.3035266452674605e+00 4.2358780836819843e-01 -1.7596226673312511e+01 8.7281736494166418e-01 1.8913953779648118e-01 1.5711293305703933e-01 8.0567279567790773e-01 -4.3609370602851777e-02 2.2274630279808281e+00 1.3784430879288290e-01 3.4643468613756859e+01 8.0584303968129767e-02 -2.7423243124304832e+00 -1.7163631490318171e-01 -6.6359288513083934e+00 -1.7146958720018049e-01 1.6947280671223444e+00 -7.1285968206536090e+00 7.6791176336066713e-01 -1.0954606182011856e-01 4.5575571663046865e-01 4.5956004071038739e-02 -5.1263088377810559e-02 -6.0790343609226403e+00 -7.3341693812449682e-01 -4.9769254250805226e+01 1.4741746767724193e-01 -5.0340397044245320e+00 -9.2561208408344364e-02 -2.9121657729899093e+00 -3.2584131773114762e-02 -1.4844299557087115e+00 -6.0709966373123372e+00 2.6161552858919390e+00 2.2302488250120422e-01 3.4411066357930142e-01 -2.4515789283210832e+00 -4.0293890551432066e-01 -9.4222830131128603e+00 -1.8423432780937959e-01 1.0660714047752120e+02 9.2312729029020724e-01 5.8583481929694976e+00 -1.3540259994699608e+00 2.7441843733471718e+01 -5.5903828458619564e-01 1.5980264409237375e+00 1.3720697892720290e+01 3.6321832080194538e-01 -2.3162035495873196e-01 -1.1011931377809019e+00 2.0169294164015028e+00 -7.1670856750537193e-02 -9.1102881743195088e+00 -1.4249335013827671e-01 6.7798286558602655e+01 1.8345186684963252e+01 -2.5677908287622387e+01 -8.5180605007549615e-01 -2.5295464971557085e+01 5.1607164849777631e-01 1.3426430042904760e+00 -1.3216949305749601e+01 9.2078122111444627e-01 1.1995161097113002e-02 3.3853406082243021e-01 -7.7968732592606882e-01 -1.7053219041078552e-02 2.7329175188455679e+00 -1.6251226074140365e-01 -3.9291040442275760e-01 -2.5960556142696105e+00 -3.9227792494140346e+00 -4.9080989446283263e-01 -4.5660740303984353e+00 3.2353601008581992e-02 6.2690690070462329e-01 -6.4209406260382513e+00 5.6919243140005138e-01 
      </Row>
      <Row Index="24">
        1.4297615382488230e+01 -1.1276282518549570e+01 -1.1467612043501969e+01 5.6133463577403298e+00 -4.1848440553116241e+01 1.3041160883941723e+02 4.3227919903371925e-01 -3.2084286564401500e+03 2.9746317925752339e+00 -6.6872750452446382e+02 3.8688034985860122e+00 -2.6639566369034145e+02 -3.5201807336940014e+00 -1.1601432720790701e+01 8.3734304694823334e+02 2.9360014655672489e+02 1.5159316562078793e+01 3.3115183752427249e+01 -1.0483710799744841e+01 5.2591784936956401e+01 -3.7288349368699940e+01 -5.0843993746873224e+00 5.2410606185422885e+03 -3.3034006728148917e+01 2.6379761247648976e+03 -2.9265096103495494e+00 1.6007500116247052e+03 -2.4941656172693083e+00 1.7118323864217132e+01 -2.2210063147928440e+03 1.2409488210635606e+00 -1.6428956093226862e+01 -2.0267195043567519e+01 -7.0383125794410550e-01 8.8621614448032808e+00 3.6990347807625078e+01 -2.8454144350703290e+00 -1.1769585677247612e+03 -1.1925161685997754e-01 -3.6404828121093425e+02 -3.0375761566814048e+00 3.9867674732723907e+02 9.6170399251145682e+00 5.9901990062162378e+00 5.2766772218000176e+02 1.1273880211032989e+02 -1.9410541062033385e+01 9.6702582269539672e+00 -2.0238084449147506e+00 -9.1211443243440637e+00 1.2909158028259378e+00 -1.0611537874911301e+01 7.2079374904084943e+02 -1.9896523569349580e+00 1.6406076133100430e+02 9.7218845329126546e-01 3.8236259569841457e+02 2.4146533362168454e+00 -7.3446810900801003e+00 3.3976585669609875e+01 -9.1093593068025001e+01 -2.1922631283508696e+01 -7.3769976561710891e+01 1.5254116309459052e+00 1.3419035045809508e+01 2.0857023895591169e+02 7.3479659789300005e+00 -1.0574582100130247e+03 1.1011212709104866e+01 -1.5832465958533576e+03 -4.4309449574383617e+00 7.0588505738134597e+02 -7.4215530604887032e+00 1.4934587894929194e+01 1.6139180365597329e+03 2.2908859740883639e+02 -2.0490234656336149e+01 -3.3984780335267260e+01 -7.8361934272921161e+00 3.3186911606471753e+01 2.2490515728570426e+02 -6.4900645204917184e+00 1.0412397497407237e+03 -2.1683771183911944e+01 7.1234618261210710e+02 -7.0500036978427953e+00 2.1747581996256440e+03 -5.5128300852851044e+00 1.3551603479632744e+01 -2.7300648966588199e+02 -9.4122402147885623e+01 -8.4534270668288141e+00 1.3102836721894831e+00 3.8073975724104975e-01 -1.8663781960639714e+01 6.6757890539466899e+01 -1.7769484679108791e+00 -3.2530231549601929e+01 1.9030373400925014e+00 1.7098844299988720e+01 -3.2174664041408430e-01 2.6985873590793642e+02 -2.4074076429307860e+00 1.2506882861041870e+00 2.6466108891623577e+02 3.3114579392581113e+01 
      </Row>
      <Row Index="25">
        -4.2368513102769478e-01 6.7882251653743841e-02 2.5195166684087411e+00 2.9280089508516838e-01 -7.4569953768889974e-02 -1.1955407559220106e+00 -7.5471053161261903e-02 2.0595738588432022e+00 -2.0230782351931431e-02 -7.6484327121853202e-01 -1.9593066347616173e+00 3.8636249039189501e+01 -5.9344787109193220e-02 2.6169976438397491e-01 2.1142130234277197e+00 -1.5242933881627785e-01 3.9309795655365032e-01 7.2935939635286928e-01 1.8992751800373409e-02 7.6184008126828928e-01 -2.7531990640133812e+00 3.9979939614270554e-01 -1.9409894164883127e+01 3.2668745647534458e-01 -2.9265096385180089e+00 3.9270391722839979e+00 -6.0989686195972880e+01 -2.8405617208836054e-01 -2.1898790390001976e+00 1.3965821814533268e+02 5.3320502594317420e-01 9.3471119188683893e-02 9.6042221856801291e-01 -8.9489319983512949e-02 -1.0955129837072253e-01 -8.8445328823560410e-01 5.1004558340572714e-02 1.2712136515927255e+00 -6.8169885830243970e-02 1.2240200788649465e+00 -1.0932963038795263e-03 4.7980632879409884e+00 2.4156083759643393e-01 -5.9254395802967361e-02 -2.5977484422003982e-01 -4.4686232217514166e-01 9.1295774422572029e-02 4.6788371462135103e-02 9.5817327372811414e-03 1.3237594028002347e-01 1.0322534748986425e+00 -5.1884208055582443e-03 -1.2273362782526682e+01 2.0680520913072886e-02 -1.7574059453585407e+00 8.7196735259489344e-03 4.2384516666925318e+00 5.4929609864960510e-02 5.8733202233956494e-01 -1.3426923688998027e-01 5.0751072688538079e-01 -3.6494448280941261e-01 -1.5729124840671638e+00 2.8547258689366073e-01 -4.4468483273606790e-01 1.3582250466003187e-01 -4.0149440354219024e-02 -1.4659198779602605e+01 -2.6516458372559804e-01 5.2449289698600845e+00 -1.1157767915545473e+00 2.2335384763658297e+01 3.2547083130947389e-02 9.3342506447332718e-01 -4.4678637767972731e+01 3.9662441165900841e-02 3.3936469024197763e-01 -1.5045257004719013e+00 2.7845136746727417e-01 2.0233424929445432e-01 -2.7127546575318529e+00 2.9954723052021609e-01 -3.5689581585495844e+01 2.4121771411402149e-02 7.9640894456419531e-01 2.1658252230885497e+00 -2.4131882984564989e+01 -1.8444173386157969e-01 -9.7436189912083759e-01 6.7114461163704888e+01 6.7413568429296022e-01 1.1340316438914555e-01 -3.9721609584261359e+00 9.1337241525386914e-02 6.2401754055973493e-02 -1.0803929021584890e+00 9.0336003639408524e-03 8.4375892314026935e-01 7.3046706575677939e-02 1.0336555521455182e-02 4.3852223029858484e-01 -2.2818931368624401e+01 -5.0361255556286968e-02 -1.2684512813703364e-01 -1.3016442177729854e+01 -2.4344119080957025e+00 
      </Row>
      <Row Index="26">
        -4.2738070993055771e+01 -4.3222501593188106e+01 1.4278103585776444e+02 1.6873511256636903e+01 4.6162708409162860e+00 -1.4564032834563835e+02 3.7214112686304986e+01 2.7108078163314126e+03 1.0262272274236125e+01 7.7650219529936493e+01 7.0836622470710608e+00 -1.1473324947867095e+04 -4.4600063171292277e+00 -6.7109771253538838e+01 9.6263001620502546e+03 2.6079370459233689e+02 1.6508493834172526e+01 2.6139739877750799e+02 -4.3929535040565682e+01 3.2387753237895183e+00 1.6255026471815345e+03 -1.3005541141527289e+02 -5.4698940787821739e+03 -4.7064878740016155e+01 1.6007500091974882e+03 -6.0989685991826207e+01 3.2225374515419880e+04 6.7725918321648976e+01 1.7843969127233498e+02 -4.0729094745794784e+04 -5.9205854651255692e+00 -7.5910273772707797e+01 1.6940270552392030e+02 4.4458182636947186e-01 1.4766831462791629e+01 -4.1445561565505351e+01 -3.3599129210060710e+00 -5.0348385491586919e+02 -8.0650334478696095e-01 2.6543596602547417e+01 4.7254883173800701e+00 -7.0663187672850017e+02 3.2717798314565371e+01 -3.2536228636087863e+01 1.9610890644368003e+03 3.8450401635127420e+01 -2.1267062177089873e+01 1.0024072437325867e+02 -6.7859999397195478e+00 -8.9146686476628485e+00 -1.1373134675461621e+02 -1.7611109410581570e+01 -3.7909913421604818e+02 -2.2536791434580801e+00 3.8554182313798356e+02 -6.0153877625566565e-01 -1.0850051579204423e+03 9.5169976613452896e+00 -1.7142346469878941e+01 1.7211857482653315e+03 -3.4066464430368052e+02 9.2284418641173573e+01 -4.0603029032994988e+02 2.3787248272816385e+01 -4.7717856978834634e+00 -2.3271282979942424e+02 -6.1133145425658890e+00 3.3534987861123318e+03 8.2259895767691660e+00 3.1650759610436808e+02 3.4430175520494821e+01 -1.1404942117878807e+04 -1.6767324283652044e+01 -9.7177727172119916e+01 1.3541313066022840e+04 -2.3766397311251097e-01 4.2280101971864596e+01 -1.5748190283948125e+02 -1.7437321562375395e+01 2.7784793699238843e+00 1.0734271316460540e+03 -1.1679857391262605e+02 -1.8100144242014894e+03 -3.3757660561422320e+01 1.5483565912516617e+03 -2.4387711581354889e+01 1.3593199298064768e+04 6.2420064988478899e+01 2.6261912716725657e+01 -2.1135014538448362e+04 -1.1226565177923510e+02 -5.2917676346526775e+01 -6.9959307472011210e+02 1.6279106169468047e+00 -4.9303192779862863e+00 3.9242440343649463e+01 -4.4512881574323586e+00 -8.0089256514145745e+01 -1.8064241024865257e+00 3.8481536397697982e+02 9.5137866729528930e-01 9.5551995110855441e+03 -7.0603858065535947e+00 -2.4756263051570498e-01 8.1436649029885339e+03 -3.4650304890657850e+02 
      </Row>
      <Row Index="27">
        2.3864203328137990e-01 -2.5311479549740173e-01 2.4166313815407250e+00 -2.9757076317865838e-01 -1.6008546045865302e-01 6.5546549272569721e-01 1.8859876249751695e-01 -4.1828646508444265e+01 6.8816523147690045e-02 2.0767790427106823e+00 -8.0899721339797281e-02 -1.6509739971025724e+01 -1.4468319106094789e+00 -9.6699667769335207e-01 3.1689504372757252e+01 1.3038004894031534e+00 -6.3680613438283329e-01 1.5297478451884956e+00 3.4594492164302471e-01 -3.9211797369074308e-01 1.1433194966931892e+00 -4.0454603482554019e-01 -1.3151081659823421e+02 1.3035266441079876e+00 -2.4941656363402687e+00 -2.8405617194908001e-01 6.7725918375052927e+01 9.2180029425050307e+00 4.8754978716833648e+00 -9.4747772522811047e+01 2.1295844020944301e+00 -1.5792289991481923e-01 9.9867444899021507e-01 5.9057809818742868e-02 -2.6244767528432167e-01 -4.7683425789695932e-01 -1.2933392832884216e-01 -4.3181689978775900e+01 9.6135387987494880e-03 -6.6287943454770701e+00 6.0621239906902755e-02 -1.2223207824069748e+01 -1.3343087635723705e+00 2.7656480776016928e-01 1.1316885760948505e+00 -8.8529222105291350e-03 2.3091634598540947e-01 5.9257584859508938e-02 7.1500582293589687e-02 -8.5415040596805977e-02 -1.2750102077267962e+00 -7.0140588320552821e-01 9.5047536070171915e+01 3.1230592486089670e-02 8.4562679969678589e-01 3.5112575019280001e-02 -4.8668614394158709e+00 -3.3358367557272239e-01 -2.9649207452162001e+00 -1.4056124519093196e+01 2.7586023902840200e+00 4.7324862436781434e-01 -2.5794565489169661e+00 -4.9550128276115757e-01 2.8037406649247681e-01 2.9066480141471063e-01 -4.6580127092067242e-02 2.0530853161559381e+02 9.0016804715687293e-02 -8.8298586343304368e+00 -8.9578417046776881e-02 -2.4025066143424493e+01 -3.7401372102707859e+00 -2.3533465593413956e+00 1.6257954081351826e+01 3.6854360124165848e+00 -7.6940297948094372e-02 -1.5712080279980958e+00 -1.5415201915842358e-01 -3.5215797618908401e-01 8.7400951557518425e-01 -8.6716792410399623e-01 4.4912522702165326e+01 1.3577306653193237e+00 -8.5989713933811061e+00 -3.1048855206678994e-01 2.5648559061759258e+01 4.2698902503954370e+00 2.3132398861664263e+00 -7.3104029673227259e+01 8.7020749300937617e-01 2.9030162840568474e-02 -5.6906492120007721e+00 -8.8124068821575641e-02 -7.5642982152944072e-02 1.3230234151084401e+00 -2.2414959665928191e-01 -5.5756160295911510e+00 -2.1569910344673279e-01 -2.6099166786327928e+00 3.7880041931048082e-02 2.0713563900819619e+01 2.7538885855562206e-01 7.1412760663593555e-01 1.6277049864061837e+01 -4.2081772837415361e+00 
      </Row>
      <Row Index="28">
        -8.9449402310131276e+00 8.5060645460635464e-02 -2.4913362391427825e+00 -2.0461354007827381e-01 -1.8896709775149905e+00 1.6989369238709223e+01 1.5759818257006146e+00 -4.4590293116524819e+01 1.0498434466637190e+00 1.4678968947859765e+01 1.8714629296283789e+00 -9.6712676827031444e+01 -5.9273848738977719e-01 -2.1860572922641271e+01 -2.1507422687411470e+01 3.4053813373350295e+01 -2.7885216600866816e+00 5.8473904659675426e+00 -5.3820764254480014e-02 1.8883074591696420e+00 -1.0095536605875879e+00 -6.4771696740939468e+00 -1.1722019535002767e+02 4.2358780738705093e-01 1.7118323818010595e+01 -2.1898790388157088e+00 1.7843969087612743e+02 4.8754978707923762e+00 1.0142926912654713e+02 -5.1813163258468656e+01 9.3336585128504856e-01 -5.6558341827441794e-01 -1.4303086973038432e+00 2.4473462465751838e-01 2.6532546988327343e-01 5.2907338793169219e+00 2.7891112558311626e-01 -1.4835338104900760e+02 2.6084682038774432e-01 -1.6206701245094614e+01 -8.6544943310404243e-02 1.8238052327078502e-01 -6.8045310437709861e-01 1.1122637935514474e+01 6.2047055001509989e+01 5.5292451693259426e-01 -9.5187648124162538e-01 8.7951713374218343e-01 -4.3211780232254249e-02 -3.3262947006617199e-01 -3.4125149346273540e+00 -1.0790501686896659e+00 3.3372924677071978e+02 -2.6863815390544343e-01 3.1583673379969387e+01 -1.4702656322747565e-01 -3.8348147554126491e+01 -6.9964426937238788e-01 -1.2072141074211324e+01 -1.1310854042158459e+02 -2.8291349002167216e+01 1.4418664487323452e+00 -8.6070099383898580e+00 -2.2824756980253813e-01 5.3664043922494908e-01 5.8075691417031479e+00 1.6986142544562839e+00 7.4714816702546545e+02 1.4803668014903089e+00 2.8757825544287158e+01 -3.5811131378507755e-01 -8.0078750753724208e+01 -2.5109778103596336e+00 -4.0001002543540345e+01 -3.9444250927467650e+01 9.3697864803081163e+00 -2.3387188121730116e+00 5.7377006335049496e-02 -6.5467361943600588e-02 1.0454149620615549e+00 9.0135997176270504e+00 -4.6587687300871554e+00 5.3084366233973765e+02 2.2262226787563488e+00 3.1350569910595482e+01 -1.9619267836970153e+00 5.7400461892901099e+01 1.7831093592278302e+00 5.2528316283127062e+01 -8.6697473435572022e+01 -9.5896150542018290e+00 -5.1960198804507507e-01 -4.9864565587581176e+00 -1.5748563078785349e-01 -8.4778913844576742e-01 9.6588431383459259e+00 -5.7213344882026451e-02 -2.2146894303903483e+01 -1.1298236671581789e+00 1.5803680661036935e+01 -5.4386754561050410e-01 3.2002849261097047e+01 1.7915398113553976e-01 6.6411785606205607e+00 -8.2040272333048971e+00 -3.4650439317761608e+00 
      </Row>
      <Row Index="29">
        6.9862376666616910e+01 7.8805748095789284e+01 -7.0430971104022319e+01 -1.0492526144108069e+01 -1.8278301050347636e+01 -7.6355720703739422e+01 -5.5785295620036152e+01 -1.8694597869646557e+03 -1.4177067408605410e+01 5.4099879442912709e+01 -1.8972948817818178e+01 1.5102602109091355e+04 6.2762893294539026e+00 5.1988828159948298e+01 -1.3364363431466405e+04 -4.4491842901916277e+02 -4.3844174799128979e+01 -3.0200615086120160e+02 3.7826472216677502e+01 -2.4583154209479176e+01 -2.2080116933651561e+03 1.4571679579877951e+02 -2.2093258377137818e+03 -1.7596225851266183e+01 -2.2210063152056082e+03 1.3965821794384956e+02 -4.0729094793765020e+04 -9.4747772541428162e+01 -5.1813163862068507e+01 6.3584271040394851e+04 -3.7791855294699459e+01 1.2273873833577704e+02 -2.2631155929895613e+02 -5.6953744098886432e+00 -2.6837820056671944e+01 -2.4158274492672561e+01 2.6287347800291627e+00 -1.5823653411427060e+02 5.3239929048140766e-01 1.6924336958532965e+02 -1.1391328943138546e+00 9.6263567079406960e+02 -5.6327721803826989e+01 7.1865734401177889e+01 -2.5178430593224762e+03 -7.1319456701380986e+01 4.7380866616773439e+01 -1.6797725577578694e+02 9.8052115697337285e+00 1.5016396141262810e+01 3.1946129412852753e+02 3.6815356839176239e+01 4.4667901876543783e+03 2.7331241524986716e+00 -3.9851499543138141e+02 -3.5947964132446941e+00 1.4987747067579853e+03 -1.5824144987321658e+01 1.9294658253110086e+01 -2.4804481675355541e+03 3.4216948667654708e+02 -1.3083832217241934e+02 5.6515461810266436e+02 -8.4635569391580248e+00 2.9171746012400003e+01 3.2791362445604324e+02 9.6997681563863001e+00 3.0733944349696394e+03 1.7672728744174378e+01 2.1492133034154674e+02 -5.6920087470702754e+01 1.3243206672077438e+04 2.8583761960585775e+01 1.2987802780701469e+02 -2.2560259607010445e+04 -1.7574608753041238e+02 -5.2733613768229411e+01 2.8879168498037569e+02 2.4404913914719543e+01 -6.4807732087226491e+00 -1.5600997026374432e+03 1.3841152963604046e+02 1.8885229864528319e+03 -1.3119115359132991e+01 -1.5631235866388292e+03 7.1740981411671555e+01 -1.7805599617237272e+04 -8.8966001891938305e+01 1.3115664311961359e+02 3.1489481990428721e+04 1.1724469247722141e+02 8.3701688029159811e+01 7.3333495321637815e+02 4.0966059272268947e+00 5.7385282986890820e+00 -2.3587464444249247e+02 8.4100028230313200e+00 -4.7322930220034095e+01 3.7528251261465524e+00 -3.4803161590938544e+02 1.1763388948895228e+00 -1.3084039051787413e+04 1.2370624602477225e+01 1.1700160298035149e+01 -1.0566173354642040e+04 3.4953378905190368e+02 
      </Row>
      <Row Index="30">
        5.8773247826146360e+00 -9.0645101216675350e-02 3.0618387670613600e+00 -1.5452418320101913e-01 5.6627392369507135e-01 3.6303953453315962e+00 3.0920654676659787e-01 -5.2093057626072166e+01 1.6283123458442894e-01 -1.2449145299294234e+01 2.9524570403118844e-01 8.9796350621404546e+00 -8.3902505115104731e-01 -1.4851506967262189e+00 2.4841175849865973e+01 -1.5871330561893334e+01 7.7570997089205829e-01 1.3306651273303061e-01 3.1150074001713535e-01 4.2872198480939172e-01 2.2203843571669148e+00 -9.5021828518858653e-01 4.5796639546637380e+01 8.7281736398986953e-01 1.2409488250769165e+00 5.3320502612845377e-01 -5.9205853165844644e+00 2.1295844023917505e+00 9.3336585282680495e-01 -3.7791855435699361e+01 1.0249391958743205e+01 -1.7741464147035657e-01 1.8278498002568710e+00 5.3377752918115640e-02 1.8508363640623582e-02 -1.9149321618115098e+00 3.8120888754683691e-01 -8.1593203527623956e+01 -1.4218215677672674e-03 -1.0590516963924994e+01 1.4942641589242855e-03 9.6298618498960273e+00 8.1003229345740380e-01 -7.2422384179603977e-02 2.2975854758448577e+01 -2.5238811054175496e+00 2.7312103132349691e-01 5.8347024685652116e-02 -2.2485985836346423e-02 -8.6915553070168128e-02 -3.5229691133062868e-01 7.9785300543193272e-02 1.4156991406740946e+02 -9.5838051207334213e-02 -2.7061125543337781e+00 9.9261980883003531e-02 9.5097823194304021e-01 3.3600400897102789e-01 3.9732091607361930e-01 -1.8228194723417818e+01 1.9740078146087903e+01 -8.4565863067621450e-01 -9.6619006074001446e-01 -5.9153949705847308e-01 -1.1288433099961601e+00 2.6738009592719347e+00 6.2807431863095620e-01 -3.8356801805328452e+01 -2.2652356981316046e-01 -7.1187392171789616e+00 -4.1945136799921745e-01 2.6938930576491703e+01 -1.7549574992594561e+00 1.4095340873955853e+00 3.1842326355551450e+01 4.9965418913826944e+00 1.8013648086098646e-01 -2.9020264476383089e+00 -2.4837709629648552e-01 -3.2555960369454734e-01 8.9201088721560851e+00 -2.6852091137529732e-03 1.3982638786314482e+01 6.9290617044767155e-01 -1.2561409415469186e+01 2.3496190262158789e-01 1.2335698281962053e+01 6.1555906637961300e-01 1.7106802105390524e+00 -3.2887073451299997e+01 7.8558062580947441e+00 3.7353938652893159e-02 -5.0898386050816544e+00 -8.8501837230637398e-02 3.0336793513181559e-01 2.1935381165415215e+00 9.1229520264511921e-03 -2.8804121374616400e+00 -9.6054001891250559e-02 -6.5822111631319515e+00 -1.5741246465373593e-01 -2.2906708407188745e+00 -2.3113293666951204e-01 1.7744812447772140e-01 -3.5504744462178119e+00 -1.5349211157159277e+00 
      </Row>
      <Row Index="31">
        4.7799078834485087e-01 3.5392395355416673e+00 1.5316220479794964e+00 1.3832118647194136e-02 1.5920541400144472e-01 4.6861040863902004e-01 -1.0171182513933896e-01 -5.3496277776228593e+00 4.5485268666171752e-02 1.8414564401630429e+00 -3.9397138238206608e-01 2.6092075660247986e+01 8.7150741961583122e-02 5.7252137191801822e-01 -4.0022802044055609e+01 -3.7146674830499924e+00 -6.5739509846787891e+00 3.4247731078448140e-01 3.6949162522229440e-01 4.9848101386527399e-01 -5.2599251083849206e+00 7.5921553477500126e-02 1.5605978619473021e+01 1.8913953920927790e-01 -1.6428956106987130e+01 9.3471118821103996e-02 -7.5910273831755745e+01 -1.5792289995261544e-01 -5.6558341836606518e-01 1.2273873833167499e+02 -1.7741464156427214e-01 3.3498148563464856e+00 9.8317510018065946e-01 1.7522289856963358e-02 -6.3911351166892327e-01 -4.0881163438846335e-01 -1.2523486488949409e-01 1.8092445039934152e+01 1.1789532654677970e-02 2.4776760414520220e+00 7.0765492964228294e-02 -1.6882002191694441e+00 -7.2878683622884566e-01 -7.9049992016530113e-01 -1.6000815434727706e+01 -6.9127296545598726e-01 1.6098063097543385e+00 4.7008748571647274e-01 2.5262913591644676e-02 -8.9281609233031078e-02 1.7649145116651510e-01 -6.0338837867063955e-02 -6.1840193279078237e+00 5.0112389437916099e-02 -4.3589109784325064e+00 1.3465436202660630e-01 -3.1207238617431852e+00 3.7902742019108364e-02 -4.2544852934488531e-01 -6.1679294479905078e+00 1.4759118298417488e+00 9.7473293476945500e-02 -8.5869975041562652e-01 -4.8189502311222210e-02 -5.5594906476743411e-01 -1.6283026435863606e+00 2.5275830071791411e-01 -3.6884995496747848e+01 -6.6188191052817480e-02 3.9172434767188316e+00 -6.7654429873310771e-03 2.2035207151506178e+01 -4.5848405152105531e-02 -7.3606962131286524e-01 -3.9463273125222770e+01 -2.2080516028962798e+00 -2.6776046062301155e+00 2.2144890838237741e-01 3.2697166328184812e-01 -1.2389524817804975e-01 -5.5183121354802820e+00 1.7677853876899483e-01 -1.1354425269125244e+01 2.3072912755386588e-01 -1.0087727979201336e+01 1.0944714741423117e-01 -4.1039943273105408e+01 -2.7470119873031673e-01 -1.1355760687163812e+00 5.3221423869302598e+01 7.7702286282762900e-01 2.0548877011892888e+00 -4.1471370296206205e+00 -1.3423296092049258e-03 3.2126259095154402e-01 -1.5719884000102202e-01 -4.8782034173029176e-02 1.0742190725748095e+00 1.8396216077139170e-02 -2.4647711746090621e+00 1.3628166060828528e-01 -2.5179598621453692e+01 1.6814484680527744e-01 -1.5383921135442385e-01 -2.1023379072794956e+01 -4.5445340484341568e+00 
      </Row>
      <Row Index="32">
        2.1987302565446498e+00 1.8658607104601685e+00 1.4974228120642920e+01 2.9530105520572647e-01 1.8970128218132629e+00 -4.8483098984767565e+00 -1.3289665334595924e-01 2.8049648854498635e+01 1.5196091549633195e-01 1.0953922682798199e+01 -6.2731998540073164e-01 -5.6591583523747211e+01 -1.9042579640682789e-01 6.5008422617640349e-01 5.6881693223372245e+01 -7.6383718168135557e+00 -4.3939422938975623e+00 1.3377298573124563e+01 -1.2549271585127916e-01 -2.0419070875148480e+00 1.0049966802147591e+01 1.4111941796256295e+00 3.2518965289432010e+01 1.5711292889102757e-01 -2.0267195195267142e+01 9.6042221973549302e-01 1.6940270598780847e+02 9.9867445080726558e-01 -1.4303086835674812e+00 -2.2631155933149762e+02 1.8278497969611205e+00 9.8317510074271297e-01 1.0917573291817689e+01 -7.2177025386807259e-02 -4.7690296665747667e-01 -2.7125879163756346e+00 1.1088681454253901e-02 5.6790376283029058e+00 -3.2266862502609683e-02 3.7701017901653877e+00 2.4857121361969836e-01 -8.3703109576687211e+00 1.9853459862559930e-01 2.2480491538949754e-01 5.1708016524922140e+00 -2.0600864642104932e+00 1.1116355720203950e+00 3.9623021459289589e+00 8.4970185481694216e-03 -5.0869067848704930e-02 -3.8493664922464994e+00 2.0609891691540383e-01 -7.8652819802437051e+01 5.2188792417806981e-02 -2.1474981293959470e+00 1.2319845523995809e-01 -8.2337667680421163e+00 3.2519258003696794e-01 3.0797209990257046e-01 1.2644188546587134e+01 4.3057023266690759e+00 1.0294160561719794e+00 -1.4561359822577472e+01 5.5505997377407112e-01 -1.0641532200109081e+00 -6.9924435967950762e+00 -1.1506895410888225e+00 -2.2510261841042620e+01 -9.3018713579908763e-03 1.6270669828292956e+01 -1.3737001188486125e-02 -6.9411094231504336e+01 -1.6586742121236853e-01 -1.4178104627020022e-01 7.1891785960478941e+01 -2.4153464378230862e+00 -9.7310818297797796e-01 3.5612775285125196e+00 4.0258194073375575e-01 -1.8376008595517965e+00 -7.1035003430663024e-01 3.6594413006493010e-01 6.2880849264678631e+01 2.0485808940352213e-01 -2.2082220508166230e+00 8.0134784358179834e-01 5.4784423267131437e+01 9.4578053764362435e-01 -1.1013907036592474e+00 -1.5771922293613315e+02 2.7469749719169769e+00 8.0778271969999693e-01 -5.3041146468323277e+01 1.0699023643614938e-01 9.2861020548723594e-01 -1.8487501907042958e-01 5.1413311315086752e-02 1.0095374190919841e+00 -1.6728823371771873e-01 -8.1559622965869494e-01 1.5286907874453576e-01 5.3140269863348955e+01 -4.1496643300685115e-02 -1.4764249697966514e-01 4.5778726821635900e+01 -4.4579606412735593e+01 
      </Row>
      <Row Index="33">
        1.3250599050605194e-01 8.3324009423599299e-02 -2.0432848130647052e-01 -1.8598697614817161e-01 1.4591823416721050e-02 7.7807422032592999e-01 2.2254516314190731e-03 -9.0372564842591707e-01 2.3715219841580193e-01 -3.6683419117537919e-02 8.9695835070402907e-02 -1.0248748293867591e+00 -4.1740087861265929e-02 -1.2519199029608052e-01 -2.3597109305212804e-02 4.6762485889534799e-02 -3.6766484192294294e-02 -1.3314079067446105e-01 2.8123370580705503e-01 -8.7748135138941821e-02 -6.3535412768139288e-01 3.5214800478228225e-04 8.5520692138577914e+00 8.0567279560894367e-01 -7.0383125486927556e-01 -8.9489320044667087e-02 4.4458186319421689e-01 5.9057809894120572e-02 2.4473462466981921e-01 -5.6953744598914913e+00 5.3377752990778626e-02 1.7522289775428246e-02 -7.2177024979845683e-02 1.7007518812969261e-01 -7.6287789117265858e-03 1.6504224720483401e-01 2.1916869192860955e-02 -7.8815563466450622e-01 3.4371101547002514e-02 -1.4285330967840967e-01 -3.7276985802627484e-02 -2.9381011255997036e-01 -4.0150371403768759e-04 9.7053362295478757e-02 8.3818235133386806e-02 -2.0845893870314464e-04 -3.4232648335598727e-02 1.8623429005292902e-02 -1.2895072647529537e-02 2.5009838168123244e-03 -1.1724717454927483e-01 -3.1732490793753856e-02 1.7980513203610622e+00 -4.2959406237361893e-03 2.0176587538538537e-01 3.4589903512362019e-03 -3.2456842924304891e-01 -7.4568485646425639e-03 3.8416889440140600e-02 -8.1266284359658802e-01 -6.8923234130007352e-02 -1.2269245212267500e-03 1.9396746222854783e-01 -4.0735156456507127e-01 1.9220163526274713e-02 6.0826803312185296e-01 4.9205346829041437e-02 -3.1861737550737388e+00 1.2568257402089789e-01 3.0112010744140028e-01 -1.2110461832898635e-02 -2.0179461941716356e-01 -5.9288343965820056e-02 6.2986196616178103e-02 2.1177855938092907e+00 2.0261425121425175e-02 -3.6120086006980877e-02 5.0451175816067617e-02 -5.8773248299173603e-02 -5.3671366915097836e-02 3.7197996683920403e-01 2.5934711457731713e-02 -1.7900053020954281e+00 1.1099378103310142e+00 -9.3738306737725541e-02 -8.9479799411858518e-02 2.2992095435076620e-01 -1.5948083047688431e-02 2.5988984400649601e-01 -1.9066779110864078e+00 2.1911885472181147e-06 -5.7020073292800011e-03 4.5613504145014344e-01 -1.3051505426541984e-01 7.4305040006324430e-03 3.9899938640397287e-01 -3.4968380998049858e-03 8.9810022155241809e-02 -1.5893892643980079e-01 1.8807469701333179e-02 -3.9831481868424633e-02 5.5522242254996101e-01 1.4291415718150685e-03 3.1671489160289473e-02 -2.9476894519594815e-01 2.5029067571954294e-01 
      </Row>
      <Row Index="34">
        -4.3418399271227770e-01 -3.8082710781134343e-01 -7.4370699257131889e-01 -7.0231229971648546e-02 -8.0672221760378982e-01 1.0558228477690651e-01 1.5445234665468988e-02 1.5186771769562661e+01 -2.6056270646393154e-02 -2.5476013206797274e+00 -8.3804358720307448e-02 -4.0237396534490539e+00 5.2611735461841391e-02 -7.0179046448054105e-01 8.9333735180113596e+00 2.1735069545235381e+00 1.0534443271995473e+00 -3.5700660193236544e-01 2.4133143827624236e-02 1.0062561739067948e+00 6.2789421418244062e-01 -9.4301423588196265e-02 -2.1658969119767953e+01 -4.3609370924492449e-02 8.8621614526641554e+00 -1.0955129827167094e-01 1.4766831482576382e+01 -2.6244767525376878e-01 2.6532546977748206e-01 -2.6837820068306016e+01 1.8508363737650871e-02 -6.3911351169399655e-01 -4.7690296622843675e-01 -7.6287789274214202e-03 8.3680327964603496e-01 1.1408013752304289e+00 2.5218009708717126e-02 -1.3470038647077891e+01 -3.6262687973103169e-03 -1.7498492754720785e+00 -1.2025260990018469e-01 1.2519088681716006e+00 3.8560413034112262e-01 7.2757205048203966e-01 3.5877884385713217e+00 6.5493701904458590e-01 -3.0420767502522184e-01 -3.5628175683347862e-02 9.7564571716857174e-03 -2.2939451715473025e-01 -6.1531583627822528e-01 4.9898899682479347e-02 1.0186860360718800e+01 -2.8798315844368177e-03 1.9587719526737639e+00 -1.2166059512915606e-02 1.3487417120174361e+00 -3.8247075440632938e-02 1.0549737724053873e-01 -1.0176927139119744e-01 -6.1465024238019117e-01 -4.6178188804391229e-01 9.4693704688754654e-02 -5.3114958309644189e-02 1.0735164232230701e+00 3.2271806563570928e+00 4.1351235864303018e-02 -1.5354178255272252e+01 -4.7490246278075965e-02 -5.2558130699403529e+00 -1.8817891177023016e-01 -2.2519524831633286e+00 -1.1536160026907627e-01 5.7245659441140306e-01 1.0042300736950715e+01 1.3604223542351566e+00 1.2552285621936729e-01 -4.1532988848877128e-01 -3.8220510917804568e-02 1.2980777987237675e+00 3.1085814951057085e+00 -8.4606720893164733e-03 -3.3301121367705164e+01 -9.2701321720966012e-02 2.6523662473231973e+00 -2.8601426365646859e-01 1.0600346842516744e+01 -2.4193859627026121e-01 8.6561869244360035e-01 -7.7628720069274362e+00 -4.3541017201666810e-01 -3.5872004680827607e-01 2.0673389220584313e+00 -6.4466142498473249e-03 -6.2385284818122111e-01 7.5392173130809792e-01 2.8844034708598643e-02 -4.0160458234398178e-02 1.2085582870069701e-02 6.0638422521764745e-01 3.8300833279265617e-02 4.3982692662749088e+00 -9.2286516846852934e-02 1.8041804596118904e-01 2.7841386468031972e+00 1.7045665230029703e+00 
      </Row>
      <Row Index="35">
