<?xml version="1.0"?>
<MethodSetup Method="MLP::MLPTuned">
  <GeneralInfo>
    <Info name="TMVA Release" value="4.1.2 [262402]"/>
    <Info name="ROOT Release" value="5.32/00 [335872]"/>
    <Info name="Creator" value="ineuteli"/>
    <Info name="Date" value="Thu Nov 19 13:09:45 2015"/>
    <Info name="Host" value="Linux cmsdev02.cern.ch 2.6.32-431.11.2.el6.x86_64 #1 SMP Wed Mar 26 09:39:43 CET 2014 x86_64 x86_64 x86_64 GNU/Linux"/>
    <Info name="Dir" value="/shome/ineuteli/phase2/CMSSW_5_3_24/src/Delphes/plots"/>
    <Info name="Training events" value="31170"/>
    <Info name="TrainingTime" value="4.47192717e+02"/>
    <Info name="AnalysisType" value="Classification"/>
  </GeneralInfo>
  <Options>
    <Option name="NCycles" modified="No">500</Option>
    <Option name="HiddenLayers" modified="Yes">N+10</Option>
    <Option name="NeuronType" modified="Yes">tanh</Option>
    <Option name="RandomSeed" modified="No">1</Option>
    <Option name="EstimatorType" modified="No">MSE</Option>
    <Option name="NeuronInputType" modified="No">sum</Option>
    <Option name="V" modified="Yes">False</Option>
    <Option name="VerbosityLevel" modified="No">Default</Option>
    <Option name="VarTransform" modified="Yes">N</Option>
    <Option name="H" modified="Yes">False</Option>
    <Option name="CreateMVAPdfs" modified="No">False</Option>
    <Option name="IgnoreNegWeightsInTraining" modified="No">False</Option>
    <Option name="TrainingMethod" modified="No">BP</Option>
    <Option name="LearningRate" modified="No">2.000000e-02</Option>
    <Option name="DecayRate" modified="No">1.000000e-02</Option>
    <Option name="TestRate" modified="No">10</Option>
    <Option name="EpochMonitoring" modified="No">False</Option>
    <Option name="Sampling" modified="No">1.000000e+00</Option>
    <Option name="SamplingEpoch" modified="No">1.000000e+00</Option>
    <Option name="SamplingImportance" modified="No">1.000000e+00</Option>
    <Option name="SamplingTraining" modified="No">True</Option>
    <Option name="SamplingTesting" modified="No">False</Option>
    <Option name="ResetStep" modified="No">50</Option>
    <Option name="Tau" modified="No">3.000000e+00</Option>
    <Option name="BPMode" modified="No">sequential</Option>
    <Option name="BatchSize" modified="No">-1</Option>
    <Option name="ConvergenceImprove" modified="No">1.000000e-30</Option>
    <Option name="ConvergenceTests" modified="No">-1</Option>
    <Option name="UseRegulator" modified="Yes">True</Option>
    <Option name="UpdateLimit" modified="No">10000</Option>
    <Option name="CalculateErrors" modified="No">False</Option>
    <Option name="WeightRange" modified="No">1.000000e+00</Option>
  </Options>
  <Variables NVar="7">
    <Variable VarIndex="0" Expression="bjet1Pt" Label="bjet1Pt" Title="bjet1Pt" Unit="" Internal="bjet1Pt" Type="F" Min="2.25726528e+01" Max="9.48211182e+02"/>
    <Variable VarIndex="1" Expression="jet1Pt" Label="jet1Pt" Title="jet1Pt" Unit="" Internal="jet1Pt" Type="F" Min="2.00105839e+01" Max="1.14150659e+03"/>
    <Variable VarIndex="2" Expression="DeltaR_b1l" Label="DeltaR_b1l" Title="DeltaR_b1l" Unit="" Internal="DeltaR_b1l" Type="F" Min="3.22578669e-01" Max="4.48389149e+00"/>
    <Variable VarIndex="3" Expression="DeltaR_b2l" Label="DeltaR_b2l" Title="DeltaR_b2l" Unit="" Internal="DeltaR_b2l" Type="F" Min="5.60641825e-01" Max="1.51138464e+03"/>
    <Variable VarIndex="4" Expression="M_bb_closest" Label="M_bb_closest" Title="M_bb_closest" Unit="" Internal="M_bb_closest" Type="F" Min="1.18016901e+01" Max="2.38172803e+03"/>
    <Variable VarIndex="5" Expression="DeltaR_j1l" Label="DeltaR_j1l" Title="DeltaR_j1l" Unit="" Internal="DeltaR_j1l" Type="F" Min="2.84361333e-01" Max="5.96390295e+00"/>
    <Variable VarIndex="6" Expression="DeltaR_j2l" Label="DeltaR_j2l" Title="DeltaR_j2l" Unit="" Internal="DeltaR_j2l" Type="F" Min="4.29002255e-01" Max="4.57230957e+02"/>
  </Variables>
  <Spectators NSpec="0"/>
  <Classes NClass="2">
    <Class Name="Signal" Index="0"/>
    <Class Name="Background" Index="1"/>
  </Classes>
  <Transformations NTransformations="1">
    <Transform Name="Normalize">
      <Selection>
        <Input NInputs="7">
          <Input Type="Variable" Label="bjet1Pt" Expression="bjet1Pt"/>
          <Input Type="Variable" Label="jet1Pt" Expression="jet1Pt"/>
          <Input Type="Variable" Label="DeltaR_b1l" Expression="DeltaR_b1l"/>
          <Input Type="Variable" Label="DeltaR_b2l" Expression="DeltaR_b2l"/>
          <Input Type="Variable" Label="M_bb_closest" Expression="M_bb_closest"/>
          <Input Type="Variable" Label="DeltaR_j1l" Expression="DeltaR_j1l"/>
          <Input Type="Variable" Label="DeltaR_j2l" Expression="DeltaR_j2l"/>
        </Input>
        <Output NOutputs="7">
          <Output Type="Variable" Label="bjet1Pt" Expression="bjet1Pt"/>
          <Output Type="Variable" Label="jet1Pt" Expression="jet1Pt"/>
          <Output Type="Variable" Label="DeltaR_b1l" Expression="DeltaR_b1l"/>
          <Output Type="Variable" Label="DeltaR_b2l" Expression="DeltaR_b2l"/>
          <Output Type="Variable" Label="M_bb_closest" Expression="M_bb_closest"/>
          <Output Type="Variable" Label="DeltaR_j1l" Expression="DeltaR_j1l"/>
          <Output Type="Variable" Label="DeltaR_j2l" Expression="DeltaR_j2l"/>
        </Output>
      </Selection>
      <Class ClassIndex="0">
        <Ranges>
          <Range Index="0" Min="2.2572652816772461e+01" Max="8.2526812744140625e+02"/>
          <Range Index="1" Min="2.0010583877563477e+01" Max="7.2419335937500000e+02"/>
          <Range Index="2" Min="3.5356962680816650e-01" Max="4.3949065208435059e+00"/>
          <Range Index="3" Min="6.3454002141952515e-01" Max="1.5113846435546875e+03"/>
          <Range Index="4" Min="1.3509715080261230e+01" Max="1.8837241210937500e+03"/>
          <Range Index="5" Min="2.8436133265495300e-01" Max="5.9639029502868652e+00"/>
          <Range Index="6" Min="4.2900225520133972e-01" Max="4.5723095703125000e+02"/>
        </Ranges>
      </Class>
      <Class ClassIndex="1">
        <Ranges>
          <Range Index="0" Min="2.8716081619262695e+01" Max="9.4821118164062500e+02"/>
          <Range Index="1" Min="2.0061336517333984e+01" Max="1.1415065917968750e+03"/>
          <Range Index="2" Min="3.2257866859436035e-01" Max="4.4838914871215820e+00"/>
          <Range Index="3" Min="5.6064182519912720e-01" Max="7.9937988281250000e+02"/>
          <Range Index="4" Min="1.1801690101623535e+01" Max="2.3817280273437500e+03"/>
          <Range Index="5" Min="3.1516379117965698e-01" Max="5.0274786949157715e+00"/>
          <Range Index="6" Min="4.5582532882690430e-01" Max="4.1944396972656250e+02"/>
        </Ranges>
      </Class>
      <Class ClassIndex="2">
        <Ranges>
          <Range Index="0" Min="2.2572652816772461e+01" Max="9.4821118164062500e+02"/>
          <Range Index="1" Min="2.0010583877563477e+01" Max="1.1415065917968750e+03"/>
          <Range Index="2" Min="3.2257866859436035e-01" Max="4.4838914871215820e+00"/>
          <Range Index="3" Min="5.6064182519912720e-01" Max="1.5113846435546875e+03"/>
          <Range Index="4" Min="1.1801690101623535e+01" Max="2.3817280273437500e+03"/>
          <Range Index="5" Min="2.8436133265495300e-01" Max="5.9639029502868652e+00"/>
          <Range Index="6" Min="4.2900225520133972e-01" Max="4.5723095703125000e+02"/>
        </Ranges>
      </Class>
    </Transform>
  </Transformations>
  <MVAPdfs/>
  <Weights>
    <Layout NLayers="3">
      <Layer Index="0" NNeurons="8">
        <Neuron NSynapses="17">
          -6.3188388378707550e-01 2.5919095394587544e+00 4.4989607020624645e-01 3.8458776115993061e+00 -2.0270678895681362e+00 -1.1577208677319275e+00 -6.4083188101169530e-01 7.2441786206021053e-01 -4.9919802250967416e-01 -6.3326733284077030e-01 -1.6073394143841624e+00 1.1132484149532453e-01 -1.8254963325050049e+00 -6.6018807788763445e-01 -2.6681873076378184e+00 8.0763174695735684e-01 -1.2702557793886540e+00 
        </Neuron>
        <Neuron NSynapses="17">
          1.2436647434200188e+00 9.4770245226347183e-01 6.9446639017025480e-01 -1.4814002575575809e+00 -8.3685744417900054e-01 5.9381022884028845e-01 6.0703762175553522e-01 -3.4011442854945497e+00 1.1994476837928607e+00 1.7095851767404437e+00 -7.4229407087503230e-01 -1.2863700913958092e+00 -2.9461385079201763e-01 2.4153386279062099e-02 1.9182760531071741e-01 1.0960970842266315e-01 -6.5080174653129530e-01 
        </Neuron>
        <Neuron NSynapses="17">
          6.8105211808516974e-01 2.9734708345181293e-01 1.2528719092683184e-03 1.1664643410351203e+00 -1.1522722777257388e+00 1.5175617335037017e-01 1.5751138819979743e-01 -1.7525883240123604e-02 3.2479241454955239e+00 3.7051771314797623e-02 -1.1758241597041694e+00 2.7350002551866818e-02 2.3684182225496686e+00 -6.0571126734752491e-02 8.7230782725475653e-01 -5.2257026047772819e-02 1.2790862741510860e+00 
        </Neuron>
        <Neuron NSynapses="17">
          1.7264797755329613e+00 -1.9951760862378629e+00 1.3770557001128390e+00 -1.8708996705796757e+00 -8.6693218003961348e-01 -7.1891154918601585e-01 -1.3203458376739392e+00 1.1958131453882859e+00 1.3311375314394800e+00 -1.3275957126664093e+00 1.1424269547714492e+00 1.0790965584640110e-01 -4.0520408877262154e-01 9.7499850669668953e-01 4.6085247750430253e-01 4.0362461674891820e-01 -1.3338305191335964e+00 
        </Neuron>
        <Neuron NSynapses="17">
          5.6050219861475958e-01 -1.7080766426447473e+00 -1.0087048403821794e+00 -9.0661949482325142e+00 6.7686949825211384e-01 1.9983071831402486e+00 2.2464131967844252e+00 -5.9241473060155292e-01 -3.3844591594449578e+00 -1.3224183243608736e+00 5.6085776517157271e-01 8.9421644699276215e-01 5.0117799190292445e+00 1.6961858489330955e-03 -1.0587075649106050e+00 -7.7062755428829555e-01 -6.6968035994838027e-01 
        </Neuron>
        <Neuron NSynapses="17">
          -3.4415790573877436e-01 -5.9615742093575774e-01 -1.5622715314106858e-01 -8.5840051286840091e-01 -1.6983460262992494e+00 1.6060462497197583e-01 8.0375477461276101e-02 7.5292580933273623e-01 5.5861553549112197e-01 -1.2369818877714802e+00 3.8514225069063124e+00 -1.2436189411261485e+00 -1.6116319055089032e-01 -3.4225638298396294e-01 -3.9565024034208818e-01 -1.8419487574011686e-01 -1.0468359511768928e+00 
        </Neuron>
        <Neuron NSynapses="17">
          4.1502421084434576e-01 9.4180098719764604e-01 -8.9615122466605968e-01 4.8127283412186621e+00 -1.0214072848733968e+00 -4.4153266319877366e-01 -1.2531547194817838e-01 1.8447669697959998e-01 -8.3255011323412353e-01 7.4852942860830191e-02 -6.1579579269849716e-01 8.2709617137779423e-01 -3.3715738267456024e+00 1.1226749302286900e+00 1.0994007858019892e+00 -5.4247822432501103e-01 5.4901280235502070e-01 
        </Neuron>
        <Neuron NSynapses="17">
          -7.9398129021530339e-01 -1.1243748410747947e+00 -9.0656148965058511e-02 -3.5835728623013514e+00 1.8742720077587973e+00 4.6775619244307232e-01 4.6236416498474331e-01 -4.1357217024835602e-01 -6.5732585097885143e-01 -1.7984574647030704e+00 2.1215553757952108e+00 -1.7012313322054348e-01 8.5001552328402841e-02 1.3396739572394796e+00 -2.2873985408413064e+00 -3.4525726768163262e-01 1.4392874404247527e+00 
        </Neuron>
      </Layer>
      <Layer Index="1" NNeurons="18">
        <Neuron NSynapses="1">
          1.9501736209951690e+00 
        </Neuron>
        <Neuron NSynapses="1">
          -4.2808513609765458e-01 
        </Neuron>
        <Neuron NSynapses="1">
          -2.5616189729308964e-01 
        </Neuron>
        <Neuron NSynapses="1">
          4.3135339375292747e-01 
        </Neuron>
        <Neuron NSynapses="1">
          1.4947047994687852e+00 
        </Neuron>
        <Neuron NSynapses="1">
          1.2502943547343986e-01 
        </Neuron>
        <Neuron NSynapses="1">
          -1.3815839348525211e-01 
        </Neuron>
        <Neuron NSynapses="1">
          -4.5703961961535994e-01 
        </Neuron>
        <Neuron NSynapses="1">
          2.6070868407022746e-01 
        </Neuron>
        <Neuron NSynapses="1">
          -4.2092704334260489e-01 
        </Neuron>
        <Neuron NSynapses="1">
          -2.5712877082358548e-01 
        </Neuron>
        <Neuron NSynapses="1">
          3.9450735228506012e-01 
        </Neuron>
        <Neuron NSynapses="1">
          -3.2359798735153289e-01 
        </Neuron>
        <Neuron NSynapses="1">
          5.0726500347947678e-02 
        </Neuron>
        <Neuron NSynapses="1">
          -5.3973415377869216e-01 
        </Neuron>
        <Neuron NSynapses="1">
          -1.9013240064874531e-01 
        </Neuron>
        <Neuron NSynapses="1">
          1.3289684366280550e+00 
        </Neuron>
        <Neuron NSynapses="1">
          -6.4725331352585302e-01 
        </Neuron>
      </Layer>
      <Layer Index="2" NNeurons="1">
        <Neuron NSynapses="0"/>
      </Layer>
    </Layout>
    <InverseHessian NElements="23716" NRows="154" NCols="154">
      <Row Index="0">
        1.0887124318709548e+03 -3.0423920872940884e+00 -6.2279377906653998e+01 -3.7686730593412765e+00 1.3603221525008166e+03 1.5343663198273779e+02 -2.0552440756800186e+02 2.5385452758814320e+00 1.3901910234089772e+00 -3.2514856964678152e+00 1.3459893400151748e+00 9.5503038881490143e-01 -2.5154545301560507e+00 4.3337607944464935e+01 6.0053151874954391e+00 1.3572288296261314e+02 -1.1274941008222907e+01 -4.8449156799596199e+02 -2.1036931252400102e+00 -3.8523772437470804e+01 1.2039671972612933e+00 -4.4391975981340084e+02 9.4208353476651894e+01 5.6450323306705037e+01 4.9146331594242980e+00 3.3085614287883325e+00 9.3603127493851908e+00 -3.4185295746133080e+00 -5.5922759055367308e+00 3.5898407608458582e-01 -1.4467414777442968e+02 2.2708353460628308e-01 -2.2274775351559296e+02 -6.2762381251845163e+00 -3.7395279503015587e+02 -2.8293294381195944e+00 2.2703630421574232e+01 -1.6547510359722393e+00 -2.4680926632267085e+02 -1.3183775807124629e+01 3.5852965723539583e+01 -1.6493248601947146e+00 8.0565648998992945e-01 -4.4615284854757116e+00 -1.2044881052634113e+00 1.9296304914495477e+00 2.3726601047753757e+00 -1.8960966924882419e+02 2.2054509234783231e-02 -7.0542403253941131e+01 -1.5324553802371586e+01 -4.2174474845520149e+02 -4.0449344703157237e+01 -1.0060522473135154e+02 1.1943605203050409e+00 2.2429306735092105e+03 -1.6671375704013707e+02 -2.7337292619052204e+02 7.8522197952886728e+01 -3.9169336814387421e+01 1.5615440481166079e+01 -4.2421349765521574e+00 -1.4671048255590520e+01 -7.1923160954193236e+01 -5.9409197033633086e+02 5.6087234765260419e+01 -5.5233600443872547e+02 -5.1824714862096162e+03 -1.7347762161189362e+03 -6.0074021493520959e+00 1.1483574971569143e+02 8.0608198975430181e+00 1.3532409437318061e+03 4.7072178583552943e+02 -1.2771411293275087e+01 -5.2287400078256292e+00 -2.7681697100631770e+00 -6.8942137615694952e+00 1.4155830351060295e+00 6.3072528672117754e+00 6.2957001465663307e+00 -4.1392077780503831e+02 -2.0354263557882160e+01 -5.0343890269654779e+01 1.3108261415922996e+01 5.3069513019648568e+01 3.3222050491987365e+00 -2.1553332341879020e+01 1.3491792996923027e+00 1.1181240706619292e+03 -2.7653330314265990e+01 -8.4983178095237832e+00 -3.3328681481195310e-01 1.1134164772821312e-01 -1.0810157531890461e+01 3.8456669629453213e+00 -7.2564640720449525e+00 2.3436286158296996e-01 -4.5888843871173503e+02 -3.5682067026147346e-01 1.1356020183700871e+02 -4.2883741224537864e+01 -4.0454684510465557e+02 1.4195316078423089e+01 7.2087459978605168e+01 -1.2262583268392405e+01 -1.2792199688596359e+03 -1.0713950934607158e+02 -2.0057808125406578e+02 -2.2847556676343668e+01 3.7801017392160162e+01 -9.3140187011106015e+00 2.3998400971278500e+00 -3.4178503123590971e+01 7.4247446046317123e-01 7.5820220920037002e+02 -8.5433802926660505e+00 1.2483636440809016e+02 2.7093051086832647e+03 -1.5925244070995650e+03 -3.2207084561489779e+01 9.2737631345367362e+00 -5.4271398044097765e+00 1.9076275248643606e+03 1.7895248252136449e+02 -4.7366224259168405e+02 5.5203071613099979e+01 2.6229269476918793e-01 -1.3852251389994947e+00 5.0936473852333108e-01 -5.0240450118771548e+01 -6.6007347812286596e+01 -6.0619435068015446e+02 3.4167624994773178e+01 -5.2782359894202898e+02 -2.4835249945369742e+03 1.5142226709502572e+03 -2.6688065283318565e+00 -3.9732307822102115e+01 1.1232494045726811e+00 3.9666489651696708e+02 4.1860632956703959e+01 -8.9085523508463027e+01 -1.3856853908064650e+00 -2.0857619519292564e-01 5.9564546667707861e+00 3.6716954693668802e-01 -6.3888898539256012e+00 1.0220115447633260e+00 -6.7571054333271476e+01 1.5100374220538182e+00 -7.8273758467536894e+01 5.8421624267069198e+01 1.0333244501379847e+03 
      </Row>
      <Row Index="1">
        -3.0423923204955412e+00 1.7386330186614629e+01 1.8988545372482196e+01 -1.3677404280069200e-01 5.8551472778436917e+00 -3.4450351520153880e+01 2.0375471157109263e+01 1.5164039864233689e-02 -6.4219920867635294e-01 -2.6917617035911117e+00 -5.3310983581296344e-02 2.1037719516112543e+00 -5.0840871609615379e-01 -7.6838463733199532e+01 3.5219990778379517e-01 4.2640199268078732e+01 2.4203760932960430e+00 -2.7011964775420914e+01 4.8454950339120400e+00 1.2946401154808078e+00 -2.0655703130473935e-01 -1.2120990010522527e+02 2.1019160754354971e+01 1.4616494229812261e+01 5.1769703694756375e-01 -1.4046879591376762e-02 1.9849134167045082e+00 -3.2570776300676268e-01 2.9906145446201027e-01 1.0893738727604824e-01 -4.6227368368102518e+01 -1.8086780910589009e-01 1.2563423193069317e+01 5.4540426213445947e+00 -2.4320445361892130e+01 2.5279241049868308e+00 6.9810643003631014e+00 6.2431455467508556e-02 -4.7918424070798210e+01 4.5280125779383669e+00 4.2235228625730743e+00 2.0671462210254975e-02 -6.9457283450841512e-02 1.1807116995758804e-01 -2.6476642915139831e-01 -2.6637890419683841e-02 9.8585176880718661e-01 3.5027404961844837e+01 -7.1237344564499372e-01 8.4269318080958406e+00 -9.4808114290567662e+00 -7.3924947537960204e+00 -4.4926524221266774e+01 -3.4070289359451827e+01 1.0965297958048965e+00 1.0446680301205394e+01 -2.1455941014090659e+01 -4.7412336795689299e+01 2.4656995306192315e+00 -3.8666694572406071e+00 -2.7155472819168009e+00 -3.6261429823332878e+00 6.9277662890253922e-01 -5.1712969175382639e-01 1.5281479778815159e+02 2.7060964754983656e+00 6.6400414254593070e+00 -4.0018384455318213e+01 8.9050751944074591e-01 -9.5809122744888207e+00 8.9267303799025244e-01 -2.4021216791472755e-01 7.0936862792225384e+01 4.0559964742574159e+00 3.2387146146562941e+01 -2.6725823879188670e-01 4.7593592494037934e-01 -4.0667770841577749e-01 3.8348580721468117e-01 -1.0593066276789105e+00 2.4053091771762887e+00 1.2506697596886437e+02 -1.1438794047713143e+00 -1.9376258700381467e+01 1.0854647719507552e+01 -8.7944177319684407e+00 -3.4551003857261029e+00 4.3270584894675856e+00 9.1638969991172742e-02 -2.4307068248330651e+01 -5.8912806086123490e+00 -6.1777429134177204e+00 -2.3834417255587242e-01 -2.0764591594090712e-01 -1.8996063749311320e+00 1.9910704886107591e+00 -1.2525445044605146e+00 -1.1493380709349882e-02 -8.7144986485316700e+00 -3.2521741025243178e-01 -2.8332772999309931e+01 5.0242237300843726e+00 4.0434172990728833e+01 2.0550318956389443e+01 1.2084707230458958e+01 -2.1826723093497464e+00 -1.7732457214647246e+02 9.5790868053817739e+00 -5.6545931453738660e+01 4.0078743952561187e+00 3.8408286059709829e-01 6.4428100471679546e+00 4.9014369986169495e+00 -1.8317588801233149e+00 -3.9930358143959310e+00 -9.3652923442016615e+01 -3.2283963640238547e+00 -5.1026653642306048e+00 1.0953020554052472e+02 4.2436606999477746e+01 -2.2977682009872666e+01 6.7164102113272381e+00 -1.4246583910577710e+00 -1.1805019626766421e+02 -9.2224560093153070e+00 -6.7558324849263883e+01 6.4058068799988686e+00 -3.6423279681326264e+00 2.1375935466000917e+00 2.6887069780267767e+00 -1.4398823974070849e+00 -2.3139628563092089e+00 7.9626564401905640e+01 -1.4458916614875168e+00 -3.3797690040338559e+01 5.8234982216538782e+01 -3.7107539130206475e+00 7.0909764047459598e+00 -2.0154834914538822e+00 -2.4867330121597007e-02 2.2321092670060537e+01 -1.7769668171714990e+01 1.6694533609046459e+01 -9.5164955653842809e-02 2.6521075564040254e-02 1.7667613019713035e+00 2.5050520368086238e-01 -3.3067292742219634e-01 2.9998092245230207e-01 -2.8249690595211518e+00 2.4785025416763162e-01 3.9938858091864153e+00 -1.3720417261072690e+01 -1.4903468023082244e+01 
      </Row>
      <Row Index="2">
        -6.2279377864239301e+01 1.8988545547260696e+01 1.8589089311663588e+02 -3.0172016684525831e+00 8.0319506328225305e+02 -2.7724577330561084e+02 2.4353403411676206e+02 2.9570819537169863e+00 -1.5285899409065469e+00 -5.1363073633527323e+00 -2.2804663742208997e-01 9.3397833519571538e+00 7.0220872672812762e-01 -5.3235369390065017e+01 5.7362639197928971e+00 1.0188028659298027e+01 -2.2779162606468937e+01 1.8000167689799174e+01 1.7919221881609890e+00 -6.7314936865741075e+01 1.7044723837490072e+00 -7.7061037575738396e+01 -4.3264122331985256e+01 -1.5346696360796397e+01 -5.2467916971374109e+00 1.7544651798109653e-01 -3.3550740181834748e+00 -1.5405756346823432e+00 4.6164391799074327e+00 1.1212025444625379e-01 -4.1284874388292531e+02 4.1706370133795296e+00 -9.3981047193776561e+01 8.9037688245105304e+00 -1.1285479865807252e+01 3.0002623786567675e+00 -6.2311915433812626e+00 -4.9534334459462070e-01 9.1921455115173012e+02 -3.9322257664114053e+00 5.9608845747633916e+00 -3.5872653767235647e-02 1.3297379866967189e+00 4.8357650295986288e-01 1.9622384863848302e-01 1.3369719017425901e+00 3.2861970282385508e-02 5.6625825233252876e+00 -2.2305823181913778e+00 2.5236309647997057e+00 -2.8331042983458654e+00 -2.0676287574922839e+01 -7.1999807032692118e+01 -9.2330508535122362e+01 1.5804069102318761e+00 1.5266438799532017e+02 1.8897391232197378e+02 -2.1967905139701259e+02 2.3568508729505022e-01 7.7531861762855465e+00 -3.3915703591676349e+00 -3.2589217372908110e+00 -2.7708570140736946e+00 1.5442173167481073e+01 -1.3041156149606263e+02 7.5248915828857799e+00 -2.3040258808943855e+02 2.2391718152732631e+02 1.9972760129845014e+01 1.6962833487004514e-01 -6.0475098200945069e+01 5.0035719415358733e+00 1.5015778467356054e+02 -1.7159893653887792e+02 4.2118602003597140e+01 -3.1428198959885165e+00 1.2391763923667574e+00 -9.4491199790133251e-01 4.4475599851103276e-02 3.2062507466984909e+00 3.7951810799811763e+00 1.8548637382109524e+02 -3.3603150487968119e+00 3.4997510836916909e+01 2.0486512855778372e+01 2.4067141321221591e+01 -5.7873554620032337e+00 -1.7857809733782339e+01 7.3861778376438414e-01 2.3726177036685448e+02 2.3146965491771699e+01 -4.7801897895152770e+01 2.8258867636868494e+00 1.7641092818611326e-01 -1.4573738530336668e+00 1.8312142836336465e+00 -1.6922240455790449e+00 -1.6567856339297127e-01 -2.2023633532332781e+02 5.3158978231651544e-01 -4.2728725375846778e+01 2.0105991860243126e+01 3.0958890441232739e+01 1.3355790478989967e+01 2.2009525776572385e+01 -6.6453741427514732e+00 2.1799457119191339e+02 -1.4048162516867052e+02 1.3840720838128195e+02 6.8029857746880236e+00 1.5881155793116228e+00 6.1578200916230257e+00 -3.3679842075180435e+00 4.2571371000377461e+01 -6.9358649937254793e+00 3.6119282789588658e+02 -2.8348461104317924e+00 5.9350333696457980e+01 6.6024649713581584e+02 -1.2902204238472841e+01 -5.0503505627588048e+01 -4.4640766062608165e+01 -1.0772514634095707e+00 1.6384094357624485e+02 -1.3652252381830141e+02 -2.1087842633751173e+00 4.6294237418654980e+00 9.6717108376671703e+00 -6.1659664779293220e+00 -6.4125718509890817e+00 5.3078928885492353e+01 1.2378847635409695e+01 -1.1601900743541054e+02 1.0196713719293832e+01 -7.8110321570376286e+01 7.3332757712738112e+02 1.5690950311917382e+02 8.6707103749785368e+00 -3.6681873188389375e+01 5.1307708367244143e-01 2.5985268699259751e+02 -1.0823313529859500e+02 1.1206529088450139e+02 1.7097394574213993e+00 -1.7393226799646322e-01 1.6557960426713809e+00 1.3623794624808738e-01 -1.5753483308729481e+00 1.5904651968293870e-01 -1.4599955228526563e+01 -1.7046004921167750e+00 5.6921302983266898e+01 -4.0759021885392252e+02 3.2009199177067580e+02 
      </Row>
      <Row Index="3">
        -3.7686729972629807e+00 -1.3677403699334420e-01 -3.0172016462956623e+00 2.0506560549036359e+00 -4.2884892263185755e+01 3.1229340060583848e+00 -4.4164068489951340e+00 -7.0361903459043987e-02 3.4641154348777459e-01 5.3022634328218354e-02 -1.6111577748902869e-01 -1.8718758479776360e-01 -6.4355083100738425e-02 1.1453224069055093e+01 -6.0643452822209662e-02 5.0069487330248439e+00 -2.7384792129040756e+00 4.0810322598886328e+00 4.5018328101098792e-02 -9.2020770548364450e-01 -7.5471680396692986e-01 -8.6884602702103564e+00 3.4853107126366140e-01 -3.9461053212148561e-01 1.7522317562560424e-01 -2.2950819244780349e-01 -1.9493928376691885e-01 1.1770284861601428e-01 -1.1517515778482373e-01 9.1892917025950233e-02 4.2848363854020799e-01 -2.3745254235265148e-01 1.6645912242174525e+00 -1.5362355827837835e+00 4.1327782754374329e+00 -1.5760606354423293e-02 3.0034368520198185e-01 4.3639532039131601e-01 -2.6679123863754739e+01 4.9107494951660300e+00 -2.9771363985547372e-01 2.9822242733996248e-02 -2.3703259303664687e-01 -2.1012236101426662e-02 -3.8274512911146141e-04 -5.9314178328585432e-02 6.1502703136972980e-02 7.3563535923683843e-01 6.2563055519051503e-02 9.3103176929346909e-01 3.6351735146882409e+00 2.2036441340196316e+00 -4.4280588567645029e-01 -2.9191931418748087e+00 -1.1071588365062737e+00 -5.7607828573758759e+00 -7.4005772628458626e+00 3.7841919942624913e+00 -1.5694046962405489e-01 1.1062544216717551e-01 9.7773724684306923e-02 -1.4658387681429333e-01 -9.2351266544480337e-03 8.3656009155515534e-02 -7.1319558570018913e+00 -8.2687653051361043e-01 9.5997333151507611e+00 -5.5212957107264558e+00 1.8493922585719069e+01 1.6397088602788146e-01 4.3315196747838156e+00 -4.3024294871855773e+00 -6.9480856094815602e+00 -6.5825315865918110e-02 4.8274791388417739e+00 1.4305257505583213e-01 -2.9526945216886702e-01 4.1598532621475504e-01 7.4217886293890700e-02 4.0333100901998703e-01 -2.0656458434600022e-01 1.5804696141695445e+00 -2.0366240664502133e-01 -4.5197934851284103e+00 -1.9725245112763634e+00 2.0331626817933621e+00 -8.1734022077234236e-02 4.6746113353658447e-01 -3.6918553522659436e-01 -1.5694753554114435e+01 -2.9447671364950927e+00 1.1293613974503514e-02 5.0712246782498287e-03 -1.0503847545715118e-01 1.4306787764187950e-01 -2.6162285558157028e-01 -3.0529885652590399e-01 1.8350929253216033e-02 9.7258449609659863e+00 -4.4851814090745956e-02 -2.9361075751472141e+00 -1.6587993688618266e+00 2.8127315836881328e+00 3.4491310827560479e-01 -4.1376308263525585e-01 3.0093451141536312e+00 -1.2146363330438305e+01 4.8148259780810339e+00 -5.5956773615488178e+00 2.0852564054849723e-01 -7.6689757960604243e-01 -1.1148818556912721e-01 -5.9500383333124907e-01 -1.7571171679363311e+00 -8.7027453067646687e-01 -3.4260876928369363e+01 -3.3000706037500482e-01 1.8459136037238049e+00 -3.0167689879875766e+01 2.2931978610569079e+01 -1.6841627764268657e-01 -4.6735679590222856e-01 -1.0426103581666863e+00 -1.2587634976154163e+01 -1.5214368036131143e+00 1.0701427837200819e+00 2.3366438568845060e-01 -9.5532871446243295e-01 2.7944415952425850e-01 -8.9799216503437229e-01 -1.8474212113371085e+00 -9.2611387495305098e-01 -2.1479813203762962e+01 -1.5946966988611437e+00 8.4669931109906429e+00 -4.1413871491398545e+01 -1.6319563850252788e+01 -3.5419424123543708e-02 -9.7891251359541653e-01 -3.4879266102294043e-01 5.3597597769086214e+00 9.8323098817690913e-01 -8.7386339150817316e-01 -5.0034705740184107e-02 4.3014346654348265e-02 -1.4231190497299545e-01 -3.1398629945075085e-02 -2.1088783742534375e-01 2.1197607445219858e-03 2.2537398847307841e+00 7.4229995993709177e-02 2.2031329553951369e+00 -2.2623291878270496e+01 7.4185597424842498e-01 
      </Row>
      <Row Index="4">
        1.3603221552514867e+03 5.8551460975453349e+00 8.0319506591265849e+02 -4.2884892189727942e+01 1.8069069633283434e+05 -7.9981106727293081e+02 7.0611703437436563e+02 2.1919032756132486e+00 -1.9444559337551134e+01 5.2335221150176565e+01 2.7108282006773443e+01 -8.3214781207785045e+00 3.2764272745747700e+00 -4.6737245403593306e+03 3.1010559654948242e+01 -9.0825346293898747e+02 9.2276019284475478e+02 -2.6365734041013225e+03 -2.6954032176154730e+01 1.0441376460793072e+03 1.9428458498447982e+00 7.1851580502724959e+04 1.1630332093105724e+02 2.4658051642580506e+02 4.3545644035986754e+01 -3.3525626600289527e+01 7.2599348755679344e+01 2.0618081939285418e+01 -3.8071334270366791e+01 1.6862073654744229e+01 -5.5246921230627522e+03 1.3489883009231878e+02 -5.9976656674713377e+02 3.7683878628702200e+02 -1.6724487888238546e+03 1.8086883890788087e+01 -6.1792248896970548e+01 -1.9941151663113605e+01 1.6788334445537720e+05 -3.8696690717971023e+02 -2.2116374854107875e+02 1.9121892258980502e+00 -4.3489365740346599e+01 5.2663941065136166e+00 -3.3154915177794821e+00 -3.4270950768100015e+01 5.6545699349060392e+00 -3.2405475832612728e+03 -4.0832935499407540e+01 -5.7185501538814628e+02 -1.4185135474537191e+02 -1.8095312048615249e+03 -6.3327877718748209e+02 5.2130344115511070e+02 -1.3999529296239899e+01 -4.0398814616500399e+03 3.2942106875468389e+03 -1.2943302081697138e+03 2.8031140812958415e+02 -7.2623665638528109e+01 1.8429049021269881e+02 3.3935578058818634e+00 -1.2715842306949327e+02 -2.8686698138967415e+02 9.1254989676608329e+03 8.9276141399313502e-01 4.3484471951636115e+03 1.3810671339252534e+04 -4.4432511564221822e+03 -2.6724709892288388e+01 -8.8099942420536286e+02 7.9557061504201215e+01 8.5646295647047154e+03 3.6164395286866875e+02 8.9390221823662671e+02 4.0181403120394201e+01 7.1478627199231553e+01 -8.5488117912556802e+01 -3.5068589663706483e+01 6.6634653511685883e+01 -5.3823244349654260e+00 3.0023822255341538e+03 5.5134638850170361e+01 9.3356207520883743e+02 -4.7957200711913686e+01 2.0835886562191195e+03 1.0625601267214188e+02 -4.4558440780018452e+02 -5.4752864874421618e+00 1.2518074092916060e+05 4.7645909004028891e+02 -1.0443637157073925e+02 -8.9204982933820620e-01 -2.7615860357307373e+01 3.7584926522427338e+01 4.1122493036654248e+01 -6.5221763658266511e+01 1.5763282322443048e+01 -3.4549768127248067e+03 -1.3210710436653329e+01 5.3620438747026765e+02 9.0514824206051162e+02 1.1851607280173523e+04 -4.5944419709591261e+02 1.8146097217503907e+03 2.1626570653140294e+02 4.9967615191819139e+04 -2.6865472387345835e+02 5.3685649616018873e+02 8.9950030196851367e+02 -4.7288757719510613e+01 -1.9540092185358660e+02 -2.1458446000135359e+02 1.3843738302332662e+02 -5.2706690637699955e+02 1.7532808090483886e+04 -1.8622030054560071e+02 -7.4771013002854215e+02 1.0487045728520665e+04 9.7224085083978498e+03 -1.0423535819816832e+03 2.0410266852937120e+03 2.2589418858975074e+02 1.8957514776185024e+04 3.2660582779278125e+03 2.3770771829849537e+01 1.2421345008921501e+03 -1.2781338396921301e+02 2.1995047734312152e+01 -1.7257590461294740e+02 -1.4570646435541903e+01 -7.9011975534766123e+02 1.2912938116870288e+04 -8.5051012940080000e+00 3.4826208983121555e+03 2.6081963235895844e+04 2.2585887275447635e+03 -4.1636603830105088e+00 6.5924577704723674e+02 7.3302082681105887e+00 -3.6364889519100443e+03 -4.1280859174376099e+02 4.3705628724047551e+02 -1.3991165234050362e+01 7.6197989408694236e+00 1.3247722251147045e+00 3.0859698056928204e+00 -3.0129412462588405e+01 2.7376861856214685e-02 -5.3547058890132234e+02 -3.3914233588634090e+01 -4.8820977528962845e+02 4.9130042291265208e+03 1.3211673374763068e+03 
      </Row>
      <Row Index="5">
        1.5343663009753428e+02 -3.4450352141853735e+01 -2.7724577284993700e+02 3.1229341845993246e+00 -7.9981107571139160e+02 4.5417124695664443e+03 -2.2548473682132490e+03 -1.2423357598437466e+01 5.0660423265964418e+00 2.2673657984189010e+01 -3.6759194093341980e+00 -1.5491546976448150e+01 -2.8224593117091406e+00 3.1259095177927901e+02 -1.7380905804677919e+01 7.4512189811529606e+02 1.3679958284978056e+02 9.5923845442951006e+01 -4.4519333765754162e+01 -2.8609631714478482e+01 1.6055010892035360e-01 7.7271706281087813e+02 -4.2293830498003081e+02 -2.5762701025707111e+02 1.6789699638358456e+01 -9.8345845921257624e-01 -2.4307735158773461e+01 4.8381641055532372e+00 -1.5566087266888243e+01 -3.1342864318918773e+00 5.7522236972927294e+02 8.0198979129274424e+00 -6.3538071994441651e+01 -7.4968444302200169e+01 1.1948826292545345e+02 -1.3672419024394495e+01 -9.4233960259944105e-01 3.7695219455619200e+00 -2.5555954823410138e+03 -1.3383514829718806e+02 -1.1192417516196063e+02 -8.6547610265577624e-01 5.0383535052751842e+00 1.2735795250960928e+00 -3.3699768066070779e-01 -3.3117382758206393e+00 9.0112487542217732e+00 -6.7526313328464113e+01 -1.4536160209006994e+01 -2.1666630478294493e+01 -1.4223767800397829e+02 6.3182247791367161e+01 -1.4578769678970599e+02 1.1705855569348586e+02 -1.6421891204398399e+01 -1.6168853655658766e+03 -2.9525172776360419e+03 4.4175443131372640e+03 2.8363409630440572e+01 -1.8825980846691976e+00 1.4909726492348364e+01 -7.9006522279026514e-01 1.0571140191054042e+01 -3.0699097894249437e+01 -1.2616256903131384e+03 6.0092368596292971e+00 -1.4604314123225129e+03 1.5163571336102905e+03 1.3561835848786038e+02 -7.7314225151566767e+00 3.5051913723253955e+02 -1.4815802904288589e+01 1.1140098939844365e+03 -4.6743294094809403e+02 -2.3574269465375164e+03 2.0404352074265756e+01 -6.4137385779109088e+00 1.8259868613705347e+01 3.8865107764113249e+00 -1.4087311335052384e+01 1.5209388407951238e+01 1.5248352989539995e+02 -1.8048062723745545e+01 1.8155912690049590e+02 3.3226907304322843e+01 1.2508759412047310e+02 6.6811657470743739e+00 2.2890959354359133e+01 -2.8127537968324372e+00 8.9262374366886797e+02 -6.2946316258387776e+02 4.0392743767147363e+02 -5.5163986154332827e+00 1.2512357135929175e+00 1.3051359611600461e+01 -1.7938415279819324e+00 1.0445791327761832e+01 2.5846449628216572e-01 -4.1431506922624845e+02 1.1097515936052769e+01 6.1566155806125735e+01 5.1913894324720900e+01 6.4456385182351607e+02 -7.1997959348476304e+00 2.6100678675077103e+02 4.9622767878652546e+01 6.9351494896449458e+02 2.6833546720190902e+03 -2.1332083675340759e+03 4.6061574396877901e+01 -2.6178864952245466e+01 -1.7214708400258729e+00 3.2638564597237320e+01 1.0018343058349812e+02 -6.4706845690153301e+01 6.5317222881619091e+02 -5.2646272026329441e+01 -3.1191023123923986e+02 -4.8892647775877958e+02 9.2970021914270899e+02 -2.0341785143776431e+02 5.8436702205742768e+02 2.1856032285454567e+01 3.2801695592734541e+02 -1.5228679386504496e+00 3.3746370139545320e+01 9.1291744507080523e+01 -2.7969164825306841e+01 3.1783994649922871e+01 3.4017362093282230e+01 8.1265066202773426e+01 -8.3719008677137097e+01 -1.1580134923168902e+02 -6.4119181023339678e+01 -1.2913432721178165e+03 1.5082944519039340e+03 -2.9329342289463722e+02 -2.5827936369190944e+01 -1.2613822641921095e+02 -1.6275582060722891e+00 -9.7435518151676263e+02 1.6778943174208730e+03 -1.5685426095222601e+03 -7.3708838212224386e+00 -5.8372835846652460e-01 -1.6826904177109615e+01 1.4963915054834798e-01 2.5176664505532926e+00 3.2862234922632729e+00 -8.5601055314306834e+01 -5.0639674547953168e+00 2.3925829139882475e+02 1.4951037975278257e+03 -8.9880337090788987e+02 
      </Row>
      <Row Index="6">
        -2.0552440436363028e+02 2.0375471537353732e+01 2.4353403460444736e+02 -4.4164069412959224e+00 7.0611703771289933e+02 -2.2548473709380223e+03 1.9978819299934808e+03 7.2644806743954291e+00 -3.9042178675241046e+00 -1.5996831431670088e+01 2.7700160053415379e+00 1.9665937687429789e+01 4.0026975262137441e+00 1.6706497667800136e+01 1.1291902279477320e+01 -1.5518102200578755e+02 -1.0418066468962934e+02 -1.2524842190548322e+01 1.8049364337586901e+01 -1.3140838617283208e+02 2.6841802744348273e+00 -3.7568387165154405e+02 -3.4549524987177966e+02 -1.6047489846897969e+02 -9.7159873021333496e+00 1.3009567420526453e+00 1.5695349452338967e+01 -7.8756686646459018e-01 -6.0463169645462660e+00 2.0967747850979590e+00 -6.9889904936930952e+02 1.8459989016534677e+00 -1.1397653207830730e+02 2.0155106385253077e+01 -4.5980377555370069e+01 7.9986804673871328e+00 -9.3054706281012010e+00 1.2499559527298674e+00 1.6072120244759135e+03 -5.5233854845078465e+00 8.2044179694532602e+00 3.5382977787297987e-01 -1.2297461363359852e-01 6.6841638546207816e-01 1.8730934085400677e+00 3.8479485018165667e+00 -7.2776586056618644e+00 4.5881897465964300e+01 6.4394714423624464e+00 -5.8074739735833347e+00 1.1321425053951577e+02 -3.3630893076997417e+01 1.2279855897178416e+02 -3.6475215866089451e+02 6.6626859354911367e+00 6.8812448536205875e+02 1.8023322298883302e+03 -2.7170374011810036e+03 -3.7161289784950299e+01 2.0007685297706814e+00 -2.4026764372068754e+01 -1.4654549537155113e+00 -1.7991583316854268e+01 3.0459405256632113e+01 5.3190161064251731e+02 -3.4846645066641218e+00 1.8760975087114332e+02 -3.9635313070103439e+02 6.7917824040130029e+01 9.6965781220049507e+00 -2.6699353723718279e+01 4.3688003423412667e+00 -3.2746895805400959e+02 -1.2470309490416798e+03 7.6050000259298804e+02 3.3601492145135170e-01 8.2215456657529256e+00 -1.5296557175828173e+01 -1.7979352500664376e+00 2.4522262105110304e+01 -1.3085425062193735e+01 5.5504420158926996e+02 2.9624351332444316e+01 -8.0291200810461874e+01 -5.5506610956717360e+01 1.2773322553229871e+01 -5.8137391868194754e+00 -1.8918382731715411e+01 2.7099257293942369e-01 -2.5737220354363149e+02 3.8249777434426665e+02 -2.7133132451526581e+02 2.1113444407641064e+00 9.9259635678148195e-01 -9.1028804963152758e+00 -5.8515587721292803e+00 -1.7636656242388970e+01 -1.4179023476031452e+00 -6.9385033045369937e+00 -7.7922393541651864e+00 -1.0231989261961522e+02 1.2355172592860910e+00 -1.0789040012183440e+02 -7.5245298797282217e+01 9.6475006256012506e+01 -1.0974848037648698e+01 4.5406397960632438e+02 -1.1174694710133442e+03 1.5998653524048048e+03 1.5446452727981624e+01 -9.8804245636752146e+00 1.9719993706743949e+01 -1.7409023669920572e+01 2.0067864130629047e+01 1.9190165015034271e+01 -1.5470720218456563e+02 3.7965827089919884e+01 -1.3432433071854848e+02 -2.0653953709525013e+01 -7.8997572443063973e+01 7.4442565523749153e+01 -1.9832323923526374e+02 -4.5325960258276865e-01 4.2046104428592298e+02 -7.0874465336184733e+02 -2.2011415695306374e+02 -2.1952846162521620e+01 -2.1609795227383435e+00 -2.0378136446574118e+01 -2.1794811261197367e+01 2.3049720552198792e+01 3.9210874384812392e+01 1.8822220184031008e+02 6.7204623113451859e+01 1.5556831060500008e+02 -7.6516545886016138e+02 -9.2130917010139740e+01 1.3290881653986965e+01 -9.0720897309821027e+01 -7.0731692165552529e-02 4.5359062686111463e+02 -9.5369393248940344e+02 9.7728406880706314e+02 3.4830400376357482e+00 -5.8122665506588476e-02 1.1809980542231063e+01 -1.1585371233267783e+00 -1.2891214692821688e+01 -2.4378335989437834e+00 4.1658204426310931e+01 -2.7491677880019028e-01 1.5169225433194109e+02 -1.1151627187922468e+03 6.1268697979784656e+02 
      </Row>
      <Row Index="7">
        2.5385452609126959e+00 1.5164039991199654e-02 2.9570819599935212e+00 -7.0361902754651026e-02 2.1919031686716366e+00 -1.2423357626885043e+01 7.2644807028088518e+00 1.2536922776535122e+00 3.4398466387460941e-02 -1.3380219694830942e-02 2.1980819471102572e-02 8.8170548635345403e-02 4.2014364103143541e-02 1.3227536880199217e+01 1.9548123197076281e-01 -1.9859638630697125e+00 6.3548206797258899e-01 3.8102066369940992e+00 7.4019960632860544e-03 -1.1310677716535120e+00 1.3054407223707001e-02 -5.1217777906268118e+00 -1.5842426214095775e+00 -7.6830206892272301e-01 -2.1426921411143378e+00 3.2331176289291066e-02 -2.8407194506725697e-01 5.9412435514620606e-03 -1.9300623410316645e-02 8.4359463599903428e-03 -1.5540014266200085e+01 8.4700016269802225e-04 -4.5837550407603231e+00 1.4283606230107948e-01 3.1465106956713385e+00 1.3306212533584185e-02 5.0123586839828094e-02 -3.4236699885130839e-02 3.1607882755419269e+01 -3.9076813807774613e-02 1.0336296145099422e-01 -5.3470762140808883e-02 -4.7028149467200103e-02 2.9580974938167914e-02 6.1931776321345056e-02 6.7546302662973456e-02 -3.3152343816471912e-02 1.1220613971122737e+00 -1.0504955074815570e-01 -3.0006153693586368e-01 3.2040366613542653e-01 4.2523006371007588e-01 6.1230472550816328e-01 1.8355239370340961e+00 -2.0867872032339801e-01 2.1944529331273202e+01 1.1774113439249208e+01 -5.5378677765044788e+00 2.0000417352010547e-01 -6.3396525761827327e-01 2.4433528882723762e-01 -1.1580769963966692e-01 1.0716794996105559e-01 2.1520047966129663e-02 -3.1294256334841720e+01 2.1881377401182869e-01 2.5357362103154859e+00 -4.2699333294635238e+01 -5.0445518236257980e+00 2.7355747265214075e-01 -9.5519692666755662e-01 1.3690071132193399e-01 -3.2940300097642577e+01 -1.3453870904904497e-01 4.7134236317586211e+00 -1.4642055223343267e+00 8.1108034011553087e-02 -7.0756973218850272e-01 -8.7242395051578436e-02 5.0601921308842390e-01 4.9933328683879008e-02 -1.5108225513372609e+01 1.4929921251507827e-02 -1.0926798428447420e+01 -8.8637150366213890e-01 4.1820787979553065e-01 -4.5576869674686549e-02 -9.7675496044661325e-01 -4.6909726819446829e-03 -2.5629932704639536e+01 1.6132977634701740e+00 -9.7476038948045129e-01 4.6912994450711110e-01 -2.0054139203410055e-02 -2.5976704757847070e-02 1.4887423616171569e-02 -2.9175732337752985e-01 8.4662886725210482e-03 1.9198514357499530e+00 3.9132131056606720e-02 8.6013465950325829e-02 1.4169441123020121e-01 -6.0946215322832824e+00 -7.6488871752998555e-01 -2.0741122248462660e+00 -3.6286536577218076e-01 -1.0568187866552613e+01 -1.2912270354809333e+01 9.7726899313448836e+00 1.1273350602853296e-02 4.6255853387371149e-02 -2.3920761589771522e-01 -1.8148981043676837e-01 3.7740384236136026e-01 9.8677060081953982e-02 8.8665461245106378e+00 5.1637967133361629e-01 3.5621663902189677e+00 -2.8465129989787357e+01 -6.8008537697659124e+00 6.6691058698397948e-02 -4.3637808446548361e+00 -4.9973205863440984e-01 -1.2271979160563006e+01 -2.7714440194122805e+00 8.2177418805747084e+00 -1.2269981348446131e+00 -4.8725435126120509e-01 -7.3593207587498344e-01 -3.0546006653832514e-01 9.0890884561387431e-01 1.9240238455211489e-01 -3.7191859058082720e+01 9.3499383275267656e-01 -1.1005178941825529e+00 -7.1181877555653344e+01 -4.5161719557133999e+00 -1.1919682901212767e-02 8.4411110409337975e-01 1.9900904083194712e-02 4.2819081750021826e-01 -5.1646019246777009e+00 4.4333340300613306e+00 5.9870949580861754e-01 9.8355601185200481e-03 1.2144247622968574e-01 -1.5548831039929443e-02 -2.4299774671494029e-01 -2.5318185025579448e-03 1.2412476413772602e+00 -1.0103654083656444e-01 -1.0911191910497258e+00 -5.4546824009047790e-01 -3.9205072162173500e+00 
      </Row>
      <Row Index="8">
        1.3901910465796949e+00 -6.4219920454645862e-01 -1.5285899429867280e+00 3.4641154234068383e-01 -1.9444559301525096e+01 5.0660423474877998e+00 -3.9042179104708685e+00 3.4398466362400043e-02 1.1921079413047471e+00 1.4732319546258046e-01 -8.2548100318526357e-02 -8.6329692166313976e-03 3.6490604375004398e-01 8.3372878845090206e+00 -3.7453621471018345e-01 -1.9168778160834701e+00 -8.0849569332303872e-01 -9.5404952451185610e-01 -2.4167743890113821e-01 -1.1971017087674887e+00 -2.0351172957448108e-01 -2.0051736674009675e+00 -7.0843444540200795e-01 -5.5956587405727709e-01 2.1378322885063472e-02 -4.4078768778546940e-01 -1.2659945191907879e-01 4.0375517482441066e-02 8.4462458046786870e-02 -1.6928533096622017e-01 1.7471049595152044e-01 1.8504907249922423e-01 -2.0749193097750482e+00 -7.8233898231800225e-01 -5.5084040899708953e-01 -9.6030370936472792e-02 -6.8555082979550008e-01 -2.2573147171377136e-02 8.1005162210203707e+00 1.1054455721602023e+00 4.9903176071014949e-01 -4.0025241202773142e-02 -2.8883594902169030e-01 3.0802461774808998e-03 -7.2017235720982335e-03 -3.2005017982637406e-02 -1.5631236614916738e-01 -4.8937936867767977e+00 2.4218894449687411e-01 -7.4857964703066748e-01 1.8737964543948320e+00 -2.5796339516817492e+00 1.6443472488331916e+00 8.8272223780605730e-01 -2.3048781957992615e-01 -1.5326734098694104e+00 -2.0318430645529091e+00 5.9821900801585164e+00 -5.4272332617578412e-02 1.6523097727006908e-01 7.7176804429521781e-02 1.0547387046553722e-01 -1.7056018012487861e-01 -3.5407774971912820e-01 1.3673776183702859e+00 -1.5558180674682767e-01 -3.3391665678670677e+00 -4.0279717558395944e+00 2.0142480281229620e+00 3.3552542801351964e-01 1.9460536823758456e+00 -9.1326834537664636e-01 -1.5593298977476140e+01 5.8834239377348518e-01 3.2839782129851391e-02 4.0643127211964725e-02 -6.2017602840273933e-01 -4.7346531253156660e-02 -5.1387044953241090e-02 1.3329445283097607e-01 -5.3600878597075474e-01 -1.3014616735717164e+01 -3.0574158915075184e-01 1.9372499241168855e+00 -1.8746851990418099e+00 3.6309305801647063e-01 1.9485256572728815e-01 1.3487160126673886e-01 -1.6538163480556906e-01 -2.3777404113040276e+01 -2.5316238865333263e-01 6.0333448562477621e-01 4.3071094898763540e-02 -1.2725605977717769e-02 9.9554798641543124e-02 2.2815891716174252e-01 4.0721641061482308e-02 5.0654901495093552e-03 -1.2078905320152795e+00 -1.6226279865264287e-02 9.2002931671635180e-01 -1.4566133671322650e+00 -3.0926084899764854e+00 -7.4908475000698327e-01 8.6209708669354090e-01 7.4410664786598169e-01 -1.0524118483799347e+01 6.7435642068384976e+00 4.2924025091862301e+00 -6.6899396763370766e-01 3.1859978876479345e-01 -3.6439249342062774e-01 -8.4358722123126506e-01 -1.3405472690582769e+00 5.5749398290562957e-01 -1.0320917852181957e+00 6.5933138707928718e-02 1.9263799285410688e+00 7.6182095131291589e+00 -4.5361462356898787e+00 8.7477244353185435e-01 1.5586251546258381e+00 -3.0111334897993841e-01 -1.4128228201204024e+01 5.9245236191126676e+00 8.6221640430455242e+00 -6.4609174495735977e-01 3.9327386084186822e-01 -3.0164554914304015e-01 -6.5870321051606084e-01 -1.2940896499133054e+00 -1.6714630509987360e-01 -2.4304273230500710e+00 -6.0992960348356551e-01 -8.8959412779052105e-01 1.9982049148703496e+00 1.4729268682009382e+01 -3.2816404224549045e-01 -8.2107076112444644e-01 -8.7275896788908972e-02 1.2543308735650211e+01 1.6920753463327713e+00 -1.6020602652106470e+00 -1.0458955263025109e-02 3.3014396495956562e-02 -1.1237873083032972e-01 2.1653674608175983e-02 4.2362715218196012e-03 -3.6056819742623841e-02 2.3142761037716042e-01 1.2765968665695387e-01 -6.7098403516125366e-02 -6.5807736397834811e+00 8.4434433522779866e+00 
      </Row>
      <Row Index="9">
        -3.2514856250795261e+00 -2.6917617337829678e+00 -5.1363072805482428e+00 5.3022642783711063e-02 5.2335220814227952e+01 2.2673657717339083e+01 -1.5996831092015629e+01 -1.3380219631497891e-02 1.4732319780101599e-01 4.6279356449911102e+00 -2.2820356917051748e-01 -7.7991703304187587e-01 7.6944595740948696e-02 4.8296439539709993e+01 -3.0948367759714862e-01 2.2845309380968768e+00 2.3153288187731960e+00 6.9816923293004001e+00 -3.8411434283850976e-01 8.6975544995164373e+00 2.0773726784289008e-02 1.0499089125200456e+00 3.5214352884020936e+00 2.4933874407079282e-01 -2.2765476439039922e-02 -1.3596131663496086e-01 -3.0236227811750780e+00 2.5008715540644977e-01 2.2248271990345603e-01 6.7179479040065229e-02 -1.6418374569012446e+00 2.7325243242230657e-01 -1.8576782783241876e+00 6.8562421969174214e-01 4.7963779176056960e+00 -4.9950575163373045e-01 -8.3363460189951422e-01 -9.6048476746261754e-02 1.4030257395585068e+01 -2.2295224607360113e+00 -1.4301408249748733e+00 1.2045584730812112e-02 -1.1010112500660502e-01 -4.5035358337695723e-02 -1.0550313703019293e-01 -1.6669116186076893e-01 -8.4299433947700911e-02 -5.3954142009282426e+00 1.9665243567646939e-01 -1.5250082334121977e+00 -3.3936999788685220e+00 1.2208108126267867e+01 2.4674504789717768e+00 1.5900837045407131e+01 -3.9053438866429713e-01 2.0369828468887135e+01 7.5775450787044605e+00 5.3503454729610674e+01 -4.0477201380382919e+00 -1.1980544486102946e+00 1.8166933511892045e+00 8.4412890467187907e-01 2.2749541671705586e-01 -6.2224597934308545e-01 -1.7129348312077440e+01 -8.0705630191619887e-02 4.4062184411396274e+01 -9.6297670354853295e+01 1.0616230629209433e+01 1.0703401512413182e+00 -1.0391840992383724e+01 1.9554297422688036e-02 3.1872641864786431e+01 1.7139664963776127e+01 -2.7132167040263133e+00 9.1828495046634373e-02 -7.0452710968927121e-02 -9.5585563636263693e-02 -1.8333421602661382e-02 -3.9875661532061107e-01 -3.6241378632384036e-01 -3.4349922213594517e+01 5.3801451289026470e-01 2.6392038594864342e-01 2.0019055027453656e+00 4.9962118523775167e+00 4.3245422766278807e-01 -3.5390759807964658e+00 -6.1197951665354910e-02 2.7714571195526744e+01 4.0448505303191249e+00 7.1338575683970529e+00 9.9490393097149826e-02 -3.8516439905484368e-03 2.4923175078564626e+00 -6.2090237340659993e-02 1.1741210362580812e+00 3.2714150509189605e-02 3.1599495476748150e+01 3.2065314169875914e-01 1.7193887448659623e+01 4.0429559520041556e+00 1.2290645803696043e+01 -2.7568640100212041e+00 1.0382367746101046e+01 1.9858416919545840e-01 -3.0703868832809114e+01 1.6008020873073832e+01 9.5869648413588244e+00 -2.1272255929692232e+00 -6.2192676132680424e-01 6.5256971646408601e-01 5.9779568585622123e-01 -1.4447168298624238e+00 8.2151840977587876e-01 4.7911900631048596e+01 2.9416557203844151e-01 -2.1659793887635864e+01 3.6630487028275013e+01 5.0175733020905675e+01 -6.5353071389521855e-01 5.3765166938166553e+00 -1.9353311207409907e-01 2.3359962447572343e+01 4.4369918290770414e+01 5.9611703626263356e+01 -6.0235935908426690e+00 -1.9170652142160509e+00 4.4966162180467784e+00 1.3542192259270340e+00 -1.2215778735646041e+00 -2.5149298952191756e-02 4.4595774553671355e+01 8.5688160404603497e-01 3.1103158822023623e+01 -3.8569737950037165e+01 -8.5522246679723452e+01 -1.1195574493366189e+00 6.9959550577601579e+00 2.0504306708508321e-02 -7.3645902793683831e+01 8.3599637236846647e+00 -8.7987915156944325e+00 -3.6784709550123636e-03 1.7168747978104342e-02 -1.9992443571897707e+00 1.9814868268413770e-02 6.4343310380184882e-01 -3.5048567250712932e-02 1.0175289672467898e+00 8.9780881539964427e-02 -5.7670670732993550e+00 5.5374742082535114e+01 -6.6408767065747497e+01 
      </Row>
      <Row Index="10">
        1.3459893135917573e+00 -5.3310991218182446e-02 -2.2804663864444777e-01 -1.6111577609894781e-01 2.7108282089634102e+01 -3.6759193946532038e+00 2.7700160467733017e+00 2.1980819692111596e-02 -8.2548100569954291e-02 -2.2820356428556404e-01 1.7755216487259116e+00 2.1736475686557410e-02 -2.2366341805983206e-01 8.5667184385049411e-01 -5.4787478360594921e-01 1.3051875780211404e+00 1.8823373514810555e+00 9.8662816166737510e-01 1.5957548608301408e-01 -2.1609293711574682e+00 6.3231942510554667e-02 1.8788135973612199e+01 -1.6618096180594826e+00 -2.6370582848524133e+00 -9.7015812670465218e-02 9.7345596416270608e-02 4.9970636825962772e-01 1.0547135726695196e-02 -4.7235390802047528e-01 7.4883422163979071e-02 -5.9485805104565310e+00 2.2831122043925029e-02 -3.6385529913763719e+00 7.5812057468890437e-01 -3.4228897293019145e-02 1.5793661717934793e-01 8.6026954384110788e-01 -3.3978544560157170e-02 2.4205993359297281e+01 -2.0836704327920943e+00 -1.4270575443560194e+00 3.4693265404364508e-02 5.8580488487005367e-02 3.2583995204323035e-03 5.1141035616227259e-01 1.5521019728333252e-02 1.8683063403020897e-01 -8.1786583118873981e+00 1.6447577951680614e-02 -2.9682954145985372e+00 -3.0224585910126716e+00 1.4180832804828827e+00 -2.6727953411799730e+00 -5.7229867936152701e+00 3.1061904215497538e-01 -2.0020236205018591e+01 -3.9393896574465650e+00 -9.0149229379875244e+00 1.1743105603321733e+00 -7.4047188493527649e-02 -1.3446391980618505e-01 -6.4984649617660795e-01 3.2249669994859642e-01 1.3990485160450372e-01 9.9578141029127032e-01 1.0495495203127951e-01 -3.8580814899734062e+00 2.1565153154966339e+00 1.3387024042171825e-01 4.3808772928777412e-01 4.0049641236222753e+00 5.4692263508537720e-01 -1.1244063116185821e+00 1.2839879398266349e+00 1.0671556873578267e+00 3.0492124807446275e-01 1.4650625992589983e-01 -3.6480427252407144e-01 -9.3598667291755155e-01 2.4118765639658393e-01 4.4399759772995451e-01 8.7585538362192050e+00 -9.8228262152237622e-04 -2.0210585450026337e+00 6.1988292295568581e-01 3.5697108943489888e+00 1.1505960186343600e-01 -1.8769255932250546e+00 5.7445452061496247e-02 1.4631477944045887e+01 -1.1760471672301906e+00 -1.3799315503056337e+00 -2.4563917593340340e-02 6.3806085090473474e-02 -1.3525742510670430e-02 -1.4606571682795080e+00 -1.1847821762759286e-01 -2.0703502200346530e-02 2.7078496845214381e+00 -2.9514770836788795e-01 1.0500218876298490e+00 1.6587073184432473e+00 -4.4490702623806717e+00 -5.5402863288946402e-01 1.1640714317276211e+00 2.1514808910981542e-01 3.1184873273378088e+01 -1.2146736384537142e+00 6.2020320394182029e+00 2.9785073348292079e-01 -1.4334291133579091e-02 1.0094094127337411e-01 2.1898704824000705e+00 6.0602278521677388e-01 2.4767045700588652e-01 1.6146625528678769e+01 9.3891045476057711e-01 5.9634261918881677e+00 2.4416639153845551e+01 4.2366327805434914e+00 -2.7087488286870496e+00 -1.5417321618047728e+00 9.3853599204739990e-01 -4.3805618568303544e+00 -7.1767514090801576e+00 -4.2344912091354070e+00 1.6781157879040538e+00 1.2380019740104248e-01 -1.6109718096395442e-01 1.0865179077894940e+00 1.0040770405292996e+00 6.8889566845683903e-01 8.5831098517351094e+00 3.8575015663672740e-01 -2.0334278858049402e+00 2.9987946171274459e+01 -1.5697560736454179e+01 4.1944277131499660e-02 -1.8779795919827449e+00 5.1056330864775526e-02 -1.4603111430206543e+01 -1.4004629007329186e+00 1.1143488684600045e+00 1.7264249442677980e-02 -4.4320315759565779e-03 2.4981523449899956e-01 -2.0086773359603072e-01 -3.4608611289518221e-01 5.9465556866994118e-02 2.6501402094454818e-01 1.0862773300646636e-01 1.2397584246728732e+00 1.4831864010645528e+01 -1.5810316296850550e+01 
      </Row>
      <Row Index="11">
        9.5503030091746721e-01 2.1037719535082999e+00 9.3397833143713029e+00 -1.8718758529000723e-01 -8.3214778646973286e+00 -1.5491546878897145e+01 1.9665937647333923e+01 8.8170548519319242e-02 -8.6329703754809972e-03 -7.7991702521127138e-01 2.1736477485982418e-02 3.8236986251630412e+00 1.0110246817686148e-01 3.0847841735658150e+00 1.3571979007534957e-01 1.1196849070321091e+01 -9.5567652809995707e-01 1.6677470908310981e+00 5.1289316590551592e-01 -5.5771192543093946e+00 1.0686970829070705e-01 -7.1705527092944280e+01 -4.6557516743602001e+00 -8.2548917497282304e-01 1.0385497282269493e-01 9.1732199534472286e-02 7.3769770784497779e-01 -1.4745423647759634e-01 -2.1042921706118589e+00 3.4562257661558460e-02 -5.5914910028440445e+01 3.8083851250086331e-01 -1.9710326778223624e+01 -1.2060335846775137e-01 1.1964190814388758e+00 3.8262151133382144e-01 -1.7518826094713624e-01 -2.1502326511326126e-02 -9.3777188489082619e+01 -3.4890827808464486e+00 -5.5710364629451137e-01 4.9432786080444657e-02 2.1798875672600471e-01 2.0637727753913981e-02 1.5088160045464502e-01 6.1901022692472996e-02 3.6688418187118010e-01 1.5493702586519205e+00 -2.4303946997994785e-01 -9.7691796844414025e-01 3.8473386475903215e-01 2.0479867916510788e+00 -7.6247867653950507e+00 -1.7648260246650164e+01 4.8642058044624892e-01 -4.2730914296756964e+01 3.1252678028475476e+00 -4.3426428368816978e+01 2.0459400172275810e+00 7.9782382290727671e-01 -1.2905853393306388e+00 -8.2133581582008830e-01 -6.6474977479614272e-01 1.4908951714478140e+00 -2.9650577706389413e+01 9.7261873156117851e-01 -3.8032058055245408e+01 3.1705008730045989e+01 -4.3133486152771496e+00 -1.0522059868589575e+00 6.1403299362060171e+00 2.4020967265904991e-01 -3.5463029764928329e+01 -1.8577206961788875e+01 7.0381738654961703e+00 4.4265602566716433e-01 3.8531640856143468e-02 -4.1363485002692102e-01 3.4732863063095643e-01 -1.5740113558965700e+00 9.6570097331123650e-01 3.7013427481205717e+01 -3.7743862866529487e-01 2.8505245053929000e+00 8.0998284524461173e-01 1.4656237653238806e+00 -4.6093300305189899e-01 1.3421423080880512e-01 3.6138976098663816e-02 1.6948498090964428e+00 6.3542123554463856e+00 -1.1933361837860592e+00 -1.3080018418536382e-01 6.5798928959872036e-02 -7.4490137002076573e-01 -6.4009036798502339e-02 -1.5941491924323214e+00 7.8311294242823404e-02 -2.2530290190309032e+01 3.3715399694195278e-02 -5.4088583358410460e+00 -2.5547680373033517e+00 -1.1364481964064684e+01 6.8026965602601130e-01 2.4782686416955366e+00 2.0302685098671125e-01 2.9034891535534356e+01 2.0581074412015781e+00 1.5470406172144267e+01 -2.1026391727308147e-01 7.2067745737138300e-01 5.6598163164159443e-01 1.3270203339813018e+00 2.0323648670878400e-01 2.9455525719536979e-01 9.0794405909929132e+00 1.1276925357724046e+00 1.2427694786467024e+01 5.6633885062413128e+01 -1.2831014429352827e+01 -6.6877177661956120e+00 2.3506349880643285e+00 8.8527914836367605e-01 -5.6320356182971238e+01 -9.6737072540767315e+00 -1.7965190812444515e+01 2.3304051444749931e+00 1.7261676888205151e+00 -1.4105381817015481e+00 7.4906508416782991e-01 -1.6874034877665638e+00 2.9201942213055845e+00 -5.2612837486293373e+01 2.2153123364395202e+00 -2.9852923083156981e+01 8.1962970259021915e+01 -8.8814135290206764e+00 9.3995318865348276e-01 -7.1121366020599037e+00 3.5853705276518100e-02 1.1263280966416261e+01 -8.4618039569518473e+00 9.5825538926364224e+00 -8.9854349248450621e-02 -2.1600838514658487e-02 7.0528131219586887e-01 -2.3619671128786379e-02 -1.2387724926207733e+00 1.2164375816036313e-01 2.5713517922082474e-01 2.8046303434872022e-02 7.5709352113522126e+00 -1.2233505110075859e+01 -7.3592672211109544e+00 
      </Row>
      <Row Index="12">
        -2.5154545409604836e+00 -5.0840871991395697e-01 7.0220873625490543e-01 -6.4355081630135216e-02 3.2764271799969720e+00 -2.8224593353278227e+00 4.0026975770278170e+00 4.2014364089114686e-02 3.6490604394373893e-01 7.6944596629550943e-02 -2.2366341857518832e-01 1.0110246737898626e-01 1.4517377562040710e+00 -2.3103359467049192e+00 5.4593636572985094e-01 -1.4134276515816429e+00 -1.5754198047216050e-01 3.6271446520281669e+00 -1.1248646158011140e-01 4.8060207996043702e-01 1.7976887195025416e-02 7.1628701686524643e+00 3.1535886105037436e-01 2.0287411618391529e+00 7.6323711603922706e-02 -2.0989301086142961e-01 -2.1856969000379381e-01 7.4906198347909850e-03 -1.0101665619952904e-02 -1.4116901702137330e-01 -1.0176266443957136e+00 2.0769249856772626e-01 -2.8627735157492773e+00 2.0644946017087162e-02 2.2805213863754261e+00 1.3107307393755141e-01 -2.2171174444047175e+00 1.6739622815010548e-02 -2.3219304573933186e+01 -2.7601272741673200e-01 1.9001823539619150e-01 2.0515462931358641e-02 -2.2078083007991967e-02 7.9288464070404963e-02 -8.2461408328984770e-02 4.4777327211042144e-03 -9.9073552743833238e-01 1.3925706193619041e+00 1.1787627088513375e-01 -1.3082572570936529e-01 9.3545415433614298e-01 4.5500445638604727e+00 3.2400232159968896e+00 4.5352185683646766e+00 -9.2271021049701307e-02 1.4579803184780758e+01 4.3121930648314315e+00 -1.9126812229874108e+00 -1.3694510059892262e+00 8.0672846404483067e-01 -3.5337051840724852e-02 4.5160809584108291e-01 5.4974792639370218e-02 8.4620460637061634e-01 -1.8988636447321131e+01 2.4110778963168858e-01 -5.5532126752619302e+00 8.7035752038858050e+00 -1.0168463721950534e+01 4.2504429430973484e-01 -2.6022904984278012e+00 1.4172097525629002e-01 -2.9537160765338157e+01 -3.5412549336162225e+00 2.0662893511629432e-01 -8.9727969553898140e-03 3.2432824142953176e-02 4.8489807729814760e-01 5.5349617419386876e-02 9.3066088064611474e-02 -2.6272094682036773e+00 3.8628337726876794e-01 1.7746121931018405e-02 -3.0140248647877232e-01 3.2093340125670222e-01 -1.8206272582852305e+00 1.9505529251873099e-01 3.0118556165779742e-02 -1.5114665613459912e-02 2.8101040873279658e+01 7.9576947250363994e-01 -9.4692389873618510e-01 4.3791246360528890e-03 6.0543700068962369e-02 2.5212159247910532e-01 2.9505638460167694e-01 8.0987795948554001e-02 7.1088220472684371e-02 -2.4245005368078383e+00 5.6098443238524281e-02 6.9371116757504403e-02 -1.0277496516572011e+00 3.4596768801521436e+00 -6.0532283755309257e-01 3.4064861108860034e-01 1.3107945447437089e-01 7.2559773648116490e+00 -3.7273894009417838e+00 6.4883918163547305e+00 -5.1484000615797376e-01 -9.4950071383455126e-02 -1.3246348259329932e-01 -1.1186595194011670e+00 7.0781241276132989e-01 3.9142619891803481e+00 1.1472540903522484e+01 2.6000445530687910e-01 1.1621380667903647e+00 4.4966141175182628e+00 -5.9114433673537237e+00 2.9200120897550854e+00 2.0371888905337561e+00 1.2772230263711107e-01 -8.7515137697482146e+00 -1.0088775370559344e+00 7.2846400315873039e+00 -1.7927903128670395e+00 8.5682398175362973e-01 2.6977466906065894e-01 -5.8770625343261285e-01 9.0242725834297532e-01 3.0573082940976817e+00 -6.3711325207854594e+00 1.1060290941574109e+00 -5.9591312138354144e+00 1.5747333652615339e+01 -1.4213367429496916e+01 -2.3871570918612323e-01 4.1105534650831804e-01 2.0613967637686278e-03 -7.8227475837526752e+00 -1.9452600362845249e+00 1.9147507314018897e+00 -3.4364885275952620e-02 7.9234311486676523e-04 -2.3686690821381501e-01 3.4775108101658958e-02 6.1511589891172225e-02 -2.4594663007990275e-01 2.8859166550022053e-01 -1.0427368785608125e-01 -7.5776443956131756e-03 5.2495570866281591e+00 -1.1484534693270469e+01 
      </Row>
      <Row Index="13">
        4.3337612466716074e+01 -7.6838463838904701e+01 -5.3235366144517464e+01 1.1453224231269711e+01 -4.6737245550388470e+03 3.1259093530315346e+02 1.6706509223188931e+01 1.3227536861833650e+01 8.3372879784325100e+00 4.8296439004196259e+01 8.5667167483111761e-01 3.0847841233922964e+00 -2.3103360420249093e+00 5.0816236052217391e+03 -1.2377606160762026e+01 1.3870194367694455e+02 -1.0270784576860024e+02 4.4759127110677952e+02 -3.7822483941936262e+01 -1.9465469517563477e+02 9.0600523176536130e-01 -3.1546117952625523e+03 -5.9412829180707968e+02 -2.6353493316794231e+02 -6.8039629598994225e+00 -2.1160754366759686e+00 -3.9017602339909587e+01 7.2971893090660371e+00 -1.6988939938133406e+01 -5.2898556571234900e+00 -8.9067686397035482e+02 2.1590223172129432e+00 -7.1026626345633201e+02 -1.0419500975237507e+02 3.2092268718108971e+02 -1.6333819366634209e+01 -5.0443623698138644e+01 2.2265402515628674e+00 -3.1124266025968827e+03 -1.0909097256647405e+02 -5.4670014945230669e+01 -1.3910637391013552e+00 -1.7360453037417363e+00 6.5987073339970426e-01 2.0206402892213191e+00 1.1735706117970102e+01 -1.4367602667689023e+00 -2.4489865962044874e+02 -3.2997325012456713e+00 -1.2012682502337262e+02 2.2000789013648881e+02 2.8224148270090200e+02 5.4898045743699583e+01 -2.4426773623967679e+02 -1.3141033200617404e+01 -7.6673553200997412e+02 3.6276654529447762e+02 2.9428140633313643e+02 -5.5772143203105863e+01 1.6116187320003377e+00 2.7792581768185325e+01 -6.2637041051412528e+00 -1.5211954025534066e+01 1.8335193269615104e+01 -3.6954431386663214e+03 5.4623681774138468e+00 -4.0943874456007256e+02 -3.5682602102122573e+03 5.0919185624016302e+02 4.9771319209762169e+01 2.7598276914359246e+02 -2.4341128011148150e+01 -9.7484745218006037e+02 -4.0028343087548768e+02 9.1568680541476226e+00 -4.8743576372239623e+00 -4.2604281509268489e+00 3.3521559091570097e+01 -5.0965105692632520e+00 4.3963428337739686e+01 1.6238972185118286e+00 -3.1714539522604687e+03 3.3069821359329950e+01 1.1439609206135630e+02 -1.7543324501490574e+02 2.7372576593569272e+02 3.0966976714946213e+01 -2.8461441100192235e+02 -3.3396256445387684e+00 -6.9137662131076195e+03 2.7337716784893146e+01 -3.9551864316003751e+01 1.0386921494595523e+01 1.4518590208635564e+00 3.6439158387912769e+01 -2.4750124956453320e+01 9.9489122995580459e-01 -4.9821584669765571e+00 2.9712674333541787e+02 5.0551342403895188e+00 3.8751044786713624e+02 -1.1960046772363805e+02 -1.0083629571714470e+03 -2.5227735104698397e+02 1.9730648744420412e+02 9.3473042031007964e+01 -7.4388074604210010e+02 1.8030537933815040e+02 1.7382220045052095e+03 -7.2254125427464828e+01 -5.8810719826575095e+01 -7.8741173930171911e+01 3.8041043251542987e+00 -1.6348811171784007e+02 5.5411450522938821e+01 1.2491754400424525e+03 9.0723860683602453e+01 5.1169603086810173e+02 2.1702099811433527e+03 9.3564799015877227e+01 -1.9539473117761383e+02 -1.8944019540966809e+02 6.6876932039550184e+01 -3.7432927150187425e+02 6.0896001259190825e+01 1.8246085962455179e+03 -1.1993202887108470e+02 -5.4992860854074763e+01 1.7455686766634884e+00 -1.6888181564330239e+01 -1.3153262989802136e+02 6.4117712733351738e+01 -2.7830361840241039e+03 1.1997165226888563e+02 8.8475486468725660e+02 -1.3073957915320350e+03 -1.5702228004899903e+03 -4.5352324407364819e+01 -2.1739820151849617e+02 -1.7133614723779014e+00 -5.7373486120711732e+02 1.0663157936821733e+02 -2.2853944936046762e+01 4.7707580606076661e-01 1.0559686722927286e-01 -3.2551658540342252e+01 -2.9417660513425972e+00 -2.1510595522389494e+01 1.1939141350868444e-01 2.3700331760556810e+02 -5.4069719028855427e+00 1.6571601781626342e+02 -1.7609697646287418e+02 -7.2861232773400332e+02 
      </Row>
      <Row Index="14">
        6.0053155874768445e+00 3.5219999379722178e-01 5.7362641004820905e+00 -6.0643458684848245e-02 3.1010557655012235e+01 -1.7380906849451961e+01 1.1291902566230061e+01 1.9548122752373673e-01 -3.7453620795368670e-01 -3.0948375757967334e-01 -5.4787479171537956e-01 1.3571980857435961e-01 5.4593635504993043e-01 -1.2377608027982102e+01 8.6858026500251491e+00 1.7244776387235422e+01 -2.4926487069173163e+01 -1.0094003614425691e+00 1.1956096104084055e-01 -1.1813437919889196e+01 2.4171785453354794e-01 3.3914731008406406e+01 -5.1291297727359106e+00 -2.8192520193180934e+00 -2.8617681257800820e-01 1.3433386357292662e-01 -6.6052759136349914e-01 -1.0524140966351554e-01 -4.3491099100282510e-02 -5.6752333108653713e-02 2.2880004387490160e-02 -8.7195645261565102e-01 -1.0052774154156522e+01 -8.7080524806842057e+00 4.1856360882502486e-01 2.1129687688034940e-01 -2.2936227716941096e+00 -7.4285928759020806e-02 2.6702534697367810e+01 7.0732822225629519e+00 4.9462964560823286e+00 -6.1734555128879265e-02 7.4321334876851428e-02 1.8291459297300419e-01 -1.4396107922027568e-01 -1.8809626706713189e-01 -4.9930912283655637e-01 1.2061018782307055e+01 -1.6359371549383468e+00 -7.6899617239425666e-01 2.2939431573620823e+01 -7.8466478147333500e+00 -4.0971146668596869e+00 -1.1434265442520509e+01 -5.9100232461099300e-02 3.4330890092533082e+01 -2.0507169070418307e+01 -1.3985016291674278e+01 -6.0639226687384329e-01 3.0424420734008528e-01 -8.8114617541205464e-01 1.6200101905662784e-01 -2.2816694871320937e+00 4.6186412367743734e-01 -4.1734314667039847e+01 7.1028943130232780e-01 -6.4142164430089750e+01 -1.2462695680258236e+01 -3.4695477204595747e+01 -4.5073068735839783e-01 8.6525798456017355e+00 5.1382518796665488e-01 2.8475452183855577e+02 -9.7637607889320659e+00 -3.8673660307980269e+00 -2.8499620882204613e-01 -7.8819967744086938e-01 4.8846436385137415e-01 1.9722055910519187e-01 1.0240009558648939e+00 -1.7692605650498103e+00 7.5783713240631485e+00 -1.7709778178032052e+00 -6.2243993754109184e-01 -8.4323056777448269e+00 1.3908697305619846e+00 -1.0305865508826173e-01 -4.6303904775031013e-01 1.0211506661385537e-01 6.9132843923550624e+01 -2.3436563869823654e+00 -7.1710589945704184e+00 1.7420182108521581e-01 1.5448920770054311e-01 -2.6843718653750415e-01 3.3922612927769880e-01 -5.0381933331709305e-01 7.5258107398753160e-02 -2.5574897428574339e+01 4.1562438701979726e-01 6.3181405527050982e-01 -2.2205605093813126e+01 4.0039606401468291e+01 -8.2352245987878470e-01 2.1470142400672952e+01 -2.3951294302841553e-01 -1.5167946964870069e+02 1.6214964809340714e+01 2.6861858532840916e+01 -1.0194841166623467e+00 8.4057781695606304e-01 1.9218774662852436e+00 -1.1884568535308748e+00 5.2777323468249389e+00 3.0457592421131383e+00 4.8395360390365752e+01 -7.4563763535506533e-01 -3.3120424395916688e+00 6.7864672056340851e+01 5.2562204221393678e+00 -5.0310837524442791e+00 1.5104307210999325e+01 3.0534069512185980e-01 1.4895706535821387e+02 -1.0274535053351489e+01 1.4787669748021376e+01 -1.8243417687937440e+00 4.1141971421641399e-01 6.2801085680708635e-01 -1.1235251728324105e+00 3.5675755544006917e+00 2.2546557195006538e+00 -1.8382192916232709e-01 4.8271238433921235e+00 -4.9729210852567221e+01 -1.4302287372347724e+01 2.8268784530857033e+01 5.7376445580753832e-02 -8.5035557432288726e+00 3.3852220983854313e-02 9.5923840121526368e+01 -4.6517976854550938e+00 4.7319853472144153e+00 9.1243893385275138e-02 -3.4511456318653877e-02 -1.0557131595173229e-01 6.3670993623304639e-02 -4.0518397457753963e-01 -1.6714390462944362e-01 -1.5369792073890949e+00 -2.0788858798101333e+00 8.9160687255096978e+00 -2.1495127883015402e+02 1.4484751766863664e+02 
      </Row>
      <Row Index="15">
        1.3572288198057453e+02 4.2640199416672090e+01 1.0188028505530550e+01 5.0069487395384984e+00 -9.0825346607365645e+02 7.4512189738105758e+02 -1.5518102163256208e+02 -1.9859638735045391e+00 -1.9168778260931161e+00 2.2845309177172521e+00 1.3051875884063251e+00 1.1196849102106292e+01 -1.4134276594721493e+00 1.3870194246618826e+02 1.7244776220314282e+01 1.2021856507188659e+03 -1.0265091466180456e+02 -4.5672915596653795e+01 1.9183482956872503e+01 -2.3217713529998844e+02 -2.1036399180741854e+00 -7.4180089392346440e+02 9.7463110625000937e+01 3.5179813569050893e+01 2.4590929405677855e+00 -4.6648401581164589e-01 -1.0769303292123938e+01 -8.1624597938392451e-01 -1.5731155597284964e+01 -1.9780390095943974e+00 -6.8936228515830635e+02 1.0181689007828385e+01 -4.6571956895086578e+02 -1.0171461581444383e+01 -5.0440516184313765e+01 1.1588103020665910e+01 5.5301488689181344e+00 2.3171297575856258e+00 -2.6111124605878140e+03 -4.3657099415032000e+01 -1.5824149395490450e+01 -1.8701334680508808e-01 4.2244421973000321e+00 3.9723614587324545e+00 1.0545518774449079e+00 2.3952163400692887e+00 4.3349074109655259e+00 5.7852469037123370e+01 -5.7361858560282144e+00 -1.0176196290526221e+02 -3.1459695590609044e+01 -9.7939692985025779e+00 -2.8800970449801554e+02 -4.8319451681802633e+02 3.3756880801770497e+00 1.9102122885268182e+02 -8.0176359814319289e+02 2.1793460337466672e+02 5.0660239035159449e+01 -4.0208814019521242e+00 -1.2112357289555181e+01 -2.1311245885461798e+01 -1.0051595038814831e+00 3.5978987275243286e+00 -3.9307819219608882e+02 2.5553556794046756e+01 -7.6982710274323404e+02 -5.2710678836874195e+02 -1.3693483182342510e+02 -2.8035795312788711e+01 3.5790298523155690e+02 -1.5082992122250266e+01 1.2655745786097536e+03 -3.1075184256034746e+01 -1.6824062936651637e+02 3.7613932587488339e+00 -8.7375116735406699e-01 2.5987802413091018e+01 5.1507634070685171e+00 9.8095971901480272e+00 8.1836306009010151e+00 1.0520724066903708e+03 -1.8571560849453462e+01 -4.8060349286067384e+02 7.0153001008840874e+01 3.9044025155169187e+01 -1.6834495016569690e+01 2.3147847239074615e+01 -6.6328828546034424e-01 7.7319843350024894e+02 -2.0946843259615088e+02 -2.1749937722008966e+01 2.5467644292693272e+00 1.1953803705792623e+00 3.7082642623009274e+00 3.5762381079576500e-01 -2.7982857801015907e+01 -1.6010841212091154e+00 1.2948248961146817e+01 -6.4059645414535398e+00 -1.5369249968192673e+02 -2.1910290690853966e+01 3.2385966004654665e+02 9.4666422973030222e+01 4.1636927733858528e+02 -1.4344563040431080e+00 -1.6872787644847003e+03 5.1223360866759333e+02 -6.7367011339961994e+02 6.2517449106783447e+00 1.6072091095242644e+01 4.5918568544506073e+01 2.2841969217993409e+01 3.4759205509310945e+01 9.5104335342179951e+00 -2.2507527842395740e+02 -1.0930664380983551e+01 7.5670066027078747e+01 1.5909032237428273e+03 3.5108770895350369e+02 -1.9713866178870134e+02 3.3375200498506285e+02 -8.9182767247566090e+00 -1.8625913081801366e+02 -5.5151579098170870e+01 -5.4108665989883821e+02 6.1792070601117828e+01 1.1328406005411253e+01 5.2327506031818672e+01 7.6117956910402995e+00 2.0882960213494101e+01 1.7682213243612743e+01 -9.1307760805189915e+01 1.6012401851658012e+01 -1.0294638051166287e+03 8.6118162737949649e+02 -1.5097625315097321e+02 2.3046647412064136e+01 -2.3580254661527962e+02 -1.2586208484612027e+00 1.8836671309489728e+02 1.4377698524104261e+02 -1.5526618256198449e+02 -1.4206338731451496e+00 -5.5994179536409872e-01 -3.6784710882002227e+00 -1.5861060943697680e-01 -1.8266116372864129e+01 1.5341806810482574e+00 2.1256497976767150e+00 -1.7831418904794982e+00 3.0827429668025871e+02 -5.2021834013022908e+02 1.1295449976811331e+02 
      </Row>
      <Row Index="16">
        -1.1274946215321121e+01 2.4203751283571457e+00 -2.2779164857158584e+01 -2.7384791479267205e+00 9.2276021515019238e+02 1.3679959646227246e+02 -1.0418066890546918e+02 6.3548211951438505e-01 -8.0849578237338648e-01 2.3153297815118492e+00 1.8823374590554010e+00 -9.5567672749106025e-01 -1.5754185032087786e-01 -1.0270782394024614e+02 -2.4926487163082342e+01 -1.0265091627604761e+02 2.5550325562182115e+02 -1.0462547263033958e+01 2.2663393946797852e+00 1.1156966881040448e+02 6.8828327540066048e-01 3.8112586044977786e+02 4.1329059809431079e+01 7.9436406007710332e+00 -4.5635567717102621e-01 -1.2544435857976384e+00 2.7154900706429475e+00 1.3305779459597034e-01 -7.2248320924442810e-01 1.1078106042869722e+00 -2.5447261486769456e+01 4.1221493444820556e-01 7.6822159263572274e+01 9.5954158996250328e+01 -5.2584170141417417e+00 -5.8526822413793637e-02 1.3261733893465733e+01 -2.3374443493095626e-01 5.2648709678091109e+02 -6.2515177027914985e+00 -7.0730751163392132e+00 6.8058834352086706e-02 -6.7949755685274105e-01 -9.6923066549179837e-01 6.6740759131880623e-01 8.2587953079041521e-01 2.6904860360611931e+00 -3.4441566586370680e+00 2.0817756699943857e+00 3.7026790942716744e+01 -2.5936931926215766e+02 3.5995987119134213e+01 4.2720503094453139e+00 1.3944029534290559e+02 -5.9410038565029533e-01 7.6593755383044481e+01 -1.8460754651233927e+01 2.1119817286395858e+02 -4.0118193073555393e+00 -9.5680241136148965e+00 5.7131863259243989e+00 -8.9597542230892735e-01 6.7787637745794065e+00 -8.1411999862374227e+00 2.4236340717896880e+02 1.4569076254889453e+00 3.3205632417435777e+02 2.2405859764262689e+02 6.2809153519056338e+01 -8.8242739905837286e-01 -1.1016744265366655e+02 3.4357838736423760e+00 -3.1237997418166269e+03 6.1645122351209409e+01 -5.9167703592347785e+01 -9.8820708555286130e-03 4.1707266788926383e+00 -3.2912985770724976e+00 5.3297579419337415e-01 -7.7237689320144334e+00 6.3717763287013831e+00 -5.9147361741772592e+01 -1.6318859697077728e+00 -5.4238615354710809e+01 9.6328683569179617e+01 -9.7786029076322851e+00 -7.7686457686650101e-01 -1.2798447332450618e+00 3.5268783438531792e-03 7.3576779253594577e+02 -1.3436032654455463e+01 3.5050645082354961e+01 -1.4622164198986476e+00 -1.4462949406495584e+00 2.6915540926344148e+00 -2.1552116660760134e+00 5.7607788337997983e+00 4.2847762156162889e-01 4.3415981305113647e+01 2.4932433746108859e-02 -9.7001331144016945e-01 2.2327889053084451e+02 -2.1428324857927814e+02 6.9650399051030920e+00 -1.4124379261311068e+02 -9.0248659306072909e+00 1.5258779203209190e+03 -2.0275116666480599e+01 -2.2102595875431365e+02 1.3541127430376761e+01 -2.6945821393785070e+00 -3.6747209510273429e+00 1.4782523667464730e+01 -1.4547482395057751e+01 -1.1605513434064370e+01 -1.3921786782970321e+02 4.4987675512274938e+00 -6.8385142821795625e+01 -9.0502223840076113e+02 -1.1128172680930682e+02 1.2514921989279811e+01 -9.1099992701888212e+01 -8.0550788143605914e+00 -1.6851682654636388e+03 4.9161867949137559e+01 -6.4993142103641475e+01 8.7664773892459440e+00 -1.1175165922016339e+01 4.6383065965784631e+00 1.4348448919215393e+01 -1.2599009158414018e+01 -1.2157453752337194e+01 -8.0862004674475628e+01 -1.5860893569383713e+01 1.3016250893104731e+02 1.1674677602946375e+02 -1.8999085946890841e+02 1.7048982789095819e+00 8.4766327455332814e+01 3.5912473229130781e-01 -1.0265000962061990e+03 4.9050518893280696e+01 -5.6173581648510677e+01 2.1385238724822692e-01 2.1509260462231325e-01 -6.1897932860796334e-01 -3.0986855028777427e-01 4.2605190320902580e+00 8.3613574437430427e-01 -9.9020554046255711e+00 6.3421791046866511e+00 -8.6051373180293083e+01 2.4321766523279230e+03 -1.5825933907949618e+03 
      </Row>
      <Row Index="17">
        -4.8449156737695955e+02 -2.7011965159121338e+01 1.8000170127305950e+01 4.0810324992065903e+00 -2.6365734216831625e+03 9.5923831012881578e+01 -1.2524828977682848e+01 3.8102066101946699e+00 -9.5404945117512985e-01 6.9816921243743435e+00 9.8662801926693300e-01 1.6677469615347649e+00 3.6271445897668508e+00 4.4759127933785464e+02 -1.0093984088010182e+00 -4.5672915584285079e+01 -1.0462571243406273e+01 1.0283020447971257e+03 -1.3945784550433483e+01 -3.0080476302267709e+01 -7.1493595358356243e-01 -1.1955863503965704e+03 -6.9177530405533716e+01 -6.2377601718748508e+01 -1.5354266456288912e+01 2.3133377621863476e+00 -2.0704223595042066e+01 3.8925870677626335e+00 -7.2696170095081376e+00 1.4194861057247402e-01 8.4387183371089634e+01 -1.1733695905872006e+01 -7.2450437785885015e+01 -5.9895302126409344e+00 8.4424706782409339e+02 -2.4966289667090260e+00 -2.8619846403004061e+01 2.1994350323155674e+00 -2.4922820778647438e+03 2.2626037448964894e+01 -1.5173652382426074e+01 5.1573031086627452e-01 6.1186506755763603e-01 3.7944748707073077e+00 2.2890378146321382e+00 -3.2003648486752301e-02 -4.8474121026222292e+00 1.5962526972860044e+02 -6.6845352241944056e-01 -2.0101540197141794e+01 -2.1653823145315982e+00 6.9549687664404485e+02 7.0145131679009012e+01 1.6931697566883696e+02 -1.7145120201173516e+01 -4.3733630025386810e+02 -2.4848153156037287e+02 1.9236561365529161e+02 -6.0459115175864426e+01 1.9285742162727431e+01 2.2404108551034586e+01 2.1917714061008354e+01 6.6756519393912995e+01 6.7460054405823655e+01 -2.9235150137400433e+03 -2.7920377836450804e+01 -2.2336480839592286e+02 6.8900134436644259e+02 1.0593465764841806e+03 2.4738756943576252e+01 -5.8170646337725223e+01 -8.7842375096374976e+00 -2.7033274515619223e+02 -1.5480821908017413e+02 -1.5584765353049016e+02 -1.8635091906906034e+00 3.8563949909157946e+00 2.8002882356950067e+01 -2.3044981931785435e+00 1.0237004538825447e+00 -8.9878657034786471e+00 3.2481942228895639e+02 -3.5155190667842957e+00 -1.6468001522227792e+02 -1.1143820479472490e+01 4.9364698526280094e+01 5.9783087662708567e+00 -5.8600719213328780e+00 -1.1278336905139799e+00 -1.5517987801432610e+03 1.3803741243690526e+00 8.2348381490681106e+00 3.1246600412786263e+00 9.0369052170590658e-01 1.8782851368321776e+01 -1.0083321664010240e+01 -5.1525763534657907e+00 -4.3176104182619746e-02 5.4925693471317095e+02 2.8954123426634206e+00 -4.3985318665400882e+01 -7.4293102883336082e-01 8.7966067442436028e+01 -4.9509120919062873e+01 -1.8120478641418464e+02 2.6622560200777230e+01 2.4441495081890503e+02 2.4244004635602437e+01 3.2501641447270038e+02 -2.1029864727634461e+01 -1.8143780175899238e+01 -4.6056405894611743e+01 -3.7745260854757973e+01 -1.6253805568281933e+01 3.7856997952045560e+01 -1.0730128968004283e+02 2.9630949171493178e+01 4.8887254951468566e+02 -6.7638242890523998e+02 1.4870532109656392e+03 2.3798535197236518e+01 -6.5236883614554174e+01 4.2330378081375812e+00 -3.3216285466326553e+02 -3.0745681516492738e+02 3.8219016161568265e+02 -8.8136226452671451e+01 6.3618530532742756e+00 -4.4029224196445682e-01 -2.0113330979027133e+01 4.5111948222676403e+01 9.7953884936269532e+01 -1.9438709254448495e+03 -1.0429137457582655e+01 1.3454779787890755e+02 4.1286527251354883e+01 -2.9481033649270325e+03 -1.3264213195836895e+01 -8.3746655431917247e+00 -9.7263266757797018e-01 -1.3847686331158709e+03 3.5720327786370262e+01 -3.6240378584431511e+01 3.7854688376581391e+00 -1.2828858656386456e-02 -1.3053647969209432e+01 -1.4727398232225823e+00 -4.9723219833950054e+00 -1.4412335297383587e+00 1.2784154277106063e+02 1.5271026103411178e-01 9.0720528687118176e+01 4.8389799568888904e+01 -1.5752139292155759e+03 
      </Row>
      <Row Index="18">
        -2.1036932821485825e+00 4.8454950298607553e+00 1.7919220894826622e+00 4.5018324694985075e-02 -2.6954031502653379e+01 -4.4519333327017939e+01 1.8049364080677005e+01 7.4019967519040678e-03 -2.4167744178662759e-01 -3.8411432193295492e-01 1.5957549097611207e-01 5.1289316516672923e-01 -1.1248645834508297e-01 -3.7822483791617309e+01 1.1956091374955559e-01 1.9183482894894588e+01 2.2663399384507557e+00 -1.3945784197797359e+01 3.7838702012982433e+00 9.7351455649730501e-01 -1.7331388814865917e-01 -1.6983018092505390e+01 1.5395478870096275e+01 6.8687085985228453e+00 3.5162417160189585e-02 1.8755009239396429e-02 5.4119553726552139e-01 -3.1292218426446539e-01 5.2711958217774568e-01 1.6226610347113027e-01 -9.7664502467769196e+00 2.6346125649415734e-02 3.6000616764343230e+00 2.8502052197600727e+00 -1.2164703775951409e+01 1.3408773750687384e+00 1.4428238137357927e+00 -7.0324318084048376e-02 -2.8237601989909308e+01 3.7665626439855071e-01 1.0261810416790809e+00 6.7204976844127629e-02 -5.8062446922013913e-02 4.1098020108433081e-02 -7.9874319907805358e-02 2.3275832637451366e-02 2.1352254270427329e-01 1.3133167445715342e+01 -1.7571526170318919e-01 3.2299798008624143e+00 -1.1268012876846569e+00 -4.2061584576359383e+00 -1.3953396684611125e+01 -6.7061610208810745e+00 6.6802253383690402e-01 3.1512875569052994e+01 7.3560906032346329e+00 -3.7891609996508194e+01 9.7262122265453899e-01 -1.0820882980320325e+00 -9.4563659672710054e-01 -1.1997022836565641e+00 1.0059911453130432e-01 -4.9156083889631108e-02 1.0250843899012594e+02 9.9999965390423318e-01 2.0482873428719898e+01 2.2260370670357830e+00 -1.4061483446196021e+01 -2.4790512138491416e+00 -2.7509380485498847e+00 -2.1362663681868899e-02 -2.7601503291254367e+01 1.8287433358453963e+01 2.8099383655693416e+01 -1.0895091504430998e-01 3.1183656572057883e-01 -3.3447863112716020e-01 1.1145178966578573e-01 -5.3453345165895860e-01 5.6648621208599836e-01 4.1032294029253706e+01 -1.5069155304241119e-01 -1.6673322953331436e+01 2.7793202920126072e+00 -1.0359802456586289e+01 -1.4607804300996037e+00 2.6906725549944719e+00 4.6308803951027308e-02 -3.9786406149796676e+00 1.9531575073756842e+00 -3.7700414836549490e+00 -6.6551693062854106e-02 -1.1286202130457265e-01 -3.3572067277476059e-01 7.1455935026595896e-01 -1.4828692426110462e-01 -8.3233896591261691e-03 4.9364311066346183e+00 -2.7141436513247486e-01 -8.1194886624333371e+00 5.3054086709527515e-01 5.2753393060982674e+00 8.8016379342139981e+00 -1.0316175614412879e+00 -2.4778386962305086e+00 -6.9330807626866459e+01 -2.4191050532511969e+01 -2.1181665935762879e+01 2.9340797436582089e-01 1.5166792487252347e+00 2.4934781512407698e+00 1.4241192499082715e+00 -8.9244059908746598e-01 7.2851544655932132e-02 -4.4745534023276221e+01 -8.4475770517503590e-01 1.1594676715874002e+00 -9.0117606625430291e+00 -1.7894645765042785e+01 -3.3436365561915276e+00 -4.9428032685899321e+00 -1.8935205548954150e+00 -6.1876951620761247e+01 -6.6995999304960439e+00 -3.1469360842422159e+01 1.1547790710786316e+00 4.7535355385484784e-01 1.2907112219167503e+00 6.8848092836014896e-01 -7.2359323929076425e-01 6.4115594278975119e-01 6.6828333151943866e+01 -2.5875388539556399e-02 -6.1280252744059975e+00 -2.4379126211877669e+00 1.8555351669767401e+01 2.6406430874889097e+00 2.2340543963136752e+00 2.2494266604808126e-02 1.1183422659071898e+01 -1.7725087156881695e+01 1.4756606748700948e+01 5.2875269451648874e-02 1.9467332226986430e-02 4.1846892717279760e-01 8.5369013480490530e-02 1.8033916278614504e-01 6.2479317884977167e-02 -1.7329882435413708e+00 1.1008594286401369e-01 -4.0328635625267966e+00 1.3886425846481657e+01 -8.3871449674540326e+00 
      </Row>
      <Row Index="19">
        -3.8523773481957107e+01 1.2946396057094611e+00 -6.7314937009056948e+01 -9.2020763580936027e-01 1.0441376512255520e+03 -2.8609629549208833e+01 -1.3140838520666713e+02 -1.1310677543810446e+00 -1.1971017195027904e+00 8.6975547953304790e+00 -2.1609293722274896e+00 -5.5771193744057603e+00 4.8060211657494145e-01 -1.9465468540221755e+02 -1.1813437421937492e+01 -2.3217713587190420e+02 1.1156966251350241e+02 -3.0080467904745547e+01 9.7351425566197669e-01 2.6255528523346891e+02 -2.4261326832320146e-01 4.3143872433228029e+02 1.0835804310130702e+02 1.0160866996572949e+02 7.9246023630141664e+00 -1.5004442447054054e+00 7.5099835911669599e-01 1.3569995288810333e+00 1.9375459784848037e+00 3.9776861068614139e-01 1.3573116590804349e+02 -1.9245293005296285e+00 1.9755124187273577e+02 2.8413081337223979e+01 1.8575462306507688e+01 6.0532789110696095e-02 1.4586789517588988e+01 -1.0066104497991377e+00 2.8195310629019514e+02 -5.4665462251270647e-01 2.0613101946409143e+00 -1.0803560396982448e-01 -1.5967410577833316e+00 1.6705508404233343e-01 -1.6233744453470536e+00 -2.2571330801874137e+00 -2.3229226726661523e-01 4.4517106803099459e+01 2.2962068059860030e+00 3.5182474941465202e+01 -1.1353313464071834e+02 9.7065041319560862e+01 4.2624263599428502e+01 2.6132608546734809e+02 -7.4495629153068998e-01 2.5579895501956344e+02 2.0330098144084681e+02 1.6191861612738060e+02 -3.3386372078316320e+01 -2.1479166841317259e+01 1.4067054309452372e+01 4.6462915558022821e+00 7.6130064907833628e+00 -1.8610209436992672e+01 2.5062251662917788e+02 -7.1347254654269054e+00 9.0510010076969570e+02 -2.2946921676897915e+02 7.9014631969001670e+00 -4.6655250436990876e+00 -1.9261401409919341e+02 4.6019778735128067e+00 3.1659644530838614e+02 2.6215659512462076e+02 1.2213371500156936e+02 -1.1138009292174347e+00 2.0473450712262204e+00 2.5327745337933312e+00 6.1036875782098710e-01 -1.0970366025345292e+01 -7.9243936727010755e-01 -6.0998608006406940e+01 6.7869475922161113e+00 -3.6182858145475542e+01 4.6392470600956933e+01 -8.4631134244466111e+01 2.1798652872348612e+00 -3.4320725283282192e+00 8.4014848425564934e-02 1.1384576729517430e+03 2.7038283059810936e+01 3.6117467467495842e+01 -4.3962246750139879e+00 -1.0137046926700757e+00 7.8572684750461512e+00 2.8345759570594602e+00 1.2416989323922312e+01 1.0364828979679113e+00 2.4345805957866042e+02 4.4950942728224719e-01 3.2072968984461156e+01 6.3399863723469920e+01 1.7376796477639763e+02 6.8234516379190921e+00 -1.5819580479003429e+02 -4.6845522287025307e+00 -1.5313390280539170e+02 -5.9337620019697169e+01 -8.0594470220727132e+01 8.2512305551361429e+00 1.2021858674531583e+00 -5.4301523557766114e+00 1.1082892121802224e+01 -2.5092511021859458e+01 -5.8543536924198705e+00 -1.4476449768079306e+02 -5.4098253449159017e+00 -1.5041818521697886e+02 -3.6589304487315349e+02 2.6808015968493083e+02 4.8626174465307059e+01 -6.0268156610404802e+01 -2.5522136975580985e+00 1.5111486434266652e+02 3.6407449232642875e+02 1.9382221629378347e+02 -2.3789662580222643e+01 -2.1625229118111690e+01 2.3236387051981005e+01 1.6820264905506960e+01 -2.5382655992047731e+01 -2.3828067835700306e+01 1.7190146793551114e+02 -1.7535903523289790e+01 5.6155290153863530e+02 -2.0659054457915835e+02 -5.9287043885598041e+02 1.2394922097469439e+00 1.8161433289725588e+02 4.7052914226085385e-01 -9.2796170276027897e+02 3.3178576969642677e+00 -1.1592495663332645e+01 -2.3777461603075318e+00 2.7361436792383970e-01 -5.6116218531560058e+00 6.9352574661377275e-01 9.6114004145054679e+00 -2.2954251083146271e-01 9.6286034078329976e+00 2.9604435481267939e+00 -1.7068187336339096e+02 1.2158115429901641e+03 -8.6123244484922543e+02 
      </Row>
      <Row Index="20">
        1.2039671816791779e+00 -2.0655703337209921e-01 1.7044723788330434e+00 -7.5471680377682426e-01 1.9428458588299691e+00 1.6055015698013309e-01 2.6841802542773543e+00 1.3054407408585383e-02 -2.0351172981657917e-01 2.0773729068615274e-02 6.3231942787840834e-02 1.0686970807210794e-01 1.7976887547723096e-02 9.0600529071818947e-01 2.4171785423326347e-01 -2.1036399155659020e+00 6.8828327679477752e-01 -7.1493588521046236e-01 -1.7331388952500393e-01 -2.4261325486773377e-01 5.7654562893278360e-01 1.0379011649978054e+00 -5.0426499985664153e+00 -2.0091232294805161e+00 1.2087125266767695e-02 3.4649415156515914e-02 4.6345383511924715e-02 -1.7321805470923657e-02 -1.0073260501464822e-02 -2.7950500547123946e-03 -2.6519515677172105e+00 1.2654145230208605e-01 -2.0720215420307295e+00 5.1033588515030548e-01 -7.7835851179608539e-01 -8.4185469867900445e-02 -2.3510290316299054e-01 -1.2214194423134929e-01 2.9473731087273336e-01 -8.5770925965438982e-01 2.4575046890078855e-01 -4.9758056751042279e-02 1.2274497395941306e-01 4.0165235580852859e-02 3.2026977858663486e-03 9.2548595477208118e-02 -1.1364864708991201e-01 6.1821648966835119e-01 -2.1943072161352717e-02 4.6455358639889344e-01 -1.1398485424263640e+00 -7.0568731660014761e-02 4.9291396619088879e-01 2.2401821263224875e-01 3.9284368685233317e-01 4.7674469123594463e+00 1.4862232042315662e+00 -7.1063456107517542e-01 -5.0880791091687111e-02 -5.9645805790001893e-02 -6.1354314043603822e-03 3.2858055392580410e-02 -3.0748340174761557e-01 -3.7217076421605225e-02 -1.0921914642576880e-01 2.1483562777870521e-01 -8.6051688579978673e+00 -9.4926154542873498e-01 -7.2065332141311451e+00 1.0620048305718541e-01 -1.3995722457591939e+00 1.5575745621950865e+00 -9.9177701767520876e+00 -4.2968151232292824e+00 -3.6907506091829512e+00 2.4674139463332190e-02 1.6854490316926993e-01 -7.5386946477394690e-02 -1.2340985447039114e-01 1.4084636533969876e-02 -6.1328777777677777e-02 -2.5964656262001640e+00 -8.4906226084067241e-02 4.0907689772982740e+00 7.0319110148225561e-01 -1.1509828461061049e+00 9.1741967563956806e-02 -6.2326892193884631e-01 1.4086433971793350e-01 -6.4953854297946236e+00 3.1598876640055146e-01 -6.4058771745710508e-01 1.2585645240261321e-02 6.4242306508255312e-02 -3.0596998241493575e-02 9.9692930145920511e-02 3.8867956840745572e-02 -6.1951069997450703e-03 -7.5620947971959067e+00 5.7644153999685966e-03 1.5675003832961629e+00 2.7470321765084549e-01 -2.0849274236176858e+00 -8.2684398307466167e-01 -1.4165694790343658e-01 -4.3872368901991354e-01 6.4407178361944943e+00 1.6481255995895272e-01 4.6923624775019759e+00 5.0510275859742847e-02 1.5473612038865348e-01 -1.0472775790326339e-01 6.7880131621098738e-01 1.1471301013984905e+00 7.7571853769668930e-01 1.3466218125450808e+01 2.5847890676454038e-01 -1.5122121412688367e+00 2.3501736050612578e+01 -9.3312489437975152e+00 -3.4011044872376117e-01 -8.7314433816236670e-01 1.2729365577737664e+00 -3.3769434073133198e-01 -4.5548209000588908e+00 3.8117484645048272e-01 2.2698702148262362e-02 1.7787676437474220e-01 -1.3247161698850873e-01 7.1334415554786101e-01 1.0005908352592536e+00 6.5027577839922213e-01 3.2664984522903371e+00 6.9280194342231916e-01 -4.9878176187263357e+00 2.4103829475292830e+01 2.4155079266879644e+00 -1.0298022205408885e-01 -2.7906593233030891e-01 1.2763813741843807e-01 -1.9691236092774809e+00 2.7461317249225592e-01 1.7714796685471623e-01 -7.9209797426685706e-03 -2.3720338421892483e-02 4.5868940366735993e-03 1.2321445370244710e-02 -8.8854848971764988e-03 -2.8523928631154442e-02 -9.4349537793526572e-01 -7.7545072620073638e-02 1.2817031016066682e-01 6.4769408237128836e+00 -1.9041788003318287e+00 
      </Row>
      <Row Index="21">
        -4.4391975810139024e+02 -1.2120990055171052e+02 -7.7061038398925476e+01 -8.6884603502706828e+00 7.1851580521563068e+04 7.7271707655723094e+02 -3.7568388005883412e+02 -5.1217777503070883e+00 -2.0051737087149917e+00 1.0499092354953365e+00 1.8788136027794984e+01 -7.1705527178236849e+01 7.1628702261371870e+00 -3.1546117892185421e+03 3.3914730745800355e+01 -7.4180089330444571e+02 3.8112586407671188e+02 -1.1955863433027826e+03 -1.6983018289490012e+01 4.3143872719249629e+02 1.0379011935518625e+00 5.5969350369590800e+04 -7.7786811246579373e+02 -1.3663840168576786e+02 4.6143822900669207e+01 -1.5514282580898495e+01 -1.3717383335486488e-01 1.0587192975910511e+01 5.8998177051406451e+00 4.2996989029110466e+00 6.0549530651729469e+02 6.1116259519405403e+01 4.8076513331173464e+02 8.0939312897174744e+00 -7.5084025723229752e+02 -1.3579729427652738e+01 -7.3530694885861891e+01 -9.2859227000822813e+00 9.2390942714272998e+04 -2.8440298324899487e+02 -1.5419520523324621e+02 -4.0654840341051113e-01 -1.8022570552990558e+01 6.3004971271922052e+00 2.1747654827267979e+00 -1.1789375939194031e+01 -1.5502650040843676e+01 -1.5671616043529059e+03 -1.7387432057106707e+01 -2.4219816174123812e+02 4.6516265352483606e+02 -5.7881657724327158e+02 1.0957298135912288e+02 6.1262315691342167e+02 -3.3105924862228520e+00 -2.9159709638664499e+03 7.1579651162500738e+01 1.1478654066836737e+03 7.5188716061882786e+01 -7.5102328628453279e+00 1.0666560403124096e+02 7.5483651140679981e+00 -4.0950888683993291e+01 -1.1661497475740966e+02 6.8324384051574389e+03 -6.7448911769000986e+01 1.4657804780510612e+03 1.5610877738670995e+04 -2.2416217178058755e+03 4.8945927420086285e+01 -1.8943460462676504e+02 2.7512775023893454e+01 -5.9389091167367815e+03 -1.3288005941962973e+02 -7.2425849724764930e+02 2.3518187898350419e+01 2.6401975783243728e+01 1.0136214411023298e+01 -2.1417683246009421e+01 9.1399408240668237e+01 -3.5263510810063565e+01 1.4321145651285569e+03 4.0734299753675032e+00 1.1511794419739674e+03 -1.7153581018787528e+02 1.8068718634611719e+02 5.3590968620572767e+01 -1.8865081177818206e+02 8.1283158750655726e-03 5.1297910726733040e+04 -2.0315744560712506e+02 -1.2993213467375290e+02 -1.7916756039138924e+00 -1.0050348599202630e+01 3.7716363162034312e+01 2.1652752112612490e+01 -2.0377025293086390e+01 5.9800539814855522e+00 -2.6928546306038184e+03 -1.4701590707838154e+01 4.2861026429732522e+02 3.8632910126547108e+02 6.8505808370309314e+03 -3.1874302810166773e+02 8.1165698996668493e+02 1.1904851115558927e+02 2.2774436788395673e+04 9.3518063886645814e+02 2.7931495210495132e+02 3.5390054724662139e+02 1.2981401898591685e+01 -4.7287785282699026e+01 -4.6771221948450034e+01 4.1898521041929496e+02 -1.7012885099771728e+02 8.9477265673921011e+03 -1.3766394964999810e+02 -8.4206180803099414e+02 6.3871112329330936e+03 4.1555812735446816e+03 -2.0353227027054390e+02 1.0767108996128215e+03 1.2810000355378750e+02 3.9139491499644610e+03 3.2700619808691499e+02 6.2076068289373393e+02 4.7211549556757052e+02 2.6417005617150480e+00 7.5032712884438837e+01 -2.0162923247113326e+01 3.9434590513289953e+02 -3.1107160916895725e+02 1.1378290274679130e+04 -1.3632976616501492e+02 1.7218933899972756e+03 2.3058393054115269e+04 1.4755813381275566e+03 -4.4338982243579473e+01 3.5497687413646520e+02 3.1189291008642570e+00 -4.4702247418037371e+02 4.7478428395058768e+02 -3.6793293212778923e+02 -1.5557533297266877e+01 3.0824959911411511e+00 -2.3085205458363905e+01 1.2093914830041399e+00 -9.1410436420044334e+00 -4.8697485282923676e+00 -3.9430787988216275e+02 -2.3469335902026121e+01 -2.3683201278684876e+02 1.6350047864106375e+03 3.5802996837801089e+02 
      </Row>
      <Row Index="22">
        9.4208349735195668e+01 2.1019160673612269e+01 -4.3264123748901483e+01 3.4853104427934678e-01 1.1630332603689749e+02 -4.2293829839077932e+02 -3.4549525373028393e+02 -1.5842425968560068e+00 -7.0843450780715944e-01 3.5214356680700134e+00 -1.6618095275458433e+00 -4.6557516604716955e+00 3.1535893211945387e-01 -5.9412828761376045e+02 -5.1291303859097406e+00 9.7463110485507499e+01 4.1329066884491112e+01 -6.9177520793683257e+01 1.5395478839643440e+01 1.0835804762051032e+02 -5.0426499825563678e+00 -7.7786811341694556e+02 9.7989514988439771e+02 4.6081802859344577e+02 -1.2528945035117680e+01 -1.0025349551276741e+00 -3.2548674484490672e+00 -1.5363682792376778e+00 9.5312708530505361e+00 -4.4124417473441402e-01 3.1907849624207944e+02 1.5223786249463145e+00 8.8021547196282540e+01 2.5130216392483440e+01 -5.8762158717881221e+01 5.6924422300891173e+00 7.5250072529734195e+00 -2.8707972420335546e+00 -2.0387475148726953e+03 8.6133959622023099e+01 5.2291400968120669e+01 3.6514790786804951e-01 -8.4778609873131761e-01 2.8625149949772877e-01 -1.9449078032084230e+00 -3.0993368640186421e+00 2.1357295497758022e+00 1.6814588815814133e+01 3.8523245739633012e+00 -1.4699459311951554e+01 -1.1442561330333592e+02 -7.3386415497800584e+01 -1.0170175104972235e+02 2.6995784687733232e+02 5.9829711505045982e+00 4.4126840511744376e+02 7.9161514008912832e+01 -1.5361642298599779e+02 4.3783246043036108e+01 1.3131525417844884e+01 8.2027001301766624e+00 1.4381101380141992e+00 1.5432755718382538e+01 5.3744552445136602e+00 3.2082177323424162e+02 3.7403234160299355e+00 8.3561574819798875e+02 1.4924971856905387e+02 -1.6232490902022417e+02 -2.6642981733798241e+01 -2.1628703308308698e+02 6.3374593696626036e+00 -2.0485067054941615e+02 1.5154645454277618e+03 5.8329742158842669e+02 -1.6304455333442522e+01 8.1303172674342505e-02 2.1089165695677714e+00 4.2415481544224747e+00 -2.8386866369386581e+01 2.1866799360801767e+00 -2.0042307253274942e+01 -5.9416724071960330e+00 -3.9616858142084135e+02 5.3164577543499199e+01 -3.2376658726167761e+01 -3.0878452013100173e+00 4.5844078919526787e+01 1.2756925545206714e+00 1.1919008148292196e+03 2.8854285815258692e+01 5.6636141561555938e+01 1.7175999285929542e+00 -1.3197689381469275e+00 6.1766413124482433e-01 5.9638775805837554e+00 1.1005757674501568e+01 6.4731386985198980e-01 4.6341988692691530e+02 -3.4570981623661452e+00 -5.7487373673368296e+00 8.7636205589537965e+00 -3.4806959051693468e+02 1.2953601982204978e+02 -1.4494449288639214e+02 -3.3203097845187713e+01 -9.9017652713241841e+02 -6.8063769863831476e+02 -5.1314689129390945e+02 -4.5614418244468993e+01 3.6379411415748102e+01 6.9433055800396417e+00 1.1193295537097029e+01 -6.6840842523257365e+01 4.1907045047228358e+01 3.9561336532882649e+01 2.7657580140190676e+00 3.6337767811583603e+02 -1.3604539685795316e+01 -6.5050679938814551e+02 2.3451759366703591e+01 -4.8785414462529786e+01 -2.5711452850226607e+01 -6.4223442476908804e+02 9.8816612471681901e+02 -1.8363909375299272e+00 -2.3924509452510890e+01 4.6837881997919268e+01 1.9003728795765369e+01 1.7484382763811738e+01 -6.8428691718244721e+01 4.9952818915679032e+01 5.1941876659718059e+02 -4.3168469232775948e+00 4.5857727324531038e+02 2.4759869504064946e+02 6.7099716143039348e+02 1.1776742411767369e+01 1.5306800570459851e+02 8.8377383293217893e-01 1.5169514604106402e+02 -1.7247187035983296e+02 2.3239415854533661e+01 4.5397122802737258e+00 2.5000875486603341e-01 5.8158181184314039e-02 1.0027194679005476e+00 1.3283970415670126e+01 3.6078499046064283e-01 -2.5655814614377732e+00 4.5385813242202921e+00 -2.7438598171641598e+02 5.6164168070076221e+02 -4.9801319602756038e+01 
      </Row>
      <Row Index="23">
