<?xml version="1.0"?>
<MethodSetup Method="MLP::MLPTuned">
  <GeneralInfo>
    <Info name="TMVA Release" value="4.1.2 [262402]"/>
    <Info name="ROOT Release" value="5.32/00 [335872]"/>
    <Info name="Creator" value="ineuteli"/>
    <Info name="Date" value="Thu Nov 19 13:53:27 2015"/>
    <Info name="Host" value="Linux cmsdev02.cern.ch 2.6.32-431.11.2.el6.x86_64 #1 SMP Wed Mar 26 09:39:43 CET 2014 x86_64 x86_64 x86_64 GNU/Linux"/>
    <Info name="Dir" value="/shome/ineuteli/phase2/CMSSW_5_3_24/src/Delphes/plots"/>
    <Info name="Training events" value="21448"/>
    <Info name="TrainingTime" value="3.58206082e+02"/>
    <Info name="AnalysisType" value="Classification"/>
  </GeneralInfo>
  <Options>
    <Option name="NCycles" modified="No">500</Option>
    <Option name="HiddenLayers" modified="Yes">N+10</Option>
    <Option name="NeuronType" modified="Yes">tanh</Option>
    <Option name="RandomSeed" modified="No">1</Option>
    <Option name="EstimatorType" modified="No">MSE</Option>
    <Option name="NeuronInputType" modified="No">sum</Option>
    <Option name="V" modified="Yes">False</Option>
    <Option name="VerbosityLevel" modified="No">Default</Option>
    <Option name="VarTransform" modified="Yes">N</Option>
    <Option name="H" modified="Yes">False</Option>
    <Option name="CreateMVAPdfs" modified="No">False</Option>
    <Option name="IgnoreNegWeightsInTraining" modified="No">False</Option>
    <Option name="TrainingMethod" modified="No">BP</Option>
    <Option name="LearningRate" modified="No">2.000000e-02</Option>
    <Option name="DecayRate" modified="No">1.000000e-02</Option>
    <Option name="TestRate" modified="No">10</Option>
    <Option name="EpochMonitoring" modified="No">False</Option>
    <Option name="Sampling" modified="No">1.000000e+00</Option>
    <Option name="SamplingEpoch" modified="No">1.000000e+00</Option>
    <Option name="SamplingImportance" modified="No">1.000000e+00</Option>
    <Option name="SamplingTraining" modified="No">True</Option>
    <Option name="SamplingTesting" modified="No">False</Option>
    <Option name="ResetStep" modified="No">50</Option>
    <Option name="Tau" modified="No">3.000000e+00</Option>
    <Option name="BPMode" modified="No">sequential</Option>
    <Option name="BatchSize" modified="No">-1</Option>
    <Option name="ConvergenceImprove" modified="No">1.000000e-30</Option>
    <Option name="ConvergenceTests" modified="No">-1</Option>
    <Option name="UseRegulator" modified="Yes">True</Option>
    <Option name="UpdateLimit" modified="No">10000</Option>
    <Option name="CalculateErrors" modified="No">False</Option>
    <Option name="WeightRange" modified="No">1.000000e+00</Option>
  </Options>
  <Variables NVar="7">
    <Variable VarIndex="0" Expression="bjet1Pt" Label="bjet1Pt" Title="bjet1Pt" Unit="" Internal="bjet1Pt" Type="F" Min="2.38701992e+01" Max="1.10554028e+03"/>
    <Variable VarIndex="1" Expression="jet1Pt" Label="jet1Pt" Title="jet1Pt" Unit="" Internal="jet1Pt" Type="F" Min="2.00867805e+01" Max="1.07285205e+03"/>
    <Variable VarIndex="2" Expression="DeltaR_b1l" Label="DeltaR_b1l" Title="DeltaR_b1l" Unit="" Internal="DeltaR_b1l" Type="F" Min="3.54870975e-01" Max="4.48389149e+00"/>
    <Variable VarIndex="3" Expression="DeltaR_b2l" Label="DeltaR_b2l" Title="DeltaR_b2l" Unit="" Internal="DeltaR_b2l" Type="F" Min="4.23246354e-01" Max="7.69836182e+02"/>
    <Variable VarIndex="4" Expression="M_bb_closest" Label="M_bb_closest" Title="M_bb_closest" Unit="" Internal="M_bb_closest" Type="F" Min="8.52508640e+00" Max="3.20542749e+03"/>
    <Variable VarIndex="5" Expression="DeltaR_j1l" Label="DeltaR_j1l" Title="DeltaR_j1l" Unit="" Internal="DeltaR_j1l" Type="F" Min="2.90729791e-01" Max="5.16654682e+00"/>
    <Variable VarIndex="6" Expression="DeltaR_j2l" Label="DeltaR_j2l" Title="DeltaR_j2l" Unit="" Internal="DeltaR_j2l" Type="F" Min="4.27045226e-01" Max="4.57230957e+02"/>
  </Variables>
  <Spectators NSpec="0"/>
  <Classes NClass="2">
    <Class Name="Signal" Index="0"/>
    <Class Name="Background" Index="1"/>
  </Classes>
  <Transformations NTransformations="1">
    <Transform Name="Normalize">
      <Selection>
        <Input NInputs="7">
          <Input Type="Variable" Label="bjet1Pt" Expression="bjet1Pt"/>
          <Input Type="Variable" Label="jet1Pt" Expression="jet1Pt"/>
          <Input Type="Variable" Label="DeltaR_b1l" Expression="DeltaR_b1l"/>
          <Input Type="Variable" Label="DeltaR_b2l" Expression="DeltaR_b2l"/>
          <Input Type="Variable" Label="M_bb_closest" Expression="M_bb_closest"/>
          <Input Type="Variable" Label="DeltaR_j1l" Expression="DeltaR_j1l"/>
          <Input Type="Variable" Label="DeltaR_j2l" Expression="DeltaR_j2l"/>
        </Input>
        <Output NOutputs="7">
          <Output Type="Variable" Label="bjet1Pt" Expression="bjet1Pt"/>
          <Output Type="Variable" Label="jet1Pt" Expression="jet1Pt"/>
          <Output Type="Variable" Label="DeltaR_b1l" Expression="DeltaR_b1l"/>
          <Output Type="Variable" Label="DeltaR_b2l" Expression="DeltaR_b2l"/>
          <Output Type="Variable" Label="M_bb_closest" Expression="M_bb_closest"/>
          <Output Type="Variable" Label="DeltaR_j1l" Expression="DeltaR_j1l"/>
          <Output Type="Variable" Label="DeltaR_j2l" Expression="DeltaR_j2l"/>
        </Output>
      </Selection>
      <Class ClassIndex="0">
        <Ranges>
          <Range Index="0" Min="2.3870199203491211e+01" Max="9.0402545166015625e+02"/>
          <Range Index="1" Min="2.0086780548095703e+01" Max="7.2419335937500000e+02"/>
          <Range Index="2" Min="3.5487097501754761e-01" Max="4.4814047813415527e+00"/>
          <Range Index="3" Min="5.4814732074737549e-01" Max="7.6983618164062500e+02"/>
          <Range Index="4" Min="8.5250864028930664e+00" Max="1.4609707031250000e+03"/>
          <Range Index="5" Min="2.9072979092597961e-01" Max="5.1665468215942383e+00"/>
          <Range Index="6" Min="4.2704522609710693e-01" Max="4.5723095703125000e+02"/>
        </Ranges>
      </Class>
      <Class ClassIndex="1">
        <Ranges>
          <Range Index="0" Min="2.7465524673461914e+01" Max="1.1055402832031250e+03"/>
          <Range Index="1" Min="2.1614933013916016e+01" Max="1.0728520507812500e+03"/>
          <Range Index="2" Min="3.7667608261108398e-01" Max="4.4838914871215820e+00"/>
          <Range Index="3" Min="4.2324635386466980e-01" Max="6.3176385498046875e+02"/>
          <Range Index="4" Min="1.2813421249389648e+01" Max="3.2054274902343750e+03"/>
          <Range Index="5" Min="3.2630905508995056e-01" Max="4.3421802520751953e+00"/>
          <Range Index="6" Min="5.0550889968872070e-01" Max="3.3901596069335938e+02"/>
        </Ranges>
      </Class>
      <Class ClassIndex="2">
        <Ranges>
          <Range Index="0" Min="2.3870199203491211e+01" Max="1.1055402832031250e+03"/>
          <Range Index="1" Min="2.0086780548095703e+01" Max="1.0728520507812500e+03"/>
          <Range Index="2" Min="3.5487097501754761e-01" Max="4.4838914871215820e+00"/>
          <Range Index="3" Min="4.2324635386466980e-01" Max="7.6983618164062500e+02"/>
          <Range Index="4" Min="8.5250864028930664e+00" Max="3.2054274902343750e+03"/>
          <Range Index="5" Min="2.9072979092597961e-01" Max="5.1665468215942383e+00"/>
          <Range Index="6" Min="4.2704522609710693e-01" Max="4.5723095703125000e+02"/>
        </Ranges>
      </Class>
    </Transform>
  </Transformations>
  <MVAPdfs/>
  <Weights>
    <Layout NLayers="3">
      <Layer Index="0" NNeurons="8">
        <Neuron NSynapses="17">
          -4.4536297173887002e-01 3.1596141880103215e+00 7.5043586376663518e-01 3.4649429328688814e+00 -2.0317545949095006e+00 -1.5413917382153337e+00 -1.1277981553029883e+00 1.3880836671644681e+00 -3.5317827862554468e-01 -1.8458889686467911e-01 -3.2188599997303342e+00 -8.4601132849329172e-02 -1.5784533251234012e+00 -1.4751775772791131e+00 -8.9556308199501666e-01 1.0949142623830743e+00 -9.1956121985058392e-01 
        </Neuron>
        <Neuron NSynapses="17">
          1.7942548247193226e+00 5.8927452068644848e-01 2.0114010863479166e+00 -3.2965194241410156e-01 -7.4417601636926201e-01 1.1547184286137198e+00 9.1116448675842621e-01 -1.5116975656387313e+00 -4.3903554320112427e-02 6.7740606677346415e-01 -1.6652324594098666e-01 -1.1817943553230033e+00 2.6129921210791596e-01 3.8730160281608078e-01 1.6384681544403819e+00 -7.0927199286572803e-02 -5.1447838173906968e-01 
        </Neuron>
        <Neuron NSynapses="17">
          2.3003019593330942e-01 -3.1370244196833585e-01 -1.1729038950271702e+00 1.1042401789964797e+00 -1.1953585743705719e+00 -2.9408947685962772e-01 -1.6131644069984921e-01 2.2943001144410891e-01 1.5020586195269410e+00 2.5775290801698784e-03 -3.8088533915070399e-01 -3.4601311981482792e+00 1.4782687316961445e+00 3.2300265983367304e-01 1.4385961040305553e+00 2.3083007672682335e-01 1.6134181881779182e+00 
        </Neuron>
        <Neuron NSynapses="17">
          1.3902713906037827e+00 -2.6394487949530174e+00 1.2554160916707540e+00 -1.8056708598432034e+00 -8.8751270946097238e-01 -1.4475951352015013e+00 -2.0121149096496289e+00 7.3112375168859878e-01 8.9741452596559035e-01 -1.5492090366529134e+00 1.5176686351706667e+00 4.2799393963218374e-01 -9.4756812520515057e-02 1.3550645676605049e+00 4.1857342456557249e-02 5.6372784788495078e-01 -1.0566504175336848e+00 
        </Neuron>
        <Neuron NSynapses="17">
          8.2665124152002101e-01 -1.8220455296132532e+00 -2.1018454102474928e+00 -5.0220689529314795e+00 7.5987681271258511e-01 3.6078003538745302e+00 3.1289340739147797e+00 -9.9977213301068790e-01 -1.8985880828087944e+00 -1.8961851785958794e+00 1.4501735755384135e+00 1.9676773919306321e+00 3.3236002633820707e+00 1.1906616978368155e-01 7.6731380526011828e-01 -1.0746961980148544e+00 -8.6904987947849921e-01 
        </Neuron>
        <Neuron NSynapses="17">
          -2.0700311541700248e-01 -1.4725280785031328e-01 -8.5632001297017213e-01 -3.4838693010877870e+00 -1.6749652851266270e+00 -1.7103202799557038e-01 -5.2627144312266602e-02 9.1112597221977842e-01 -1.8844849832168777e+00 -1.2728542229174403e-01 9.0959245876254280e-01 -1.8817578403725060e-01 -1.0656916777613286e+00 -5.3011158278432469e-01 -1.0195322354887788e-01 -1.4922899906596054e-01 -1.4618558792434870e+00 
        </Neuron>
        <Neuron NSynapses="17">
          6.4349884190054907e-01 1.3867122495141022e+00 -7.3911672414895191e-01 3.3557476553079613e+00 -9.3107902091655537e-01 -7.5236850575300918e-01 -2.1994009565495581e-01 -3.7052743692108919e-01 -1.2917822718397445e+00 2.9708560860268929e-01 5.0919621943917726e-01 3.9239428460693182e-01 -2.6471155509865030e+00 1.3200859282312571e+00 5.2990274209422594e-01 -5.0985782968331506e-01 7.5012543331990011e-01 
        </Neuron>
        <Neuron NSynapses="17">
          -1.0897486543185395e+00 -8.5986168818258968e-01 -3.5906330766345906e-01 -2.9832905410699908e+00 1.7809109554184512e+00 7.9153715609363517e-01 5.5919376017827782e-01 3.5141033730027676e-01 3.4375717200128028e-03 -1.9836321949658084e+00 8.6357879894501244e-01 3.7579328455296840e-01 -5.4209173708137326e-01 1.1120082322430680e+00 -1.5577727148280462e+00 -3.8589286419311064e-01 1.2178458376334553e+00 
        </Neuron>
      </Layer>
      <Layer Index="1" NNeurons="18">
        <Neuron NSynapses="1">
          1.9886262716693692e+00 
        </Neuron>
        <Neuron NSynapses="1">
          -6.1413313199827513e-01 
        </Neuron>
        <Neuron NSynapses="1">
          3.1664522737526479e-01 
        </Neuron>
        <Neuron NSynapses="1">
          3.1569261553811218e-01 
        </Neuron>
        <Neuron NSynapses="1">
          1.4044746520693610e+00 
        </Neuron>
        <Neuron NSynapses="1">
          -3.4158042656774412e-01 
        </Neuron>
        <Neuron NSynapses="1">
          -1.6755059983036716e-01 
        </Neuron>
        <Neuron NSynapses="1">
          -1.4843895151695952e-01 
        </Neuron>
        <Neuron NSynapses="1">
          -5.3742550969840142e-01 
        </Neuron>
        <Neuron NSynapses="1">
          -3.2820515881548090e-01 
        </Neuron>
        <Neuron NSynapses="1">
          -4.2185241365544390e-01 
        </Neuron>
        <Neuron NSynapses="1">
          -2.4653741447974181e-01 
        </Neuron>
        <Neuron NSynapses="1">
          -2.5217718343867512e-01 
        </Neuron>
        <Neuron NSynapses="1">
          -3.6602539763655612e-01 
        </Neuron>
        <Neuron NSynapses="1">
          -7.6222952972399749e-01 
        </Neuron>
        <Neuron NSynapses="1">
          -4.4999343147379262e-01 
        </Neuron>
        <Neuron NSynapses="1">
          1.4394564301288100e+00 
        </Neuron>
        <Neuron NSynapses="1">
          -7.7062635237933563e-01 
        </Neuron>
      </Layer>
      <Layer Index="2" NNeurons="1">
        <Neuron NSynapses="0"/>
      </Layer>
    </Layout>
    <InverseHessian NElements="23716" NRows="154" NCols="154">
      <Row Index="0">
        9.7445441402652091e+02 2.3355868750331892e+00 -1.4445281821580243e+00 2.8210280076767598e+00 -4.7783802313459751e+02 -1.6529395624501549e+02 -3.5506029727293890e+02 8.9661121668023274e+00 -2.3194074418453930e+01 5.2598262377555018e+00 1.6188984573231576e+01 1.0906095408198446e+00 1.1458561028101755e+01 -3.3560135576127159e+00 2.8555672728561080e+02 -4.2571368055242928e+01 -4.9223293666006441e+01 -5.2554475275961829e+02 2.3644203122064482e+00 -1.1252768522045475e+01 -1.2615909956099614e+00 -4.1063405322714493e+02 1.1487877766755996e+02 1.4340558433311514e+02 -1.1783282491050241e+02 -9.8350464327438214e+00 -3.3155064143793780e+01 3.8977169677443468e+00 -8.9736710411890419e-01 2.7530256061169185e+00 -1.7353289649259004e+01 -2.1206367942256367e+02 -4.6351249355067800e+01 -3.1984711478885536e+01 -7.7181623935185655e+02 2.3935327440035126e+00 -1.4127696161501320e+00 -4.7069543795268998e-01 1.3110741337793147e+03 -5.0486856378444827e+01 -1.5554610828699498e+02 1.6255715477424378e+01 7.4786775303597546e+00 -3.5661610927541343e+00 -3.1428753070320123e+00 -2.7488491127590100e+00 -2.7575468677078891e+00 7.8037691085480088e+00 4.8344317684434685e+01 -4.2791837882736310e+00 2.2730709695659250e+00 1.1883387405720028e+02 1.2089400023198760e-01 -5.5617804989405446e+00 1.1543409944381780e+01 -2.0273437457108062e+03 2.5915482708742275e+02 6.1502716209468963e+02 -2.9651174356508058e+01 -2.2135601410852797e+02 2.8306854993118282e+01 5.2049901855566830e+01 1.0243144267090425e+01 8.6772935797895663e+00 -2.6422803879493244e+01 -3.8840866476534848e+02 3.8176620411407157e+01 -2.6056534606060069e+02 -9.3165387796502546e+02 -5.0999465249246061e+00 -4.2336455753981443e+00 -3.1063246854827442e+00 -2.2656127371013845e+03 1.7540136981533058e+02 2.3835916943611119e+02 -7.8863182133111565e+00 -1.8557690989096024e+01 2.1342578655000004e+01 -1.4962808675439698e+00 -8.2240778512053172e+00 -1.6683445286776305e+01 5.2322890761902361e+00 -3.9958030167582405e+02 4.0635390271565356e+01 3.0128786692973087e+01 1.3274959515401119e+02 -2.7110481483694673e+00 2.6431838562951673e+00 -3.7888978168411747e+00 -6.4118605731954324e+02 -4.0656659228465216e+01 -1.2768821855106162e+02 5.1132473736864924e+01 -3.6308753920528162e+01 1.0834974689927066e+01 -4.3759678082742537e-01 -1.7152538701766751e-02 2.3969766013314153e+00 1.1519514448010327e+01 6.1839200178744761e+01 2.5633239234112928e+01 -1.0553110956378378e+01 -6.0904951010841023e+02 1.9163312413907061e+01 5.3240743928237819e+00 -4.2770670284525735e+01 1.4487320646511007e+03 -5.6455669914817008e+00 -8.7897539555276410e+02 -2.8615552524664739e+01 2.1076016875434924e+01 1.5702983611600894e+02 -5.2974405741573044e+01 3.1682680226875199e+01 7.5842603909986309e+01 1.3985619191618900e+02 1.9150929629086221e+01 -1.2021173969293568e+02 -1.8979675371653664e+02 -1.4039192696593243e+03 1.4669628406784327e+01 -1.1973015593406366e+01 -3.5502915412881826e+01 -1.9537524900822830e+03 3.4652177103082067e+02 -3.4856044100139934e+02 -1.0796819294855020e+02 -2.5122172846982770e+02 1.7860991102058944e+02 1.0269523016835631e+01 3.3412241703494537e+01 8.0742337537772045e+01 8.8717792854845683e+01 3.6227650303046397e+02 -6.5410138376725030e+01 -6.3452497840531487e+02 1.9234861872269589e+03 1.3547583878109981e-01 6.9111495739630180e-01 -3.5527563200089302e-01 2.2790145954269874e+03 2.8739322369867477e+02 -3.1089805211806487e+02 2.1077488492217018e+01 3.8822927225594619e+01 -1.5783851821822905e+01 -3.5583419334908362e+00 6.4179063299277694e-02 -1.9072758830198873e+00 6.9363999646488450e+00 1.4762255336944320e+03 -4.8568097722953482e+01 -5.1235056231105352e+02 1.5977960314997799e+03 
      </Row>
      <Row Index="1">
        2.3355859080714563e+00 8.5177254022760813e+00 -1.2094837551428943e+00 -4.9717840589325130e-01 -7.4237572845019784e+01 -1.2307407881096447e+01 -2.5967760357526828e+00 -7.6931159772157909e-01 -4.9487906990097652e-01 8.0456425891759586e-01 1.5589021912898144e+00 -5.5552839040843210e-02 1.2874252051652326e+00 -3.0273694517326879e+00 1.2517137552450411e+01 4.1250120892032669e+00 1.0462060135105635e+00 -1.1981162073757153e+01 1.4036672551738092e+00 1.0167035814062175e+00 1.9319448281837379e-01 -7.8975842695787790e+00 6.8124470889281836e+00 6.8182667424412875e+00 -7.9077698972635080e-01 -4.0694688583186384e-01 -2.7678240337476874e+00 -1.7804387941106614e-02 -4.7224430766778056e-02 3.4878658676996693e-01 -3.5478109654160095e-01 -7.6278803712464160e-01 5.1974245019923790e+00 -4.3698718431962602e-01 3.3081236162593086e+01 -9.4012085198387163e-01 -4.1830011835477077e-01 -1.8314438029644745e-01 -2.8089318619481730e+01 -1.1949511193851046e+00 -6.2340648401495917e+00 -4.4939078082641909e-01 7.5337771067696768e-01 2.5491779196241487e-01 -5.2389550560252340e-01 1.3871113897976434e-01 -3.7136953613213031e-01 1.0651908964977388e+00 -4.8170713311710696e+00 -2.0646265248041651e+00 3.3565477423719570e-02 -2.7866967414306931e+01 -1.2535545165605695e+01 1.4474213329311421e+00 -2.1972005024301775e+00 -4.0016220839555338e+01 7.2575822416200069e+00 2.3594318744547195e+01 -9.5876212911203993e+00 -2.2032305527169260e+00 7.8840525345210866e-01 -7.1803528465239390e+00 -3.3824838791137646e-01 -2.7236983062867286e+00 3.6389587581643665e+00 1.5330319723130856e+01 -2.0327032033758101e+00 9.9519796599802195e+00 4.8544808468656825e+01 -4.8252356301537924e+00 -7.6398061282666208e-01 1.0517319849178073e+00 -6.5297261645007779e+01 1.3399370292802125e+01 1.7279268589696560e+01 -1.1803037519672301e+00 -3.8262941006036133e-01 2.9993210766535183e+00 -3.3897040877139584e-01 3.5652209365684429e-01 -2.7284786921788093e+00 7.5128583159754225e-01 1.6390795282974832e+01 6.7058234019071365e+00 -4.2518496111542685e+00 4.2293634573128074e+00 -4.7798017001891568e-01 -5.5635311334808668e-01 3.9798934069733760e-01 -5.2920089152385600e+01 -3.9763265454983436e+00 4.3072685901216179e-01 -3.6749387723840021e-01 -1.0287022420920797e+00 2.9198161503074105e-01 3.3065285682571699e-01 9.7732115276419840e-02 2.0820688047705632e-01 -6.2545626014042588e-01 4.4252978096720756e+00 -1.7072516039997887e+00 -2.0046356627831035e+00 -2.9568146001489772e+01 9.5403508529313399e+00 -1.4893557595888640e+00 4.0825968463310858e-01 2.7801106140322872e+01 -1.5432133050074849e+01 -9.2930610721594960e+00 -4.1225307511249580e+00 -2.1916203248007258e+00 -1.9804518070731802e-03 6.3875664629205202e+00 -7.6363410323009173e-01 2.5268026017219380e+00 -1.4542426604265535e-01 4.4497157007031163e+01 6.3644552030200785e-01 9.3020880628974290e-01 1.9366413269644852e+01 -2.0991725111492547e+00 -1.3775277504039378e+00 -9.0937540195845612e-01 -5.1313943984341535e+01 -2.1824404647510098e+00 2.9192759808024590e+01 -1.6072530726024553e+01 -4.3046449636405946e+00 8.8969150752659132e-01 1.5005692619755706e-01 -7.8273300893990072e-01 -1.3371521668868711e+00 -5.6708092322062786e-01 2.4370343302798318e+01 1.0739556079784718e+01 -3.3246818916579670e+00 5.5015657510415622e+01 3.4908844462717705e+00 -3.5488228682924378e-01 8.8600871573014162e-02 2.4528542466882230e-01 1.2567600214654068e+01 -1.0868475569078253e+01 5.2721152947474231e-02 -2.3562622551625201e-01 -1.4384295104111735e+00 -1.9215508876425069e-01 -1.6422988067659634e-02 -2.7443515894297321e-01 7.2861726510453795e-01 -1.0349858230190354e+02 -1.0536613218810200e+00 -2.8916716957495431e+01 -1.8371345522609587e+01 
      </Row>
      <Row Index="2">
        -1.4445278965397126e+00 -1.2094837617806020e+00 4.7384339974586194e+00 4.5441723784454643e-02 -3.8739122699952624e+01 1.9680189579144027e+01 3.3897103188204539e+01 -2.2145515399797624e+00 1.8408778991829566e-01 1.1028028005101509e+00 -7.6191647534701845e-01 8.2950366214858642e-02 4.1156385937595874e-01 2.2530808233329744e+00 -2.1404369323063683e+00 2.2125233384300542e+00 -3.3486693679913704e-01 8.8224474053822632e+00 -3.6451050026413745e-01 1.4022093117406120e-01 -5.1565992832895924e-02 -3.4984408281136012e+01 -1.3472871222768227e+01 -1.6651810151665838e+01 -2.2560912007517007e+00 -7.3465058761296276e-01 4.4321866020014306e-01 -7.2457738664640670e-02 -2.0743772955941042e-02 -2.0099263360259212e-01 -1.0490396808236577e+00 5.5821317991913499e-01 -1.2828972768937181e+00 4.4777395953034471e-01 3.0659345300853147e+00 -1.2330260178645888e-01 -1.0985061207313602e+00 7.5120791165534453e-02 -1.1842028675724214e+02 7.0739498460914376e+00 9.2164344239305382e+00 3.0373459045566209e+00 -8.7989577123270615e-02 6.6398695222320314e-01 1.9008376346640710e-01 -2.1470035305671931e-02 6.6003167802404783e-02 7.2253982899323466e-01 -3.1133807557408377e+00 1.1787667434482443e+00 -9.9404235348416570e-01 6.1235657239732664e+00 4.9523278679122518e+00 9.3069943124665755e-01 5.9939315747589456e-02 -5.2193149995933787e+01 -2.4902822416534590e+01 -5.9943434507282454e+01 3.6144852112822181e+00 5.2085093159355473e+00 -7.9342875483972120e-01 3.0101170804378796e-01 2.0201085813255393e-01 6.7652682800816566e-01 -1.8118916570142596e+00 -2.3787651544382200e+00 1.5325461637876803e+00 5.8192103328658931e+00 2.9302324875388948e+00 4.1011249762330920e-01 -5.6833314473370784e+00 -5.8407130436108790e-01 -1.4288779920296747e+01 -3.3577439556282947e+01 -1.2197215339686920e+01 5.9926563525017347e+00 6.5217579960567473e-01 -1.9006271451758505e-01 -3.6506791115224679e-01 5.2263193599293123e-01 -5.6007654469621482e-01 -1.6202029195834704e+00 -8.7572114426595444e+00 -3.8594071086661810e+00 6.0192884128631441e-01 5.5279065446061697e+00 -4.0148526114435479e-03 1.3661396738005002e-01 -8.8833420869172786e-02 -5.8505848211253699e+00 5.0587480164095844e+00 1.0669465687442708e+01 1.1133333619193135e+00 1.1693065620640564e+00 -7.8746502547018205e-02 -2.5978451050283269e-01 -1.8441614510600585e-02 -1.6234664466802229e-01 -5.1212602529916296e-01 6.4992550939466387e-01 1.3391160935922821e+00 1.2369861597441203e+00 2.2200537833903990e+01 -2.7065157294166031e+00 9.7173980642189683e-01 8.9682073610730839e-01 1.1053868184052220e+01 3.0586084319574326e+01 4.7082641704957410e+01 5.0507798949516145e+00 2.6431699817916199e-01 -1.1827773626513252e+00 -3.9561764583005408e+00 -2.6676893939479362e-01 9.8594723606813695e-01 1.4105522685988090e+00 2.7717911285309881e+01 -3.3248302396815035e+00 -2.7269041633616695e+01 2.7135943458654459e+01 1.8886915340018644e+00 7.9928742998341962e-02 4.0618327119968667e-01 -2.6694180013401706e+01 -1.4574519010184567e+01 -3.0116363237944244e+00 1.0381906718463814e+01 5.1908844569106396e+00 -1.3593078348164438e+00 -4.5330002271259984e+00 4.4001565910605578e-01 1.5239273529418627e+00 1.1002883183184053e-01 1.7095347273273646e+01 -5.8742890874371074e+00 -2.3552559982138543e+01 -2.6936844725971527e+00 -7.1752578134427814e-01 -5.7935101452660109e-01 -4.1799727432535683e-02 4.3018154859509758e+00 -3.2117558061199453e+01 3.2649096143894226e+01 -8.8436133340089665e-02 -7.8074871683847324e-01 4.0158142853615492e-01 9.6561160526966477e-02 1.4759444876091529e-02 4.0049240907908637e-02 3.3461449718659014e-01 -6.9132698075761567e-01 1.9149485899956891e+00 -1.6490518100351985e+00 -6.1230392732259151e+00 
      </Row>
      <Row Index="3">
        2.8210277305308136e+00 -4.9717840655721712e-01 4.5441723196646050e-02 3.8742093063805303e+00 -4.9703630059472061e+01 -2.1113448594458566e+00 -4.8168615020895782e+00 -5.6033112452666645e-01 -1.1286175554338194e+00 -4.8785296863521144e-01 -1.6544767240260632e+00 -1.9706887616133227e-02 -3.1363089675853650e-01 2.4496636011911628e+00 6.6193945428984531e+00 9.7298048412873728e-01 8.6320380123926310e-01 4.6804083273127617e-01 -6.4017842779752795e-02 -1.6317944685761893e-01 -8.3140776095196167e-01 -1.9188630895202010e+01 -5.5911179087168250e-02 5.7278120956545369e+00 1.0492154865461738e+00 -1.5513703088198167e+00 6.5323103353221068e-01 -2.4516771975818294e-01 -9.5493796912053786e-02 6.2336106734987018e-02 -6.6286249210279491e-01 -2.6666879938772601e+00 -1.0265518685125428e+00 2.7124164126008621e-01 -8.3815369042440580e-01 -6.5771668095283425e-02 2.5266129951475036e-02 6.5319375462322138e-01 -2.7249396210546536e+01 -5.2967498596632412e-01 -2.1112632838092926e+00 -6.9837969994642013e-01 -2.0773961599963360e+00 -9.3454005855619471e-02 -9.4450066558383838e-02 -5.6838515668340681e-02 -1.3313981540409672e-01 -3.8558464781095009e-01 -9.7895763223507726e-01 -4.3040919021186141e-01 -1.3160209973654140e+00 9.6435996651964173e-01 1.3944871548413764e+00 -2.5376051364562896e-01 1.5278238457357024e-01 -2.4006099874950976e+01 -1.6362523598372185e+00 1.0579692181767555e+01 3.2442245801385701e+00 -9.9978077099680611e+00 6.5543943600393906e-01 1.3964467843208517e+00 7.7417336290279626e-01 -1.1371588272432349e+00 -1.2192722972539065e+00 -2.0172348772769375e+00 1.1627666045480467e-01 1.2677385099954996e-01 -2.0736114094630755e+00 -2.6683298582993159e-01 -2.8140951049571289e-01 -5.4534124918261639e+00 -5.8294250170856799e+01 -3.1959120105837213e+00 1.9972941837144049e+01 1.7992907250092118e+00 4.4274916764203649e+00 9.4980775188456645e-01 2.4827533659607803e-01 1.2203557537962961e-01 -1.7376534294038226e-01 -1.6917531040389764e+00 -1.3732444455159630e+01 1.6615861813293149e+00 -5.4179204749642107e-01 -2.2692230066004342e+00 7.9654215850414919e-02 1.0884046548303114e-01 -2.8803706114602758e+00 -4.8152955646682955e+01 -2.9961844952514065e+00 3.5332500250447341e+00 6.9601693585180224e-01 3.1826933262871480e+00 -3.7516748954188267e-01 6.4303634910462359e-01 -1.1494813206545645e-01 -2.8089766408578387e-01 8.8673004722731463e-01 -1.5318418504532514e+00 2.6490769950293194e+00 7.3392178220500126e-01 5.4461802302127627e+00 -1.9864362391676222e+00 -1.2944457986772879e+00 6.3800905766198062e+00 2.9843522945128854e+01 -6.6808262914429069e+00 -6.0589882494903335e-01 -1.1768373954972229e+00 4.9291147418540753e+00 -1.2329279598421978e+00 -6.2915428766670956e-01 4.9170634776448585e-01 -2.7442699049585895e+00 -6.6595958088904439e+00 -2.8381791975616757e+00 4.5408610884664897e+00 -5.0741019550819004e+00 -3.6609329429957072e-01 -1.1797805814784006e+00 -1.8213181081939411e+00 2.0341616268799041e+00 -3.6493449661068027e+01 -1.3451662164612253e+01 2.7688845018599199e+01 3.4084104973604550e+00 -5.4182233516719709e+00 6.1711771433825557e-02 -1.4389278945783077e-01 1.1773080420984599e+00 -4.3375797548025652e+00 -7.1017491406613438e+00 -1.7644890244380264e+01 5.3361362302613653e+00 -7.6426482339941373e+00 1.0819639071993119e+01 -1.8904607453172872e-01 5.5818435650924543e-02 -4.4049152338423747e-01 8.4865362891118092e+00 2.7751874856484542e+00 -2.3713079729829145e+00 -5.8969072261104795e-02 -2.0285664524699722e+00 -1.1986723849932714e-01 7.2750965873224160e-01 1.9012812151300622e-02 -1.1607659022804556e-02 -1.1876738001902551e+00 -6.5513186277797164e+00 1.3805505792898674e+00 1.1316554059464969e+00 -4.6201247343196252e+00 
      </Row>
      <Row Index="4">
        -4.7783789826094619e+02 -7.4237571649455901e+01 -3.8739123811343738e+01 -4.9703629643695017e+01 1.6515818852965420e+05 2.1820209530243022e+02 -2.3493482433039876e+03 -9.7833696366778952e+01 1.9677419250840308e+02 4.1535192458403566e+02 1.2373712264385257e+02 5.1176353337439934e+01 -7.0843937536332348e+01 3.6208232066216624e+02 -6.5701385499056541e+03 3.0502317976436530e+02 9.9888217034246679e+01 -2.4999382641725242e+02 -3.2794711288045924e+01 -1.2121902954240028e+01 2.6203067968864733e+01 3.1010232436765480e+04 3.5911412176829953e+02 1.4746978612567960e+02 3.4214296369625532e+02 4.5417954279505494e+01 -1.6842886730252019e+01 -9.7183403112374229e+00 -2.0354425531327781e+01 -2.5458950707025409e+01 2.6170721062855608e+02 4.5697799303763031e+03 2.5983017779040642e+02 9.7157085990714080e+01 -1.8224374199472368e+02 1.8172124714316105e+01 1.0195969141344147e+01 -2.4651877683599441e+01 8.7484297179728746e+04 -1.1925694905509798e+02 -2.3490652393149858e+02 -2.8213619371405485e+01 -9.4975041053703407e+01 3.3332891263925795e+01 4.5305327573768160e+01 3.7974081352478166e+01 -2.1553342397656493e+01 2.0283431618921966e+02 3.7263851420631363e+03 3.7025253083879932e+01 6.6915923309702990e+01 -3.8155531785825656e+02 -1.1371977941561138e+02 4.4396048059263080e+00 -5.8053971799487442e+01 7.9114505576344440e+04 6.3708596053604515e+02 1.1802483250532532e+03 -1.2910254489659329e+02 6.5442845344091620e+02 -1.1375976895109869e+02 -6.6454730675118128e+01 5.8302978858229672e+01 -4.1647142565021788e+01 -3.5599148219456526e+02 -2.3812374502410836e+02 1.8441802511970877e+01 7.3308960373012337e+02 -1.9036463905501846e+03 1.3661728601076058e+02 -1.1852648021466280e+01 8.6228744780530320e+01 -6.5769565450303358e+04 -4.4176574104146283e+01 1.8598634180359729e+03 -3.3923233324922074e+02 -1.3790347370463957e+02 -5.6338060025705499e+02 -6.1752662580653492e+00 -6.1448546405091292e+01 -3.1492982267004891e+01 3.0694077013135865e+02 2.8037436724456406e+03 -7.4152649508893433e+02 -1.1606375208861775e+02 -2.4019554403102657e+03 1.1217591997738218e+02 2.4852799968644874e+01 1.3706439177065315e+02 1.4502785137266832e+05 2.1137712972112607e+02 -1.0867938999622738e+03 -1.5483957189821788e+02 2.9375336760656189e+01 1.1663381342579817e+02 -9.7713963764115988e+01 3.0768707540005103e+01 -6.8203467704346465e+01 6.9715986249152266e+01 -2.7808795140335346e+03 -4.4273034104601794e+02 9.5849628468803004e+01 8.6723022494785982e+03 -9.3122627803556952e+01 2.6898425382839719e+01 -3.7218859909541197e+02 -5.5258281761089020e+03 2.5111271032509643e+02 -1.9136926127106451e+03 8.6843379719842835e+02 -2.2196048711166415e+02 -3.5315510584682488e+02 -2.0182849206130487e+02 -4.6703212146189929e+02 6.1490810354483324e+02 8.2052796716698435e+02 -4.3115514465582783e+02 -1.0817711844630830e+03 -1.2351293833130849e+03 6.1390998684967954e+03 -6.6366421632138781e+01 8.2516987443167409e+00 -2.7663114932035273e+02 6.2865671652508590e+03 1.2865008665232099e+03 -1.2942644686608905e+03 5.2602452788893481e+02 3.9042833414980271e+02 -4.9644920166531483e+02 -2.3697764652072112e+02 -4.0494017937644617e+02 4.2082007214881293e+02 1.4613963582253425e+03 3.0430721874307637e+03 -1.4293540710124316e+03 -6.3562687637104318e+02 -4.3369129460460399e+03 -3.8308145122763307e+01 8.5384150010794269e+00 2.1073146673230426e+01 5.0838175786943657e+03 6.4800403520818702e+02 -6.2593101656678368e+02 -7.6820440469751304e+01 -3.3355479369199884e+01 9.5420265537962209e+01 -8.3441147783989891e+01 -5.5786376665044592e+00 2.1423695653269585e+00 2.6479212274868964e+01 1.4746683727289315e+04 2.3202798996361454e+02 -6.4866330551689987e+02 6.1043306702703649e+03 
      </Row>
      <Row Index="5">
        -1.6529393671057090e+02 -1.2307407981701642e+01 1.9680189486315911e+01 -2.1113447358090229e+00 2.1820212842795479e+02 1.7770034833316599e+03 3.4989447887104479e+03 5.7189851062516531e+01 8.2809641921514441e+00 -1.2758071764031859e+01 4.1882290589137412e+00 -3.6659504967735712e+00 -3.5596025378944578e+00 -4.9643367181520368e+01 1.4021106837636592e+02 -6.6004903640910655e+00 4.7634378792393228e+01 -1.4852571238367818e+02 -4.8041806761673485e+00 3.2080453726648654e+00 9.6200764382915194e-01 -3.9507830380957381e+02 -1.0783055153851840e+03 -1.9433952327544944e+03 -4.3387633354392051e+01 9.3306735683638138e+00 9.1403706472934783e+00 3.6345673815024542e+00 2.2449695388823838e+00 9.3145581923757881e-02 1.1147286354760302e+01 -7.9339413454640223e+01 4.6199124362906502e+01 2.6902249222043093e+01 -7.4413766079829657e+01 -1.9869434840520968e+00 -4.2434229422296941e+00 9.5442968781026732e-02 -9.2182680850289762e+02 5.2374111467923751e+02 1.2286143426636786e+03 2.0401962472503065e+01 -1.2342230204426212e+01 -1.9367041566292698e-01 3.2772624018896712e-01 2.4391857068903264e+00 3.2585592127288767e+00 -3.2067739004843318e+01 -1.3095284981529809e+02 3.4540392059169967e+01 -9.6472843827752456e+01 -3.4794290400009800e+01 -7.6716458444290794e+01 1.9261424471216177e+01 3.6747403050818171e+01 -3.5278470898171909e+03 -2.4149714103044380e+03 -5.3259841002587173e+03 3.1879541532991504e+02 2.2931327971573143e+02 -6.1489196408894053e+01 2.4076593515290053e+01 1.5257484329255304e+01 -2.8576021411646948e+01 5.1497053095708551e+00 -6.8387668309482905e+01 -3.6981659342907733e+01 2.3362803214720992e+02 3.3638098597766998e+02 1.2017555414367825e+01 -8.0071667432098970e+00 6.6448828110590084e+00 -1.8200135460160382e+03 -2.1695945830153019e+03 -3.5580388423945387e+03 -6.8519668454915674e+01 -3.4092949376575206e+00 -3.7587761366080834e+01 1.2785566199744838e+00 2.3337724855245625e+00 3.8425297923893510e+01 3.6110512209701987e+01 -3.3127168240786652e+01 1.7605103827200686e+01 5.9479980255149499e+01 3.1495831330959913e+02 -6.9595709781796322e-01 -6.6357781044264552e+00 7.4386838006997849e+00 6.1728835625573993e+01 5.0840249125676138e+02 1.0054777868585824e+03 -1.2426065244872662e+01 1.4646244682848355e+01 1.2982279875930084e+01 -6.0177148580013533e+00 5.4284062007378142e-01 1.8807574537256890e+00 1.3674106997510975e+01 2.7968875086996356e+01 -3.5322042091003141e+01 9.3567091563514737e+01 1.1623442361376169e+02 4.4923025135048826e+00 6.4111462087175113e+01 1.8179852161139671e+01 2.5773651373817411e+03 2.5591922860978680e+03 4.0129004778504386e+03 3.4578026774735042e+02 -1.9717736023409817e+01 -3.1073575599522798e+01 -4.4821550019359805e+01 -9.4596461750477072e+00 -6.5179597746876951e+01 6.0179832628565045e+01 -5.5066022709561253e+01 -9.8883876933251940e+01 -3.6856761674341033e+02 4.5677090050136690e+02 -7.0376327549629934e+01 8.5152661346270122e+01 6.4968073444562918e+01 -2.0352577097283327e+03 -8.8531177099819229e+02 -2.3806045078391198e+03 6.3357779059487530e+02 2.0332349444702646e+02 -1.1358270839582069e+02 -1.4306040050777327e+01 8.0233578904138767e+00 -5.9774248037013990e+01 8.4937046486334751e+01 -2.0148696706606631e+02 -6.2062741921693565e+01 5.1781225725702534e+01 9.7339840953680277e+02 -6.4508814735831406e+00 -2.2871514640462820e+00 8.4662076199465497e-01 3.7567584468253358e+02 -2.8725976775808044e+03 2.9052791713040133e+03 1.6406352667728419e+00 -4.3181335505412832e+00 2.2156676121706909e+01 -5.4423775938471692e+00 -2.3646901146641508e-01 3.0725851065407648e+00 7.0050358714613381e+00 -3.8089162374875571e+02 2.7524994695925056e+01 5.9149057035062572e+02 -3.5788332150056050e+02 
      </Row>
      <Row Index="6">
        -3.5506025320501180e+02 -2.5967758300305555e+00 3.3897102973946232e+01 -4.8168611276325173e+00 -2.3493482205111522e+03 3.4989447888057693e+03 8.8867943713834375e+03 1.1146089728343406e+02 2.7550658521947405e+01 1.3746075229950460e+01 1.5934221166899309e+01 -1.5364411667790028e+01 -4.2012294983202523e+00 1.5966262178165630e+01 3.0907256953477713e+02 -6.5299435654559204e+01 2.0368841616158296e+01 -5.6071807189640822e+02 -1.6286470939573309e+01 1.6704142782511873e+01 8.9092415564677552e-01 -6.3041554858490713e+02 -2.1181991612558577e+03 -4.9704281299515733e+03 -6.9981079048082094e+01 2.4634959588586483e+01 -4.2945738156883394e+01 7.4912368746823468e+00 8.5567407345150990e+00 -7.8848442144310553e+00 -3.5834304528188831e+01 -1.8984930278447976e+01 1.1465055845015353e+02 -8.2005892220025327e+00 -2.5276382810066571e+02 -4.2945828360164802e+00 -1.6343639189978788e+01 -2.1733711814096366e+00 -4.8791171140028164e+03 1.1845768205288061e+03 2.6488999877926340e+03 3.2240114330949766e+01 -1.6247962033096393e+01 -3.8827154446509931e+00 -1.2331198153520941e+00 1.0609268429255145e+01 1.8495828767316517e+01 -9.0329482360775273e+01 -1.1888828608064017e+02 6.3216926509032625e+01 -7.6251125499101619e+01 -2.1931945316166218e+02 -6.6977478959987522e+01 5.6020127336001316e+01 8.2555107030542345e+01 -8.9183838729513809e+03 -5.3374146998687529e+03 -1.1281084153850656e+04 5.6036915145845660e+02 7.8624222797446873e+02 -1.2445986726993632e+02 6.9857559120106856e+01 4.9582553098843434e+01 -9.1415048397661351e+01 1.3016997640720263e-01 -9.2727500600727964e+01 -3.1720586262597863e+01 3.6263041126296815e+02 7.7138039904010066e+02 1.0825395816424251e+01 -2.5619591936214185e+01 1.1283273554032473e+01 -7.3553613154858817e+02 -3.8723843417499202e+03 -1.0468784747991263e+04 -9.5863548743798347e+01 -1.0179236873986737e+02 -1.8987261654772018e+02 -1.3673496596171444e+00 1.2950129619599977e+01 1.1541434948177778e+02 -3.0582455644009883e+01 3.8560238445224591e+01 6.0118358694281305e+01 5.8584802135655046e+01 7.1805685891789449e+02 -1.3042489453579555e+00 -1.9600458634396443e+01 1.4042705692951285e+01 -1.4964121819254942e+03 1.1053130727238602e+03 2.2508540381672028e+03 -4.6154714642594101e+01 -8.4967524271465980e+00 2.1224718533129046e+01 -1.0305628556483335e+01 5.6757318134108681e-01 -8.7983659468950626e-01 6.1640874546030496e+01 4.1896207248137294e+01 -5.8336928011353265e+01 1.0822820981760805e+02 7.3773613008798498e+02 -6.2757442209642569e+01 9.2934408508613103e+01 -4.5578544073987359e-01 4.5170414418948494e+03 5.4084875059214319e+03 9.0254789285883617e+03 6.9888595868077641e+02 -9.9246291277877276e+01 -2.3387589340996394e+02 -1.0119992707803291e+02 -7.6857010816281957e+01 -1.3636310731665566e+02 -6.8392350101480559e+01 3.6850100623562133e+02 7.8451517378025528e+00 -5.8080596697942246e+02 1.4677717193181543e+03 -1.3039458009020169e+02 1.3980366844323709e+02 9.7978168603952327e+01 -3.5448479278006635e+03 -1.4584187851695749e+03 -6.7290937194271428e+03 1.2233051197433729e+03 6.1095576415752942e+02 -4.9556790566387753e+02 -1.7485089775634222e+01 -1.6839274646802323e+01 -1.2956435280337999e+02 -3.2040200533854346e+01 -9.2028558693088939e+01 1.5692595672669765e+02 -5.8966242653376639e+00 2.6682870543402059e+03 -7.7406355170145149e+00 -9.3508601026807057e+00 1.8294123033466876e+00 1.1394010692153565e+03 -6.2602667076918360e+03 6.2577040395141676e+03 -1.7829726343384111e+00 4.1612069812505567e+01 4.1799761876046098e+01 -1.2576225041956647e+01 -1.4437143949205700e+00 1.1694028929227064e+01 -3.1840708023329888e+01 -1.1335709300704707e+03 3.5400726243607004e+01 5.5465612025361281e+02 -1.7406175345342459e+02 
      </Row>
      <Row Index="7">
        8.9661129659331227e+00 -7.6931149625204287e-01 -2.2145515664513065e+00 -5.6033110142599829e-01 -9.7833707542313888e+01 5.7189849449720001e+01 1.1146089408446240e+02 7.7386417919337589e+01 2.9974009608259520e+00 7.7620765097556044e-01 2.2638708944447794e+00 -8.4451835092280869e-01 -1.7646664642300669e+00 -1.3915777760035269e+01 1.4563432317572953e+01 5.1662712580062333e+00 -7.4085509587819143e+00 -6.0213368156692013e+01 4.8642308522310551e-01 -5.4945003790363423e+00 6.9232043336890658e-01 -6.2941397476392936e+01 -4.4360148615354397e+01 -4.9686093915585353e+01 -3.9028595679227003e+01 7.8193535220696164e+00 1.1625146866493539e+01 -5.8186079445572103e-01 -3.6513856525273553e-01 1.6580659286311019e+00 2.8080962736419783e+00 -3.9211859289478923e+01 -4.1498295178442870e+00 -3.2219224785907494e+00 -4.4962065449333750e+01 3.0215497121906110e-01 3.0128749586586778e+00 -1.9937173667587585e-01 -7.0605644074268639e+01 1.7375370314118641e+01 4.3064863520716784e+01 5.3213274451281745e+00 -1.2990167008153790e+00 1.6367142903937248e+00 1.8027393931654767e-01 -6.9581812317847214e-01 1.4095604177180028e+00 -1.2941733038021836e+00 -2.7980251404683980e+01 1.4873314965931286e+00 5.3243897967194167e+00 -1.1110597420109796e+01 -1.9627726128973193e+00 -4.3255213988424295e+00 3.9265366846009608e+00 -4.9154483718215488e+01 -8.9791845585355432e+01 -2.0930376181413703e+02 6.7430782876511273e+01 -1.4474727342399323e+01 -1.4267005145913146e+01 2.1929296646572265e+00 2.8227837356040508e+00 -5.0436386512387363e+00 3.5443026572974965e+00 -1.7467473957481189e+01 -1.8051147374259742e+01 -4.9087612462746492e+01 -4.3008619261409578e+01 -1.0796955615137758e+00 6.4684700967434576e+00 1.8976678535347236e+00 4.1296043492433273e+02 -1.0319235683247047e+02 -2.3289473791648561e+01 -8.5005683338555400e+01 -1.1543401251919484e+01 -2.1178390479276210e+01 -1.7589377152464687e+00 9.0559149876912581e-01 5.2881646215895408e+00 1.1901435412513496e+01 -4.4721336773916626e+01 -1.7650322083315494e+01 4.0687104640691647e+00 9.0724136387090226e+00 -1.9211902789027707e-01 1.9441191791475303e+00 6.9049683239683546e-01 -9.0845688686706126e+01 2.5005843767281085e+01 2.1405756434748231e+01 2.4029945750813717e+01 -7.0725180114267765e+00 -1.1934046136372474e+00 -4.1586003292147411e-01 -2.3075693336673911e-01 -9.0004365657354435e-01 -5.9431876480580925e-01 -1.4182962717054401e+00 4.3611502231233441e+00 -5.0046044658344897e+00 3.2951663690842288e+01 1.4285701932006123e+00 1.1115265620619081e+01 2.9054272684513833e+00 -1.0529745030728043e+02 1.1272736472238827e+02 4.5330480468340369e+01 3.2259404139043525e+01 1.3085624760886616e+00 2.3415521333753446e+00 -1.4423635047057273e+00 1.6910180020518863e+00 -6.3310938248698552e+00 1.2476320646816076e+01 -1.1106258955841889e+02 5.3032963488649045e+00 5.2221533043618834e+01 -5.6004237169645990e+01 -1.6556852338453887e+00 8.3476758024403725e+00 9.1900130364518624e+00 2.2145593917939419e+02 -5.0625171928245457e+01 -9.4496357074747550e+01 7.9512922022695889e+01 -1.4404054133930103e+01 -1.7056305210358815e+01 2.6055931235918450e-01 3.9777959729834684e+00 -6.7974227971983154e+00 1.7560409549816956e+01 -1.0498532849920548e+02 -2.0933667544122954e+01 3.5912726370859154e+01 2.4156276186071108e+02 -4.0041774132627261e-01 2.0412197386019795e+00 2.5472123143072106e-02 8.5655979970558249e+01 -1.0269523677549756e+02 1.0683698324400777e+02 8.6185888223404152e+00 7.4568004054077619e+00 9.1502065273552393e+00 -3.3437816966529965e-01 9.2573922192198399e-02 7.2032638185743181e-01 2.1437920151199661e+00 6.7570708832252308e+01 9.7197469767141875e-01 4.5941329552407829e+01 1.6656191027800506e+02 
      </Row>
      <Row Index="8">
        -2.3194072554663514e+01 -4.9487903668333799e-01 1.8408774615670709e-01 -1.1286175554518501e+00 1.9677419100035846e+02 8.2809619255753386e+00 2.7550654316761168e+01 2.9974011823742952e+00 9.8686001953361298e+01 -6.1732250165765628e+00 4.5662010432129085e-01 7.1093229343220887e-01 -3.8974024861414041e+00 -2.6910018993194026e+01 -1.5888426963858148e+01 1.6757778974807831e+00 2.6472674961593931e+01 8.2206388769773184e+00 6.4052675056432751e-01 -1.2722919110251296e+00 7.3827447689104653e-01 2.2328371227493244e+02 -6.2548732340800903e+00 -1.4663961409736432e+01 1.0906995889728416e+01 2.0004651592835472e+01 1.0756617116727002e+01 -7.2636258965435241e-01 7.4932864992241532e-01 -5.2179563703846910e-03 1.0691909207641572e+01 3.9798036862236586e+01 6.9218514855223718e+00 -3.0389675831376586e+01 -5.1098257939895120e+01 1.2053888078122174e-01 6.5343755743155363e-01 1.3469952563033871e-01 4.0450073707714910e+02 6.6901964037170858e-01 1.5251539922553025e+01 -4.4203267878426571e+00 -3.3664027230162814e+00 7.6387802104503777e-01 1.7929570877159704e+00 5.6743332753943976e-01 1.2446487504085257e+00 1.8641422420100395e+00 3.1769902283365170e+01 6.2894728604595134e+00 5.6336493654566411e+00 3.2547731465043327e+01 -3.5194077753159179e+00 -1.8785133366484222e-01 4.9520946427017232e-01 -6.6060186108603375e+01 -5.2471396755217397e+00 -2.9033500549268723e+01 -9.6121724231604304e+00 1.7387686316438288e+02 -1.0971776242101754e+01 1.5013835919338860e+00 -3.6637296337184888e-01 2.2089173365540580e+00 6.4448422723669250e+00 -3.6105387998376379e+00 7.2250693546734599e+00 -5.0914898302453729e+01 -1.5979824903089373e+01 8.2889071757828825e-01 4.1852184953681757e+00 -2.6744191070052596e+00 1.9047876442785673e+02 8.8241771837166088e+00 -7.5443672473058314e+01 2.3572630252305160e-02 -1.1265212071056243e+02 -1.3294077118786532e+01 -2.8798144242542043e+00 -1.7590694980155046e+00 8.6993264242554087e+00 1.0435883399893481e+01 1.5064783903373439e+01 -3.8000850509402653e+01 2.5887262117206213e+01 3.8459982900115293e+01 -6.7284231639775860e-01 1.1179486713491948e+00 3.0637623168996497e+00 4.5266385019844165e+01 4.7226250088472046e+00 -5.5916962714481668e+00 -1.5675762170949583e+00 -1.6045691205002807e+01 -1.7342371739278577e+00 -3.2923762953946554e+00 1.1514704781753717e-01 -4.6162085562357125e-02 -5.4046560636651408e+00 1.4254185595028336e+01 -1.0334632488645312e+01 4.4277572723063471e+01 2.7801585287052939e+02 2.4207496333529175e+00 8.2135245615062313e+00 -1.8741018989700635e+01 4.4477689967217771e+01 1.8918934435147841e+02 -3.9552877725350237e+02 1.4713059693142652e+01 -4.4460364301059769e+01 2.7032572968382105e+01 -2.6579186716448902e+01 -1.8665268183512207e+01 3.5274135507503068e+01 6.8848031027659061e+01 -1.9263478009278333e+02 -4.5471944789205168e+00 2.9199411695341320e+02 2.6119804818845068e+02 5.0582632326585220e-02 1.1896086439185853e+01 -1.8605123039958745e+01 8.9947924313471219e+01 1.9719431874793727e+02 -4.8466968991093194e+02 1.2333871562704228e+01 1.0194732553887061e+02 1.1515745020953064e+01 -2.8900542084304433e+01 -1.8991270957487959e+01 4.2471352154624327e+01 6.4341962268218694e+01 -1.4756406970819683e+01 -2.9923820277161290e+01 4.6464450884191638e+02 3.4703614480316574e+01 5.7972712614061250e-01 6.3842539335494863e-01 5.4200817362149500e-01 -5.5073472309400138e+01 -1.5070349918462334e+01 1.3231344252915862e+01 -1.6203247454534755e+00 5.9362406738715286e+01 6.6953366525791163e+00 -8.1975803009496317e-01 -8.9406739152996573e-02 7.8733337724157848e-01 8.6378609454210711e+00 2.7484909829515050e+02 1.7949572770838287e+00 3.2970631438687565e+02 -2.2649574056129286e+01 
      </Row>
      <Row Index="9">
        5.2598272531954215e+00 8.0456424435705021e-01 1.1028028005140968e+00 -4.8785297047395715e-01 4.1535192764195915e+02 -1.2758071426146108e+01 1.3746076343202155e+01 7.7620775056732838e-01 -6.1732249525237615e+00 3.0011299042437596e+01 1.0976881105623968e+00 -1.4404075193914406e-01 2.3057330767210020e+00 1.6623429946723174e+01 -1.0528256152391293e+00 -1.5659442063815199e-01 -6.0863938157657191e+00 1.5768949951394461e+01 -4.6129443254578195e-01 1.0053327122985189e-01 1.0179594476832865e-01 -2.4864274492243908e+01 1.4778914418116997e+00 1.0936684963603835e+01 5.9660283746501275e-01 9.7837188440801315e-01 -1.3659870093480352e+01 -8.3326582853207110e-01 -4.0037816571658880e-01 -7.4558006420238110e-01 -1.0971726546979919e+01 8.5305866357322202e+00 2.4697408355144201e+00 1.7667909745427262e+00 -4.3817900040176028e+00 2.3096671188803819e-02 -2.2769198043739219e-01 -2.8432370653948169e-01 1.9163831022084923e+02 -4.0313051702755509e-01 -9.8268053358069878e+00 4.6809827732022891e-01 -2.3362966112581578e+00 -2.3958107884854836e+00 3.9732035718164860e-02 -7.2093410632591670e-02 -1.3100180919921107e+00 -9.3464675094611260e-02 2.2364358506452909e+01 1.6547715738980335e+00 5.2659737197592482e-01 2.8481313100182053e+01 -1.8436472477887318e+00 -9.3769003835572229e-01 -3.8025919848062173e-01 5.5831227376387687e+01 -6.0009214798098416e+00 8.0704909815953329e+01 1.4071289571939442e+01 -6.3344900791921184e+00 1.1544810786395150e+01 5.6666954056711427e-01 -1.6892045828667639e+00 6.1154549904165805e+00 -5.2176108823361105e+00 2.0350527523857309e+00 -1.0057891728384263e+00 -9.2140453601333885e+00 5.7830765551831085e+01 2.5486765031057512e-04 -5.2114959699697740e+00 3.7217423451409504e-01 -2.6367230852260491e+01 2.7662071724332158e+01 -6.8019969830504920e+01 -1.4411501218037920e+01 6.3847280046331143e+00 -1.1517179366847472e+01 -1.9349493734411947e+00 -1.1728713830726161e+00 -3.4417094060447759e+00 2.1912015782285721e+01 -1.1678120744101157e+01 -1.3919049274526956e+00 -6.0266533473537143e+00 -1.5692231215942996e+01 5.1180523864535143e-01 -2.3809089698617746e-02 4.9161659180633421e-01 1.3613395646051504e+02 -6.8346617314029023e-02 -7.9984413435066104e+00 -5.2642042072896968e+00 1.3871114041114296e+00 7.1610144436876562e+00 -1.1508675304788593e-01 -3.3927932657147705e-02 -3.0781537564427974e-01 3.6045474560227655e+00 -7.1878740369047494e+00 -1.0477383994356462e+00 -2.4014115632119100e+00 -9.2990595628388448e+01 -1.1638975410033727e+00 -2.7384912220314472e+00 -4.4742305466157246e+00 7.6371437211074635e+00 -9.6350750089021133e+00 -1.7041919900411390e+01 -1.7721758350938039e+01 7.8015546695761651e-01 -2.4772158660703901e+01 -1.7358961526839889e+00 6.9427962382534325e-01 7.3208603021064143e+00 -6.4704709332548305e+00 -7.3968030098606505e+01 1.8209483584639585e+00 -9.7167725129664305e+01 -3.4436719662314303e+01 -2.3303283768728615e+00 -7.3955870088532487e+00 -4.5067401553565816e+00 6.0118411561603921e+01 1.0012692700390922e+00 8.0117125893351471e+00 -1.7214173321917361e+01 -5.4766891457300595e+00 -1.3984515326909738e+01 -2.9530795414914142e+00 -2.5544479955404675e+00 1.0899552294521996e+01 1.5618465939618593e+01 -5.8844173244938403e+01 -9.5894185735232762e-01 -1.2920365877662962e+02 -9.0728627222897174e+01 -5.3854402797071432e-02 -1.6445044366598194e-01 8.6313042246749364e-02 -1.2077986790861273e+00 1.1223073872557286e+01 -1.3552340818915640e+01 -1.1299487013391962e+00 -3.1568099179932769e+00 -3.6035163617953136e+00 -2.2227361942065471e-01 5.1638143425529748e-03 -5.5501173463498676e-01 -4.7495980955744805e+00 7.0265311615930599e+01 4.7791233156459958e+00 -4.1050013127746226e+01 2.3773809404345911e+01 
      </Row>
      <Row Index="10">
        1.6188984625991296e+01 1.5589021974336665e+00 -7.6191647528469131e-01 -1.6544767242848359e+00 1.2373712237325896e+02 4.1882290633123596e+00 1.5934221203893200e+01 2.2638709031766031e+00 4.5662007067623500e-01 1.0976881083433070e+00 2.0219576056231215e+01 -7.8875166103651684e-01 1.7245176651286398e+00 -8.4073309698653418e+00 -3.6759982547942316e-01 5.0463781836018851e-01 7.1341853358534166e+00 -1.0834060093591688e+01 9.6178584822729576e-03 5.5448314973885360e-01 3.2330101199210398e-02 5.4947145090538612e+01 -1.2183022272011275e+00 -5.8981652538201557e+00 -8.7090086085767648e+00 -2.6255625538257568e+00 -2.1802893252582072e+00 7.4002275565367825e-01 2.8739517969383199e-01 8.2139947784100364e-01 3.7149179194500004e+00 2.3440496485798592e+00 3.2127996198553466e-01 1.7196709860250396e+00 -9.6535845165117280e+00 1.1697975143645765e+00 -6.2872887507219677e-01 -2.3376760290153697e-01 1.1688385874588857e+02 1.4337562190336444e+00 6.4877465053574896e+00 -8.1905100785126372e-01 -3.7174500848630978e+00 -2.9217125984190956e-01 9.5744465973301629e-01 4.1476249669821669e-01 -4.0328083373721672e-03 3.2884469841268733e+00 4.2410032678075771e+00 9.1131519065133393e-01 -1.1534431175582199e+01 -1.1869247140487205e+00 -8.7446791322799751e+00 -1.0015125919098762e+00 -1.8169695199849005e+00 7.6332231232314371e+01 -1.5191121179455191e+01 -2.4590765496939966e+01 1.1784693715215427e+01 -1.6011825834120764e+01 1.3431509439613130e+00 -1.8239397495496779e+00 -1.4967872251181920e+00 2.7073166561456374e+00 -1.2313580315233921e+00 3.9510144385428188e+00 -7.1153363580720042e+00 1.0503963573603814e+00 1.5695622888289007e+01 5.8778111317017667e-01 -9.9599081113846510e-01 1.8739451865983010e+00 -2.8032865421918586e+01 -6.3109081603614410e+00 3.2252997149457485e-01 -4.8574948172866197e+00 4.1789278285545226e+00 4.9472858501165282e+00 -8.2280148874745471e+00 3.2581322668963786e-01 -3.9051647712262696e+00 9.1859065047666526e+00 -4.5422811191343904e+00 9.5761727508203354e+00 1.4088761898167463e+00 1.2294524802049112e+01 -1.2645650835453126e+00 -3.9310095492079400e-01 -4.9562053731207190e-01 1.9436351576264133e+02 8.2528386767275332e+00 -1.6918151676460596e+01 6.4472101928607213e+00 3.7084095721213330e+00 -7.2281247448220620e-02 -4.3622489054646714e+00 -2.4180202825356018e-02 -8.9308381637399770e-01 -6.1490521000200760e+00 2.2700564284730733e+00 -2.5204664803014776e-01 8.4172624011755701e+00 -8.4815780598366601e+01 6.5440035117934920e+00 -8.5845773064929576e-01 -7.2374614944192039e-01 -2.1819719775855177e+01 2.1489971610401081e+01 6.7023170300607431e+00 -1.3244946599378185e+01 5.7179094344186527e+00 2.2385039030042723e+01 3.6817236609190473e+00 3.3175866246552532e+00 6.6090341988180974e+00 3.0555509128983317e+01 2.9830868210477064e+01 -4.4430744118367684e+01 -7.0694720880001697e+01 -5.2054423063183194e+01 -1.2091527431539895e+00 -3.2126530031918787e+00 -2.4789562239048948e+00 -1.2419145545956255e+01 6.7277757666873432e+00 -1.6564391363286731e+01 -3.8542726813858401e+00 -1.2021681570895591e+01 2.4117015662538400e+01 9.7394032651171827e+00 1.7692016983339665e+00 7.6240609026169981e+00 2.8337464316050017e+01 2.2465288558138795e+01 -3.0665959275042425e+01 -6.5791159503257106e+01 7.2458666359100068e+00 -1.3417323468943831e-01 -1.9582931266352688e-01 6.6036201945990974e-03 -1.1830254207952981e+01 -9.2490819401270592e+00 1.1687811393076512e+01 1.4352917414347155e+00 -2.5829638034676305e+00 -1.3611424713997131e+00 -5.2240835964221706e+00 -6.3966480481799343e-02 -1.1311481433033260e-01 3.4253242880273209e+00 -6.9289726613055524e+00 -1.5061315833877300e+00 3.3932967068088935e+01 -1.5337797501625918e+01 
      </Row>
      <Row Index="11">
        1.0906091199500838e+00 -5.5552840342093290e-02 8.2950369385751677e-02 -1.9706888018597338e-02 5.1176353014544127e+01 -3.6659504427625884e+00 -1.5364411718990210e+01 -8.4451839508029525e-01 7.1093227857556196e-01 -1.4404074364695174e-01 -7.8875166352743464e-01 2.1501641310374175e+00 -1.6875195304530571e-01 1.5785908097632524e+00 5.9198799083294453e+00 1.9727330742278677e+00 -2.9739359906686730e-01 -1.1429661538822984e+00 8.4320500020053313e-02 -2.3544277504860861e-01 -1.3557272766995511e-02 1.5685423540113019e+00 1.5710086706399329e+00 9.6982268528632360e+00 4.4400001330264494e-01 7.1285749862197823e-02 1.7593439034819303e-02 -4.8410059212951828e-02 -5.2689045435413573e-01 2.6522935973895212e-01 6.5331889571919821e-02 -4.5233380783394477e+00 -2.6799852622623455e-01 -3.1666322621216647e-01 2.6770947231577793e+00 -7.8679214282740287e-02 3.3434363788745897e-02 6.4344923909757767e-02 1.6386152068851516e+01 -2.7158029457639885e+00 -1.2070251899427173e+00 -3.9807514895396673e-01 5.3862876874670329e-01 -8.2504361605835741e-02 -7.8462531058058546e-02 -1.6213959415826310e-01 8.1009812852691113e-02 5.6682206554391978e-01 -1.3364447982776255e+00 -6.2475291206979855e-01 1.9379823800593188e+00 -5.7904050843345367e-01 1.3197354257382893e-01 -6.8296460289647865e-02 -2.3779616594209030e-01 2.5474434356750862e+01 7.3626622030043336e+00 1.4153227406940262e+01 -1.3652783761295353e+00 -1.1579312500622230e-01 1.3575413421367499e+00 -6.4515881868942060e-01 5.0569135875451421e-02 -1.2529573444185527e-01 -8.9241546683199213e-01 1.1038051739227974e+00 4.2635860783125468e-01 -9.1871970570826011e-01 1.1633541218103646e+01 -4.7579973069794196e-02 3.4643751008331736e-01 1.4808601984296532e-01 -2.9991016546841934e+01 1.8281196240275464e+00 2.6622380928759284e+01 1.5270857997546288e+00 -1.0066498274191171e+00 2.0479392470888715e+00 2.4217835881892669e-01 -2.1514491631285972e+00 -7.1571314639766181e-01 -1.0930952832139582e+00 3.1269147851254182e+00 7.8375744863423580e-02 -1.4237006621765111e+00 -2.2388061045559646e+00 1.0867603990059158e-01 4.7976005708448927e-02 1.3627134018053771e-01 4.6194691959288321e+01 -2.2508049686878797e+00 -1.6227176888358767e+00 -4.0517967971947511e-01 -4.2255177637805730e-02 3.5380399766923587e-02 7.9083312543217071e-02 2.0622005902136198e-01 4.1748210218909254e-01 3.6211175127033646e-01 7.4599998716011306e-02 3.6030525228293087e-02 -7.6719596964389303e-01 2.0745579757593436e+01 -2.6442061705624287e-01 -6.2698006064525913e-01 -8.8405838764650757e-01 5.8875358720537179e+00 -6.3142480523852562e+00 -1.1802850024109084e+01 -2.6106032609202443e+00 -1.4091061845434898e+00 -2.0428746152981594e+00 -4.7714575673521220e-02 1.7299973646074891e+00 2.6780577059990796e-01 -3.4603160525497856e+00 3.2699237715128078e+00 1.1796817637697026e+00 -7.8320809380061966e+00 2.4987862156942231e+01 -1.0282802857425799e-01 -4.1639574570158633e-01 -9.1141721984814350e-01 -6.0654844485062833e+00 -1.0753705687170230e+00 2.1548405111803341e+01 -3.7598624891152608e+00 -1.3683706836291605e+00 4.7872401768214523e-01 -1.1112971019900175e+00 1.1796418689417028e+00 -2.9241870800057534e-01 -3.4050793899754646e+00 -1.8933749233778894e+01 1.1820470779053278e+00 -1.1666657243650860e+01 2.0022901249606527e+01 5.4248916506097963e-02 4.0596600444591679e-02 1.9513785733741712e-02 -6.0195179148699447e+00 7.9604872376496099e+00 -7.4976780359758459e+00 -1.5385130677027414e-01 2.0563288824502984e-01 -4.3676291301209441e-01 2.2090879986697143e-01 3.3347275071833882e-03 -1.3064820072697866e-01 -3.5423929652523128e-01 -4.4219788080295693e+01 7.1513973175093137e-01 -1.0513634852090465e+01 -8.3045110312708381e+00 
      </Row>
      <Row Index="12">
        1.1458559507818748e+01 1.2874252126758905e+00 4.1156386192640482e-01 -3.1363090037836888e-01 -7.0843940159073099e+01 -3.5596028708874421e+00 -4.2012307239525750e+00 -1.7646665864982300e+00 -3.8974025634306977e+00 2.3057330901774264e+00 1.7245176676951952e+00 -1.6875194620417960e-01 1.2291152329251792e+01 4.0276555042592066e-01 -1.7058412362467292e+00 1.4891290401480393e+00 8.9875135642238320e+00 -1.1450248455119436e+01 2.7283530467569933e-01 3.1885569805956915e-02 -1.5733890770912085e-01 9.4276621164996648e+00 1.3838637333704544e+00 5.3145726442131664e+00 -1.7686999133138046e+00 -1.8639425910834959e+00 -3.8464517656988204e+00 2.4207888857011917e-01 7.9650123507893611e-01 -1.0967333217170117e+00 2.3648364218278717e-01 -1.7509911750972556e+01 -1.1928458916975866e+00 7.8186726792132042e+00 -2.4401495843332668e+01 3.9864315676497003e-01 1.1562413885113965e-01 4.9451570078190343e-02 1.0348526839562692e+02 4.6042574328655395e+00 -1.8461971193536392e+01 1.2192265839925571e+00 -2.5623198564160177e-01 1.5240063587387631e-01 -5.4573774774674155e-01 1.3439849645332380e+00 -5.1142404798239864e+00 2.3170774477983808e-01 5.2490922056094860e+00 -7.6880776818082408e-01 -1.7190177917071228e+01 1.0027741620110447e+01 -4.0655445470910712e+00 -6.7316775820489938e-01 8.4090365903910558e-02 1.5524124928982928e+01 7.7668017547678527e+00 3.4407390978058534e+00 -4.8209601290907216e+00 -2.3050379953638842e+01 1.3461507756483548e-01 1.7353138146837992e+00 9.0054949352452063e-02 2.6304384971117725e+00 -1.5427480330598820e+00 -2.0422567566022281e+01 2.2717958458535796e+00 1.5073360860918401e+01 3.7036085689418755e+01 5.0246760229657428e-01 -3.7666777636590165e-01 6.2916106834194419e-01 4.4155235328600156e+01 -4.6351882015059491e+00 2.3520381314980096e+01 2.8320766891328448e+00 8.3148614076222067e+00 3.1830781365650380e+00 -2.0541353738331445e+00 -1.4789070547710994e+00 -1.8524481587508966e+01 1.6021300175664468e+00 3.8507480214150156e+01 -2.0563849081737162e+00 1.0091595423873340e+01 -5.9269816900604004e+00 -6.0878370791017278e-01 -5.9765906796322721e-01 -3.5507485974929365e-01 -5.0575136509025469e+01 -1.5559189416232739e+00 7.2654976921373660e-01 -1.7065973996183479e+00 2.3110631092676783e+00 3.9795140315097582e-01 2.6247436318072798e-01 4.7633759945814674e-01 4.8715899589254041e+00 2.5042009894518569e-01 -9.5000300775537667e+00 1.8249478703497373e+00 1.4089743049839864e+01 -4.3798102477761361e+01 -5.5261120957950416e-01 -5.5349695047393030e+00 -1.4998921549145534e+00 -5.3269813077034627e+00 -2.0502688096356604e+01 2.8977382466034211e+01 -1.4868840237355503e+01 8.1331379862101407e+00 8.4402877268403369e+00 -2.0014595843309206e+00 4.8665385419179613e-02 2.1219112847684283e+01 7.6523896777218852e+00 2.9436014852434880e+01 -4.3574595802217235e+00 -5.4843186032677806e+01 -3.6783876652641396e+01 -3.6199389394589820e+00 -6.3219356664476960e+00 -1.4451404664089087e+00 -3.0903075781784409e+01 -1.8093394534738920e+01 4.9767483071884996e+01 -2.0041208335411685e+01 -1.2532704472788060e+01 8.7853608969955026e+00 -5.1822424158896929e-01 -5.6528614760287255e-03 1.6245322992812468e+01 7.7159020992346425e+00 -4.5130115903805859e+01 -3.3162254678252188e+00 -1.8739676352705885e+01 7.0501947498931045e+01 4.8182656233734877e-01 -2.1294178052887602e-01 -1.8888975896028455e-02 -5.4274675582187633e+01 4.2154595487596120e+00 -3.8296086751749603e+00 -1.1525606103393576e-01 -3.9638586874507729e+00 -1.9375328559263041e+00 -7.7854401331350687e-02 -2.3517695319604431e-01 -2.1910359987834838e+00 2.6688785601064235e-01 -1.1319632202853875e+02 2.6146032611467807e-01 8.2428476874949922e+01 -6.5445829838467731e+01 
      </Row>
      <Row Index="13">
        -3.3560125276563908e+00 -3.0273694367879633e+00 2.2530808217312650e+00 2.4496636055014802e+00 3.6208231929549947e+02 -4.9643366787965249e+01 1.5966263644673273e+01 -1.3915777676243225e+01 -2.6910018974710091e+01 1.6623429912304125e+01 -8.4073309672249348e+00 1.5785908133373423e+00 4.0276558485804959e-01 8.6044703191922466e+01 -8.1111879554930113e+01 7.8670530484656531e+00 -2.2745526340309471e+01 -3.6053192674997263e+01 -2.3169082920448187e+00 -8.4784771679067261e-01 -1.7974314986685982e+00 -6.0278232857800106e+01 3.7476773555082126e+01 -2.0531288114095542e+01 4.1340159892227337e+00 -3.3609259227456865e+00 -1.7444290273237154e+01 3.2538158687629659e-02 9.9304835482323717e-02 -2.7512134561095749e+00 -2.4660544873404511e+01 4.5060358726271858e+01 -6.7549954122045239e+00 2.0307615555177509e+00 3.4252692854719498e+01 -5.9994935545183670e-01 -5.2348961727724252e-01 4.3684189390251049e-01 -7.5342825809028000e+01 -4.0267433001294703e+00 -2.8080924395619384e+01 -9.1908923786756447e-01 -1.5804108717290291e+00 -2.2418091709606900e+00 6.6594822553551125e-01 2.4034774766948197e-01 3.5228780066663488e+00 -3.7076863780302558e+00 1.9072909130809421e+01 -8.2569240456050839e+00 1.7561065741770062e+01 -6.7748365139930712e+01 4.1477920544039975e+01 9.0702069354470671e-01 -7.7326463007831481e-01 7.2337763779296074e+02 1.9032106451003791e+01 1.3793843374087851e+02 2.9367370174971985e+01 1.2692127664011323e+01 1.8043852353689157e+01 -1.3488766839159450e+01 5.2448367683770520e+00 -1.3782713447323419e+01 -5.9253220583818251e+00 4.6511776440296124e+00 -1.2138728234439771e+01 1.7648923281412920e+01 -6.6403262718182759e+01 2.1683949102982765e+00 -1.1984950249034256e+00 -3.8400543498223620e+00 -2.3680376477612481e+02 8.2140523775435696e+01 -9.2070529913153678e+01 3.7773354818766308e+01 3.0665468085696755e+01 8.2894399581578959e+00 -5.6390573028338509e-01 -7.9607578453800976e-01 2.8296141817549696e+00 -3.5403547816339092e+01 4.1208818414924949e+01 2.7085644356132597e+01 -1.1804197254820590e+01 -5.2128625578686069e+01 2.1598513395331129e+00 1.3814664757510919e+00 -4.1026836181001940e+00 4.8227661179332063e+02 -1.7466898727468735e+01 3.9773867065758761e+00 -7.4235876391552080e-01 4.9485759098168387e+00 4.0526762880887190e+00 9.5548748477447387e-01 -4.9535281556397984e-02 -2.4157188030720862e+00 1.4896406369250359e+01 -1.7223319602040107e+01 1.5828990284319756e+01 -2.5406312419547007e+01 2.0700711415333660e+02 -3.1239961324964124e+01 -1.8397956031091169e+01 1.6263674079951592e+01 -2.3267248301366129e+02 -1.3064093418774246e+02 6.5946782169674293e+01 -4.4120522159127482e+01 8.3131448100037435e+00 -9.2296722517318145e+01 1.2014430542068549e+01 -6.8371696365603754e+00 -1.7366536781556938e+01 -1.1498942704931751e+02 1.2528385245782471e+02 8.6502267382150634e+01 -3.6594773587847349e+01 1.4048974820535810e+02 9.9381787649695514e+00 -1.6663934141248099e+01 9.6711482031425700e+00 2.1677647629282615e+02 -4.8597337914371536e+01 9.1170118479924440e+01 2.9147467303576553e+00 2.5256566106379857e+01 -6.9435209511717176e+01 -7.3607396104153251e+00 -8.5434797279589869e-01 -3.0373099286549092e+01 -8.2166736560423217e+01 1.6298148217387023e+02 8.6793098558203397e+01 -8.5572302778319639e+01 -9.4320053011172490e+01 -2.2327517180309826e+00 -1.3743103879451724e-01 -7.5168993813322971e-01 4.2775650347107565e+01 4.7697154243277886e+01 -5.2598280726910239e+01 -9.8368143930903595e-01 -1.1039796326990727e+01 -8.5789797903354668e+00 2.3113660740940389e+00 -5.2987714062390195e-02 9.9009925885261041e-01 -2.3429285171302677e+01 1.1413834154783524e+02 4.5416062523514320e+00 -1.4835090777900157e+02 1.2331232367834376e+02 
      </Row>
      <Row Index="14">
        2.8555663292147358e+02 1.2517137382523810e+01 -2.1404362067525451e+00 6.6193944013731256e+00 -6.5701386275514960e+03 1.4021108368561337e+02 3.0907256432921326e+02 1.4563423060177275e+01 -1.5888430165861211e+01 -1.0528238284739420e+00 -3.6760024139137926e-01 5.9198799736105432e+00 -1.7058426671263804e+00 -8.1111881044795794e+01 1.7224261692394953e+03 -2.6148443991316171e+01 1.6376119637379983e+01 -2.0146046676859260e+02 6.6525262853946945e+00 1.2773365410024269e+00 -1.5299730717842710e+00 6.7067667751139288e+02 -1.3256250558252364e+02 -3.1026298215925966e+01 -3.4182089346487892e+01 -1.0045734050385979e+01 1.8724893862050941e+01 2.8060029469125434e+00 9.0797912985923057e-01 1.0549018683790088e+01 -1.4921549251720844e+01 -1.2103902963822161e+03 -3.5870855823390571e+00 -5.0704656393095053e+00 2.6411561389267445e+02 1.1027849809256511e+00 -6.3495603666946625e+00 -1.8784431109015713e+00 1.0182616036608815e+03 2.9357034809298440e+01 1.4104824344012650e+02 -1.0372655472330852e+01 -2.8289440424234840e+01 8.8566625668224841e+00 -2.6494055400908580e+00 -6.2011351343546224e+00 7.0848255984746977e+00 -9.5869931483421915e+00 -1.0527057315274142e+03 -1.6323993578045929e+01 -1.0319332255452926e+02 -3.0595605643094871e+02 -4.2419436762740617e+01 6.7957778738488406e-01 6.6462253078923812e+00 -4.2525283777900040e+03 -2.2015357242673323e+02 -5.3187157092309690e+02 6.7282176788136724e+01 2.2267194333043001e+01 -2.0140592971502805e+01 1.2868281943747704e+00 -9.6330467107326339e+00 1.1554166443446658e+01 5.5390710695623639e+01 2.3522959899594653e+02 -5.2251608000053920e+01 4.8657798248986730e+01 3.5787043263460509e+02 -1.1082695750564891e+01 -1.0264159774973990e+01 -8.3353055048892752e+00 6.4216825703832001e+02 -2.1642193182476581e+02 -1.3166181498702645e+02 -7.2053263817238758e+01 -1.0804717145736333e+00 1.0491802827761610e+01 8.2204981882700707e+00 -5.8070666856912680e+00 6.5912278546696257e+00 7.5546645607375496e+01 -1.4056362809746909e+03 4.3471834866782530e+01 -3.4242383584633593e+00 3.7532697061228134e+02 -5.5440816700979498e+00 -2.7620159939731046e+00 -8.0982041177358628e+00 -8.1822689174413681e+03 3.1898890673507633e+01 1.2012309745522205e+02 2.0840547378479357e-01 -3.4896896669160924e+00 1.0070824323312527e+01 8.6799243331440508e+00 9.2597962153627611e-01 -1.8461523827084099e+00 7.2334724132417527e-01 3.1536746049562635e+02 -1.9388178670625393e+01 2.5290751462064247e+01 6.2547940641224636e+02 8.9758921172200132e+01 1.1070368699183256e+01 9.8044620558032847e-01 1.7225779380635558e+03 2.9087883059123283e+02 3.3676892310338360e+02 -7.8669624842471052e+01 -6.9722950324189981e+01 1.4944281766424575e+02 4.6191301207048298e+01 8.0050650307905556e+01 4.0384511191797102e+01 7.8199320227060525e+01 2.5461024765889297e+03 -2.7475836526550222e+02 -1.7131791793550161e+02 2.5597695443350767e+02 4.5158966250760542e+01 -2.8636622056893835e+00 -2.1897058145285371e+00 -1.9598751914805034e+03 -1.0890635292951129e+02 3.1712519217842328e+01 -9.0172481671816058e+01 -8.9382844600272705e+01 1.4943588708079886e+02 5.9225297306550146e+01 6.9358573942104087e+01 6.9205878701375070e+01 9.5087527687658294e+01 -4.2684518802360717e+03 -2.9732260930385399e+02 -2.3237405316834440e+02 4.8607918529799663e+03 7.6746131326980365e+00 -8.7262095682626750e-01 -7.2509295811558205e-01 -2.9128446457610712e+03 -2.4846029634943454e+02 2.6503989511632233e+02 2.7841777688343141e+00 -3.6914457772019844e+00 1.9087310134700601e+00 2.2547842073481661e+00 8.5020238525581782e-01 4.5877827402007426e-01 7.9968720380425697e+00 -1.1406999788871171e+04 -8.5139554820491153e-02 -4.6069337196593558e+00 -3.6187181877119756e+03 
      </Row>
      <Row Index="15">
        -4.2571367679747546e+01 4.1250120047170320e+00 2.2125233624322886e+00 9.7298046755313128e-01 3.0502319071895909e+02 -6.6004887002754913e+00 -6.5299431845964932e+01 5.1662713176924164e+00 1.6757780710756667e+00 -1.5659433858755722e-01 5.0463780551054327e-01 1.9727330362898714e+00 1.4891289072784368e+00 7.8670531734416578e+00 -2.6148452773524586e+01 6.4883361958195422e+01 5.9931878794492226e+00 4.7057746251884964e+00 2.9153942204288534e+00 -5.2160007577810452e-01 -5.2582650414316305e-02 2.5374367871819505e+01 -2.1128862490380861e+01 1.0297255826683543e+02 -1.5293492309565391e+00 -3.8228808679091548e+00 1.3552870876739012e+00 -1.8354260190181555e+00 -1.1102068977628057e+00 -4.1848011006716757e-01 -8.9270843574114078e-01 1.4116970229706173e+01 4.7821006402440585e+00 1.3770137737969632e+00 4.8376006342023175e+01 -2.5489143918218269e+00 -9.3095842878949675e-02 3.3360003868153854e-02 -1.1383377923414810e+02 -4.1420479066765568e+00 -5.1685687377562708e+00 2.7133514134864662e+00 2.9905084192264919e-01 3.4581192641918501e+00 6.7830173085448597e-01 -1.6072397052187455e+00 -1.5302576962869812e+00 5.8257691875293389e+00 -3.3671576558372180e+00 1.0505522858360292e+00 5.1100134142737348e+00 -1.9110169683716776e+01 -9.5474508338039303e+00 -2.5793745066117424e-02 -2.3969436588404447e+00 5.2751203737320611e+02 1.1406847548014490e+01 -2.4257294907924432e+01 -2.0454467868337147e+00 -1.1055959281449086e+01 -3.3649520431213329e+00 -1.2378785077650679e+01 9.8289862344543266e-01 3.2959679403728424e+00 -1.3337973866139459e+01 1.9103394927089482e+01 -3.1314441949585756e+00 2.4263754505413388e+01 1.9195924842978275e+02 -1.1898376357705156e+00 -5.1395952601257200e+00 1.0092478017697637e-02 -1.7344439728203997e+02 -7.4481683454485264e+01 3.5012432922239987e+02 -5.9851189892641443e+00 7.2273254343576472e+00 1.7985182373640612e+01 -3.0877585362180699e+00 5.0860332394385788e-01 -8.5900039363934546e+00 -6.7695027259581386e-01 1.8812261994864151e+01 -1.9737159328789446e+01 -1.7449295307763908e+01 1.2882278042261014e+01 -3.2567279595261756e-01 4.0913722841275674e-01 9.3099991596586129e-01 8.4305730939051136e+02 -6.2536431579906093e-01 -1.8443087760502813e+01 7.1180900988441875e-02 9.3718284491109500e+00 -1.6894690100780339e+00 2.0587229906191784e-01 -5.8105418558146282e-01 4.7047803124441762e-01 -1.9196680413697713e+00 -4.3723437859046754e+00 1.0175663503206618e+00 -3.4310138706261570e+00 -9.1881108942361024e+01 1.2193344253672780e+01 5.4847586388484437e+00 6.1025605395697227e+00 -1.1081439726623591e+02 -6.7075208117968685e+00 -4.3187854533200181e+00 -4.0062106528027591e+01 -3.9796427326562602e+00 -3.1878604928012415e+01 3.4799248075039353e+00 5.5105736249719262e-01 3.2568726629383349e+00 -1.0639866591522724e+01 8.3897166950771364e+01 -1.0954541083727570e+01 -1.5576816711215906e+02 1.0518023075163489e+02 5.4505941465014445e+00 2.0199042412506696e+00 4.9707397136641394e+00 1.5606814980875504e+02 -8.3016034664692768e+01 2.9981264047037735e+02 -4.5156997392630970e+01 -8.6438259408481031e+00 -2.5191638194106087e+01 -1.1313947635358096e+01 1.8489175857329343e+00 7.8912901932742585e-02 -1.9910674198663784e+01 4.8467147003203308e+01 3.4728125234279661e+00 -1.7922526118767988e+02 -1.4113531290749344e+02 3.9010400081159493e+00 -1.2004045974126853e-01 3.2863750008605648e-02 -9.2823683775144730e+01 8.1793781105035936e+00 7.6766500267739257e+00 3.4747618420181292e-01 -9.7756348834251749e+00 -2.7601085475208400e+00 3.1988577226230319e-01 2.5317179901067349e-01 -8.4151020614373262e-01 -1.9170793755166953e+00 -8.4246968270862681e+01 2.3002335340914875e+01 -9.4876769090390610e+01 -3.2440592433276962e+01 
      </Row>
      <Row Index="16">
        -4.9223303287959837e+01 1.0462062385031743e+00 -3.3486701974257360e-01 8.6320379275600623e-01 9.9888176240026951e+01 4.7634370755266382e+01 2.0368822003339261e+01 -7.4085515424916863e+00 2.6472674169486641e+01 -6.0863939590590865e+00 7.1341854214683478e+00 -2.9739346781052534e-01 8.9875139109959470e+00 -2.2745526766382266e+01 1.6376150412425680e+01 5.9931885644201142e+00 1.5221729799371130e+02 -7.2709556518937461e+01 6.9072486337653238e-01 -2.1970166080041897e-01 -5.6138031938677069e-01 -2.2559702161184205e+01 -3.3370358200480268e+01 -2.7761300453772486e-01 1.3871718140848440e+01 -2.8665252105016247e+01 1.4489775853444376e+01 -2.5972129254100346e-01 1.8672511309855200e+00 2.9299545687748805e+00 1.9037201401229289e+01 -5.8176456926490353e+01 -3.1002184186194590e+00 4.9369958177522577e+01 -1.0599378520979371e+02 2.7951236384039728e-02 5.6766315690459312e-01 8.8367775773167523e-01 1.0076664550043643e+02 1.3844368410448233e+01 1.1443989112550357e+00 2.3124352768228942e-01 -2.6243210928029924e+01 1.4556589146688312e-01 1.8734183798555710e+00 1.0810015608592778e+00 -5.6121397207125208e+00 1.3418658823219363e+00 -7.4841171298467088e+01 1.1277495003070475e+01 -1.6569959118398162e+02 -2.0293251238632365e+01 -3.2699451832287806e+01 1.0532805576872946e+00 3.9000546673755898e-01 -1.0005760051310062e+01 -4.5120475791466568e+01 -1.1840957674862682e+02 -1.5936920459540975e+01 -1.5880471948409925e+02 6.8897790270350789e-01 1.1237254569326673e+00 -2.6552768589558688e+00 1.6756100602976581e+01 -4.5350228473572010e+00 -2.7677386908186939e+01 -4.1368986553541589e+00 2.0540296170378920e+02 1.1560299159187707e+02 9.7223378884651768e-02 -3.5500406900188741e+00 -3.9035620809603683e-01 -5.9187057640426815e+02 -1.3881415852609823e+02 2.2368186565626706e+02 5.1692925552855051e+00 9.1156777785923694e+01 1.5540803768006096e+01 -4.6252267491123584e+00 -1.4788243255815599e+00 -2.3986417254064275e+01 1.4846585697681181e+01 -7.7410839163812980e+01 -2.7699742128007923e+01 5.0241575771463808e+01 1.2432782079837557e+02 -1.5040496689973004e-01 -1.7614014926324779e+00 5.6663765806910393e-01 2.4722647220036015e+02 2.6301857971907272e+00 4.1745481577300552e+01 -8.1377719125432844e+00 7.0964157050694666e+01 8.7662747512675709e-01 -4.4063937749864177e+00 3.4346217953413161e-01 3.5579278671962085e+00 -1.3801012260963873e+01 1.8673679674838631e+01 -1.3218893545162395e+01 1.4087380473471433e+02 -2.6749750012626816e+02 1.3222526339171138e+01 4.0248145905120403e-01 1.4920911118432672e+01 1.8875730827626828e+02 -1.1902240861536468e+02 5.2580316593679458e+02 6.0094845749184120e+00 6.2279232106375204e+01 7.0009450830148722e+01 1.1258669684519097e+01 2.6078847483324083e+01 -1.4721463598276834e+01 1.4632566998926777e+01 1.4925116132159687e+02 -6.2852697911295898e+01 -3.4655244615924607e+02 -2.4829552043261793e+02 -1.7750289274454815e+01 -3.1271363602558391e+00 1.5565815714573120e+01 -3.8817698760076627e+02 -2.7298483049948578e+02 6.5126420837788328e+02 -7.7523226643051473e+00 -3.8860553923312601e+01 8.3820235118921318e+01 1.1225020765800650e+01 2.3920686815074703e+01 -8.4267441232247613e+00 7.1234782512297850e+00 9.3328837618233138e+01 -9.2738367937443911e+01 1.8714015011731328e+02 5.6696162712367993e+02 5.8723599393307369e-01 -2.1035988179846754e-02 2.3192943134341432e-01 -2.0839183062730481e+02 -6.1815802353948150e+01 6.9602429087741484e+01 -2.9716969802016577e+00 -6.4013078983260812e+01 2.0599067303579091e+00 -3.1729614199213927e+00 -1.4092004342024128e-01 -2.9954127433781954e+00 1.1367765760862786e+01 -2.9116161740763602e+01 6.6155480340038055e+00 1.1636997939787734e+03 -3.4802662269161050e+02 
      </Row>
      <Row Index="17">
        -5.2554471176903417e+02 -1.1981166820628921e+01 8.8224484357782487e+00 4.6803977588539164e-01 -2.4999317857623100e+02 -1.4852562937871272e+02 -5.6071787698244157e+02 -6.0213361237348629e+01 8.2206504603515960e+00 1.5768954045347805e+01 -1.0834059818389182e+01 -1.1429683209517130e+00 -1.1450254824206969e+01 -3.6053187081160971e+01 -2.0146094604411115e+02 4.7057723730250860e+00 -7.2709580879905843e+01 2.0370522016491741e+03 -7.9511637198963090e+00 1.6786226171250789e+01 -1.4147346175833013e+00 4.9205603163465059e+02 -2.5009580067648386e+01 5.8791252656382096e+02 5.3741166582052763e+01 2.7733139400844067e+01 3.2617683655849383e+01 -1.8338834154107140e+00 -3.0331793913783058e+00 -9.8624646622108294e+00 5.6351844330753131e+00 4.6468011821510686e+02 -4.5837867951388290e+01 1.9110279074269773e+01 9.8083154092566110e+02 4.9796217807128471e+00 -1.1258121792941855e+01 1.5492296363663627e+00 -2.9652375623583794e+02 -8.3577477684986832e+01 -9.6003413029327263e+01 1.2961742806315540e+01 1.4049782887509764e+01 -4.2980409591989543e+00 1.8490913823932535e+00 -5.1010619211094532e-01 6.5742699258539909e+00 1.7497120750837365e+01 3.6101916629774496e+02 3.8008585896133603e+01 1.0795158081691855e+02 1.0441327037070878e+03 -1.4728291110394402e+01 -8.2087411319424657e+00 -1.1181109243465269e+01 -4.9492210375145078e+02 2.6447453059009922e+02 5.4346065639119843e+02 3.8633762940547129e+01 2.2588944004406983e+02 -1.6167006368216953e+01 -1.0523724532328713e+00 -1.5718116562058800e+01 -1.8387425803574516e+01 4.5300069278544711e+01 2.0973851617129334e+01 3.2991791869835652e+01 9.1766810638717757e+01 -2.5450303506292403e+02 2.4816761654679791e+00 -2.8532587682698225e+01 -2.1431150399590031e+00 2.4180865972962365e+03 4.7706304121326980e+01 7.9468498148613799e+02 5.0121752136471557e+01 -1.3314888887207246e+01 -5.0792823030865655e+01 -7.3578898851467400e-04 -1.8942121929474647e+00 2.6587880035324453e+01 2.9893705489230928e+00 2.8898204040902982e+01 -7.7809639063236105e+01 1.1076495313826731e+01 -3.7469083403596147e+02 1.7519443410215796e-01 -1.7274467913895881e+00 2.4474217689555777e+00 -1.0913431017026305e+03 -2.6157137914134651e+01 -2.0038502642850719e+02 -1.8900078124600370e+01 -1.2415189410568928e+01 -1.0857619883690628e+01 8.8790432361556704e-02 -3.4720744385787911e-01 -1.1631925209498919e+01 -2.1582825428504698e+01 -4.4641611449609421e+01 1.0930742811852303e+01 -6.5445348938238752e+01 7.0978618855144390e+01 4.1983443872441022e+01 -5.8441630795416572e+01 -1.1095610966020899e+01 5.9601800382840520e+02 9.1535499042547599e+00 -7.1685569412998098e+02 -1.6796912845298681e+02 -2.8335817203534422e+01 1.2610816044103331e+01 2.5783434784100670e+01 -6.4110168205349567e+01 -4.8217066163632509e+01 1.5356031813969179e+02 1.4049505017537626e+01 -2.1060391988003175e+02 2.2690921945394894e+02 1.8334774422541204e+03 1.8961377869241062e+01 -7.5996798538777227e+01 -2.2378204798538761e+01 3.7989602475038799e+02 1.3923615486755915e+02 4.5394118646802235e+02 -9.8178587059060760e+01 2.2365964930213951e+02 -2.7371850621608438e+00 1.6397060552200841e+01 -8.5387676864465789e+01 -6.2456239142972365e+01 1.7564703677603947e+02 -8.9209985467081333e+02 -2.7559668717549073e+02 3.2882525777384762e+02 -1.1187218409833094e+04 -8.6740928624950957e+00 -6.6136433236456469e+00 -7.0461622317368063e-04 -6.0200244893019490e+03 3.0723630515910844e+02 -3.1574201537527370e+02 -9.1294954810605908e+00 1.1306404285525183e+01 1.2816378537358105e+01 3.6718872120395645e+00 1.6876959153161142e-01 4.6826039801326749e+00 2.1877302982782009e+01 -1.0185464129645503e+03 2.2697307767442926e+01 -2.8428450563711993e+02 -5.9026845595342775e+03 
      </Row>
      <Row Index="18">
        2.3644200859642321e+00 1.4036672480513150e+00 -3.6451049650867712e-01 -6.4017844816597780e-02 -3.2794710638554534e+01 -4.8041805060799492e+00 -1.6286470642393237e+01 4.8642306713892541e-01 6.4052675162859751e-01 -4.6129442119321706e-01 9.6178570490680348e-03 8.4320497143945503e-02 2.7283529038684173e-01 -2.3169082846898554e+00 6.6525256071948036e+00 2.9153942436529627e+00 6.9072472696745990e-01 -7.9511622972058831e+00 1.0171709710336587e+00 -2.8878715281568340e-01 1.1729227069866163e-01 9.6347054899024087e+00 2.4782123892700012e+00 1.1347415104446027e+01 -6.8690042902196768e-01 -3.3620793545722205e-01 7.3957258084009381e-02 -2.1981235518351327e-01 -9.2054253533885910e-02 1.1062918018146639e-01 4.8171365824087253e-01 -3.3416690577597556e+00 3.6926480659625988e-01 -5.5839561252536862e-01 1.7726477770434030e+00 -2.7286001310461222e-01 3.1756372936761096e-01 -7.6711797920864910e-02 8.1224311427504290e+00 -2.1259082858334279e+00 -2.8520254353588004e+00 -1.0293528174320554e-02 4.6926305381770606e-01 3.0050880518887119e-01 -2.1654792161259673e-01 -1.7326362313802607e-01 -2.6064815429349897e-01 4.3043003348952880e-01 -3.1430082258484617e+00 -9.9426335991538561e-01 3.1320105322503233e-01 -7.3382389323123789e+00 -1.9996981987628339e+00 -6.0195381660134162e-02 -2.2201856918201565e-01 8.0092579672054853e+00 9.3743462773340696e+00 1.3664402141781103e+01 -2.2896873137954885e+00 -2.1892432792594070e+00 2.5678236834640988e-02 -1.1960751386771225e+00 -1.1863298941764078e-02 1.3279949610905911e-01 9.8179319429225709e-01 3.6621431457395737e+00 -7.7425434835276885e-01 9.8171468800189621e-01 3.9000771874771090e+00 -9.7039259180490212e-01 5.5100909784116803e-01 3.5046558738557132e-01 4.3216499551219272e+00 5.6799218385115102e+00 2.1933297158974700e+01 -2.5656337004661767e+00 -6.4173708264628959e-01 1.2565258666839005e+00 1.3794383778252206e-01 8.0210466182198070e-02 -1.0588908232895564e+00 1.2697537613885737e+00 -2.1297077916545115e-02 9.8338297351278373e-02 -9.9264971564681082e-01 1.7999472013275311e+00 -2.5002109213650447e-01 1.1727245447916584e-01 2.6187134021375658e-01 -1.8607857887196587e+01 -9.3620867439002087e-01 -5.2476753840097725e+00 2.6811430499634414e-01 -7.2946974705140377e-01 -4.2946292445678477e-02 2.0363527606107323e-01 -1.4453085169974650e-02 4.0556744113657728e-02 4.5917621840050771e-02 3.7080625421899018e+00 -4.6269781477583966e-01 -1.0480206677929713e+00 -2.7482005578053052e+01 3.6578678851499449e+00 7.8081958982398403e-01 -1.1612877405866429e-01 -3.6622732558399349e+00 -8.4194307054596251e+00 -1.4152837817619936e+01 -4.6343823162759969e+00 -1.2361309150948907e+00 1.0720151916393816e-01 2.3161052303418903e+00 7.5907061126348430e-02 2.3040950449240309e+00 1.4050287533904169e+00 5.8862883517174041e+00 -3.2783284502304966e-01 8.8674780185158308e+00 -1.7709895188876725e+01 1.9847340811608041e+00 8.3619956280037178e-01 1.7421605356294467e-01 2.7892072817074443e+00 2.7847243903708252e+00 1.2568394187328094e+01 -8.7128944523296195e+00 -3.0126039469093508e+00 8.0479682215340542e-01 9.9695822551255064e-01 6.1389805362058514e-02 1.6872198625059127e+00 5.4602619446972300e-01 -4.9174463611107910e-01 1.0263149516449743e+00 7.5064959010564074e+00 -5.7008870131995302e+00 9.3283298608054555e-01 1.5291818634181364e-01 4.8904893816572578e-02 -1.5286633455266566e+01 9.6952190781286713e+00 -9.0263743837115804e+00 2.1885527443608593e-01 6.1080601435760606e-02 -3.2730893355686774e-01 8.5418827322254032e-02 2.9009053373488140e-02 -1.1001148779749977e-01 3.2011240681710584e-01 -2.9167737216946833e+01 -1.8144490608034022e-01 -5.2310705306174778e+00 -1.4258545859376223e+01 
      </Row>
      <Row Index="19">
        -1.1252768968713919e+01 1.0167035799359045e+00 1.4022093486770659e-01 -1.6317944590676081e-01 -1.2121903396502603e+01 3.2080454777736604e+00 1.6704142767062834e+01 -5.4945004278886236e+00 -1.2722919087305382e+00 1.0053327772582743e-01 5.5448314689765066e-01 -2.3544277517909812e-01 3.1885567988248598e-02 -8.4784772988334578e-01 1.2773365021774641e+00 -5.2160003999654203e-01 -2.1970172964461199e-01 1.6786228449367627e+01 -2.8878715002077054e-01 4.5016620720919232e+00 -3.3384475704289249e-02 -1.5669166856822017e+01 -1.0452944655227672e+00 -1.0257823679434134e+01 2.8895155996734130e+00 -1.0939592040506287e+00 -8.9913094873581523e-01 1.5247522197566699e-02 -1.5525260153373988e-01 -3.1687770407296934e-01 -1.5983689699301751e-01 8.4077737814087641e+00 1.2342592477029664e+00 1.2152184385037335e-01 3.2735159432059845e+01 1.1517894246934517e-01 -1.8602061751866033e+00 7.6835984351404818e-02 -3.4885351037926739e+01 8.8340362990320664e-01 6.0124313965304959e+00 1.8619067204894066e-01 1.5452756829824166e-01 3.3983127655441148e-01 1.5969320847152607e-01 4.5074879577419180e-03 -1.9161815763237355e-01 3.3097280180141636e-01 2.9388964378595119e+00 6.4338211453420158e-01 -5.8584447227982339e-02 -2.7255767085953266e+00 -8.8566802619982909e-01 2.2508510862727968e+00 -9.1412529135629339e-01 -7.5755659893940901e+01 -7.8336396058275772e+00 -1.5682134716348919e+01 -5.1602867598403392e+00 3.9675925813671586e-01 -6.4847804009097409e-01 -2.3112711073373897e+00 -5.5580390552939263e-01 -1.7900448869225587e+00 2.6352804478953620e+00 1.6309362243650448e+01 -1.6170693741797137e-01 8.0395959160983654e+00 3.5218172983804834e+01 9.2043584566434855e-02 -3.3727335514123142e+00 3.5017968355417078e-01 -3.7350656491343670e+01 -3.0588217364229493e+00 -1.9941293337843653e+01 5.4387256703732696e+00 1.1975176046868796e+00 -3.3617733904955094e-01 -9.3349686180367597e-04 6.7957163468901594e-01 -3.7212992400094747e-01 5.5490370392936517e-01 1.0224123900303240e+01 1.2218783123734778e+00 -1.9388086854992386e+00 -2.0269744427413405e+00 2.3604431029452660e-01 -1.4866911550418638e+00 6.4767777538868809e-02 4.1313248221995309e+00 1.4877563944237904e+00 4.1028246398387687e+00 -2.0446378520764674e+00 4.8489532804018154e-01 5.7200503554037962e-01 -4.0852453569302796e-02 2.0304136040659829e-01 1.8398478552106221e-01 -1.5798314128417273e-01 -1.9925762926693968e+00 -1.4211520569677538e+00 -9.6086804060701225e-01 2.6010700705977143e+00 5.1017943579073195e-02 -9.8640501626685539e-01 1.8274863508410957e+00 3.6219049131182175e+01 3.9226188140057694e+00 2.0845601456792306e+01 8.0444147723996018e+00 1.0996355146128194e+00 -5.3058932899398181e-01 -3.4223002042784395e-01 6.0253233314767707e-01 1.5913822766632766e+00 -7.7796373142068320e-01 -4.2322823582032001e+00 1.0305648924176367e+00 7.5768536168839891e+00 2.6342121635343950e+01 -1.2947333767611613e-01 1.1456357328233369e-01 1.0967799132129230e+00 -4.8224045045202189e+01 -4.3716047791891315e+00 -3.0060889449056774e+00 4.7493303712091048e+00 9.0674936547744123e-01 -1.4561595615695049e+00 -2.1018908536020344e+00 4.5239513689592736e-01 -6.9391834624185678e-01 1.6706988742318434e+00 -1.6360182509882279e+01 2.7309967281232170e+00 5.0409961453974494e+00 2.9069146923107947e+01 3.4419492037118971e-01 -1.1573051163976631e+00 9.3283208362679951e-03 4.7360325418374565e+00 -8.2246442943624043e+00 8.3237193424225850e+00 -8.0028878007516657e-01 -9.7178256825977849e-01 2.1464555592121570e-02 -2.3301709774700807e-01 1.0932409129698076e-02 -6.8632812809673815e-02 3.2419438432613046e-01 -5.8753229511268522e+01 6.0502205315363455e-01 -1.9590555332314356e+01 -1.2891493468044199e+01 
      </Row>
      <Row Index="20">
        -1.2615909314786151e+00 1.9319448578889509e-01 -5.1565993858395429e-02 -8.3140776023354634e-01 2.6203067686627037e+01 9.6200759577101602e-01 8.9092407573048660e-01 6.9232043690035383e-01 7.3827447227890408e-01 1.0179594127136542e-01 3.2330101093042435e-02 -1.3557271580720925e-02 -1.5733890374692167e-01 -1.7974315004918082e+00 -1.5299728176346723e+00 -5.2582656061345157e-02 -5.6138029115031429e-01 -1.4147350049206580e+00 1.1729227093072467e-01 -3.3384474328578786e-02 7.3811594911233391e-01 2.1104200788036280e+00 -6.6514734070433057e-01 -7.4841260816613531e-01 -1.4318382380509620e-01 7.5598396014708902e-01 1.9388241260549549e-01 -6.4236297253033731e-03 4.0342544460976709e-02 -7.4426652321634201e-02 2.6160837531574449e-01 6.4666504147568338e-01 1.1031403838332112e+00 -4.1396640451285216e-01 -3.1734764419616113e-01 -6.0936825197555791e-02 4.9749058560413950e-02 -1.2577105270249689e-01 5.1011544604843948e+00 -3.9529291922792309e-02 1.3627357596229168e+00 3.4505721720464244e-01 3.4601333013505609e-01 2.7133049496226025e-02 -6.1182849278637666e-02 -1.4180789041725636e-02 1.5046141386904174e-02 -1.5150139659384609e-02 1.0536560802984241e-01 1.9455927867194606e-01 1.1450287076328434e+00 -9.2336760662101369e-01 -7.3375425772492109e-01 1.4693720720569051e-01 -9.7106850546425760e-02 5.8935052093183913e+00 3.1643491602236673e-02 -4.3811846970383197e+00 -6.3325071369771124e-01 3.7201647464801271e+00 -5.6617853104689730e-01 -5.7721330129092974e-01 -2.4958678601758616e-01 2.2969702296904104e-01 1.1350483820729593e+00 1.0392397022081621e+00 -6.1060959395266057e-01 -9.3092647660038486e-01 -2.8851742226192982e+00 -9.4675486022769012e-02 2.0481300163590599e-01 1.2869545379540035e+00 2.9440341151590701e+00 3.1200447027472267e-01 -3.9096477467300801e+00 -1.5370676451999512e+00 -1.3788562428447813e+00 -9.2158563499943869e-01 2.4382462726285398e-01 3.0787882680433309e-02 4.8457494459731576e-01 9.8135918857710647e-01 4.9009442287920439e+00 -1.4552606034301387e+00 2.8549598213701000e-01 8.3088814729394045e-01 -3.8136001516109755e-02 -6.6009346623348120e-02 6.6521888756125003e-01 2.9470612820325186e+01 1.3236551454927323e+00 -8.3927999359162375e-01 -2.4435662010847711e-01 -9.0320613329056698e-01 3.3106699457837885e-01 3.5896271138435701e-02 -3.6261019676163464e-02 9.2415688520623290e-03 -2.7769580188072035e-01 1.1413980049830306e+00 -1.3713735858759462e+00 -5.1585475984216611e-01 5.4113268447775553e+00 6.9385230499383199e-01 1.1179282871896661e+00 -7.8182121357902368e-01 -3.3157348718371580e+00 2.9010379555666423e+00 -3.9737578639619855e+00 4.9706963271009545e+00 -1.5597849211334365e+00 -5.4228293078719991e-01 3.2172497206585937e-01 6.4542496199983412e-01 1.7736214025202257e-02 1.6461252289524242e+00 -5.7506597902400145e+00 7.1039996688940343e-01 2.2786580471766857e+00 2.6096201141030804e+00 2.0554716062463452e-02 1.3399963058610163e+00 6.5970931376944386e-01 7.5435720589526341e+00 3.3325560578535538e+00 -1.0004623681336188e+01 3.7233266206694848e+00 2.3867725411753864e+00 -1.2692588432657004e+00 -1.2116035627220656e-01 4.1711604227744703e-01 4.7287479190420378e-01 1.8514287392743372e+00 3.5969790140573057e+00 -3.4128544006146638e-01 3.5745316598969517e+00 4.0950875568128122e+00 1.7478280269816379e-01 1.5951817226022680e-02 1.1882084903453154e-01 3.3545695241134670e+00 -1.2147273600142519e+00 1.2269625944785050e+00 1.0612757630846684e-02 9.0627900679726248e-01 3.7397456503178361e-01 -7.1938813668674051e-02 5.5603161837787310e-03 3.0505350544241860e-02 4.4026446601734281e-01 6.4473066804785564e+00 -2.5666571345793721e-01 4.1057748264011001e-01 6.2382863073882504e+00 
      </Row>
      <Row Index="21">
        -4.1063398033792504e+02 -7.8975835837749742e+00 -3.4984408686792406e+01 -1.9188630845394528e+01 3.1010232459053397e+04 -3.9507830740586473e+02 -6.3041552047225298e+02 -6.2941391000091343e+01 2.2328371129495690e+02 -2.4864275782100030e+01 5.4947145236550767e+01 1.5685425143591925e+00 9.4276626189222021e+00 -6.0278231504328801e+01 6.7067671133332192e+02 2.5374362212969885e+01 -2.2559692024544347e+01 4.9205568240489811e+02 9.6347051014615275e+00 -1.5669166493118489e+01 2.1104202560577252e+00 2.8333186448191966e+04 3.5866706163713781e+02 1.2968858691361754e+02 1.8463859520153616e+02 6.0231956186499595e+01 4.1453759914449677e+01 3.0196884534337656e+00 1.3218598097932041e+01 -4.3443360252695236e+00 1.0437701016935083e+02 1.6150308617921517e+03 1.2325868235971921e+01 -9.7195832543560840e+01 7.6975469379464630e+02 1.2219385804804386e+01 1.0856209909538226e+01 -1.7120753551233065e+01 4.4655744765341282e+04 -1.7183096075015268e+02 -8.2267582166533714e+01 -2.1802182694029923e+01 -1.7360552937777675e+02 2.4974793252590359e+01 4.9742587679803290e+00 2.0290780598284293e+01 2.7294695461384009e+01 4.2897910105054997e+01 1.1313418806497939e+03 -1.5828889090117210e+01 -1.5014756439220227e+02 -4.9574557480146177e+02 2.5575830007681454e+01 -2.9555332441108007e+01 1.8271929600113516e+01 1.6809844655822963e+04 6.8175195001362135e+02 1.0121417769984137e+03 -2.5636021299038640e+02 1.2026717479264121e+03 -5.8581300813878940e+01 7.5654565410858382e+01 1.9134458724403554e+01 -2.5774545856139383e+01 -1.1085874588042975e+01 8.1018699397685270e+02 6.6034306580071643e+01 3.1295006335683132e+02 3.9769540797895752e+02 1.9087651618552282e+01 6.7370604411703766e+01 3.4802841492822481e+01 1.0359110331573043e+04 8.9413744068827145e+02 -5.2666007791265656e+02 -7.0723513444347859e+01 -3.7969273975445395e+02 -1.0776812736916193e+02 -1.8812101982853520e+01 -9.5181081151705023e+00 1.1486325078192429e+01 5.6835969640924077e+01 -5.1857532066469287e+02 -1.2246338672192883e+02 5.5901473104698923e+01 4.2639329537495371e+02 1.0151876086221613e+01 2.7093466025233067e+01 3.5088415672492140e+01 1.3397435181699693e+04 1.0139827391197133e+02 -7.8728374075454485e+02 -5.7036274427258576e+01 -1.6041797866486741e+02 -3.2866998525662066e+00 -1.1310401416284559e+01 2.4662702365694713e+01 -3.4507075119985906e+01 3.6743202289840497e+01 9.2283804412986314e+01 -1.4473046875140221e+02 1.7147937962121425e+01 3.6538046388508096e+03 8.8497905836927046e+01 7.7416784662619960e+01 -1.9372966702869769e+02 -1.2245054140156639e+04 4.5924778900995761e+02 -2.5713311006849490e+03 5.0079208325285620e+01 -3.5948887150057277e+02 -1.3929183604440721e+02 -6.2654886947146430e+01 -2.4947245384026752e+02 3.3717397544845136e+02 5.7160763962061901e+02 3.9752502743812215e+02 -5.8062127932170483e+02 3.3463912384520063e+02 4.9194462167002921e+03 1.3966079601979192e+02 9.2828878451667322e+01 -1.3529309448102185e+02 1.1783181075581060e+04 1.8898105902221637e+03 -2.8246890484125747e+03 -2.1992922299026426e+02 5.6491811800631240e+02 -2.2278944546198176e+02 3.1507702790341682e+01 -2.0494469352886108e+02 3.1553724730265986e+02 6.4198026734839209e+02 5.8393194598843947e+03 -5.8719098205227056e+02 8.9056354119238131e+02 -3.2308185988032515e+03 1.4862030922404159e+00 9.9752165161091852e+00 6.8388115056492325e+00 -1.2032174408745038e+02 6.7887534800011269e+02 -7.2126205490738266e+02 -3.1081531451327908e+01 1.8758934608371430e+02 1.3939354129342973e+01 -1.8929851179203524e+01 -3.3662374386510323e+00 1.2196154264735924e+01 8.7417228445138129e+00 6.9856750780523316e+03 3.2477126020126654e+01 3.1109684982678255e+02 3.4314447510299537e+03 
      </Row>
      <Row Index="22">
        1.1487876469739642e+02 6.8124472186329399e+00 -1.3472871177776227e+01 -5.5911241087088115e-02 3.5911409220006317e+02 -1.0783055165207804e+03 -2.1181991641196955e+03 -4.4360149748528755e+01 -6.2548747952098758e+00 1.4778916023601831e+00 -1.2183022274808342e+00 1.5710087347204718e+00 1.3838636117839407e+00 3.7476773700339074e+01 -1.3256248950717981e+02 -2.1128861394420415e+01 -3.3370362960434250e+01 -2.5009526668349281e+01 2.4782125176856287e+00 -1.0452943700261690e+00 -6.6514737696748494e-01 3.5866705432417803e+02 7.1515549059550631e+02 1.0407292619741979e+03 3.0392803568859314e+01 -5.2134045478544913e+00 -1.3250171673195357e+01 -1.3619381994527981e+00 -8.4488590755262949e-01 -4.7427937188541236e-01 -7.2235877489127489e+00 4.7058285352198126e+01 -2.0577845511745167e+01 -2.1248254788873783e+01 -3.4979471021091740e+01 1.8462406827890661e+00 2.3861043921967764e+00 -3.1772338682844747e-01 9.0902774771861732e+02 -3.1389945404141008e+02 -7.5173178941849358e+02 -1.4325794083956325e+01 9.7592925294476061e+00 1.2605946294421102e+00 -1.7580858231041852e-01 -8.5955345995794907e-01 -7.7592918111840414e-01 1.7843884068481174e+01 8.2798287148281815e+01 -2.9968803893236519e+01 6.3807448717337536e+01 -2.9444701652028016e+01 6.1782748158022933e+01 -9.7784271532044862e+00 -2.4006915365951933e+01 2.1062875600054394e+03 1.4637485642688127e+03 3.2898461071333841e+03 -2.2314062042977358e+02 -1.3545849694463794e+02 4.7088407228434797e+01 -1.6792838365945002e+01 -5.1304580243653328e+00 8.6314057813776071e+00 -3.3258742560526855e-02 2.6816999077364201e+01 2.9781263908731944e+01 -1.5322051322168912e+02 -2.5502822647535504e+02 -6.1918146125847331e+00 9.9429622950302168e+00 -3.0037295375094484e+00 1.0128658452330636e+03 1.3817957762758831e+03 2.0086955574329750e+03 6.8347497725087138e+01 -4.6925080021109871e+00 3.5277735342985366e+01 5.9284193117995243e-01 -3.4260354139973970e-01 -2.1376907059450357e+01 -3.6752963503587765e+01 7.3804061853756082e+01 1.7852975797144168e+01 -3.3884799386084566e+01 -1.9521630706254246e+02 1.3142302079346295e+00 3.8181752464057532e+00 -4.0255962763550421e+00 3.4945316405687481e+02 -3.1609004079781056e+02 -5.9525911219391162e+02 8.4657259885606866e+00 -1.6079842277222951e+01 -5.1348656714496350e+00 3.3069518147392847e+00 1.1902313910735529e-01 -1.2784759336239810e+00 -4.2368480926854382e+00 -2.8581119569437934e+01 1.6599968985085670e+01 -6.2177841928624467e+01 -1.2556207920276168e+02 -1.3982983247781497e+00 -3.5672119855201750e+01 -1.1049581860382361e+01 -1.4601679214646429e+03 -1.5143454009528780e+03 -2.5573258503352727e+03 -1.6304838447618465e+02 6.8545183250651434e+00 1.9725660536007354e+01 2.7198332145589767e+01 -5.3742564152368795e+00 5.6750482259728372e+01 -3.2567734384442417e+01 1.8110788883045643e+02 4.4666425546348137e+01 3.3733000059346045e+02 -3.8507824695882232e+02 6.0135465504347451e+01 -4.2647147066669731e+01 -4.1060318016915097e+01 1.1514415246675289e+03 6.7524051830400492e+02 1.1512970821413815e+03 -3.5007041321706538e+02 -1.2903758684630708e+02 8.0518616443562010e+01 9.2830697281987966e+00 -1.0447878772740580e+01 4.5258406073390745e+01 -4.8566775779208925e+01 2.0798851460884816e+02 4.1310555002202094e+01 9.1478820132031615e+01 -4.2476266264863807e+02 3.2752517657518241e+00 1.4126714536463680e+00 -4.2929727299994624e-01 -1.8243015940741915e+02 1.7569774251482704e+03 -1.7809083550269654e+03 -1.7640106430030462e+00 9.0981922698177229e+00 -1.7091853944120572e+01 2.7391545999107905e+00 2.2663710117069080e-02 -1.4119463220144155e+00 -6.6076592661981941e+00 1.6535112744798175e+02 -2.6785008842904571e+01 -3.2712974638491107e+02 2.3423339354681943e+02 
      </Row>
      <Row Index="23">
