<?xml version="1.0"?>
<MethodSetup Method="MLP::MLPTuned">
  <GeneralInfo>
    <Info name="TMVA Release" value="4.1.2 [262402]"/>
    <Info name="ROOT Release" value="5.32/00 [335872]"/>
    <Info name="Creator" value="ineuteli"/>
    <Info name="Date" value="Thu Nov 19 13:44:10 2015"/>
    <Info name="Host" value="Linux cmsdev02.cern.ch 2.6.32-431.11.2.el6.x86_64 #1 SMP Wed Mar 26 09:39:43 CET 2014 x86_64 x86_64 x86_64 GNU/Linux"/>
    <Info name="Dir" value="/shome/ineuteli/phase2/CMSSW_5_3_24/src/Delphes/plots"/>
    <Info name="Training events" value="21448"/>
    <Info name="TrainingTime" value="5.64946105e+02"/>
    <Info name="AnalysisType" value="Classification"/>
  </GeneralInfo>
  <Options>
    <Option name="NCycles" modified="No">500</Option>
    <Option name="HiddenLayers" modified="Yes">N+10</Option>
    <Option name="NeuronType" modified="Yes">tanh</Option>
    <Option name="RandomSeed" modified="No">1</Option>
    <Option name="EstimatorType" modified="No">MSE</Option>
    <Option name="NeuronInputType" modified="No">sum</Option>
    <Option name="V" modified="Yes">False</Option>
    <Option name="VerbosityLevel" modified="No">Default</Option>
    <Option name="VarTransform" modified="Yes">N</Option>
    <Option name="H" modified="Yes">False</Option>
    <Option name="CreateMVAPdfs" modified="No">False</Option>
    <Option name="IgnoreNegWeightsInTraining" modified="No">False</Option>
    <Option name="TrainingMethod" modified="No">BP</Option>
    <Option name="LearningRate" modified="No">2.000000e-02</Option>
    <Option name="DecayRate" modified="No">1.000000e-02</Option>
    <Option name="TestRate" modified="No">10</Option>
    <Option name="EpochMonitoring" modified="No">False</Option>
    <Option name="Sampling" modified="No">1.000000e+00</Option>
    <Option name="SamplingEpoch" modified="No">1.000000e+00</Option>
    <Option name="SamplingImportance" modified="No">1.000000e+00</Option>
    <Option name="SamplingTraining" modified="No">True</Option>
    <Option name="SamplingTesting" modified="No">False</Option>
    <Option name="ResetStep" modified="No">50</Option>
    <Option name="Tau" modified="No">3.000000e+00</Option>
    <Option name="BPMode" modified="No">sequential</Option>
    <Option name="BatchSize" modified="No">-1</Option>
    <Option name="ConvergenceImprove" modified="No">1.000000e-30</Option>
    <Option name="ConvergenceTests" modified="No">-1</Option>
    <Option name="UseRegulator" modified="Yes">True</Option>
    <Option name="UpdateLimit" modified="No">10000</Option>
    <Option name="CalculateErrors" modified="No">False</Option>
    <Option name="WeightRange" modified="No">1.000000e+00</Option>
  </Options>
  <Variables NVar="14">
    <Variable VarIndex="0" Expression="jet1Pt" Label="jet1Pt" Title="jet1Pt" Unit="" Internal="jet1Pt" Type="F" Min="2.00867805e+01" Max="1.07285205e+03"/>
    <Variable VarIndex="1" Expression="jet2Pt" Label="jet2Pt" Title="jet2Pt" Unit="" Internal="jet2Pt" Type="F" Min="2.00192165e+01" Max="5.84510559e+02"/>
    <Variable VarIndex="2" Expression="bjet1Pt" Label="bjet1Pt" Title="bjet1Pt" Unit="" Internal="bjet1Pt" Type="F" Min="2.38701992e+01" Max="1.10554028e+03"/>
    <Variable VarIndex="3" Expression="bjet2Pt" Label="bjet2Pt" Title="bjet2Pt" Unit="" Internal="bjet2Pt" Type="F" Min="1.57129698e+01" Max="4.72949127e+02"/>
    <Variable VarIndex="4" Expression="leptonPt" Label="leptonPt" Title="leptonPt" Unit="" Internal="leptonPt" Type="F" Min="1.08222044e+00" Max="6.08317688e+02"/>
    <Variable VarIndex="5" Expression="MET" Label="MET" Title="MET" Unit="" Internal="MET" Type="F" Min="2.36225128e-03" Max="8.55639771e+02"/>
    <Variable VarIndex="6" Expression="DeltaPhi_METl" Label="DeltaPhi_METl" Title="DeltaPhi_METl" Unit="" Internal="DeltaPhi_METl" Type="F" Min="7.91251659e-06" Max="6.25079775e+00"/>
    <Variable VarIndex="7" Expression="DeltaR_j1l" Label="DeltaR_j1l" Title="DeltaR_j1l" Unit="" Internal="DeltaR_j1l" Type="F" Min="2.90729791e-01" Max="5.16654682e+00"/>
    <Variable VarIndex="8" Expression="DeltaR_j2l" Label="DeltaR_j2l" Title="DeltaR_j2l" Unit="" Internal="DeltaR_j2l" Type="F" Min="4.27045226e-01" Max="4.57230957e+02"/>
    <Variable VarIndex="9" Expression="DeltaR_b1l" Label="DeltaR_b1l" Title="DeltaR_b1l" Unit="" Internal="DeltaR_b1l" Type="F" Min="3.54870975e-01" Max="4.48389149e+00"/>
    <Variable VarIndex="10" Expression="DeltaR_b2l" Label="DeltaR_b2l" Title="DeltaR_b2l" Unit="" Internal="DeltaR_b2l" Type="F" Min="4.23246354e-01" Max="7.69836182e+02"/>
    <Variable VarIndex="11" Expression="DeltaR_bb1" Label="DeltaR_bb1" Title="DeltaR_bb1" Unit="" Internal="DeltaR_bb1" Type="F" Min="2.95089483e-01" Max="4.92900372e+00"/>
    <Variable VarIndex="12" Expression="M_bb_closest" Label="M_bb_closest" Title="M_bb_closest" Unit="" Internal="M_bb_closest" Type="F" Min="8.52508640e+00" Max="3.20542749e+03"/>
    <Variable VarIndex="13" Expression="MT_lnu" Label="MT_lnu" Title="MT_lnu" Unit="" Internal="MT_lnu" Type="F" Min="9.77890217e-04" Max="4.60327148e+02"/>
  </Variables>
  <Spectators NSpec="0"/>
  <Classes NClass="2">
    <Class Name="Signal" Index="0"/>
    <Class Name="Background" Index="1"/>
  </Classes>
  <Transformations NTransformations="1">
    <Transform Name="Normalize">
      <Selection>
        <Input NInputs="14">
          <Input Type="Variable" Label="jet1Pt" Expression="jet1Pt"/>
          <Input Type="Variable" Label="jet2Pt" Expression="jet2Pt"/>
          <Input Type="Variable" Label="bjet1Pt" Expression="bjet1Pt"/>
          <Input Type="Variable" Label="bjet2Pt" Expression="bjet2Pt"/>
          <Input Type="Variable" Label="leptonPt" Expression="leptonPt"/>
          <Input Type="Variable" Label="MET" Expression="MET"/>
          <Input Type="Variable" Label="DeltaPhi_METl" Expression="DeltaPhi_METl"/>
          <Input Type="Variable" Label="DeltaR_j1l" Expression="DeltaR_j1l"/>
          <Input Type="Variable" Label="DeltaR_j2l" Expression="DeltaR_j2l"/>
          <Input Type="Variable" Label="DeltaR_b1l" Expression="DeltaR_b1l"/>
          <Input Type="Variable" Label="DeltaR_b2l" Expression="DeltaR_b2l"/>
          <Input Type="Variable" Label="DeltaR_bb1" Expression="DeltaR_bb1"/>
          <Input Type="Variable" Label="M_bb_closest" Expression="M_bb_closest"/>
          <Input Type="Variable" Label="MT_lnu" Expression="MT_lnu"/>
        </Input>
        <Output NOutputs="14">
          <Output Type="Variable" Label="jet1Pt" Expression="jet1Pt"/>
          <Output Type="Variable" Label="jet2Pt" Expression="jet2Pt"/>
          <Output Type="Variable" Label="bjet1Pt" Expression="bjet1Pt"/>
          <Output Type="Variable" Label="bjet2Pt" Expression="bjet2Pt"/>
          <Output Type="Variable" Label="leptonPt" Expression="leptonPt"/>
          <Output Type="Variable" Label="MET" Expression="MET"/>
          <Output Type="Variable" Label="DeltaPhi_METl" Expression="DeltaPhi_METl"/>
          <Output Type="Variable" Label="DeltaR_j1l" Expression="DeltaR_j1l"/>
          <Output Type="Variable" Label="DeltaR_j2l" Expression="DeltaR_j2l"/>
          <Output Type="Variable" Label="DeltaR_b1l" Expression="DeltaR_b1l"/>
          <Output Type="Variable" Label="DeltaR_b2l" Expression="DeltaR_b2l"/>
          <Output Type="Variable" Label="DeltaR_bb1" Expression="DeltaR_bb1"/>
          <Output Type="Variable" Label="M_bb_closest" Expression="M_bb_closest"/>
          <Output Type="Variable" Label="MT_lnu" Expression="MT_lnu"/>
        </Output>
      </Selection>
      <Class ClassIndex="0">
        <Ranges>
          <Range Index="0" Min="2.0086780548095703e+01" Max="7.2419335937500000e+02"/>
          <Range Index="1" Min="2.0266897201538086e+01" Max="4.3881936645507812e+02"/>
          <Range Index="2" Min="2.3870199203491211e+01" Max="9.0402545166015625e+02"/>
          <Range Index="3" Min="2.0005315780639648e+01" Max="3.5823077392578125e+02"/>
          <Range Index="4" Min="1.0822204351425171e+00" Max="6.0831768798828125e+02"/>
          <Range Index="5" Min="2.3622512817382812e-03" Max="4.3270321655273438e+02"/>
          <Range Index="6" Min="1.2707710266113281e-04" Max="6.2333335876464844e+00"/>
          <Range Index="7" Min="2.9072979092597961e-01" Max="5.1665468215942383e+00"/>
          <Range Index="8" Min="4.2704522609710693e-01" Max="4.5723095703125000e+02"/>
          <Range Index="9" Min="3.5487097501754761e-01" Max="4.4814047813415527e+00"/>
          <Range Index="10" Min="5.4814732074737549e-01" Max="7.6983618164062500e+02"/>
          <Range Index="11" Min="2.9508948326110840e-01" Max="4.7140746116638184e+00"/>
          <Range Index="12" Min="8.5250864028930664e+00" Max="1.4609707031250000e+03"/>
          <Range Index="13" Min="8.0032041296362877e-03" Max="4.6032714843750000e+02"/>
        </Ranges>
      </Class>
      <Class ClassIndex="1">
        <Ranges>
          <Range Index="0" Min="2.1614933013916016e+01" Max="1.0728520507812500e+03"/>
          <Range Index="1" Min="2.0019216537475586e+01" Max="5.8451055908203125e+02"/>
          <Range Index="2" Min="2.7465524673461914e+01" Max="1.1055402832031250e+03"/>
          <Range Index="3" Min="1.5712969779968262e+01" Max="4.7294912719726562e+02"/>
          <Range Index="4" Min="2.4814007282257080e+00" Max="4.9003744506835938e+02"/>
          <Range Index="5" Min="2.1314382553100586e-02" Max="8.5563977050781250e+02"/>
          <Range Index="6" Min="7.9125165939331055e-06" Max="6.2507977485656738e+00"/>
          <Range Index="7" Min="3.2630905508995056e-01" Max="4.3421802520751953e+00"/>
          <Range Index="8" Min="5.0550889968872070e-01" Max="3.3901596069335938e+02"/>
          <Range Index="9" Min="3.7667608261108398e-01" Max="4.4838914871215820e+00"/>
          <Range Index="10" Min="4.2324635386466980e-01" Max="6.3176385498046875e+02"/>
          <Range Index="11" Min="3.3165514469146729e-01" Max="4.9290037155151367e+00"/>
          <Range Index="12" Min="1.2813421249389648e+01" Max="3.2054274902343750e+03"/>
          <Range Index="13" Min="9.7789021674543619e-04" Max="3.6535867309570312e+02"/>
        </Ranges>
      </Class>
      <Class ClassIndex="2">
        <Ranges>
          <Range Index="0" Min="2.0086780548095703e+01" Max="1.0728520507812500e+03"/>
          <Range Index="1" Min="2.0019216537475586e+01" Max="5.8451055908203125e+02"/>
          <Range Index="2" Min="2.3870199203491211e+01" Max="1.1055402832031250e+03"/>
          <Range Index="3" Min="1.5712969779968262e+01" Max="4.7294912719726562e+02"/>
          <Range Index="4" Min="1.0822204351425171e+00" Max="6.0831768798828125e+02"/>
          <Range Index="5" Min="2.3622512817382812e-03" Max="8.5563977050781250e+02"/>
          <Range Index="6" Min="7.9125165939331055e-06" Max="6.2507977485656738e+00"/>
          <Range Index="7" Min="2.9072979092597961e-01" Max="5.1665468215942383e+00"/>
          <Range Index="8" Min="4.2704522609710693e-01" Max="4.5723095703125000e+02"/>
          <Range Index="9" Min="3.5487097501754761e-01" Max="4.4838914871215820e+00"/>
          <Range Index="10" Min="4.2324635386466980e-01" Max="7.6983618164062500e+02"/>
          <Range Index="11" Min="2.9508948326110840e-01" Max="4.9290037155151367e+00"/>
          <Range Index="12" Min="8.5250864028930664e+00" Max="3.2054274902343750e+03"/>
          <Range Index="13" Min="9.7789021674543619e-04" Max="4.6032714843750000e+02"/>
        </Ranges>
      </Class>
    </Transform>
  </Transformations>
  <MVAPdfs/>
  <Weights>
    <Layout NLayers="3">
      <Layer Index="0" NNeurons="15">
        <Neuron NSynapses="24">
          -3.3346182354739506e-01 1.2037614728341388e+00 2.4357202394699309e-01 1.5845840158188975e+00 -1.9786502493990754e+00 -8.9671088300697743e-01 -1.3947656150744201e+00 1.0786881004604665e+00 -9.5064813206196208e-01 -6.7740198641813332e-01 -1.5810790720419126e+00 -4.1306287539830522e-01 -1.1317511316323943e+00 -6.2378676029944291e-01 -8.8635636475989321e-01 6.7107252119420735e-01 -4.5869200821512829e-01 2.6343543714721553e+00 -5.8108500148300757e-01 7.6121318579303232e-01 -3.5876839137330729e-01 -7.4694828418688175e-01 -1.0641025567493168e-01 4.5904229580104472e-01 
        </Neuron>
        <Neuron NSynapses="24">
          -1.1918547184262653e+00 -7.6238145063928967e-02 1.4685809819107949e+00 -7.2900559916283791e-01 -1.8780889955487123e+00 7.5435194881327561e-01 1.5545372792174333e-01 2.3563216122481383e+00 -6.0818954875671083e-01 3.6864054903442772e-01 -1.0324659735771953e-01 -2.7667751896622567e-01 -1.8107690591997740e+00 1.8726381752323529e+00 -1.1071967335427890e+00 7.7139206468483468e-01 1.0640974122758748e+00 1.7642415330289712e-01 -3.0076463937699135e-02 3.2633235864609894e-01 -3.6526414576539812e-01 -1.6277178350325483e+00 8.1893492968153159e-01 4.3433429649157768e-01 
        </Neuron>
        <Neuron NSynapses="24">
          1.3778545612797635e+00 6.8991516052077950e-01 1.1051993257740542e+00 1.8947156213075123e+00 -1.6498165432743190e+00 1.3245604403797537e+00 -1.9548250718131024e+00 -1.6400150335226515e+00 -2.6556081903560487e+00 -5.7175527091066982e+00 1.7069253450379693e+00 6.8339527820347445e-01 -1.6272184657785198e+00 3.4898485153256648e-01 -4.7469152041043278e-01 2.4308546142336520e+00 1.1807852325685415e+00 9.7439174706937881e-01 -1.6647347362316673e+00 -1.3974971358956674e+00 2.8626083937078279e+00 -8.4183158902902788e-01 -1.5537551529130883e-01 -1.1529710900620609e+00 
        </Neuron>
        <Neuron NSynapses="24">
          5.7365338482512984e-01 -5.1330990554369895e-03 1.3359088825458443e+00 5.8359177220252238e-03 -1.9279160146766163e+00 -1.1536151818354801e+00 4.1521438495325336e-01 5.3879286172550678e-01 1.6112976185833856e+00 -4.7407076616423547e+00 4.4717145257095942e-01 -8.0495626286741273e-01 -1.0403195128806806e+00 -4.6458799849495219e-01 8.2044705373514892e-01 -2.0437791453340437e+00 -1.6992021804562658e+00 -1.0586995641847112e+00 -2.0407672871188938e+00 -1.1528947148623678e-01 1.1750935337470543e+00 -1.6157627886109831e+00 -1.8253775162833805e-01 1.8021750213795114e+00 
        </Neuron>
        <Neuron NSynapses="24">
          -8.6037789840080281e-01 -2.1575211370724507e+00 -1.4032484998799666e+00 6.7976654345549758e-01 -1.9178845933699495e+00 -1.2333232096801241e+00 3.8381734647615762e-01 2.7108162766839561e+00 -5.3446343109943473e-01 -1.4331349527705234e-01 -6.0337657364196418e-01 -8.0327916973469693e-01 -4.6029490679240531e-01 6.6515541113992405e-01 -1.5035590558879770e+00 -6.0302530565889656e-01 -3.2782149688514184e-01 -6.3591735835244190e-01 -1.5110591915931565e-02 1.3590836270580051e+00 2.9413066203382954e-01 -9.5542616340340925e-01 9.4846438542665401e-01 -8.4446728980243457e-01 
        </Neuron>
        <Neuron NSynapses="24">
          -1.5948844073980217e+00 -4.0632080001063053e-01 -1.1152473653001392e-01 2.0851101053580496e+00 7.8657287094552120e-01 2.0688903197727465e-01 -7.5131632604511966e-01 -3.9933217141836880e-01 -8.4287648337728660e-01 -1.8930900069622818e-02 -1.4666262682583708e-01 -1.8176912113090740e+00 2.8180183885840177e-01 -1.5021584205437402e+00 -5.8056642343506704e-01 6.3438892146043557e-01 1.0847340337126077e+00 -1.2223016706807883e+00 3.6229312043641110e-01 1.2125375515082280e+00 -5.9125197598145629e-01 1.6374409581415170e-01 -1.3055243395483636e+00 1.9134476514840328e-02 
        </Neuron>
        <Neuron NSynapses="24">
          -1.3087988817386904e+00 4.3853027943555661e-01 2.2272482458794615e-01 -2.2062132685591151e-02 -3.9162299070562728e-01 -5.3816830739143437e-02 -1.0302834607718026e+00 -1.1734318510441576e-01 1.5455364904288385e-01 -5.5896742403708309e-02 3.3929128322268515e-01 2.8489421946808635e-01 5.4604851909922902e-01 4.7531748517436197e-02 2.2256371252787896e-01 -1.8191801993472462e-01 5.2613147593882348e-01 1.7607161078238648e-01 1.8640334731070199e-02 2.1813031876345701e-01 4.9698604766746556e-02 -5.8362855202658337e-01 4.0784596323419069e-02 8.8558989595910187e-01 
        </Neuron>
        <Neuron NSynapses="24">
          -9.1622995915306094e-01 1.9295742371547930e-01 1.2766998161128622e+00 1.2810394806007135e+00 -2.7084447725574229e-01 8.5201627887058295e-01 1.4232930752672417e+00 -2.1399359479815798e+00 8.2124138585806594e-01 4.5481183610607046e-01 -4.3297826068351247e-01 -1.7050355154737282e+00 -1.7563694472262166e+00 2.1457061446636434e+00 1.4340392771541310e+00 -2.8456409692708506e+00 -3.7203932785181287e-01 -8.1057829058507125e-01 -1.7568182478503164e-01 8.5800688230731537e-01 -2.5311988582639469e+00 -4.8073817394102208e-01 -1.3320265835806071e+00 1.1367253360825307e+00 
        </Neuron>
        <Neuron NSynapses="24">
          1.4196905262614696e+00 9.2477613172570550e-01 3.0874361355709784e-02 -1.9633913800836125e-01 -1.9834320826989891e+00 9.2256063904965269e-01 -2.6262696085190179e-01 -2.0177928799000284e+00 -4.9003232672921204e-01 2.9323125313124572e+00 6.5307022928617675e-01 -1.9643030145990108e+00 1.0195649960893243e+00 4.4541666082650244e-01 -7.5353271759955487e-01 1.5105393211538596e+00 1.8877867958126786e+00 1.1932962203105764e+00 3.3345024589873264e+00 -1.5052309106127371e-01 -9.6097587525595851e-01 -9.2319837530086113e-01 1.6157454505957958e+00 1.8466397350720452e+00 
        </Neuron>
        <Neuron NSynapses="24">
          6.6082057642500514e-01 7.5704888360325726e-02 2.6665009354337577e-01 -1.0881656956756087e+00 -1.3256604934619980e+00 -9.4954050392831321e-02 -1.2001929875727666e+00 5.7092013855871881e-01 1.8259671307841721e-01 -6.0019484020195013e-01 8.0987696251017538e-02 -1.4159675739280453e-01 -1.7393870218917233e+00 -9.9392138256374885e-01 1.7397090095773649e+00 1.2286708379447067e-01 -2.3130770655254865e-01 1.2586316016815199e-01 8.4319802363116592e-01 -9.9378899210443594e-01 2.1507297380682271e+00 7.5100998924687551e-02 -1.2987987507122380e+00 -1.2498519056173898e+00 
        </Neuron>
        <Neuron NSynapses="24">
          -2.0298229604727096e+00 -5.0217308551656059e-01 -1.6445348818280399e+00 -9.7140433815945459e-01 -1.8914992964777639e+00 1.7837051142405494e-01 -1.3904410838594479e+00 -1.5621124306578638e+00 2.0450811100772652e+00 2.0756760296599697e+00 9.1660090948432305e-01 -1.0716728322654967e+00 -4.5043529329895221e-01 1.8213095150191683e+00 2.3936918609485089e-01 1.2776861396940890e-02 -1.6520906508734323e+00 -9.3191762809345224e-01 -2.8551614949398946e-01 -1.4462334830184320e+00 -1.1435671936901666e+00 2.8107162503065058e-01 2.2627315307711622e+00 9.9023909580035537e-03 
        </Neuron>
        <Neuron NSynapses="24">
          2.4967424078217251e-01 -6.3886492181514809e-01 -1.9366667629026413e-01 1.0871266740551535e+00 1.2012058239158325e+00 -1.2376866232125264e-01 -1.2061904477320089e+00 -4.5134208272894794e-01 1.0270671528944213e+00 -3.3916385673837146e+00 1.8161028528972198e-01 -2.9149859306239106e-01 1.1060577882524047e+00 1.5564132726555738e-01 7.3568297468097898e-01 2.1102146868803998e-01 1.2749462744577464e-02 -4.1127470416682899e-01 -4.3260875659746478e+00 -4.2690307598771698e-01 -5.6916664487534441e-01 -1.3874981229323524e+00 -9.0426466633819980e-01 1.5103747184465899e+00 
        </Neuron>
        <Neuron NSynapses="24">
          -1.9801648225855075e+00 1.0889154653541400e+00 -1.1607671586726491e+00 1.5842295893464482e+00 -1.0884551672589931e+00 5.2306200047949303e-01 2.6581532716705331e-01 -1.4573711763776118e+00 -3.0956398713652988e-01 2.2199493443918747e+00 -2.3274915489134358e+00 -1.4795524460509599e+00 -2.0646001707136827e+00 -1.0318809074918003e+00 2.0962863644840191e+00 -4.1560550191778078e-01 1.3070639439034124e-01 -1.3444216409214227e+00 -2.2979698919013494e+00 -2.0515433283518427e+00 -1.0142413451636956e+00 -1.3926964790453573e+00 1.2404739855426259e+00 -1.0961694547579837e+00 
        </Neuron>
        <Neuron NSynapses="24">
          -1.3968129495420154e+00 8.3357800873325827e-01 -7.5619928558287502e-02 -3.8527271333277685e-02 1.9046275141067452e+00 -9.0004576847763929e-01 8.7438279491128967e-01 1.1708913994266161e+00 3.6144401098723300e-01 8.8001078585515424e-02 4.3209736176702107e-01 -1.1819053848426799e+00 -5.3096879161835852e-03 1.3206451039446263e+00 8.0973773992482212e-01 -6.0657048840515770e-01 -1.7764118404382847e+00 4.2616280447683613e-01 -5.6969522269665326e-02 4.7125200804836948e-01 -6.9904363044556683e-01 -1.8405206733764694e+00 7.7768640574030429e-04 1.3058318958149522e+00 
        </Neuron>
        <Neuron NSynapses="24">
          6.2093955782634136e-01 1.2132039814463651e+00 5.4192457070958699e-01 -7.8113959694832025e-01 -7.3597980105615279e-01 2.8904670930961329e-01 2.6925175926757490e+00 -9.1015586097949019e-01 2.0864196669687984e-01 -4.2966767827363217e+00 -1.0256375875993955e+00 3.3722185257091405e-02 7.3251879481999371e-01 -1.0974160172980372e+00 1.1931308846204052e+00 -2.1567682930741111e-01 4.5368787577000469e-01 -2.9418824740296151e-01 -3.7520341376880464e+00 -1.4034509717821941e+00 -2.7456596456408584e+00 1.0561544953504998e+00 -6.8834207976930362e-01 -1.4756829289625664e+00 
        </Neuron>
      </Layer>
      <Layer Index="1" NNeurons="25">
        <Neuron NSynapses="1">
          7.0181504774231429e-01 
        </Neuron>
        <Neuron NSynapses="1">
          -1.2897427314382959e-01 
        </Neuron>
        <Neuron NSynapses="1">
          -1.2796574214235157e-02 
        </Neuron>
        <Neuron NSynapses="1">
          -4.1529774300113183e-02 
        </Neuron>
        <Neuron NSynapses="1">
          1.4101634065294064e+00 
        </Neuron>
        <Neuron NSynapses="1">
          1.0316402397398418e-01 
        </Neuron>
        <Neuron NSynapses="1">
          -8.4676187955896443e-01 
        </Neuron>
        <Neuron NSynapses="1">
          -2.0130418432411060e-01 
        </Neuron>
        <Neuron NSynapses="1">
          4.5056065391286138e-01 
        </Neuron>
        <Neuron NSynapses="1">
          -3.6532299095182025e-01 
        </Neuron>
        <Neuron NSynapses="1">
          2.2862380188622369e-01 
        </Neuron>
        <Neuron NSynapses="1">
          -1.0302877914151516e+00 
        </Neuron>
        <Neuron NSynapses="1">
          -4.5155334604192576e-01 
        </Neuron>
        <Neuron NSynapses="1">
          1.5720730516949835e+00 
        </Neuron>
        <Neuron NSynapses="1">
          -1.9179046740448563e-01 
        </Neuron>
        <Neuron NSynapses="1">
          2.7913830702946574e-01 
        </Neuron>
        <Neuron NSynapses="1">
          -1.6674232073657597e-01 
        </Neuron>
        <Neuron NSynapses="1">
          2.4615307679191870e-01 
        </Neuron>
        <Neuron NSynapses="1">
          3.4621743254611004e-01 
        </Neuron>
        <Neuron NSynapses="1">
          4.7115577532764491e-02 
        </Neuron>
        <Neuron NSynapses="1">
          1.8554276075090184e-01 
        </Neuron>
        <Neuron NSynapses="1">
          -3.0098824781751449e-01 
        </Neuron>
        <Neuron NSynapses="1">
          -1.2927975138708812e+00 
        </Neuron>
        <Neuron NSynapses="1">
          1.7999382232725702e-01 
        </Neuron>
        <Neuron NSynapses="1">
          1.3374831969002667e+00 
        </Neuron>
      </Layer>
      <Layer Index="2" NNeurons="1">
        <Neuron NSynapses="0"/>
      </Layer>
    </Layout>
    <InverseHessian NElements="148225" NRows="385" NCols="385">
      <Row Index="0">
        1.0892477260157175e+04 -9.5349455917578254e+00 1.4764688240172291e+02 -9.3967366306994521e+01 4.6526085885636994e+03 -1.5241594656210367e+01 5.0813161789958156e+02 1.4286113436841159e+00 -1.4082524263908098e+00 -9.0572575544752176e-01 -6.9197719836992402e+00 -1.1931819380437264e+02 5.8882602309782669e+02 -8.0392837061460398e+01 -1.5050967744924142e+00 -6.4186828407258645e-01 -7.2317023840377175e+00 -2.1983128886655798e+00 -1.8752043624875023e+00 3.2332089846138352e+01 5.8291264451497371e-01 -1.6236451998933244e+03 6.2090514065806872e+01 -1.5114942692822165e+03 -8.1101690130769839e+03 -1.5791550925444108e+01 7.9172368240310590e+01 -1.1407717313414414e+03 -6.3766494168032514e+03 -3.1830253213703081e+01 1.7012728919642018e+02 3.0090796325895597e+00 4.7973828389689510e+00 -1.9273518137798673e+00 3.9463546170568335e+00 -5.8637287096006185e+02 -4.9635198163175346e+02 1.7170267499315597e+02 -7.3452808946389467e+00 -6.3429662436479504e+00 1.7888114078063992e+01 6.6841808063687225e-01 1.0230291225489450e+00 -7.3494224652178382e+00 -1.3106330523093783e+00 -1.0898135303079018e+04 -5.5153768093956465e+01 5.1621644687714593e+02 1.1687522578937042e+03 1.2897051120669632e+01 -7.8086691506097594e+01 -5.4741203060667237e+02 3.6507709108410500e+03 2.0382672753723206e+01 -3.7175140760996192e+02 4.0276564516483615e-01 2.5627514338913029e+00 1.6435795124481678e+00 7.1533134589193024e+00 5.8049364451078873e+02 2.6672201793114018e+03 -6.1435456049882426e+01 -6.8224054299256753e+00 -9.0315931134223852e+00 9.2754785832808491e+00 -1.0846350571004375e+01 1.6750860333644482e+00 3.6837426947036469e+01 4.7220479231840375e+00 6.8480516769159949e+03 1.3912875978694522e+01 1.9891690554623574e+02 4.1519909283018651e+03 -3.0960051164711189e-01 1.3017367557246999e+02 -1.0219326649268194e+03 -1.5761113946855894e+03 -4.2862334860767461e+00 -4.3653417067067657e+01 1.6064757145519604e-01 -4.9365123283619576e+00 -2.0002244171482104e+00 2.4569092607868162e+00 6.6378178968752218e+02 -2.0442555614706180e+01 -5.9919504795222238e+01 -9.0934317780546259e-01 3.5249203270729526e+00 -2.3903447123417774e+00 4.0302488083328285e+00 2.3045319601450815e+00 -1.1466486528677173e+01 1.2647181685386375e+00 4.1647902382713946e+03 6.6341316531784202e+01 -8.5018705206313641e+00 -1.8668664046933666e+03 -5.3640118837585788e+00 -3.0952621158470141e+01 -5.6254350338367078e+02 1.4971233511025303e+03 -1.7944669010163352e+00 2.9768892423744592e+02 5.2717816641723818e+00 -2.8666095566508998e-01 -4.1652934668340755e+00 -5.6421664405889373e+00 3.2800800349041674e+02 6.9867562219238653e+02 1.2431577574885853e+01 -2.3315794404381274e+00 4.3220968372056454e+00 -6.4828917494091387e+00 8.4590441378049022e+00 3.0695972880394784e-01 -2.3764286732261247e+01 -1.2542183128851592e+00 3.9595162357409617e+02 -5.8287846615815155e+00 5.9721996738795042e+02 1.9197337388291368e+02 -4.9695565777201356e+00 2.6103405725558730e+01 -1.1541442139353780e+03 4.7732879729001229e+02 1.1996877943600769e+01 1.6658122441901469e+01 1.5474486928485756e+00 2.5532181211277907e+00 -1.2407923806711412e+00 4.3416758320201154e-01 -5.0516728750296170e+02 -4.8247077364449797e+02 2.8921425064487408e+02 7.9139027556126251e-01 -4.3801795422107723e+00 3.8339445967917118e+00 2.1733807621431929e+00 1.2929679353376955e-01 -1.9049424147077275e+01 1.0919966902371789e+00 2.5861854087945644e+03 7.8236581265730649e+00 3.8605358271410233e+02 4.8117861440776187e+03 -7.8803083839129595e+00 6.9910407249237380e+01 -2.6213839802162720e+03 -7.2297522025272556e+03 9.3254771950198379e+00 1.1432214725835144e+02 1.0172870643438405e+00 1.0397343945178941e+00 -5.9867080000345485e-01 -6.9221332128941011e+00 6.9813886991515756e+02 -5.1821295843600992e+03 4.3493283469075152e+01 -6.5393329117044985e-02 -1.6573411498056654e+00 1.7926206802712894e+00 3.6275578508529356e+00 -1.6638360872428315e-01 -1.0621162693575622e+01 -3.1798100877256807e-01 -5.3953361471447279e+03 -2.5286724740567116e+01 -2.3802084695964631e+01 -3.6206764038276528e+03 -3.3045470132172454e+00 4.7379261121507582e+01 -1.9359051426214961e+02 -2.5625968094541499e+03 4.1567122705351309e+00 5.8586550392568711e+01 -1.2492977870652950e+00 -2.9262196781901995e-01 1.4058090634272702e-01 -5.6435489173588849e-01 -6.3735086140768544e+02 5.6556871196904581e+02 -1.1198046025996067e+01 5.2118193726684625e+00 2.6444221219298516e+00 -1.2274885697866807e+01 1.2414921339939786e+00 -7.2686169326798833e-02 -1.7873029266882163e+01 -4.4445677270052641e-01 3.5674349005746772e+03 -6.4786580453470961e+01 4.7012168348172935e+01 -2.5599347561546856e+03 1.1868550653376866e+02 -7.3293553147929720e+02 1.0745020684772101e+01 -1.7180056006780615e+02 1.0180641143899763e+02 -5.4082970101240790e+01 4.8584925248876935e+01 -8.5773310972368897e+00 -5.7537226453794164e+00 9.5483113498406311e+01 4.9767088320656330e+02 2.1562921974343326e+03 -1.5203858757119320e+02 -1.2488628737822225e+02 -7.5062623781340207e+01 9.9526425853273480e+01 -4.7110178371998970e+01 4.5978607340638078e+00 -4.1542054785212258e+01 3.1050089081142922e+01 2.6702233845401279e+03 -9.4746887500359819e+01 2.6229599496713927e+03 -3.1779991708065036e+03 -1.9263734001250075e+00 1.5427623469696446e+01 1.0176934120997577e+03 -5.9164060734400482e+02 -6.4551308184253813e+00 -9.5257250500434736e+01 1.3808393702763571e+00 -2.3936927004413927e-01 7.3380341870805554e-01 3.1462904309015034e+00 4.2976686450245325e+01 -1.3891496799753181e+03 5.9655960837176565e+00 4.8278037753283343e+00 -2.0961691487320486e+00 3.4632154133501611e+00 -6.4925801325960109e-01 8.9944398767470481e-03 -1.7832428972853588e+01 1.4295081915472987e+00 2.1439388840134998e+03 -2.2005043036403322e+01 1.2950418559688308e+02 6.3728464091971146e+03 1.2149580412986580e+01 1.2061723607896874e+02 7.7997501311238466e+02 8.5446063361281522e+03 6.0690589146276011e+01 -2.3768618230939410e+02 -1.5678394026387364e+01 2.1029443757432730e+01 -3.5218015336161361e+00 -6.1477300895626428e+00 4.5523069469755865e+02 -2.9528924617773373e+03 6.7217172542808772e+00 -3.0736676411766872e+00 6.4273304429034201e+00 -8.1098921572458522e+00 -2.0436031862305377e+00 -8.7055073005533501e-02 5.7868998604836861e+01 -5.5352245923266103e+00 2.6553386588781941e+03 6.1962062090537088e+01 -4.3480252271106474e+03 1.7413549206714063e+03 1.7974793925813746e+00 -7.7323631700458293e+00 -7.3325435661864003e+02 -2.1705619774322950e+03 4.2404643584269248e+00 3.9598163796751848e+01 -1.5497786346188527e+00 -1.7071982959109195e+00 -1.1191881946674334e+00 -2.3361508266845483e+00 -4.1809112230596202e+02 6.2530689628473738e+01 -1.1952779894047248e+01 -6.1347009187431301e-01 -2.3078713462149585e+00 4.3711610686779867e+00 1.1114300050108001e+00 5.5540075111359766e-01 7.6786242852341413e+00 2.3860033191098147e+00 2.7414626222991751e+03 8.6195922832648421e+01 3.0446102560891569e+02 -6.3084116194727831e+03 -8.2754844890441746e+00 1.1928335733169661e+01 2.4740178989657670e+03 1.4576228036983975e+03 -8.7480530747101923e+00 -3.0228081122170261e+02 -7.9710009975350928e+00 1.4390112773985058e+00 1.6549302583908743e+00 -1.8351261772617249e+01 4.2696598695876310e+02 -8.4983426011048141e+02 1.1913286695301980e+02 2.2932328879519943e+01 6.9662597684808905e+00 -1.8891517013079024e+01 5.7048392911450518e+00 -7.1235285346233539e+00 -3.5612276552902813e+01 -1.2620454582117581e+01 3.8928494402503129e+03 -9.4942260456458621e+02 -2.0993857932777007e+02 3.9427568536341732e+03 1.5129357529982865e+00 -1.3712343486280286e+01 5.4691671604117982e+02 1.5504833563297871e+02 -2.7151927417338964e+01 5.9487388681308403e+01 -2.0232151660172812e+00 -5.0491397851430282e+00 1.4479877891585460e+00 1.2200242193510832e+01 1.4099182957391313e+03 -9.1697531864162011e+02 2.0709251814565228e+01 3.9255656612645526e+00 5.3085337901343221e+00 -8.0768862421696053e-01 -9.7927683516651864e-01 -4.6890787473554774e-01 1.7433077354534568e+01 -1.1376214862236935e+00 -5.4337479930590052e+02 -8.0206905650561026e+01 -3.6533935094046365e+02 1.6058354125624189e+03 9.6296140660011048e+01 -3.3560527300368608e+02 -5.3308731495612346e+02 7.9937200877846408e+01 1.1256256199789146e+02 2.3827367647900246e+00 3.3699907127528490e+01 1.2798705770639344e+01 -1.4327154320460721e+01 7.9289560802999958e+01 -4.6000207373313606e+02 -2.1257156579996663e+03 3.9173920203157434e+02 -1.1229554351799641e+02 -6.7297374049110573e+01 8.4509909735990291e+01 -3.8563444362803033e+01 5.8922761901942522e-01 -2.0307515538542162e+01 1.8511567214565893e+01 -2.6487357293330715e+03 -9.3686809485759420e+02 -1.4204861964023066e+03 6.6280774566505315e+03 2.6390112647862871e-02 1.5768686310172846e+00 -5.8321017967148521e+00 -1.0704431443435533e+02 -1.2417870983847916e+00 -2.8260881929194284e+01 4.8325875319331640e-01 6.7918768428035747e-01 1.7613791280655411e-01 -1.3135066167584348e+00 -2.7831578176741698e+02 -2.4743839593754965e+03 -5.5019647287616374e+02 1.1672627738529533e+00 6.4955357939214386e-01 1.4035631568717140e+00 2.1461079857725929e-01 1.2021134935709499e-02 3.7684861199830333e-02 -5.4947505316986334e-02 -4.4647127340892512e+03 -2.6107945920498580e+01 -1.9441071060799851e+02 -5.4300559145255995e+01 
      </Row>
      <Row Index="1">
        -9.5349453250846068e+00 1.1070944097504224e+01 -2.9541620170327938e+01 3.5751262489756430e-01 2.5381131820226983e+00 1.8632764234768695e-01 -1.9547654402570995e+01 1.7024299022259237e-01 3.1948560804798687e-02 8.7606042760362213e-02 -1.7436762328921374e+00 -6.1577968991969101e+00 1.4873818280319490e+01 -5.1291245637515814e-01 3.5795171141758619e-01 -1.3466864189820860e-01 3.7638118567073031e-01 6.2115528955334720e-01 -2.9651265538191002e-02 -1.3321317047991403e+00 -2.6605791304639964e-01 2.0736911776632382e+01 1.5519794150312993e-01 4.2671515416852088e+00 1.2953852309927081e+01 -3.9985431224259531e+00 -1.7441328398210572e+01 -1.3390951242539472e+01 8.4095953808807053e+01 3.7527940566331019e-02 -2.2626792003326180e+01 -5.3892354363406914e-01 -3.3409621847738352e-02 6.6665521384698626e-02 -7.2282400789023726e-01 2.8524079549706585e+00 5.6670076900095637e+01 -3.5091729793168414e-01 -1.7691261047602458e-01 1.5107487406747255e-01 -5.4211523334838951e-01 -4.5221072463017348e-01 -4.5887813303363147e-02 6.9350660183495938e-01 9.9033906287092854e-02 3.2135771670531540e+01 2.7665428251308793e-01 -3.5498355738112046e+00 -4.4297304913037266e+01 -8.3390508063149649e-01 -6.2454385771450438e+00 5.3513906306189654e+00 -1.8549008273020718e+01 -1.2090347590146360e+00 -3.5544901462398343e+01 -3.8262339973481607e-02 3.5134342815248176e-01 -6.8648875873996484e-02 1.0752975800813909e+00 1.7523887081915746e-01 -8.9560618727951123e+01 6.4238846150683315e-02 -2.4408892083707112e-01 -7.7527086787525068e-02 9.5603843539311839e-02 -9.9563115826611925e-02 -1.2451418678668180e-01 2.3805961962304778e-02 1.1379293288838521e-01 -3.1935593369886192e+01 4.3457790907804927e-01 3.2013011784808043e-01 -4.4066672526241746e-03 -1.3629848883548772e+00 -1.9649797772063156e+01 -1.3923914483705673e+01 -2.9407402723370495e+01 1.6874850424793486e+00 -1.0010309278924638e+01 2.0638001111456578e-01 -6.0103153522823805e-02 -1.0783376864696215e-01 8.9948627192523722e-02 1.4795687299838391e+00 -3.2232296706753118e+01 9.2932318370678502e-02 -2.1382278293556189e-01 -2.4057018787478984e-02 -4.3600407599319901e-01 2.8210233948219177e-01 -7.2787985531109212e-02 1.7089192757119243e-01 -5.5927915563550035e-02 -1.2964561092099757e+01 4.2503554532616761e-01 4.6917462385685464e+00 1.7267316740934632e+01 -6.7556131270431665e+00 1.2223205149729466e+01 -2.8010354820214431e+01 3.7638769378590951e+00 3.6514726355339584e+00 1.3897380282481322e+00 1.5428345420241996e-01 2.3360583574519367e-01 3.4661336711007684e-02 1.2700871684371418e+00 7.2233475862914815e+00 -1.5459119411657866e+01 -3.9362614193719037e-01 -1.7603656946117238e-01 7.2855610909894231e-02 -7.5896705830684208e-01 -3.0730976102359664e-01 1.4948970946984952e-01 1.3725772059011527e+00 -1.7782532281080954e-03 5.1213359789619517e+00 -5.8275321141928416e-01 3.4502841547753320e+00 7.9582035152520803e-01 -2.6454422917664453e+00 -7.3955981634568779e-01 4.4232893707266783e+00 -3.6120025638774223e+01 2.2546031295669877e-01 -8.3084907428902000e-01 3.5183652711988384e-01 2.2010021820383824e-01 -1.2845565631753875e-03 -2.8603361689536491e-02 8.2181041174408165e-02 -9.6056124366939457e+00 -1.0714024786981042e+00 -7.5423650785535284e-02 3.4353611559881259e-02 -1.2378544853409967e-01 3.3280916253619175e-01 9.2252317459639688e-02 1.2202843962731613e-01 1.3599898233749352e-02 6.6390050613115363e+00 -3.4184855202968123e+00 4.9887315598529707e+00 -2.1253577989869115e+00 8.8680507843517120e-01 1.4397203719512177e+00 2.3282163348298468e+01 1.6589821440579179e+01 -4.3188202461528968e-01 -2.0864778893502567e+01 1.8063283573254024e-02 -6.1818789210216940e-02 5.3909828940091886e-03 1.1260584806588303e-01 3.0501283705234528e-01 -7.1117323912485517e+00 -1.5014789521473837e-01 2.4282169020039213e-02 -2.7158899840563869e-02 3.7594663247272397e-02 1.5073646943565727e-01 -1.2496925705218653e-02 -3.9002496675132636e-01 -1.0481017673167281e-02 1.6630350906227250e+01 2.0894960370139382e-02 1.6866867299376320e+00 2.4050437347756208e+00 -2.6482925694517068e-01 -1.9984489795039686e+01 -1.1935859022680738e+01 -3.0535051134370519e+01 -7.0951638970816688e-01 3.8250465010478706e+01 2.4721543191174514e-01 -3.0398939523459623e-02 3.6820843602155651e-02 -9.7054645534633543e-01 1.4346398103971296e+00 -6.2208042411313613e+00 -9.0105624960242370e-01 -1.1133602006378951e-01 2.3291692754210835e-02 5.0638587294056139e-02 2.2058279171334638e-01 -1.3009638251194430e-02 2.4881772111075584e-01 -4.4372489334242718e-02 9.5869540966596105e+00 2.6072244902584796e-01 3.5451543498479783e+00 1.2852289135156980e+01 5.1100766242684461e+00 1.0950833694733969e+01 4.0177336709445228e+00 -2.0734590771027797e+01 -8.9209013477905652e-01 4.8111747516445575e+00 2.5718477156149022e-01 -2.3340248146497039e-01 -1.4911276410983532e-01 -3.4443785066804447e+00 -4.3557606634203694e+00 -2.5026237134042049e+00 1.9852669159012777e+00 1.9968088295752060e+00 5.7463182692545445e-01 4.5908447009835207e-01 4.0162163705345080e+00 -5.0767206453448566e-02 2.5579069283700910e+00 -9.2114054448380278e-02 1.4186713895041066e+01 7.7960703966076039e-01 3.5345976159924817e+01 -1.1901458415945836e+01 6.1782315944263422e-01 -4.0980798960017193e+00 -3.3298448886893866e+00 -9.3167498788105604e+01 5.1997184000124808e-01 -2.9646050675856550e+01 -2.8046582730075098e-02 -4.6160475516281996e-03 2.4961229815901431e-02 6.3532159029800583e-02 -7.5309669171474525e+00 -4.4331133189923321e+01 6.6492509140528266e-01 -1.8842127671122810e-02 1.3316090372946954e-02 -9.7922523553364726e-02 9.1842844239071741e-03 2.4258236775246255e-02 -5.5090789054935518e-01 3.6200025735407926e-02 1.1276986314514033e+01 -6.6224465824937795e-04 -2.7744043233650615e+00 8.8973264717023639e+00 -8.3337371285176465e-01 9.4612587238642600e+00 -8.6550327485431353e+00 -5.2011978858672819e+01 -5.5940191278743245e-01 -2.6126934192767834e+01 3.8501116551873449e-01 7.6598914288141806e-03 -9.2453552746993406e-02 1.9908507027872091e-01 -2.1315879106405191e+00 -2.2126180029206807e+01 -1.1047726056772118e+00 2.0390084099254246e-02 -2.9220916434876065e-01 6.2857951748975349e-01 4.3952156644523743e-01 3.8786433322791941e-02 -1.6827166714395609e+00 2.9323506649060360e-01 1.4159488091812818e+01 -4.2051900732772296e-01 -6.3045163033672914e+01 4.2122910810707594e+00 -1.8693026555541195e+00 1.2828602410211598e+00 -3.8780584398101752e+00 4.1453175953559821e+01 9.6030284655523523e-01 -3.1595055515189003e+01 1.1244656154739754e-01 -1.9646185584944131e-02 -6.5443223180716506e-02 7.5993154234952709e-01 1.1203252296744722e+01 3.1848070487887924e+01 -1.2010222977541618e-02 -7.8137431511882488e-02 -6.3494455299097918e-02 -3.3710973835220126e-01 -7.2087146664390200e-02 -9.7649194785761950e-02 1.2960785966930821e-01 -5.3188801855485170e-02 -9.9632595247007316e+00 7.8625250432904081e-01 9.1031292374380506e+00 -6.8661369322298071e+00 5.5795152481922798e+00 1.1187887720713405e+01 1.1181350289417878e+01 -6.3690093699287331e+00 -4.5341876455673420e+00 3.2723677545088549e+01 1.7581144274372074e-02 -3.6210596289560748e-01 -1.5105830672014237e-01 -3.4256990969147010e+00 1.0308399848327099e+00 9.5027782909728558e+00 3.8364402471029990e-01 5.2219024694449878e-01 2.7301834477919878e-01 1.7873652922726866e+00 6.3309389774565439e-01 2.2001233892190819e-01 -3.2342365667679722e+00 -3.8489628106061602e-02 -1.3405496548730298e+00 -6.8445713460960746e+00 -8.7177144980320236e+00 -7.3175180834928142e+00 3.0548067386221858e+00 2.8185026430057993e+00 2.6528759321658100e+01 2.8106229125325626e+01 -3.3967425366145054e-01 -1.1464583589228312e+01 -1.6383007846899778e-01 -8.9882123571825401e-02 -1.7534907780844877e-02 -2.1745451611543312e-01 4.2491604488405983e+00 -2.3769984224447853e+01 -3.7932419610626766e-02 1.0847009115008877e-01 -1.0036535611883646e-01 7.3034354283645375e-01 1.8260104629092994e-01 -4.4711904231265476e-02 7.8754226191655174e-03 -2.0752424844707740e-02 1.0649295110866660e+01 5.4289862555163459e-01 1.5023434898492667e+00 -5.0354008068108982e+00 6.8486218767516016e+00 -3.3354608279140479e+01 5.0618755585435053e+00 2.2070008064529247e+01 -2.0661835783768283e+00 -5.3284522318749623e+00 8.5993545526094350e-01 -1.7491369296241377e-01 -4.0149219425597710e-01 -6.9423832903090466e+00 1.8706560100472416e+00 6.3774193289464165e-01 -5.6120122201983236e-01 2.0365929506808165e+00 4.8647238888908600e-01 1.9026056427569400e+00 5.2443416453874372e+00 7.8915721709757136e-02 -1.2796003520093810e+00 2.8439748009324584e-02 -1.4308375024149427e+01 -8.2822807674065970e+00 -8.3553360107010732e+00 3.3219153723950662e+01 7.6427971396747085e-01 -3.3843680551689104e-01 1.3815242714586201e-01 -8.5887691203444270e+00 9.9235854155365996e-02 -4.0062753151779305e+00 -3.1243111348214621e-02 1.0013358751155342e-01 1.0027756077827785e-02 -3.3382666486397572e-01 -4.2144330349013504e-01 -3.3673917866024272e-01 2.5160455489887350e+00 -7.8799435365586590e-03 -6.8078229499305386e-04 -4.9051351547911570e-02 7.1358688198966347e-02 -9.2202471188412433e-03 -4.3890145171893942e-02 -2.0383294329990309e-03 -2.5089762313784007e+01 -2.0197769036677253e+00 -7.2697436731259781e+00 -1.3274063523833084e+00 
      </Row>
      <Row Index="2">
        1.4764686920962367e+02 -2.9541620242041098e+01 6.8587927079339488e+02 1.5779164878453838e+02 -1.7935096859601072e+02 -1.4061306860907841e+01 1.0128623584249124e+02 -3.1771605956580409e+00 -3.0345828971771471e-01 -2.1011170788171007e+00 3.0801872175977962e-02 2.4448764561169810e+01 -2.7431597146908734e+02 2.2094399324554388e+00 -1.9648533129293995e+00 2.2858706854861888e+00 4.6070326110363924e-01 -3.5818077241400417e+00 -5.0276282057514443e-02 3.1568062485757125e+00 1.0043738146717898e+00 8.7546676769794431e+01 -1.0910898344328679e+00 -8.1543130755141618e+01 4.9014080868057214e+01 1.0783394041996235e+01 -2.3979907682370163e+02 3.2368630236261652e+01 -2.0958894532507475e+02 -1.8235367347236409e+00 1.1748019985708470e+02 2.6922983265632894e+00 7.8827207419908696e-01 5.3866770670643460e-01 3.7929508148496804e+00 -2.6107819874458073e+01 -9.3753945424526455e+02 3.2249024617009603e-01 4.1309058917260444e-01 -4.6031332618515073e+00 5.8237455220852006e+00 2.8616176285781147e+00 8.5054091703990142e-02 -1.0602624476969803e+01 -1.8244604543805796e+00 1.0055876786788940e+02 6.1963808433539507e+00 4.2849392764266732e+01 5.8454825212979813e+01 5.6190096360417936e+00 -1.6013031850100384e+02 3.2938184009852500e+02 -5.5397244066913117e+01 1.2489516153043908e+01 2.3068170250591174e+02 3.0305595450600418e+00 -3.7160684913797259e-02 4.0010452441737954e-02 7.0162312501123116e+00 -3.3675300456561672e+01 -1.6554876350975519e+02 4.3309143257530991e-01 2.6031128402088015e+00 -2.8740822883204658e+00 -2.0782730131036100e+00 2.1820736637397808e-01 -5.9462291869462547e-01 -4.5268497400996992e+00 7.1743291294572309e-01 3.9005731481825933e+01 -1.8033933068437051e+01 2.5532036596891643e+01 -1.6692453005761308e+02 -1.7069698030953901e+00 1.7604510393690504e+01 3.2423484411084769e+02 5.5037872981668806e+02 -7.0792897641834784e-01 3.5436395450197324e+02 2.1076617117789893e+00 -1.4962893576036227e+00 1.3890837807361223e-01 5.9926305639750650e+00 2.1165659320115083e+01 -9.6475539551794100e+01 4.3670122222676726e+00 9.7254665575176036e-01 3.7246285936294687e-01 6.1748812614467248e+00 3.4404907327747436e+00 -1.4974574360403627e+00 -8.6732661857076465e+00 -9.4737535314468602e-02 2.8507219825551147e+01 -8.2498495789099593e+00 -3.6904777937601779e+01 -3.2314244814974700e+00 -1.2160106976312821e+00 -1.0583661202497780e+02 1.1881001253490324e+02 1.6328947908906412e+02 -1.5332389527336387e+01 -3.1776482012338784e+02 -5.3848743452843106e-01 3.0012180992126147e-01 1.5462773841095125e+00 -1.1682769593087077e+01 -4.5569922706643410e+01 -2.9276130082354939e+01 2.1374406701912174e+00 -5.7915821307826310e-01 -3.5155162611657254e-01 1.4374925428275320e+00 2.1779276279336788e+00 -1.7503650935568515e-01 5.7660123078376992e+00 -5.2799341613690487e-01 9.1369671540072886e+01 1.0070357229915004e+01 1.1420589069990655e+01 1.4130250655772670e+02 -4.5171856687657552e-01 -7.6547442587373666e+01 -1.4425645881238702e+02 1.0230495804033899e+02 1.7748034786855591e+00 1.1342252331890222e+02 -1.6000635934548528e+00 9.9513412399114154e-01 8.2810633435895653e-01 -2.0674856646020321e+00 -6.6271809458598000e+01 3.0620565401430849e+02 1.5184019643111874e+01 1.1178779291319005e-01 -2.1819770055853480e+00 -1.3300313537058095e+00 -7.8433789766665463e-01 -9.6486781804454580e-02 1.3958015771158401e+00 -3.2373546725061253e-01 1.9174940154316755e+02 3.8829761617769840e+01 2.1076504083759787e+01 2.7377902993054181e+02 9.3189301164896232e-01 -3.2003807194903118e+00 -2.2794349371020871e+01 4.1938590292966524e+01 1.3846610958617891e+00 1.4867459061062016e+02 -3.4616638231843821e-01 8.4696075358722922e-02 -5.5851998994143948e-02 1.5463066307969107e+00 2.1952026772079989e+01 3.0905277764445236e+02 6.0449294581499657e-01 7.7363807261448869e-02 2.5603549370956302e-01 9.5176877625901479e-01 -4.9038555497670266e-01 5.4467603081196359e-02 -4.1077119893910208e-01 -8.3224704218290313e-02 7.1295801518717781e+00 2.2423502729398450e+00 1.5530138057656586e+00 1.0273089512125671e+02 -4.4170027897991595e+00 -1.1282217527875019e+01 3.4218239527262313e+02 2.8958491763477650e+02 7.8673434312721966e+00 1.3397526494479143e+02 6.1366989953089845e-01 -7.7609510117406355e-02 -9.3538349214850269e-02 3.2692369571390856e+00 3.5771411991096102e+01 -7.1010486472612502e+02 2.8765577018039039e+00 1.1640122634051679e+00 3.3366275686356186e+00 6.6964931429221508e-01 1.8914837651799967e+00 -2.4159423331708213e-01 -8.9148276168330653e-02 -6.8194938346274325e-01 1.6517470275470987e+02 -7.2980101219923625e+00 -1.7723175323843396e+01 -1.7460123929529527e+02 8.4054017578192315e+01 -2.3426548160796958e+02 -2.2396792563213239e+00 6.5375613203184912e+01 1.2368242655411585e+01 1.1724636362239153e+02 -8.6428354971081607e+00 2.4366155387959018e-01 -8.8597025914349814e+00 6.2961179233409013e+01 -6.1319912072212901e+00 4.9004856545686380e+01 -4.9732876961796180e+01 -1.1521096504843003e+01 1.0939649803013822e+01 2.1726513899190522e+01 -2.7888078298148532e+01 -7.3043256279582316e+00 -4.3431820492660592e+01 -4.9022055982926318e+00 2.4172545857310615e+02 -1.2004974542479339e+01 1.6107593247672867e+02 -2.1923381508059038e+01 -6.8959336036435293e-01 4.1232536562545313e+01 2.8734655432508475e+02 1.9067852179350302e+02 -6.3052537472162129e-01 1.8253312080803462e+02 5.3822252870739540e-01 -5.4281624373590143e-01 -4.0176427207459220e-01 9.7628928858559672e-01 4.5745567303965800e+00 -4.3063566227971387e+02 -1.2056911738402221e+00 1.0588464532557205e+00 -2.2091195534867314e-01 2.5388755241618721e-01 6.8898630547038042e-01 -3.8261072089929538e-01 1.6797804589926777e+00 3.9714818082456915e-01 1.6585749043113901e+02 -1.4629905689557301e+01 -1.6736987989838497e+01 2.9287192427768446e+02 4.8772049933647175e+00 1.6660800087099869e+02 9.8057262958094498e+01 7.1970918046849420e+01 1.7877618430378099e+01 4.3567738066632273e+01 -2.8571695675325159e-01 5.7111707180216307e+00 1.1109000551961064e+00 6.9839043458758665e+00 -1.9031375656020828e+01 3.6010435328636959e+01 4.7334833916822134e+00 8.6140519046260096e+00 2.4982608216913045e+00 -7.4262062744690578e+00 -2.4908671610078255e+00 1.9869624462245028e+00 3.2932818824278428e+01 1.0035925844366460e+00 2.4187398123115418e+02 1.9589914828775424e+01 1.0074900441845682e+02 -7.0141828211609663e+01 -5.4887506228947913e-01 2.3232371335638398e+00 3.9278495002550494e+02 -5.2538008698919748e+02 3.0133267596673363e+00 1.3739957788689958e+02 7.3643822373455903e-03 -6.6583372804086138e-01 3.2184891937770660e-02 -3.0266248504542101e+00 -2.1297753835620824e+01 4.0598469784540521e+02 7.6288892845562506e-01 3.8149520637606882e-01 2.9479537093438424e-02 -9.1260456984254124e-01 2.7451479978433682e+00 -1.4750664477910647e-01 -1.3733070456406793e+00 -2.8616004453125260e-01 -7.7567443571439071e+01 -7.2518890560993325e+00 8.6250192519621862e+00 8.7479165159279091e+01 2.2572692333586986e-01 1.0222622644222983e+02 -9.3542816053706701e+02 -3.4494883529678191e+00 -7.9032059231662082e+00 -4.7471358502163730e+02 -7.1825420228922816e+00 3.3049259761556193e+00 3.5202701998843668e+00 -2.3906414933592721e+00 -1.2279149992566090e+01 -5.1651668432475708e+02 -3.7855203410931608e+00 9.3920592002271697e-01 5.5637117697633087e-01 -5.1815338182747759e+00 -1.0069838277681519e+01 6.5431749164283470e+00 2.4941821833846014e+01 -3.8873811126320135e-01 8.1868080287589692e+01 3.0399465117576369e+01 4.1765241787075865e+01 3.9590161101798776e+02 1.9820057356027254e+00 7.3599269194965615e+01 -2.8627111019613585e+02 1.2557249610904546e+02 -1.1642622801990772e+01 -1.0145111992368766e+02 -1.3997234254548019e-01 -6.7547102779754820e-01 -6.2770767840916619e-01 5.4351637551798158e+00 2.0157008229638450e+01 8.4875518209026268e+01 -4.9050711876584501e+00 -3.0849631083819817e-01 1.6215930820211497e+00 1.1860822632563854e+00 -9.2826059906485114e-01 2.7479446593909884e-02 1.0549404587540430e+00 1.7499740601331837e-01 4.7168024753103964e+01 -9.9164130111000759e-01 -1.2196335948387144e+01 1.6010246487240397e+02 7.0090371607571257e+01 1.5794722850166403e+02 -9.5946945812294359e+01 -6.5121618235629285e+01 -6.6450182440437544e-01 -4.6820837449413375e+01 -1.2956629138936608e+01 8.3715321576045341e+00 -4.0556790040000656e+00 7.3572038592158862e+01 1.9823990420438349e+01 -5.7759314177805209e+01 -2.3407503700398763e+01 2.3069508856133325e-01 1.1687057048548041e+01 1.8586121854705333e+01 -3.3878340889577352e+01 -1.3798253499589492e+00 2.2843139033037119e-01 -5.5573136895675717e+00 -2.4319692364352522e+02 4.3157961464704982e+01 2.2335564640862231e+02 -7.8609466366702932e+01 -8.8856709078242432e-02 1.8920420476428412e-01 -4.6230886585267594e-01 1.4486338416006029e+02 -1.4749962516731665e+00 1.4264043446135531e+02 1.3348300521017264e-01 8.9117104000305147e-02 -2.8865407704513957e-02 -1.0692376905570080e+00 1.3341108236228771e+02 -1.6533721300965956e+02 -1.9710017473166840e+01 1.6238721742020801e-01 7.2593067398700595e-01 2.7763568725683624e-01 4.4208365921702675e-01 6.3599991336439565e-02 5.2474827308248040e-02 -8.4456371718247825e-02 -2.8121205432444293e+02 2.8819954186640466e+01 1.1894198397622787e+01 1.2384094740601424e+02 
      </Row>
      <Row Index="3">
        -9.3967379962465827e+01 3.5751259100648092e-01 1.5779164888891779e+02 9.1820644551345595e+03 1.5094415333888946e+02 -1.4123555036950549e+01 1.5070687961890462e+03 4.8630101420491672e+00 5.4055180756536991e+00 1.6593280312828549e+00 -6.2184554611405360e+00 -2.8367155343528775e+03 -5.9153962414700732e+02 9.0387477960051719e+00 1.5893768678455111e+00 -2.3787513018767701e+00 1.5935425589186039e+01 -6.7172805864732865e+00 -8.9675174167214289e-01 2.3819332479555392e+01 1.3976735264544633e+00 8.4606391881086893e+01 -4.5966529353018801e+00 -2.1934102672116984e+02 2.1811043039286221e+02 2.3154943023454617e+00 1.6854434077735064e+01 -3.9825883737830609e+03 -9.8058295183003429e+02 2.2473351245583718e+01 -9.1026885619720929e+01 -1.1891502376913806e+01 6.3111476634117603e-01 -2.1113927633056186e+00 8.4173505959786468e+00 -1.2281205035621115e+03 -7.2713812713381412e+02 -1.8685962851067735e+01 -4.9079015481467838e+00 3.1084213951190058e+00 -1.2467278583019592e-01 -7.3344704300620407e+00 -5.5841700495282354e-01 5.7427227623790031e+00 -5.3142858407167592e-01 8.1881444181320148e+01 1.3903955297849446e-01 9.4668205939994735e+01 -3.5340240882646167e+03 -2.5915649555433554e+01 -1.6983914248698966e+00 8.9498143471714284e+03 -4.7270137351550261e+01 3.6142250003604460e+01 8.2408381799340532e+02 -5.9681244112808907e+00 -1.0511013465814485e+00 5.2228157425530264e-01 1.4048410708168481e+01 -1.8596130555707532e+02 2.6235459436719316e+02 -4.5570109973097544e+01 1.2481768403927678e+00 7.0674032272181222e+00 1.2151677277627872e+01 -1.5165611423635552e+01 4.2298611494145915e+00 -3.3688052276509865e+01 3.5517823329874787e-01 1.8785082677553874e+01 -4.3190773201812164e+01 3.5063501907472940e+01 1.1805954705100380e+03 2.8802150078386290e+00 -1.3132156342464064e+01 1.3906319216655470e+03 5.1555430073764001e+01 -3.7921330740177446e+01 1.8142427612891211e+03 -1.8848813792216126e+00 -6.0976854687660866e+00 1.5829518190905065e+00 -3.9057191619649236e+00 -1.0667196327908737e+03 3.9196088230269049e+02 -3.6524863033009591e+00 7.4341685212682540e-01 2.2605787842208693e+00 -1.3547667487137954e+01 2.8854729613703793e+00 4.5618329086928311e-01 6.5686023497416866e+00 -1.6023506460350940e+00 5.7719106122727680e+02 2.0558079056786777e+01 -5.4476444068485520e+01 -2.7016195905391317e+02 -9.3509849684230417e-01 9.0651837731364679e+01 3.9374345018588242e+03 1.0510841250217427e+03 -2.6713241906050150e+01 6.6636739629663389e+03 1.4077533544307030e+00 4.7346838668031390e+00 2.3660303542873424e+00 -1.4458533398520750e+00 -2.6601820175944999e+03 -2.3227050521458995e+02 7.7262859948854921e+00 -5.9172443818303604e+00 5.9119479553109224e+00 4.3861104306820149e+00 -1.2161023335853400e+00 3.3033812772743598e-01 2.4343007325602379e+01 -3.3873340812556099e+00 -1.1703216275200418e+03 2.2198252290823763e+00 -1.0979634433040975e+02 2.8127324031466560e+02 -1.0717885626061431e+01 2.4702665479904610e+01 1.6987825725286891e+03 -8.0001312043546932e+01 3.5535321965715106e+01 3.7053230696734067e+03 5.1558871416185195e+00 -5.2879435638459227e-01 -5.1412398829702077e-01 6.8628352868720901e+00 2.1328671130372022e+03 2.3829376825325157e+03 8.0871031636795152e+01 -8.3543756919367951e-01 -3.2155793580510661e-01 1.3164796906244021e+01 5.8647500448890266e-01 8.8765845714250657e-01 2.7249838277586235e+01 1.0102584180603635e+00 -9.8603611040757460e+02 -4.4578226884842877e+01 -4.9129688575299451e+02 6.6276028393041236e+02 8.9392822044138998e-01 1.6398654809996980e+01 1.6640589164492062e+03 7.7595598185807467e+02 -6.2276298159605936e+00 2.4320529952793098e+01 -1.0978987828509999e-01 -9.2501867494678414e-01 -4.9752071529537134e-01 -1.5745213159132114e+00 -2.9637990179595072e+03 1.0537596527103858e+03 -8.3887763563723183e+00 -5.9210147896657972e-01 -1.4261587399899942e+00 2.4757447588820991e+00 -7.5788219724264905e-01 1.7386773946747769e-01 6.5300528004713545e+00 -2.0015535188726741e-01 -5.5256944854324684e+02 -5.3021681440816915e+00 1.2456583118438721e+02 3.6682073924466135e+02 -2.3595324560497826e+00 -6.1136634123160583e+01 4.7640564326311560e+03 1.6170713480956238e+01 2.2031510776668291e+01 -2.6878918829185036e+03 3.2550028989297299e+00 7.1507886719365665e-01 -6.8192415021662578e-01 6.3888568527217604e+00 -8.7239056935275039e+02 9.6895368612913444e+01 -6.8400259987599767e+00 3.8900756345153464e+00 -5.4350394926061441e+00 -1.3802561969134320e+01 6.8573156754302405e+00 -8.3705828796779236e-02 3.2495528255581526e+01 7.1308069194263890e-01 -5.4337703496081849e+02 6.6834499366561575e+00 -8.0791719736668313e+01 2.7317859800141878e+02 1.7614579291828613e+02 2.4348121589856646e+01 3.3391766334973872e+03 -4.9042697677200363e+02 -2.1707133550676687e+01 -2.8832939785589224e+03 -1.0256601239484485e+02 2.0852130361536446e+01 -1.3714548313218190e+01 1.7219914355085973e+02 -3.0847838362784969e+03 -4.9799589914715483e+01 -1.2285219113352458e+02 -4.4435384852719736e+01 -4.6187853784252937e+01 5.3443594665606042e-01 -1.4706736317466101e+02 6.5973213678754092e+00 3.9098783310871227e+01 2.4640036141986457e+01 -7.0285473026316231e+02 -5.7222583744602986e+01 -5.8499553045742528e+02 6.8067781150880279e+01 6.1861369533992683e-01 -1.6312874651160978e+01 -9.2339663237906564e+02 4.6317127723394287e+02 -6.1582579980779411e+00 9.9305427335210538e+02 2.1035426900990517e-01 -1.6599958806822459e+00 2.9888293421191825e-01 -2.1945504561466418e+00 -3.1148569623743970e+03 -2.2022384487019081e+03 2.9406286153236039e-01 3.2403179613609416e+00 -9.3047973267968831e-01 -4.3258309153188712e-01 -1.8088553732874877e+00 -2.2247491456074173e-01 -1.9463126776211517e+01 1.5262426957172193e-01 -8.9875102898029945e+02 -1.5305847837623295e+01 7.6627307665190955e+01 4.7333483728139072e+02 3.5212101702895104e-01 -5.7465153651876108e+01 -3.5753445677994750e+02 6.5355664938676512e+01 1.2623165598786802e+01 1.0151407784704554e+03 4.9869656334965660e+00 -5.1844578847245204e+00 -1.3803840585113121e+00 3.6555707070097876e+00 -3.1745030434096698e+03 -1.4985596754092476e+03 4.4253817310114059e+00 5.4409846708885006e+00 1.8609960083042347e+00 -2.4545748072255877e+00 1.2982860980593687e+00 9.3171533452020761e-01 -3.7575779629106982e+00 4.8491043519031507e-01 -7.0030892535197199e+02 2.2494452141085532e+01 2.5613856958025494e+03 5.7573675096515626e+02 -3.3767108299860729e+00 4.3801451749122691e+01 1.3753589293206131e+04 6.5566805372424824e+02 1.0960272442155208e+00 1.6571464036767886e+03 -1.6455296405452471e+00 -4.2804221370425095e+00 -5.5542628412536443e-01 -2.3287490375975031e+00 3.6288129308257339e+02 -3.3117006930632033e+02 -1.8879168979477139e+01 9.2432612892238475e-01 -3.3893428597700881e-01 -7.3899669986898930e-01 -2.3664110423228752e+00 6.9163425282992508e-01 -1.6678580170904045e+00 2.0780943967455665e-01 -2.3540464476000761e+02 -1.0626528711524413e+01 2.6693873849432137e+01 1.1975858769896035e+03 2.7099654741691545e+01 -4.2631459832834446e+02 -7.2477732805940796e+03 -4.6306723790761680e+01 -2.3020155340988619e+00 -2.5158211186727731e+03 1.9299786858286463e+01 3.8167676741399044e+00 5.0056935152061479e+00 -1.3932820788092801e+01 -2.1734449881601613e+03 3.1282126746107679e+01 1.6977451123634717e+02 9.4764665595072035e+00 -7.7522913976820211e+00 2.5219666943185892e-01 3.1292013417317712e+01 2.6978954488496312e+00 -1.0182491686341655e+02 -7.6089398667699513e+00 -2.7369567530088534e+02 6.0241317527551246e+01 5.3350506395997456e+01 6.5130404671142674e+02 7.5774247444098641e+00 -3.0936362709253991e+01 -6.3480417362752778e+03 -8.8099137845699079e+02 -3.8643093989869676e+01 -2.3171887186712029e+03 1.2475163022243407e-01 -1.4607883502390657e+00 2.5924660761823048e-01 -4.8166130599488000e-01 -2.8959771750843211e+03 -1.6665198446924478e+03 -1.9139279688436019e+01 1.9434727729547885e+00 4.9951870857272596e+00 -1.0708348963511883e+01 -7.1609412185645505e-01 -1.0985371563184154e-01 -6.8267111354444516e+00 1.2284478146572528e+00 -9.3297743777045980e+01 9.9438015401147677e+00 7.0153386464269289e+01 -1.5605613635597354e+02 1.7641768860825150e+02 -2.5981744082355340e+02 -4.6144172209032627e+02 4.5195616236861679e+02 -2.2696884604963145e+01 2.4610392051956114e+03 -8.5413714266050675e+01 1.7876511220579800e+01 -8.1751589636629021e+00 1.7787887377624529e+02 3.1963079470191151e+03 1.4278612129644171e+02 5.6675863978763005e+01 -3.2352315681387154e+01 -3.9472011449429736e+01 1.4977771153405367e+01 -1.3649830935565714e+02 1.3674555206149584e+01 -9.8541399503369220e+00 1.7228623590188100e+01 7.0074260901179514e+02 -6.0465700440521914e+01 6.3367643186265468e+02 -1.2629530975047047e+02 4.2933580221126960e-01 -3.9446900837299542e-01 6.9279898844059886e+01 -7.9462017701844729e+02 -5.7566124976079500e+00 1.1364029273053584e+03 1.6989401499680548e-02 1.7958812570236109e+00 -1.3023000533322721e-01 -1.8292319612558638e-01 9.4235346552935061e+02 -7.5015027401621637e+02 6.1383302320076236e+00 6.7450776837573989e-01 -1.7074571721853540e-01 1.8685093775296364e+00 1.7581739348761265e+00 2.1144220183956841e-02 -1.5761090041443790e+00 5.9779037233382237e-02 5.5603718634806535e+02 -1.2730949679598780e+00 2.8490798807248808e+02 -6.0853499761611522e+02 
      </Row>
      <Row Index="4">
        4.6526095126907348e+03 2.5381170895854428e+00 -1.7935092098549168e+02 1.5094409763731528e+02 3.5902661041396833e+05 6.2434807874732115e+01 3.6118627726201130e+03 3.6261981802597507e+00 1.3001773731696943e+01 3.8148269761580842e+00 1.0792605525248106e+01 7.2124844538123307e+02 5.8944149077719405e+04 -2.1093291826003281e+01 -1.2425985403892167e+01 -1.0957568830628933e+01 6.1906344866462852e+00 -7.2561602236676777e+00 9.0168941510264489e-01 6.1956533156157718e+01 5.0328915790260318e+00 -1.6395870792991991e+02 -1.4668380439468120e+02 2.1407478122786506e+02 -6.1276688105898602e+03 6.3283311251971568e+01 -1.4620535670084365e+02 -5.8521291816734902e+01 -5.4209525347491675e+04 1.3945949947000520e+02 9.8832105211359340e+02 -9.5040974406710561e+01 -8.4833011156021421e+00 1.4700313600679227e-01 4.6668981651453294e+01 1.0432591713363581e+03 -3.5988761585184155e+04 2.3248386642425621e+02 1.3906077929939613e+01 3.8611321525728144e+00 4.5588636416762199e+01 -1.1354996462465778e+01 -6.1893219041869321e+00 5.9874435453115069e+01 -1.2208116687720654e+01 -5.1835983006165407e+02 3.1005114222651690e+02 -3.6554181758960999e+02 -1.5860384619422926e+04 5.2615901449192044e+01 -3.9746514762153697e+02 -1.0367125675185746e+03 3.4778217693692139e+04 5.3431567310710307e+01 -2.8976981483620402e+03 3.4026425123643484e+00 -9.4411408639793244e+00 5.0014884279456273e-02 1.4841581277617317e+01 3.2944387483550236e+02 2.8118732197192250e+04 -4.3125101931491588e+02 1.7112595620805479e+01 -6.1418297733018719e+00 -6.5604335486136165e+00 -1.6341575457392025e+01 2.8770288946175036e+01 -2.3376816837605752e+01 5.3495044310555500e+00 7.1794435874011833e+02 6.5235091461289153e+02 6.5367656981602329e+02 1.0555121864307104e+04 1.9096666898741695e+01 2.9226024497459196e+02 -1.9003499449104511e+03 8.8905549687631312e+04 -8.8859964769883916e+01 -7.2030161852366837e+02 -1.1026110131977471e+00 7.9817612353414340e+00 5.0629300234941468e+00 -1.9054240186409650e+01 7.7457031150725379e+02 -1.0970342805343038e+04 -3.5041914845865693e+02 1.7626281365755986e+01 6.3697895313417705e+00 6.5897342322701249e+00 1.2809978929000870e+01 1.9219346176562276e+01 1.0199578111294932e+02 -2.5548907775842377e+01 -4.1135669197072275e+02 -3.8242309690104213e+02 9.6098100925916071e+02 -2.7384051432441920e+03 1.4484617857861335e+02 -4.9933133700416772e+02 -4.0604843406461287e+03 7.6830109916922811e+04 7.4481956753760457e+01 3.5366542520346484e+03 -2.7281594844595531e+01 5.2373307135539733e+00 1.7495223700156650e+00 1.7284673881704666e+01 1.1976458876858378e+03 -3.5932523043266403e+04 -1.1811174200289349e+02 3.7451500764165502e+00 -1.5975076743879697e+00 2.6444839074288758e+01 -2.0424491600193694e+01 1.0100052336679667e+01 9.4638025616569934e+01 -1.3484544515007396e+01 -5.3054703326390518e+02 6.3091293445746331e+01 -5.3629151494644657e+02 -1.9238782617241486e+03 2.7276746908811340e+00 3.3746259521652701e+02 -3.7147651086450765e+03 -1.0439334400585707e+05 4.9133003910245083e+00 9.4474544081642671e+02 5.0943805414393779e+00 -1.4293732458737889e+00 1.4233694477902823e+00 7.2329817479356393e+00 -7.6167728131578770e+02 7.0560157871092859e+04 2.9764833388824161e+02 -8.4458366704066457e+00 4.8577830848060231e+00 -1.3650364676063838e+00 5.4965079705971078e+00 3.9530125035563337e+00 1.4305723087107580e+01 4.3283331142940185e-01 -2.4297520724910792e+03 -3.1061506257880706e+02 -6.4366556426821262e+00 1.2874640955243008e+03 -7.1869399651341261e+00 3.0219044105294302e+00 -1.1635482240897956e+04 -8.8696518392562866e+03 -2.1705568641173389e+01 9.1280994042309987e+02 2.2564443975048505e+00 -2.1849078320029989e+00 1.4527990758657019e+00 1.6408265902155028e+00 7.3423948733194266e+02 -1.4822507795581227e+04 1.3975448944586952e+02 5.5071698634158111e+00 1.6915890698104841e+00 -4.4132938676776083e+00 4.1550722531839579e-01 -5.1520677310708507e-01 4.7703473454014201e+01 -1.5983748428442439e+00 -1.1659213452526601e+03 -1.6837014579430499e+02 -4.9105166360735893e+01 -3.7369822071473418e+03 -2.5293954837670235e+01 -5.5254763983668568e+01 1.6240590637885689e+03 -3.7852952872227033e+04 -8.7147666126939725e+01 -3.3488563146462575e+03 3.1767556432166820e+01 -2.9107765622640613e+00 5.7381074264777010e-02 3.6522350517367883e+00 -1.8008509666693863e+02 -7.6463977906768196e+03 -2.5163469144108717e+01 4.7468246586211933e+00 -9.4110433336712518e-01 1.3182517316516257e+01 7.6522124833236393e-02 -1.4530320233181317e+00 2.8507178814118618e+01 -1.8650235284611725e+01 -1.5727187014180236e+03 -1.8920366714750202e+02 5.8987345418365493e+01 1.4820755278447690e+04 4.4358108731481116e+02 -8.9226417100967637e+02 -1.4578765816333089e+02 -2.2650418874034454e+04 2.8032831188205068e+02 -5.5672928801788948e+03 -1.0319824079361335e+02 -3.5550677651686939e+00 -5.1061786853562239e+01 2.6729625382201266e+02 1.0280210051164831e+03 -5.2042895097278306e+03 1.0796918261228984e+02 1.4700282375321098e+02 2.0612891035708230e+01 -2.7526140838831952e+02 -2.0811427187672064e+02 1.7227348005426904e+01 -5.6107933802035677e+02 -1.1104042304499481e+02 -3.0662108322477288e+03 4.4817647956904011e+02 -1.4871920546084948e+02 4.3839668500421612e+03 -8.2444526699643994e-01 1.6950003368509346e+01 6.2703360774201974e+03 2.4561513328560389e+05 -2.3923629648405154e+00 -1.8621847823776438e+03 -1.5862586949413135e+01 -6.4819776047069499e-01 3.8603376250067178e-01 2.7566384768305952e+00 2.6185246351896785e+02 8.6598578331730459e+04 -7.5926581032351265e+01 1.5766077349474296e+01 -3.1014042759940903e+00 -8.4497155534290709e+00 -8.1602290771182844e+00 6.4362029921527786e-01 2.8261056252054409e+01 1.1970627008473759e+01 -3.1678339538215951e+03 -2.0046170766119485e+02 -5.9621934477465015e+02 -3.8621548883194504e+04 1.8988376130316766e+01 2.3440777377084296e+03 -3.0529177818555581e+02 1.7093083381872872e+05 2.5675248857995939e+02 3.4877903388472146e+03 2.8361391671874898e+01 9.5109915563880236e+01 2.0094881278922102e+01 -1.1757886623941418e+02 8.8530731033673510e+02 4.2987277474510192e+03 2.2828593681444983e+02 6.4664488496446992e+00 -9.9889266233654254e+01 -1.5765610076816984e+01 8.1521859892478261e+00 2.4798544246977571e+01 -5.7261343750497815e+00 1.5475779126215318e+02 -3.0669984253658913e+03 1.2105883838231317e+02 -1.5103968912173159e+03 7.6408094534956945e+02 4.3633460817907164e+01 -1.1438915519667435e+02 6.3053112296867334e+02 -7.0154728372602956e+04 -4.4658355759779298e+01 -9.2992578501488993e+02 1.3719741124117874e+01 1.7232593389553017e+00 4.2184099198058798e+00 1.4437273001171107e+00 3.8087051226153199e+02 -1.2895065462501901e+04 -1.1380137807164184e+02 5.1460967770094008e+00 -2.7074071621688773e+00 -1.2282652461459186e+01 -8.2187366228071852e+00 1.0885902794032098e+01 3.7163469085574974e+00 -9.6854587893888553e+00 4.8502999955690052e+02 3.2433856107015754e+02 1.2666648591538903e+03 6.8791572613434037e+03 -2.8235939547677981e+02 1.1252270064998538e+03 8.2271795349111653e+03 -5.2187536927722540e+03 -1.3334191670470574e+02 1.2639306857262218e+03 2.8968153332732470e+01 1.7240840467401881e+00 -3.4640286256286423e+01 7.9387600440213646e-01 8.9228848656849004e+02 7.7802335848120711e+03 1.2713852035058001e+03 -4.2631337533824471e+01 1.2628120699018581e+01 -1.2094854656474951e+01 1.2738709446512189e+01 -1.0208046732514892e+02 -1.0066692293926735e+02 4.9351728291251959e+01 3.0121467112889513e+02 -1.4300224797305318e+03 -3.0653701507850183e+03 -4.2982870904016272e+02 -4.1226867245998015e+01 -1.7487456353233983e+02 5.3868005393336280e+03 -1.1217769267451367e+04 -1.8085405834179340e+01 3.5413752733527017e+03 -1.0750196752311723e+01 7.0333610521416521e+00 -1.8124054651889878e+00 -2.8878735422978423e+01 4.3775987912771234e+02 3.0396381948799011e+04 -2.6325019169655860e+01 -6.3651973986308761e+00 -3.9823803848452410e-01 -2.5557240649184649e+00 2.1331134149920758e-01 -2.9330389552358529e+00 -3.1563311191567834e+01 3.3685279716308969e-01 3.6992862546816468e+02 9.2359459955973364e+01 1.1743719596928690e+02 -1.2606287618743112e+04 4.0523363844810206e+02 1.8447231012917941e+03 6.8131261040752361e+02 2.5374275229624429e+04 5.4700456600391180e+02 5.2046748782758368e+03 -1.3723221425365605e+02 9.8886247716556454e+01 -5.3665885425884397e+01 1.9999478495092049e+02 -8.8948819424957037e+02 3.6105669577102817e+03 1.8274202893255597e+03 1.4763268808697649e+02 -6.9049841916123427e+01 -2.4002313828487564e+02 -2.2807302879041467e+02 -5.5670637140265171e+00 -3.7972246697897776e+02 3.8294354200567597e+01 3.0776407280126587e+03 -2.0303011613094611e+02 -4.5196362667212779e+03 1.6528144128759290e+04 -9.4047430642442347e+00 3.1982811005865797e+00 -2.7029208251833943e+01 -1.3274596706347897e+04 -9.8910055922530180e+00 -4.7641705010350797e+03 -8.2939105920259522e+00 -6.4453581982375674e-01 -4.8349407202813832e-01 4.4372001467309490e+00 -5.3915840194424127e+03 1.1286646203982426e+04 -1.9716887461208066e+03 2.6374497747893502e+00 -2.6053136257362736e-01 -1.2513386795906514e+00 2.0964703654721459e+00 -1.5673785201475177e-01 -7.5291164526110377e-01 -1.8809776279816446e+00 1.9586498386038829e+02 1.6384084690438031e+03 -1.8560033707116013e+01 -4.9615481946060581e+03 
      </Row>
      <Row Index="5">
        -1.5241594398885411e+01 1.8632764705776528e-01 -1.4061306954640266e+01 -1.4123554933490368e+01 6.2434813244155521e+01 2.1473977584645041e+01 -1.9138803123116471e+01 2.9591741401162106e+00 2.9169335986656253e-01 4.0198247126032505e-01 1.8034712180411510e+00 2.0370169299471854e+00 -2.4162210630160132e+01 -1.5109033630045365e-01 3.7645850800920644e-02 2.0093550932855919e-03 -2.5410054607189254e+00 1.9647166678411687e-01 1.2766943122946914e-01 -2.8126962509841884e+00 4.8917052099418978e-01 -2.9109721017109678e+00 -7.8481724910453110e-01 1.3562837812711583e+01 -3.6964952681382307e+01 -8.1876417784967614e-01 -8.1012776206294177e+00 9.8156238486721747e-01 -7.1307276286064706e+01 -1.0385691753967890e+01 3.8472848183674813e+01 -6.2459630277930289e-01 2.9138898524226942e-01 -3.0258775109180125e-01 1.0479413457209392e+00 3.1811556033962916e+00 -4.3963083039239450e+00 3.0190078633916784e-01 2.1123266835903920e-01 2.5063855406029505e-02 6.8283854063250571e-01 6.3270424348577325e-01 -5.7229896300038052e-02 1.2210981675255008e+00 4.6066329347379614e-02 2.2182342447431438e+01 -1.1056721889117447e+00 -7.4311859508899190e+00 -5.7082095467990939e+01 -4.6689250966328366e-02 -1.2969326450600573e+01 3.8668179351871999e+00 -7.9057276855992882e+01 -1.2288159317993944e+01 1.3703463207220693e+01 -1.0401454546826852e+00 2.4328023643713248e-01 -1.0409866947743071e-01 -1.9970465513443356e+00 8.0852111791464267e+00 5.3599154653818459e+00 -1.0625188358011428e-01 2.3294790187861381e-01 4.0872000769176231e-01 3.0259661951482664e-01 3.6615413252589224e-01 1.1718264745783302e-01 1.2111599613561097e+00 -7.7257876052674979e-01 -2.9432492741143506e+01 -1.0611105537209014e+00 -1.9712731426715990e+00 8.2415919095096342e+01 -6.6065423019625769e-01 -1.1023487012090486e+01 -3.6331499673730519e+01 9.0268922476368516e+00 6.1167276660544019e+00 -3.0784331075127426e+01 6.1020297655969480e-01 -7.8241083338974060e-02 2.1845155908541525e-02 -9.7874246361905537e-01 1.9800572611467032e+01 -5.2264771029527992e+01 -1.7316266590157170e-01 -2.0898919195223775e-01 2.0647147087525231e-01 8.1693538954866418e-01 -6.7904837278626018e-01 2.6093300237573036e-01 2.3511341221939599e+00 -1.8319919588447653e-01 -1.9753214159871277e+01 -6.7755051962146950e-01 -4.1249972398889696e+00 -1.8395462506142849e+01 1.1591010107952258e+00 6.4071550428723505e+00 3.9147417214364282e+00 7.2561863241626270e+00 8.2147038389615155e+00 -5.2684815927984147e+01 1.1491231331277945e+00 2.9078469890266179e-01 -6.8552734853339903e-03 -2.1031471517671352e-01 -1.7275436461327615e+01 -8.6354119346219250e+01 -9.9393894641484293e-02 2.0187519512179525e-01 3.9066408371333583e-01 -7.7429539236793932e-01 -5.3267083511152591e-01 4.0528192479813985e-02 -8.1402500926119714e-01 2.5110273464773369e-01 2.5731995071814708e+00 -1.0053630392295716e+00 -1.0917392374100700e+01 -5.0432036294922852e+01 1.8491269023847456e-01 -1.2738220739832684e+00 -4.0339934042160564e+01 2.6695105741359384e+01 -3.1764450944933218e+00 -5.6111286647197780e+01 -5.9094883515387608e-01 1.4707033290270910e-01 3.5278379637076876e-02 5.1302991679132992e-02 -3.3338136671954999e+00 -4.0493191217158937e+01 3.0703338537908564e-01 2.9933710424077187e-01 2.2898597961020062e-01 -1.2161456759786766e+00 -2.1509726573647220e-01 -1.7832074780382068e-02 -1.3160018164767324e+00 1.7852508468264627e-01 -1.5477022173302430e+01 -3.1853364978201668e+00 -1.9777914088992596e+01 -2.6518251709909265e+01 -2.5719385840734010e-01 -6.2419134034109174e+00 -5.2668829910342538e+01 -3.9652253218693659e+01 -5.3914980484758868e-01 -2.1093692231009243e+01 -9.5642369283532133e-02 2.4610337663864224e-02 5.9494043446919831e-02 -4.5865625649602487e-01 1.7747052554286711e+00 -3.0313703293578556e+01 -3.7210276288758060e-01 3.9803451504226484e-02 1.2268819400680638e-01 -1.0897306577980690e+00 -1.2884911901455376e-01 6.5540703143553980e-03 -3.7767440344311520e-01 5.8202445171451345e-02 1.2571143167646369e+01 1.7813984261356985e-01 4.4172091751534026e-01 -2.3313905558193511e+01 5.3180155191879575e-01 -8.4432674117208251e+00 -2.3732479443820626e+01 -8.1178916959138547e+01 -5.1744717133413314e+00 2.8577814180102223e+01 -6.0554045774243015e-01 -4.6304919355027652e-01 7.9045959803493160e-03 1.5063309933975000e+00 -3.4235969785659108e+00 -4.6689961081088427e-01 -6.6864482726108676e-02 -1.2262733448377050e-01 -5.7891188800726101e-01 1.3826783055763949e+00 -2.5128658297516415e-01 1.8206562438611629e-02 -2.3533712676567191e+00 1.1288888796241847e-01 -2.0283880059403600e+01 1.3982275563165452e+00 -5.7649987460844727e+00 3.9939586546483952e-01 -1.9813435715481944e+00 -1.0831738728975795e+01 2.9770861032450000e+01 -1.3348227447610952e+01 -1.0591357623910547e-01 -8.4904053668847155e+00 -5.0654713793946815e-02 -2.8983951667187857e+00 2.5860222055055426e-01 -6.8234095714337233e+00 1.4531114699089812e+01 2.0576874201567534e+01 2.2689745914094850e+00 -2.6667825144397694e+00 6.6541534617700115e-01 -6.2163887171697905e+00 -2.8034071047480511e+00 -1.0566611375972159e+00 1.3080634458247332e+01 2.2200660443013480e+00 -2.5861330512189852e+01 -1.5060109512284043e+00 -8.0091142062089943e+01 -1.2997777991325993e+01 1.8478451022505857e-01 -1.7704344057896266e+00 -8.3232982935343713e+00 -6.8362276555305471e+01 1.6716068469993921e+00 4.3292798277011713e-01 4.2266662169224911e-01 -3.0416352405548963e-04 -3.1658681959089163e-03 1.0085858124978087e-02 5.3534096629264241e+00 -1.2651971558307196e+01 -1.2521685474141897e-01 -2.4085542634076740e-01 4.7070656854510944e-02 1.3138881743796382e-01 7.0207632585465252e-02 2.7811139789902057e-03 1.7470013862812195e+00 -1.6824862623373327e-01 -2.2376358388970402e+01 8.9075074127729437e-01 1.5603702235173955e+00 1.8027344330703500e+01 2.1001423237348220e+00 1.4282552983289627e+01 4.7753980198643603e+01 5.9061807034455342e+01 3.2443769197203798e-01 -1.0430746924572418e+01 1.0207771342104213e+00 -1.3930715316588480e+00 7.8049941066867079e-02 -4.1467780702968007e+00 1.1038662099977955e+01 1.1221426382990444e+01 -2.4992035657265865e-01 -1.4267373011656117e+00 -9.0060121356329192e-01 -3.6494663073726441e-01 -1.8640089552434325e-01 -3.1706004675884780e-01 -6.6996671332204478e+00 1.8811538967605135e-01 -2.5823804756677418e+01 -6.7218658936175446e-01 8.0087141671607569e+01 1.5915761989135106e+01 3.4970829215467991e-01 1.1580396759395351e+00 -5.0013416289229724e+00 9.1540496097621144e+01 7.4254988303565916e-02 -1.6196114096501560e+01 2.3299243069909081e-01 -2.0780923568648901e-01 1.1186567431069785e-01 -2.5258879681493251e-01 9.6132598803822020e+00 5.2154820412881804e+01 -4.4334558004482405e-01 3.5184565006780896e-02 1.8218096366516812e-01 -2.9301720008557064e-01 -3.3158174593748457e-01 1.3641297035668321e-01 8.5394227757412455e-01 -2.1667294875487478e-01 -3.1682946741588012e+00 -7.1366932892744384e-01 -4.8555624344600803e+00 2.7566141444474454e+01 2.9210181760207465e-01 1.7966111061853702e+01 -2.2470376312162855e+01 6.7113742560220544e+00 3.7840440198018856e+00 3.6970475144358716e+01 -1.0420807880083824e+00 1.8744278279990867e-01 -9.4404029533139600e-01 3.5488644616093215e+00 1.3446042178766220e+01 -3.2444778240697815e+01 2.2637821342795381e+00 -1.1650675381388702e+00 -1.0239277148274823e+00 -1.0569049776676556e+00 7.7011029409779930e-01 -1.2429451431428653e+00 2.2459690144073896e+00 1.9248492654990810e+00 -2.6144534426375685e+01 1.6118971978273969e+01 5.7359916951485701e-01 -5.1559636540374939e+01 -1.0097240761783148e+00 4.9648858358770376e-01 -2.8421855485208830e+01 8.3729877436821880e+00 6.6701892310324737e+00 2.6122451315955232e+01 8.8799813299896435e-01 1.4396560265394387e-01 -5.0353225311540961e-02 -1.6386701543282138e+00 -1.3383569831015848e+01 5.1608028443597505e+00 6.4902314610341350e-01 -1.8031289976360765e-01 3.7221562977470812e-02 1.3672340446440971e+00 -6.8749523684506930e-02 4.8035062626173242e-02 -5.9106524363320112e-01 -1.2841320284428637e-02 8.7023194729117677e+00 6.4496129057053508e-01 1.1877369276009944e+00 8.2289204155219764e-01 2.2567903430467662e-01 -2.1720444055504387e+01 -3.7290861457334827e+01 1.2210424112188548e+01 1.4373550227715315e+01 -3.6534287086387849e+00 2.5049990680568976e+00 -3.5490309359809280e+00 -4.8849526346728694e-01 -7.3922772606369893e+00 -1.0158353248843923e+01 -2.5530318463483127e+01 3.3834953804401628e+00 -4.7516644990832315e+00 -4.1194038802410410e-01 -8.3668528171997139e+00 -2.7715029964605491e+00 -2.0335182367861284e+00 7.3585975190949666e+00 4.1517493010081541e+00 2.5928160531795584e+01 9.2023868750088837e+00 -5.8125553271758122e+01 -4.0613687861650094e-01 -2.0103560068635318e-01 -2.0354355262519941e-01 -2.8548781128288553e-01 6.0395303856808731e+00 9.9774362268006667e-01 -2.4263800428349210e+01 8.7211994786221436e-02 1.4408981635117613e-01 6.2736977162064778e-03 6.2878376718294626e-01 5.0357678088041649e+00 -3.4501403685097600e+01 1.6174053230562513e+00 -3.5744235817916081e-02 -4.5369163335200899e-02 -3.4421446320321925e-01 -9.9145073141033796e-02 1.6040029608156148e-03 1.5103616243130596e-01 1.5009544550241394e-02 5.2995762567605865e+01 -6.6327634965709592e-02 1.3148347599562532e+01 9.9651551164266579e+00 
      </Row>
      <Row Index="6">
        5.0813188750888912e+02 -1.9547652886188263e+01 1.0128623186242406e+02 1.5070688075523212e+03 3.6118634454734656e+03 -1.9138803775592258e+01 3.0835082148388174e+04 1.0581865043823356e+01 2.4691230768248618e-01 -9.8302679959809307e+00 -6.9493030302216852e+01 1.0826465562633016e+03 3.2237809720838021e+02 7.0848631907373445e+00 -5.0900768181552927e+00 -8.3442210164995529e+00 -2.5578764024841078e+01 6.8898305204682586e+00 6.7007201719216702e+00 2.3782320764324766e+01 -1.2736365514841571e+01 -1.5935140874363406e+03 9.2582984792592811e+00 -1.0652029064189708e+02 -8.1868140117218729e+02 -4.0446837830586162e+00 -2.4579815747969107e+00 -2.0635145248830413e+03 -5.6094393076731176e+03 1.5304703045441496e+01 1.8096059159973279e+03 -1.0389016140603289e+01 1.1353109286632073e+00 3.0330294196214003e+00 6.7308945638063769e+00 9.6515215433115645e+02 8.3679809425475287e+02 1.8990945020651669e+01 1.0014562894153620e+00 4.0738306230088916e-01 2.6625549450318260e+01 -1.6405332405528412e+00 -3.3611000230212413e+00 -9.7271365971395483e+00 8.3386748724521276e+00 -3.1709072555966859e+03 -2.1628065924761533e+01 5.1633513508644228e+02 1.7370765965468208e+03 -7.1980229378397041e+01 5.2465530427217615e+01 -1.3513038380045252e+03 3.6895530450396609e+03 1.8434501480972429e+01 1.0522576718058539e+04 1.6371748795417552e+01 -1.6493862223367266e+00 3.1565029091460897e+00 -6.3930358658059383e+00 7.1424703947225498e+02 2.5827613135420916e+03 -9.3865630065188554e+01 4.6000043833388204e+00 8.3573754838239243e+00 -3.7506736851989984e+01 2.5061255192069510e+01 -9.1628490036733012e-02 3.5640003511845066e+01 -6.9054759920271920e+00 2.6847775456893869e+03 -4.3033173292269765e+01 -4.7476508565910626e+02 -1.5635207974731452e+02 -1.6179438350171566e+01 3.2133970736575975e+01 -3.3533735287606686e+02 -3.0768896437607182e+03 -1.5887339316616107e+01 1.6947639975529029e+04 7.4839094113295985e+00 -1.1498715265904367e+00 -5.9008390576147107e-01 3.7610196050053332e+01 9.6196171897535623e+02 1.2010365041789423e+03 -4.5507332810934784e+01 6.0211397640406670e+00 2.5652613725087154e+00 1.2488078957142200e+01 -5.6190070504362684e+00 -2.2360560454982954e+00 1.6773553976167200e+01 4.7152514942113815e+00 1.3487249154628589e+03 6.0430476278827427e+00 1.0848420378285132e+02 1.3085321164006183e+02 8.7981801879465479e+01 2.4066232598547401e+01 -1.2671295692565682e+03 -4.4403859598264353e+03 -2.2142147248514785e+01 2.3893695039869814e+04 -1.1172017993203838e+00 -2.7047085918119942e+00 -3.1373373529132280e+00 -1.0195526054224484e+01 1.2283236843704726e+03 -9.8752980558284298e+02 1.3563698211779066e+01 -3.0917134526724634e+00 -7.3988953166547367e+00 2.2865431217526861e+01 4.2781273964779638e+00 -9.3455144741493257e-01 -2.4279048443200981e+00 -2.3679218186861526e+00 -1.0040530220565870e+03 -1.7515295537318217e+01 -1.4422800062335398e+02 -2.4113130348875961e+02 1.9869294162416857e+01 3.0886451336401596e+01 -6.1871380070220573e+02 -2.5903182290018376e+03 -5.8726062104951851e+00 2.3761809730931454e+04 1.3307605514010667e+00 3.1587837907926208e+00 1.0990856329917675e+00 -1.0026856500471293e+01 -8.3810891176830046e+02 4.8365608949596908e+03 7.5623697169351658e+00 -5.3501622972224823e+00 -7.4868497113567649e+00 1.2068954790907885e+01 7.5725592590947066e+00 -1.4645980355169490e+00 1.3903943833091652e+01 4.1696558939241530e+00 -1.2582484630840504e+03 2.3716861858221654e+02 2.3623162951013632e+02 5.8434725908898963e+02 -7.7947943267258388e+00 7.4379795400985387e+01 -6.8980736123350389e+03 1.7829319229274988e+03 -1.3222737587467684e+01 9.0508996477926139e+03 1.3934617141894898e+00 1.9817071173160381e+00 -2.3717156799430779e+00 -1.2047337920059706e+00 2.0684608684355335e+03 1.0457682838938508e+03 5.2193860988090712e+00 -2.3132363693842719e+00 -6.7139856419175237e+00 -8.3814884663467755e+00 2.4172760402515800e+00 1.3839269505394567e+00 4.9131128512632756e+01 -2.8496049659292289e+00 -2.0826923531370703e+03 -6.1945773282849430e+00 1.1097519611939788e+00 -2.1898146027102002e+03 -7.9215820014071241e+00 8.7942175266533141e+01 2.8808114622307171e+03 9.2054186854761656e+02 2.0325869065145554e+01 -2.4479489606299550e+04 3.2523016653898003e+00 -2.2911893745842304e+00 -4.5089669412752187e-01 1.5433150803396938e+00 3.3524475056877418e+02 2.2778346931788114e+03 3.9620278527142951e+01 1.7649369996809305e-01 -2.4577472775107836e+00 -8.7554983043517751e+00 4.4257206221829115e-01 1.5669549342202149e-01 1.9312449113782709e+01 2.2771662109658237e+00 -1.0881940979392093e+03 1.3970733968532087e+01 3.5732918174561711e+01 1.6150706763449116e+03 2.8158042439160886e+02 9.9539304005507768e+02 4.7424926141301967e+01 -8.8430568850281998e+02 -2.3804431359524210e+02 -7.5897184552888139e+03 -1.6576162645435841e+02 6.0810737167692707e+01 -2.3208841068387930e+01 2.9566635351932626e+02 2.0902984979679459e+03 -1.0059688630494020e+02 -2.3782720251916913e+02 7.5140568094602088e+01 5.4632221338805252e+01 6.8810508389307699e+01 -1.4656564449895558e+02 3.7208651022246087e+01 4.7961167234197364e+02 -4.8085555743100471e+01 -1.7889149156537096e+03 -9.8913340495745501e+01 1.1728880625668417e+03 1.1225327027744290e+03 2.8342068723508884e-01 -1.3582098374710370e+00 -1.2786689675838936e+03 4.3872836633684790e+02 -4.2553516437135457e+00 2.2018169996594643e+04 7.8848103854432305e-02 -6.6727828147060880e-02 -2.3646958909198403e+00 -1.4380794906132525e+01 1.9439228972992569e+03 -2.9521081056998855e+02 -4.3008824481117571e+01 -3.0385207911738092e+00 -4.4654326616136828e+00 -1.1653013388390018e+01 2.1894380825668414e+00 -7.2107899891809657e-01 -1.9066821488166411e+01 -6.7662524677274956e+00 -2.1549832610188460e+03 2.1328065595466633e+01 -1.1507899805088755e+00 -3.1388193362396541e+03 2.6044752722816661e+01 -3.5529224230091410e+02 9.3619266823061480e+02 9.2243649000721143e+02 1.0937143434041161e+01 1.2920177941229304e+04 1.6188472857602996e+01 -2.4030659856899767e+01 3.7301634173481251e+00 8.6275851759601991e+00 2.2380606371611357e+03 -1.5992238201174769e+03 6.6758832550076235e+01 -1.4662741572747873e+01 7.1689036467372347e-01 -2.1699616628953315e+01 5.0106039619011167e+00 3.0779662679114899e+00 -3.9495485474449097e+01 1.0164051796906888e+01 -1.7783617513226345e+03 -1.3320253004891766e+01 6.8677934631493804e+02 2.6829072745554186e+01 3.6338673367374614e+00 -2.1555318051872803e+00 1.2041098453254599e+03 -2.8324967847678545e+03 -2.0139781628246705e+01 2.5229597540854058e+04 5.4120129785322835e+00 -1.0245167099331711e+00 -2.1884746629604575e+00 -8.6987341245497820e+00 -7.5576721231549709e+02 -1.4124138188456982e+03 -3.5244405524190768e+01 3.4130010390776855e+00 -1.2913548297668278e+00 -2.2391276491823309e+00 8.2905536142070133e+00 8.9737732455785491e-01 -3.9401276274015657e+00 2.8560354678401971e+00 5.0807253332614869e+02 -2.6218250359928390e+01 -1.0565208466338501e+02 -2.6900339887619484e+03 3.4003009946218555e+01 -3.0882875609078241e+02 7.7790219020187469e+03 -9.4639361761877808e+02 -2.2630672684414577e+01 -4.0672185352652064e+04 -3.9151170258447536e+01 1.4832119635541858e+01 8.1380042637649197e+00 -1.0276188926896168e+02 1.4632993492308306e+03 -1.6730364445049781e+02 3.0107617697449655e+02 -3.6259794280781414e+01 -3.1602041511804490e+01 -4.7262942748324015e+01 -3.6278717815789783e+01 3.9132827444003667e+01 -1.2711694130530577e+02 -2.5636130072966090e+01 1.7877020911278669e+02 1.5535026855814522e+01 -4.5003309562422373e+01 -6.3662310771029752e+01 -1.5932639834822425e+01 -6.8209870571378985e+01 2.4986238620156550e+03 1.3418538275459432e+03 1.5450036861764822e+01 -2.7954659641878698e+04 2.3002634900270902e-01 6.2123303150641895e-01 -3.3362609492909101e-01 2.1961172200819490e+01 1.7335995290360734e+03 -4.5858257952548156e+03 1.9861827570769478e+01 6.9328821710759918e+00 1.4648353273413164e+01 -1.9761265529670450e+01 -8.7654268420508608e-02 6.5961964226798298e-01 -1.4554099481275301e+01 5.2885829713504080e+00 -1.2603085536644794e+03 -4.1696970052404367e+00 4.2520690187644369e+01 -1.7604315063668882e+03 3.1434122003115584e+02 5.6871219952976026e+02 -3.8167518182626918e+02 9.3975717850696674e+02 -2.6894561211371581e+02 3.8724599611983858e+03 -1.6172248075323486e+02 4.7182294584935704e+01 -1.9495787041326587e+01 1.7820446140739699e+02 -2.2801889819540083e+03 1.1714706945553189e+02 4.7462413244530921e+01 2.8810590205737753e+01 1.9911153858982885e+01 -2.0337125617196392e+00 -1.4083462590346204e+02 7.6506308111388876e+01 3.8733827511196375e+02 -6.1334662134570721e+01 1.7924277213847963e+03 5.9336778295569104e+01 2.3272345589056567e+03 2.1781586059933097e+03 -6.2236795532828637e+00 6.2249702919086913e-01 1.0272280516567372e+01 4.6119783340822551e+02 -4.2612979332642453e+00 -7.5693833883046709e+03 -5.3246386894381514e-01 -2.0685003633705534e-01 9.9715994698623800e-02 -1.0334013021079205e+01 -3.0042511246777553e+02 2.5854130411447426e+02 -1.7778007327198625e+02 1.4198982764822876e-01 -1.0183590286662270e+00 2.4336333512064705e+00 6.6749077710725202e-01 4.4105157018106445e-01 -1.3135258269924412e+00 5.3102404262306568e-01 3.7789124400324595e+03 -1.0019584131686679e+02 -1.1250036153534408e+02 8.0495870846465004e+02 
      </Row>
      <Row Index="7">
        1.4286110472019438e+00 1.7024298884275579e-01 -3.1771605995315308e+00 4.8630101526650265e+00 3.6261972045124367e+00 2.9591741421596267e+00 1.0581865058225567e+01 2.0601623357863632e+00 -2.7323305629730898e-02 8.2388332815983470e-02 -1.4362037126480359e-01 -1.8679913853757171e+00 5.8946406141940226e+00 -2.1701848211880059e-01 -1.4116499649181607e-01 -6.4163690426039865e-02 -2.3273225227205918e-01 3.4015907438704196e-01 3.3793528116345783e-02 -2.2885638142516196e-01 2.5891243669242392e-02 1.6849069450782963e+00 2.1309419905005988e-01 7.8713914720769651e-01 -1.9905716606292518e+00 -1.5002054003017629e-02 3.0115195066427156e+00 -1.3970824831730511e+00 1.2634451623996966e+01 -1.9400272423708764e+00 1.7559000424521940e+01 -4.9841527287046339e-01 7.8212054043227730e-02 -9.9985213229241005e-02 2.6269669680492003e-01 -3.4056036506547045e+00 -5.3592098273676925e+00 1.0350867159251154e-01 9.5638455468229688e-02 9.1866304208380045e-03 4.4276449146496388e-01 7.5428884709666078e-02 -3.2596411352698695e-02 -1.4818605547059430e-01 -1.4384295849652812e-02 -1.7705786305554057e+00 -2.1863765679742453e-01 -1.1402646228746640e+00 4.4166318296804548e+00 -2.1886045100968610e-01 2.5743317754787665e-01 2.0099874841002614e+00 -1.4966819651554715e+01 -1.0080586064140227e+00 6.0681069765047937e+00 -7.1048393723560754e-01 4.6157226518909411e-02 -3.7010423236187029e-03 -1.4776240057094853e-01 -1.6870801895038312e+00 -4.7276525644710432e-01 -1.1628619363702208e-01 -4.8611819853851879e-02 1.3512458618306511e-01 -6.2028884486616698e-02 -4.1961832631664703e-01 -2.8240307728698011e-03 7.0967412717688916e-01 3.9160575713362566e-02 1.1362341366548208e+00 -3.7028011414868800e-01 6.4094961140608575e-01 6.2716938388807080e+00 4.4447872865642335e-02 2.4368209883651124e+00 -4.6832091665465470e+00 5.7495145262353731e+00 5.9688396267269639e-01 -6.8967366108473982e+00 1.5126818551637178e-01 -4.6346018348823001e-02 -3.2987750395294779e-02 -1.0167194966080667e-01 -1.0361366472434383e+00 -2.0005969659335676e+01 -2.3118383645682883e-01 2.2202807434771377e-02 -5.1231984020340599e-02 5.8404582262480603e-02 1.4961630836424783e-01 1.8735456344090046e-02 8.3159213916774166e-02 5.5063506196177503e-02 8.4934477272327058e-01 -1.8594370452174935e-02 -2.2242425482197810e+00 1.5071136132596052e-01 2.8633109846815435e-01 -5.0735587589335518e-01 5.6925339034739011e+00 1.4629273512460713e+01 6.8103946517458280e-01 7.2508923012160267e+00 2.6768672648636821e-01 1.9405555552841441e-02 -1.7844580914912450e-02 2.6526616287930244e-01 -3.7417416504043750e+00 -3.0036548594111878e+01 -1.2681869648351218e-01 -3.1198755928419031e-02 4.5521778979612459e-02 -1.7860027974695991e-03 6.0434966516644317e-02 3.1113636345422302e-03 -3.0024084428770070e-01 -2.7934443377846313e-02 3.6913848618136456e+00 -1.4565928931696170e-02 -6.7854756066585509e-01 1.6694029662346566e-01 1.4350160290390834e-01 -3.9960062830767873e-01 -2.4492261433271096e+00 2.2818761006465138e+00 -3.4578114599470461e-01 1.9668818234591470e+00 -3.0493383449484285e-01 1.7779070588439055e-02 -3.4858810428097381e-03 3.0087666548283348e-02 -2.9661565437727404e+00 8.4598691941160098e-01 1.2461252772688169e-01 -2.7819146275510770e-03 2.8667929212013103e-02 -1.2512619592473262e-01 4.2968499662690091e-02 3.3535413475002107e-03 -7.3628109040758005e-02 -9.4594757729855053e-02 9.1982577690325229e-01 -1.2176270104703200e+00 -5.0143077330336894e-01 -3.7130745227478634e-01 -2.7083926144748499e-02 -3.1633529782265768e-01 1.5784940129907383e+00 -1.3144392830727156e+01 -6.2839579686262526e-02 8.5485596903140362e+00 -1.2484359796860794e-03 3.3848951091661333e-03 -4.5745251849612090e-03 -1.6991704049970024e-02 -1.7665341577157960e+00 7.3169888476791130e+00 -2.6783464262486012e-02 -3.4737055507282760e-04 -1.6380641290237946e-02 -9.7910451947014476e-02 -4.3880882901860263e-02 8.2145550288980074e-03 -7.0366378894093362e-03 -6.9027531939146458e-03 -1.3167306831273891e+00 4.1016789659163777e-02 -9.6952572910231538e-01 2.3661130270463246e+00 -1.5001624918383083e-02 4.5504460225004717e-01 3.9848044803009373e+00 -7.5724526664641587e+00 -5.2492066621298661e-01 -3.6536203957878541e+01 -2.7759121131931752e-01 -7.3086057571648655e-02 5.2297175417906350e-03 6.8121821522394654e-02 1.6792074237600900e+00 -2.2852194710978665e+01 -1.6073873732863664e-01 3.1101260894821015e-02 -2.2455017210841421e-01 4.4772820832758242e-02 -1.9455579803793410e-01 1.3529773572297565e-02 -2.3090493494807229e-01 -8.7464128902227212e-02 2.9488513863216212e+00 1.3100305943817048e-01 -1.4357272066780205e+00 -6.6032188516167594e+00 2.4652894563781480e+00 6.6249535835514006e+00 -3.1390846495355618e+00 4.6668892912293813e-02 -5.7153508479745585e-01 4.7925467927150294e+00 -1.7539041888039621e+00 5.5852707553744563e-01 1.4120940665937304e-02 -8.4058195497847599e-01 -1.4708052042678901e+00 4.9393157208211278e+00 3.3910454145700086e-01 5.1557037986452470e-01 -9.6254665283992402e-03 -1.8993502771202697e+00 -1.2045341404962324e+00 3.6804916850736458e-01 8.2227264627956629e+00 1.0852333008898263e-01 3.3945458056641655e+00 -5.6439117560150631e-01 -1.5742904490296354e+01 -3.9108485203532624e+00 1.0382385531837091e-01 3.7711579795708006e-01 3.3765764943709087e-02 -1.7940351789749286e+01 2.4499007583395932e-01 1.1958777374107740e+01 2.0241809547187245e-01 -3.6348694168255313e-03 1.7144118324987634e-03 5.8733757621783428e-02 -1.0754922881460516e-02 1.6322354643313020e+00 -6.3994662353208831e-02 4.5801579476536514e-02 -2.4174550473643697e-02 7.4123901718433916e-02 7.9124186837690846e-02 -3.1190712837604567e-03 -6.5641074441646241e-02 7.9252814883822797e-02 3.1572882328623564e-01 -2.1806735020329016e-01 5.8953206532163538e-01 3.6608678434216699e+00 2.1578594400452222e-01 -4.2714277449870428e+00 5.9701707945757221e-01 4.8201187626877982e+00 9.1410979332428299e-01 -1.6281951822967443e+01 2.5442226018116920e-01 -1.1587705480682016e-01 8.5373138487234740e-02 -4.0851367947345785e-01 -2.0107873097149422e+00 6.1365144879636944e+00 -1.1042160807850976e-01 -9.9090700101679197e-02 -6.7231313631138601e-02 -2.7483470539124388e-01 -7.0631403689891958e-02 5.6667444344592838e-02 -1.9289787573757133e-01 -5.1642457476897136e-02 3.4115845662527136e+00 3.2683512519677815e-01 4.4203825751403194e+00 7.7142585134343733e-01 -6.5569581535065202e-02 -2.1483766112908320e-01 7.9854075564283278e+00 6.8750397291637455e-01 1.5875481892848053e-01 6.9696317960592147e+00 2.8701448426841115e-02 -4.0510944306104441e-02 -1.0611336775798218e-02 -5.3900370455934876e-03 -1.6085959839688257e-01 1.8531213721547488e+01 9.6970470146071353e-03 9.3257924847407539e-03 1.9466440600825030e-02 1.4218220474714993e-02 -2.6095919512165833e-02 -9.4178530360686796e-03 1.4074372621535347e-01 -3.1080286737022532e-02 -2.4695418808786371e+00 -6.0657256248886036e-02 -2.3686403979505539e+00 3.7776182972527010e+00 9.8155090810126966e-02 -3.1675188325843582e+00 1.1250420754178322e+01 -6.1861587610399908e+00 -2.9806654937331745e-01 1.0277349816180731e+01 -3.2881550626374106e-01 1.0184412590908733e-01 -8.3736880236282063e-02 1.2238362502843170e-01 -1.4325036041009298e+00 -1.3713643215860429e+00 4.2531604884542418e-01 1.4779990920214847e-01 -7.3303611324916973e-02 -1.4113387615147410e-01 1.4413825535178837e-02 -8.7284307129800287e-02 -2.2460462121256830e-01 1.3564923939303736e-01 1.5886813446777523e+00 2.2233848472721895e+00 1.5277019034125061e+00 -8.9701077875145074e-01 8.9222536495314891e-03 -1.5458556135927190e-01 -5.3948417670475237e+00 1.4831903210387281e+01 4.8529030474188040e-01 1.4053678473474065e+01 2.6515549137763078e-01 2.3315244870852903e-02 5.8931145276752694e-04 -1.4722403398057576e-01 -1.2907647013416863e+00 -7.6152772888360687e-01 -3.5344547818620953e-03 8.4666934534874033e-02 2.8910779323342795e-02 1.0246736382561916e-01 1.0791098948739597e-01 2.6145114920725909e-03 -8.3404425352514577e-02 3.1792082779151354e-02 3.9482208441040711e+00 -3.3801683578076336e-03 -1.7115945145234299e+00 7.8291479903106760e+00 3.1416404907649378e+00 9.5056460257401598e-01 5.4492022914441325e+00 8.9818456610174735e-02 1.0164083564916868e+00 -3.0101845468545889e+00 -8.6504777937823907e-01 5.4664052262686647e-01 -5.1435080184520698e-02 -9.9799556291424030e-01 2.1052435883411817e+00 -6.4491496354130504e+00 3.8505222251234139e-01 5.7066989914575794e-01 -2.0659954599960728e-01 -2.0964417393025991e+00 -1.0434170339232398e+00 3.6431225513291310e-01 7.6448665765936310e+00 1.2940690985821490e-01 -3.4336052080252557e+00 2.6647076963049887e-01 -1.6259188381145492e+01 1.8771116208115410e+00 -1.6070243271943951e-03 1.7118655323953461e-02 -3.7343057368367433e-02 3.1863385615752766e+00 9.0914606910468931e-02 3.2999145304069888e-01 2.7223813504464886e-02 6.7601750231132129e-03 2.2442411043271555e-03 1.5990169006885185e-02 4.3026531512642539e+00 -8.9454556645025143e+00 -3.0043966576238018e-01 1.0783343915388294e-02 -2.4247418527726425e-02 -2.0835466052720825e-02 1.2646740523086227e-02 -2.0305482134729200e-03 7.9580062453627927e-03 -6.7136321113115197e-03 -2.4425053091094084e+00 1.3124631683916110e-01 1.8029778107710077e+00 3.2825233290157931e+00 
      </Row>
      <Row Index="8">
