<?xml version="1.0"?>
<MethodSetup Method="MLP::MLPTuned">
  <GeneralInfo>
    <Info name="TMVA Release" value="4.1.2 [262402]"/>
    <Info name="ROOT Release" value="5.32/00 [335872]"/>
    <Info name="Creator" value="ineuteli"/>
    <Info name="Date" value="Thu Nov 26 21:58:24 2015"/>
    <Info name="Host" value="Linux cmsdev02.cern.ch 2.6.32-431.11.2.el6.x86_64 #1 SMP Wed Mar 26 09:39:43 CET 2014 x86_64 x86_64 x86_64 GNU/Linux"/>
    <Info name="Dir" value="/shome/ineuteli/phase2/CMSSW_5_3_24/src/Delphes/plots"/>
    <Info name="Training events" value="20731"/>
    <Info name="TrainingTime" value="3.47168483e+02"/>
    <Info name="AnalysisType" value="Classification"/>
  </GeneralInfo>
  <Options>
    <Option name="NCycles" modified="No">500</Option>
    <Option name="HiddenLayers" modified="Yes">N+10</Option>
    <Option name="NeuronType" modified="Yes">tanh</Option>
    <Option name="RandomSeed" modified="No">1</Option>
    <Option name="EstimatorType" modified="No">MSE</Option>
    <Option name="NeuronInputType" modified="No">sum</Option>
    <Option name="V" modified="Yes">False</Option>
    <Option name="VerbosityLevel" modified="No">Default</Option>
    <Option name="VarTransform" modified="Yes">N</Option>
    <Option name="H" modified="Yes">False</Option>
    <Option name="CreateMVAPdfs" modified="No">False</Option>
    <Option name="IgnoreNegWeightsInTraining" modified="No">False</Option>
    <Option name="TrainingMethod" modified="No">BP</Option>
    <Option name="LearningRate" modified="No">2.000000e-02</Option>
    <Option name="DecayRate" modified="No">1.000000e-02</Option>
    <Option name="TestRate" modified="No">10</Option>
    <Option name="EpochMonitoring" modified="No">False</Option>
    <Option name="Sampling" modified="No">1.000000e+00</Option>
    <Option name="SamplingEpoch" modified="No">1.000000e+00</Option>
    <Option name="SamplingImportance" modified="No">1.000000e+00</Option>
    <Option name="SamplingTraining" modified="No">True</Option>
    <Option name="SamplingTesting" modified="No">False</Option>
    <Option name="ResetStep" modified="No">50</Option>
    <Option name="Tau" modified="No">3.000000e+00</Option>
    <Option name="BPMode" modified="No">sequential</Option>
    <Option name="BatchSize" modified="No">-1</Option>
    <Option name="ConvergenceImprove" modified="No">1.000000e-30</Option>
    <Option name="ConvergenceTests" modified="No">-1</Option>
    <Option name="UseRegulator" modified="Yes">True</Option>
    <Option name="UpdateLimit" modified="No">10000</Option>
    <Option name="CalculateErrors" modified="No">False</Option>
    <Option name="WeightRange" modified="No">1.000000e+00</Option>
  </Options>
  <Variables NVar="8">
    <Variable VarIndex="0" Expression="DeltaR_b1l" Label="DeltaR_b1l" Title="DeltaR_b1l" Unit="" Internal="DeltaR_b1l" Type="F" Min="5.14531255e-01" Max="5.35880136e+00"/>
    <Variable VarIndex="1" Expression="DeltaR_b2l" Label="DeltaR_b2l" Title="DeltaR_b2l" Unit="" Internal="DeltaR_b2l" Type="F" Min="3.31118584e-01" Max="4.68913269e+00"/>
    <Variable VarIndex="2" Expression="DeltaR_bb1" Label="DeltaR_bb1" Title="DeltaR_bb1" Unit="" Internal="DeltaR_bb1" Type="F" Min="3.83479446e-01" Max="3.09936523e+00"/>
    <Variable VarIndex="3" Expression="DeltaR_j1l" Label="DeltaR_j1l" Title="DeltaR_j1l" Unit="" Internal="DeltaR_j1l" Type="F" Min="2.67349809e-01" Max="5.96390295e+00"/>
    <Variable VarIndex="4" Expression="DeltaR_j2l" Label="DeltaR_j2l" Title="DeltaR_j2l" Unit="" Internal="DeltaR_j2l" Type="F" Min="4.11826015e-01" Max="6.17678261e+00"/>
    <Variable VarIndex="5" Expression="M_bb_closest" Label="M_bb_closest" Title="M_bb_closest" Unit="" Internal="M_bb_closest" Type="F" Min="6.00008812e+01" Max="1.59999817e+02"/>
    <Variable VarIndex="6" Expression="M_jjb_leading" Label="M_jjb_leading" Title="M_jjb_leading" Unit="" Internal="M_jjb_leading" Type="F" Min="3.50392456e+01" Max="3.51941211e+03"/>
    <Variable VarIndex="7" Expression="M_blnu" Label="M_blnu" Title="M_blnu" Unit="" Internal="M_blnu" Type="F" Min="8.72848511e+01" Max="4.43800146e+03"/>
  </Variables>
  <Spectators NSpec="0"/>
  <Classes NClass="2">
    <Class Name="Signal" Index="0"/>
    <Class Name="Background" Index="1"/>
  </Classes>
  <Transformations NTransformations="1">
    <Transform Name="Normalize">
      <Selection>
        <Input NInputs="8">
          <Input Type="Variable" Label="DeltaR_b1l" Expression="DeltaR_b1l"/>
          <Input Type="Variable" Label="DeltaR_b2l" Expression="DeltaR_b2l"/>
          <Input Type="Variable" Label="DeltaR_bb1" Expression="DeltaR_bb1"/>
          <Input Type="Variable" Label="DeltaR_j1l" Expression="DeltaR_j1l"/>
          <Input Type="Variable" Label="DeltaR_j2l" Expression="DeltaR_j2l"/>
          <Input Type="Variable" Label="M_bb_closest" Expression="M_bb_closest"/>
          <Input Type="Variable" Label="M_jjb_leading" Expression="M_jjb_leading"/>
          <Input Type="Variable" Label="M_blnu" Expression="M_blnu"/>
        </Input>
        <Output NOutputs="8">
          <Output Type="Variable" Label="DeltaR_b1l" Expression="DeltaR_b1l"/>
          <Output Type="Variable" Label="DeltaR_b2l" Expression="DeltaR_b2l"/>
          <Output Type="Variable" Label="DeltaR_bb1" Expression="DeltaR_bb1"/>
          <Output Type="Variable" Label="DeltaR_j1l" Expression="DeltaR_j1l"/>
          <Output Type="Variable" Label="DeltaR_j2l" Expression="DeltaR_j2l"/>
          <Output Type="Variable" Label="M_bb_closest" Expression="M_bb_closest"/>
          <Output Type="Variable" Label="M_jjb_leading" Expression="M_jjb_leading"/>
          <Output Type="Variable" Label="M_blnu" Expression="M_blnu"/>
        </Output>
      </Selection>
      <Class ClassIndex="0">
        <Ranges>
          <Range Index="0" Min="5.4814732074737549e-01" Max="5.1284613609313965e+00"/>
          <Range Index="1" Min="3.4545683860778809e-01" Max="4.6891326904296875e+00"/>
          <Range Index="2" Min="3.8908329606056213e-01" Max="3.0988700389862061e+00"/>
          <Range Index="3" Min="2.6734980940818787e-01" Max="5.9639029502868652e+00"/>
          <Range Index="4" Min="4.1182601451873779e-01" Max="6.1767826080322266e+00"/>
          <Range Index="5" Min="6.0000881195068359e+01" Max="1.5988987731933594e+02"/>
          <Range Index="6" Min="3.5039245605468750e+01" Max="3.0319150390625000e+03"/>
          <Range Index="7" Min="8.7284851074218750e+01" Max="1.6357127685546875e+03"/>
        </Ranges>
      </Class>
      <Class ClassIndex="1">
        <Ranges>
          <Range Index="0" Min="5.1453125476837158e-01" Max="5.3588013648986816e+00"/>
          <Range Index="1" Min="3.3111858367919922e-01" Max="4.5956711769104004e+00"/>
          <Range Index="2" Min="3.8347944617271423e-01" Max="3.0993652343750000e+00"/>
          <Range Index="3" Min="3.2699367403984070e-01" Max="4.5733394622802734e+00"/>
          <Range Index="4" Min="5.1715224981307983e-01" Max="5.4827847480773926e+00"/>
          <Range Index="5" Min="6.0024478912353516e+01" Max="1.5999981689453125e+02"/>
          <Range Index="6" Min="4.0300426483154297e+01" Max="3.5194121093750000e+03"/>
          <Range Index="7" Min="8.9760353088378906e+01" Max="4.4380014648437500e+03"/>
        </Ranges>
      </Class>
      <Class ClassIndex="2">
        <Ranges>
          <Range Index="0" Min="5.1453125476837158e-01" Max="5.3588013648986816e+00"/>
          <Range Index="1" Min="3.3111858367919922e-01" Max="4.6891326904296875e+00"/>
          <Range Index="2" Min="3.8347944617271423e-01" Max="3.0993652343750000e+00"/>
          <Range Index="3" Min="2.6734980940818787e-01" Max="5.9639029502868652e+00"/>
          <Range Index="4" Min="4.1182601451873779e-01" Max="6.1767826080322266e+00"/>
          <Range Index="5" Min="6.0000881195068359e+01" Max="1.5999981689453125e+02"/>
          <Range Index="6" Min="3.5039245605468750e+01" Max="3.5194121093750000e+03"/>
          <Range Index="7" Min="8.7284851074218750e+01" Max="4.4380014648437500e+03"/>
        </Ranges>
      </Class>
    </Transform>
  </Transformations>
  <MVAPdfs/>
  <Weights>
    <Layout NLayers="3">
      <Layer Index="0" NNeurons="9">
        <Neuron NSynapses="18">
          4.5705752973597985e-01 7.6728695978276240e-01 1.0115852091297930e+00 9.0013675363104784e-01 -1.1124408849018983e+00 -9.3176555682247797e-01 -1.4473909762614123e+00 7.0549725058232349e-01 5.1360169059190175e-01 1.5058880309757755e-01 -1.2307607677128833e+00 -4.8027249535884659e-01 -1.4260004701272586e+00 -6.9190758391700458e-01 9.4697553355259395e-02 5.0084547248412592e-01 4.2376940871341279e-01 8.8571781712772113e-01 
        </Neuron>
        <Neuron NSynapses="18">
          1.2067453985886327e+00 3.5504444503828177e-02 -1.7832532131422685e-01 -1.4425097757050992e-01 3.5866751790195822e-01 -8.4975753569499005e-02 -1.8400348610875056e-01 -1.9661229749496034e-01 -3.1522090886885024e-01 -3.9186623630041972e-01 -1.4370606680705875e+00 5.5562351686996647e-01 -3.5262800780375847e-01 5.2460183505317359e-01 4.6193398356928622e-01 4.4237667777496970e-01 9.9588259448608019e-01 -9.1486889095386692e-01 
        </Neuron>
        <Neuron NSynapses="18">
          -2.2716950947393499e+00 4.8523460238218874e-01 -1.2236354123087163e+00 4.0700401588738616e-01 5.6377331141559717e-01 1.2002470493993540e+00 4.6719501556843424e-01 -2.1642779352354399e-01 -1.3747237645948843e-01 -1.0963171576076551e-01 8.6534494771537529e-01 -4.5965749199690376e-01 4.4636862357000018e-01 1.3383882539071884e-01 1.6383610257723842e+00 9.0102605751453013e-01 -1.7671936000208543e+00 7.0307684606572840e-01 
        </Neuron>
        <Neuron NSynapses="18">
          -1.4356415387653907e+00 -6.5963975364057514e-01 -1.4025174872181141e+00 -3.0305520840117821e+00 1.2016985467992893e+00 4.4452716834437034e-01 -4.3925102866313986e-01 5.9192959176023641e-01 -4.9324811217092751e-01 1.5397643160039727e-02 9.1325591128618921e-01 -2.7110461459229990e-01 2.5897300778430665e-01 -4.9335402613998131e-01 2.2517079508573297e-02 -1.9861069393820063e-01 -7.2457332815838837e-01 -1.4585274831061206e+00 
        </Neuron>
        <Neuron NSynapses="18">
          6.0217587997723609e-01 4.1311138410205339e-01 1.1963837752671334e+00 -3.9093527017351104e-01 -7.8070463039011762e-01 -2.9153586398998899e-01 7.5078641039873883e-01 4.1579868824128985e-01 3.0236176441869014e+00 -8.3254218249468090e-02 -1.4769029981061343e-01 -3.1820659684739766e-02 -8.2419377156062235e-01 2.9090052343833789e-01 4.6865251324941370e-01 -4.3229364007059962e-01 -2.0553088436351236e-01 -1.4065001874546694e+00 
        </Neuron>
        <Neuron NSynapses="18">
          5.8857866085741284e-01 -1.0306836004203425e-01 1.5234212666552001e+00 -4.0718584600129654e-01 -2.8271870523379983e-01 9.5144014955494904e-01 -1.5393195081887698e-01 -9.1246925401427662e-02 -3.0800151705813839e-01 4.1100604366477569e-02 -2.0467503421195321e+00 -1.7677921310045999e+00 8.0389468939235920e-01 -4.2549351814075015e-02 -1.2698628212914262e+00 1.1895219604602352e+00 -1.4557641160342347e+00 -3.0215441958272077e-01 
        </Neuron>
        <Neuron NSynapses="18">
          -1.1895744385488249e+00 9.1391171455465148e-01 -1.8805105625587335e+00 9.4052724069192417e-01 -6.1790273035255581e-03 1.9262996475831972e-02 -2.0010032085507397e+00 1.8130895594260774e+00 7.6989174285125006e-01 -1.2148684656893332e+00 7.9564182316550033e-02 -4.8853009959936999e-01 -8.7784267719403630e-01 -1.1286068168940271e-01 -4.7606519745780002e-01 7.5398078105036626e-01 -1.2737772352580443e-01 -6.0488269436728603e-01 
        </Neuron>
        <Neuron NSynapses="18">
          4.9806021900525760e-01 5.7870437487765003e-01 -1.8386321408844746e+00 1.4608792864268709e+00 -3.3529978180767100e-01 -6.2539861548639908e-01 1.0725978722847698e+00 -1.4621154020801925e+00 6.0904749978404826e-01 1.0132308971655459e+00 9.8690280966752686e-01 -9.2010032043617440e-01 -2.0113016453366189e-01 1.0559975540700344e+00 1.0780871512743955e+00 -1.1460734366935594e+00 -3.9032855686120960e-01 -8.6928738409675288e-01 
        </Neuron>
        <Neuron NSynapses="18">
          -1.4038140281770117e+00 1.1249964221657576e+00 1.2143977744692271e+00 -7.7735263491529250e-01 1.5956749285485936e-01 3.8802300490641423e-01 -1.2791122955439815e+00 4.4050485569296627e-01 1.1246565454036768e+00 -1.4830980503890881e-01 4.0137999703402405e-01 2.4807660530679704e-02 1.8847565522326444e+00 9.0688924938021986e-01 1.1893245323431278e+00 -5.1976179391226118e-01 1.9449323556986418e+00 1.7150453162567585e+00 
        </Neuron>
      </Layer>
      <Layer Index="1" NNeurons="19">
        <Neuron NSynapses="1">
          1.7423452342749751e-01 
        </Neuron>
        <Neuron NSynapses="1">
          2.1260575335067766e-01 
        </Neuron>
        <Neuron NSynapses="1">
          1.2664781433736760e+00 
        </Neuron>
        <Neuron NSynapses="1">
          2.9847459062140963e-01 
        </Neuron>
        <Neuron NSynapses="1">
          1.8737398466426447e-01 
        </Neuron>
        <Neuron NSynapses="1">
          3.2135113399462978e-01 
        </Neuron>
        <Neuron NSynapses="1">
          -2.3946111288948721e-01 
        </Neuron>
        <Neuron NSynapses="1">
          -2.5650677331154942e-01 
        </Neuron>
        <Neuron NSynapses="1">
          2.6637278150613547e-01 
        </Neuron>
        <Neuron NSynapses="1">
          1.1563725687307942e-02 
        </Neuron>
        <Neuron NSynapses="1">
          -1.8249635602496025e-01 
        </Neuron>
        <Neuron NSynapses="1">
          4.7101230442725184e-01 
        </Neuron>
        <Neuron NSynapses="1">
          1.3293111899051431e+00 
        </Neuron>
        <Neuron NSynapses="1">
          -1.5430558506231826e-01 
        </Neuron>
        <Neuron NSynapses="1">
          -1.9501529255719979e-01 
        </Neuron>
        <Neuron NSynapses="1">
          -2.1028922530655753e-01 
        </Neuron>
        <Neuron NSynapses="1">
          -3.5713926222203179e-01 
        </Neuron>
        <Neuron NSynapses="1">
          -7.8023848233666371e-01 
        </Neuron>
        <Neuron NSynapses="1">
          -1.2720163555064270e+00 
        </Neuron>
      </Layer>
      <Layer Index="2" NNeurons="1">
        <Neuron NSynapses="0"/>
      </Layer>
    </Layout>
    <InverseHessian NElements="32761" NRows="181" NCols="181">
      <Row Index="0">
        1.5107818722933153e+00 -1.7722815586720619e-02 1.9760253511907564e+00 1.3338776903315985e-01 -7.0898994492775991e-01 -2.3388824243391101e-01 5.8764017509963740e-02 -9.4938296731442828e-02 1.0443142996392471e-02 -1.0745349123340795e+01 -7.1817491969890235e-02 -5.7756797218185899e-02 -3.4044128877352947e-01 -1.4728554884521330e-01 1.6154857410451934e-01 -8.7862784321425941e-02 -2.8364820003750829e-01 -4.8108825613824902e-01 -4.9956477090335216e-01 1.7830061934918989e-01 -1.6812025668768507e+00 -7.3547487084117319e-02 2.6201757441173361e-03 1.0829155771275942e-01 -4.2878376872099305e-03 1.0022139226883993e-01 -2.4423375128267047e-02 7.5601300759434444e+00 -8.6371089017806005e-02 2.8863309044034058e-03 8.5523775617586770e-02 -5.7666326789119471e-01 -1.8735505509040257e-01 5.6360186231148621e-02 -1.5472723783743828e-02 8.9597333262449919e-01 -4.5742780199290883e-01 2.8770450155780072e-02 -1.5004369391129480e-01 -5.2407793851979523e-02 4.9574401072287622e-01 -5.7835046339953212e-02 9.5321420817323282e-02 2.2485171751150029e-02 4.5963042782060093e-04 2.1037350296872424e+00 9.7847031876227508e-02 1.9812571909809888e-02 3.3905438672481414e-02 4.8528869693871124e-01 -2.2938506443235085e-02 9.3078669234739106e-02 2.0622161222331215e-01 2.9527650404082112e-01 -3.0144897298505263e-01 1.6209632989683465e-01 -2.0036045892087646e+00 -6.0862890628955474e-02 -1.1174884217731290e-01 -2.3156450130099968e-02 2.1741271989246758e-01 1.7524599156157489e-01 1.0733281830541536e-02 1.0266459756027471e+01 4.9717773716654548e-02 -2.6048290070458831e-02 -3.0360034747886289e-02 3.5747362852174069e-01 1.1195202010749838e-01 -6.7714042717570699e-03 2.5425602218405174e-03 -1.6335804540459145e-01 1.7780858059576143e-01 -1.8508788224364306e-01 1.8130953851944398e+00 3.0970079435630023e-02 9.2967618585183209e-02 5.8359488421368830e-02 -8.2020628752552560e-02 4.3707429917696460e-03 -8.1920001455672936e-02 -7.3393303045482021e+00 -1.3340717413018455e-02 5.2833977848703279e-02 -7.2005830212651889e-02 -1.7239011669414950e-01 -7.5817869947141403e-02 -7.2581576641336534e-02 1.1364480076990982e-01 2.7685302252296040e-01 9.3706630797184637e-02 -6.4618223929731017e-02 2.8439432329319785e+00 2.2323175534244191e-02 -1.7883128702534223e-01 -1.5303258760589372e-01 -2.6407135831406831e-02 -3.3703676051349774e-02 1.6705118210010750e-02 -1.5436583319092159e+00 -1.1477119267991179e-01 1.0223417761491974e-01 9.4855034145635120e-02 -2.2055995873860301e-01 -1.3509986161490628e-02 7.1111004302514380e-02 2.1121268620915973e-01 -2.0556082476615156e-01 2.4964502502625843e-02 1.9595429391069330e-01 -2.5078121274190632e+00 -2.5260005228976160e-02 2.3121285123602020e-01 2.8411686090081233e-02 2.6539463748454295e-01 6.8472055908847612e-02 -4.0814974610964984e-02 6.3756470560770087e+00 5.3987037264808142e-03 9.0258490707076366e-02 -8.6490875841401138e-02 1.8294800191590338e-01 7.1026610910847124e-02 5.0206586681919782e-02 1.2903092220160423e-02 7.1523384102141740e-01 1.8936510301749815e-01 -3.4292377342683311e-02 -4.6471887413382511e+00 2.9333463630094342e-02 -1.9654632444814851e-01 1.6087954493534207e-01 2.2398757582902967e-02 -2.4578879304171297e-01 -3.5030110030352654e-02 -1.7166286186673844e+01 1.2605078500428052e-01 1.8849791736337873e-01 5.5809986422848221e-02 -7.5422710637810897e-01 -1.8763159184980888e-01 -4.4158518137021763e-02 2.1595424006605662e-01 -8.9217569536699415e-01 -6.7893444832280825e-02 1.6124878645151036e-01 -1.9131803369368789e+00 -4.6578793771862137e-02 1.3848484885159948e-01 1.0055866908913358e-01 2.7880103209334328e-01 -8.8684224596212946e-02 -9.5891056887546025e-02 -5.8948276277989571e+00 8.9416274295073234e-02 2.0620612717415668e-01 -6.8934574116014335e-02 -3.0476685781711121e-01 -1.0436069007864435e-01 -5.4571526251357819e-02 -3.7671182382692014e-02 9.5706823508431871e-01 -2.7086424016816373e-02 -2.1978217507378529e-02 2.8371727243780902e+00 5.7743922813041984e-05 -5.4082775975927651e-02 5.0974175288863527e-02 -1.8932247513991536e-02 5.3113859520462284e-02 1.6000952979603425e-02 1.7150089821547798e-01 2.2661190185349331e-02 6.5601933647561589e-02 -6.5147255861658504e-01 -5.1512587354019104e-02 -5.5187894208803719e-03 3.1487206581385457e-02 -8.4255924473632518e-02 -1.4827588429001279e+00 -6.9166418666741625e-01 
      </Row>
      <Row Index="1">
        -1.7722817416142789e-02 1.7495093765008832e+01 6.5600870949522756e+00 -2.6759472360648167e-02 -2.2525766109001797e+00 4.8096320611960425e-01 1.1486805071882000e-01 -6.5290655921113305e-01 2.7593568772883154e-01 1.9509323514115096e+02 -1.2595618352284421e-01 -2.5833002194901455e-01 5.7084702348125638e-01 -8.8190779237769856e+00 8.2313172803215895e-01 8.8284699167552194e-01 -5.6121226560605086e-02 -3.1330207950666691e+00 5.3075693759513642e-01 -5.7950896337392450e+00 -2.5512912717531373e+00 -2.4528754524733098e-01 4.0730540418091876e-02 -1.1004646177709165e-01 -1.1723337412552381e-01 9.7889587797317501e-01 -6.7432785366262682e-02 -6.4339240538508164e+01 1.6446649822657575e-01 4.8180039116469953e-02 1.2296467983004500e-01 1.7796615285655903e+00 -2.8062132830503789e-01 2.5855156242331478e-03 -1.9434537545713509e-01 1.8101573289769846e-01 -3.8104413598111253e-01 2.8507620999804071e+00 -4.1582697262961474e+00 -5.9347313797276452e-02 -1.0528015835172153e+00 -6.3880772044852197e-01 1.0728720742038483e-01 1.0903383532559470e+00 2.3091638909431400e-01 9.0170670317901596e+01 -3.6100358248988079e-02 7.7366036648509384e-02 1.0007582590380770e-01 -2.9278475614561801e+00 6.0393823079864783e-01 1.7118044774952074e-02 1.4906485747483544e-02 1.2890475947783280e+00 -1.5944340462092887e-01 -9.2976338678648478e+00 -4.5338552295261891e-01 8.6423881933358249e-01 2.5804445409619059e+00 -9.8193469537019629e-02 -3.2458189459498943e-01 -1.3406683155947305e+00 1.7184077369591366e-01 -7.0542108517822086e+01 -2.6790111947295081e-02 2.9159518171415932e-02 -3.9947634577911106e-01 2.5351391891596631e+00 -3.2784870599670074e-01 2.6440462518511187e-01 3.8088863268574080e-01 -1.9377367493059019e+00 6.9509976231859949e-02 5.8087328521339279e+00 -7.7394874131172742e-02 1.5867147039355539e-01 -1.9622631575464351e+00 1.1868196566717326e-01 3.5766778555507317e-01 -3.8068247147832235e-01 -7.0796761227852012e-01 5.7358816969867618e+01 -2.4349673636469671e-02 -3.2863718464906322e-02 4.2663834692652647e-01 -1.6378197674702000e+00 6.2192694271550875e-01 -3.6320115221322891e-01 1.1943508172383699e-01 -3.1657735070334780e+00 1.4229181180568928e-01 -9.2949324625589735e-01 7.7082253599405561e+00 4.0886212822844881e-02 -1.4501834131786984e-01 -2.7043524642326394e-01 2.2645367046180930e-02 5.0919458052048366e-02 -5.8773908694120247e-02 -2.9451183719279683e+01 2.0415864261373173e-01 -3.9994453109622546e-01 -1.6518707741726635e-01 9.9283563957672905e-01 -7.5981082032672398e-01 9.4611112841545353e-01 3.6447047627412410e-01 8.7342195910922271e-01 -1.9125164667408062e-01 4.6263209787528128e+00 -9.7931439261550874e+00 -3.6367085271551081e-02 -1.1219785867065055e+00 -1.3634545561919847e-01 -2.1638872927388070e-01 -1.1320654185531804e+00 5.3957846536148091e-01 -4.6074848722992670e+01 4.3808731089709618e-02 -2.4028817428008359e-02 7.2623237025640530e-01 -5.7384056134035673e+00 -1.9062473067560115e+00 6.8950235953267991e-02 1.0812981757241769e-02 -1.3222402461805416e+00 1.8870673545241501e-01 1.3993234033110099e+01 -5.9711782931804578e+00 1.2313075218364595e+00 -1.5565546372840056e-01 9.0502200823951739e-01 -7.8928263078707217e-01 -1.8729280693894979e-01 3.8962387835330869e-01 1.7360813005155140e+02 -1.7506926960289876e-01 4.2946427083321004e-01 2.1254418076630404e+00 1.3713949141061610e+00 1.1948690333823588e+00 -1.4937698427591668e+00 -7.5832329906358231e-01 -1.5134005972685848e+01 -1.1576051008037780e-01 1.3323080290415415e+01 -6.1725351012428455e+01 1.7806124169746711e+00 -2.9004172931477878e-01 4.5753135462560501e-01 -1.1587366246472168e+00 -1.7320996043404193e+00 8.0459188730548981e-01 9.7649988034457124e+01 -4.9097585772323704e-02 5.7010369801425242e-01 3.3617301622834876e+00 -1.4453285826409772e+00 -2.9195613802329512e-01 -1.2864864775818408e+00 -7.6589525575274209e-01 -1.8191096924420435e+01 -6.7764235757186791e-02 -6.3502482098663275e+00 -1.5289887574399020e+02 1.3251136712630074e-01 -5.0466760192467941e-01 3.0053967067975990e-01 1.1531507820669662e-01 -9.7911946491664670e-01 9.5300866249978300e-02 -4.8193323119343834e+00 -2.9321759271641268e-02 -1.5598149169687126e-01 3.4740797717124412e+00 1.2707066199154065e+00 2.3468706459487559e-01 2.2659664454325784e-01 -1.4330709618762466e-01 9.1634551944727143e+00 1.4045642067748307e+02 
      </Row>
      <Row Index="2">
        1.9760252992746246e+00 6.5600872642426227e+00 5.4985411707739172e+02 1.3714594961366668e+00 6.6791666241227765e-01 2.1334620692840498e+00 -4.2631710740916633e+00 -4.4565013578256760e+00 1.1568857186855950e+00 3.0932619909237297e+02 -9.9961837825674471e-03 8.1076446589801821e-01 8.3521646696934393e-01 -3.0260455757181859e-01 -1.2904963486965682e+00 -8.3713249294810277e-01 -1.5043352427528589e-01 2.5023111996987311e+00 2.3713444757152478e+00 3.9759142074735099e-01 -2.7366316371711008e+02 -8.1863895062516745e-01 -5.2350484089438432e-02 -8.2247353730939265e-01 -4.1931962720204830e-01 3.6958209408832854e+00 -1.6473209369652514e-01 -2.0613647076324503e+02 5.7008422549300128e+00 -4.2861256993346997e-01 -1.9835823408453859e+00 -4.5392748281460626e-01 1.6575067917736162e+00 -3.2517672988077723e-01 6.2747307487056758e-01 -4.6430526756876702e+00 -5.1012544401170192e+00 8.8164623104567781e+00 -2.2433977373458407e+02 -8.4539116161551409e-02 4.7431428792164594e+00 -8.3923594341320240e-01 9.5657050894624263e-01 9.9250166219864022e-01 6.0517275601897152e-02 2.3941534367803229e+01 -2.4570228811540367e+00 9.5321466928807874e-01 -9.7272999793324511e-01 9.0007446477345798e+00 2.2881885676798501e+00 -9.9397880644554049e-01 -8.7037092946643257e-01 1.7990824334471398e+00 -2.3201804305870120e+00 -4.7776693363027176e+00 -2.1351942675916484e+02 -1.6295706099946852e+00 1.1033701461226279e+01 -4.7355330042231247e-01 -3.9400198581228953e+00 -1.7969702275059576e+00 -3.5597749426038927e-01 1.1374618283294191e+02 -4.1758974086896377e+00 2.9790128639834301e-01 -1.1264391972229726e-01 4.3216697903368697e+00 -7.8850460667672828e-01 5.8223280126412813e-02 -1.0864245534639165e+00 -2.2387752979247580e+01 4.6570923514242080e-01 1.3904972289542843e+00 1.8923345327818711e+02 -2.8814537803523776e-02 -7.6701747665193825e+00 3.7062184953458033e-01 3.5027174532444008e+00 1.1712041398546811e+00 -1.9362983311895210e-01 -5.8071790714348381e+01 2.1329642284996164e+00 -1.6317737455392667e-02 -8.7363085391708706e-01 -2.7947871920933469e+00 2.0202302954227811e+00 4.7478792530605540e-01 1.1344383232228465e+00 -4.6721341311573958e+00 6.1622990660229116e-01 -2.8471042864152771e+00 2.8543483372873868e+02 8.8642004380244277e-02 -3.3498727481222810e+00 -6.3579529207003127e-01 1.3813884360951330e+00 7.1663240236499082e-01 -5.4027479547112067e-02 -7.0937706961493348e+01 5.8077331764645237e+00 -1.6667194991270291e+00 2.1098169863504026e+00 -1.4040326831772132e+01 -9.9936600138171183e-01 -6.1961074773004299e-01 6.6185300216381915e-01 3.7993237578697290e+00 1.8849158946145914e+00 1.6945881930274169e+01 -2.8716958967293704e+02 -1.4341632560672348e+00 -4.4712023764387752e+00 5.4478562318154911e-01 -8.8675775306443025e+00 -1.6203996092896613e+00 1.5552247777038652e+00 -1.3643323358312182e+02 -1.0747191326290313e+00 4.2708816284648066e-01 -3.4342994091367878e+00 2.0257518146962653e+01 -3.5899084960240133e+00 6.0295203243682760e-01 -1.5053242702437737e+00 -1.5720745584108315e+01 -4.1693098465069234e-01 1.5171356053175163e+01 -5.0120885625567905e+02 1.9239791101059276e+00 -7.3947217222142392e+00 2.8365504031819895e+00 4.6685778857762017e+00 -1.8942836579134434e+00 -2.5030347091978742e+00 3.5300686540248842e+02 6.3922011011726787e-01 2.1038259263473336e+00 -2.9132457211500622e+00 2.4104067263678317e+01 -2.1876913625107641e+00 1.5520077115163078e+00 2.5793884916837349e+00 -3.2438716132264275e+01 -1.0060361854922761e-01 2.7229368651335726e+01 -1.8644837383037045e+03 -4.7613913810415998e-01 -2.8409725281165175e+00 2.4524612840749564e+00 -5.7236985891099321e+00 -4.0042891759252637e+00 -1.2760143904443311e+00 2.0927947936477489e+02 -4.8554513309404967e-02 2.6243358435263255e+00 -5.6511253690864223e+00 4.1922310035692632e+01 -4.4159404696384783e+00 2.4159319363602201e+00 1.8188985759230150e+00 -6.1904031596962447e+01 -6.0993231506152623e-01 -6.6735228924673669e+00 -4.0280201395578260e+03 -2.1006806520325383e-02 -3.7031094079801039e+00 5.0216289632357469e-01 2.0740595806348230e+00 -1.0272154670581073e+00 7.3154179174245715e-02 -8.0513246212474900e+00 -7.9411969684850892e-01 -6.2276456378897871e-01 -6.1297015810400337e+00 4.4748661141631931e+00 6.0208772671778199e-01 -3.0389886354337281e-01 1.3330788089594800e-01 4.4404294851564444e+01 3.9886698388094028e+03 
      </Row>
      <Row Index="3">
        1.3338776866325475e-01 -2.6759472558686770e-02 1.3714594563584797e+00 8.3351898176515560e-01 -3.8206455129669642e-01 -6.0884200887233252e-02 -5.2423815527573275e-02 -4.8218149883280731e-01 1.4226504256885464e-01 1.1259592644111851e+01 6.4829175375953965e-02 1.9130385487939768e-02 3.6742734184737093e-02 5.6737982908593643e-01 2.9891451239642083e-02 -6.9064546376321923e-02 -4.2246179538665274e-02 -3.7224998250970813e+00 -1.0318480672748206e-01 -4.7240268234993943e-02 -1.9289668882523081e-01 -3.0992944783009724e-01 1.5172824739417870e-01 2.1582520829039192e-03 9.9904935026771238e-02 1.5972723692848162e-01 -1.0285723486719532e-01 -1.1908362466391248e+01 -4.4191346467675502e-02 -7.6844653624015824e-03 -3.8897828036382920e-02 -1.3972611189549045e-01 3.1986204943310614e-03 2.7405047195997810e-02 3.5569634338200727e-02 3.7972210437461369e+00 5.6772584104025109e-02 4.3420393853703054e-02 -1.2085026880861685e+00 5.6411853656584618e-04 2.7079646641346594e-01 2.0150728558324171e-02 -6.3329940482320102e-03 2.6145456546698986e-01 -4.7134497919787924e-02 3.4794002645309909e+00 -2.0056884893108334e-02 -2.7911962838036337e-02 6.2277823989176882e-03 -6.2900497641245612e-02 -1.5662306077230959e-03 5.6273207623575350e-02 1.4006148382277810e-02 2.8981292360539435e-01 6.5971035301105527e-03 -1.4003860904952165e-01 -5.2885957582000938e+00 -9.0536728586796511e-01 -9.3332150047836793e-02 4.3228297605322236e-02 4.3902859686048179e-02 -4.5355974082742001e-01 8.7387889451510464e-02 -3.1797871894147702e+00 -3.4789973657337742e-02 5.5115123591136010e-02 8.7312556217087778e-02 -8.9344429883145338e-01 -6.3808083456605186e-02 -2.9396060866253737e-02 -3.4961173825882597e-02 -1.0976424183250160e+00 -1.0332541082267570e-02 8.1061828021953386e-02 2.3748735932465284e+00 9.3747209823790562e-03 -1.7205020694828566e-01 -3.4193326784338333e-02 4.6367908963376822e-02 -4.6321411110867766e-02 -9.0385104207761802e-02 1.2163348287066644e-01 3.8629816547184642e-02 -8.0917189722166938e-03 -5.5132669317513490e-02 5.5930158443566969e-01 1.9761925799041707e-02 -9.0821132336115357e-03 -1.6758044868511179e-02 8.9009813683939587e-01 -1.7480338963995701e-02 1.4572569366799182e-03 3.1363019536019832e+00 -6.0751556812899524e-02 -9.8998204326245953e-02 2.7985053439547491e-02 3.8352093233489370e-03 -8.6145690784469292e-02 3.9087935012729752e-02 -4.3110466427950183e+00 -1.5633506622012433e-03 -1.5510134526217944e-02 -5.7151608616159422e-03 7.2960679549964880e-03 3.3038104941070845e-02 6.0413282980912864e-03 1.5934626087458839e-03 1.9757323801857751e-01 8.7148662099869129e-02 -5.0023833163143827e-01 -3.1862452232697320e+00 3.7024200561353671e-01 1.8774823208682884e-01 -3.0497735037595688e-02 -3.7732076906586060e-02 -3.8348717723818909e-01 -1.5581596806870218e-01 -3.8878652755460870e+00 -3.0996312817471491e-02 -1.7250855852863678e-02 4.7038802772934041e-03 1.2040651207906156e-01 -5.0250458855464586e-02 -6.1693103213583171e-02 -1.7422841301612549e-02 2.2075847466240059e+00 -2.6002479401881023e-02 -2.0694179021337417e-01 -1.3442276238443647e+00 4.4807434623624787e-01 -1.0447254250577981e-01 -6.9272721064621956e-02 2.6547757524186383e-01 4.9415267450649064e-01 -7.0978774593527597e-02 8.4925031673053244e+00 -1.0263344083389504e-01 9.7830019413535640e-03 -1.0608980826755410e-01 -4.9699813389883624e-01 -4.5395228233617357e-02 8.2352683732235810e-02 6.2209189865452430e-02 3.7590894485276749e-02 3.3521933274187149e-02 -5.7740471812644945e-01 -1.3039831870616013e+01 1.6680802372527059e-03 1.9683363930937919e-01 -6.7603912350549328e-02 2.3456908875301602e-01 -7.2503390969808901e-03 -1.8972961639906588e-01 -7.9810054086473947e-01 -1.3743053605555822e-01 3.3419803504503909e-02 -9.3016004886118386e-02 -2.5323914086158433e-01 -1.0997150899486234e-01 1.3441190771823042e-02 2.5913884933691289e-02 2.0717188494822736e-02 1.1112647728302248e-02 -3.9475791934897579e-02 -3.0258572746799732e+01 -1.1595789152127502e-01 -9.8324971862196811e-02 -1.3048742396574969e-02 -1.6259005746221016e-02 -1.8571291475511548e-01 2.3120555085574659e-02 -3.4845155839462333e-01 9.5037249367933146e-04 -7.8866275410923448e-03 -7.1414048454912574e-02 1.3759850307918747e-01 -3.3916081571052220e-03 1.5690255982886425e-04 6.8301346330077060e-03 1.2529198316817589e+00 2.9025818086906249e+01 
      </Row>
      <Row Index="4">
        -7.0898994303058771e-01 -2.2525766259782922e+00 6.6791641900954346e-01 -3.8206455446127918e-01 1.6631419143614028e+01 -1.0080451334974372e+00 3.2346354864213100e-01 2.3196117452100635e+00 4.1077084031972882e-02 1.4970504451919876e+02 -6.1696096326490146e-02 1.4187958417883006e-02 -1.3636014877183414e-01 -1.1739374621096413e+01 -2.3285499857083511e-01 2.2257435425138056e-01 6.6284381053492325e-02 3.1797329125547549e+00 -3.2341899895056808e-01 1.0670241048761853e-02 -1.2740009650644243e+01 2.0951259154725155e-01 -7.1334154028707930e+00 3.5448266100730208e-01 -1.7533335526654403e-01 -1.2391561590064015e+00 -1.3035358305747613e-01 -6.1508326737032704e+01 4.4035339357211944e-01 7.2824922484727897e-02 1.6565253039494396e-01 6.5787689318931211e+00 -8.8254364989910017e-02 -1.5775994545926186e-01 6.6167894617879341e-01 -3.7885024887954462e+00 1.2075282787638959e+00 -1.0486995426781087e+00 1.7378316578796689e+01 3.2384437314403713e-02 -6.3355756414482087e+00 1.0440530070451701e+00 -2.9810267460125698e-03 -8.2865033411291822e-01 -1.1835006845011192e-01 -6.8959542091940065e+01 4.4589079842589474e-02 -6.5922111932177743e-02 -5.7551429634779910e-02 4.7519457408192993e+00 -5.8269159650808244e-01 3.4782842203298275e-02 -8.0596416534537818e-01 -3.9986325178750803e-01 6.7580669220516043e-01 1.9511116731698870e+00 3.7391528121320150e+01 2.2902447064536247e-01 -1.2656129895202637e+01 4.4813003440870791e-01 1.5223283451201791e-01 -3.1966191371529717e-01 -2.6575473289844620e-01 -9.2605606040516193e+01 -2.2090467114213885e-01 -9.7057801156384960e-03 2.2588490560990016e-01 3.7744700817556538e+00 3.3988795647122305e-01 1.0015515737103775e-01 -1.7716384051889889e-01 -1.1257048322133265e+00 -2.2039242559260724e-01 -1.2219404309991480e+00 -2.7188503856409056e+01 1.6111991123980446e-01 8.4896872825166483e+00 -4.2584373572598683e-01 -2.5215423994832842e-02 5.0690240688248667e-01 1.2881256643418992e-02 5.1495124842647712e+01 1.1882783594478707e-01 -3.2592103407961287e-02 -2.4840033597222405e-01 -2.4381106580966412e+00 -4.1036737753556957e-01 -5.7128735831525335e-02 -5.1665687271074934e-01 -1.8075723243164772e+00 -3.2918552005579471e-01 4.4532520461799563e-01 -2.8619083549389781e+01 1.0560819283536416e-02 3.2071162162494016e+00 6.4734725795764947e-01 8.4936332007672713e-02 3.2195057157139662e-01 2.1884465369607159e-01 4.5332386093913492e+01 2.4448991265754122e-01 -3.9307508978277256e-03 -1.7940476808851846e-01 -3.3208024249593788e+00 4.4472532527218173e-01 -1.5849997488275125e-01 -7.4539797581386613e-01 5.5904990373532470e-01 5.5194465601615095e-01 -2.4536902139219334e+00 2.6023546856180559e+01 1.5075110274983949e-01 -5.5179532506710305e-01 5.1320122831781845e-01 5.6954010498972057e-02 1.7689652880061848e+00 -2.5267521610663995e-01 4.8944339693264482e+01 2.0452414698413690e-02 4.6212659350976737e-02 4.3880099234146719e-01 -4.7561674175325725e+00 3.2889121169108859e-01 4.6338479660207360e-01 3.4764353125688419e-01 -2.4075959630281334e+00 -5.2100031825854920e-01 -1.8658325869090424e+00 4.2821655857062240e+00 -6.8924070878587096e-02 7.1662637287931830e-01 -9.3285112784324253e-01 -2.5730656682688807e-01 -1.8691076568678979e+00 2.8173755771161058e-01 -1.1863284202934260e+02 -6.0819203615787382e-02 -2.4164174391545601e-01 -9.5306792323579281e-01 1.0753880253735641e+01 -5.6680482570935120e-01 2.8151744819166824e-02 -3.4773024509997175e-01 -8.8922740192606398e-01 4.9335342002420757e-01 -3.2291234524342181e+00 3.7152563904820752e+01 3.5640151222039096e-01 -5.8319735179727505e+00 3.0510204613855030e-01 -3.2347969883105510e-01 -5.9014715780026239e-01 -1.5423722460956102e-01 -1.1778087571156581e+02 7.4481033362749915e-02 -2.0572763072557856e-01 -1.1223121982765849e+00 8.7554341849912145e+00 -2.7721252708608513e-01 4.4673520197855865e-01 1.0076050592326591e+00 -6.1699659071943227e+00 1.3148052158280982e-01 1.2002671543245815e+00 1.2831850200454139e+02 3.6721800790882081e-02 4.6682684133998942e+00 -5.0913696974692246e-01 -8.2306798124958669e-03 5.5417544098680271e-01 2.8348869882216632e-02 1.5532393095386896e+00 -3.9789272898066469e-02 -4.8611038798070716e-02 -1.1192474233790353e+00 2.7216034233029380e+00 -1.3432073221744484e-01 -7.4521911748673952e-03 3.5463283320395234e-01 6.6396456530665775e+00 -1.3393437357113692e+02 
      </Row>
      <Row Index="5">
        -2.3388824303981437e-01 4.8096320907923307e-01 2.1334620969826119e+00 -6.0884200225839069e-02 -1.0080451316203276e+00 1.9552925028886488e+00 3.8104653881024658e-03 5.7627994451743692e-01 -2.9789196738426088e-02 1.2325851870123586e+01 -7.0238150430562016e-02 1.4190114517921265e-01 1.4051150578991400e-01 -8.9091768933632243e-01 -7.1175154759727355e-02 -3.6079601598447908e-01 1.5564057736190762e-01 -6.5872022507392103e-02 -2.8550287777819296e-02 9.3347892725725287e-02 -2.9831002000245443e-01 2.7651388279765765e-02 4.6044121438118141e-01 -4.9154202311499640e-01 1.5556045314071193e-01 -3.4132001501943354e-01 -5.9697077232632179e-03 -5.8416480139298370e+00 -1.8977993321824489e-02 -8.4971135031530393e-02 -1.4945970901675015e-01 -2.9299277828952031e-02 8.4989335383410552e-02 -1.4514103886153015e-01 -5.6835595319750576e-01 -3.2229938043604989e-01 2.0373169971335683e-01 4.2704244952060433e-01 -2.8231544297141227e+00 -9.5641981370491874e-03 4.9096017336845660e-01 -1.2865116186264949e+00 -6.6190152314197503e-03 -1.3390553713242942e-01 -1.4942098751341702e-02 -4.2336807083477126e+00 -1.7530208701133365e-02 1.4713779847489075e-02 -2.5742604757490950e-01 -9.4228276482535581e-02 3.7736679203041926e-02 -2.1924791797299581e-01 6.1997976299523572e-01 -4.2364821814890119e-01 2.0099314919540270e-01 -6.7792572262623718e-01 1.6396242832492867e+00 7.0127062804360568e-03 1.3507709146192608e+00 -3.6505030500993763e-01 -3.6708447629275054e-03 3.2395708414262997e-01 -4.2869727742321423e-02 -1.1404936207024354e+00 -2.9893284145695240e-03 4.7325829532260208e-02 -8.7351972721557924e-02 -1.3182386608676295e+00 -1.9519579640649227e-02 9.6140490722252669e-02 2.7702402896998862e-01 3.9565291342806019e-01 -4.5564249143970795e-02 4.3770486243636963e-01 -1.5724854032624380e+00 -1.3258235859105506e-02 -8.6734740477373917e-01 3.2909159487052203e-01 -1.4426662884543201e-01 -1.0004204919128548e-01 1.2251993390252525e-01 -1.2841944299418181e+01 3.9887229514393302e-02 -9.0959270040342322e-02 -6.4676777291636345e-02 8.9996436557030213e-01 4.9633066859178787e-02 1.1103546919883531e-01 2.0227690090267997e-01 3.9018843017834293e-01 -7.7063773422846316e-02 -1.5197228824159359e-01 5.3946978720193473e-01 1.1517625734972503e-03 -5.2807780996087283e-01 -8.1389145952867681e-01 1.7290784224685890e-01 -1.5667601842097531e-01 -5.1482580968482052e-02 -1.5160838605484445e+01 -4.8873443169327110e-03 -1.8134240463011791e-01 2.8384350175664430e-02 9.7387087163317854e-01 9.1568358441400932e-03 -2.1047989210699505e-01 4.6829486267430465e-01 1.2113925538484671e-02 1.6092320161679796e-01 8.3538377087520943e-01 -1.5820775344580298e+00 6.7746799484192516e-03 -2.9058630139392361e-02 1.3156036550563230e-01 5.3971495093084165e-01 5.1506111893551787e-01 -2.9204515662718013e-03 -7.1719478784969706e+00 -1.3728571473760720e-01 -1.5540656035978620e-01 -3.4028915519575709e-02 -6.7860590614671956e-01 5.8940455481459472e-02 -3.3334772981334582e-01 9.9338635372057449e-02 -2.3874288477648786e-01 -2.1218612528190828e-01 8.0299257603339935e-01 -7.9081060291620742e-01 -1.5030136123415533e-01 -1.3068584932522165e-02 6.5060216804967674e-01 -2.2764693266710312e-01 -4.1268582766572864e-01 -8.4441541054210062e-02 2.0792908482388775e+01 7.5956170461106295e-02 -3.5830011871760037e-01 2.7963993147931332e-01 2.6303463686787274e+00 2.1427264191645812e-01 5.8163224441503503e-01 7.3297175648434698e-01 1.0227673044138892e+00 5.9102373977872630e-02 1.1594628527388711e+00 -1.7438049072132614e+01 -1.3693497860688736e-01 6.5182238242743451e-01 -1.0539466560071276e-01 1.5435793896247840e-01 9.9829688010542331e-02 -9.5451241530032066e-02 1.1357798156626391e+01 -2.3061811927218456e-02 -3.8783804899777408e-01 3.1194096359395074e-01 1.6260269707870760e+00 2.7802081652608746e-01 3.1090124287907139e-01 2.1780780011779632e-02 7.3205747692544065e-02 2.6717188161314832e-02 -4.4150292234635191e-01 -4.5497217600993054e+01 -2.5928547632794192e-03 -4.6202862474890982e-01 6.3169049656444054e-01 -7.6708857871819205e-02 2.1692023071955702e-01 -2.2253982206787315e-02 4.4482646708417640e-04 -3.8332052748091365e-03 -8.7772426331968356e-02 1.5405156804330533e-01 5.7272935257171897e-01 -3.7163747827388786e-03 -1.1075540690057645e-01 -2.5454897560607148e-01 -2.6282770001353845e-02 4.5277478318860894e+01 
      </Row>
      <Row Index="6">
        5.8764017261808021e-02 1.1486805423853057e-01 -4.2631709980488495e+00 -5.2423814798117974e-02 3.2346354702589780e-01 3.8104661416168417e-03 4.7039288814716897e+00 8.4209881565050215e-02 1.6325936251623901e-02 -7.6711385934129765e+01 -4.6295847015877911e-01 4.6006529521664105e-02 -2.9936587955060134e-01 -2.2469721692364617e+00 1.5754065156221536e-01 5.5230591470404072e-02 -1.2882044820059946e-02 3.7052032995052286e-01 1.1037791949061677e-01 -7.2237475301857867e-02 -2.2665993460831872e+00 4.7499448228401964e-02 -2.1043281235765726e-01 2.1551200602207402e-01 -4.6774626036158556e-01 -2.7701150181872175e-01 -2.5247459643433939e-01 1.3791582862430769e+01 -3.3193489362922929e-01 -1.4050311725406668e-03 2.3727777049376764e-01 5.6951442876940983e-01 -1.5629439699524905e-02 -4.4124862468260279e-02 -2.2362114589665580e-01 1.6551609595082084e-01 -2.2582277835455272e-01 -4.8240802093277380e-01 2.3706835277962455e+00 -1.6209937367424515e-02 -5.5190309282281658e-01 -1.7789712739041305e-01 -1.0296169179417742e+00 1.4733380708744786e-02 3.0313221137276074e-02 2.5851959231983820e+01 3.1246383068831701e-01 -1.7157878719692057e-02 7.2350982912336437e-03 7.8079580573502982e-01 5.1754237698666827e-02 3.9959629857836187e-02 4.2285048921071233e-01 -8.8717083765215587e-02 -1.9465391724907277e-01 3.5650767741897293e-01 -8.9501657908664578e-01 1.0367856100712627e-01 -5.6527843752319407e-01 -5.4839144213124996e-02 1.5119247161225760e+00 1.9070699524540530e-01 -7.5911531107333619e-02 -2.3240440082724533e+01 3.1231371614207770e-01 4.1308147874333470e-02 1.3811037647575164e-01 -6.3002344358733642e-01 1.0444926654246994e-01 8.2731896043394260e-03 1.9665063517115561e-01 3.6404959135539272e-01 2.1855459376788444e-01 -3.3693107759497132e-01 3.2791993851833636e+00 -5.2805219492793737e-02 2.9217603349591259e-01 -9.4922163736356757e-03 -1.8392131317145186e+00 1.9327891089473295e-01 -2.1457948571835944e-01 4.6709627243224475e+01 -1.6283138910567796e-01 -4.3934107225518368e-02 -4.7578710328666096e-01 4.6139796887673251e-01 -3.9724295081356970e-02 5.2129555035765496e-02 7.4516011397367896e-02 8.3333763665650773e-01 1.3675052581624034e-01 2.2761109432501850e-01 -1.5203169024593262e+00 2.7715319703002339e-02 3.1953822066450999e-01 -1.6089149964058680e-01 2.5067369917740551e-01 -9.0876597206818177e-02 2.1292850303972301e-02 -1.0501585904257372e+01 -6.1571146365002427e-01 1.8036834076487340e-01 2.6752699506079824e-01 -1.3144071286932746e-01 -1.1422853524930668e-01 -5.0723722057294779e-02 3.2727601492893582e-01 -2.4029421533969142e-01 -1.9752834477587178e-01 3.2365407923372547e-01 7.7460734919695540e-01 -4.0800625478685598e-02 -7.2573856705659967e-01 1.8377020092260740e-01 5.5256435761507836e+00 2.8242090590367253e-01 -3.6872087045595631e-01 1.3781098042527216e+01 2.5049974242983120e-01 1.1992112913441332e-01 9.9217753323856878e-02 -1.0034370151777696e+00 2.4269144563561784e-01 9.4966979572135096e-02 1.5426668465114041e-01 1.8192338758997195e+00 3.9102551479993974e-01 -1.4171057441654606e+00 4.2110600031524861e+00 6.9739873948731046e-02 4.6615109994024329e-01 -2.8096784336346575e-01 -2.0458062881814616e+00 -7.4921626619840509e-01 4.1108436464306553e-01 -3.6720367238328599e+01 3.5648478800361338e-01 1.5479486956047173e-02 -2.2445971596288172e-01 2.9184546775100482e+00 1.1186250857475100e-01 4.1827174094545796e-02 4.5278914719493191e-02 6.9953811810932365e-01 1.1287461891997913e-01 -8.9492115040984999e-01 -6.0450193024807675e+00 6.8052914120129870e-02 -4.4734837936719701e-01 -2.7422907839485855e-01 3.9207987800495099e+00 -4.7207898382734426e-01 -8.1902163530190641e-02 -3.2315846300413384e+01 4.3863488524000083e-01 6.1264174096472279e-02 -2.6531813381774305e-01 1.2764518742488546e+00 4.1115112796236025e-01 1.4680506889805583e-01 -3.1231292669731792e-01 3.2264596993331942e+00 -3.4735962056281773e-02 2.9476015125269123e-01 -1.5562754169211312e+01 2.0904129886291273e-02 2.4127039607947059e-01 9.8789738406219407e-02 -1.1126715868132346e+00 1.3707200633085626e-01 4.1704901177831044e-02 1.3204920479484226e+00 9.0487810085212728e-02 1.1545290324126267e-01 -1.1401260121866952e+00 3.2309274699008672e-01 2.2572364606920609e-02 -6.1557206051938151e-03 -1.6592326770847118e-01 -2.2629070744383362e+00 1.8677633395745925e+01 
      </Row>
      <Row Index="7">
        -9.4938295395877503e-02 -6.5290655884847304e-01 -4.4565012160283004e+00 -4.8218149884814920e-01 2.3196117338149698e+00 5.7627994685149986e-01 8.4209884229676901e-02 1.9297444052220627e+01 1.0384770008084294e+00 -3.1891913763166309e+02 3.8627794395523218e-02 5.7423166222347888e-03 -8.2223257923853288e-01 -1.6406265668072493e+01 1.1794475766712903e-01 -9.6370034012892902e-02 -9.9326708028343091e-02 3.3543120077083586e+00 2.4044223233304496e-01 3.1130590860241936e-01 3.3806670558728960e+00 4.3486129241547777e-01 -7.5005992425770462e-01 -2.1422325939980502e-01 -1.1693385058217209e-01 -1.1589657161125263e+01 -7.6692271724758876e-01 2.6844277252023363e+02 1.9123849573258012e-01 -7.0659430915450350e-02 7.5205882326166584e-01 9.9523993436698976e+00 -1.1492797827572221e-01 6.0178215415478720e-01 -3.3422382511718396e-01 -3.5451179015975569e+00 -1.6501316986974757e-01 -5.0346524610217058e-01 4.9574297228173236e+00 2.4213944509347260e-01 -1.5796240410197848e+00 -4.0513251732706923e-01 8.8078397898662564e-02 -6.1085186572133763e+00 -2.0042149963870673e-01 1.5136157357850476e+02 -2.5610397638198057e-02 7.7321993020215807e-02 2.7154208002831259e-01 6.4653664986827124e+00 -8.2108812240258233e-02 3.8426556733082357e-01 4.3286043612384939e-01 -3.9926312954597680e+00 8.3558460465637641e-02 4.8148258809646016e-01 4.3469107596331185e+00 1.4459758283999385e-01 -2.3494090040760840e+00 -1.5870854500063963e-01 4.1635136782806342e-01 1.0594208369408046e+01 -1.4023664237649947e-01 -2.7796344546232399e+02 2.1480604324981778e-02 8.5064521022344297e-02 -4.5212116048205220e-01 -4.6062186391702689e+00 1.6365180530586776e-02 -3.6278538714064867e-01 1.3292142989860722e-01 3.3851475182679884e+00 -3.4368492959182706e-02 -3.9030636760780912e-01 -6.6202210935278032e+00 -3.7625297993268325e-01 9.0618701826335468e-01 9.0614542392506825e-02 -1.2558244048919051e-01 4.6796554711603218e+00 5.4022590899173561e-01 -2.1008762551933660e+02 -1.1799174532675649e-01 -1.8054699234206853e-01 -3.9257731011676636e-02 -4.1564836900993996e+00 2.0990173417383684e-03 8.2523748797591445e-02 2.5712126176889583e-01 5.8373502681764720e+00 -4.7478562055039975e-03 3.4800813910184336e-01 -3.0813152070404612e+00 -6.2932225182796286e-02 8.4583063397706759e-01 -3.2741828362074199e-01 -4.3904668933939905e-02 -9.2999988447061732e-01 -9.0239126572133288e-02 3.3830035365465505e+01 1.0410251762359685e-01 3.7059843309603152e-01 -1.0560824601042129e-01 1.2664506407154099e+00 -2.1586931123533049e-02 3.8188532577345224e-02 2.6347961417283916e-01 1.0261546570917517e+00 -2.3924056725650716e-01 5.2753437769882700e-02 4.8961462203154777e+00 6.3158670132533823e-01 -3.3293655886953433e-01 2.7209726290672726e-02 -4.0754260976659806e-01 1.3197292974558978e+01 -3.7732129406098491e-01 -1.4674386180995074e+02 2.2715703332760284e-01 8.3526665198122602e-02 -1.8018831315288830e-01 -5.9710116795687043e+00 -4.3175145307132790e-02 8.3936358513572273e-01 9.8708521891544748e-02 -1.3878045074332945e+00 1.8018159409310841e-02 -4.6526478956145576e+00 -2.4621337407572454e+00 -4.7833596160754843e-01 -1.9889805391069983e+00 2.4357423167144709e-01 3.3688417806652615e-01 -1.4375937683837073e+01 2.7217529351190128e-01 -4.9551474559194929e+01 -5.2166996949875322e-01 3.4045762163287585e-02 3.3867888340977226e-01 6.2530475814344104e+00 -1.7601229008315133e-01 -7.3006166235434988e-02 1.3294613456794839e+00 8.2693643242525141e+00 -1.3209845371214390e-01 -4.1140214051399715e+00 3.6348875633717967e+01 -9.0146003236881711e-03 -4.0264539800963153e+00 -1.1273752781528576e-01 1.9301049733844317e-01 8.0074405402960647e-01 -1.9748687977901724e-01 -2.9458070385136932e+02 -2.5852939009851905e-01 -1.6311822193683767e-01 -3.3195566795060838e-01 5.6268768326153062e-01 -2.1131964267090109e-01 6.8738027627076459e-01 8.8276137642837638e-01 7.4779661106587447e-01 -3.7275599584791042e-02 4.7239594684536645e-01 1.0502234137869821e+02 -3.0711904193134132e-02 9.5775935099625020e-01 2.0156946129360553e-01 1.2576020785477787e-02 9.1670302257200031e+00 -9.9420765665225730e-02 1.0320834933339372e+01 -1.5715325830749916e-02 1.2044537344440465e-01 -5.4974354239041012e-01 2.3152738844691614e+00 -1.8918408766440131e-03 9.9741581291247883e-02 -1.7465504159331788e-01 -2.9791617772991188e+00 -1.0130753553181010e+02 
      </Row>
      <Row Index="8">
        1.0443142989098209e-02 2.7593568929750900e-01 1.1568857626318412e+00 1.4226504288681041e-01 4.1077082438158316e-02 -2.9789196229222124e-02 1.6325936450082311e-02 1.0384769996292631e+00 8.9036893429324304e-01 4.7081973139123967e+00 1.0533387915336465e-02 -1.5475084188311533e-02 -1.5725899577364277e-01 -1.2406691752031529e+00 -2.9822538749202706e-02 -1.7827601158471984e-02 -2.8192186753196458e-02 -1.7860482976307708e+00 -2.2855111786787815e-03 -1.5109077943183108e-01 -3.9966010773896410e-01 -7.9493014712623489e-02 -7.4084501891427804e-02 2.4640235095807816e-02 -1.8521211331924733e-01 -5.4413372133478810e-01 -4.0224715624893020e-01 2.7283969581810634e+00 -2.1304101189915679e-02 8.3571270205659576e-04 1.5205742854946935e-01 8.8398616106090377e-01 1.4908827441498240e-02 1.0188091236519453e-03 -2.9806073501593807e-02 1.0578545984251528e+00 -1.1453364795302290e-02 1.1498142751421431e-01 -3.4205474220588883e-01 -4.8287892405451914e-02 1.0734131955320497e-02 -8.4823628534399245e-02 5.3868040952376017e-02 -2.5449246449740143e-01 -1.1588017642912678e-01 6.7958126366057936e+00 7.5310313100215645e-03 -8.3919262523552210e-03 7.8606003061970353e-03 5.0688805734150777e-01 3.2886978479416157e-02 2.7834432596751391e-03 1.5575603520490658e-02 -7.5921173896114524e-02 -6.4263260652503387e-02 -1.9320773837700361e-01 -2.0010857092259471e-01 3.3906197361549717e-01 -5.0133286582659808e-03 -4.6987710851770684e-02 -3.4212491401251321e-02 1.3570200036071656e-01 -1.7734828555982968e-01 -2.2850162268616963e+01 -4.4045115340469655e-02 -1.5494252904868042e-02 -1.7863986297019796e-03 -1.5906367775444470e+00 4.8612582968608764e-04 -1.3438404550613597e-02 -1.4334202690803322e-03 -5.4839141068309027e-01 7.1538313045475407e-02 -1.3258093752554501e-01 2.7113570287086119e-01 -1.2364165544831714e-01 -2.9450374201218271e-01 4.6154946139733172e-02 -4.0930771464406185e-02 5.6682753460274582e-01 5.2551673156531664e-01 9.7674213034983914e+00 2.6132376478335273e-03 -4.1458997606560744e-03 1.6811305978880009e-01 5.3577520330738604e-01 -3.6068283445403353e-02 -2.8270544695362110e-03 3.4066796266502303e-02 1.6041370828751829e+00 8.7637196217787428e-03 5.6784469972014973e-02 5.0469013578825184e-01 5.3620272371501562e-02 6.3321780995887339e-02 -2.3705946169878228e-02 -3.0175447389627200e-02 -8.0202783938595298e-02 -7.1158803444439200e-02 -2.1373558439171632e+00 -1.6020636269659674e-02 1.5154343763565770e-02 -3.4632725181628077e-02 -6.4032789105675003e-02 2.9458883458292340e-03 -3.8352285737901795e-02 3.1358944708063954e-02 -6.6478052185276937e-01 -1.7068197682991094e-02 5.1717079302613878e-02 -2.5742280973974663e-01 -9.2219369713078328e-02 -2.3292756056163641e-01 1.3169345500540955e-02 -5.1026688396535369e-01 8.6126937789455804e-01 4.2877855086113265e-01 -4.1413841108127913e+00 -3.4921198645125329e-03 6.3227155176742086e-03 6.8080067687291301e-02 1.8322876511884267e-01 -1.2250549986853085e-01 -9.4790973180186311e-03 -3.4285783574673247e-02 -1.2373472471660261e+00 4.8758008250239460e-02 -2.1887829563286276e-02 -7.3495556149429220e-01 -1.6203435795118939e-01 -4.1190321255640794e-01 -7.9289995659846513e-02 2.0861338146848532e-01 -8.9925045472715737e-01 -4.5576705894101663e-02 -2.9447547391710782e-01 6.1782630987475468e-02 -5.7510826390229808e-02 -2.1922851731241977e-01 9.5452577742319922e-01 -5.3142031631931985e-03 1.3620989217593782e-01 1.6335550248210395e-01 3.3702790823694961e-01 1.3750163804917115e-02 8.2907778254325548e-03 6.7453445800119027e-01 -6.7898667244846389e-02 -5.8856018616972006e-01 -1.1313791561119754e-01 -2.8551371550747412e-01 -1.5027306692256986e-01 2.3756717233901536e-01 -1.5049526802903275e+01 1.9556526804986762e-02 -6.9681277491163263e-02 -1.3991047195227058e-01 6.2327979253974519e-01 -1.0909835190172629e-01 1.1719092518771151e-01 8.1901167145160159e-02 -1.2320020638150719e-01 -2.6117729328846012e-03 -1.2311121664046350e-01 1.5401214081434298e+00 4.7168689809679101e-02 1.4778853769467970e-02 3.0455928158554857e-02 7.0838220534574323e-02 4.2193313055429332e-01 -6.6937539774880553e-02 2.7300434736382612e-01 2.5007572411009414e-03 -1.0341018660242618e-04 6.8144648481423126e-02 4.5712962640951854e-01 4.7172202497628990e-03 -7.8552734525286216e-03 -1.5829122321710135e-02 -1.4534628620579637e+00 -1.4562756475722696e-01 
      </Row>
      <Row Index="9">
        -1.0745349167129461e+01 1.9509323519374249e+02 3.0932619659733609e+02 1.1259592661277566e+01 1.4970504481585218e+02 1.2325851816392497e+01 -7.6711386011934422e+01 -3.1891913769789119e+02 4.7081972759297059e+00 3.0322833055084058e+04 -5.5862873394311752e+00 -3.5480791667153735e+00 -6.9524726226227358e+00 -2.9145956173663507e+02 6.9608752917300016e+00 6.8064720931056186e+00 -5.8697558247513371e-01 -1.5516686038300395e+02 8.6302934214965488e-02 -2.5667659552700027e+01 -4.0191183774631634e+02 -1.6400666186077864e+01 -6.3020123876470777e+01 3.9508876167999589e+00 1.2383169112328005e+00 2.2095433159012262e+02 4.6213381427983347e+00 -1.7773436682955224e+04 1.0696608657696302e+01 6.6907679022008804e-01 -9.1244330286998832e-01 2.9894719264826684e+01 -2.3998806530452690e+00 -1.1678789202861530e+01 2.4709755050126070e-01 7.8371601547091473e+01 5.5454739505225241e+00 1.6981511378293959e+02 1.4605707365949638e+02 -5.4029064946391729e+00 -2.7917707936726821e+01 -1.3224882324395068e+01 2.2275997349555738e+01 1.6200168649089301e+02 5.7014037613516031e+00 -5.4282551986396829e+03 -1.6351968198775211e+00 -3.9742947178002210e+00 -1.2164409637671872e+01 -4.4891816584787378e+01 3.5500228092577792e+00 -1.5213926807397555e+00 2.9209518937441743e+00 2.3472459186088599e+01 4.8596362917398093e+00 -1.6684855238051173e+02 6.9387068321027982e+02 -7.5268722694123369e-01 -7.8193125064734758e+01 1.1263155642176153e+00 -5.8488684319029645e+01 -2.9922529546711166e+02 -1.0997061296090514e+01 6.5503356076307173e+03 -3.7382084602857919e+00 1.3395689065104506e+00 1.3220956103608863e+01 -1.6976048032333961e+02 -9.2738111574919220e+00 1.5231652616854490e+01 8.9029169657501050e+00 3.2489736049851672e+01 -3.9550653002639216e+00 1.0842010870070294e+02 -6.1425875614628035e+02 7.1814703199626511e+00 5.3745332515968627e+01 2.4979860858771019e+00 4.1559710326803199e+01 -2.2757126709062933e+02 2.3502126319200116e+01 3.3477790412967488e+03 5.8979250369282212e+00 -4.1817140474483683e-01 9.3652725173024027e+00 7.7756800464708647e+01 3.6517610129903129e+00 -5.7148943193224344e+00 -2.8717497262401057e+00 -7.5584786690718829e+01 -4.6678251345881083e-01 -4.3215680535950874e+01 -3.0537198970862664e+02 -1.7467104162816725e+00 8.7948364772967800e+00 -1.3234160692088775e+01 -2.6607674443172158e+00 3.6165970362114592e+01 -1.7392332799345931e+00 -2.8653876299512240e+02 1.1174295325313786e+01 -1.1380410005275438e+01 -1.6463008066909822e+01 -1.3951858275540788e+01 5.2784106585950958e+00 6.6644274025137342e+00 -3.5420651937726397e+00 -1.8375300747502024e+01 -1.3112055514388272e+01 -4.0585723221842827e+00 1.4006449662785985e+02 -2.7454097019391668e+00 3.3023267537042692e+01 4.8717928233511838e+00 -7.5006062948457483e+01 -3.3393189907335449e+02 1.5590411113329100e+01 9.1990142464890178e+03 -2.5173703885935201e+00 -8.3537598676348637e+00 8.8139615783514813e+00 -6.4921746240670632e+02 -1.0305480327303428e+01 -3.4994539959126243e+00 1.3272318758577363e+01 5.0880476314210682e+01 6.1680238655930566e+00 3.2318901521922709e+02 -2.0903951670144340e+02 1.5177739578177167e+01 1.6583311598648059e+01 -4.1765320270171522e+01 8.4344767744097794e+01 1.9274476516683174e+02 -9.0916617478621760e+00 -6.0447485131114518e+03 -2.8626578014297248e+01 -2.1224210844460828e+01 -3.7196793496905485e+01 7.3862820782017741e+02 3.3330114209488883e+01 -1.1265921506726635e+01 -3.3762246365323776e+01 2.3452913164280744e+01 -1.7502258696911372e+00 2.4148959283301753e+02 -1.9930773013874314e+03 1.5163958089477131e+01 1.7811333604661854e+00 -3.9347524553612118e+01 -2.4836825086274843e+01 -2.3204950742724384e+02 1.4601315897937397e+00 2.4900553799680642e+03 -2.4236211341202363e+01 -1.7864007029482387e+01 -3.3318027861874327e+01 1.7513262894297600e+02 1.5093242899721075e+01 -1.1201561087370919e+01 -1.8194943639812436e+01 5.9483797227387640e+00 1.1584084195984812e+00 -1.5567435392040835e+02 -3.7433979257473047e+03 -1.0628225891676464e+00 2.3706360483765586e+01 7.9792771762740351e+00 2.4193084108238928e+01 -2.7574764690679558e+02 -3.8583551186007128e+00 -3.2406291943467596e+02 -1.2748845344373922e+00 -3.3327092343000460e+00 6.0468323996147100e-01 1.8419226849029380e+02 -1.4018023234881980e+00 -3.8500624068307410e-01 -1.2495172907279986e+00 1.2157681807352003e+02 3.6224780135990654e+03 
      </Row>
      <Row Index="10">
        -7.1817492597006094e-02 -1.2595618110981227e-01 -9.9961734313183115e-03 6.4829175929162375e-02 -6.1696093783866535e-02 -7.0238150642511155e-02 -4.6295847102974746e-01 3.8627792405876576e-02 1.0533387387226867e-02 -5.5862873009137264e+00 1.3973435101839247e+00 5.9832971916126937e-02 -1.4687277377106511e-02 8.4984786085874819e-01 2.2020064473829995e-02 -2.2292292098336475e-01 -1.3823636757820168e-02 1.0097679150057957e+00 -1.2185272020642514e-02 2.7044529851539451e-01 2.0056641967112618e+00 -3.2983359332529431e-02 1.3658384620922502e-02 5.0901161046552137e-02 2.0025667779057965e-01 -6.0426586154853149e-02 -2.9387302228083386e-02 3.6096745934796295e+00 3.1677487811595434e-01 1.2046221632869458e-01 -1.4676072869481849e-01 2.0597816175201758e-01 4.1348312787831944e-02 1.7925463972041550e-01 1.4771757764487214e-01 -9.6046336837542512e-01 -8.4649351033671272e-03 1.2923396268501836e-01 -3.4317764697989332e+00 -1.4158412731703679e-02 2.8715396423084555e-01 3.8923406120768611e-02 4.3244770737243102e-02 -8.6905058435561108e-02 1.5283688275679080e-02 2.4884930285638429e-01 -5.1557051305491663e-01 -6.3114560085935027e-03 4.9298653313570390e-02 -4.2066111114057586e-01 -1.1283792492112117e-01 -1.0194008187575629e-01 -1.3825929000387391e-01 -1.2151923918353713e-01 -1.1909064107087194e-01 -5.9168174268448663e-03 -7.2733778352641032e+00 4.9245065195521326e-02 4.2273721597158487e-01 -2.2954514565954036e-02 -2.1811212931182722e-01 9.5032284643415760e-02 -3.5896139097676388e-02 -2.5300486800339490e+00 -3.9103902263377055e-01 -5.5400959567020153e-02 1.4468784073596086e-02 -5.7751266882205643e-01 -9.6176933100611428e-02 -9.2862693140963154e-02 -6.0713333433739664e-02 -5.8106095089479837e-02 8.4833750188367835e-02 2.1163589228264931e-02 4.7420600864695217e+00 2.3564911832543667e-02 -3.4162168302541474e-01 -6.3301524986170074e-03 1.6492115197098320e-01 -1.3577249399432941e-02 3.5544472939282451e-03 -3.2240034443017835e+00 8.3032369826086527e-02 5.6753215936350687e-03 -4.9652652379928858e-02 -6.5654988630066968e-03 2.3279036774737426e-02 5.6673064663217101e-02 -4.6113111118709672e-03 -1.4217882331751142e-02 -4.8441748146775376e-02 -5.3223128356012270e-02 5.7785225521547545e+00 5.9188717365131621e-03 -3.4212102425922181e-02 7.9826861461099755e-02 -1.1679055246524872e-01 -1.0937163386088265e-03 -2.8391610842334165e-02 1.8202720807140249e-02 8.9613010919823677e-01 1.6010465303617463e-01 6.4445756913058982e-02 6.6710546364192691e-01 1.4084398741449947e-01 -1.0619336058344379e-01 5.2344984367754616e-02 -9.1214301048645474e-02 -5.8231430958915115e-02 -9.7671807545444272e-02 -5.9389560768178278e+00 -1.3400562094337168e-02 3.1998336164029983e-01 -9.7627320430317729e-02 -2.6439478602406113e-01 -1.7952219127991324e-02 1.8946822494100603e-03 4.8399143398275157e-01 1.0663291956053972e-01 6.7935089614666058e-02 -9.9608031556566015e-02 2.2496047387204565e-01 6.0857320975206734e-02 -2.0537339327200810e-01 -8.7164275442643047e-02 7.4095792968016383e-02 1.9944391002956077e-01 2.4668817646684438e-02 -1.5123178100541477e+00 -1.7003339354720959e-01 -7.1678354738037742e-02 -8.2315335897964761e-02 2.2829574496600646e-01 -1.2232203890567246e-01 3.8516512583693513e-02 -2.7537855105090019e+00 -6.1828951056340209e-01 -1.0770235090849169e-01 1.7568471572968036e-02 -7.5493707668581378e-01 -1.2815961238939930e-01 -1.8071030778281403e-02 -2.3382695583392898e-01 9.7250569949751409e-01 7.3316588634041044e-02 1.1238078074246169e-01 -1.8039874499728011e+01 -1.2631762402513297e-01 4.8662587728707951e-01 -9.2083099616766223e-02 -6.9708215974815468e-02 -4.5545241554842630e-02 1.5552942913271126e-02 -1.1916763684014540e+00 -2.8513653879170947e-01 -1.1051161937280977e-01 1.1544675456157671e-02 -5.7532684012561719e-01 -1.1986519363523046e-01 -1.9095953698833373e-01 -2.0308311572471094e-01 1.0823293684041451e+00 -5.3770990374456540e-03 -4.4459728294870930e-02 -4.7926547200475746e+01 1.1108488154179991e-02 -1.3573865073657812e-01 -2.4440888109251879e-02 5.7587394107197057e-02 4.8942128604564761e-02 -1.6199396672810229e-03 1.6291205323446065e-02 -1.1287822404248676e-01 4.6700957347692099e-03 -2.5440262544044667e-01 -8.7530626542482046e-02 -1.7566790493784307e-02 -1.7863571763320263e-02 2.7671601526154537e-02 8.1542191746224874e-02 4.8045134684989435e+01 
      </Row>
      <Row Index="11">
        -5.7756797363644807e-02 -2.5833001958927443e-01 8.1076451914208292e-01 1.9130385976822595e-02 1.4187957135223361e-02 1.4190114572424206e-01 4.6006529560629325e-02 5.7423148270905056e-03 -1.5475084304057418e-02 -3.5480791143769199e+00 5.9832972530074358e-02 5.5499513024603220e-01 -1.1763444759822050e-02 2.9141009326816147e-01 -5.5250877616135230e-02 -8.9103812170890251e-02 6.5126552912062152e-02 7.8487888559720886e-02 -1.7429783348509219e-02 1.1234048878254967e-01 -1.2187351810678215e-01 -6.3836164990488040e-03 5.8998026596530778e-02 -4.0572486711425423e-02 6.7793896040490909e-02 -6.5069308459809183e-02 -2.3566367150061125e-02 -5.9089581038280148e-01 -4.7164162303553088e-02 -1.8604394791320780e-01 -1.2021386299381349e-01 6.4488184457727082e-02 -1.4983097582543375e-02 1.6532407838037702e-01 -2.7383268292611229e-01 1.6232047654269444e-02 5.0205408693567877e-02 1.5550950358043977e-02 1.0088982045574539e+00 2.6519708982008030e-02 1.0376704777246859e-01 8.9736671592056949e-04 -3.8341901871977863e-02 -3.0716622298779403e-02 -1.8677778608496912e-03 -1.0377984043082604e+00 2.0649863063715097e-02 -3.8594193988633611e-02 1.0165162251358856e-02 -2.1787881498369147e-02 -9.8422748285339853e-02 1.4232989274973354e-01 3.2547691407997559e-01 -1.7574212255841926e-01 5.6755050043820962e-03 1.0219681188480903e-01 1.0678543622673153e-01 -7.1047856445495994e-02 9.1850166406447775e-03 -3.2714334540447351e-02 6.1155815301757219e-02 6.7272776712550553e-02 5.2937746520971413e-03 1.7497940845182161e+00 -1.9437102520941794e-02 -2.2937097295717898e-02 1.3352878610556632e-02 -7.5679264520761991e-01 1.0390630608060690e-02 -3.6512168744296886e-02 1.0935800453483147e-01 1.0465161850796303e+00 2.3635852484454437e-02 -1.3637580233788443e-01 -4.2681714734747311e-01 2.6553464196267702e-04 -2.7318108734238691e-02 -1.0676163626772249e-02 -1.0082190500033789e-01 -3.3679545212931268e-02 6.0333894803187293e-03 -4.8044475558417887e-01 1.3222172976317899e-02 -9.4592710618965903e-03 -1.6625952846604686e-01 1.1797268438354123e-01 -4.3270779418766864e-02 -1.2718998937559711e-01 6.1870023782465144e-02 2.0763846474504222e-01 5.0337092246911574e-02 -8.4500585457527366e-02 -1.9479227700821866e+00 -2.8545785953069475e-02 3.5401117670591925e-02 -1.9258669357222669e-01 -3.2150746285952360e-02 7.4338438086483868e-02 2.1374386925686491e-02 4.1978621046246811e+00 -1.7163602599532035e-02 3.5491135362012438e-01 -3.5121607640498598e-02 9.2691359659233197e-02 9.2066027314431198e-02 -4.9173505449983668e-03 9.6943251570763167e-02 1.8092558724389196e-01 4.3075673928111402e-02 1.7589734515688071e-02 1.5168065586593551e+00 4.5458614250115006e-02 -3.0953790187542560e-02 -6.5254391345783785e-02 2.5326379452052283e-01 -5.6774573044745757e-02 -1.2259235323400751e-02 5.8181046503522253e+00 9.9763626369126973e-02 2.2172897147052306e-01 -1.9146922022949270e-01 -7.4182932201712704e-01 6.7883174050618916e-02 5.5313282860178989e-02 -4.7006997597022926e-02 4.7160139982157800e-01 2.2340970779233751e-01 -1.0609798689644695e-01 1.4729455300415677e+00 1.8983049168726406e-02 -2.0996222924313808e-02 -2.0664429531694711e-01 -1.6261004867735315e-01 -5.2220056517831931e-02 4.6246393192263612e-02 -1.6802091815116022e+01 5.7681292859596563e-02 1.5800817536196410e-01 -2.0807837914452088e-01 8.2144359539100575e-01 -2.7639706790126839e-03 -4.1379470496541693e-01 -2.6367909038949700e-02 -2.5618258488109902e-01 2.6225229741885381e-01 -2.0335315333642412e-02 -2.8434928564145672e+00 -7.8355182772071319e-03 -6.6613787677882730e-04 -3.3866707773076504e-01 8.8724782906584448e-02 -7.8198563577329322e-02 3.0011856525228031e-02 -1.1556810695432508e+01 1.0265939663432927e-01 1.3719878729727591e-01 -4.4783275613148543e-01 -2.0520927063252759e-01 3.8528217073334994e-02 -4.1151581034047918e-01 -4.5421896095047831e-01 5.1948323936746288e-01 5.3059176973328410e-03 5.6013811300156001e-02 -8.3699157989127251e+00 -9.3489471908762209e-03 -2.4470796956155463e-02 -2.7348113827442011e-03 -5.6947967699289455e-02 -1.1881728318186246e-02 2.3246689385636454e-04 2.0890004384002459e-01 6.1246229833006056e-03 1.8846268788924778e-01 -5.2992506904440706e-01 1.4360160605876962e-01 -2.3861580056892172e-02 5.4009390039839643e-02 -1.1596969137070522e-01 -1.5349409420122921e+00 1.0360852716796522e+01 
      </Row>
      <Row Index="12">
        -3.4044128817168939e-01 5.7084699697172414e-01 8.3521575095255685e-01 3.6742728526974133e-02 -1.3636012557635274e-01 1.4051149792794604e-01 -2.9936588192179936e-01 -8.2223255893116642e-01 -1.5725899534237442e-01 -6.9524732293823419e+00 -1.4687285940681249e-02 -1.1763446158464589e-02 1.0396332458500183e+01 1.8346459129401156e+00 1.1670940009618125e-01 -7.2195112608142153e-02 1.5625169798647676e-01 -6.1690422822721303e-01 -2.4144074592748407e-01 -4.8089855296019807e-02 1.0497810542867401e+00 -3.5773225876971695e-02 -3.7224452350403592e-01 9.0932082361381950e-02 5.8081381107303776e-01 7.3681294672965289e-02 4.7357206408733227e-01 -8.2917928557363378e+00 -7.0619832643742275e-02 -1.3248274633881474e-01 5.9151405014185732e-01 -1.9885325395592290e-02 1.4148901360312327e-01 4.9012024973076732e-02 2.7830644599439058e-01 -7.4031878958925512e+00 4.1420261223919763e-01 -4.9650893432034959e-01 6.0132594085007440e-01 3.3714187923157370e-02 -3.7495983885246442e-02 1.0437517202569830e+00 1.2209741197939367e-01 8.9071793575114896e-02 -4.3221829802760625e-02 6.7021947660599084e+00 -1.0753060346141666e-01 -7.1865744669447729e-02 -2.6312070266468051e+00 -4.3869780505487721e-01 -1.0445681606070178e-01 -1.0539957511827125e-01 2.3885135259155643e-02 -9.9971661593632000e-01 4.5185463624992672e-01 4.3286863821987959e-01 1.9250059143903151e+00 -2.8694845584480483e-01 1.1737215638679490e+00 2.6617842470035102e-01 -3.3780094615001915e-01 1.3660019697924475e-01 2.8628710872009988e-01 1.0309995970586705e+01 -4.3386364241000064e-02 1.0865873989895614e-01 -1.6331436051659962e+00 -1.5697802754417716e+00 -1.6874564249156801e-02 -1.3982503736259977e-02 -1.5876810669200336e-01 2.1876925533531395e+00 -4.1900768063309757e-01 -3.1297873174148977e-01 -2.9418104378368071e+00 2.3039018286019883e-02 -7.4544268227012345e-01 1.3955700533546242e-01 5.0442983396837793e-01 -3.5256237145251845e-01 -4.0583168961759664e-01 -9.2044206516482259e+00 -1.4210521004154827e-01 -1.4873537949027493e-01 4.5088608861919628e+00 4.1640513949662139e-01 2.4048454928835367e-02 6.8583779161795966e-01 -7.4891064542215835e-02 -9.5072577535577345e+00 -5.0135747558745530e-02 3.2704587618239106e-01 -1.9374325061144191e+00 1.1141843309289245e-02 -7.5314384117242561e-02 5.1088198185912481e-01 -1.6241691606854181e-02 1.3462192206113482e-01 -2.3563909415484044e-02 6.8347053918451817e+00 2.2175059022499616e-01 -2.0469601073730517e-01 -4.8175723805082100e+00 2.7854133230514422e-01 -1.6221469756891094e-02 -3.4485044251963609e-01 -5.7316642930104786e-02 3.5058810072146991e+00 1.4839877515944905e-01 -9.2966212882615484e-01 2.3359876255107861e+00 5.2914454616345974e-03 -2.0975151838068953e-01 6.0916389059194198e-01 -5.6232395947049107e-01 -7.6125262332551558e-01 -2.1674006133736753e-01 -4.0426041773725920e+01 -4.1498498011799340e-01 -3.0187974417850638e-01 4.8374962415280383e+00 7.6276698247651464e-01 -1.9560924369679250e-01 2.6672841088328236e-01 3.3142237498479388e-01 -4.8581605504970993e+00 9.5118060793018822e-02 -2.0566903591842718e+00 2.9424087236671221e+00 -3.3826008586087586e-01 1.8515238301770598e-01 -3.3528472247292007e-01 -1.6972855753134597e-01 1.1238780884303683e+00 -6.8171009693741014e-01 2.8079256826517298e+01 2.4877018111039545e-01 1.2259110840882446e-01 3.9654530086670428e+00 -1.3209835732388830e+00 4.3487396047748816e-01 4.4241005168135727e-02 -3.4311723908671177e-01 -1.6024510949340467e+00 3.5528521618446635e-01 -2.9562799098826602e+00 4.6269584691400905e+00 -4.9467981824962393e-01 3.5711197840522679e-01 6.5137280233452777e-01 -5.4707654940753214e-01 5.1540258010291884e-01 -6.1704960820385835e-01 -5.9294957411612028e+00 -1.8622698173784596e-01 -6.2808490146185669e-02 7.3336004861329407e+00 -1.4094150232740761e+00 3.3215889996072168e-01 6.1764406368749758e-01 5.3860869550103940e-02 -2.1278993173181384e+01 6.4518073548152519e-02 3.7765422277816324e-01 5.8797519422932574e+00 -6.1406800212834151e-02 -2.2200029274176108e-01 -4.5914863846997112e-01 1.0067795151981623e-01 -1.6116566222586398e-01 7.3137667432242509e-02 -8.1169839339246252e-01 -3.7946018119619937e-02 -9.9923684656461120e-02 2.8258236538096671e+01 1.4906462226661465e-01 2.7406325452347807e-02 -1.5773579409612806e-01 1.0134469756122974e-01 2.5779267758720163e+01 -5.9377632714464092e+01 
      </Row>
      <Row Index="13">
        -1.4728555214901462e-01 -8.8190779311577998e+00 -3.0260507938783121e-01 5.6737982786080465e-01 -1.1739374586802906e+01 -8.9091769706919877e-01 -2.2469721765938555e+00 -1.6406265663073746e+01 -1.2406691780765868e+00 -2.9145956205379832e+02 8.4984785387860029e-01 2.9141008839309346e-01 1.8346459664353461e+00 9.8904578277200869e+01 -1.8825699688751157e-01 -4.6184304222606443e-01 4.9098384035733034e-01 -2.3916678556124680e+00 -2.7632582722299043e-02 2.1775862577331262e-01 2.0215449459928045e+01 -8.0541879010110973e-01 4.7441420615849248e+00 -5.5296769114779931e-01 1.2901607492288729e+00 9.4332838133469661e+00 9.9640934038551821e-01 1.1893746300145821e+02 1.6513131785005741e-02 -7.0192673006658879e-02 -8.6281772345600072e-01 -5.0690388307591824e+01 -3.2867754642949554e-03 6.6189488038100652e-02 1.0129319373265444e+00 3.8620102589031902e+00 1.0517859364580817e-01 -5.1551161975296713e+00 -1.1557233949584770e+01 -4.3323237459842012e-01 4.8842058590222592e+00 1.4085740929274451e+00 -1.5693839004001608e-01 3.2970147677356914e+00 6.3860066128079818e-02 -2.0098746419565501e+01 -5.9330567110731813e-01 -1.8271943135366800e-02 2.2379189336071637e-02 -1.3271122590356228e+01 -1.3901592863854617e-01 -5.8102832144711569e-01 -2.0283042092106269e+00 6.8493375492708140e+00 -3.0051616072916632e-01 5.6657508274077433e+00 -4.6645720810667285e+01 2.1420281740521290e+00 1.1062864350207745e+01 1.9037215525457979e-01 -1.2850764521841738e+00 -7.7470900293513560e+00 4.2839937215614743e-01 -1.2559468508415603e+02 -5.6493742314616124e-02 -3.9285425707275667e-01 -4.3185010957273651e-01 8.0226166256477498e+00 4.1386232375183329e-01 5.8832073751872382e-02 -3.7387038870979339e-01 -1.0292754120279767e+01 -2.6215013020527866e-02 -3.1410931824510158e+00 3.7638067402607760e+01 -2.3990016407115491e-01 -5.7723442036222856e+00 -2.2432491774949781e-01 1.5262032151130571e+00 2.5477995696332916e+00 -1.1760636846030321e+00 2.9223068678463625e+02 -1.4954281603067887e-01 2.7917730833146970e-01 5.1181584322162932e-01 2.9845997059331468e+00 -2.3033641709238545e-01 9.1621668246530508e-02 -8.0381792403085051e-01 -9.1728741842219392e+00 -1.5557789061047567e-01 8.3376780473784873e-01 8.0718019475752953e+00 3.4243023668830697e-01 -2.9994473155355026e+00 1.3175512639087774e+00 -1.5888986862806886e-01 -4.2364883500217099e-01 -1.2952543336037126e-02 -6.4153681437933187e+01 7.4949686725683273e-01 -6.0873676356613904e-01 4.2911120723015861e-01 -6.1212760921884746e-01 1.8194667186314462e-01 -3.7214221304281603e-01 -1.1009982155126763e+00 4.8073584285009474e-01 1.2720656326478674e-01 -1.0183806431849938e+01 -1.0106180121496417e+01 -8.7273324727671930e-01 -1.0631645965981860e+00 -4.2459669743373185e-01 -2.9736871290419242e+00 -8.6568055139452635e+00 6.4129562396539153e-01 -1.6856386325263870e+02 -5.7979073458157471e-01 -1.6849963990585426e-01 -1.2252963034080899e-01 4.5484558913799944e+01 -1.1207245601961979e-01 -1.8113731039067886e+00 -7.2879829928938378e-01 -6.4630761398696990e-01 -5.2007223330449115e-01 8.4159695799196310e+00 2.2904423468807281e+01 -1.5481375303213722e+00 4.0799030888177938e+00 1.9457194146321051e+00 -2.7319708634188165e+00 1.9611257603656369e+01 2.6986426176735634e-02 6.5016069837345105e+02 9.0292156244470601e-01 8.8779192874815749e-01 6.8305952063772679e-01 -6.0466699869972310e+01 -4.5807498542625602e-01 6.3697975591515466e-01 -2.2801102465125562e+00 -2.7813282504843755e+01 -5.4947075946971546e-01 1.6118258929513232e+00 -7.2261998272302208e+01 -8.5665795022611224e-01 9.1722845962717834e+00 2.4614918094355875e+00 -4.9021555719185654e+00 1.0283452553768013e+01 9.5530148764164213e-01 4.9933154917569618e+02 4.3385368969533555e-01 7.0211599758115373e-01 1.4787193538971479e+00 -2.6095165938345822e+01 -3.7795117934884959e-01 -9.4433454363293734e-01 -6.7842318478363950e-01 -1.9814589734501297e+01 -4.2858838195455259e-03 5.5901882886807925e+00 -2.6437594850956788e+02 2.6153529161382105e-01 -3.9209230644482136e+00 -8.2274038392320636e-01 3.6423748712124360e-01 -3.8789433006573120e+00 2.1063459359612624e-01 -6.9396531928194198e+00 -1.1221874814481994e-01 -3.6251682759305653e-01 3.0925349377938205e+00 -1.8017860093646295e+01 -2.2683255900346158e-02 -1.3166273714131549e-01 7.2949056651283695e-01 1.1260413404205316e+01 2.5104622863277035e+02 
      </Row>
      <Row Index="14">
        1.6154857386744936e-01 8.2313172850404492e-01 -1.2904963582045070e+00 2.9891451352654030e-02 -2.3285499712412161e-01 -7.1175154988281975e-02 1.5754065117065627e-01 1.1794475729618104e-01 -2.9822538951890465e-02 6.9608752939794085e+00 2.2020064309913323e-02 -5.5250877888418870e-02 1.1670940349176817e-01 -1.8825699512263627e-01 1.3818967554082739e+00 6.3533307935585981e-02 -2.3111205664747558e-02 -7.1469185602472862e-01 -4.0434298138638559e-03 -3.9660122430787309e-01 1.1615167171506915e+00 -2.7648277290423951e-02 4.8424275441696474e-02 1.1126758062200270e-02 -4.5963159022684580e-02 8.6489750893523537e-02 3.0490161432448364e-02 3.3841202268430632e+00 -1.1184365925121759e-01 7.4146614656864993e-03 1.5691926302644338e-01 1.5003374200649450e-01 -5.1983494741169767e-01 9.7597402771438038e-04 7.1132259839315308e-03 8.2743484468809037e-01 -1.8651224456689047e-01 2.0087906540913122e-01 -1.5180172194982333e+00 -9.9504960935478323e-03 -5.3675129248138154e-01 -3.5585054803531357e-03 2.7866545301745982e-02 8.4427951935341805e-02 1.4316241867725246e-02 9.9464182097302576e+00 1.4407324507729288e-02 -3.1538022942731066e-02 -6.3939152823303036e-02 4.9903325723494385e-01 5.8686018818378760e-02 3.0006396268510038e-02 1.3993045839086893e-03 1.4179907551038395e-01 -7.1080629338043932e-03 -1.0052939498685021e-02 -2.6795525274179539e+00 -1.8890205530015580e-02 3.0161704202529116e-01 2.4943303409907192e-02 -1.2508184096061795e-01 -4.5175759844781435e-02 1.0058493044410810e-02 -1.0735314430576139e+01 -4.3202993331200590e-03 1.7557416399328406e-02 -1.7286902397676496e-02 5.4271476855442091e-01 -4.0178369145961440e-01 1.1982109656363388e-01 1.4633880055361592e-02 -2.7293827284803029e-01 -5.6211423543483831e-03 3.2892904094064379e-01 1.8471809825683305e+00 -1.7429994845644385e-02 -4.9647588523456954e-01 -1.2357903922938243e-02 1.4045092133838341e-01 1.7440977051062553e-01 -3.5225207838417483e-02 6.4876732604378713e+00 1.4206019673585202e-02 -1.2369160855690384e-02 1.2193065732543898e-01 -2.4467773242854540e-02 3.1583442997367689e-01 -6.3304485915578884e-02 2.9700616842455257e-02 1.4316310418488154e-01 1.2112410338299802e-02 -5.6464786570039316e-01 2.5338548450963572e+00 2.1916689389865879e-02 5.3298889657321202e-01 1.9559327094226822e-02 -9.8324873885058062e-02 -1.3006167953076547e-01 -1.2699413191400194e-02 -4.6776723574284329e+00 -1.0009583911836936e-01 -1.0696684847672791e-02 -6.6141022978262853e-02 -2.4502248827486695e-01 -1.3725663943023347e-01 8.4446950766492945e-02 6.3241774460611702e-02 4.8640127591947468e-02 -1.2388711986267270e-01 -1.0770772754613556e+00 -2.3015540199964608e+00 -2.2479995848091350e-02 6.5751963468952845e-01 -6.1432847161605367e-02 1.0480165349521028e-02 4.5318984576393118e-01 -2.6629145497714141e-02 1.6703517050067909e+01 -1.2422506911679898e-02 -3.0139429307508188e-02 2.4303670903968855e-01 1.0512868320551185e+00 2.3473598266837398e-01 -1.6623870090294823e-01 9.1895132605705199e-03 2.6292574930466373e-01 -1.0152494289052097e-01 8.3433858338383970e-01 -1.9356995764655984e+00 9.1392041474555152e-02 -5.8679599620073386e-01 6.2381812428212335e-02 -8.2978666770721216e-03 -2.8618008675353235e-01 -7.1731744642989911e-02 1.2343046269248092e+01 7.0162868170622089e-02 2.8679731772152772e-02 9.5574183649712818e-02 4.2781067268410644e-01 3.9623252267052644e-01 -1.3973364536604232e-01 4.9950281928825335e-02 -1.7274684467931500e-01 -2.5301721063498428e-01 1.0574150538152238e-01 -8.3150537499717316e+00 4.7597283423366096e-02 -6.4059397238730817e-02 3.8219109396185613e-03 -1.6260267082837676e-04 1.4990859212042626e-01 -7.2143020082009013e-02 1.9807755038224499e+01 -7.8554637028993568e-03 1.4753447123040622e-02 1.8644471389818365e-01 1.6783803102201469e+00 4.1948229378133922e-01 -1.9027895512337201e-01 3.0268596205353493e-02 -1.5089317906155664e-01 -2.4010778331978240e-02 -5.7196930779014110e-02 -1.8025332899398450e+01 -5.1764582717313450e-03 -5.7000185250189836e-02 2.0509833248470027e-03 -3.3292393598024633e-03 9.7967991888890354e-02 4.5758666569769776e-03 -6.9797462140395741e-02 1.3421827812771755e-02 -7.5072072634480014e-03 5.6261725014345265e-01 2.5005861990231245e-02 4.0569987154453674e-02 2.6183697455279209e-02 -1.3569043972655825e-02 1.6751850989637418e-01 1.7347369861137160e+01 
      </Row>
      <Row Index="15">
        -8.7862784519330717e-02 8.8284699217144791e-01 -8.3713249779435728e-01 -6.9064546260449333e-02 2.2257435533833814e-01 -3.6079601614079593e-01 5.5230591156765138e-02 -9.6370034437593982e-02 -1.7827601327581988e-02 6.8064720982442086e+00 -2.2292292108170386e-01 -8.9103812387929901e-02 -7.2195109805306856e-02 -4.6184304052268110e-01 6.3533307952955198e-02 1.4863040901595923e+00 7.7096137875770410e-02 -6.8801359131794015e-01 5.1335724692217075e-02 -1.8719557156272304e-01 -4.9792669702439074e-01 -5.0211108131629559e-03 -2.0154481457415596e-01 2.3043984450609289e-02 -5.7978389176380554e-02 2.6305250614524711e-01 -9.0777966093110989e-03 6.9405212750096190e-01 6.9068904754389177e-02 -4.7788653401072967e-02 3.0883214486534760e-01 5.6785183517617854e-01 -2.8180344347750373e-02 -1.3084547374899563e-01 -5.5198316380808833e-02 1.0808301265236704e+00 1.0717749155883666e-01 -2.0380317186185232e-01 -1.4399907965475904e+00 4.9606178383547923e-03 -3.4328180255390184e-01 3.1792380253956787e-01 -7.0921572647368425e-02 9.0658181532177112e-02 1.8751251154664143e-03 -1.4020111127676673e+00 2.9394279787342759e-02 3.1417484081751497e-02 9.5223233719311587e-02 -1.1377889291567267e-01 4.2877883300254424e-02 2.7203330717101359e-01 -2.6172310272601518e-01 4.5605474928173795e-01 6.0672631750849991e-02 -7.6126603327803521e-02 2.8539265421061213e+00 7.2036865779224191e-02 -2.1116338781319782e-01 7.3479886544325537e-02 -1.2493952541019246e-01 -1.8138935187287902e-01 -7.4657751351483448e-03 -2.0060376206048858e-01 7.7232593661791943e-03 3.3450991455408474e-02 -7.8565959255617046e-03 1.0770249434572019e+00 9.8501804965213130e-02 -3.4824761868139065e-01 -4.6478181602435081e-02 -4.3480061124187053e-01 -4.8122221334050592e-02 -5.6039419518959702e-02 -5.6135171662717021e-01 1.7896860880351698e-02 2.4271398584329279e-01 -8.2226404702187478e-02 1.1340207226671524e-01 1.5951887531696826e-01 -8.8780512547786419e-02 1.0977291555123687e+01 -5.5577005128443768e-03 1.6522697721126349e-02 -4.8956614302837625e-02 -1.5830480447300649e-01 -5.1349746205712754e-03 -9.7269493887822731e-02 -4.6798400929135286e-03 -2.4415875457206182e-01 4.5888894610562059e-03 5.8456717355492649e-01 -8.9226903346389008e-01 -1.3216754605924114e-02 1.3611793394723787e-01 2.2898953285711884e-01 -2.0994096209504126e-02 -1.4712226885786217e-02 2.6592732490864912e-03 -9.6871769324582004e+00 5.5585795829886153e-02 -1.1688285259444001e-02 1.0450853001790295e-01 -7.2782356790786373e-02 -7.6989243938298868e-02 5.5916291131825857e-01 -2.9887923719548315e-01 2.4468908118330424e-01 1.2545741681927450e-01 9.7790140997052979e-02 -4.7210228200673754e-01 -2.7528740441093907e-02 -9.0584997470546283e-02 -6.6402154516922079e-02 -1.6527346862762776e-01 6.0705391378509121e-01 -1.3471038035302231e-02 1.9711522427708761e+01 -1.1837270559218044e-02 -9.1492720151482229e-02 1.7092573639879072e-01 8.8530333281280571e-02 -2.1456200586174379e-01 5.9892828831958522e-01 -2.4715763889682690e-01 -7.8296014336354247e-03 -8.5463039525495110e-02 -3.8365418545216118e-01 -2.7886479826802888e+00 1.1408333546880972e-01 -2.1100149695201659e-01 -9.4999488614894503e-02 1.0359920216915974e-01 -3.1210383243492384e-01 6.7730386739147497e-02 -8.7246420760328576e+00 -5.1143266966555981e-02 1.6498702838688761e-01 -1.7151437887646356e-01 -6.9763652067486071e-01 1.2061288759055122e-01 -4.4303977972993736e-01 4.5523539149801895e-02 -1.1340024520455287e+00 7.7325438633604693e-02 -3.4459932070969163e-01 -7.8756297786691078e+00 1.5039304525075459e-01 -3.7448973715250716e-01 1.2640616017904288e-01 -5.8142770954149658e-02 2.1422408707436852e-01 2.8846958298864966e-02 1.0323161261878070e+01 -2.9677459980242349e-02 1.0869750075029655e-01 8.5108407602814129e-03 6.2568384980927316e-02 1.1654731591487395e-02 -6.6808493075566189e-02 1.8274819507763801e-01 -6.5062462817207134e-01 9.3292408768150797e-03 -5.5130903941620346e-02 -1.5320923223445881e+01 9.8464644049053342e-03 1.7761489105865980e-01 -1.6339179996431291e-01 3.1859368409035256e-02 3.7417747196872297e-02 1.6722426607132024e-02 9.1303190630959735e-02 1.0778674326954070e-03 2.3163990133520829e-02 1.7401128410893518e-01 9.1131854853511288e-02 2.8214478814211498e-02 1.9633730345652517e-01 6.1305041149084569e-02 -4.0938066842692744e-02 1.5221865371428409e+01 
      </Row>
      <Row Index="16">
        -2.8364820027657345e-01 -5.6121225517929973e-02 -1.5043351776790814e-01 -4.2246179311220544e-02 6.6284381896423383e-02 1.5564057731762659e-01 -1.2882045141167101e-02 -9.9326708851632972e-02 -2.8192186955664056e-02 -5.8697556661441408e-01 -1.3823636728830024e-02 6.5126552683594088e-02 1.5625170121620613e-01 4.9098384320035382e-01 -2.3111205588222106e-02 7.7096137921955687e-02 1.0040731919168593e+00 -3.5661558702486218e-02 6.1555081626762778e-02 1.7146216162956357e-01 -1.3332322004477248e-01 -3.2046865660912180e-02 -4.1220886914729395e-02 -2.9083085563330120e-02 9.9754071333555461e-02 9.0023305137425291e-02 -4.2118695163245595e-03 -1.5171598358718628e+00 2.1193210237105999e-02 -3.8785268500470857e-02 4.2452754444523344e-02 -2.8992412392170175e-01 7.2454468352667278e-02 -1.4944958301270897e-01 1.0353950887223498e-01 1.2065748679854238e-01 6.6040047083440967e-02 -3.3041222847905255e-02 -6.0126562211280543e-02 4.0295486040544289e-03 7.8146442707046515e-02 -8.9668276162349472e-02 -9.3497849558635465e-02 -1.1618955401237108e-02 -1.4340105641084788e-02 -3.8198826512187924e+00 4.5554897481399322e-03 -6.6283620120778479e-03 -2.5164176249260539e-02 -2.3240615317102514e-01 1.7388014102157644e-02 -8.6286394275359585e-03 -7.4709810768398843e-01 -3.8137656529015018e-02 -1.5724466906948106e-02 3.5940976421173845e-02 -5.3905058783998694e-01 -5.5149890630055695e-02 -3.3612852645525555e-02 -5.4820621900799574e-02 9.2710754359167195e-03 -6.2350956479733391e-02 -5.4588958812843147e-03 -3.9782296021228429e+00 -3.8836339578007514e-02 2.0890524707187424e-02 -9.7910646495541459e-02 1.7584569814049592e-01 -2.9652222316131512e-02 8.6057851526262316e-02 -2.5217371434110131e-01 8.9625207796328321e-02 -1.9714716152119612e-02 4.1956419597257461e-02 1.6576376201039356e-01 -1.8541504728445721e-02 1.3895038256466216e-01 6.7734998274374715e-03 -9.0229651425081880e-02 4.0324703861480016e-02 -3.1918096796160630e-02 3.1336286086807865e+00 6.0554952224262659e-03 -3.3218978806625818e-02 3.7850383292493461e-02 6.6638718376826722e-02 2.9434613226396327e-02 6.1975582668814921e-02 -1.2850567866508672e-01 2.4755669861814322e-01 -1.1497813392695935e-01 -6.9534395570972102e-02 -6.8806128671712941e-01 7.9845944059144941e-03 1.8086907535513924e-01 1.3943997859830332e-03 -9.0958011536966560e-02 -7.2241002276250535e-02 -3.1154383968279749e-03 -3.3672218360193429e+00 -8.8869656892630843e-03 -2.8236096344426831e-01 -3.3753392167797970e-02 2.8457572639918194e-01 -3.5816071167467010e-02 -4.5483039606682776e-02 -1.5777547442551373e-01 -3.0257709043528536e-02 3.4117543305421674e-02 7.6787565225141241e-03 3.0058497587402705e-01 -1.9798523383922587e-02 1.5826537625994591e-03 9.3725325786759114e-02 1.5603595728459671e-01 -1.1848823894623810e-01 -5.3457164908682728e-02 -7.1833037381570950e+00 1.3827328740406562e-02 -6.4965682804239061e-02 7.4044331824914766e-02 5.4737771495695020e-01 -2.3044425310353028e-02 -1.6325363363209641e-01 1.8960836855990096e-01 2.4386980872531439e-01 -2.0354682811907196e-01 -1.3676993077696900e-01 2.6898051971883414e+00 -8.7031064742484676e-02 9.7653034791494842e-02 6.3151734851099206e-02 -2.9900494992571081e-02 2.6082114554379981e-01 -6.7849009379572278e-02 2.1197582313009448e+01 -2.8675416992038832e-01 -2.3249379699775682e-01 1.0100532993995393e-01 -4.0727732849965059e-01 3.2327206781281322e-02 2.1457935426927549e-01 1.0526522772650104e-01 3.7522591388426640e-01 -1.9178598365829247e-01 -1.5272361414831898e-01 -5.2576764809940713e+00 -1.4508379168377253e-01 1.4410639624302346e-01 6.3907732242445919e-02 4.8372538795801057e-02 1.6619366148106315e-01 -1.1966607154631009e-01 1.2134095243897161e+01 -2.6982646681775768e-01 -2.7922290220799811e-01 1.0211973188498374e-01 1.9038476774739355e-01 7.1843792851264965e-03 1.4829790224719691e-01 8.4078364390889138e-01 7.1996350991528191e-01 1.3903270671190911e-02 1.7733969506206648e-02 -1.7540298261467303e+01 -1.3170695947445027e-02 1.3308098665017087e-02 3.4105388753148357e-02 -4.0584154315928371e-02 -2.2435196089107545e-02 6.3684710835141146e-03 -9.0396509664855185e-02 -1.7875435473021090e-03 -2.0686302494645104e-01 3.7251364934558012e-01 -1.2438482755582078e-01 9.3115048651348821e-03 -2.7480534098230446e-02 1.9519752063671578e-01 -5.6009749321924474e-01 1.7726064565313425e+01 
      </Row>
      <Row Index="17">
        -4.8108824994710631e-01 -3.1330211539981354e+00 2.5023017608082228e+00 -3.7224998965753002e+00 3.1797332342071059e+00 -6.5872130639036186e-02 3.7052029427850686e-01 3.3543122695328975e+00 -1.7860482934929678e+00 -1.5516686855933710e+02 1.0097678026122594e+00 7.8487868780712233e-02 -6.1690420315790107e-01 -2.3916685214276794e+00 -7.1469190077203848e-01 -6.8801362764770602e-01 -3.5661601316178348e-02 4.3841016807639971e+02 5.5525405381204906e-01 1.7388165626814356e-01 1.2726360086322128e+01 2.0533301308441070e+00 -1.0562446230311577e+00 2.6753244672647704e-02 1.9332484779789847e+00 -3.6168294674511987e+00 1.0413799301641757e+00 5.9202127745167459e+01 1.3018496054366882e+00 4.3934516997814627e-01 -1.3584972139061717e+00 3.0258936777180487e+00 4.1670022216623848e-01 3.7953990651267366e-02 9.3364066165378090e-01 -3.8387606627886390e+02 -6.9039644237934006e-01 -4.5887091161919358e-02 -5.5435186921386048e-01 3.8987950823407524e-01 -1.4326259884505452e+00 -3.4731315818898406e-01 -6.2201786265119841e-01 -3.9833184324284767e+00 6.7761745207311108e-01 -5.6327630567667853e+01 -8.7002898532148787e-01 -5.2185713151396818e-01 -1.4586523767371178e+00 3.2500559596887939e+00 8.8116429493259263e-02 -1.8967317729945521e-01 -1.6169157561544556e+00 -3.0448824517938963e+01 -1.4968263068629613e+00 1.9026959036137621e+00 1.0292302941788101e+01 7.7257819987430238e+00 3.5737548673506492e+00 1.0319960792120551e+00 1.1579828028837635e+00 7.4038642006670008e+00 -6.3641312058861588e-01 5.6946335484175890e+01 2.8216168482677828e-02 8.0787486545354537e-01 4.8497871563778683e-01 -6.6573931131190225e+00 -4.2902344380985347e-01 -1.2785559160070168e+00 1.5044218102365448e-01 -7.2051280426579524e+01 -1.6418211345432063e-01 -1.7427545315045800e-01 -1.1263127161538034e+01 -1.0988393719047023e+00 1.3750025866262550e+00 5.8906446473377516e-01 -4.6878149008085274e-01 6.4132156250590500e-01 -2.1722241124351438e+00 -4.5373601918583674e+01 6.9809337836564156e-01 1.0584712076372687e+00 -2.1475809522871714e-01 -1.0060629124378583e+01 -3.8834144004994953e-01 1.2104542837227394e-03 -2.0045162837430430e-01 -1.0129478832381658e+02 3.8319574518299704e-02 6.0949583187145118e-01 -9.7876144324691268e+00 4.1611926042237135e-01 1.2961303286935344e-01 1.1300257409919821e+00 4.9046222164515041e-01 2.9282857073747346e+00 -2.5899737554699276e-01 1.0274080654763765e+02 1.2611078591947928e+00 -1.2623205855661229e-01 1.7626225793614656e+00 1.8797795357208829e+00 -8.4922275874227182e-02 -2.9492009358703197e-01 2.2797769540236268e-01 4.9534797804435250e+01 -9.8556078359191002e-01 1.3264322624473364e+00 5.7073831500582459e+00 -1.0287803664678439e+00 -4.5504265837104918e-01 -2.3832293387564668e-01 2.1366142225440270e+00 -8.5553884541261631e+00 -1.6658818902960524e+00 -2.4476148784057509e+02 9.2852955920825009e-01 6.5542041658884864e-01 -2.4909130096262899e+00 -3.7335821973010166e+00 -2.0035587129249022e-02 -1.0497769622992004e+00 -3.4921955152505157e-01 -9.5696226368615157e+01 -7.4654696855022129e-01 2.0481715102300826e+00 -1.6354938473838558e+01 -6.8934699909157748e+00 1.1838945546394184e+00 1.7532705054014723e+00 -3.9861900310872880e+00 -9.4655072063704644e+00 6.5131151937219478e-01 -4.9780403882537178e+02 -2.0511408644611451e+00 -5.1694062539361418e-01 1.9963358993096989e+00 -6.2239267910199354e+00 -8.0875404451248212e-01 -2.1130354503462323e+00 -5.1989894117961022e+00 -9.0678703101943171e+01 -2.4878370019391247e+00 4.8876089428245457e+00 -5.5288040592767970e+01 -1.2983683084803417e+00 2.5756725723694176e+00 2.9204020431967823e+00 -6.8546398989112201e-01 -9.5216972746004167e+00 -1.6392425881130439e+00 -5.4687727157898769e+02 -1.1782331752252428e-01 1.0834538246821186e+00 3.9768568245731117e-01 -1.7135287737772217e+01 -1.1172158597997845e+00 -3.6111130317880686e+00 -3.9671240035443569e+00 -3.0731031335555826e+02 -1.0985341052036979e-01 9.9740132289491612e-01 -1.0888481545383489e+02 1.2520979551969347e+00 5.0395151955092654e-01 -2.2314010606063128e-01 -5.6333123440641597e-01 -1.5035822145615674e-01 2.4707027206224741e-01 1.4890576273008187e+00 -2.4940748819561975e-01 -4.1518419883731017e-01 -3.7092434148545248e+00 -1.4830526428053739e+00 -2.6019575122171568e-02 -1.7308509160502972e-01 4.8991760236588522e-01 3.4380884830444404e+02 -2.3137572655042729e+02 
      </Row>
      <Row Index="18">
        -4.9956477114551490e-01 5.3075693723671491e-01 2.3713444442024070e+00 -1.0318480676281183e-01 -3.2341899663620666e-01 -2.8550288284350245e-02 1.1037791898525334e-01 2.4044223248325600e-01 -2.2855113877540134e-03 8.6302919189168770e-02 -1.2185272447652551e-02 -1.7429783682700872e-02 -2.4144074228388490e-01 -2.7632582265158745e-02 -4.0434299164999743e-03 5.1335724596754062e-02 6.1555081452041804e-02 5.5525410153495613e-01 2.0286496455030116e+00 -3.5301935365679199e-01 -2.3372686050047959e+00 6.7799412111108959e-02 3.4971585103993558e-01 -4.2565130894252470e-02 -2.0258148765431472e-02 -1.8189811940891182e-01 2.8721942569023828e-04 -4.3401403342088756e+00 9.2646235090977913e-03 -1.2729411356287641e-02 2.5715588675950585e-02 -9.7589626082512829e-02 -2.1739114218921260e-01 -6.2334013505395526e-03 -5.3178582094143972e-02 -8.8869425601516205e-01 -1.7173199695981545e+00 -4.3497715070387555e-01 -7.8431093990502632e-01 2.1488822472491058e-02 -9.4683465227892283e-01 -9.4955092771112790e-02 -1.5166559968443044e-02 -1.2076607966953784e-01 1.0965538683846782e-02 2.9401545623802994e+00 -4.1467594916326747e-02 -5.1467976559426261e-02 1.5378447857332783e-01 1.4844113248921653e-01 3.8005016098420198e-02 -6.4924084579867342e-02 -2.3742663662528968e-01 -1.1190054545928085e-01 -1.0632995020262417e+00 -5.3811961937097430e-01 -1.3014788699114357e+00 2.2354579715474185e-01 2.8458313719854655e-01 -9.6252458192657472e-02 2.9452037474463066e-03 5.6008152957017568e-02 -5.3695066108882025e-03 -8.3847092278307311e+00 -8.9172590543409008e-02 -5.7705512311328373e-02 2.2797905349796865e-02 -4.5087336765535657e-01 7.9903932007526199e-02 -3.7904562126838494e-02 -1.1991026204888092e-01 -4.8523570115802439e-01 4.8795067220821731e-01 4.4265318859638980e-01 1.8648871394628816e+00 -5.5653618474830545e-02 -2.8871733200362704e-01 -1.2764913017576901e-02 -4.7146873759970176e-02 1.0105787390493606e-01 5.2951901562429501e-02 2.5174641890491367e+00 7.3026089542662515e-02 1.6165158412075706e-02 -9.3842858551511199e-02 3.2662921729387218e-01 -8.0044254799219949e-02 3.3620736657627139e-02 9.6405803757010272e-02 -3.0082829876156403e-02 4.8741921167501090e-01 2.2784346968753952e-01 -3.0495692907970806e-01 -2.0064214492085026e-02 3.2926990464064870e-01 2.5263448289204982e-01 8.1494238440458500e-03 1.6954760654346965e-02 -2.3610398703936650e-02 -2.9850487350070884e+00 -1.1403413734385724e-02 7.5938097845739128e-02 1.4755764428752610e-01 -9.9803320931124484e-02 6.5965300733637600e-02 -1.4000364115255126e-02 2.4478356396760234e-01 3.6522261402891942e-02 -1.1549217004865739e+00 -4.2570715378936114e-01 -4.8072594452002182e-01 2.7662860631177053e-02 -1.0101309874741169e+00 -1.8120757465148696e-01 1.8611061391763870e-01 1.0115921850647690e-01 7.0987159325427179e-02 -7.2863270852723669e+00 -9.1316966594514638e-03 -9.6623863997887111e-02 -1.2209506379614393e-01 3.0600313668284451e-01 7.3388624390846161e-02 -8.0807548627710807e-02 -2.4488356025615110e-01 -1.1080509669846252e+00 -2.5255946748604097e-03 -3.8041789507714929e-01 -2.8844108720921824e+00 -1.1336482564073186e-02 1.0483484768084663e+00 -1.4436196799969589e-01 -2.4732344697307168e-01 -2.8492421164056547e-01 1.3255537171713283e-01 -1.1745529156215948e+00 1.4356229845236201e-01 -1.5136373517156965e-02 1.5940007052322902e-02 4.2170394799062644e-01 -3.8235039983477548e-01 2.4285707884700858e-02 1.8826380394423203e-01 -1.0558963543909012e+00 -1.3793174164553426e+00 -8.3217418321555336e-01 -1.1178377763204963e+01 1.6082937372406197e-01 9.7929925937990603e-02 -2.8702621731539713e-01 -7.2090100350435324e-02 -1.6809502617966998e-01 2.0427025401273607e-01 -9.3349483698144802e+00 1.0028053140810028e-01 -1.5479491183457456e-01 1.3683602838238895e-01 4.3227589552966517e-01 -3.0492710627062480e-01 -3.3699191910045445e-02 -3.9654527562510311e-02 -2.5161651871367905e+00 -2.6298502812036617e-01 6.8849120928103247e-02 -2.1169094293973682e+01 2.4289102178410120e-02 -4.8056369248513614e-02 -5.6349705264903904e-02 -2.8554086381768769e-02 9.8975906352902848e-02 -1.3557189968126021e-02 -2.5153085989356946e-02 4.4149631938896761e-03 -6.9246529140653268e-03 -3.3406242350109833e-01 6.4371072964073031e-02 -2.7830062473771580e-02 -2.7516742829736957e-03 -2.8437314097680303e-02 1.3274410912782435e+00 2.0141678021860624e+01 
      </Row>
      <Row Index="19">
